svm_type c_svc
kernel_type polynomial
degree 1
gamma 0.03125
coef0 0
nr_class 10
total_sv 17866
rho -0.71380992346611238 -0.7553496351192942 -0.60272233289422361 -1.1077314401862575 -0.8378078439903236 -0.82182048914712702 0.11619566331203025 -0.89377627570062579 -0.73254885619822463 0.001788538772853448 0.20610856860589694 -0.90259203182778369 -0.32509221199140564 -0.29209549953506775 0.76312521016304191 -0.71931921169520641 -0.14917419076899391 0.1488003972378602 -0.86531315037705514 -0.32486795623110948 -0.28413359255730058 0.76304078714165025 -0.67106881605075241 -0.0537292154877674 -0.91673605856571461 -0.42803889280082369 -0.39311569568315319 0.62790006711724633 -0.73028102355175439 -0.15869763769333436 0.91088105746682657 0.83240416922292981 1.0719069045479708 0.47499737374700562 0.88412007848879304 -0.10712882831256625 0.83764158965158819 -0.5769097538641349 0.21584150690907722 0.82258418436499847 -0.67233672677348566 0.25535781800424523 -0.92684185626529969 -0.76866082164764138 0.62913638066196453
label 0 1 2 3 4 5 6 7 8 9
nr_sv 2014 1979 2080 1560 1543 1806 1697 1992 1582 1613
SV
8 8 1.8546384584910316 1.3244626336666641 8 4.2923579611638072 7.6678606342508022 0.25572612234775227 5.0204982077914018 1:1 2:1 3:1 4:0.14285714 5:1 6:1 7:1 8:1 
1.648496630248738 3.3032027346119088 5.7330909297898422 4.1776609654932697 2.5420893628760308 3.7386101379920818 0 2.5826326292364445 2.5348379470061633 4:0 9:1 10:1 11:1 12:1 13:1 14:4 15:1 16:1 17:1 18:1 19:1 20:1 21:1 
0 0 1.8194837477953301 2.2412153367851926 0 0 0 0 0.7638397244394789 3:1 4:0.11764706 20:2 23:1 24:1 32:1 34:1 37:1 40:1 45:1 46:1 47:1 48:1 49:1 50:1 51:1 52:1 
0.74743965265910073 1.4056422281936021 4.6698724305699262 0 0.052785689552498807 0 2.9305035491039964 0 1.9041871005633577 4:0.21428571 5:1 26:2 46:1 51:1 53:1 54:1 55:1 56:1 57:1 58:1 59:1 60:1 61:1 
2.6810089794924634 6.1386714928128967 5.2538590781669878 1.0372791627802027 1.9714052831419413 3.9564247236435235 2.9495467204440593 0.932358959161803 1.6516703698394923 3:1 4:0.096774194 14:2 20:1 23:2 25:1 26:1 34:1 39:3 42:2 43:1 44:1 45:1 46:1 47:1 62:1 63:1 64:1 65:2 66:1 67:1 68:1 69:1 70:1 71:1 72:1 
8 8 8 0 8 8 8 0 8 4:0 9:1 14:1 61:1 73:1 
8 8 8 0 8 8 8 2.2677294915913024 8 4:0 31:1 74:1 
8 3.7248439068897854 0 0 0 0 8 0 0 4:0 39:1 75:1 
3.2951409831740692 0 8 4.6337426376164323 3.8878719746280059 3.8677468518734903 8 0.54728926235672681 8 4:0.125 9:1 14:1 26:1 42:1 76:1 77:1 78:1 79:1 
8 8 8 0 8 8 8 8 8 4:0.5 51:1 80:1 
0 0 3.2616352814970377 0 0 0 0 0 1.5864137217475416 4:0.22222222 5:1 14:1 26:3 42:2 51:1 61:1 81:1 82:2 83:1 84:1 85:2 86:1 87:1 
0 0.030017975979816442 1.3439732200611221 0.058177456953849425 0 0 0 0 0.92227266076492243 4:0 9:1 14:1 88:1 89:1 90:1 91:1 92:1 
1.0162794352890707 4.727360293310082 3.5504397615346153 4.1437155388524829 0 0 1.8471228488411555 0 0.11670541255959474 4:0 9:1 89:1 93:1 94:1 95:1 96:1 97:1 
0 0 1.3311740162050976 0 0 0 0.77290105638541751 0 0 4:0 14:1 16:1 83:1 89:1 98:1 99:1 100:1 
0 0 0 2.1450823199378264 0 0 0 0 0.62619495425099947 4:0.18181818 9:1 14:1 22:1 30:1 89:1 92:1 101:1 102:1 103:1 104:1 105:1 
4.3228690607803584 0 0 0 3.9185899392406189 0 3.8264441539614102 0.3598973797092912 0 4:0.2 23:1 26:1 30:3 42:2 46:1 106:1 107:1 108:1 109:1 110:1 111:1 112:1 113:1 114:1 115:1 116:1 117:1 
5.5875573763111559 0 0 2.1288085878173471 6.1990162739676409 0 8 0.58658839755061765 6.6180662678138793 4:0.23076923 5:1 9:1 30:3 39:1 118:1 119:1 120:1 121:1 122:1 123:1 124:1 
0 0.62664308430181093 0 2.041182240209134 5.3640510945819813 2.1815250216662241 0 0 3.5574922867704122 4:0 8:1 9:1 13:1 14:3 23:1 39:1 40:3 46:2 52:1 125:1 126:1 127:1 128:1 129:1 130:1 131:1 132:1 133:1 134:1 135:1 136:1 137:1 138:1 139:1 140:1 141:1 142:1 143:1 
0 0 0 0 0 0 1.0256197652035257 0 0 4:0 144:1 145:1 
1.5403681023394615 0 6.2565266666171793 0 0 0 8 0 4.3523621048673382 4:0 14:1 83:1 146:1 147:1 
8 0 0 0 0 0 1.2400697664979889 0 0 4:0.16666667 13:1 51:1 83:1 148:1 149:1 150:1 
0.0079535857158082538 1.7718906167949924 1.8054498332874174 0.22176119736417221 1.7348592889897478 0.98146844669799271 0.5159535007532996 0.55028401153069739 2.3914844043632164 4:0.066666667 9:2 16:3 23:1 30:2 39:1 46:1 61:3 126:1 151:1 152:1 153:1 154:1 155:1 156:1 157:1 158:1 159:1 160:1 161:1 162:1 163:1 164:1 165:1 166:1 
8 8 0.93868458066275384 0 0.82562967943250343 1.3793074164452126 8 0 8 1:1 4:0.125 30:1 42:1 61:1 107:1 167:1 168:1 169:1 
3.4138075761260587 3.8490018258974135 0 1.2879585776168512 6.2596866690496045 1.0969500065571964 1.8633602600678179 0.74510686243338797 4.2334320679926529 1:1 4:0.15789474 9:1 16:2 26:1 30:5 31:1 39:4 40:1 42:1 46:1 49:1 70:1 107:1 126:1 139:1 170:1 171:1 172:1 173:1 174:1 175:1 176:1 177:1 178:1 179:1 180:1 181:1 182:1 183:1 184:1 
7.9806920260744247 8 8 4.6386651761181712 8 8 8 8 8 4:0 14:1 39:1 185:1 186:1 
4.7168684441923263 8 3.7208553335182346 6.0257349905297231 8 4.065399471622829 1.5167864467508334 1.9877869334624207 8 3:2 4:0.064516129 9:2 14:2 31:1 39:1 40:1 42:1 46:1 61:2 170:1 187:1 188:1 189:1 190:1 191:1 192:1 193:1 194:1 195:1 196:1 197:1 198:1 199:1 200:1 201:1 202:2 
0 0 1.0041171657273122 0 0.039516472071052536 0 1.584712967276573 0 1.4253729084557254 4:0.3125 17:1 26:3 30:1 40:1 51:1 61:1 203:1 204:1 205:1 206:1 207:1 208:1 209:1 210:1 
6.7780763490662652 8 6.7513204954639709 3.0893711794794139 0.59290521377951433 0.57065821022510455 8 0 4.2522878534723967 1:1 4:0 9:1 211:1 212:1 213:1 
8 7.9722589813268838 4.3601747515248883 6.9900044892718478 8 5.8616117299373718 2.5599000481937946 2.7000535278756388 5.9337848129376143 4:0.052631579 9:2 14:1 30:1 39:1 40:1 42:1 46:1 61:1 83:1 107:1 214:1 215:1 216:1 217:1 218:1 219:2 220:1 
2.2211911579102144 0 4.2714986808822788 3.2363564852910534 3.1246274711253283 1.6959702509553947 2.5029464120444715 1.9607787849645899 2.4404870644456302 1:1 4:0.096774194 8:2 14:3 20:1 26:1 30:2 40:1 46:1 49:1 61:1 68:1 84:1 221:1 222:1 223:1 224:1 225:1 226:1 227:1 228:1 229:1 230:1 231:1 232:1 233:1 234:1 235:1 
0 0 0 0 0 0 5.757646367108876 0 0 4:0.11111111 9:1 14:3 30:1 40:1 51:1 61:2 81:1 236:1 237:1 238:1 239:1 240:1 241:1 242:1 243:1 
4.4384115489297233 8 0.64761957195486475 7.8914401002214625 7.0264242054167703 1.6221176457545781 0 1.7606372007346698 5.1352329234216745 1:1 4:0 5:2 9:2 14:1 31:1 39:1 42:3 61:2 135:1 230:1 244:1 245:1 246:1 247:1 248:1 249:1 250:1 251:1 
0 0 0 0 0 0 0 0 0.32942618697642123 1:1 3:1 4:0.2 8:1 14:2 25:2 30:3 36:2 39:1 40:1 42:2 52:1 107:2 136:1 141:1 186:1 252:1 253:1 254:1 255:1 256:1 257:1 258:1 259:1 
8 2.8202092273289079 8 0 8 6.4116911233071612 7.3413333152922178 2.0625685530139504 8 4:0.22222222 14:1 40:1 42:2 103:1 265:1 266:1 267:1 268:1 
8 0 0 8 8 0 2.7345189862904866 8 8 4:0.36363636 5:1 14:1 16:1 20:1 30:4 40:1 269:1 270:1 
7.2909476443332624 3.5628509382135616 0 3.9113637582812277 7.2207878309536637 8 8 2.0104826456338567 0.53505427778839532 4:0.13333333 14:1 16:1 30:2 39:1 40:1 42:2 52:1 89:1 271:1 272:1 273:1 274:1 275:1 
0.37158531516080845 0 0 0 0 0 2.2496336997492912 4.5699921667015841 0 4:0.11111111 14:1 30:1 141:1 276:1 277:1 278:1 279:1 280:1 281:1 
0 0 0 1.7016458960822916 1.8243427231403393 0 7.1061640272673898 0 6.0858273555897062 4:0.21428571 14:2 30:2 39:1 42:1 51:1 282:1 283:1 284:1 285:1 286:1 287:1 288:1 
6.4663587041846391 5.0673621345385982 0.63149863122120276 3.7111961772841662 2.5112857054120736 1.6690256955924354 2.4885574339478094 0.900697301683275 3.1146341051738911 3:1 4:0.03125 5:1 9:1 14:3 20:2 23:1 39:1 40:1 46:1 107:2 182:1 240:1 272:1 289:1 290:1 291:1 292:1 293:1 294:1 295:1 296:1 297:1 298:1 299:1 300:1 301:1 302:1 303:1 
8 3.7701202043333266 0 1.5717435877658077 8 0 8 7.4555550854981956 2.1907762224004452 4:0.28571429 30:2 40:1 304:1 305:1 306:1 307:1 
2.2837229639660839 0 0 1.696989539459745 1.0074010091719552 0 0 0 0 1:1 4:0.088235294 9:1 14:4 30:2 39:3 40:1 42:2 65:1 107:1 265:1 308:1 309:1 310:1 311:1 312:1 313:1 314:1 315:1 316:1 317:1 318:1 319:1 320:1 321:1 322:1 323:1 324:1 
2.0380941236725874 4.7218861147315829 1.9112947314958517 4.0234097969526701 2.2359208903744796 2.8862806969400254 5.0991883851525719 1.3414543797982716 2.1251783994383837 3:1 4:0.1 9:1 14:2 25:1 26:1 34:1 39:2 40:2 42:1 129:1 246:1 325:1 326:1 327:1 328:1 329:1 330:1 331:1 332:1 333:1 334:1 335:1 336:1 337:1 338:1 339:1 340:1 
1.6037048348186613 4.8514654483201953 0 0 3.8423361426527478 0 0 0 0 3:1 4:0.10344828 5:1 14:5 20:1 23:1 25:1 30:1 32:1 36:1 37:1 40:2 42:1 46:1 65:1 197:1 272:1 341:1 342:1 343:1 344:1 345:1 346:1 347:1 348:1 
0 0 0 0 0 0 0 0 2.4567031973584283 1:2 3:1 4:0.13333333 8:1 14:1 20:1 23:1 25:1 26:1 30:1 32:1 36:1 37:1 40:1 42:1 130:1 153:1 189:2 223:1 229:1 230:1 235:1 347:1 349:1 350:1 351:1 352:1 353:1 354:1 
5.247755768885229 8 8 8 8 5.3038568826977643 5.5742521485046739 3.4112781539138339 8 3:1 4:0.15384615 8:1 14:1 20:1 26:1 46:1 70:1 151:1 202:1 360:1 361:1 362:1 363:1 
3.2341011802417414 3.6990145958074971 3.1532602421609925 2.8924140476558278 6.519146932832447 0.23072590854369049 0 0 2.1162901380907289 3:1 4:0.12 14:2 23:1 26:1 39:4 61:1 78:2 265:1 272:1 364:1 365:1 366:1 367:1 368:1 369:1 370:1 371:1 372:1 373:1 374:1 
3.1415412545530188 2.2553959791395632 1.8997589292919785 0.86227636536557717 4.0782691754881899 0.54239456205282 2.6685676565618826 0 2.0147872815331263 4:0.13636364 5:1 14:3 26:3 39:2 40:1 49:1 100:1 134:1 135:1 136:1 375:1 376:1 377:1 378:1 379:1 380:1 381:1 
3.0583670118389965 1.5136552563279184 1.3889581268733329 4.1750771367377624 3.1385139436187379 2.932804125052173 2.0961078694754183 1.2881636833887113 0.70685752474996588 4:0.10714286 14:3 20:2 26:2 29:1 30:1 31:1 39:2 40:1 94:1 123:1 382:2 383:1 384:1 385:1 386:1 387:1 388:1 389:1 390:1 391:1 392:1 393:1 
0.90528427356159547 0 0 0 0 1.8379962405758017 8 0 0 4:0.2 14:1 26:1 30:2 42:1 61:1 240:1 243:1 284:1 394:1 395:1 396:1 397:1 398:1 399:1 
0 1.3126848132522606 4.8072634951610533 0.052207271119167176 4.8053602818859131 5.0320732855725607 0.95610888060002175 0 0 4:0.083333333 5:1 14:1 20:1 42:1 46:1 51:1 240:1 400:1 401:1 402:1 403:1 404:1 
0 0 0 0 0 0 0.12869313746574262 1.975667685034018 0 3:1 4:0.14705882 14:3 23:2 25:1 30:3 36:1 39:1 40:2 42:2 243:1 325:1 405:1 406:1 407:1 408:1 409:1 410:1 411:1 412:1 413:1 414:3 415:1 416:1 417:1 418:1 
8 8 8 2.9515131496855971 2.8376010402394622 5.6342384600491195 8 0.72094674503962675 8 4:0.25 26:1 30:1 61:1 89:1 419:1 420:1 421:1 422:1 
0 0.40085539925757174 0 2.136120909934331 0.28211082507798851 0.95270586363302601 0 0 1.0885806379661942 3:1 4:0.1 9:1 14:2 23:1 25:1 30:1 36:1 39:1 40:1 42:1 84:1 89:1 151:1 239:1 325:1 408:1 409:1 410:1 412:1 414:1 415:1 423:1 424:1 425:1 426:1 427:1 428:1 429:1 430:1 
4.8761823239982345 0 0.94982658510105045 1.6238737568069417 2.9182107327069398 4.1762096388229741 2.9366952556160606 3.9651122800217267 0.5148541522155764 4:0.076923077 14:3 23:1 30:2 39:1 40:1 61:1 78:1 431:1 432:1 433:1 434:1 435:1 436:1 437:1 438:1 439:1 440:1 441:1 442:1 443:1 444:1 445:1 446:1 
4.1650649927336048 1.3142741282340229 4.0410680383025008 1.5159602219028061 2.1839399557930315 3.6102592042011032 0 4.8738163976384099 1.5522552653580584 4:0.03125 9:3 14:2 21:1 30:1 39:1 40:1 46:3 381:1 383:1 390:1 447:1 448:1 449:1 450:1 451:1 452:1 453:1 454:1 455:1 456:1 457:1 458:1 459:1 460:1 461:1 462:1 463:1 
3.039504953808883 0.32108919401640373 0 1.1316449174878944 1.8266016215195282 0.8884883667171396 6.8521453415226734 0 0 4:0.17241379 9:1 14:2 22:1 26:2 30:3 31:1 39:1 40:1 46:1 61:2 377:1 464:1 465:1 466:1 467:1 468:1 469:1 470:1 471:1 472:1 473:1 474:1 475:1 476:1 
0 0 1.4611476748258536 0 0 0 0 3.131950505331377 0 1:1 4:0.13636364 14:3 16:1 30:2 36:1 39:1 40:1 51:1 86:1 89:1 477:1 478:1 479:1 480:1 481:1 482:1 483:1 484:1 485:1 
8 2.6644997492795346 0 2.3673358815947165 0 4.3592495160721016 0.36526254870349906 5.3780407955168288 0.31897650331897132 4:0.03030303 9:1 14:4 20:1 23:1 30:1 39:3 40:2 42:1 241:1 348:1 371:1 407:1 467:1 486:1 487:1 488:1 489:1 490:1 491:1 492:1 493:2 494:1 495:1 496:1 497:1 498:1 
0 0 0 0.2794343283224795 0 0 0 0 0 1:2 4:0.068965517 14:6 20:1 30:2 39:2 40:1 107:1 123:1 153:2 371:1 406:1 407:1 411:1 414:1 487:1 499:1 500:1 501:1 502:1 503:1 
0 0 0 0 0 0.74194342235217547 0 0 0 1:1 4:0.1 5:1 14:1 42:1 51:1 82:1 504:1 505:1 506:1 507:1 
0 0 4.436103536251415 0 0 0 0 0 0 4:0.066666667 14:2 16:1 26:1 39:1 49:1 84:1 151:2 356:1 357:1 401:1 508:1 509:1 510:1 
0 0.63088323594936502 0 0 0 0 0 0 4.8124087662690229 4:0.1 14:1 16:1 23:1 40:1 51:1 83:1 111:1 203:1 511:1 512:1 
5.2052894053544909 2.4324378243624802 1.0568348320528282 2.429852772788633 3.7351398771029563 3.5535746880403574 3.7440154601567097 2.4533510211217395 3.2125351839359082 1:1 4:0.10344828 13:1 14:3 23:1 30:3 31:1 39:1 40:1 42:1 411:1 470:1 513:1 514:1 515:1 516:1 517:1 518:1 519:1 520:1 521:1 522:1 523:1 524:1 525:1 526:1 
0.40267885648449342 0 1.7861777258162173 7.5382859120624337 4.6911166608818569 0 8 0 0.31938252673018264 1:1 4:0.11538462 9:1 14:2 15:1 16:1 30:2 39:1 40:1 49:1 61:1 126:1 149:1 262:1 265:1 527:1 528:1 529:1 530:1 531:1 532:1 533:1 534:1 535:1 536:1 
0 1.6324461313410858 0 0.91764546338740083 0 0 0 0 0 4:0.083333333 30:1 39:2 84:1 107:1 233:1 252:1 272:1 537:1 538:1 539:1 540:1 
2.5539799973459854 0 0 3.877498723410751 2.4074975945782944 1.9254846066116149 2.4223296256703244 0 0 3:1 4:0.22222222 14:2 25:2 30:1 36:2 40:2 42:2 166:1 347:1 557:1 558:1 559:1 560:1 
1.5027854979210351 0 0 0.24812045155982074 2.119233141181128 0 1.9136767004370341 0 0 1:1 3:1 4:0.12 14:2 20:1 25:2 36:2 39:1 40:2 42:1 46:1 271:1 457:1 527:1 548:1 561:1 562:1 563:1 564:1 565:1 566:1 567:1 
3.2899526519098421 6.7471934675474996 0.13217018567782268 3.4324251455490793 4.2329238811703318 4.7350370037677374 3.7227777556156956 0.81675996041467269 3.6725103280001723 1:1 4:0.076923077 14:5 25:1 30:1 39:2 42:2 109:1 156:1 287:1 528:1 568:1 569:1 570:1 571:1 572:1 573:1 574:1 575:1 576:1 577:1 
2.493719530845238 5.1179980490457178 3.7171530879809804 4.4979973422498656 6.4673376576488826 1.5819311552072146 1.6651732837515256 0.98804183873190521 0.47074386048797184 1:2 3:1 4:0.09375 9:1 14:3 26:1 30:1 39:2 40:1 42:1 107:1 189:1 454:1 578:1 579:1 580:1 581:1 582:1 583:1 584:1 585:1 586:1 587:1 588:1 589:1 590:1 591:1 592:1 593:1 
8 8 8 0 8 7.7415819914379753 8 4.3650756519547107 8 4:0 14:1 22:1 46:1 272:1 353:1 594:1 
0.31863526548713583 0.12109576970425914 1.2817026838382619 0.49477945951580815 0 1.2575978223949715 0.50809618428344094 5.3350027500647448 0 4:0.13333333 14:4 20:1 30:4 39:1 40:1 42:1 46:1 86:1 145:1 582:1 595:1 596:1 597:1 598:1 599:1 600:1 601:1 602:1 603:1 604:1 605:1 606:1 607:1 608:1 
8 1.0489229564973612 1.9920423913850156 6.896159572887786 4.3109117400513979 1.3535154754286061 8 8 5.4417954368109296 4:0.4 30:2 403:1 609:1 610:1 
7.2729055825340572 4.850259982027846 8 0 4.6260533958054078 5.185496294169357 8 3.3946876981119676 3.133957083430762 4:0 611:1 
0 0 2.4233415986672853 0 0 0 3.4066936527781588 0 0 4:0.14285714 51:1 83:1 126:1 149:1 174:1 612:1 613:1 
3.7890197835132122 5.3632970626536904 8 0 0 1.8064872948457613 8 0 5.9888794444955709 4:0 614:1 615:1 
0 6.1596102612360797 6.7540134838566486 0.9374685709157986 1.9881265235347787 0 8 4.1726439125311128 0.76029476608495627 1:1 4:0.090909091 9:1 14:1 30:1 49:1 156:1 541:1 616:1 617:1 618:1 619:1 
8 8 8 3.5393810020711127 8 8 8 8 8 4:0.25 14:1 26:1 620:1 621:1 
4.5096108585190073 0 0 0 0 0 8 1.3112337891830519 0 4:0.36363636 26:2 30:2 243:1 622:1 623:1 624:1 625:1 626:1 627:1 
2.2767549833379119 0 0 2.4566930982016419 1.2158390126365821 0 1.4934326365385588 0 2.928276598931145 4:0 14:3 23:1 40:2 83:1 107:1 628:1 629:1 630:1 631:1 632:1 633:1 
0 1.7995361253461326 0 0 0 0 8 0 0 4:0.16666667 26:1 109:1 243:1 634:1 635:1 636:1 
1.2170465154465748 3.9103272621445502 5.7659298264405301 5.0393282549521299 5.9215350062713457 0.021873851371802196 6.558046274253738 0.66592214279036799 4.0767966950804553 4:0.16666667 20:1 26:1 30:1 40:1 46:1 207:1 269:1 637:1 638:1 639:1 640:1 641:1 
0 0 0 0 0.84347935940369467 0 8 0 0.55221232215322191 4:0 642:1 
7.3771502932635764 4.0883568504981973 7.2239694671990691 8 3.0003252433323691 8 8 6.939403329029119 3.462192263234007 4:0 14:1 39:1 391:1 643:1 644:1 
0.092593936385460138 0.81437182337285097 0 0 1.1531215179610061 0.64516962835689573 0 0.91119554140482839 0 4:0.13333333 14:3 21:1 26:1 30:3 39:1 40:1 42:1 46:1 107:1 141:1 217:1 272:1 645:1 646:1 647:1 648:1 649:1 650:1 651:1 652:1 653:1 654:1 655:1 656:1 657:1 658:1 
0 0.49484843424986968 8 8 0 2.7439359848792209 8 0 8 4:0 9:1 14:1 42:1 168:1 548:1 659:1 
3.3373279831668512 0 0 0 0 0 8 2.0056087114285051 0 4:0.44444444 26:2 30:2 660:1 661:1 662:1 663:1 664:1 
8 7.8239882526706168 8 0 5.1859832252280533 5.6956748246193278 8 3.3997310554150948 8 4:0 665:1 
4.7816858062462524 7.1467778368993704 0 2.40817898018024 0 1.1169096613059735 8 0.68850462287675873 5.2901049998769016 4:0.071428571 9:1 14:1 30:1 39:1 42:1 61:1 153:2 272:1 374:1 666:1 667:1 668:1 669:1 
4.622066643623544 4.7642533156815263 6.8776044100080584 2.8552638103828221 8 3.6791699356179945 4.6099931318045364 0 8 1:1 4:0.11111111 14:2 40:1 61:1 103:1 681:1 682:1 683:1 
2.8525071688910306 4.3798994413828591 8 0 8 7.2802599136795711 8 3.6912372781288321 2.3043887429746754 4:0.076923077 26:1 31:1 46:1 86:1 597:1 684:1 685:1 686:1 687:1 688:1 689:1 690:1 691:1 
4.7007844266389718 1.9592010504608992 7.6128744573749128 4.9832514484352872 3.1573126677352152 1.8736738881756794 8 2.9287656653746099 0.71159317810476763 4:0 39:1 40:1 692:1 693:1 694:1 
6.2959551141322416 1.3247048786021405 0 0 2.4238913536460847 0 8 4.5486208498546654 0.74279913877921799 4:0.33333333 26:1 30:2 39:1 40:1 695:1 696:1 697:1 698:1 
0 0 5.7646423501526014 0 1.7330229549288261 5.3155677123864287 8 0 4.0326621439098984 4:0 14:1 39:1 83:1 699:1 700:1 701:1 
0.63022529948613182 8 8 0 4.8987711758720707 0 8 0 3.7008482082876322 4:0.27272727 5:1 13:1 26:2 30:1 61:1 83:1 84:1 702:1 703:1 704:1 
8 3.2945325507025456 4.8575139870052224 1.7011572149766954 6.2227305914775979 3.7884682598132002 0.74116452869356009 1.019960493096447 0 4:0.11538462 14:2 26:1 30:2 39:2 40:3 46:1 61:1 268:1 533:1 705:1 706:1 707:1 708:1 709:1 710:1 711:1 712:1 713:1 714:2 715:1 
8 8 8 0 8 0 8 0 8 4:0.33333333 51:1 262:1 718:1 
1.2412776393103189 1.2177275832358849 3.0142255334890873 0.14002549506873105 1.7407804365523587 1.2524517522324923 5.339957734067128 0.76755320955752004 0.23470778624251007 1:1 4:0.2 14:1 26:1 30:2 719:1 720:1 721:1 722:1 723:1 724:1 725:1 726:1 727:1 728:1 
0 8 8 5.2181059689346556 5.2039007552922127 0 7.1100739445058014 2.9080177376464214 0.59366469187586401 4:0 20:1 151:1 272:1 548:1 729:1 730:1 731:1 732:1 
0 0 0 0 0 0 0 0 0.04335227916141754 4:0.25 9:1 30:1 51:1 83:1 89:1 92:1 107:1 733:1 
0 2.4907376139671085 4.0431802866731941 3.2716627077666867 6.0878344585700299 0.27382203244674053 2.6262441514389261 6.3702184623240763 1.58622638332924 4:0.22222222 9:1 26:1 30:3 39:2 709:1 713:1 714:1 715:1 734:1 735:1 736:1 737:1 738:1 739:1 740:1 
1.1892793892378228 1.4248958995261465 0 0.45357009943224441 7.1073408692191444 0 8 0 6.3076701840617284 1:1 4:0 40:1 107:1 239:1 738:1 741:1 742:1 743:1 744:1 
5.2940535443833214 8 6.6207663253216262 5.4673373769362934 0 6.3639399047933791 8 5.986396607943715 3.9585209510788575 4:0 9:1 193:1 733:1 745:1 
0 0 0 0 0 0 0 0.85576865169736993 0 3:1 4:0.10344828 14:4 20:1 25:1 30:1 32:1 36:1 37:1 39:2 40:1 42:2 253:2 395:1 650:1 746:1 747:1 748:1 749:1 750:1 751:1 752:1 753:1 754:1 
8 8 8 0 1.4884379340655931 8 8 5.512540953976055 0.97971029624002448 4:0 14:2 234:1 755:1 
0 7.8227051355693176 8 0 0 4.1172455040029687 8 0 4.6487272297350852 4:0 759:1 
8 8 8 0 4.4860952983438214 0 8 0 8 4:0 42:1 168:1 766:1 
2.6922767719601191 8 0 0 0 0 0 0 0 3:1 4:0.125 5:1 16:1 20:1 40:1 356:1 357:1 767:1 
7.1091172957242126 3.8219100496202478 0.82733450420826149 0 8 0 8 0 8 4:0.125 14:1 40:1 42:2 51:1 52:1 168:1 768:1 
2.082032492687802 8 5.7665254911942538 0 5.5367257654084279 0 0.13566946783192574 0 0 3:1 4:0.125 39:1 151:1 232:1 356:1 357:1 769:1 770:1 
2.4716942527191099 3.3941462070838404 3.1306801480206645 2.1789708605776057 3.9244567206374477 2.7453893044246573 4.2165442450876744 1.9949773131210229 0 1:1 4:0.071428571 9:1 14:4 26:2 40:1 42:1 348:1 435:1 467:1 532:1 543:1 551:1 771:1 772:1 773:1 774:1 775:1 776:1 777:1 778:1 779:1 780:1 781:1 782:1 
8 0 0.8641768743015158 0 0 0 3.6947249955696626 0 8 4:0 5:1 783:1 784:1 
7.95907866659467 7.1956912775540705 7.5197372108277509 1.0771666462151137 8 6.7543241611279869 8 8 5.5547063589751593 4:0 14:2 107:1 785:1 786:1 
5.2397602617916696 8 7.7185403846747462 0 2.9517299502629051 4.8083226132944956 8 3.8027105038593714 5.0374696416750675 4:0 39:1 787:1 788:1 
1.8328277494613225 0 0 0 0.14230703963252622 0 0 0 0 4:0.11111111 5:1 9:2 14:1 23:1 30:3 40:1 42:1 189:1 196:1 281:1 467:1 667:1 785:1 786:1 789:1 790:1 791:1 792:1 793:1 794:1 795:1 796:1 797:1 798:1 
0 2.2892300590722843 1.9437924476707504 4.1383275431498863 1.1444806151911082 0 0.58460873016919734 0 2.624803723878772 1:1 4:0.055555556 14:2 20:1 26:1 40:1 52:1 84:1 91:1 136:1 192:1 272:1 477:1 799:1 800:1 801:1 802:1 803:1 
4.1751669428324529 8 8 7.3432521957808676 5.3601290086141296 3.4568466353674117 4.5254801126929047 1.9590163236556262 7.7751729052752383 4:0 14:1 23:1 28:1 31:1 39:1 49:1 61:1 107:1 197:1 344:1 804:1 805:1 806:1 807:1 808:1 809:1 810:1 
0 0 0 0 8 0 8 0 0 4:0.25 30:2 31:1 61:2 534:1 819:1 820:1 
8 8 8 0.38934013987989929 8 5.7240420741716447 8 6.388409498632468 7.4909286123436951 3:1 4:0.125 39:1 151:1 232:1 356:1 357:1 769:1 770:1 
6.547095033517258 0 4.2296337195270306 0.17936188588180443 8 0.40987303060139219 8 0 8 4:0.125 9:1 42:2 51:1 78:1 168:1 262:1 821:1 
8 8 3.6734491090536525 0 8 0 8 8 2.5656243232224298 4:0.5 51:1 822:1 
0.022067645087017428 0 4.3949063778236166 0 0 0 5.1111852005108442 0 8 4:0.15384615 5:1 9:1 15:1 16:1 23:1 26:1 30:1 31:1 46:1 61:1 467:1 823:1 824:1 
0 0 0 0 5.7236676005553049 0 8 0.12225336282063554 0 4:0.16666667 14:1 30:1 54:1 91:1 825:1 826:1 
0 0 0 1.9812519156383606 2.5065489740109546 5.7767748256425984 0.36267495333287686 0 0 1:1 3:2 4:0.19230769 14:3 20:1 30:2 36:1 39:1 51:1 84:1 120:1 482:1 532:1 672:3 827:1 828:1 829:1 830:1 831:1 832:1 833:1 
7.5574346441214679 6.6854409251516138 2.0223157276194907 0 5.7213719057575245 4.6601067904980784 5.4357632333172781 8 7.2499772906957487 4:0.1 14:1 46:1 51:1 52:1 151:1 325:1 845:1 846:1 847:1 848:1 
5.272038470739715 0 0 0 0 1.8055994512159439 0 0 0 4:0.13333333 14:1 30:2 42:1 46:2 233:1 240:1 448:1 601:1 849:1 850:1 851:1 852:1 853:1 
3.7495160665137881 3.560605992010081 5.5403865202365665 0 4.5064718274528062 0.488655968546509 2.6763260285203931 2.5614060521476354 4.8268954542891187 4:0.21428571 26:2 30:1 89:1 422:1 854:1 855:1 856:1 857:1 858:1 859:1 860:1 861:1 862:1 
0.078366768473585216 1.6947411667963983 1.3706459727139697 0 2.5648778965240377 0.041784935816842825 2.4492988317387305 1.3047787633640469 3.4581934576855837 1:1 4:0.11764706 14:2 20:1 26:3 30:1 39:1 40:1 42:1 46:1 178:1 241:1 551:1 586:2 863:1 864:1 865:1 866:1 867:1 868:1 869:1 870:1 871:1 872:1 873:2 874:1 875:1 876:1 877:1 878:1 
8 8 8 0 8 2.4082341447731408 8 8 0 4:0.5 30:1 879:1 
3.5946090965589201 2.3189627499977523 0 2.5512954546555813 0 2.1822226258022588 0 1.8186043600962389 4.385894651765418 1:2 4:0.066666667 5:1 9:1 14:4 16:1 23:1 30:2 39:2 42:3 82:1 107:1 168:1 240:1 252:1 348:1 435:1 703:1 880:1 881:1 882:1 883:1 884:1 
0 0 0 0 0 0 0.59403311266457093 0 0.44256924846929113 3:1 4:0.12121212 14:3 25:1 26:1 30:1 32:1 36:1 37:1 39:1 40:4 42:3 186:1 272:1 395:1 601:1 691:1 850:1 891:1 892:1 893:1 894:1 895:1 896:1 897:1 898:1 899:1 
0 0 0 0.51396142060589245 0 4.7997772566361645 1.7252999318491 0.79267247015267639 0 1:1 3:1 4:0.071428571 9:3 14:3 25:1 32:1 36:1 37:1 40:1 42:2 170:1 298:1 368:1 467:1 601:1 730:1 850:1 900:1 901:1 902:1 903:1 904:1 905:1 
1.0195675663846404 4.1386800759472306 0 1.252722854844984 2.017930108344173 4.812760543538543 0 1.5975399682561764 4.4284314770855335 3:2 4:0.19047619 14:1 30:2 40:1 42:1 46:1 89:1 156:1 191:1 239:1 535:1 603:1 885:1 906:1 907:1 908:1 909:1 910:1 911:1 
3.2211838396165153 0 0 0 4.4390535122032064 0 8 0 7.6318514806262199 4:0.26666667 22:1 26:1 30:3 40:1 61:2 107:1 351:1 422:1 912:1 913:1 914:1 915:1 
0 3.2774286548518545 1.7141123846879358 0 0 0 0 0 0.35136952815171496 1:2 4:0.11764706 9:1 26:1 30:1 42:2 46:1 89:1 107:1 421:1 717:1 916:1 917:1 918:1 919:1 920:1 
5.4914411146968876 0 0 0 0 0 1.2113324217163008 5.0581937050016252 5.821175828399042 4:0.28571429 30:2 46:1 921:1 922:1 923:1 924:1 
0.21397536596808028 0 0.79371107427763044 0 4.6722816774859881 0 0 0 6.5843318744050183 1:1 4:0.14285714 5:1 13:1 14:2 26:1 30:1 42:2 46:1 83:2 103:1 107:1 925:1 926:1 927:1 928:1 929:1 930:1 931:1 
4.8460634348356777 5.5117433025432421 0 4.2632969894154256 7.0042419426240006 0 0 0 3.0818536552589051 4:0.13793103 14:2 26:2 30:2 40:1 42:2 46:1 52:1 89:1 144:1 145:1 201:1 239:1 262:1 272:1 289:1 348:1 395:1 435:1 551:1 932:1 933:1 934:1 935:1 936:1 937:1 
3.1719126829655915 7.658483705782487 1.501130587868432 3.5596763076207178 7.5279156294928828 1.8548562534566198 0 3.4132236650151797 3.9988332806992086 3:1 4:0.090909091 14:5 30:2 39:3 42:1 65:1 89:1 151:1 222:1 348:1 385:1 435:1 467:1 490:1 527:1 532:1 617:1 659:1 777:1 938:1 939:1 940:1 941:1 942:1 943:1 944:1 
0 6.2725537880482269 0 6.4153102029834717 0.36144586494812514 0 8 3.349997196284821 1.3861859846722582 4:0.2 14:1 26:1 30:1 46:1 233:1 399:1 945:1 946:1 947:1 948:1 
0 0 0 0 0 0 0 0 3.9280624171499108 1:1 4:0.18518519 8:1 14:1 30:1 39:1 42:2 46:1 51:4 83:1 258:1 259:1 490:1 777:1 919:1 949:1 950:1 951:1 952:1 953:1 954:1 955:1 956:1 957:1 
0.43097482567077405 0.91602390035516112 0.47294000931280628 1.6406470854073338 0.74484197556447618 1.5930218568992558 2.6190401176105196 0 4.4851253161000804 4:0.090909091 9:2 14:1 30:1 39:2 42:1 51:1 107:1 112:1 272:1 287:1 368:1 490:1 919:1 950:1 952:1 958:1 959:1 960:1 961:1 962:1 
4.0198946137232392 1.809977914462263 0 0 8 1.59802909628515 4.345476827072515 5.7613764259960289 3.6529960930172569 4:0.2 14:1 30:3 39:1 89:1 107:1 151:1 527:1 963:1 964:1 965:1 966:1 967:1 968:1 
2.073631655353021 0 0 0 0.46251689305445848 0 0 0 0 4:0.26315789 5:1 14:1 26:1 30:4 54:1 61:1 78:1 107:1 251:1 272:1 422:1 440:1 666:1 969:1 970:1 971:1 
1.1342615567722028 0 0 0 2.0695024045943842 0 6.9774758200727129 0 0 4:0.125 5:1 23:1 30:1 42:1 54:1 107:1 240:1 972:1 
0.7878363279557633 0 0 0.36398983464368717 1.2534509168793975 0 3.4244950811198565 0.54580091890091476 0.83673097790074935 1:1 4:0.23076923 14:1 20:1 26:4 30:1 39:2 51:1 107:1 148:1 197:1 440:1 858:1 864:1 947:1 973:1 974:1 975:1 976:1 977:1 978:1 979:1 980:1 
2.2365040502806059 8 8 0 8 4.1661750721350286 8 2.5538970188699253 0.16366955244119127 1:1 4:0.125 14:1 40:1 51:1 86:1 125:1 981:1 982:1 
2.2499916789710652 0 0 2.7020905719903143 4.376336186053325 0.44534233944555773 6.6013709116059092 3.6362517196140316 3.0528754871689014 4:0.17647059 14:2 16:1 30:3 39:1 46:1 240:1 487:1 715:1 983:1 984:1 985:1 986:1 987:1 988:1 
0.72065515762858012 0 2.7808304128551931 0 0 2.4108650101621674 5.8633544702180496 0 6.2398483602996491 4:0 83:1 94:1 128:1 151:1 989:1 990:1 
2.2871363791129657 2.2430584765819659 0 0 1.0883555227306434 0 2.1782522911218991 6.3765723678688726 0.79805254123766545 4:0.28571429 14:1 26:2 30:2 39:1 79:1 89:1 107:1 252:1 991:1 992:1 993:1 994:1 
3.0977354236674732 8 5.5407537799540583 3.5881808921639511 5.3363837149003714 6.4996765639453518 8 0.60768067275121951 7.6519931840124418 4:0.125 14:1 39:1 46:1 51:1 738:1 995:1 996:1 997:1 
6.1035318876923466 6.1673621767760425 0 5.4069463134967757 6.7193202621745991 3.0578804591184472 6.3654525619463325 2.0472452121661822 1.8564393249744826 4:0.11111111 14:1 30:1 40:1 201:1 551:1 998:1 999:1 1000:1 1001:1 
8 8 8 0 8 4.8345348300884483 8 0 3.3061703943704548 4:0 54:1 
8 7.8505959021998253 8 8 8 6.7183209872066794 0 0 1.135241652328675 4:0 5:2 9:1 14:1 20:1 341:1 757:1 1002:1 
3.8972590155467426 0 0 4.4582220712896108 1.4772898653462212 2.0081406249691374 0.37766803419602896 0 0 1:3 4:0.12820513 5:1 13:1 14:4 16:2 20:1 26:1 30:4 39:1 42:1 46:1 54:1 107:1 189:1 223:1 230:1 233:1 235:1 240:1 325:1 629:1 1003:1 1004:1 1005:1 1006:1 1007:1 1008:1 1009:1 1010:1 1011:1 
0.49915275649876084 0 0 0 1.894491937203957 0 0 0 1.4399475713629188 4:0.15789474 5:1 8:1 9:1 14:1 16:1 30:3 39:1 42:1 58:1 83:1 182:1 456:1 766:1 1012:1 1013:1 1014:1 1015:1 
4.6410866219962674 4.4000053855627552 0 0 5.2708270185329527 0 1.5052443081168425 0 0 1:1 4:0.088235294 5:1 9:3 14:3 15:1 20:1 30:3 46:1 52:1 61:1 65:1 170:1 189:1 223:1 566:1 705:1 1016:1 1017:1 1018:1 1019:1 1020:1 1021:1 1022:1 1023:1 1024:1 1025:1 1026:1 1027:1 
0.45612139306152916 5.8320925799469432 3.8165805474000378 0 0 2.9534315892732379 7.667801717390085 0 0 1:1 4:0 16:1 39:1 530:1 1028:1 1029:1 1030:1 
7.2815258254654101 3.0819360495641264 0 1.4275658291056537 0 0 0 0 0 4:0.11111111 5:1 9:2 14:4 20:2 25:2 30:1 39:2 46:1 101:1 562:1 1031:1 1032:1 1033:1 1034:1 1035:1 1036:1 1037:1 1038:1 1039:1 1040:1 
3.3745546143047442 0 0 2.1466995470454928 4.292935459384128 0.60892831606311937 2.0774158682590285 0 2.8742431558778643 4:0.18518519 9:1 14:3 22:1 26:1 30:3 40:1 42:1 61:1 89:1 125:1 265:1 272:1 313:1 638:1 1041:1 1042:1 1043:1 1044:1 1045:1 1046:1 1047:1 1048:1 1049:1 
8 0 0 0 8 0 8 0 8 4:0.33333333 51:1 52:1 1050:1 
0 0 0 0 0 2.5595233647103033 1.0051202942030957 0 0 4:0.18181818 9:2 14:1 30:2 57:1 73:1 467:1 1051:1 1052:1 1053:1 
0 3.0888013800328875 3.1446771032136405 0 0 4.4942661773018404 8 0 0.024618622773926013 4:0 54:1 1054:1 1055:1 
0 0 0.85098585478142375 0 0 0.02595712709773916 3.9084857223769798 2.023291390362957 0 4:0.14285714 9:1 16:1 23:1 30:2 39:1 40:1 1056:1 1057:1 1058:1 1059:1 1060:1 1061:1 1062:1 
5.0215482158981208 0.040148011180889752 6.6651558902661172 1.1863100509586153 8 5.9420420360402542 0 0.33595837367019243 6.2830123613273159 4:0.125 9:1 39:1 103:1 1063:1 1064:1 1065:1 1066:1 1067:1 
8 0 0 2.7798039240238888 4.0491339288622497 1.3988484568770818 8 0 0 1:1 3:1 4:0.23529412 14:1 30:3 36:1 82:1 120:1 348:1 672:3 1040:1 1068:1 1069:1 1070:1 
5.5109393171584564 2.6536817802415817 3.3197090457275356 2.5106038296226814 3.5572467077978129 0 3.7517368544219254 0 2.2983913053592016 4:0.15789474 8:1 14:3 26:2 30:1 40:1 100:1 936:1 1071:1 1072:1 1073:1 1074:2 1075:1 1076:1 1077:1 1078:1 
5.0728047016803304 7.9524560945418674 6.4702549649219421 1.2487522358211836 4.5452152031671407 3.5592809578833755 8 3.0909920488810165 5.1574245387442508 4:0.22222222 26:1 31:1 39:1 46:1 51:1 61:1 1079:1 1080:1 1081:1 
0 0 2.4439596374521559 0 0 0 8 0 8 4:0.2 51:1 61:1 83:1 126:1 1082:1 
0 0 3.4901566427852182 0 8 0 8 8 0 4:0.33333333 30:1 1083:1 1084:1 
0 0 2.568806392118931 0 0 0 0 0 0 4:0.10344828 5:3 14:3 30:2 39:2 40:3 42:1 51:1 61:1 91:2 151:1 272:2 356:1 401:1 1058:1 1085:1 1086:1 1087:1 1088:1 1089:1 
2.9402234350837637 3.2999199211400199 0 2.6579078356669799 0 0 0 0 0 4:0.090909091 9:1 14:2 20:2 30:1 39:1 40:1 51:1 107:3 125:1 217:1 240:1 356:1 401:1 423:1 458:1 640:1 1090:1 1091:1 
8 8 3.9201275665693385 0 8 5.0322379252208052 8 8 0 3:1 4:0.2 14:1 348:1 356:1 435:1 
2.1932185424103912 0 0 0 3.4080937786897403 0 5.1219661542463051 0 3.6952609744435372 4:0.21428571 9:2 23:1 30:3 39:1 83:1 738:1 1052:1 1096:1 1097:1 1098:1 1099:1 
8 8 7.7284180941222838 6.5987707954602275 8 2.8209267661767465 8 4.3945419929948493 3.3605084365571973 4:0 40:1 375:1 1100:1 1101:1 1102:1 
8 8 8 1.3327032196076263 7.114219767945114 6.4894948715736378 8 6.4911442468111433 6.1397033612504579 4:0 14:1 1103:1 1104:1 
5.09880074024134 4.1924383233526328 2.7160088188792697 2.9241904358207993 2.0445752672689279 3.0448472148412944 2.7569990140411234 3.0048854427779434 0.60847003127561605 4:0.05 9:2 14:2 26:1 39:1 40:1 61:1 435:1 765:1 978:1 985:1 1105:1 1106:1 1107:1 1108:1 1109:1 1110:1 1111:1 1112:1 
3.2115801159125281 3.112135865438872 0 0.34651982722612296 0 0.78257423578868968 2.6853332862557009 2.7709502377631781 0 4:0.11111111 14:2 20:1 30:1 1115:1 1116:1 1117:1 1118:1 1119:1 
0 4.2104752508710215 4.4160328356947591 0 2.040580609392181 8 6.2084445765373202 6.7819718744438369 0 4:0 14:3 46:1 1120:1 1121:1 1122:1 1123:1 1124:1 
2.6899419190633194 0 0.32967292816122767 0.20259724102749765 5.0575145091277696 0 0 0 2.6432512690482373 4:0 9:1 14:1 46:1 131:1 203:1 1125:1 1126:1 1127:1 1128:1 
4.4283168866708769 8 8 8 5.5476841668860031 0 7.021436836234705 0 0.50176399358465329 4:0.2 28:1 51:2 125:1 253:1 422:1 663:1 1129:1 1130:1 1131:1 
3.0335483208885381 3.0096010166429479 5.8140029079067634 1.3756006265817184 5.069491469821422 4.1158027538753794 0.50860213570547452 1.3887421253283252 2.5332238620095873 4:0.096774194 9:1 14:5 20:1 23:1 30:2 39:2 40:1 42:1 46:1 265:1 268:1 356:1 397:1 458:1 541:1 1054:1 1132:1 1133:1 1134:1 1135:1 1136:2 1137:1 1138:1 1139:1 
0 3.5794032214058271 2.2738820728245828 0.72835540992413517 1.6518465374332472 0.98332832842933127 8 0 6.3111716882573869 4:0 42:1 126:1 168:1 262:1 272:1 730:1 1140:1 1141:1 
3.3215245628525709 2.402009781178942 2.8507212877606882 0 7.5563191293634695 0 8 3.4074554752180384 0 4:0.25 14:1 26:1 30:2 39:1 40:1 126:1 749:1 797:1 1142:1 1143:1 1144:1 
8 5.5449235096390579 1.5327667582999047 0.54995700142991566 7.3368283865029342 0 8 0 4.6264964656764009 4:0.15789474 14:2 22:1 26:1 30:2 39:1 46:1 61:1 84:1 107:1 252:1 465:1 534:1 738:1 1087:1 1145:1 1146:1 1147:1 
8 8 5.1150680682923193 8 5.4339169142624604 8 8 3.6509615979965018 5.4535544603722474 4:0 39:1 1148:1 1149:1 
3.0635759027107672 0 0 0 1.6611444674477989 0 7.9731708464568749 0 7.2843010479320034 1:1 4:0.2173913 14:1 30:4 35:1 40:1 46:1 51:1 52:1 61:1 107:1 195:1 203:1 548:1 639:1 1150:1 1151:1 1152:1 1153:1 1154:1 1155:1 
0 0 2.3747260555580465 0 1.5412544699256761 1.7421838611334648 4.2811982141221412 0 1.6275531933010003 4:0.15 9:1 14:4 16:1 26:1 30:2 39:1 61:1 83:1 189:1 1083:1 1156:1 1157:1 1158:1 1159:1 1160:1 1161:1 
0 0 0 0 0 0 8 0 1.3771193933836758 4:0.75 30:3 51:3 125:1 1162:1 
0 1.0354847198227504 2.0085693869135541 3.4779464726112859 3.0656807564175175 0 1.9158929171383554 0 2.541558683651902 1:1 4:0.15151515 9:1 14:3 26:4 39:4 51:1 91:1 99:1 101:1 148:1 354:1 630:2 1163:1 1164:1 1165:1 1166:1 1167:1 1168:1 1169:1 1170:1 1171:1 1172:1 1173:1 1174:1 
5.1686299541040999 0 4.7066222849277422 0 5.1919999110927337 0 8 0 8 4:0 1175:1 
8 8 8 0 5.1823157436156038 8 8 8 8 4:0 1176:1 
8 7.8204877485176008 8 0 7.9933764974061354 5.6936210785570269 8 3.3965098686390665 8 4:0 1175:1 
0 0 0 4.2782959397649032 1.0192828504224536 0 0.16117791673486809 4.545380255150131 0.41568598254712202 4:0.083333333 14:2 17:1 20:1 30:1 101:1 272:1 313:1 1145:1 1177:1 1178:1 1179:1 
8 8 8 1.2647977177786209 8 8 8 6.0464512788050975 8 4:0 14:1 39:1 107:1 1180:1 
3.0351365291924535 3.7015284309569574 0 0 1.7065928130902637 0 5.6506012173508733 0 1.5069084792633383 1:1 4:0.16129032 5:1 9:1 14:4 16:1 23:1 26:1 30:4 40:1 42:1 107:2 140:1 247:1 395:1 467:1 508:1 991:1 1056:1 1181:1 1182:1 1183:1 1184:1 1185:1 1186:1 
0 2.6218558033001305 2.824019227626267 1.6672882842039205 0.057020259437307728 2.3865447159093036 1.7986738871072778 0 0.88028054634227204 1:1 4:0.035714286 5:1 9:2 14:3 26:1 39:2 42:1 61:1 107:1 123:1 182:1 440:1 467:1 506:1 1071:1 1085:1 1187:1 1188:1 1189:1 1190:1 1191:1 1192:1 1193:1 1194:1 
8 0 1.796061396879006 0 6.8735031168971519 0 8 4.1169818621875542 0.038262912924367516 4:0.25 5:1 30:1 1195:1 1196:1 
0 4.1897031756922978 0.41113879711576445 0 1.6397242294518712 2.2419943058319785 8 0 0 4:0 9:1 40:1 95:1 107:1 170:1 1197:1 1198:1 1199:1 
0 0 1.690631249596094 0 0.011153996052179777 0 2.6186695714106092 1.4071520718155155 1.7566206168586691 4:0.21052632 5:1 9:1 14:1 26:2 30:2 39:1 40:1 42:2 154:1 950:1 1200:1 1201:1 1202:1 1203:1 1204:1 1205:1 
0.96797258088794957 0 0 0 0.84386313078185893 0.64983714336792398 0 2.1223707614455405 4.9234302697885699 1:1 4:0.1 8:1 14:1 20:1 30:3 39:1 40:1 42:2 57:1 61:1 89:1 107:1 395:1 743:1 754:1 890:1 1206:1 1207:1 1208:1 1209:1 1210:1 1211:1 1212:1 1213:1 1214:1 1215:1 1216:1 
0 2.0707784353048719 0 0 0 2.9247629000554278 0 0 5.7177871646423171 4:0.13333333 40:1 42:2 51:2 148:1 155:1 168:1 325:1 351:1 415:1 422:1 1087:1 1217:1 1218:1 
0 6.3610031424819358 3.1020809701371705 4.4036847388309299 1.5408583045969586 2.1603821196104498 7.1826696026127417 0 2.1747450888792352 3:2 4:0.1875 9:1 14:4 23:1 26:2 30:1 39:1 40:1 51:1 61:1 84:1 126:1 156:1 189:1 490:1 804:1 932:1 1210:1 1219:1 1220:1 1221:1 1222:1 1223:1 1224:1 1225:1 1226:1 1227:1 
5.6828277428359844 8 4.0822078971034248 0 8 8 8 0 8 4:0.2 40:1 51:1 52:1 151:1 1228:1 
3.3679526084131939 0.032387828864285699 0 4.2634524886657124 2.4197581289288999 0.29199957627504697 0 0.56001937989944151 0.51970810387499122 1:1 4:0.029411765 5:1 9:2 14:5 20:2 30:1 39:1 46:1 61:1 156:1 487:1 741:1 764:1 835:1 983:1 1260:1 1261:1 1262:1 1263:1 1264:1 1265:1 1266:1 1267:1 1268:1 1269:1 1270:1 1271:1 1272:1 
8 8 6.4474739641717376 8 8 8 8 8 8 3:1 4:0.28571429 30:1 39:1 122:1 289:1 624:1 1273:1 
0 0 0 0.92865418731327642 0 3.4027288728811147 1.0266556229400547 1.2357927429998006 0.28341793065668558 1:1 4:0.15625 14:4 22:1 25:2 30:3 36:1 39:3 40:1 42:2 46:1 61:1 141:1 503:1 521:1 1040:1 1274:1 1275:1 1276:1 1277:1 1278:1 1279:1 1280:1 1281:1 
8 8 3.3589495863483552 0 0.10180817155486215 6.5259350044816653 8 0 3.3379415616306018 4:0 9:1 14:1 46:1 1052:1 1282:1 1283:1 1284:1 
0 0 0 0 0.64589515425396749 0.61293364129839079 4.3739138985832549 0 0 1:1 4:0.22222222 8:1 26:2 30:2 46:1 318:1 532:1 828:1 1096:1 1149:1 1285:1 1286:1 1287:1 1288:1 1289:1 1290:1 
3.9480656380428605 2.5089148987074439 5.6797918987310778 2.6078081026775228 0.17844679912003952 1.0137946288603892 5.5790697837157328 0.044751638668979667 2.7766955852771775 4:0 8:1 14:2 16:1 23:2 42:1 46:1 1113:1 1291:1 1292:1 1293:1 1294:1 1295:1 1296:1 
0 0 0.87219414701968989 2.4728705573263996 1.0489095106411366 2.3104749111766463 0 0 4.5325416078393816 1:1 4:0.041666667 14:2 23:1 39:2 40:1 42:1 46:1 49:1 51:1 52:1 61:1 84:1 151:1 357:1 401:1 458:1 1297:2 1298:1 1299:1 1300:1 1301:1 
0.34392466882235867 0 2.2332077025569705 0.39161330076562023 3.1502733193417258 0 3.0464364893999347 0 0 4:0.17647059 14:1 16:1 26:1 30:2 65:1 149:1 201:1 240:1 454:1 1302:1 1303:1 1304:1 1305:1 1306:1 1307:1 1308:1 
8 0 0.2657833124477707 0 4.9890158045479289 8 8 8 0 1:1 4:0.25 30:3 42:1 57:1 61:1 107:1 651:1 1309:1 1310:1 1311:1 
0 5.7696366108019754 0.079053180336025916 6.2759252969848562 8 0 8 0 2.2697084344093859 1:2 4:0.11111111 40:2 51:1 730:1 1312:1 1313:1 1314:1 
8 1.5396878166334096 0 0 8 0 8 8 0 4:0.33333333 30:2 40:1 440:1 457:1 1054:1 
1.8492887825455822 0 0 0.55780996662324889 4.1285968787081231 1.9034199369218905 0 1.2309836135416654 0 3:1 4:0.19047619 10:1 14:2 26:1 30:2 40:2 46:1 313:1 397:1 548:1 1315:1 1316:1 1317:1 1318:1 1319:1 1320:1 1321:1 1322:1 
0 1.3846641822504109 0.39517101755974654 0 0 0 5.6612976286393559 0 0 1:1 4:0.2 14:1 26:2 89:1 384:1 1323:1 1324:1 1325:1 1326:1 
6.7909740008589203 0 0 0.95804085265665651 0 0 8 5.1086200111169378 0 4:0.25 9:1 15:1 26:1 30:1 78:1 251:1 666:1 1327:1 
4.9645529616111217 8 7.4688881210397904 5.4311472368260887 8 8 3.3154164029935842 2.0824021919692832 8 4:0.090909091 9:1 16:1 39:1 42:1 51:1 422:1 766:1 1328:1 1329:1 1330:1 1331:1 
0 2.2929210286837391 4.9443660813721566 8 7.7792396815696661 1.0659690653050227 5.2722073322546352 1.0559048375165738 0 4:0.090909091 14:3 16:1 26:1 30:1 32:1 39:1 42:1 57:1 61:1 89:2 107:1 1013:1 1334:1 1335:1 1336:1 1337:1 1338:1 1339:1 1340:1 
2.1788286940290038 1.9742867670664421 0.73237339514339683 3.2267560816254846 2.8728211612719714 0 1.024175062109794 0.6643470475285167 8 4:0.15384615 5:1 14:1 26:2 30:2 42:4 58:1 84:1 147:1 195:1 345:1 1029:1 1341:1 1342:1 1343:1 1344:1 1345:1 1346:1 1347:1 1348:1 1349:1 1350:1 
0 7.2954024560853004 1.3089492367667335 3.27470819244291 4.3085805375909532 2.0219703802761764 6.3293948154028996 0.003753889171325883 0.33625011016943435 4:0.09375 9:1 14:5 26:2 30:1 40:2 42:3 61:1 109:1 113:2 122:1 548:1 579:1 822:1 1063:1 1347:1 1350:1 1351:1 1352:1 1353:1 1354:1 1355:1 1356:1 1357:1 
0 0 0 0.13041824963577861 2.4268925733211701 0 0.3518358486843608 0 1.7392385766381073 4:0.0625 14:2 20:1 26:1 39:1 42:1 272:1 659:1 1050:1 1251:1 1358:1 1359:1 1360:1 1361:1 1362:1 1363:1 
5.581342990911323 1.5596935027361316 0 1.6040736646399778 0 1.5791425323301669 2.5936142627910028 0.70467168462068619 5.6860764467810689 1:1 4:0.1 14:1 30:1 42:1 107:1 551:1 1364:1 1365:1 1366:1 1367:1 
0.20576182567189391 0 8 0 0 8 2.7367173442565473 8 8 4:0 14:1 42:1 83:1 300:1 650:1 1368:1 
1.4298855066322389 5.7591020662526011 0 0 3.4978116772996364 0 3.0384073785745436 0 0 3:1 4:0.19230769 14:2 26:4 39:1 40:1 65:1 89:1 144:1 145:1 348:1 435:1 738:1 1114:1 1339:1 1369:1 1370:1 1371:1 1372:1 1373:1 1374:1 1375:1 1376:1 
2.3908393328348079 0 2.176607265285976 0 0.091860734206739805 0 6.7717460080124718 0 0.6881058669173945 4:0.0625 9:1 14:2 26:1 40:1 42:1 348:1 467:1 490:1 810:1 1377:1 1378:1 1379:1 1380:1 1381:1 1382:1 
6.7029539189034635 8 8 2.2042295843181705 6.2896966135670995 8 8 8 0 4:0 9:1 14:1 39:1 40:1 42:1 757:1 1383:1 1384:1 
6.2648066042410653 6.0754092220266482 8 6.5636868483654709 5.7846131954461422 6.8338968035223493 6.9784819432344163 6.3212830830770201 1.6843030806891002 1:1 4:0 8:1 9:2 42:1 149:1 151:1 379:1 1301:1 1385:1 1386:1 1387:1 1388:1 
1.4038755439520283 0 0.41919588372077499 0 3.7289473330085712 2.0656008684281364 0.52259200991658128 1.231392133359194 0.68533382482922578 1:1 4:0.10526316 5:1 8:1 14:1 30:2 40:1 42:1 84:1 107:1 240:1 1389:1 1390:1 1391:1 1392:1 1393:1 1394:1 1395:1 1396:1 
8 5.1931872755543464 4.0927397621906447 0 0 0 8 0.66473894275427958 8 4:0 39:1 78:1 1074:1 1397:1 
8 8 0 0 8 0 8 7.264936213096834 4.0753907218070937 4:0.16666667 14:1 26:1 42:1 348:1 717:1 1378:1 
5.3855967327032603 3.2024088696683308 0.28594779403189741 3.0127889359991484 2.0759031957749832 0.052576550235664814 0 0.75995749004619584 3.5446560624654464 1:1 4:0.074074074 5:1 9:1 14:4 23:1 30:2 40:2 52:1 61:1 726:1 919:1 1210:1 1341:1 1398:1 1399:1 1400:1 1401:1 1402:1 1403:1 1404:1 1405:1 1406:1 
4.4772690677043681 1.2765218600640718 3.3003570786336933 1.7969948706758665 2.9434758784687078 1.1765997327857154 1.0856257403486387 0 2.7774268880803472 1:2 4:0.064516129 5:2 9:2 14:4 20:1 26:1 30:1 39:1 42:2 83:1 168:1 272:2 295:1 844:1 1106:1 1407:1 1408:1 1409:1 1410:1 1411:1 1412:1 1413:1 1414:1 
4.1706022231067381 2.7162701058010268 4.3039928781837542 1.759963539650039 1.7066017434251022 0 8 0 2.6197691340986338 4:0.19230769 9:1 14:1 26:5 39:1 52:1 80:2 83:1 243:1 259:1 272:1 532:1 780:1 976:1 1415:1 1416:1 1417:1 1418:1 1419:1 1420:1 1421:1 1422:1 
3.6910422939630316 8 8 0 2.1190949695413406 8 8 7.7718235947586249 8 4:0 14:1 42:1 1423:1 1424:1 
0 8 7.2852976401350613 1.1902728536668425 3.7864930158261876 3.0519353885260303 8 1.7563820829201862 6.439443397860046 1:1 4:0 16:1 39:1 89:1 1339:1 1425:1 1426:1 
6.8588639705210515 4.4968351544095704 3.4124651067983489 0.20205695519192124 0 0 2.8039379734664589 1.2698610999704079 4.4523962648439142 4:0 23:1 46:1 82:1 1133:1 1427:1 1428:1 1429:1 
0 4.722616805586517 0 2.1632121055943028 3.4329940713919385 8 0.61571281558731394 8 2.0134176543214424 4:0.071428571 14:2 30:1 39:1 126:1 130:1 325:1 414:1 718:1 1397:1 1430:1 1431:1 1432:1 1433:1 
5.0773232659470766 0 0 0 4.6914300510252218 0 3.6369316872959279 0 0 4:0.16666667 9:3 14:3 26:4 30:1 39:2 61:1 251:1 271:1 348:1 394:1 422:1 440:1 562:1 584:1 666:1 791:1 971:1 1357:1 1434:1 1435:1 1436:1 1437:1 
0 0 0 0 3.3851294081278578 0 1.0175043793080827 0 0 4:0.19354839 14:2 26:4 30:2 40:2 201:1 216:1 229:1 240:1 435:1 647:1 835:1 1114:1 1233:1 1245:2 1372:1 1438:1 1439:1 1440:1 1441:1 1442:1 1443:1 1444:1 1445:1 1446:1 
1.023906706130985 0 0 0 0 0 5.5117891873215434 0 0.84703641180422373 4:0.125 8:1 9:1 30:2 31:1 61:1 83:1 84:1 243:1 272:1 1447:1 1448:1 1449:1 1450:1 1451:1 1452:1 
7.4050200277571356 4.3073044630598494 0 2.267579512647512 6.1029248866686165 0 3.6294497357279996 0 1.3165834541372385 1:1 3:1 4:0.21052632 9:1 16:1 23:1 26:1 30:2 42:2 107:1 666:1 667:1 668:1 1058:1 1453:1 1454:1 1455:1 1456:1 
5.5347679188664864 3.3182376284456292 1.7266015581438121 0 0 0.79947159936413559 1.3076189722916545 0.72630812676594092 0 4:0.13333333 9:1 26:1 30:1 46:1 61:1 84:1 240:1 666:1 1245:1 1457:1 1458:1 1459:1 1460:1 1461:1 1462:1 
3.8311177837897419 2.1421835396723381 1.1174295353305144 0.30886448597674782 1.1491302459479265 1.6108045475043486 5.7140579806053138 2.3764135130427539 3.0616184714177148 1:1 4:0.22727273 14:3 20:1 26:3 30:2 197:1 348:1 435:1 647:1 778:1 1245:2 1464:1 1466:1 1467:1 1468:1 1469:1 
0 0 1.8301279214099988 0 0 0 8 0 0 1:1 4:0.22222222 26:1 30:1 40:1 61:1 83:1 467:1 1470:1 1471:1 
8 0.34471752961064039 0.76909140003241871 0 0 0 1.3395186118350175 0 1.8420895459085438 4:0.2 5:1 42:1 51:1 1472:1 1473:1 
0 0 0 0 2.1004074907401176 0 1.3550617418874573 0 0 1:1 4:0.2 9:1 14:1 30:2 46:1 73:1 1474:1 1475:1 1476:1 
0 3.1188491835135603 2.0664929840722022 0 0 0 4.6974006540939159 0 0 4:0.14285714 26:1 719:1 725:1 727:1 1477:1 1478:1 1479:1 
3.1882611636419043 0.96676920806644506 1.7095849384602801 1.7817377460321036 0 0 8 0 0.36337218285984796 4:0.11111111 9:1 23:1 30:1 89:1 107:1 266:1 1220:1 1480:1 1481:1 
0 0 1.3489517196457135 0 0 0 7.218056887762442 0.699749703249539 0 4:0 14:1 20:1 401:1 551:1 1482:1 1483:1 1484:1 
5.8672268443577975 8 4.9563296033457265 7.4013717758166262 6.4862499852208328 5.6173024107200682 6.4262955605295931 3.4807347693789725 3.7340495567890062 1:1 3:1 4:0.11111111 9:1 14:2 20:1 25:1 39:1 42:1 554:1 1483:1 1485:1 1486:1 1487:1 1488:1 1489:1 1490:1 1491:1 
8 2.5520860720941974 0 4.1989484186421873 0 1.2415558932685637 8 8 3.0850239792795993 4:0.33333333 30:2 126:1 1440:1 1445:1 1494:1 
0 0 4.4624027208638655 0 0.22730826725982867 0 0 0 5.5026462784660177 4:0.11111111 9:1 26:1 30:1 39:2 46:1 91:1 151:1 262:1 401:1 554:1 730:1 1210:1 1502:1 1503:1 1504:1 1505:1 1506:1 
3.3755393100966558 1.9609505226116533 0 0 2.0834943839323694 0 3.1781629290874358 0 0 4:0.16666667 9:1 14:1 23:1 26:2 30:2 40:2 61:1 89:1 107:2 149:1 262:1 272:1 524:1 715:2 968:1 1507:1 1508:1 1509:1 1510:1 
2.2309141626370437 3.3332788161232552 0 2.9032389118891935 2.8884098892362946 0 0 0 3.8978429426865993 3:1 4:0.18518519 5:1 9:1 14:1 26:1 30:2 39:1 40:4 42:1 51:1 83:1 84:1 757:1 1043:1 1451:1 1511:1 1512:1 1513:1 1514:1 1515:1 1516:1 1517:1 1518:1 
0 0 0.5045324630426139 0 0.95159834555898104 2.2591954304055233 0 6.2421299009229898 0 1:1 4:0.15384615 14:1 30:2 39:1 40:1 42:2 1384:1 1519:1 1520:1 1521:1 1522:1 
8 0 0 0 0 0 8 8 0 4:0.18181818 14:2 30:2 57:1 182:1 272:1 624:1 1523:1 1524:1 1525:1 
1.6730921604059152 0 0 1.0657450174660754 3.8845788248619484 0 0 0 2.6173693684518811 4:0.086956522 9:1 14:3 26:1 39:1 51:1 52:1 61:1 83:1 107:1 216:1 313:1 320:1 420:1 1083:1 1526:1 1527:1 1528:1 1529:1 1530:1 1531:1 1532:1 
0 3.61743493227605 0 0.42450244117855118 3.6680249897867832 0 4.0693197299539436 0 3.0086568882850449 4:0.13333333 13:1 14:1 40:1 42:2 51:2 168:1 453:1 458:2 1533:1 1534:1 1535:1 1536:1 
3.8744433141772912 0 2.0393569416162198 1.3104195261350733 3.2469740930338236 1.3223843241685365 5.7723363944149435 2.6347791114538048 0.46667440561586038 1:1 4:0.17647059 16:1 26:1 30:2 42:1 46:1 89:1 94:1 122:1 548:1 1537:1 1538:1 1539:1 1540:1 1541:1 1542:1 
0 0 0 0 0 0 7.4436127469953881 0 0 4:0.375 26:1 30:2 83:1 419:1 1451:1 1493:1 1543:1 
5.6074765775455102 1.1011734128516162 1.1822156318888724 2.5363505801944726 6.0329129142511473 0.50152173332854777 1.9709522730552957 0 7.1949789667121182 4:0.15 8:1 9:1 14:1 23:1 30:2 46:1 61:1 80:1 103:1 107:1 272:1 1544:1 1545:1 1546:1 1547:1 1548:1 1549:1 1550:1 1551:1 
1.1535231765707619 8 6.2994656293443168 0 0 5.6935290135202825 8 3.4004820580831283 8 4:0 1552:1 
0 0 0 4.7211032330846203 0 0.79812918697420254 0.010727945739478292 0 0 3:1 4:0.19230769 14:4 30:2 36:1 39:2 42:1 51:2 84:1 482:1 672:3 828:1 1553:1 1554:1 1555:1 1556:1 1557:1 1558:1 1559:1 
1.2730373668520549 0 3.1135526881565161 0.14494146258135354 0 0 2.3180467912272156 1.1112954274427396 0 1:1 4:0.16666667 8:1 14:2 26:1 30:2 46:2 89:1 1133:1 1223:1 1508:1 1560:1 1561:1 1562:1 1563:1 1564:1 
4.4033908666319759 7.1271143484125856 8 7.1835252850909672 5.5930352827181098 0 7.0492908685667857 0 5.178560388250224 4:0.125 9:1 14:1 26:1 31:1 42:2 51:1 65:1 126:1 262:1 919:1 1325:1 1565:1 1566:1 1567:1 1568:1 
8 0 0 2.0140149941798509 0 0 3.4694003760042738 0 8 4:0.25 30:3 40:3 141:1 467:1 756:1 1569:1 1570:2 
0 6.0617669074100844 2.2607854593000334 1.3713252454279317 0 0.27078786174180186 5.2908330795882108 0 5.9300276999775203 1:1 4:0.076923077 9:1 14:1 23:1 26:1 42:1 46:1 61:1 107:1 1360:1 1571:1 1572:1 1573:1 
0 0 0 0 0 0 1.3731761056447276 0 0 3:1 4:0.090909091 9:1 13:1 14:3 16:1 23:1 25:1 30:1 32:1 36:1 37:1 39:1 40:1 42:2 89:1 125:1 159:1 253:1 355:1 395:1 754:1 835:1 1054:1 1233:1 1460:1 1574:1 1575:1 1576:1 1577:1 1578:1 
5.3482744082283808 4.2877708677905231 7.0122776465841312 0.33293162497934914 4.3797575726740714 1.6093736033915897 8 2.9407294506915003 2.1399190440640461 4:0.16666667 14:1 26:1 46:1 1579:1 1580:1 1581:1 
0 0.027533950025134181 0.47182881465537369 0 0 0 1.0506410648398299 0.5121051146804666 0 4:0.10526316 9:1 30:2 39:1 40:1 46:1 61:2 293:1 652:1 1582:1 1583:1 1584:1 1585:1 1586:1 1587:1 1588:1 1589:1 1590:1 
8 5.9017828659401097 8 0 8 3.6435193608001 8 0.42700979037480363 8 4:0.33333333 61:1 103:1 1599:1 
5.4348464985692884 6.3084730676500875 2.8660525059095878 0.19230249887443135 0 0 1.9440194152336756 0 1.0779783266217675 3:1 4:0.13043478 14:4 26:2 39:3 107:1 151:1 373:1 490:1 506:1 624:1 728:1 939:1 1600:1 1601:1 1602:1 1603:2 
2.5331146347176343 3.5998604649084021 1.0927699437814704 3.4594535468587928 5.7269684020873513 5.0650991459291639 4.6264796436349442 4.8547618814380247 1.2528410485230321 3:1 4:0.17142857 9:2 14:3 23:1 26:2 30:3 39:2 40:1 46:1 189:1 272:1 532:1 931:1 1530:1 1604:1 1605:1 1606:1 1607:1 1608:1 1609:1 1610:1 1611:1 1612:1 1613:1 1614:1 1615:1 1616:1 1617:1 
0 0 5.5102112567891437 0 0.53818214219720673 0 4.6040864879878241 0 0.30812227688783611 1:1 4:0.11111111 9:1 51:1 61:1 83:1 148:1 239:1 240:1 1618:1 
6.0804432129364585 3.5804512286368313 8 0 3.631061898047832 0 8 4.4674840702636001 0 4:0.25 26:1 1353:1 1619:1 1620:1 
4.3979706457426451 2.1792345122664343 1.8703500779170437 4.86331303733499 3.0820572816691483 1.8231351659915711 5.5148766616867171 1.2876726907619693 1.9232857610136402 4:0.071428571 9:1 14:1 30:1 39:1 40:1 42:1 83:1 151:1 596:1 756:1 1621:1 1622:1 1623:1 1624:1 
2.1110148466060328 2.4286491634921221 1.3095761640007291 0 3.0537505311157758 7.586138236640922 1.3460685156085004 3.3338853618393323 1.5898623514828207 1:2 3:1 4:0.068965517 9:1 16:1 20:1 26:1 35:1 39:2 40:2 86:1 113:1 395:1 532:1 601:1 603:1 1498:1 1625:1 1626:1 1627:1 1628:1 1629:1 1630:1 1631:1 1632:1 1633:1 1634:1 
2.5195403379072809 8 2.0769697008339461 2.3698726240679169 3.8349792714386317 6.1188543709011078 5.3966398820503905 3.7332053666912008 0 3:1 4:0.14814815 14:3 20:1 26:1 30:2 39:1 40:1 42:2 57:1 134:1 240:1 319:1 320:1 395:1 570:1 1635:1 1638:1 1639:1 1640:1 1641:1 1642:1 1643:1 1644:1 
0 0 3.2214985678585357 0 0 0.15896909262503145 1.0417793541301386 4.1691842114468924 3.6890497357617176 4:0 14:1 31:1 39:1 239:1 262:1 1645:1 1646:1 1647:1 1648:1 1649:1 
3.0440195813694571 3.6923327661031742 4.5906354520212078 0.69624515982948065 1.6990647353094182 5.2864014310772394 8 0.71415797198063535 6.9095755250313102 4:0 23:1 1157:1 1650:1 1651:1 
4.9513949014662195 1.4961042930357356 3.8758482228948297 3.0675642853504361 6.3395942618369379 2.5985670400095309 5.3179772250947464 3.0641668568573768 5.9066618371524493 1:1 4:0.095238095 14:2 23:1 30:2 39:1 40:1 141:1 448:1 849:1 854:1 1652:1 1653:1 1654:1 1655:1 1656:1 1657:1 1658:1 1659:1 1660:1 
0.27734189024054479 0 5.5608285902884962 0 2.5390144395177869 0 7.7788400365290586 8 5.2812591442076826 4:0.25 14:1 30:2 203:1 207:1 1661:1 1662:1 1663:1 
0 0 0 0 0 0.30151188487848418 0 0 0 1:2 3:1 4:0.15151515 5:1 14:3 20:1 25:1 30:3 32:1 36:1 37:1 39:2 40:1 42:3 46:1 314:1 579:1 703:1 950:1 987:1 1390:1 1556:1 1668:1 1669:1 1670:1 1671:1 
5.6919449496917682 2.6530539622698952 0 0 8 0 5.6192058803234373 0 0 1:1 4:0.086956522 14:3 26:1 30:1 39:1 40:1 46:1 125:1 145:1 156:1 219:1 260:1 348:1 435:1 1320:1 1522:1 1556:1 1677:1 1678:1 1679:1 1680:1 
2.5505459805576529 0 8 0 1.3799626844116564 6.79887773061487 8 0 0 4:0 1353:1 1681:1 
1.9577686929747493 6.4385732363593302 0 8 5.2010340527173975 8 1.2781248306657911 4.6125535754358244 0.062368547677054201 1:1 3:1 4:0.16129032 8:1 14:3 16:1 20:1 26:1 30:3 42:1 46:3 89:1 126:1 232:1 233:1 556:1 672:3 945:1 1383:1 1682:1 1683:1 1684:1 1685:1 1686:1 
1.5915531975669492 7.3663569465683612 2.3070017171932036 2.059552278044253 2.238917895709343 2.1734611939919919 0 4.5262822720970011 2.1328097189743778 3:1 4:0.03125 14:5 20:1 39:1 40:2 89:1 151:1 275:1 440:2 591:1 630:1 1245:1 1687:2 1688:1 1689:1 1690:1 1691:1 1692:1 1693:1 1694:1 1695:1 1696:1 1697:1 1698:1 1699:1 
3.9520940224812011 0 0 3.3400575548786851 2.996455558833941 0 1.4358968950504365 0.18518673909342798 0 4:0.1 9:1 25:1 30:1 40:2 82:1 101:1 113:1 432:1 467:1 548:1 859:1 1396:1 1514:1 1700:1 1701:1 1702:1 1703:1 1704:1 1705:1 
3.3903176024928583 2.2615889091636592 2.2300543211168402 4.3589315082687436 3.6242029458627654 0.81189723959112503 2.5160665913335105 0.2351258571843047 2.1492582295581104 4:0.16666667 9:1 14:3 26:2 30:2 42:1 61:1 100:1 107:1 1495:1 1706:1 1707:1 1708:1 1709:1 1710:1 1711:1 1712:1 1713:1 1714:1 1715:1 1716:1 
8 0 0 8 7.7246697502254644 0 8 1.2842391373435407 0 4:0.25 14:1 26:1 30:1 42:1 313:2 419:1 1423:1 
6.5872430819648216 0.47482421635895994 0.5698491731513895 0 2.1673536950195036 0 3.3723653529398554 0.6099820024268453 2.3115360797656139 4:0.13636364 14:2 16:1 30:2 39:1 40:1 42:1 46:1 181:1 197:1 240:2 265:1 562:1 1717:1 1718:1 1719:1 1720:1 1721:1 1722:1 1723:1 
0 0 3.2968797891492687 0.15708654517696405 2.1890104855728678 0.28383379352448429 0.62182928302953921 0.37014639397184618 6.3268869513312982 4:0.095238095 9:1 14:2 20:1 26:1 35:1 42:3 51:1 61:1 107:1 168:1 466:1 497:1 1724:1 1725:1 1726:1 1727:1 1728:1 1729:1 
1.9454114789515908 8 3.6986015235234229 2.2996383025467626 5.343343679348143 3.76346518143048 8 5.0032830396449732 0.010066626128852231 4:0 14:1 39:1 42:1 1267:1 1730:1 1731:1 1732:1 
2.5185671727856165 0 0 0.37943300709970618 2.0910805674866397 0.30606054897029261 2.1840925934018811 0 2.2402033778127315 1:1 4:0.17391304 9:1 14:1 26:1 30:3 39:1 46:1 52:1 61:1 78:1 107:1 289:1 1733:1 1734:1 1735:1 1736:1 1737:1 1738:1 1739:1 1740:1 1741:1 
2.7271406558215592 0 0 0 0 0 8 0 4.8686037887683256 4:0.22222222 16:1 26:1 30:1 40:1 61:1 252:1 1742:1 1743:1 1744:1 
0 4.761100414171251 0 2.655883096051324 0 1.981154467109022 0 0 1.5397844441134847 1:1 4:0.083333333 14:2 26:1 30:1 39:1 40:1 42:1 46:1 107:2 126:1 219:1 240:1 247:1 551:1 733:1 1420:1 1453:1 1745:1 1746:1 1747:1 1748:1 1749:1 
2.7137046105176563 3.4989751955980934 4.9777645218989699 0 3.5113222570628868 0.57748225699261146 2.1121365875912459 2.4138812773838425 0.6296062380819949 4:0.10526316 9:2 14:4 26:3 30:1 39:4 46:2 109:1 151:2 155:1 260:1 314:1 527:1 1148:1 1732:1 1750:1 1751:1 1752:1 1753:1 1754:1 1755:1 1756:1 1757:1 1758:1 1759:1 1760:1 1761:1 1762:1 
6.7391543108202132 3.1423579363200211 0 0 0.95011181678443268 0 0 0 0.75547788711030983 1:1 4:0.1 14:2 26:1 30:1 39:1 42:1 84:1 89:2 107:1 168:1 395:1 470:1 556:1 741:1 1763:1 1764:1 1765:1 1766:1 
0 3.6907401964815856 2.3603624463676325 1.2134667060871152 0 0 0 0 6.7738837701347876 1:1 4:0.068965517 14:3 26:1 30:1 39:3 40:1 46:1 61:1 83:2 84:1 107:1 125:1 252:1 327:2 422:1 809:1 1767:1 1768:1 1769:1 1770:1 1771:1 1772:1 1773:1 
0 2.5949604913267543 0.85329682365716142 0 5.8783695932038773 1.0013656545376346 8 0 2.8382901285609119 4:0 1774:1 1775:1 1776:1 
0.60505311830811104 0 0 0 0 0 6.5827990992440659 0 1.8360801673850304 4:0.3 26:1 46:1 51:2 83:1 1526:1 1773:1 1777:1 1778:1 1779:1 
0 3.403561927083496 0 2.1290346696725249 0.90449498984996668 1.3827575233475282 0.062673168366135915 1.4061668211649436 0 1:1 4:0.13333333 9:2 14:3 16:1 26:1 30:3 39:2 40:1 46:2 75:1 84:1 170:1 286:1 506:1 530:1 697:1 991:1 1190:1 1353:1 1770:1 1780:1 1781:1 1782:1 
0 0 0 0 0 0 0 0 4.7675233903482432 4:0.16666667 9:1 16:1 26:1 39:1 42:1 51:2 61:1 107:1 148:1 156:1 247:1 355:1 756:1 1050:1 1090:1 1783:1 1784:1 
2.6319679277084855 8 7.50016188277732 7.2315452964123406 8 1.8836747977316592 2.9016428276349986 4.1058494624825652 0.59315998216176691 1:1 3:1 4:0.1875 9:2 14:5 20:1 23:1 26:2 30:3 40:1 42:1 89:1 131:1 459:1 548:1 789:1 1339:1 1685:1 1744:1 1772:1 1785:1 1786:1 1787:1 1788:1 1789:1 
2.8504754270813204 0 0 0 1.5823563003985368 0 0 0 0.11333627025229799 4:0.19047619 5:1 9:1 14:2 26:1 30:3 39:1 61:1 83:1 348:1 594:1 634:1 935:1 1376:1 1790:1 1791:1 1792:1 1793:1 1794:1 
0 0 4.9412421403433671 0 0 0 8 0 0.51762654063569058 4:0.2 14:1 51:1 83:1 240:1 1795:1 
8 1.1747591162806452 0.41831231199904789 1.5019206513867132 0 0 1.0697139426239715 0 5.8682686351543021 4:0.11111111 8:1 9:1 14:1 20:1 25:1 26:1 36:1 39:1 40:1 42:2 467:1 663:1 991:1 1796:1 1797:1 1798:1 1799:1 
5.5247169640567888 0 8 0 0 8 8 0 8 4:0 9:1 14:1 42:1 168:1 757:1 1002:1 
2.9002208524666049 8 2.9668485609326587 0 4.1858430325743274 2.3419284422332503 0 3.1661324926875851 0 4:0 5:1 14:3 39:2 40:1 84:1 658:1 783:1 1578:1 1800:1 1801:1 1802:1 1803:1 1804:1 
2.5157129357610617 0 0 1.3987280875388177 1.2412158725248807 2.4726528207671565 0.022948704618473502 1.2314041250216696 1.8646735833720713 3:1 4:0.14705882 9:2 14:4 20:2 25:2 30:2 36:2 39:2 40:1 42:1 378:1 878:1 1237:1 1350:1 1805:1 1806:1 1807:1 1808:1 1809:1 1810:1 1811:1 1812:1 1813:1 1814:1 1815:1 
4.5999987306406318 0 4.2905135151671328 0 1.3786529318673078 0 8 0 4.4584075689859617 4:0.090909091 14:1 16:1 26:1 39:1 151:1 153:1 189:1 347:1 1018:1 1492:1 1817:1 
1.8414696383569249 0 1.9320583067374197 0 0 1.7730073498330834 0 0 0.23344087572372871 1:2 4:0.13793103 5:2 8:1 23:1 26:3 31:1 39:2 51:1 61:1 84:2 153:1 357:1 1018:1 1396:1 1818:1 1819:1 1820:1 1821:1 1822:1 1823:1 1824:1 1825:1 1826:1 
2.0761818978623796 8 5.4465534335506653 3.2500506945033436 3.273296883490957 3.0565673073888644 1.0359314826277704 0.86544444768492079 8 4:0.066666667 14:5 20:1 26:1 61:1 84:1 103:1 107:1 348:1 422:1 551:1 586:1 727:1 1330:1 1821:1 1824:1 1827:1 1828:1 1829:1 1830:1 1831:1 1832:1 1833:1 1834:1 1835:1 1836:1 1837:1 
8 6.5662713811190629 0 0 8 0 8 8 8 4:0.5 30:3 859:1 860:1 1838:1 
0 2.3170736637674567 1.11308347132158 0 0 0 5.8359603220240208 0 0 4:0.14285714 14:1 23:1 40:1 51:1 65:1 1647:1 1839:1 
7.1714406365034833 0 0 8 0 0 8 0 0 4:0 46:1 313:1 1474:1 
0 0 0 0 4.1434335255468895 0 8 0 0 4:0.2 5:1 9:2 26:1 30:1 42:1 51:1 61:2 240:1 243:1 262:1 790:1 1267:1 1840:1 
6.1651706414299596 0 8 1.6764244216739395 8 2.5699699011637307 0.54187479989656639 0 8 4:0.3 9:1 26:1 61:2 103:2 189:1 467:1 1841:1 1842:1 
0 7.0983556313520211 1.0888547651721439 0 0.22918223834866894 0.35775828508585739 0 0 8 4:0.071428571 9:1 14:2 23:1 30:1 61:2 107:1 1766:1 1843:1 1844:1 1845:1 1846:1 1847:1 
4.1428597295073732 3.8910592734537435 0 3.2647682552842925 5.0891004596700204 6.878941803875029 8 4.961731068773279 0 4:0 14:1 20:1 39:1 325:1 1848:1 1849:1 1850:1 
8 7.8240084776823746 8 0 5.1839517017276497 5.6934983263614622 8 3.3954499856082894 8 4:0 1851:1 
6.2993067118882884 4.0734070568160803 3.8533378423101765 3.7980076812075731 3.3099781347996413 2.4087528776537508 3.8326409400408514 0.97210689051235111 2.0990095192851244 1:1 4:0.038461538 9:2 16:1 23:1 30:1 35:1 39:1 40:1 42:1 49:1 61:1 107:2 149:1 191:1 624:1 1153:1 1506:1 1852:1 1853:1 1854:1 1855:1 1856:1 1857:1 1858:1 
0 0 0 0 0 0 2.1757288792042178 0 0 3:1 4:0.10714286 14:1 25:1 26:1 32:1 35:1 36:1 37:1 40:1 42:2 46:2 58:1 61:2 262:1 314:1 493:1 532:1 548:1 828:1 835:1 1206:1 1233:1 1866:1 1867:1 1868:1 
0 0 1.3869597832263556 0 2.0482276048121126 0 0 0 0 4:0.05 14:2 23:1 26:1 39:1 126:1 151:1 202:1 253:1 314:1 357:1 415:1 493:1 575:1 675:1 1243:1 1869:1 1870:1 1871:1 1872:1 
0.78945645674376408 8 6.5400686852156662 0 8 0 8 4.3332717295602166 0 4:0.33333333 26:1 1711:2 
0 0 1.3690970204580137 1.2330305968695088 0 0.99485678747369044 1.6424000996196224 2.6909523282046384 0 1:1 4:0.15 9:2 26:1 30:2 40:1 46:1 49:1 93:1 107:1 262:1 313:1 532:1 533:1 702:1 1282:1 1873:1 1874:1 1875:1 
4.7234604414769654 8 2.1669576784214026 7.4095978625962031 6.7738550805707876 1.4102048488649805 2.6390633809906689 0 4.9649649505563094 1:1 4:0.041666667 14:4 20:1 23:2 30:1 46:1 141:1 156:1 348:1 579:1 1262:1 1876:1 1877:1 1878:1 1879:1 1880:1 1881:1 1882:1 1883:1 1884:1 
0 0.23640906202395673 0 0 1.07840924256313 3.5738866519709043 0 0 0 1:1 3:2 4:0.19230769 14:4 30:2 36:1 39:1 42:1 51:1 84:1 156:1 260:1 436:1 482:1 672:3 1244:1 1498:1 1885:1 1886:1 1887:1 
8 0.23465580751046231 8 5.8636709463251213 6.4382523948038939 1.0802558735438201 4.6828435096381948 3.9312742442944977 8 4:0.11111111 23:1 42:1 103:1 498:1 976:1 1113:1 1888:1 1889:1 1890:1 
0 0 0 0 0 0 1.3572159238278907 0 0 1:1 4:0.125 8:1 9:1 26:1 30:1 37:1 40:2 738:1 861:1 1889:1 1891:1 1892:1 1893:1 1894:1 1895:1 
2.6612944627373776 0 0 0 2.1847968119301204 0 8 0 0 4:0.14285714 14:1 51:1 52:1 151:1 819:1 835:1 1896:1 
8 6.4693148689589863 7.1360911209548386 2.5202409352675685 0.67941820868378611 0 6.1092242908819978 0 8 1:1 4:0 5:1 14:1 42:1 83:1 94:1 1852:1 1897:1 1898:1 
3.1215311600348579 4.6441816332256742 1.6671994285997447 3.987141859106794 8 7.1809158742366348 3.2208558669374523 5.6371877578282508 0 1:1 3:1 4:0.083333333 9:1 14:8 20:1 30:2 39:2 40:1 89:1 140:1 219:1 260:1 272:1 325:1 551:1 575:2 670:1 1403:1 1498:1 1899:1 1900:1 1901:1 1902:1 1903:1 1904:1 1905:1 
3.5809793585950773 8 6.6134389421558932 0.62917132226747396 8 3.3368274152087163 8 0 4.2590447670412885 4:0 1816:1 1906:1 
8 5.3923006244754736 8 0 0 8 5.1130673396930586 8 0.32237921893271981 4:0.125 13:1 39:2 51:1 125:1 187:1 1498:1 1907:1 
0 0.023352599913226281 1.6543346655420939 0 0 0 0 0 0.26059579144773543 1:1 4:0.1 9:1 14:1 26:1 30:1 42:1 61:1 89:2 125:1 168:1 627:1 1711:1 1908:1 1909:1 1910:1 1911:1 1912:1 1913:1 1914:1 
3.528178022559219 1.2344632884418245 0 0 5.0264690427023222 0 0 0.91681629021141775 5.5028172750238653 1:1 3:1 4:0.25 14:2 23:1 25:1 30:4 39:2 40:2 46:1 70:1 103:1 123:1 126:1 151:1 240:1 418:1 567:1 1099:1 1570:1 1915:1 1916:1 1917:1 
5.343389641108593 0 8 0 1.3170298392455126 8 8 8 0 4:0.16666667 30:1 57:1 1498:1 1918:1 1919:1 1920:1 
0 0 1.5510216809180655 0 0.1101727703404998 0 0 0 8 4:0.17391304 5:1 9:2 14:2 16:1 20:1 26:3 30:1 39:2 42:1 168:1 284:1 730:1 1434:1 1921:1 1922:1 1923:1 1924:1 1925:1 
0 0 0 0 0 0 0 0 8 4:0.33333333 5:2 51:2 52:1 1050:1 
0 0 0 0 1.3184133774364872 1.060883244862783 0 0 0 4:0.11538462 14:3 26:1 30:1 39:3 40:1 42:1 103:1 281:1 284:1 503:1 700:1 1926:1 1927:1 1928:1 1929:1 1930:1 1931:1 1932:1 1933:1 1934:1 1935:1 1936:1 
8 0 0 0 8 8 8 8 0 4:0.6 30:3 84:1 1937:1 
0 0 0 0 0 0 8 0 8 1:1 4:0 5:1 83:1 1938:1 
0 0 0 0 0 0 4.5051756785875519 0.95057019223183914 0 4:0.2 9:1 30:2 182:2 1065:1 1067:1 1939:1 1940:1 1941:1 
3.2370728474830366 0 0.7798946811303995 1.5961825725337309 0 4.2256733127964008 1.6930104073099088 0 2.0438756316547555 4:0 5:1 9:1 14:1 42:1 420:1 1942:1 1943:1 1944:1 
2.1811494580184734 8 1.3391935298030919 2.786689972024031 4.4523392342713848 0 2.8771008533030424 1.7345882452812937 2.3302343593830179 3:1 4:0.068965517 9:1 14:4 16:1 23:1 30:1 34:1 39:4 42:1 156:1 272:1 624:1 1090:1 1521:1 1789:1 1938:1 1945:1 1946:1 1947:1 1948:1 1949:1 1950:1 1951:1 
0 0 0 0 0 0 7.6165206103461189 8 0 4:0.5 30:1 145:1 
0 0 0 2.1349667270932624 0 0.5044376311756803 0 0 0 1:1 3:1 4:0.15789474 14:2 16:1 30:1 46:1 51:1 153:1 233:1 627:1 718:1 727:1 835:1 945:1 1826:1 1913:1 1952:1 1953:1 
8 7.8202245686132512 8 0 8 8 8 0.76780440607697586 8 4:0 1537:1 
0 2.3469670232868727 0 0 1.0712417878920175 0 3.8312805827782395 0 3.7256200414754117 4:0.22222222 13:1 14:1 16:1 23:1 26:2 30:2 40:1 42:1 46:1 51:2 52:1 54:1 82:1 89:1 93:1 117:1 134:1 506:1 1251:1 1456:1 1954:1 1955:1 1956:1 1957:1 
0 0 0 0 0 0 4.5329928477265629 0 0 4:0.125 9:1 14:1 26:1 30:2 39:2 40:1 89:1 107:1 156:1 253:1 262:1 310:1 325:1 385:1 467:1 1635:1 1958:1 1959:1 1960:1 1961:1 1962:1 1963:1 
4.8263375042648855 0.59326957023296645 0 0.1058523232741384 2.3435592211246816 3.7125458772172091 8 0 0.55903294779192514 4:0 627:1 1776:1 1913:1 1964:1 
8 8 8 0 8 0.63821146025069775 8 3.9835767728151112 8 4:0.25 9:1 14:1 26:3 42:1 46:1 268:1 497:1 1456:1 1965:1 1966:1 
8 8 7.3309428160577736 7.0957411472136762 0.96451613416011606 0 7.8465770466128344 3.2091014330998036 8 4:0 20:1 1104:1 1829:1 1967:1 1968:1 
8 8 8 1.7108264836947191 0 8 8 6.4178871142346692 5.3119705962472068 4:0 9:1 1969:1 
8 8 2.4713086992026394 3.6319742219800357 1.0748063215751065 8 8 0 8 4:0 39:1 107:1 263:1 467:1 757:1 1465:1 
0.67394579377571662 2.1213033142082405 0 0 2.4622351238308688 0.42156727730897903 2.1053236646280435 0 0.98455453086723554 3:1 4:0.1 9:3 26:2 39:2 52:1 107:1 151:1 153:1 156:1 196:1 272:1 373:1 454:1 569:1 713:1 835:1 878:1 1090:1 1311:1 1822:1 1970:1 1971:1 1972:1 1973:1 1974:1 1975:1 
0 1.8239655521457516 1.0652027696785966 0 0 0 8 0 0 4:0.25 14:1 26:1 51:1 61:1 107:1 274:1 1358:1 1403:1 
1.1598241593081506 4.643089474904893 3.3167035143805705 4.6238909843102229 5.7662136427652788 2.1869945334334222 1.2812738789836673 0.36940952057746712 2.3616670826644093 1:1 4:0.11111111 14:3 16:2 26:2 30:2 31:1 39:2 40:1 42:4 52:1 101:1 189:1 455:1 527:1 714:1 738:1 1197:1 1523:1 1976:1 1977:1 1978:1 1979:1 1980:1 1981:1 1982:1 1983:1 1984:1 
7.5967388661211679 0 0 0 0 0 8 6.2969732565086654 0 4:0.2 30:1 249:1 419:1 1451:1 1985:1 
0 0.68721848420353804 0 0 0 0 7.7325752148237656 0 0 4:0.14285714 26:1 39:1 107:1 182:1 313:1 1321:1 1986:1 
5.5908469842799091 3.6833117499853452 1.0631078351086174 5.6480948603582766 8 5.3694850150999676 8 2.5946360936809731 0 1:1 4:0.076923077 9:1 30:1 40:1 42:1 57:1 78:1 107:1 120:1 123:1 135:1 487:1 1987:1 
8 7.9394295882544847 7.9479226217048415 0.8429656765789133 7.4229364748630511 7.2762727346507887 8 8 4.7029998710196956 4:0.2 30:2 39:2 46:1 257:1 1823:1 1988:1 1989:1 1990:1 
8 8 8 1.5861833608056006 0 6.0149259104882038 8 0 8 4:0 42:1 168:1 262:1 543:1 548:1 738:1 
6.353666364082228 0 0 0 2.616095652908351 0 0 0 1.3849387386268506 4:0.15384615 5:2 26:1 30:1 39:1 40:1 42:2 84:1 1708:1 1991:1 1992:1 1993:1 
2.4549932029015111 6.9426661791639308 0 0 0.72434197105433729 0 3.2739250614466591 0 0.026739538323587178 1:1 4:0.2 51:1 1994:1 1995:1 1996:1 
0 2.7325220388618048 8 3.547124253906643 0 6.9645317199380923 4.129085884109255 0.26955766617065546 4.9774086838244083 4:0 9:1 14:1 78:1 240:1 1678:1 1829:1 1997:1 1998:1 
0.74956854201055823 0 2.5368758091924488 0.6235976831998552 1.3859477726630394 0 0 0.50496120108806541 0.38778849861678372 4:0.11111111 9:1 14:2 16:1 28:1 30:2 37:1 39:1 49:1 151:1 1999:1 2000:1 2001:1 2002:1 2003:1 2004:1 2005:1 
8 4.9358455486885422 1.2684526856395424 5.0016116623315581 5.2718072821774653 6.6805314896046415 2.5065958008043445 4.397077716806157 5.536896296244505 1:1 3:1 4:0.085714286 8:1 9:2 14:4 23:1 30:2 35:1 39:2 40:1 42:1 52:1 61:1 126:1 139:1 239:2 256:1 479:1 551:1 1070:1 1158:1 1726:1 2006:1 2007:1 2008:1 2009:1 2010:1 2011:1 
0 0 0 0 0 0 2.3643005899704437 0 4.0798031824043886 1:1 4:0.17647059 14:1 26:1 30:2 39:1 40:1 83:1 89:1 727:1 1076:1 2012:1 2013:1 2014:1 2015:1 2016:1 2017:1 
6.7895130658603611 0 0 0 0 1.9986971785541126 0 2.7550762806961737 2.3717468974917675 4:0.090909091 14:1 20:1 23:1 30:1 36:1 42:1 137:1 2008:1 2018:1 2019:1 2020:1 
6.4197383204555187 4.7774028299954763 4.8912487290145084 0 5.4429114211795779 0.62384338562455277 8 5.8263249469519707 4.007401633438529 4:0.21428571 13:1 14:1 26:1 30:2 40:1 42:1 84:1 452:1 762:1 1648:1 2021:1 2022:1 2023:1 
2.8032522760880698 0 0.27684694109116398 0 0 0 8 0 5.9069221453065852 4:0 252:1 472:1 2024:1 
0 3.3316787361149558 0 0 0 0 0 8 5.2403336975454859 1:1 4:0.125 30:1 42:1 46:1 89:1 258:1 730:1 2025:1 
8 8 8 3.8326315578615455 8 7.4788480680628453 8 0.61656199663021583 8 4:0 270:1 
8 5.9597409452562573 3.0259215671257063 0 3.6782634800386713 2.8155088784831106 8 0 0 1:1 4:0 39:1 107:1 1060:1 2026:1 
0.24455792664976081 0 0 0 0 0 5.6975495066752675 0 0 4:0.22222222 30:2 107:1 134:1 1058:1 1142:1 2027:1 2028:1 2029:1 
8 0 0 0 6.8851874315614534 0 8 0 2.9730336076100445 4:0.28571429 30:2 61:1 107:1 741:1 2030:1 2031:1 
5.5063720769060138 8 8 0 3.7237618615528914 8 8 1.760191889863234 0 4:0 39:1 240:1 2015:1 
1.7382220402191371 0 0 1.1287517438150418 1.2690633750226139 0 8 3.5545628381241099 0 4:0.15384615 9:1 30:2 42:1 170:1 199:1 212:1 243:1 667:1 809:1 1197:1 1330:1 1985:1 
5.7014878559568034 4.8725065062133863 5.124951246060979 4.8515521030422777 5.9962424493997251 1.7191733698844192 7.8504622092334611 1.448125970245171 4.0520767275193288 4:0.05 9:1 14:2 16:1 39:1 46:1 52:1 265:1 468:1 624:1 791:1 1346:1 2032:1 2033:1 2034:1 2035:1 2036:1 2037:1 2038:1 2039:1 
0 8 2.964979345960665 2.817360232036652 7.8495784216640088 2.1105364622597191 0 0 3.3562518384623812 4:0 9:1 14:1 40:1 73:1 1091:1 1147:1 2040:1 2041:1 
8 0.0035461068384336392 3.1767531081264626 2.2416001441348978 6.1368816071673349 0.74685903274628973 8 0 0 4:0.15384615 14:1 20:1 26:1 40:1 51:1 125:1 835:1 2042:1 2043:1 2044:1 2045:1 2046:1 2047:1 
8 4.0096252285804175 4.4349781297990916 0 0 0 8 6.0457734892174049 2.5644402692756354 4:0.33333333 26:1 663:1 2048:1 
8 0 0 0 0 1.0381929903741149 0.013761150288082218 0 0.59627411756086801 4:0.12 5:1 14:1 16:1 23:1 26:1 30:2 31:1 39:2 42:1 46:1 107:1 718:1 757:1 871:1 1301:1 1371:1 2049:1 2050:1 2051:1 2052:2 2053:1 2054:1 
3.2806167197446081 0 0 2.197385300533313 0.36004847215085867 2.8502872338284302 0.98187451344470589 0 0 4:0.11111111 8:1 9:1 14:1 23:1 30:2 54:1 78:1 89:1 262:1 384:1 465:1 844:1 1849:1 2055:1 2056:1 2057:1 2058:1 
0 0 0 0 0.15679498302625744 0 0 0 0 1:1 3:1 4:0.096774194 14:3 25:1 30:1 32:1 36:1 37:1 39:2 40:1 42:2 182:1 202:1 240:1 348:1 435:1 566:1 730:1 835:1 1018:1 1233:1 1248:1 1257:1 2059:1 2060:1 2061:1 2062:1 
3.4763622059367401 0.22808097668687549 0 0.34304904456282925 5.6251157129362266 0 1.6532496443127576 1.5623886287310789 0 4:0.13793103 14:3 30:4 39:4 40:2 61:1 107:2 262:1 314:1 315:1 348:1 355:1 1235:1 2063:1 2064:1 2065:1 2066:1 2067:1 2068:1 2069:1 
4.0060460010682126 0 5.4367222214651791 0 2.2126453625455644 1.5246785759418573 8 0.31007465319859578 0 4:0.11111111 26:1 31:1 39:1 46:1 2070:1 2071:1 2072:1 2073:1 2074:1 
8 8 2.1855961585135022 1.0304525077153457 1.3460364860866991 0 8 4.4807124978111172 2.4597326401931165 1:1 4:0.16666667 9:1 30:1 212:1 2075:1 2076:1 
6.7423714195383058 4.8539718925669852 4.8579160403516317 2.0254457360979674 4.5231911009507106 4.2567787546118279 8 4.2159954187677062 5.5494118851900627 4:0 20:1 42:1 2077:1 2078:1 2079:1 
3.0822371181139845 3.3088026817144378 3.713156483132424 4.3608643449616551 4.6414646800335317 3.634960992551318 6.2665581950766684 3.6347578423558535 0.36056545567508169 4:0.096774194 9:1 14:2 30:3 39:3 46:1 61:1 93:1 107:1 207:1 272:1 379:1 467:1 699:1 714:2 924:1 977:1 985:1 1268:1 1556:1 1926:1 1991:1 2080:1 2081:1 2082:1 2083:1 
0 0 0 0 2.034403120603375 0 0 0 2.5167377850807875 1:1 4:0.14814815 5:2 13:1 14:1 16:1 23:2 26:1 30:1 40:1 51:1 89:1 126:1 134:1 265:1 289:1 384:1 385:1 467:1 1324:1 1339:1 2084:1 2085:1 2086:1 2087:1 2088:1 
0.99499458126320839 0.28889235571723659 0 0 0 1.4169022276201313 0 0 0.010911215104996794 4:0.05 9:1 14:2 16:1 23:2 26:1 39:1 42:1 84:1 107:1 289:1 380:1 384:1 1324:1 2084:1 2089:1 2090:1 2091:1 2092:1 
2.7899103532592302 0 1.4201516552073665 3.2711132664348201 1.8184019920836543 0.22666730042893218 5.4768500275239553 3.1034728513726249 3.3975182671104238 4:0.23684211 8:1 14:9 20:2 26:4 30:5 107:1 272:1 417:1 1083:1 1319:1 1877:1 2093:1 2094:1 2095:1 2096:1 2097:1 2098:1 2099:1 2100:1 2101:1 2102:1 2103:1 
1.4027467945743883 0 4.5222480587570359 0 0 1.9352976759073472 8 0 8 4:0 783:1 1084:1 
0 0 0 0 0 0 0.93847958455692537 0 1.7258661855688713 4:0.09375 9:2 14:3 20:2 30:2 40:2 42:1 61:1 83:2 89:1 265:1 272:1 498:1 835:1 844:1 921:1 1985:1 2104:1 2105:1 2106:1 2107:1 2108:1 2109:1 2110:1 2111:1 2112:1 
6.0717518086240343 8 5.6427344043614314 2.4449809654081021 5.3832474169588114 4.1306137798070921 8 4.0499734525651299 5.9827410405759798 4:0.16666667 9:1 39:1 40:1 51:1 2113:1 2114:1 
0 0 0 0 0 0 4.8755490940382069 0 0.94767368064570368 4:0.2 51:1 482:1 1888:1 2115:1 2116:1 
4.9630905797515572 2.3834461126661282 8 0 0 1.5209347842913303 8 6.4770764742190181 0 4:0.16666667 14:1 26:1 467:1 1044:1 2117:1 2118:1 
1.5646929777887713 0 0 0 0.7075686076040314 0 0.76807687169697658 0 0 3:1 4:0.125 9:1 23:1 26:2 30:1 32:1 37:1 39:3 40:1 46:1 84:1 91:1 651:1 667:1 730:1 835:2 962:1 1233:1 2119:1 2120:1 2121:1 2122:1 2123:1 2124:1 2125:1 2126:1 2127:1 2128:1 
8 0 0 0 0 0 6.2376500898251095 0 0 4:0 83:1 562:1 1690:1 2129:1 
0 0 0 0 0.4996501035472517 0.43357005164635409 2.2125593914483406 0 0 3:2 4:0.23809524 14:2 30:2 36:1 39:1 51:1 482:1 672:3 1096:1 1286:1 1432:1 1638:1 2130:1 2131:1 2132:1 2133:1 
3.8614142111515544 2.2787609353682932 3.6506968227811134 2.1742046818694614 7.8469018902579233 8 3.5691415911571038 8 0 4:0.16666667 9:1 14:1 26:1 30:1 40:1 477:1 497:1 551:1 650:1 2134:1 2135:1 2136:1 
4.9953316818646485 2.3118890936403877 2.1460903794522612 1.7876453541879582 3.0727293872630543 0 1.0413462365025739 0 7.3201962397546545 4:0.086956522 9:1 14:1 20:1 22:1 26:1 30:1 39:1 42:1 61:1 207:1 396:1 1021:1 1086:1 1191:1 1434:1 2137:1 2138:1 2139:1 2140:1 2141:1 2142:1 2143:1 2144:1 
2.3046241134644445 4.4338612827576345 7.6668332522795426 3.3187248423069158 7.4337689427310227 4.2386933465667704 1.287670134423001 0 4.8990297219089554 4:0.15384615 8:1 9:2 14:2 16:1 20:2 26:2 30:2 39:1 42:2 316:1 490:1 624:1 703:1 1397:1 1662:1 1937:1 1978:1 2145:1 2146:1 2147:1 
2.3769681626828763 1.8361025795386245 2.7393877169896745 1.5309711357204638 2.8282029090258969 0.738004354606145 3.301809137711003 1.9303449606143852 3.2885320399571469 4:0.045454545 5:1 9:1 14:5 30:1 39:1 40:1 42:1 46:1 168:1 272:1 316:1 1647:1 2148:1 2149:1 2150:1 2151:1 2152:1 2153:1 
0 1.147324697275782 4.9956504263105161 0 0 0 1.0503634554103376 0 0 1:1 4:0 5:1 14:1 42:1 106:1 153:1 640:1 2157:1 2158:1 2159:1 
0 0 0.63954846753933803 0 1.3369054675898193 6.363075377025206 0 2.4881838695578691 7.1807112982400891 4:0.058823529 9:1 14:3 30:1 39:2 42:1 57:1 168:1 490:1 500:1 503:1 743:1 1568:1 2160:1 2161:1 
0 8 8 2.7327339345994681 8 7.9717501391239463 8 0 8 4:0.125 14:1 31:1 39:1 51:1 91:1 136:1 272:1 730:1 
8 8 8 0.46615726258896129 8 0 7.8379349422845186 1.0301746978319632 8 4:0.090909091 5:1 9:1 26:1 46:1 61:1 151:1 174:1 726:1 2162:1 2163:1 2164:1 
6.3660062419267049 0 0 1.8216420124466857 5.8187363357680368 5.8725980523846495 8 6.3755296811264976 0 4:0.125 9:1 30:1 42:1 78:1 262:1 2165:1 2166:1 2167:1 
2.2150512791210719 1.9703022616368768 8 0 1.8598555087718844 6.2252389781899033 7.8786489064056031 0.85109870794332476 4.4461837381337146 4:0 14:1 39:1 42:1 1216:1 1384:1 2168:1 
0 7.0888925818618 0.22481536438248817 3.2941820002108955 2.5646744365421248 0 4.7292796959696002 0 2.6591719547836621 4:0.14285714 14:1 40:1 51:1 84:1 504:1 730:1 2169:1 
8 2.6785907782828238 8 0.38013523375299912 8 2.1030459081026871 2.0292527066711519 0.095390709497425577 6.4371335762779838 4:0.2 42:1 103:1 2170:1 2171:1 2172:1 
0 0 0 0 0 0 0 0 6.0352856351228468 4:0.2 14:1 26:1 30:1 46:1 51:1 54:1 83:1 94:1 151:1 730:1 1319:1 2177:1 2178:1 2179:1 2180:1 
0 0 8 0 0 0 8 0 8 4:0.090909091 14:2 42:2 70:1 103:1 122:1 168:1 240:1 241:1 262:1 
2.0661130388593492 2.2712885586900398 2.9969386038675605 2.6995506057058751 1.5902805784194589 0 1.1875033968267805 0 2.775648250276479 3:1 4:0.064516129 14:5 20:1 23:1 25:1 39:2 42:1 46:2 70:1 151:2 314:1 438:1 490:1 567:1 835:1 1186:1 1233:1 1300:1 2181:1 2182:1 2183:1 2184:1 2185:1 2186:1 
6.1377020964330278 1.1293204801999932 8 0 8 0.080734679545438864 8 0 5.6654620116740428 4:0.2 5:1 14:1 26:1 30:1 42:1 78:1 240:1 304:1 2129:1 2187:1 
3.9504308005816737 3.4244993564373019 5.7139585928528822 0 0.11632158273859773 3.6114022086017736 8 5.6051320443290873 3.7871923710080204 4:0 14:2 898:1 2188:1 2189:1 
8 2.1819330692595313 0.97747326448755811 0 2.2006454285491515 0.073174509207747221 4.9547783365585403 0 0.36750250956839414 4:0 5:1 14:1 42:1 107:1 776:1 2190:1 2191:1 
4.0373897239471415 6.4182548240014174 0.30040638569394129 4.2775843237481981 4.4342533543166063 2.7849755009714787 0 0 5.7113530763854801 1:2 4:0.054054054 5:1 9:1 14:6 16:4 30:1 39:2 42:2 51:1 52:1 84:2 107:1 163:1 490:1 727:1 1368:1 1577:1 1823:1 2179:1 2192:1 2193:1 2194:1 2195:1 2196:1 2197:1 
0 0 2.7823252861174241 1.1891115279229749 3.3562940722232613 0 1.932490884822351 0 1.0048400019134582 4:0.17948718 9:1 13:1 14:4 16:1 26:5 30:1 40:1 42:5 51:1 52:1 203:1 239:1 240:1 484:1 490:1 660:1 772:1 925:1 1322:1 1424:1 1577:1 2198:1 2199:1 2200:1 2201:1 2202:1 2203:1 2204:1 
2.0028354449068395 0 0 0.25124265039140903 2.5060077055423484 0 3.3969200637350188 0 0.84024278503095229 4:0.2 14:1 26:2 30:1 57:1 61:1 84:1 130:1 141:1 325:1 575:1 885:1 1343:1 2163:1 2205:1 
4.5070929448532748 8 5.3125163696789732 3.3218850192874592 8 0 8 0 8 4:0.18181818 14:2 23:1 26:2 39:1 40:1 51:2 107:1 320:1 348:2 379:1 467:1 551:1 854:1 1509:1 2206:1 2207:1 2208:1 2209:1 
7.0411152364600875 3.8851133313438986 2.4396203512504107 3.0825893069027632 2.7004146044598687 3.1437789140776871 8 2.3176060625304351 3.6628886300219792 4:0 14:1 42:1 1776:1 2210:1 2211:1 2212:1 
7.4897722090641459 5.9332935865933987 2.9813090218251013 3.2141989856321191 7.6970745637439544 1.277231077138943 4.4029730116360346 1.8010626964931329 2.4018571521213592 1:1 4:0.043478261 14:6 23:1 26:1 39:1 40:1 42:1 91:1 107:1 532:1 956:1 1322:1 2173:1 2213:1 2214:1 2215:1 2216:1 2217:1 
8 0 0 4.683291764485193 8 8 0 0 2.7188558221140249 3:1 4:0.42857143 30:1 103:1 663:1 672:3 
8 0 1.0727705958301903 0.37279140708046388 0.47884702136933932 0.46682405917555975 0 0.40707620315847243 0.81736214689892783 4:0.13333333 14:1 16:1 20:1 23:1 30:2 46:1 189:1 1319:1 2218:1 2219:1 2220:3 2221:1 
1.2024266114927802 4.8139181937204132 3.4523263120514338 6.7504237645941831 4.5692569675446659 1.946767345144351 0 0 8 3:1 4:0.15384615 9:1 14:3 39:2 42:1 46:2 51:1 61:1 103:2 272:1 289:1 314:1 596:1 1010:1 1322:1 1849:1 2219:1 2222:1 2223:1 2224:1 2225:1 
0 0.17841528104256235 1.1026895067883631 0.30191975092631174 7.1663251124100578 2.0705660622866775 8 0 0 3:1 4:0.17647059 14:1 23:1 26:1 30:1 39:1 197:1 314:1 672:3 1319:1 1322:1 2226:1 2227:1 2228:1 2229:1 
0.8057488979093429 0.59379944293565545 0 0 0.9049672441197445 0 0 0.017957507354267835 0 4:0.060606061 14:7 20:1 26:1 30:1 39:1 40:1 89:1 107:1 252:1 314:1 556:1 570:1 666:1 1070:1 1163:1 1322:2 2186:1 2230:1 2231:1 2232:1 2233:1 2234:1 2235:1 2236:1 2237:1 2238:1 
1.0213937259913568 0 2.6961108334641333 0 0 0 3.3272772807690232 0 0 3:1 4:0.13513514 9:1 14:3 23:1 25:1 26:3 32:1 36:1 37:1 39:2 40:2 42:2 46:1 139:1 202:1 272:1 835:1 969:1 1146:1 1233:1 2239:1 2240:1 2241:1 2242:1 2243:1 2244:1 2245:1 2246:1 2247:1 2248:1 
8 6.0009856314434691 6.0433160629058023 5.823650681213218 4.0801498912818248 3.2611554352385674 8 6.5479275698761619 7.0701485121862104 1:1 4:0.083333333 14:2 20:1 30:1 40:1 46:1 124:1 347:1 548:1 2249:1 2250:1 
0 0 0 0 0 0 1.1391994082680716 0 8 4:0.16666667 5:1 23:1 51:1 141:1 2251:1 2252:1 
0 0 0 0 0 4.1605882066235713 8 0 0 4:0.25 26:1 727:1 1462:1 1937:1 
0.19966434548958753 0 0 0 0 0 4.8715820672125538 0 0 4:0.3125 9:1 13:1 26:1 30:3 51:1 54:1 73:1 78:1 313:1 419:1 556:1 684:1 2253:1 2254:1 
8 0 0 0 0 1.5771611358507196 7.0453260114511966 0 0.25621725063044731 4:0.23529412 16:1 23:1 26:1 30:3 107:1 191:1 262:1 395:1 397:1 456:1 783:1 1229:1 1635:1 1937:1 2255:1 
4.5163865389797841 4.4267596166353238 3.5014147245150791 3.6509061307086776 4.8058802741473956 3.4899869609794036 8 4.7601483640884936 3.0084270656116447 1:1 4:0.11764706 14:4 16:1 30:2 39:2 272:1 2180:1 2256:1 2257:1 2258:1 2259:1 2260:1 
6.5196810856545682 6.5336921425780288 0 4.1278952615086419 2.5391286214264253 1.2264258117632834 6.4971548129385566 0.98549764364744064 0 4:0.033333333 9:3 14:2 30:1 39:2 40:1 42:1 46:1 61:1 156:1 193:1 395:1 463:1 562:1 623:1 656:1 754:1 873:1 894:2 1155:1 1320:1 2261:1 2262:1 2263:1 2264:1 2265:1 
0 0 0 4.4968152794053493 1.6713290836325929 0 0 0.27862405597785067 0.011071756877402672 4:0.11764706 14:3 30:2 42:1 46:1 89:1 144:1 145:1 1337:1 2038:1 2266:1 2267:1 2268:1 2269:1 2270:1 
8 0 8 0 8 8 8 0 0 4:0 5:1 240:1 
8 7.216043626553712 4.2221070514954366 1.0392086902404454 8 5.3673575959191719 8 3.7649173876172024 0 1:3 4:0.090909091 8:1 14:1 26:1 61:1 258:1 418:1 1577:1 2271:1 
8 0 0 0 0 0 0 0 0 4:0.066666667 5:1 14:1 20:1 30:1 46:1 78:2 419:1 471:2 597:1 814:1 947:1 1146:1 2272:1 
0 8 8 8 0 8 8 0 0 4:0.16666667 9:1 46:1 51:1 52:1 243:1 726:1 
0 0.81967361510774117 0 0 0 0.12880535024934361 6.5723745278972299 0 4.3305967862806067 4:0 20:1 471:1 882:1 
1.0640842938010384 0 0.82147729913386969 2.7194594538659795 7.1831634408157505 0.097183232454340615 0 1.6307721943316833 2.7615323000652556 1:2 4:0.088235294 8:1 9:1 14:2 20:1 26:1 30:1 39:2 46:1 89:1 106:1 153:1 175:1 196:1 239:1 265:1 289:1 476:1 882:1 1158:1 2273:1 2274:1 2275:1 2276:1 2277:1 2278:1 2279:1 2280:1 2281:1 2282:1 2283:1 
8 8 8 4.523613594248026 4.0592401414594343 8 8 4.9124033377146912 1.6511985421161228 4:0 14:1 548:1 2284:1 
1.0502455646680997 0 2.3410549069121434 1.6603828147287569 3.2319853722621459 0 4.7500971607727402 0 3.1550576743956786 1:1 4:0.23529412 5:2 9:1 14:3 16:1 23:1 26:7 30:1 39:1 42:1 84:1 107:1 1071:1 1343:1 1909:1 1916:1 2285:1 2286:1 2287:1 2288:1 2289:1 2290:1 2291:1 2292:1 2293:1 
5.8513821221228026 0.042730048080061957 8 4.0727729165261461 5.6892833633895457 5.910925807442017 1.3526271522442876 0 8 4:0 9:1 23:1 107:1 178:1 1508:1 2296:1 2297:1 
0 3.735717289009961 1.6026039687480405 1.4487509405389174 3.9308266877740179 1.2647235179946197 0.60645488613646592 0 0 4:0.16666667 39:1 51:1 130:1 134:1 1916:1 2298:1 
3.3822780701468016 0.48635303553956089 0 0 0 0.39049773676122301 3.2963699449188315 0.51046709695382075 0 4:0.058823529 14:1 30:1 39:2 61:1 149:1 212:1 741:1 1556:1 1888:1 2299:1 2300:1 2301:1 2302:1 2303:1 2304:1 2305:1 
8 4.0190305507309381 1.594791722270974 0 0 0 8 5.7724474121022427 8 4:0 1004:1 
0 5.938081218611007 4.0769689867501677 1.3840277449955227 0 2.3843386497197256 3.533393302865603 1.3292752682860445 0.99653098320722433 4:0 14:1 46:1 89:1 111:1 819:1 2306:1 
0 0.82265214578149937 4.1273795939397075 0 0.3181419344454095 0 8 0.53589404950999597 2.4522026239809982 4:0.1 14:2 20:1 26:1 36:1 2307:1 2308:1 2309:1 2310:1 2311:1 
0 0 0.4228592012677822 0 0 0 8 1.1254602116861676 0 4:0.11111111 30:1 42:1 83:1 436:1 741:1 926:1 2312:1 2313:1 2314:1 
4.8593602575046715 0 0 0 0 0 1.800663798990416 0 2.5987471984361732 4:0.071428571 14:1 22:1 30:1 40:1 46:1 1004:1 1147:1 1657:1 1862:1 1865:1 2315:1 2316:1 2317:1 2318:1 
8 0 8 7.621211618458581 8 8 6.1056697544510552 0 8 4:0.28571429 26:1 52:1 57:1 94:2 103:1 2319:1 
8 5.1118682863737499 5.574804395646364 0 5.3881782536867755 0 8 0 1.197017735142885 4:0.2 26:1 40:1 61:1 252:1 2320:1 
8 8 0 4.4655334058860054 8 0 0 0 8 4:0.2 14:1 26:1 39:1 40:1 103:1 141:2 182:1 624:1 2321:1 
0 8 8 0 0 1.6287118738343669 8 2.7685453039248316 8 4:0 14:1 906:1 1689:1 1694:1 
0 8 8 8 8 8 8 0 8 4:0 35:1 548:1 
0 0 0 0 0 0 8 0 2.26602576279977 4:0 471:1 2322:1 
8 8 8 6.8412877057582451 8 1.5291802935759311 8 0 8 4:0 16:1 23:1 40:1 52:1 174:1 809:1 2323:1 
8 7.5929551344226098 8 0.60851628572781358 8 8 8 1.5806912518801481 1.5884601697001026 4:0 548:1 2324:1 
0 0 0 0 6.2861584870774001 0 0 0 8 4:0 5:1 9:1 52:1 83:1 1779:1 2325:1 
8 8 8 0 8 3.838726850249341 8 7.9422097222557948 8 4:0.25 26:1 40:1 1147:1 2326:1 
1.4745054452836441 0 0 0 7.0501182277041226 0 8 8 0 4:0.57142857 30:4 61:1 1052:1 2327:1 
5.1139231638433849 3.4271219427440669 0 1.8705025219826819 0.24917886053116745 0 0.24763253295470605 2.5877500990839 1.9030701185972223 1:1 4:0.038461538 14:6 30:1 40:1 42:2 49:1 73:1 113:1 151:1 533:1 543:1 575:1 2328:1 2329:1 2330:1 2331:1 2332:1 2333:1 2334:1 2335:1 
6.7450051402648956 8 8 7.296596587048068 7.310251314216397 7.1755016910839933 8 3.2952538209037563 8 4:0 39:1 42:1 854:1 1336:1 2336:1 2337:1 
3.9775251826567843 6.7410042827998184 1.986973353719238 0 7.5603689251022326 0 4.5485604342811916 1.2388162900951876 1.5765541860625252 1:1 3:1 4:0.13333333 5:1 23:1 30:1 39:1 46:2 120:1 591:1 2195:1 2338:1 2339:1 2340:1 2341:1 
8 8 8 0 6.6835988665525967 4.9170801808476616 8 8 8 4:0 1004:1 
7.1850598547024669 0 0 0 0.49719845354154585 2.9622562403962682 3.7362319803827049 0.76158695848897207 0 1:1 4:0.068965517 9:2 14:3 23:2 30:2 39:1 42:1 52:1 61:1 107:1 191:1 835:1 1090:1 2314:1 2342:1 2343:1 2344:1 2345:1 2346:1 2347:1 2348:1 2349:1 2350:1 2351:1 
4.9062989337271796 4.6313478097731391 0.41040952502601413 4.2649843933506491 8 0.91592419906834288 2.6667568872571108 0 1.9329664877602299 3:1 4:0.13157895 9:1 13:1 14:2 20:2 23:2 26:2 30:2 39:1 40:3 42:1 46:2 191:1 230:1 658:1 844:1 956:1 957:1 1451:1 2251:1 2352:1 2353:1 2354:1 2355:1 2356:1 2357:1 2358:1 2359:1 2360:1 2361:1 
5.4041250053231273 3.2602057038293224 5.1491215201523648 3.5170995517084669 4.8839062653982994 2.0283109919032265 3.1295433221855764 0 5.0570093773476348 1:1 4:0.029411765 9:1 14:2 39:2 40:2 42:2 46:1 103:1 107:1 141:1 153:1 182:1 314:1 470:1 472:1 532:1 689:1 794:1 2362:1 2363:1 2364:1 2365:1 2366:1 2367:1 2368:1 2369:1 2370:1 2371:1 2372:1 2373:1 
5.2174852549790423 3.7535980064273389 0 0 0 2.9513483865498715 0 0 0 1:2 4:0.066666667 8:1 14:3 20:1 26:1 30:1 31:1 39:2 57:1 61:1 83:1 107:1 191:1 335:1 408:1 487:1 551:1 556:1 727:1 983:1 1965:1 2374:1 2375:1 2376:1 2377:1 2378:1 
5.5947039311726208 0 0 1.7315917443469633 2.4558499814885786 0 6.6698022633767939 2.150249306158492 1.1673588117224638 4:0.26666667 14:2 26:1 30:3 40:1 663:1 714:1 809:1 2379:1 2380:1 2381:1 2382:1 2383:1 
6.0503421496147514 1.453775548485625 3.5285663937424441 4.5782272135697788 4.3399507765564982 6.2611032661501183 6.0209072906331746 3.4901600174955552 5.2523537430934342 3:1 4:0.15789474 14:3 23:1 26:1 30:1 36:1 39:1 40:1 423:1 1018:1 1713:1 1953:1 2384:1 2385:1 2386:1 2387:1 2388:1 
8 8 5.6753082866712967 8 8 0 5.6457244038738148 0.32301514001424281 0 4:0.27272727 14:1 26:2 30:1 40:1 151:1 201:1 216:1 1043:1 1321:1 2389:1 
4.2573618099422967 3.5331991190265146 5.8486560632416706 1.0911986124706881 5.3436305534058057 2.4409333302451941 5.8871621891908479 3.8370641838127981 1.9854273596371363 4:0.15384615 9:1 14:1 23:1 26:1 30:1 39:1 42:1 1234:1 1365:1 2390:1 2391:1 2392:1 2393:1 
5.7947621280727573 3.6946881654005388 3.3074312425818464 5.4374718403390947 7.521712771157727 2.4355885810958671 1.561692377899442 1.7011391593952025 2.2276970693099862 4:0.064516129 8:1 14:4 20:2 23:1 26:1 30:1 39:2 40:1 46:1 107:1 141:1 183:1 240:1 262:1 1341:1 1410:1 2394:1 2395:1 2396:1 2397:1 2398:1 2399:1 2400:1 2401:1 2402:1 2403:1 
7.5339852847223199 8 6.9518971758997186 8 6.7587102745295153 3.9182447490382843 3.2192158750056361 0 4.4173435080091448 4:0.083333333 5:1 9:1 14:3 20:1 23:1 26:2 39:1 41:1 42:1 46:1 89:1 151:1 201:1 223:1 947:1 2350:1 2404:1 2405:1 2406:1 2407:1 2408:1 
0 0.88078573096153912 0 0 0 0 0.87288613573030682 0 0 4:0.055555556 20:1 30:1 40:1 243:2 262:1 395:1 894:1 1074:1 1148:2 1758:1 2409:1 2410:1 2411:1 2412:1 2413:1 2414:1 
1.1533546372304184 0 4.7052345128778468 0 8 5.6936071740269147 8 3.5790463878309535 8 4:0 642:1 
7.3623794922324315 3.6278656114133758 0 7.5038968317442549 5.9014851592659241 7.5507817336751799 7.1234855540215749 0 1.1408485686537027 4:0 9:1 14:1 42:1 73:1 107:1 189:1 313:1 1074:1 1076:1 2415:1 
0.57472955272693182 0 0 0 0 0 0 0 0 3:1 4:0.11428571 5:1 9:2 14:4 16:1 20:1 25:2 26:1 36:2 39:1 40:1 41:1 42:1 46:1 89:1 129:1 158:1 1159:1 2350:1 2404:1 2405:1 2416:1 2417:1 2418:1 2419:1 2420:1 2421:1 2422:1 2423:1 
8 8 4.8086544244716682 0 3.5208971081484135 0 8 0.74082530526497148 8 4:0 9:1 2427:1 
0.9419799091295652 0 0 0 2.0544630905530772 0 3.2580860086595282 0 0 3:1 4:0.15384615 25:2 26:1 36:2 40:1 42:3 82:1 84:1 89:1 151:1 253:1 314:1 341:1 395:1 594:1 873:1 894:1 1343:2 1673:2 2428:1 
3.5229660000396046 1.6756761667907751 0.081898545125806743 5.0202999579318295 2.387835844611518 0 7.0628514631096584 0 2.5406999392671845 4:0.17857143 14:1 20:2 26:2 30:3 39:4 40:1 83:1 197:1 240:1 467:1 1432:1 1521:1 1732:1 1798:1 1989:1 2334:1 2429:1 2430:1 2431:1 2432:1 2433:1 
7.117023585445005 2.128834718326559 1.9992454558054429 0 6.2517476714403601 0 2.6789605805446932 0 0 4:0.17391304 14:2 26:1 30:3 39:2 40:2 42:1 54:1 70:1 107:2 657:1 704:2 1557:1 2434:1 2435:1 2436:1 2437:1 
1.7769398472188416 5.5805891512901207 0.76646703761431612 0.89508189445085906 1.3455302884724938 0 8 0 2.4488777854665025 4:0 14:3 20:1 23:1 39:1 42:1 52:1 141:1 149:1 325:1 498:1 575:1 1268:1 1556:1 2438:1 2439:1 2440:1 2441:1 2442:1 2443:1 
1.468514242560123 5.7713402778808645 5.4468822039866946 1.4946216845711142 2.0764600044199382 3.5078362061277946 8 1.9383357929723415 8 4:0 42:1 151:1 467:1 1553:1 2444:1 2445:1 2446:1 
6.9892009008377673 5.7492711570240509 4.0668066964510299 2.3562701833712723 4.0702955140406152 6.055384823756901 6.3143696165496959 0.91941749677144502 5.2841520482398829 1:1 4:0.125 14:6 20:1 26:2 30:2 31:1 39:1 380:1 384:1 422:1 560:1 575:1 1256:1 1268:1 1556:1 1666:1 2447:1 2448:1 2449:1 2450:1 2451:1 2452:1 2453:1 2454:1 2455:1 
8 7.8291807840500942 8 3.1897454316306311 8 8 8 6.2754556335252829 8 4:0 14:1 42:1 2456:1 2457:1 
3.3206336926389257 4.9094688451419817 8 0 6.0876145433611484 0 8 2.1848196934342745 5.2870638551319411 4:0.2 26:1 764:1 2167:1 2458:1 2459:1 
0 0 0 0.31994278382271724 0 0 0 0 0 4:0.10526316 9:1 26:1 30:1 32:1 37:1 40:1 46:3 134:1 448:1 642:1 1146:1 1311:1 1923:1 2460:1 2461:1 2462:1 2463:1 
8 0 3.9037215201357913 0 8 0.040819486533990208 8 0 8 4:0.33333333 14:1 26:1 30:1 31:1 103:1 241:1 265:1 395:2 2464:1 2465:1 2466:1 
8 8 0 0 0 0 8 0 0 4:0 39:1 75:1 
0.73559172569013098 0 0 0 0 6.7449078334823094 0 0 0 3:2 4:0.17857143 14:4 30:2 36:1 39:2 51:1 52:1 436:1 482:1 532:1 667:1 672:3 726:1 727:1 828:1 2467:1 2468:1 2469:1 2470:1 2471:1 
8 1.4270567655585615 8 0 7.4987805162146595 3.18302428918286 8 8 8 4:0 42:1 715:1 2472:1 
3.5808817111337667 2.9959336727352626 5.2576407015011215 0 4.2625791023178881 6.1446252325168498 0 8 3.4440301775922277 1:1 3:1 4:0.055555556 14:2 42:1 89:1 155:1 224:1 225:1 229:1 551:1 676:1 1690:1 1699:1 1768:1 2251:1 2473:1 2474:1 
2.5480076638785145 1.9899595945078745 1.3938247663454866 0 0 0 2.0030991652360037 0 5.4435413748652444 4:0.083333333 9:1 14:2 39:1 46:1 51:1 81:1 1730:1 2475:1 2476:1 2477:1 2478:1 
1.6001922902515682 0.90617379372570239 0 0 1.4361241317917814 0 8 1.9708008675347606 4.8022434649668586 1:1 4:0.19047619 14:2 26:1 30:3 39:1 42:1 122:1 243:1 313:1 395:1 472:1 983:1 1090:1 2479:1 2480:1 2481:1 2482:1 2483:1 
0.70149633944405565 0 0 0 0 0 0 0 7.0800649235816016 1:1 4:0.125 8:1 9:2 16:1 26:2 30:1 42:1 52:1 61:1 83:2 84:1 107:1 680:1 810:1 1459:2 1862:1 1865:1 2484:1 2485:1 2486:1 
0 3.788999742627881 0 0 0 0 3.1489753349934384 0 2.5360086666124433 1:2 4:0.1 5:2 14:3 16:1 30:3 39:1 40:1 42:2 57:1 61:1 107:1 109:1 122:1 359:1 395:1 1674:1 2481:1 2487:1 2488:1 2489:1 2490:1 2491:1 2492:1 
3.303416472529749 0 0.30579406451708119 2.3833943221347633 8 0 0 0 6.0027479943661639 1:1 4:0.15384615 5:1 9:2 14:1 30:1 39:1 40:2 42:1 61:1 103:2 151:1 168:1 265:1 543:1 623:1 789:1 898:1 1368:1 2491:1 2493:1 2494:1 2495:1 2496:1 
2.0599860049981507 3.0953199684330506 0 1.0337490737034127 8 5.1022448409389662 0 0 4.3043577168805625 4:0.071428571 5:3 9:1 14:3 30:1 39:3 42:3 51:1 106:1 262:1 329:1 718:1 1076:1 1595:1 2198:1 2497:1 2498:1 2499:1 2500:1 2501:1 2502:1 
0.98782135931091197 3.7943092022469771 0.9773369604646055 1.9214178368728689 2.2235976508159965 4.0261321057483315 0 0 4.5196582530950318 1:1 4:0.12 9:1 16:1 30:1 39:1 51:1 61:2 89:1 125:1 240:1 265:1 272:1 283:1 420:1 422:2 1459:1 2205:1 2503:1 2504:1 2505:1 2506:1 2507:1 2508:1 
0 7.3891392929830673 1.2003849076447053 0 0 0 2.4045969673269596 0 4.7456970373991743 4:0 39:1 83:1 2509:1 2510:1 
2.4842648574849413 0.23935378513026373 1.9519808116294695 2.3512196243850356 1.6999916694559163 0 6.7910917253969911 0 0.78143568369158789 1:1 4:0.10714286 9:1 14:1 20:1 26:2 30:1 40:1 84:1 107:1 240:1 262:1 314:1 620:1 639:1 684:1 1509:1 1844:1 2511:1 2512:1 2513:1 2514:1 2515:1 2516:1 2517:1 2518:1 2519:1 2520:1 
0.99580991271550312 3.5997408107266646 0 0 0 0 8 0 0 4:0.25 40:1 51:1 2521:1 2522:1 
6.1768765792981828 6.7524999915602164 7.0641896935873385 1.9630686548565106 3.6942482036073887 0.42286305637960792 5.8281522423975467 0 8 4:0.125 16:1 39:1 51:1 125:1 178:1 551:1 2052:1 2523:1 
0 0 0.85797580700256648 0.30943266231692124 0.34501171437694461 0 0 0 1.9653133044739477 4:0.1 9:1 14:2 26:1 30:1 39:2 178:2 252:2 419:1 1451:1 2299:2 2524:1 2525:1 2526:1 2527:2 
0.3491013230578302 1.8527408101625487 2.0368067903218736 0 6.0325420864065524 0.58974372350695381 2.2349515787268559 0 0 4:0.11111111 16:1 26:1 39:1 89:1 1127:1 2532:1 2533:1 2534:1 2535:1 
2.7298485288236853 0 0 0 3.2093710963039923 0 0 0.14451507188069759 0 1:1 4:0.090909091 5:2 8:1 9:2 14:3 26:1 30:2 40:1 42:3 61:1 252:1 352:1 528:1 1052:1 2023:1 2144:1 2536:1 2537:1 2538:1 2539:1 2540:1 2541:1 2542:1 2543:1 2544:1 2545:1 
0 0 0 0 0 0 0.61946046870496074 0 0 4:0.14285714 14:2 30:1 145:1 2532:1 2546:1 2547:1 
6.3183163659148782 8 0 0 8 0 8 0 6.0181908119096912 4:0 1776:1 2548:1 
6.5294700423054577 8 8 0 8 8 8 0 8 4:0.2 9:1 14:1 51:2 107:1 109:1 422:1 854:1 2549:1 2550:1 
3.0550750184443158 2.2521905193932561 0 1.6231474738978635 1.8675570782886539 0 1.2120280788056843 0.24857693630137404 2.617514873779462 3:2 4:0.22222222 14:2 25:1 26:1 30:2 36:1 40:2 46:1 49:1 107:1 450:1 604:1 623:1 1693:1 2525:1 2551:1 2552:1 2553:1 2554:1 2555:1 2556:1 2557:1 2558:1 
6.105449850159979 0 0.99833728886072093 0 0 0 4.3607776621978411 0.58377742556488288 0 4:0.2 26:1 30:1 39:1 61:1 252:1 456:1 648:1 766:1 2557:1 2559:1 
8 8 8 3.1840240511257867 2.5234710212339722 7.0097739055565151 8 8 8 4:0.2 30:1 120:1 153:1 1346:1 2560:1 
4.558012716687796 7.1954654423925959 1.8712107446579236 0 0 2.050362251275553 8 0 3.9734853675513739 4:0 888:1 1307:1 2561:1 2562:1 
6.4192473388322169 0 0 0 0 0 1.2683503763365673 0.11788079400742876 0 4:0.25 5:1 30:1 1084:1 2563:1 
8 8 7.0983123566100863 2.7970610366948612 7.3485639963742218 8 8 5.962011506213611 5.7562236926691819 4:0 14:1 20:1 39:1 2564:1 2565:1 
8 8 8 0 0 5.0488294415440107 8 2.6523263865903068 1.9086436283222963 4:0 126:1 2566:1 
8 8 8 0.66943074366439159 8 8 8 4.3067329745226219 8 4:0 9:1 2567:1 
8 8 0 0 0 4.3893211980800233 8 7.1581805508634284 5.405056969295341 4:0.14285714 14:1 30:1 42:1 107:1 153:1 1673:1 2052:1 
7.2842606361362252 8 8 8 0 0 8 0 3.1267845493309352 4:0.1 14:1 26:1 40:1 46:1 212:1 623:1 2568:1 2569:1 2570:1 2571:1 
8 8 6.7278137445822779 0 8 2.3491584767295763 8 0 0.086874148648407035 4:0 107:1 1451:1 2572:1 
8 8 0 0 0 0 8 0 8 4:0 22:1 
0 0 0 0 1.5137905153758504 0 0.44751592565932258 0 1.4510141595523565 4:0.18181818 14:1 26:1 30:1 39:1 304:1 1648:1 2299:1 2573:1 2574:1 2575:1 2576:1 
8 0.11514901203193402 5.5643111779538641 6.088159690764444 7.7549972586510014 5.9692099685517066 8 5.5419975857457962 2.8908779610867565 4:0.14285714 16:1 30:1 42:1 61:1 262:1 803:1 2577:1 
8 5.6485001999290532 0.47684833652315173 6.312018239903713 3.2369802553097804 3.4691979560955235 0 5.2266261050595908 8 1:1 4:0.090909091 8:1 14:1 30:1 39:2 873:1 1010:1 1648:1 2074:1 2578:1 
0.6346285680766921 4.598682051006131 2.1108406899008942 0 0.28994406793290867 1.819883496678945 4.4853892777632707 0 2.4031776824683573 4:0.15384615 9:1 14:1 39:1 42:1 51:2 107:1 281:1 854:1 1672:1 2579:1 2580:1 2581:1 
0.58705136887682019 0 0 0 0 0 0 0 0 4:0.090909091 14:1 30:1 40:1 151:1 422:1 504:1 505:1 623:1 1904:1 2582:1 2583:1 
4.8790830215348295 5.9720915955393057 0 0 6.7627063703571944 0 0 0 6.6320974913927664 4:0.090909091 14:2 39:1 51:1 52:1 83:1 107:1 151:1 263:1 556:1 2584:1 
2.074026943603589 6.330155820161175 2.9938804131382026 3.1223691714260733 0 2.6771917119676454 7.56603914910822 0 6.9628701277260872 4:0 14:1 40:1 46:1 61:1 212:1 1127:1 1147:1 2532:1 2585:1 2586:1 
0 5.0075618161814583 4.8707758264809868 0 0 1.0944385672916865 8 0 2.0433322299559675 4:0 14:1 39:1 134:1 320:1 1621:1 2587:1 
0 0 4.680884744983798 0 0.46387674917976129 1.6247142206731422 1.8451069715371156 0 0 4:0.083333333 9:1 14:1 30:1 39:1 40:1 42:1 109:1 239:1 1118:1 1158:1 1410:1 2398:1 
0 1.1539095742990733 0 4.6931030880156239 0 0 0 0 6.9596576124019895 4:0.083333333 14:1 30:2 39:2 40:2 89:1 107:2 141:1 149:1 529:1 933:1 1403:1 1678:1 1829:1 2588:1 2589:1 2590:1 2591:1 2592:1 2593:1 2594:1 
5.4235883334022601 0 1.8471709374121192 0.12255527585259479 4.5690333923722823 0.3037724720897873 0 0.59457172118516455 1.0083833091516468 4:0.13333333 14:3 23:1 30:4 39:2 49:1 61:1 91:1 107:1 401:1 730:1 1025:1 1123:1 1217:1 1251:1 2595:1 2596:1 2597:1 2598:1 2599:1 2600:1 2601:1 2602:1 2603:1 2604:1 
0 0 0 0 0 0 5.7052470305946335 0 0.38138455229501478 4:0 39:1 182:2 2605:1 2606:1 
7.3163137972319507 8 8 8 8 4.2668647179926333 8 2.4543189708414745 8 4:0 9:1 13:1 40:1 89:1 743:1 860:1 2607:1 2608:1 
0 1.0320297614510123 2.2750222862731797 0 0 3.3970198991928737 5.8572420277037534 3.8589323640990361 0 1:1 4:0.071428571 14:1 16:1 30:1 597:1 658:1 726:1 1017:1 1476:1 2004:1 2609:1 2610:1 2611:1 2612:1 
1.6609767695243529 3.6222108752848121 2.59970779575232 5.5850215497953783 2.2397168695047931 0.85448663221674648 3.1262213860455796 0 1.5379612851231979 1:2 4:0.095238095 5:1 8:1 9:1 14:2 26:1 30:1 42:3 61:2 1342:1 2144:1 2536:1 2542:1 2613:1 2614:1 2615:1 
0 1.0776863017496798 1.7456285694256253 0 0.086359177430661266 0 0.13579862165516807 0 3.9638660438199302 4:0.4 51:2 718:1 2616:1 2617:1 
6.3775202550360328 8 6.0127920990662806 0 1.7612103239536692 7.4798506453413003 7.0508782377439809 0 2.5356024411138089 4:0.11111111 9:1 20:1 46:1 51:1 107:1 600:1 2405:1 2618:1 2619:1 
8 3.3223567791314133 8 0 0 5.3145446340188869 0 2.900610807889902 3.1222887577386484 4:0 39:1 40:1 52:1 151:1 1263:1 2620:1 
0 0 0 3.9583721900374536 1.5077020798173688 2.8183933195059341 0.47658981925758392 0 4.5906315629890688 1:1 4:0.076923077 9:1 14:1 30:1 39:1 91:1 123:1 151:1 730:1 791:1 2529:1 2621:1 2622:1 
8 8 8 5.93708308976883 8 8 8 8 6.2021666469091548 4:0 14:1 166:1 2623:1 
8 2.1654639904681479 2.5472499305892082 1.6892830608313074 3.7691589653322972 5.0875634124664746 3.1616178483698656 0 3.8511738499108348 1:1 4:0 5:1 9:2 42:1 107:1 667:1 1892:1 2624:1 2625:1 
0 0 0 0 0 0 0.16434656934029124 0 0 3:1 4:0.15625 9:1 14:3 26:1 30:2 36:1 39:1 40:1 42:1 46:1 51:1 52:1 139:1 156:1 182:1 272:1 482:1 624:1 672:3 2130:1 2518:1 2626:1 2627:1 2628:1 2629:1 2630:1 2631:1 
8 0 0 0 8 0 8 8 0 4:0.75 30:3 61:1 
8 8 8 0 8 8 8 0 8 4:0 54:1 
0 1.0141435610830185 1.3421066238752712 0.87787242738397164 1.8859850539321072 0 4.9667859523317173 0 0.66555091070980421 4:0.090909091 9:1 13:1 14:2 23:1 26:1 30:1 39:1 46:1 272:1 898:1 977:1 1093:1 1776:1 2632:1 2633:1 2634:1 2635:1 2636:1 2637:1 2638:1 2639:1 
2.369453285493166 2.8037616380105734 1.9729474424953783 0.4507801663638929 0 0.71673315008587934 2.2141457983127837 2.6933036318308559 2.5823135494662033 4:0.22222222 14:1 26:1 30:1 39:1 89:1 1326:1 2640:1 2641:1 2642:1 
