svm_type c_svc
kernel_type polynomial
degree 1
gamma 0.03125
coef0 0
nr_class 10
total_sv 17884
rho -0.75256733762194472 -0.81203694233496326 -0.76099338990568677 -1.2544249732652646 -0.90324974136628655 -0.91676329007755264 0.12863079692546062 -0.86752056273604006 -0.89743912110038082 -0.068904535523432064 -0.016623345091168223 -1.0067429656635767 -0.36771075838940875 -0.45166976825639465 0.79371257004760742 -0.65486803469929866 -0.29886890242916769 -0.010824379170128288 -0.98460059453602355 -0.30809020708150964 -0.41529036545127568 0.79445400520809406 -0.54404018083896721 -0.1594906003840949 -0.97630366127135626 -0.26100410284119463 -0.3847001064709592 0.75291182502601239 -0.5340729619605018 -0.083287294854533345 1.0203804528291103 0.93269008005254928 1.1702657106638332 0.72012287072925907 0.97046442401714061 -0.25889685409141217 0.88879466433487297 -0.44022746244547095 0.054685970394165971 0.89914557902708592 -0.47134838447633642 0.27709443709211895 -0.91055345805744548 -0.87775914872070959 0.4381296906853282
label 0 1 2 3 4 5 6 7 8 9
nr_sv 2021 1979 2085 1561 1545 1810 1701 1997 1573 1612
SV
8 8 3.334195624830333 1.8369886381327647 8 4.634099610521532 7.7551938415918125 0 5.6059066379006968 1:1 2:1 3:1 4:1 5:1 6:7 7:1 8:1 
2.0012292065918329 3.2450916964663037 6.1680087805536967 5.6788964541430484 2.9605970687057974 4.2504272510014056 0 2.9522836580066532 3.4539997823545794 6:16 9:1 10:1 11:1 12:1 13:1 14:4 15:1 16:1 17:1 18:1 19:1 20:1 21:1 
0 0 1.4607218795272188 2.4090589981804444 0 0 0 0 0 3:1 6:17 20:2 23:1 24:1 32:1 34:1 37:1 40:1 45:1 46:1 47:1 48:1 49:1 50:1 51:1 52:1 
2.4272428553638181 3.4547360853592646 6.4119979906014626 0 1.2083008991300177 0 2.6419900792616269 0 3.9328276619327407 4:1 6:14 26:2 46:1 51:1 53:1 54:1 55:1 56:1 57:1 58:1 59:1 60:1 61:1 
3.0187054820085253 6.2184972491921053 5.2329664177695525 0.76666882782667378 2.0622075463625698 3.8088078721102168 2.9544614676105163 0.85244721643636212 2.4257162219565354 3:1 6:31 14:2 20:1 23:2 25:1 26:1 34:1 39:3 42:2 43:1 44:1 45:1 46:1 47:1 62:1 63:1 64:1 65:2 66:1 67:1 68:1 69:1 70:1 71:1 72:1 
8 8 8 0 6.2884819669099254 8 8 0 8 6:4 9:1 14:1 61:1 73:1 
8 8 8 0 8 8 8 3.6000842452500521 8 6:2 31:1 74:1 
8 5.1917194339191663 0 0 0 0 8 0 0 6:2 39:1 75:1 
2.0056045250109396 0 7.2347137078400143 3.9122709090981189 2.7376482961456978 2.5956574051871644 8 0 8 6:8 9:1 14:1 26:1 42:1 76:1 77:1 78:1 79:1 
8 8 8 0 0 0 8 0 8 6:2 51:1 80:1 
0 0 2.3699220316644136 0 0 0 0 0 0.8168487989005444 4:1 6:18 14:1 26:3 42:2 51:1 61:1 81:1 82:2 83:1 84:1 85:2 86:1 87:1 
0 2.2891526308160257 3.8069585442845426 0 0 0 0 0 0.92558417080942623 6:7 9:1 14:1 88:1 89:1 90:1 91:1 92:1 
1.3521857739275742 4.5866766676791961 3.2570059766905599 4.2766296660269028 0 0 1.7959955994689283 0 1.3894801044972922 6:7 9:1 89:1 93:1 94:1 95:1 96:1 97:1 
0 0 0.27282251591154688 0 0 0 0.75225301747652584 0 0 6:7 14:1 16:1 83:1 89:1 98:1 99:1 100:1 
0 0 0 3.0205261984188159 0 0 0 0 1.7490965633116313 6:11 9:1 14:1 22:1 30:1 89:1 92:1 101:1 102:1 103:1 104:1 105:1 
4.5024099598553065 0 0 0 4.0559467400647113 0 3.6523047137027573 0.70142516307850211 0.19054666744376203 6:20 23:1 26:1 30:3 42:2 46:1 106:1 107:1 108:1 109:1 110:1 111:1 112:1 113:1 114:1 115:1 116:1 117:1 
6.5946959909545297 0 0 3.264294764215256 7.6471768755845684 0 8 2.8813563734455023 8 4:1 6:13 9:1 30:3 39:1 118:1 119:1 120:1 121:1 122:1 123:1 124:1 
0 1.0978374915637872 0 2.1272956260044773 5.4168144071315858 3.5350517227609437 0 0 4.1033066916369094 6:33 8:1 9:1 13:1 14:3 23:1 39:1 40:3 46:2 52:1 125:1 126:1 127:1 128:1 129:1 130:1 131:1 132:1 133:1 134:1 135:1 136:1 137:1 138:1 139:1 140:1 141:1 142:1 143:1 
2.5313600920997503 0 6.2865819570204966 0 0 0 8 0 2.3834866284741842 6:4 14:1 83:1 146:1 147:1 
8 0 0 0 0 0 1.9989339482373807 0 0 6:6 13:1 51:1 83:1 148:1 149:1 150:1 
1.5903015640980724 3.1347631645321421 2.6788199849315233 2.1761286208735608 3.2832221017049217 2.3476993934309389 0.20516601413103583 1.1768643197598332 3.7563099777091229 6:30 9:2 16:3 23:1 30:2 39:1 46:1 61:3 126:1 151:1 152:1 153:1 154:1 155:1 156:1 157:1 158:1 159:1 160:1 161:1 162:1 163:1 164:1 165:1 166:1 
8 7.1874846416489389 0 0 1.2133239639732607 0.80739077280338434 8 0 8 1:1 6:8 30:1 42:1 61:1 107:1 167:1 168:1 169:1 
3.2926860488573206 3.0200636183671623 0 0.84995255112212886 6.6378824148984856 0 1.7964517417550816 1.8003322505790245 3.9577383321627808 1:1 6:38 9:1 16:2 26:1 30:5 31:1 39:4 40:1 42:1 46:1 49:1 70:1 107:1 126:1 139:1 170:1 171:1 172:1 173:1 174:1 175:1 176:1 177:1 178:1 179:1 180:1 181:1 182:1 183:1 184:1 
7.1436130090488179 8 8 2.8597726786417774 6.5842513924246058 6.368599651746047 8 8 8 6:4 14:1 39:1 185:1 186:1 
5.338438730204925 8 3.969350967711434 6.2179051797952543 8 4.9007447396705555 1.5764453391708195 1.3522991985217951 8 3:2 6:31 9:2 14:2 31:1 39:1 40:1 42:1 46:1 61:2 170:1 187:1 188:1 189:1 190:1 191:1 192:1 193:1 194:1 195:1 196:1 197:1 198:1 199:1 200:1 201:1 202:2 
0 0 1.2052305342020386 0 0.95634469420788537 0 1.4494057965027527 0 1.8096854484282043 6:16 17:1 26:3 30:1 40:1 51:1 61:1 203:1 204:1 205:1 206:1 207:1 208:1 209:1 210:1 
6.2171785413099219 7.4459956272785695 5.6609519695390889 1.406655159086571 0 0 8 0.058795909204641124 3.122941239649339 1:1 6:5 9:1 211:1 212:1 213:1 
8 7.0480324817578088 3.8065725889245177 5.3687406110916198 8 5.7457412362392475 2.3560141926811209 2.2744441876422399 6.5446219123663347 6:19 9:2 14:1 30:1 39:1 40:1 42:1 46:1 61:1 83:1 107:1 214:1 215:1 216:1 217:1 218:1 219:2 220:1 
2.2836026895655901 0 4.909030042758439 3.5565778736564475 3.3052082979229676 1.6513156299699456 2.4420870281900648 2.826804898490245 3.2478151808957199 1:1 6:31 8:2 14:3 20:1 26:1 30:2 40:1 46:1 49:1 61:1 68:1 84:1 221:1 222:1 223:1 224:1 225:1 226:1 227:1 228:1 229:1 230:1 231:1 232:1 233:1 234:1 235:1 
0 0 0 0.41638417254385585 0 0.35233685865057812 5.8088854399383605 0 0 6:18 9:1 14:3 30:1 40:1 51:1 61:2 81:1 236:1 237:1 238:1 239:1 240:1 241:1 242:1 243:1 
5.2028886448701499 6.8667121103000843 0.19314542092949935 7.2608050540765987 7.1502653980658009 2.3198039233504057 0 1.3750446470190192 5.0529423370375213 1:1 4:2 6:23 9:2 14:1 31:1 39:1 42:3 61:2 135:1 230:1 244:1 245:1 246:1 247:1 248:1 249:1 250:1 251:1 
8 0 8 0 8 3.9259420031699781 8 0 8 6:9 14:1 40:1 42:2 103:1 265:1 266:1 267:1 268:1 
1.7852518796093229 0 0 0 8 0 4.781659276187213 8 7.2620431031354364 4:1 6:11 14:1 16:1 20:1 30:4 40:1 269:1 270:1 
4.5153213401577519 0 0 0 5.9273967665354323 6.6254009496767896 8 0 0 6:15 14:1 16:1 30:2 39:1 40:1 42:2 52:1 89:1 271:1 272:1 273:1 274:1 275:1 
2.0249707803944101 0.35486654271901819 0.012549997701626538 0.3153266606120661 0.69168432516795098 0 1.8427753549288077 4.9696177413769504 0.87674159027508036 6:9 14:1 30:1 141:1 276:1 277:1 278:1 279:1 280:1 281:1 
0.96276758580292843 0 0 1.2582934287021146 1.6572273395806365 0 7.3186827453760781 0.99281306987492746 5.6555777887106409 6:14 14:2 30:2 39:1 42:1 51:1 282:1 283:1 284:1 285:1 286:1 287:1 288:1 
6.7797605212633067 5.7931136561801413 1.2852906492304124 4.7610784032876312 3.0781298823313197 2.3778773941793854 2.446700111522722 1.0640666039975815 4.2299586006544558 3:1 4:1 6:32 9:1 14:3 20:2 23:1 39:1 40:1 46:1 107:2 182:1 240:1 272:1 289:1 290:1 291:1 292:1 293:1 294:1 295:1 296:1 297:1 298:1 299:1 300:1 301:1 302:1 303:1 
8 3.3047141597613554 0 0.87234736272334557 8 0.091386616171429277 8 5.3202678233514105 3.2634263505526833 6:7 30:2 40:1 304:1 305:1 306:1 307:1 
1.0349019803803323 0 0 1.7422227688576382 0.93738254780588393 0 0 0 0 1:1 6:34 9:1 14:4 30:2 39:3 40:1 42:2 65:1 107:1 265:1 308:1 309:1 310:1 311:1 312:1 313:1 314:1 315:1 316:1 317:1 318:1 319:1 320:1 321:1 322:1 323:1 324:1 
3.0835044766093631 6.2294720225459095 3.2059043864807211 5.227448566366192 3.3945725547531507 4.2938239206522102 4.7931655758447151 1.968375186061019 3.2357491254983222 3:1 6:30 9:1 14:2 25:1 26:1 34:1 39:2 40:2 42:1 129:1 246:1 325:1 326:1 327:1 328:1 329:1 330:1 331:1 332:1 333:1 334:1 335:1 336:1 337:1 338:1 339:1 340:1 
0 2.3418429196550634 0 0 2.7346672489441928 0 0 0 0 3:1 4:1 6:29 14:5 20:1 23:1 25:1 30:1 32:1 36:1 37:1 40:2 42:1 46:1 65:1 197:1 272:1 341:1 342:1 343:1 344:1 345:1 346:1 347:1 348:1 
0 0 0 0.38580370430966421 0 0 0 0 3.7584228262404484 1:2 3:1 6:30 8:1 14:1 20:1 23:1 25:1 26:1 30:1 32:1 36:1 37:1 40:1 42:1 130:1 153:1 189:2 223:1 229:1 230:1 235:1 347:1 349:1 350:1 351:1 352:1 353:1 354:1 
4.7511985504252863 8 7.1388929182888452 8 8 4.4516688352252114 6.0684565677522881 2.4543373411270801 8 3:1 6:13 8:1 14:1 20:1 26:1 46:1 70:1 151:1 202:1 360:1 361:1 362:1 363:1 
3.6399534632046082 3.4505731068720773 3.5582793292090065 3.3990756540632736 6.3771158335154432 0.46469204634446709 0 0 2.0865900824793089 3:1 6:25 14:2 23:1 26:1 39:4 61:1 78:2 265:1 272:1 364:1 365:1 366:1 367:1 368:1 369:1 370:1 371:1 372:1 373:1 374:1 
2.1752438043209068 1.4470100057524495 1.6360382399205933 0.016658275950029937 2.7260283975356603 0.038797549550680328 2.8193417952339566 0 0.9996479015288019 4:1 6:22 14:3 26:3 39:2 40:1 49:1 100:1 134:1 135:1 136:1 375:1 376:1 377:1 378:1 379:1 380:1 381:1 
3.1364564265126922 1.8983167125918465 1.5035640497549791 3.8447487986609348 3.395756643570508 3.014299672041115 2.0550386910895857 1.7435995260469395 1.0654379561898693 6:28 14:3 20:2 26:2 29:1 30:1 31:1 39:2 40:1 94:1 123:1 382:2 383:1 384:1 385:1 386:1 387:1 388:1 389:1 390:1 391:1 392:1 393:1 
0 0 0 0 0 2.2929448515021851 8 0 0 6:15 14:1 26:1 30:2 42:1 61:1 240:1 243:1 284:1 394:1 395:1 396:1 397:1 398:1 399:1 
0.10049370032812227 2.9228676143857926 4.4544045832808576 1.0428736324498098 5.2970799292469266 5.8245057811045058 0.98517492721071342 0 0 4:1 6:12 14:1 20:1 42:1 46:1 51:1 240:1 400:1 401:1 402:1 403:1 404:1 
0 0 0 0 0 0 0 2.1710523700014992 0 3:1 6:34 14:3 23:2 25:1 30:3 36:1 39:1 40:2 42:2 243:1 325:1 405:1 406:1 407:1 408:1 409:1 410:1 411:1 412:1 413:1 414:3 415:1 416:1 417:1 418:1 
7.5386394367668172 4.2939356442033656 2.602196449837312 0 0 1.4625990577190942 8 0 2.1897484610155979 6:8 26:1 30:1 61:1 89:1 419:1 420:1 421:1 422:1 
0 1.2417501716710329 0 2.7066514906419479 1.0223452418595083 1.5037338506905937 0 0 1.9968022149142721 3:1 6:30 9:1 14:2 23:1 25:1 30:1 36:1 39:1 40:1 42:1 84:1 89:1 151:1 239:1 325:1 408:1 409:1 410:1 412:1 414:1 415:1 423:1 424:1 425:1 426:1 427:1 428:1 429:1 430:1 
6.3851905991972568 0.50711457380190095 2.2890787216720461 2.8372743953852728 3.5228237045565187 5.8935918308490551 2.7048244740039369 4.6376734033637499 2.0963751415884495 6:26 14:3 23:1 30:2 39:1 40:1 61:1 78:1 431:1 432:1 433:1 434:1 435:1 436:1 437:1 438:1 439:1 440:1 441:1 442:1 443:1 444:1 445:1 446:1 
5.4187770788185645 1.7954790384838228 5.3249827023740695 3.3643228801257128 2.9584126794674273 4.924108638299856 0 5.4447174055691692 2.878997198670465 6:32 9:3 14:2 21:1 30:1 39:1 40:1 46:3 381:1 383:1 390:1 447:1 448:1 449:1 450:1 451:1 452:1 453:1 454:1 455:1 456:1 457:1 458:1 459:1 460:1 461:1 462:1 463:1 
4.0690298992323717 0.79921803465184349 0 1.2879618902670045 2.2421118668476216 1.7392081518311613 6.9758180042523552 0 0 6:29 9:1 14:2 22:1 26:2 30:3 31:1 39:1 40:1 46:1 61:2 377:1 464:1 465:1 466:1 467:1 468:1 469:1 470:1 471:1 472:1 473:1 474:1 475:1 476:1 
0 0 1.0326214414807515 0 0 0 0 4.1469626007663525 0 1:1 6:22 14:3 16:1 30:2 36:1 39:1 40:1 51:1 86:1 89:1 477:1 478:1 479:1 480:1 481:1 482:1 483:1 484:1 485:1 
8 3.3631483939041686 0 3.8749903197810309 0 4.5225894892954548 0.30629439540545456 5.7267602734404841 0.53497717786701549 6:33 9:1 14:4 20:1 23:1 30:1 39:3 40:2 42:1 241:1 348:1 371:1 407:1 467:1 486:1 487:1 488:1 489:1 490:1 491:1 492:1 493:2 494:1 495:1 496:1 497:1 498:1 
0 0 0 0.15990160661140088 0 0 0.18264185812779132 0 0 1:2 6:29 14:6 20:1 30:2 39:2 40:1 107:1 123:1 153:2 371:1 406:1 407:1 411:1 414:1 487:1 499:1 500:1 501:1 502:1 503:1 
0 0 2.7153294901901734 0 0 0 0 0 0 6:15 14:2 16:1 26:1 39:1 49:1 84:1 151:2 356:1 357:1 401:1 508:1 509:1 510:1 
0 0.18239604519366293 0 0 0 0 0 0 3.303545848585697 6:10 14:1 16:1 23:1 40:1 51:1 83:1 111:1 203:1 511:1 512:1 
6.1556635109706432 3.0076395379555767 2.0418179929306493 2.9504856860837578 4.5499533701774393 4.3135163079543748 3.5056054464826416 3.1004979225555811 3.7524609960298929 1:1 6:29 13:1 14:3 23:1 30:3 31:1 39:1 40:1 42:1 411:1 470:1 513:1 514:1 515:1 516:1 517:1 518:1 519:1 520:1 521:1 522:1 523:1 524:1 525:1 526:1 
0 0 1.8538228274111361 5.3294480615030126 3.2559564135996086 0 8 0 0 1:1 6:26 9:1 14:2 15:1 16:1 30:2 39:1 40:1 49:1 61:1 126:1 149:1 262:1 265:1 527:1 528:1 529:1 530:1 531:1 532:1 533:1 534:1 535:1 536:1 
0 2.5407155919602906 0 0.86153390909264183 0.16511383584157405 0 0 0 0 6:12 30:1 39:2 84:1 107:1 233:1 252:1 272:1 537:1 538:1 539:1 540:1 
1.9052183680524797 0 0 2.9977843380757587 1.7240329656147435 1.3791896914921593 2.7133192969192557 0 0 3:1 6:18 14:2 25:2 30:1 36:2 40:2 42:2 166:1 347:1 557:1 558:1 559:1 560:1 
2.7648610500233146 0 0 0.92652536507044658 1.9801500929352371 0 2.1078123946146787 0 0 1:1 3:1 6:25 14:2 20:1 25:2 36:2 39:1 40:2 42:1 46:1 271:1 457:1 527:1 548:1 561:1 562:1 563:1 564:1 565:1 566:1 567:1 
3.2199485603207392 6.9863650072389891 1.0409807518151164 3.9904631281916023 4.2162373429639954 5.0440426603410016 3.7219631892290201 0.45334010395867008 3.5499213959320963 1:1 6:26 14:5 25:1 30:1 39:2 42:2 109:1 156:1 287:1 528:1 568:1 569:1 570:1 571:1 572:1 573:1 574:1 575:1 576:1 577:1 
3.1928549283148082 5.7397000551954038 4.4142902540728066 5.106517579417277 6.5048388690127901 2.4076142002867389 1.537922817959557 1.8938304348599992 1.5832709349348872 1:2 3:1 6:32 9:1 14:3 26:1 30:1 39:2 40:1 42:1 107:1 189:1 454:1 578:1 579:1 580:1 581:1 582:1 583:1 584:1 585:1 586:1 587:1 588:1 589:1 590:1 591:1 592:1 593:1 
8 8 8 0 8 7.4542882511073936 8 3.4952228727110555 8 6:6 14:1 22:1 46:1 272:1 353:1 594:1 
0.65176942320191966 0.57056217746726223 1.50998330077259 1.2192711906765334 0 1.5526605338063248 0.42328064469896864 5.6691862237661947 0 6:30 14:4 20:1 30:4 39:1 40:1 42:1 46:1 86:1 145:1 582:1 595:1 596:1 597:1 598:1 599:1 600:1 601:1 602:1 603:1 604:1 605:1 606:1 607:1 608:1 
8 0 3.0574760370259964 6.6370849557329556 4.2333430810993011 0.36133654048642472 8 8 7.7748280779434396 6:5 30:2 403:1 609:1 610:1 
8 6.063681928019899 8 0 4.5866470499446406 4.6408055981761782 8 6.2980557549100009 1.2943591407056663 6:1 611:1 
0 1.6171943457849243 4.6797617237535514 0 0 0 3.1194342010135672 0 0.36923907914383014 6:7 51:1 83:1 126:1 149:1 174:1 612:1 613:1 
5.3638032475161843 7.2307400211556008 8 0 0 1.9006225342196943 8 0 6.8798656934810785 6:2 614:1 615:1 
0 6.1147604361964083 5.8456877671921452 0.4690892248118006 1.7891938271627605 0 8 2.2806132262743239 0 1:1 6:11 9:1 14:1 30:1 49:1 156:1 541:1 616:1 617:1 618:1 619:1 
8 8 8 0.37225125569340894 8 8 8 5.7041428122685653 8 6:4 14:1 26:1 620:1 621:1 
3.6086924870737187 0 0 0 0 0 8 0 0 6:11 26:2 30:2 243:1 622:1 623:1 624:1 625:1 626:1 627:1 
2.4069570769028128 0 0 1.5571039172331436 0.73232531540320622 0 1.5662676255570678 0 2.0164549933308162 6:14 14:3 23:1 40:2 83:1 107:1 628:1 629:1 630:1 631:1 632:1 633:1 
0 2.8384612392952455 0.92968183394979176 0 0 0.25022296572302682 8 0 0 6:6 26:1 109:1 243:1 634:1 635:1 636:1 
1.9242572545916499 3.6778381277378256 4.4235605697206664 4.7100676999672775 5.601401374925608 0.17123672900826806 6.4599594958469924 0.83702933036256155 3.9419563262249246 6:12 20:1 26:1 30:1 40:1 46:1 207:1 269:1 637:1 638:1 639:1 640:1 641:1 
8 0 0 0 7.6841996526488261 0 8 0.8821038379123376 2.7625901292596171 6:1 642:1 
8 3.3432039857967588 6.4663079590971222 8 3.7608694907514049 7.8293768019430239 8 7.2609091963843699 2.6044115958677518 6:5 14:1 39:1 391:1 643:1 644:1 
1.2810318827667462 2.1116422597590594 0 0 1.9189440618019054 1.8454230790234656 0 1.7512716716131425 0 6:30 14:3 21:1 26:1 30:3 39:1 40:1 42:1 46:1 107:1 141:1 217:1 272:1 645:1 646:1 647:1 648:1 649:1 650:1 651:1 652:1 653:1 654:1 655:1 656:1 657:1 658:1 
0 0 8 0 0 0 8 0 8 6:6 9:1 14:1 42:1 168:1 548:1 659:1 
2.8496007923074744 0 0 0 0 0 8 1.1398687418648257 0.94828227504510276 6:9 26:2 30:2 660:1 661:1 662:1 663:1 664:1 
8 8 8 0 5.4925746222824694 5.3940736065860255 8 6.2980364133258204 6.460625594706916 6:1 665:1 
1.8662171826438174 6.5405334615902486 0 1.3934216222220699 0 0 8 0.25245172873035882 4.8248071128096379 6:14 9:1 14:1 30:1 39:1 42:1 61:1 153:2 272:1 374:1 666:1 667:1 668:1 669:1 
3.6381258769586307 4.2085425118465798 5.2882942165954807 1.5083759142639868 7.1153866501086203 3.0722721494816665 4.6860603797293514 0 8 1:1 6:9 14:2 40:1 61:1 103:1 681:1 682:1 683:1 
2.6692518020918921 5.1987111861140081 8 0 7.9166098498303992 7.2534036796382679 8 3.9605317190612577 2.7274378736736886 6:13 26:1 31:1 46:1 86:1 597:1 684:1 685:1 686:1 687:1 688:1 689:1 690:1 691:1 
4.4347961501602162 1.8924612088665957 6.7815094466405013 3.6425587499075394 2.9104095224210833 1.3624174395728064 8 3.0417113981264086 0.32155265384638193 6:5 39:1 40:1 692:1 693:1 694:1 
5.0691503835594274 0 0 0 1.7566074174266153 0 8 2.44165268938821 0.91167828136259843 6:9 26:1 30:2 39:1 40:1 695:1 696:1 697:1 698:1 
0 0 4.4717398048560399 0 0.82223571058793954 3.6188681740255872 8 0 2.2296544226116288 6:6 14:1 39:1 83:1 699:1 700:1 701:1 
0 8 8 0 4.4943149206995736 0 8 0 5.8351766138951859 4:1 6:11 13:1 26:2 30:1 61:1 83:1 84:1 702:1 703:1 704:1 
8 3.561790033099796 5.5755757718473049 2.0824743037049398 6.0320052320889062 3.8429615947044637 0.65460172986133036 0.89823332789608967 0 6:26 14:2 26:1 30:2 39:2 40:3 46:1 61:1 268:1 533:1 705:1 706:1 707:1 708:1 709:1 710:1 711:1 712:1 713:1 714:2 715:1 
8 8 8 0 8 0 8 0 8 6:3 51:1 262:1 718:1 
2.8166926725613379 2.5041470636365601 4.4395950591001068 1.7935765799062737 3.0202655541279579 2.3978951555269323 5.139594410999452 1.6125841325678354 1.4364359606126325 1:1 6:15 14:1 26:1 30:2 719:1 720:1 721:1 722:1 723:1 724:1 725:1 726:1 727:1 728:1 
2.264619250039849 8 8 6.3676272933971703 6.878801915535167 0.57197623123690633 6.542586101735349 4.0526654311042467 1.7439180275625852 6:8 20:1 151:1 272:1 548:1 729:1 730:1 731:1 732:1 
1.1245076807001824 3.6270273432056785 4.3610131203880149 4.0920600854547917 6.8371565514684294 1.2896371572606593 2.4826985524405241 7.1263558497259893 2.6427094513378449 6:18 9:1 26:1 30:3 39:2 709:1 713:1 714:1 715:1 734:1 735:1 736:1 737:1 738:1 739:1 740:1 
2.37413977365338 2.8183816641982711 0 1.7024207329525622 7.7838473622622066 0 8 0 7.8718234953422304 1:1 6:9 40:1 107:1 239:1 738:1 741:1 742:1 743:1 744:1 
6.4905012341515107 8 5.6953065868791946 6.4728971563434214 1.170131658129594 6.0617446632057037 8 7.7360508046822831 4.5901226095937027 6:4 9:1 193:1 733:1 745:1 
0 0 0 0 0 0 0 0.96858375903269234 0 3:1 6:29 14:4 20:1 25:1 30:1 32:1 36:1 37:1 39:2 40:1 42:2 253:2 395:1 650:1 746:1 747:1 748:1 749:1 750:1 751:1 752:1 753:1 754:1 
8 7.5573565461310448 8 0 0.32093907965651003 8 8 5.4197947133860236 0 6:4 14:2 234:1 755:1 
1.6057898379827478 8 8 0 0 7.4287138023423767 8 4.7006322534448834 1.6702647347077411 6:1 759:1 
8 4.0562829312835609 8 0 2.8643298519205325 0 8 0 8 6:3 42:1 168:1 766:1 
2.0584331357158656 8 0 0 0 0 0 0 0 3:1 4:1 6:8 16:1 20:1 40:1 356:1 357:1 767:1 
1.346458455085358 0 0 0 4.7625726619115341 0 8 0 8 6:8 14:1 40:1 42:2 51:1 52:1 168:1 768:1 
2.2364116455809011 8 7.4231594966696202 0 5.4380542564930199 0 0.40173061611780198 0 0.59923965592869732 3:1 6:8 39:1 151:1 232:1 356:1 357:1 769:1 770:1 
3.3787225080827725 4.4869968545776215 4.449275840284395 3.1656025080840289 3.769998268812389 3.8775754068928192 4.17152316012643 2.3839935797144198 0 1:1 6:28 9:1 14:4 26:2 40:1 42:1 348:1 435:1 467:1 532:1 543:1 551:1 771:1 772:1 773:1 774:1 775:1 776:1 777:1 778:1 779:1 780:1 781:1 782:1 
8 0 2.7117557836548194 0 0.7976680453747963 0 3.337120697306617 0 8 4:1 6:3 783:1 784:1 
6.4584810716234617 7.4683331151492141 7.0481820816388314 0 8 6.1589620679801431 8 8 4.6124560358470896 6:5 14:2 107:1 785:1 786:1 
5.8305016372680001 8 6.5528527388848001 0 3.1541284153245437 4.6020024592672844 8 4.7776203546232532 4.2119856191204725 6:3 39:1 787:1 788:1 
3.3758742906701591 0 0 1.4026223562647653 0.93119247563159269 0.029332041092699008 0 0.91987558487113752 0 4:1 6:27 9:2 14:1 23:1 30:3 40:1 42:1 189:1 196:1 281:1 467:1 667:1 785:1 786:1 789:1 790:1 791:1 792:1 793:1 794:1 795:1 796:1 797:1 798:1 
0.31816946377082361 1.8133593516075124 3.5541955843509134 5.2577039192455253 1.2283392505645261 0.81671810014756507 0.35086592155014151 0 4.4120888131076121 1:1 6:18 14:2 20:1 26:1 40:1 52:1 84:1 91:1 136:1 192:1 272:1 477:1 799:1 800:1 801:1 802:1 803:1 
4.9469552338509013 8 8 7.5621907896204101 6.51170960696306 4.9028367230291456 4.1891921160003394 2.4338862506608243 8 6:17 14:1 23:1 28:1 31:1 39:1 49:1 61:1 107:1 197:1 344:1 804:1 805:1 806:1 807:1 808:1 809:1 810:1 
0 0 0 0 8 0 8 0 0.024289771073301651 6:8 30:2 31:1 61:2 534:1 819:1 820:1 
8 8 8 1.1768680532787708 7.9906368065253357 6.4662304701512436 7.991887258036602 6.2910350251098883 7.9959945365457568 3:1 6:8 39:1 151:1 232:1 356:1 357:1 769:1 770:1 
2.9630558761819361 0 0 0 5.8763593940530061 0 8 0 8 6:8 9:1 42:2 51:1 78:1 168:1 262:1 821:1 
2.57231421615734 0.46257046377749222 6.0356387552922746 0 8 0 8 0 8 6:2 51:1 822:1 
0 0 0.074515042284856711 0 0 0 5.6004917903018079 0 8 4:1 6:13 9:1 15:1 16:1 23:1 26:1 30:1 31:1 46:1 61:1 467:1 823:1 824:1 
0 0 0.69607295925848911 0 6.4374121896383372 0 8 0 1.6034211989926257 6:6 14:1 30:1 54:1 91:1 825:1 826:1 
0 0.26955581968106407 0 2.5367983900572288 3.1564683821084598 5.7498700433158421 0.16665173610417683 0.054171264029357423 0 1:1 3:2 6:26 14:3 20:1 30:2 36:1 39:1 51:1 84:1 120:1 482:1 532:1 672:3 827:1 828:1 829:1 830:1 831:1 832:1 833:1 
8 7.6944436954837592 2.5264162542662518 0 5.9950932502874377 5.2811164921868938 5.5763260256204088 8 7.5547593525910886 6:10 14:1 46:1 51:1 52:1 151:1 325:1 845:1 846:1 847:1 848:1 
5.6445949078221069 0 0 0 0 1.5131295210546072 0 0 0 6:15 14:1 30:2 42:1 46:2 233:1 240:1 448:1 601:1 849:1 850:1 851:1 852:1 853:1 
2.9588206392608418 4.3542059148425221 6.3222780560744365 0.058503855850549284 4.9192254832671907 0.50384287468748279 2.3273107936652946 2.314826881753874 5.9186647913601851 6:14 26:2 30:1 89:1 422:1 854:1 855:1 856:1 857:1 858:1 859:1 860:1 861:1 862:1 
0.90647694899328379 2.7102296063011084 2.1408084373098517 0.77519732909143813 3.0245479115691554 0.4728139097997438 2.3816503421625637 1.4596938219876101 4.1587217669673588 1:1 6:34 14:2 20:1 26:3 30:1 39:1 40:1 42:1 46:1 178:1 241:1 551:1 586:2 863:1 864:1 865:1 866:1 867:1 868:1 869:1 870:1 871:1 872:1 873:2 874:1 875:1 876:1 877:1 878:1 
8 0 8 0 4.140740627004126 0.31938340288522704 8 8 3.8017542539029732 6:2 30:1 879:1 
0.78873151757969107 0 0 0.50090861063953118 0 0.76952499984535561 0 0 2.176236719334645 1:2 4:1 6:30 9:1 14:4 16:1 23:1 30:2 39:2 42:3 82:1 107:1 168:1 240:1 252:1 348:1 435:1 703:1 880:1 881:1 882:1 883:1 884:1 
0 0 0 0 0 0 0.55360017752724111 0 0.99677178587492399 3:1 6:33 14:3 25:1 26:1 30:1 32:1 36:1 37:1 39:1 40:4 42:3 186:1 272:1 395:1 601:1 691:1 850:1 891:1 892:1 893:1 894:1 895:1 896:1 897:1 898:1 899:1 
0 0 0 0.90021236608177968 0.13449699869914136 4.9468813448850204 1.5783856310315216 1.3348696244928628 0 1:1 3:1 6:28 9:3 14:3 25:1 32:1 36:1 37:1 40:1 42:2 170:1 298:1 368:1 467:1 601:1 730:1 850:1 900:1 901:1 902:1 903:1 904:1 905:1 
1.8659683725819478 4.7134451594239142 0 1.6255732898916546 2.2466333415014295 4.9222582311765528 0 2.0676582135198527 4.7545098119036489 3:2 6:21 14:1 30:2 40:1 42:1 46:1 89:1 156:1 191:1 239:1 535:1 603:1 885:1 906:1 907:1 908:1 909:1 910:1 911:1 
3.6762153014790866 0 0 0 4.4154093002667087 0 8 0 6.9668084973981408 6:15 22:1 26:1 30:3 40:1 61:2 107:1 351:1 422:1 912:1 913:1 914:1 915:1 
0 1.7064616454253672 2.4122358143041436 0 0 0 0 0 0 1:2 6:17 9:1 26:1 30:1 42:2 46:1 89:1 107:1 421:1 717:1 916:1 917:1 918:1 919:1 920:1 
6.8710878721870792 0 0 0 0 0 1.5900570082017065 3.59895860992685 6.637496950213972 6:7 30:2 46:1 921:1 922:1 923:1 924:1 
0.74611301804735586 0 0.44339720483244183 0 4.8858200941798025 0 0 0 6.8198380030101005 1:1 4:1 6:21 13:1 14:2 26:1 30:1 42:2 46:1 83:2 103:1 107:1 925:1 926:1 927:1 928:1 929:1 930:1 931:1 
3.7801611027332638 5.1694496378777801 0 1.4398612573814462 6.7545585342448957 0 0 0 3.1288726331148031 6:29 14:2 26:2 30:2 40:1 42:2 46:1 52:1 89:1 144:1 145:1 201:1 239:1 262:1 272:1 289:1 348:1 395:1 435:1 551:1 932:1 933:1 934:1 935:1 936:1 937:1 
3.7158674448376852 7.3379110132869494 1.3732380921692853 4.1816567652255587 7.5157452250343697 2.5963478598567731 0 4.3780001540807252 4.6069506778587632 3:1 6:33 14:5 30:2 39:3 42:1 65:1 89:1 151:1 222:1 348:1 385:1 435:1 467:1 490:1 527:1 532:1 617:1 659:1 777:1 938:1 939:1 940:1 941:1 942:1 943:1 944:1 
0 5.5923522240389065 0 6.9312762315480994 1.97129235349747 0.60441271411265418 8 2.74526199186821 2.7055256109042372 6:10 14:1 26:1 30:1 46:1 233:1 399:1 945:1 946:1 947:1 948:1 
0 0.73423030572871195 0 0.026509967336319069 0 0 0 0 4.1373437113343092 1:1 6:27 8:1 14:1 30:1 39:1 42:2 46:1 51:4 83:1 258:1 259:1 490:1 777:1 919:1 949:1 950:1 951:1 952:1 953:1 954:1 955:1 956:1 957:1 
0.70107251634764511 1.2711667740933279 0.80363369742498936 2.5424961002495436 0.65902745763557435 1.881934895063913 2.5506956891578692 0 4.5036076439311818 6:22 9:2 14:1 30:1 39:2 42:1 51:1 107:1 112:1 272:1 287:1 368:1 490:1 919:1 950:1 952:1 958:1 959:1 960:1 961:1 962:1 
4.9752699461558603 1.6649600072861475 0 0 8 1.8659359199679395 4.1588431990668848 6.4497081276879031 4.084054049768822 6:15 14:1 30:3 39:1 89:1 107:1 151:1 527:1 963:1 964:1 965:1 966:1 967:1 968:1 
2.9902236056702898 0 0 0 1.1790829461398202 0 0 0.95698329296157603 0 4:1 6:19 14:1 26:1 30:4 54:1 61:1 78:1 107:1 251:1 272:1 422:1 440:1 666:1 969:1 970:1 971:1 
0.70668646720420802 0 0 0 0.61782768853472469 0 7.0862435812888354 0 0 4:1 6:8 23:1 30:1 42:1 54:1 107:1 240:1 972:1 
1.4778619635909591 0 0 0 1.1710753780632714 0 3.2767818365771815 2.1245570541111092 0 1:1 6:26 14:1 20:1 26:4 30:1 39:2 51:1 107:1 148:1 197:1 440:1 858:1 864:1 947:1 973:1 974:1 975:1 976:1 977:1 978:1 979:1 980:1 
0.96006543837321878 7.8875211833762924 8 0 8 2.3021105034970923 8 3.6115530319739357 0 1:1 6:8 14:1 40:1 51:1 86:1 125:1 981:1 982:1 
3.8610290510370771 0 0 3.267207361992948 5.6147649453179334 1.6204852152951843 6.5646290061302519 4.1977129116395702 3.5731933762116062 6:17 14:2 16:1 30:3 39:1 46:1 240:1 487:1 715:1 983:1 984:1 985:1 986:1 987:1 988:1 
2.0942957813187872 0 2.790735941983971 0 0.59349898958136427 2.5492355854118784 5.3018110741875368 0 6.8622074062890173 6:6 83:1 94:1 128:1 151:1 989:1 990:1 
1.345144426725277 1.6990783546880162 0 0 0.15884429358359317 0 2.4368848187427519 5.7683964920160182 0.24566555210451801 6:14 14:1 26:2 30:2 39:1 79:1 89:1 107:1 252:1 991:1 992:1 993:1 994:1 
2.6747133481505214 8 4.5321842089022581 3.155721239963591 4.6224696351551531 5.7800317548949547 8 1.5086735063186703 6.8403925868130546 6:8 14:1 39:1 46:1 51:1 738:1 995:1 996:1 997:1 
6.4151735121231823 6.5552358505366914 0.38345944267140908 5.1301520270633283 7.1246916220960363 3.7021820603448194 6.2948317971994303 2.061410647386642 2.8038838180927916 6:9 14:1 30:1 40:1 201:1 551:1 998:1 999:1 1000:1 1001:1 
8 8 8 0 8 8 8 8 0 6:1 54:1 
8 5.8271631430247206 4.7614959255122287 7.8995217325679841 8 6.386455876203855 0 0 0.44003849572193698 4:2 6:8 9:1 14:1 20:1 341:1 757:1 1002:1 
4.2995182819738531 0 0 4.8896119547077106 2.0668742868656524 2.0555203608184813 0.25338157875713851 0 0.52873765633722669 1:3 4:1 6:39 13:1 14:4 16:2 20:1 26:1 30:4 39:1 42:1 46:1 54:1 107:1 189:1 223:1 230:1 233:1 235:1 240:1 325:1 629:1 1003:1 1004:1 1005:1 1006:1 1007:1 1008:1 1009:1 1010:1 1011:1 
2.0193028011833625 0 0 0 1.2817018148450634 0 0 0 0.6898863240711246 4:1 6:19 8:1 9:1 14:1 16:1 30:3 39:1 42:1 58:1 83:1 182:1 456:1 766:1 1012:1 1013:1 1014:1 1015:1 
5.7134235768725237 5.7451381768239393 0.46655632197693953 1.6278182647690504 6.1845589985352492 0.4174251376362344 1.238566145198986 0.5285470358951716 0.4208513291367697 1:1 4:1 6:34 9:3 14:3 15:1 20:1 30:3 46:1 52:1 61:1 65:1 170:1 189:1 223:1 566:1 705:1 1016:1 1017:1 1018:1 1019:1 1020:1 1021:1 1022:1 1023:1 1024:1 1025:1 1026:1 1027:1 
0.7837602320051974 6.2962046454290759 4.4051226815912994 0 0.41301736583783455 3.6763036072156692 7.5695080117464064 0 0 1:1 6:7 16:1 39:1 530:1 1028:1 1029:1 1030:1 
6.7874510878693606 1.7536651567783172 0 0.37718131642137837 0 0 0 0 0 4:1 6:27 9:2 14:4 20:2 25:2 30:1 39:2 46:1 101:1 562:1 1031:1 1032:1 1033:1 1034:1 1035:1 1036:1 1037:1 1038:1 1039:1 1040:1 
4.3079724864754976 0 0 1.9694710909725466 4.6746995857493427 1.0986497496328693 1.9165180479467161 0.59953009183639039 2.5238075931132706 6:27 9:1 14:3 22:1 26:1 30:3 40:1 42:1 61:1 89:1 125:1 265:1 272:1 313:1 638:1 1041:1 1042:1 1043:1 1044:1 1045:1 1046:1 1047:1 1048:1 1049:1 
0 0 0 0 8 0 8 0 8 6:3 51:1 52:1 1050:1 
0 0 0 0 0 2.7197892603546521 1.4208131742188363 0 0 6:11 9:2 14:1 30:2 57:1 73:1 467:1 1051:1 1052:1 1053:1 
0 7.4489348821064878 5.3018044473995269 0 0 7.0722653610111692 8 0 2.0573234737779837 6:3 54:1 1054:1 1055:1 
0.33216815850675918 0 1.2745417549234159 0 0.13863399973211449 0.92574055438587644 3.8967700192686259 1.7965544795313593 0 6:14 9:1 16:1 23:1 30:2 39:1 40:1 1056:1 1057:1 1058:1 1059:1 1060:1 1061:1 1062:1 
5.8966449592089907 1.0609366537040117 7.084640047106773 0.99928651578838312 8 6.6468850077906838 0 0.90739560971316935 7.1717293664802444 6:8 9:1 39:1 103:1 1063:1 1064:1 1065:1 1066:1 1067:1 
7.8960882060825712 0 0 3.4568719111206687 4.7686805229533196 1.7768577476345666 8 1.5687105912915544 0 1:1 3:1 6:17 14:1 30:3 36:1 82:1 120:1 348:1 672:3 1040:1 1068:1 1069:1 1070:1 
5.6482966176770075 3.3082630730232196 4.3411984290588856 3.5700084957356539 3.8634977133290107 0.22566167618570393 3.6206828787161962 0.92165008168792784 3.0232441259507801 6:19 8:1 14:3 26:2 30:1 40:1 100:1 936:1 1071:1 1072:1 1073:1 1074:2 1075:1 1076:1 1077:1 1078:1 
3.1805574823341218 6.030926727570785 4.955804533548994 0 3.3040760521596431 2.1076428149306019 8 3.0613726946102968 3.2877980931198896 6:9 26:1 31:1 39:1 46:1 51:1 61:1 1079:1 1080:1 1081:1 
0 0 3.0771009312894111 0 0 0 8 0 8 6:5 51:1 61:1 83:1 126:1 1082:1 
0 0 6.9543768307886458 0 6.8885763512125306 0 8 2.1265791590746095 6.5378374382917155 6:3 30:1 1083:1 1084:1 
0 0 0.58351395470399658 0 0 0 0 0 0 4:3 6:29 14:3 30:2 39:2 40:3 42:1 51:1 61:1 91:2 151:1 272:2 356:1 401:1 1058:1 1085:1 1086:1 1087:1 1088:1 1089:1 
2.2550320230250511 1.8156109742607043 0 1.8384452402308551 0 0 0 0 0 6:22 9:1 14:2 20:2 30:1 39:1 40:1 51:1 107:3 125:1 217:1 240:1 356:1 401:1 423:1 458:1 640:1 1090:1 1091:1 
0 0 0 0 0.094943749364431229 0 0 0 0 6:15 30:2 39:1 49:1 61:1 83:1 91:1 151:1 399:1 401:1 730:1 1092:1 1093:1 1094:1 1095:1 
8 8 2.3403211124574712 0 8 3.3024939145403001 8 8 0 3:1 6:5 14:1 348:1 356:1 435:1 
0.92424192388114601 0 0 0 2.0550408945510568 0 5.3224352393361141 0 2.5949325822751659 6:14 9:2 23:1 30:3 39:1 83:1 738:1 1052:1 1096:1 1097:1 1098:1 1099:1 
8 8 8 8 8 4.2414677378952357 8 5.5621694657125502 3.9007066825230043 6:5 40:1 375:1 1100:1 1101:1 1102:1 
8 8 8 1.1581740024639284 6.9055499515371901 5.7829875283524208 8 7.254494103750214 5.8751046649305918 6:3 14:1 1103:1 1104:1 
6.3302100266726917 4.9834033889445761 4.0659490343289226 3.9999829774762863 2.5964175042399487 4.2946294177743765 2.4945718323133224 3.5655176590456477 1.7487413970343841 6:20 9:2 14:2 26:1 39:1 40:1 61:1 435:1 765:1 978:1 985:1 1105:1 1106:1 1107:1 1108:1 1109:1 1110:1 1111:1 1112:1 
0 0 0 0 0 0 0.32964271077684149 0 0 3:1 6:16 14:2 30:3 36:1 42:1 156:1 440:1 482:1 672:3 1113:1 1114:1 
4.2654977224279351 3.5977503342257093 1.449736273080767 1.5133639666751051 0 1.5476252909975603 2.6273650276920759 2.4699411405011955 0 6:9 14:2 20:1 30:1 1115:1 1116:1 1117:1 1118:1 1119:1 
0 4.4991821165134498 3.5922144900089954 0 1.1748874265833058 8 6.407212073696158 6.0641938391588086 0 6:9 14:3 46:1 1120:1 1121:1 1122:1 1123:1 1124:1 
3.0244536925523136 0 0.29509263981163847 0.52188658398910237 5.1706547862902825 0 0 0 3.4428061625519115 6:9 9:1 14:1 46:1 131:1 203:1 1125:1 1126:1 1127:1 1128:1 
8 8 8 8 6.3747317146830431 0.90440456627444832 6.7441873184369383 0 1.1051682692524443 6:10 28:1 51:2 125:1 253:1 422:1 663:1 1129:1 1130:1 1131:1 
3.1199995144940784 2.699967252361247 5.7175567147060287 1.8089722819142613 5.3882024414975795 3.6328959740001334 0.57716379118257966 0.93696501066781346 2.211594982389157 6:31 9:1 14:5 20:1 23:1 30:2 39:2 40:1 42:1 46:1 265:1 268:1 356:1 397:1 458:1 541:1 1054:1 1132:1 1133:1 1134:1 1135:1 1136:2 1137:1 1138:1 1139:1 
1.7658690353208646 6.8229413394346663 4.9643066388517774 4.1302360149826765 3.8221267279284046 2.9019451576617565 8 0.11796193048143605 7.8454084594813249 6:8 42:1 126:1 168:1 262:1 272:1 730:1 1140:1 1141:1 
1.5079637624206315 0.3904152058379009 1.3947416904152994 0 5.8642251542540285 0 8 1.5972198337485963 0 6:12 14:1 26:1 30:2 39:1 40:1 126:1 749:1 797:1 1142:1 1143:1 1144:1 
8 2.1153125582749377 0 0 6.4192282974962769 0 8 0 2.9665734447042129 6:19 14:2 22:1 26:1 30:2 39:1 46:1 61:1 84:1 107:1 252:1 465:1 534:1 738:1 1087:1 1145:1 1146:1 1147:1 
8 8 2.6719418942557671 4.8232897561076085 7.0181367689423517 8 8 4.4969530800514148 4.3076058958554082 6:3 39:1 1148:1 1149:1 
3.8384564928028881 0 0 0 2.0627514945501613 0 7.6849269333159382 0 6.5370733377806616 1:1 6:23 14:1 30:4 35:1 40:1 46:1 51:1 52:1 61:1 107:1 195:1 203:1 548:1 639:1 1150:1 1151:1 1152:1 1153:1 1154:1 1155:1 
0 0 1.1000888084173981 0 0.5417235004976283 0.67455722947758134 4.2892404943119473 0 0.71218942671165386 6:20 9:1 14:4 16:1 26:1 30:2 39:1 61:1 83:1 189:1 1083:1 1156:1 1157:1 1158:1 1159:1 1160:1 1161:1 
0 0 0 0 0 0 8 0 0 6:8 30:3 51:3 125:1 1162:1 
0 1.0248504913180789 1.904231227800675 3.1839846128411695 3.0763267494604332 0 1.7827663610798687 0 2.9908700120918015 1:1 6:33 9:1 14:3 26:4 39:4 51:1 91:1 99:1 101:1 148:1 354:1 630:2 1163:1 1164:1 1165:1 1166:1 1167:1 1168:1 1169:1 1170:1 1171:1 1172:1 1173:1 1174:1 
8 5.8863366358499043 7.618838907145455 0 8 0 8 0.84973032549128868 8 6:1 1175:1 
8 8 8 0 5.4924625025520157 8 8 8 6.4606585045547176 6:1 1176:1 
6.1257029629477033 3.1678392840197622 3.4738617151220526 0 5.4924969985555521 5.3940602688792394 8 5.4481891665514688 6.460669192772972 6:1 1175:1 
0 0 0 3.6527981295646041 2.2460779113103619 0 0.07623403490711371 5.2040099776057014 1.5214143581559527 6:12 14:2 17:1 20:1 30:1 101:1 272:1 313:1 1145:1 1177:1 1178:1 1179:1 
8 8 4.8549244689950086 0 6.1044034576701751 6.6913704028140462 8 4.5154146357600737 4.461580518492692 6:4 14:1 39:1 107:1 1180:1 
3.2886318697899095 2.8829405427480088 0 0 1.5152840257378712 0 5.512962927104879 0 1.6608492638075192 1:1 4:1 6:31 9:1 14:4 16:1 23:1 26:1 30:4 40:1 42:1 107:2 140:1 247:1 395:1 467:1 508:1 991:1 1056:1 1181:1 1182:1 1183:1 1184:1 1185:1 1186:1 
0 3.1576558530377365 3.3098663518081368 2.6137274251779687 0.11337050453332066 2.6263838575020246 1.7648206300907072 0 1.5541956605493095 1:1 4:1 6:28 9:2 14:3 26:1 39:2 42:1 61:1 107:1 123:1 182:1 440:1 467:1 506:1 1071:1 1085:1 1187:1 1188:1 1189:1 1190:1 1191:1 1192:1 1193:1 1194:1 
8 0 3.2962386936016923 0 7.1736763542004018 0 8 1.684258732563187 2.86827917088744 4:1 6:4 30:1 1195:1 1196:1 
0 5.4775215692941481 0.9397005624172694 0.28466255413597308 2.3425057026187655 3.5991819498172499 8 0.68388480072227165 0 6:8 9:1 40:1 95:1 107:1 170:1 1197:1 1198:1 1199:1 
0.13229798101504181 0 1.137407955107675 0 0 0 2.6239632315490709 1.7287021959540845 1.2559066827233523 4:1 6:19 9:1 14:1 26:2 30:2 39:1 40:1 42:2 154:1 950:1 1200:1 1201:1 1202:1 1203:1 1204:1 1205:1 
1.9843051121687378 0 0 0.84471807504371166 1.8255993230776588 1.5077969387227337 0 3.2294428551396717 5.5287779343464356 1:1 6:30 8:1 14:1 20:1 30:3 39:1 40:1 42:2 57:1 61:1 89:1 107:1 395:1 743:1 754:1 890:1 1206:1 1207:1 1208:1 1209:1 1210:1 1211:1 1212:1 1213:1 1214:1 1215:1 1216:1 
0.7743494743636965 3.1646448221474603 0 0 0 2.5218746144633188 0 1.9641148072937409 6.2673901548522633 6:15 40:1 42:2 51:2 148:1 155:1 168:1 325:1 351:1 415:1 422:1 1087:1 1217:1 1218:1 
0 6.2652499975756282 2.5123365379009548 3.9511741699431551 1.2426809868499489 2.2150922811926042 7.2884842957623848 0 1.4629118874560418 3:2 6:32 9:1 14:4 23:1 26:2 30:1 39:1 40:1 51:1 61:1 84:1 126:1 156:1 189:1 490:1 804:1 932:1 1210:1 1219:1 1220:1 1221:1 1222:1 1223:1 1224:1 1225:1 1226:1 1227:1 
1.9742016914505476 1.7281510610130659 0 0 5.001506215512828 8 8 0 8 6:5 40:1 51:1 52:1 151:1 1228:1 
2.9588404269029347 0.27535550930972658 0.64342095457845627 4.5469523245642849 2.2113660929454544 0.54866676591936436 0 0.63293347458282423 1.1413737875930923 1:1 4:1 6:34 9:2 14:5 20:2 30:1 39:1 46:1 61:1 156:1 487:1 741:1 764:1 835:1 983:1 1260:1 1261:1 1262:1 1263:1 1264:1 1265:1 1266:1 1267:1 1268:1 1269:1 1270:1 1271:1 1272:1 
8 8 4.0600236255243694 5.1725199587888913 8 6.6186875096079625 8 8 8 3:1 6:7 30:1 39:1 122:1 289:1 624:1 1273:1 
0 0 0 0 0 2.4836000499443842 1.1670739378201369 0.41316208685402811 0.25069349776937833 1:1 6:32 14:4 22:1 25:2 30:3 36:1 39:3 40:1 42:2 46:1 61:1 141:1 503:1 521:1 1040:1 1274:1 1275:1 1276:1 1277:1 1278:1 1279:1 1280:1 1281:1 
8 8 2.7193387447215205 0 1.4199994130027584 6.3593271722663971 8 0.18078462464149364 2.9166603535291578 6:7 9:1 14:1 46:1 1052:1 1282:1 1283:1 1284:1 
1.310144048558461 0 1.1248998291333594 0 1.4445776051329116 1.4504420914001568 4.1858771202051619 0.068695157213846586 1.4284493862092247 1:1 6:18 8:1 26:2 30:2 46:1 318:1 532:1 828:1 1096:1 1149:1 1285:1 1286:1 1287:1 1288:1 1289:1 1290:1 
4.6499972893684864 2.4763082902050564 7.6148867794760839 3.8736162881158394 0.47342971111689153 1.6113630701831059 5.6282122951988605 0 4.4109479527280548 6:15 8:1 14:2 16:1 23:2 42:1 46:1 1113:1 1291:1 1292:1 1293:1 1294:1 1295:1 1296:1 
0 0 0 0.85934084467390615 0 1.3882365324747523 0 0 1.9395802075483348 1:1 6:24 14:2 23:1 39:2 40:1 42:1 46:1 49:1 51:1 52:1 61:1 84:1 151:1 357:1 401:1 458:1 1297:2 1298:1 1299:1 1300:1 1301:1 
2.0225302034095876 0 3.7065289572619395 1.490949011228667 4.9672977694657545 0.12587797000342496 2.7764312312373631 0 0 6:17 14:1 16:1 26:1 30:2 65:1 149:1 201:1 240:1 454:1 1302:1 1303:1 1304:1 1305:1 1306:1 1307:1 1308:1 
8 0 0 0 3.159015327376927 6.3106088401147309 8 6.2825176171165733 0 1:1 6:12 30:3 42:1 57:1 61:1 107:1 651:1 1309:1 1310:1 1311:1 
0 4.3204930481267745 0 3.6870907543493456 8 0 8 0 1.6364255887178754 1:2 6:9 40:2 51:1 730:1 1312:1 1313:1 1314:1 
6.1436575135470353 0 0 0 7.3293212813966466 0 8 8 0 6:6 30:2 40:1 440:1 457:1 1054:1 
1.8523565614551283 0.60772572993102003 0 1.9074949006113642 3.9536988472864025 2.3822485912666278 0 1.818472046579366 0 3:1 6:21 10:1 14:2 26:1 30:2 40:2 46:1 313:1 397:1 548:1 1315:1 1316:1 1317:1 1318:1 1319:1 1320:1 1321:1 1322:1 
0 0.34725938126698047 0.65757915896569985 0 0 0 5.7801532793961954 0 0 1:1 6:10 14:1 26:2 89:1 384:1 1323:1 1324:1 1325:1 1326:1 
3.74463087979262 0 0 1.6523694575105994 0 0 8 1.2424587740838857 0 6:8 9:1 15:1 26:1 30:1 78:1 251:1 666:1 1327:1 
5.0583299916284385 8 7.1315005246193106 5.4831950085604717 8 8 3.5961476600667877 3.2975392744115561 8 6:11 9:1 16:1 39:1 42:1 51:1 422:1 766:1 1328:1 1329:1 1330:1 1331:1 
0 2.2536614778509034 4.6768508515144012 8 7.8408383547118481 1.1353886332844918 5.2802965685664756 1.0362648333422122 0.71557352045042211 6:22 14:3 16:1 26:1 30:1 32:1 39:1 42:1 57:1 61:1 89:2 107:1 1013:1 1334:1 1335:1 1336:1 1337:1 1338:1 1339:1 1340:1 
3.2028182664778453 3.3840430676692375 1.0908765198959356 3.2585133313690249 3.8331595300623458 0.29183878509617062 0.64685643871808429 2.1361146628674326 8 4:1 6:26 14:1 26:2 30:2 42:4 58:1 84:1 147:1 195:1 345:1 1029:1 1341:1 1342:1 1343:1 1344:1 1345:1 1346:1 1347:1 1348:1 1349:1 1350:1 
0.08509512528201936 7.3460452577246507 1.2005679021841449 3.6749912295368206 4.2602052868749931 2.2527907044126976 6.2351569985617399 0.62334950747936824 0 6:32 9:1 14:5 26:2 30:1 40:2 42:3 61:1 109:1 113:2 122:1 548:1 579:1 822:1 1063:1 1347:1 1350:1 1351:1 1352:1 1353:1 1354:1 1355:1 1356:1 1357:1 
0 0 0.82889950094175191 1.6608644339039025 3.4290659726964674 0 0.1995953403286248 0 3.0896084104663668 6:16 14:2 20:1 26:1 39:1 42:1 272:1 659:1 1050:1 1251:1 1358:1 1359:1 1360:1 1361:1 1362:1 1363:1 
4.8416611415826312 0.76089696281665453 0 1.6509253232459309 0 1.3485926194636642 2.5995689822415193 0.79794022701407952 5.5528991649510768 1:1 6:10 14:1 30:1 42:1 107:1 551:1 1364:1 1365:1 1366:1 1367:1 
0 0 8 0 0 8 3.1334565276346802 8 8 6:6 14:1 42:1 83:1 300:1 650:1 1368:1 
2.0115873200092165 7.2709732685051431 0 0 3.4478010568903454 0 2.9519003965324564 0 0 3:1 6:26 14:2 26:4 39:1 40:1 65:1 89:1 144:1 145:1 348:1 435:1 738:1 1114:1 1339:1 1369:1 1370:1 1371:1 1372:1 1373:1 1374:1 1375:1 1376:1 
3.3247639369573156 0.068166535061801106 3.0193812827389839 0 0.40001368468580262 0 6.7772494996148067 0 0.99962773381009085 6:16 9:1 14:2 26:1 40:1 42:1 348:1 467:1 490:1 810:1 1377:1 1378:1 1379:1 1380:1 1381:1 1382:1 
1.8184742725472645 8 8 0 3.4110333416971641 5.9225973382814567 8 4.3231884434101291 0 6:8 9:1 14:1 39:1 40:1 42:1 757:1 1383:1 1384:1 
5.4730233261169685 5.3340975986839405 8 5.70646184003086 5.5932037237314907 5.9550204078047848 6.9640013642332033 5.3570807384189623 1.8416978234018169 1:1 6:13 8:1 9:2 42:1 149:1 151:1 379:1 1301:1 1385:1 1386:1 1387:1 1388:1 
2.4671495369041048 0.95265620265036122 1.2705291392279232 0.53567160933027158 5.0130049525228211 3.1308988700554861 0.33664797452347511 1.9436494966617563 2.6223226657641119 1:1 4:1 6:19 8:1 14:1 30:2 40:1 42:1 84:1 107:1 240:1 1389:1 1390:1 1391:1 1392:1 1393:1 1394:1 1395:1 1396:1 
8 0.75947813764525451 1.4542196721519081 0 0 0 8 2.22397022410509 8 6:4 39:1 78:1 1074:1 1397:1 
8 8 0 0 8 0 8 3.4251324327698041 1.8958709015453672 6:6 14:1 26:1 42:1 348:1 717:1 1378:1 
5.7832605605214642 3.2756978559814818 0.57312019473952447 2.9613581796080468 2.2321648977393198 0.57898665610359734 0 0.9691890623649374 4.1010659604367028 1:1 4:1 6:27 9:1 14:4 23:1 30:2 40:2 52:1 61:1 726:1 919:1 1210:1 1341:1 1398:1 1399:1 1400:1 1401:1 1402:1 1403:1 1404:1 1405:1 1406:1 
4.4799931988221884 0.61877345555913399 3.5082414807045685 1.081470816135031 2.8378408020188854 0.65544581368357713 1.1200875354013917 0 3.1231428021122429 1:2 4:2 6:31 9:2 14:4 20:1 26:1 30:1 39:1 42:2 83:1 168:1 272:2 295:1 844:1 1106:1 1407:1 1408:1 1409:1 1410:1 1411:1 1412:1 1413:1 1414:1 
4.9904248067829347 3.3717795696501294 5.3038243246433341 1.9959031166388748 2.3923033906246483 0.24392304524443703 8 0 3.7824961048776959 6:26 9:1 14:1 26:5 39:1 52:1 80:2 83:1 243:1 259:1 272:1 532:1 780:1 976:1 1415:1 1416:1 1417:1 1418:1 1419:1 1420:1 1421:1 1422:1 
4.4678863886833291 8 8 0 4.1615894137762375 8 8 7.6767493239319649 8 6:4 14:1 42:1 1423:1 1424:1 
0 8 6.2380391561245903 0.097612319761936461 3.1517489855445806 2.2228196050323934 8 0.49434744309279721 4.6215684234029721 1:1 6:7 16:1 39:1 89:1 1339:1 1425:1 1426:1 
7.0260506526121329 4.4064328437711495 4.4714344189967878 1.5334990641981696 0 0 2.6042924117228226 1.8246256503555907 4.9018668077927341 6:7 23:1 46:1 82:1 1133:1 1427:1 1428:1 1429:1 
1.1707918198252358 6.1999061269538256 1.7092086035164982 4.1035568205397235 4.9334856820407609 8 0.0086109641583087624 8 2.9235387916667102 6:14 14:2 30:1 39:1 126:1 130:1 325:1 414:1 718:1 1397:1 1430:1 1431:1 1432:1 1433:1 
4.6748695357541603 0 0 0 3.5512515891736118 0 3.5616773768046408 0 0 6:30 9:3 14:3 26:4 30:1 39:2 61:1 251:1 271:1 348:1 394:1 422:1 440:1 562:1 584:1 666:1 791:1 971:1 1357:1 1434:1 1435:1 1436:1 1437:1 
0 0 0.15763819047133915 0.61572330635256678 4.0794713723422502 0 0.73135769759275904 0 0 6:31 14:2 26:4 30:2 40:2 201:1 216:1 229:1 240:1 435:1 647:1 835:1 1114:1 1233:1 1245:2 1372:1 1438:1 1439:1 1440:1 1441:1 1442:1 1443:1 1444:1 1445:1 1446:1 
2.446480435926361 0.87014753590077154 0 0 0 0.7468334152796009 5.2234954191939043 0 1.7558996148589057 6:16 8:1 9:1 30:2 31:1 61:1 83:1 84:1 243:1 272:1 1447:1 1448:1 1449:1 1450:1 1451:1 1452:1 
7.0452956013693662 3.787626910556992 0 1.296737411900337 5.4753589339921289 0 3.60760493214844 0.23555104469021426 0.40282929738095319 1:1 3:1 6:19 9:1 16:1 23:1 26:1 30:2 42:2 107:1 666:1 667:1 668:1 1058:1 1453:1 1454:1 1455:1 1456:1 
6.4390984189161262 3.3663444826276367 1.8162136918744305 0.76024266688789566 0 2.5598180341850276 1.336626377121988 1.0086621758897369 0 6:15 9:1 26:1 30:1 46:1 61:1 84:1 240:1 666:1 1245:1 1457:1 1458:1 1459:1 1460:1 1461:1 1462:1 
1.3926819703202775 0 0 0 0 0 0 0.62312674275124524 0 6:17 14:2 30:4 51:1 52:1 348:1 435:1 647:1 1043:1 1245:2 1463:1 1464:1 1465:1 
2.2660724584678524 0.32553447098741362 0 0 0.77257808018009233 0.90652833221862972 6.0254082088538761 2.5747287855462186 1.9831192143156682 1:1 6:22 14:3 20:1 26:3 30:2 197:1 348:1 435:1 647:1 778:1 1245:2 1464:1 1466:1 1467:1 1468:1 1469:1 
0 0 0 0 0 0 8 0 0 1:1 6:9 26:1 30:1 40:1 61:1 83:1 467:1 1470:1 1471:1 
8 0.032906078668522777 1.9433052434070355 0.67155492269679518 0 0 1.5500811189401105 0 3.4131697653296422 4:1 6:5 42:1 51:1 1472:1 1473:1 
0 0 0 0 2.8661187774449535 0 1.8032142639177291 0 0 1:1 6:10 9:1 14:1 30:2 46:1 73:1 1474:1 1475:1 1476:1 
0 3.3361073661436222 3.2956778443723649 0 0 0 4.5025023080835069 0 0.58549556861255914 6:7 26:1 719:1 725:1 727:1 1477:1 1478:1 1479:1 
2.9202209276935922 1.4885077392337305 0.66634658023987703 2.0251163953549511 0 0.38107445006434421 8 0.43296280363523865 0.67286031243657074 6:9 9:1 23:1 30:1 89:1 107:1 266:1 1220:1 1480:1 1481:1 
0 0 1.790876617127598 0 0 0 7.1588615614677664 1.0071017483431377 0 6:7 14:1 20:1 401:1 551:1 1482:1 1483:1 1484:1 
5.7310112014573615 8 5.4655339324565917 6.3083928652044055 6.2929733823526268 5.9030836275076775 6.4003810706302167 2.9367723861505759 3.6829675298015885 1:1 3:1 6:18 9:1 14:2 20:1 25:1 39:1 42:1 554:1 1483:1 1485:1 1486:1 1487:1 1488:1 1489:1 1490:1 1491:1 
0 0.49615550299184724 0 0 0 0 0 0 0 6:2 1492:1 1493:1 
8 1.6007956360088249 0 4.1073330126864551 0 1.5234045658915145 8 8 4.6690412605068916 6:6 30:2 126:1 1440:1 1445:1 1494:1 
0 0 0 0 0 0.3577760862753776 0 0 0 1:1 3:1 6:34 13:1 14:1 25:2 26:1 36:2 39:2 40:2 42:2 54:1 61:1 84:1 125:1 229:1 395:1 834:1 835:1 1414:1 1440:1 1445:1 1495:1 1496:1 1497:1 1498:2 1499:1 1500:1 1501:1 
0 0 4.6318473623578607 0 0 0 0 0 4.8391140161175299 6:18 9:1 26:1 30:1 39:2 46:1 91:1 151:1 262:1 401:1 554:1 730:1 1210:1 1502:1 1503:1 1504:1 1505:1 1506:1 
1.4238762445632105 0 0 0 0.57070871757034092 0 3.4518007276444584 0 0 6:24 9:1 14:1 23:1 26:2 30:2 40:2 61:1 89:1 107:2 149:1 262:1 272:1 524:1 715:2 968:1 1507:1 1508:1 1509:1 1510:1 
2.4011999668651369 3.7285835811719856 0 1.2289912095979396 2.0045059940466077 0 0 0 2.8702392563392856 3:1 4:1 6:27 9:1 14:1 26:1 30:2 39:1 40:4 42:1 51:1 83:1 84:1 757:1 1043:1 1451:1 1511:1 1512:1 1513:1 1514:1 1515:1 1516:1 1517:1 1518:1 
0 0 0 0 0.37679329409514528 2.0521666464884381 0 5.3169828419546175 0 1:1 6:13 14:1 30:2 39:1 40:1 42:2 1384:1 1519:1 1520:1 1521:1 1522:1 
8 0 0 0 0 0 8 8 0 6:11 14:2 30:2 57:1 182:1 272:1 624:1 1523:1 1524:1 1525:1 
2.7720178054515006 1.1789481991241568 0.48425676182809296 2.583020384315629 5.6805597316993284 0 0 0 3.6986716257468459 6:23 9:1 14:3 26:1 39:1 51:1 52:1 61:1 83:1 107:1 216:1 313:1 320:1 420:1 1083:1 1526:1 1527:1 1528:1 1529:1 1530:1 1531:1 1532:1 
0.48510897393293362 4.685127694465443 0.23925379619868761 2.1798869683474082 5.090386043760696 0.65693323212154253 4.0031173695462314 0 3.84635810162438 6:15 13:1 14:1 40:1 42:2 51:2 168:1 453:1 458:2 1533:1 1534:1 1535:1 1536:1 
3.4095724811672579 0 1.4392225560369349 1.3038910410119373 2.9540582136100468 0.24852750665425036 5.6894421926860641 1.6534658491600378 0.83308841667818678 1:1 6:17 16:1 26:1 30:2 42:1 46:1 89:1 94:1 122:1 548:1 1537:1 1538:1 1539:1 1540:1 1541:1 1542:1 
0 0 0 0 0 0 7.8355456546719369 0 0 6:8 26:1 30:2 83:1 419:1 1451:1 1493:1 1543:1 
6.1876426795895414 1.6643265582841182 1.6146618932235739 1.8848460015910256 6.7400686817627751 1.7877543622611674 1.7844965274793718 0 7.091688484800371 6:20 8:1 9:1 14:1 23:1 30:2 46:1 61:1 80:1 103:1 107:1 272:1 1544:1 1545:1 1546:1 1547:1 1548:1 1549:1 1550:1 1551:1 
2.7577285779853473 8 3.0927052476802879 0 0.18647104732200287 5.3940207441957755 8 6.2979727887784192 8 6:1 1552:1 
0 0 0 3.9806614243978915 0 0.28415555295487721 0 0 0 3:1 6:26 14:4 30:2 36:1 39:2 42:1 51:2 84:1 482:1 672:3 828:1 1553:1 1554:1 1555:1 1556:1 1557:1 1558:1 1559:1 
1.72827141460888 0 2.802105246412065 0.052294269868476503 0.14882205447131605 0 2.3451946757276461 1.3637687669254677 0 1:1 6:18 8:1 14:2 26:1 30:2 46:2 89:1 1133:1 1223:1 1508:1 1560:1 1561:1 1562:1 1563:1 1564:1 
4.1994468898575432 7.2297620392580946 8 6.5103930820784148 6.5192568032080267 0 7.0290268654371308 0 5.3993112612380294 6:16 9:1 14:1 26:1 31:1 42:2 51:1 65:1 126:1 262:1 919:1 1325:1 1565:1 1566:1 1567:1 1568:1 
8 0 0 0.5360478570799726 0 0 3.671894220599599 0 8 6:12 30:3 40:3 141:1 467:1 756:1 1569:1 1570:2 
0 1.7883408680055273 0 0 0 0 5.7381195254714994 0 2.0526137684269936 1:1 6:13 9:1 14:1 23:1 26:1 42:1 46:1 61:1 107:1 1360:1 1571:1 1572:1 1573:1 
0 0 0 0 0 0 1.240828697815731 0 0 3:1 6:33 9:1 13:1 14:3 16:1 23:1 25:1 30:1 32:1 36:1 37:1 39:1 40:1 42:2 89:1 125:1 159:1 253:1 355:1 395:1 754:1 835:1 1054:1 1233:1 1460:1 1574:1 1575:1 1576:1 1577:1 1578:1 
4.0045814476987385 3.0341868385792869 5.6274783100146184 0 2.97958692408739 0.85414743447904107 8 0.46254278325635634 1.8853377388235575 6:6 14:1 26:1 46:1 1579:1 1580:1 1581:1 
0.95527779166494642 1.2610943601035141 1.9653005758670132 1.3969491560981302 0.20446370858178922 0.95897000888920059 0.81318821538918018 1.6129534848428229 1.0185862030433483 6:19 9:1 30:2 39:1 40:1 46:1 61:2 293:1 652:1 1582:1 1583:1 1584:1 1585:1 1586:1 1587:1 1588:1 1589:1 1590:1 
2.3020867662269509 0 0 0 0 0 0 0 0 4:1 6:7 83:1 93:1 103:1 149:1 150:1 240:1 
7.4965555417052308 2.2727948454026921 8 0 8 3.4612363674386142 8 0 8 6:3 61:1 103:1 1599:1 
4.9726483473264338 5.3453540711333858 2.2728966526882979 0 0 0 1.9757898886659702 0 0.02005112588078916 3:1 6:23 14:4 26:2 39:3 107:1 151:1 373:1 490:1 506:1 624:1 728:1 939:1 1600:1 1601:1 1602:1 1603:2 
3.3127495601264516 4.274995171041331 1.5195633817386729 3.3422042117362407 6.0468945999789154 5.6503018506036611 4.5021844292373956 5.6208343827057012 1.5840058233483685 3:1 6:35 9:2 14:3 23:1 26:2 30:3 39:2 40:1 46:1 189:1 272:1 532:1 931:1 1530:1 1604:1 1605:1 1606:1 1607:1 1608:1 1609:1 1610:1 1611:1 1612:1 1613:1 1614:1 1615:1 1616:1 1617:1 
0 0 1.7081921959774315 0 0 0 5.4489739341271104 0 0 1:1 6:9 9:1 51:1 61:1 83:1 148:1 239:1 240:1 1618:1 
4.8683112567009621 3.3882238325641842 8 0 3.5567867528675396 0 8 0.78558233866308413 0 6:4 26:1 1353:1 1619:1 1620:1 
3.4261912185281806 0.55991299327633937 1.1607901460765786 3.6259606235414927 2.4665967814255239 0.14260797911753492 5.6941243647846669 0.81951129572086645 1.4122789950140719 6:14 9:1 14:1 30:1 39:1 40:1 42:1 83:1 151:1 596:1 756:1 1621:1 1622:1 1623:1 1624:1 
2.7976624348873411 3.0827170944511733 2.3859135624935228 0.0059858170138683362 3.9709907380418863 7.9887343659524772 1.1767261486520066 3.9513022394851123 2.7944306703408204 1:2 3:1 6:29 9:1 16:1 20:1 26:1 35:1 39:2 40:2 86:1 113:1 395:1 532:1 601:1 603:1 1498:1 1625:1 1626:1 1627:1 1628:1 1629:1 1630:1 1631:1 1632:1 1633:1 1634:1 
2.5788678645570466 7.6600527549793451 2.4098180407885175 2.6658954084041482 4.0689084009767544 6.3540126958838368 5.4072726036871392 3.9836415328271602 0 3:1 6:27 14:3 20:1 26:1 30:2 39:1 40:1 42:2 57:1 134:1 240:1 319:1 320:1 395:1 570:1 1635:1 1638:1 1639:1 1640:1 1641:1 1642:1 1643:1 1644:1 
0 0 5.6650661004317833 1.2476287369268759 0.34719717203885586 1.5184451593509845 0.68908620362574158 5.3849186274150647 3.9252379584253525 6:10 14:1 31:1 39:1 239:1 262:1 1645:1 1646:1 1647:1 1648:1 1649:1 
4.6263852693641505 4.9107905598466877 5.434627034914036 1.9735607567576878 3.1750173028203004 6.6156035480333664 8 2.0946353444104187 7.4328545551872907 6:4 23:1 1157:1 1650:1 1651:1 
4.8798719603943868 2.159251731675718 4.0599661142523544 3.5847602511880945 6.6211248808213226 3.4488166075542011 5.0764386211002348 3.1367011694315199 6.3149747723975587 1:1 6:21 14:2 23:1 30:2 39:1 40:1 141:1 448:1 849:1 854:1 1652:1 1653:1 1654:1 1655:1 1656:1 1657:1 1658:1 1659:1 1660:1 
1.2899752157501609 0 7.6775073758171795 0 3.8186140869305358 0.63098288642231004 7.6683840524628577 8 7.3999152011772953 6:8 14:1 30:2 203:1 207:1 1661:1 1662:1 1663:1 
5.0663104310255749 2.8499255178825473 0 0 8 0 5.4347809824676876 0 0 1:1 6:23 14:3 26:1 30:1 39:1 40:1 46:1 125:1 145:1 156:1 219:1 260:1 348:1 435:1 1320:1 1522:1 1556:1 1677:1 1678:1 1679:1 1680:1 
3.2503543881436809 0 8 0 2.8715840752248476 8 8 4.0748058706993771 0 6:2 1353:1 1681:1 
1.1846473928795498 5.6591918422526701 0 7.1799810517674221 3.461979196387027 6.8544411623816837 1.6597763939782815 3.9236541124218958 0 1:1 3:1 6:31 8:1 14:3 16:1 20:1 26:1 30:3 42:1 46:3 89:1 126:1 232:1 233:1 556:1 672:3 945:1 1383:1 1682:1 1683:1 1684:1 1685:1 1686:1 
2.5613339061651943 8 2.8363065354181405 3.2307329532467901 3.0452201819000022 2.7077912982955348 0 4.5542025550594065 3.0872601224474265 3:1 6:32 14:5 20:1 39:1 40:2 89:1 151:1 275:1 440:2 591:1 630:1 1245:1 1687:2 1688:1 1689:1 1690:1 1691:1 1692:1 1693:1 1694:1 1695:1 1696:1 1697:1 1698:1 1699:1 
5.130943955805555 0.47275569172628518 0 5.4801835949190032 4.8367063517146578 0 1.0950915918565529 0.96809772587166432 0.72504120288446605 6:20 9:1 25:1 30:1 40:2 82:1 101:1 113:1 432:1 467:1 548:1 859:1 1396:1 1514:1 1700:1 1701:1 1702:1 1703:1 1704:1 1705:1 
4.6651469689820377 2.8463083197693599 3.0470590952145473 4.7787242655372779 4.4451060134564404 1.7295562354224565 2.3016845240069781 1.7793905217977426 2.8371093026486829 6:24 9:1 14:3 26:2 30:2 42:1 61:1 100:1 107:1 1495:1 1706:1 1707:1 1708:1 1709:1 1710:1 1711:1 1712:1 1713:1 1714:1 1715:1 1716:1 
4.8299346275370443 0 0 6.1521195136027282 2.5143579135724572 0 8 0 0 6:8 14:1 26:1 30:1 42:1 313:2 419:1 1423:1 
6.5198900340767807 0.39219990311753256 0.27925570659901727 0 2.6041590614998529 0 3.4850281927137283 1.2178207206367935 2.5707458229743785 6:22 14:2 16:1 30:2 39:1 40:1 42:1 46:1 181:1 197:1 240:2 265:1 562:1 1717:1 1718:1 1719:1 1720:1 1721:1 1722:1 1723:1 
0 0 3.663522169260832 0.16353818211160406 2.3207113526730456 0.15030912976918434 0.64998954770061568 1.9117138294087692 6.4840645116799793 6:21 9:1 14:2 20:1 26:1 35:1 42:3 51:1 61:1 107:1 168:1 466:1 497:1 1724:1 1725:1 1726:1 1727:1 1728:1 1729:1 
2.0424044992704968 8 3.4478123998032051 1.5803258315736255 5.4517358087798025 3.3556621857199573 8 4.8525789320096839 0 6:7 14:1 39:1 42:1 1267:1 1730:1 1731:1 1732:1 
2.5852350944700389 0 0 0.81184558285051267 2.4185588131467224 0.76689626680540246 2.1119296125071654 0.33607277872671315 2.5379138432296737 1:1 6:23 9:1 14:1 26:1 30:3 39:1 46:1 52:1 61:1 78:1 107:1 289:1 1733:1 1734:1 1735:1 1736:1 1737:1 1738:1 1739:1 1740:1 1741:1 
2.259308682062604 0 0 0 0.1573441897475325 0 8 0 5.971817273465617 6:9 16:1 26:1 30:1 40:1 61:1 252:1 1742:1 1743:1 1744:1 
0.48429223772286772 5.3215353971438315 0 3.0459415178769014 0 1.8492917983047286 0 0 2.5917538480013147 1:1 6:24 14:2 26:1 30:1 39:1 40:1 42:1 46:1 107:2 126:1 219:1 240:1 247:1 551:1 733:1 1420:1 1453:1 1745:1 1746:1 1747:1 1748:1 1749:1 
2.5653318848740079 3.2879363816805309 5.0828173323542796 0 3.6674297906404028 0.47299428455341291 2.0876524182656575 2.2843946839666791 0.65393826667917654 6:38 9:2 14:4 26:3 30:1 39:4 46:2 109:1 151:2 155:1 260:1 314:1 527:1 1148:1 1732:1 1750:1 1751:1 1752:1 1753:1 1754:1 1755:1 1756:1 1757:1 1758:1 1759:1 1760:1 1761:1 1762:1 
4.8972083223807417 0.78735112733568025 0 0 0 0 0.29924402946653178 0 0 1:1 6:20 14:2 26:1 30:1 39:1 42:1 84:1 89:2 107:1 168:1 395:1 470:1 556:1 741:1 1763:1 1764:1 1765:1 1766:1 
0 2.8686966442497832 2.1342355227332273 0 0 0 0 0 5.8322933140632101 1:1 6:29 14:3 26:1 30:1 39:3 40:1 46:1 61:1 83:2 84:1 107:1 125:1 252:1 327:2 422:1 809:1 1767:1 1768:1 1769:1 1770:1 1771:1 1772:1 1773:1 
1.324628657142134 4.1451277249547998 2.1097605721408135 0 7.513952975616613 2.9482993105940185 8 0 3.8695022731720372 6:3 1774:1 1775:1 1776:1 
1.6389798418996275 0 0 0 0 0 6.4082315618868915 0 3.4384063911131362 6:10 26:1 46:1 51:2 83:1 1526:1 1773:1 1777:1 1778:1 1779:1 
0 3.4460248130003306 0 1.3321781439291103 0.85294736651326408 1.0171861797613155 0.14399370320144267 1.5716254119029844 0 1:1 6:30 9:2 14:3 16:1 26:1 30:3 39:2 40:1 46:2 75:1 84:1 170:1 286:1 506:1 530:1 697:1 991:1 1190:1 1353:1 1770:1 1780:1 1781:1 1782:1 
0 0 0 0 0 0 0 0 2.6665189499778665 6:18 9:1 16:1 26:1 39:1 42:1 51:2 61:1 107:1 148:1 156:1 247:1 355:1 756:1 1050:1 1090:1 1783:1 1784:1 
1.5545398931116545 8 5.30124714788586 5.2844748129222632 8 0.73735596241771628 3.0312140324699577 3.9327398472047981 0 1:1 3:1 6:32 9:2 14:5 20:1 23:1 26:2 30:3 40:1 42:1 89:1 131:1 459:1 548:1 789:1 1339:1 1685:1 1744:1 1772:1 1785:1 1786:1 1787:1 1788:1 1789:1 
3.9325744604473072 0 0 0 2.4583948845126704 0 0 0 1.3478402031649865 4:1 6:21 9:1 14:2 26:1 30:3 39:1 61:1 83:1 348:1 594:1 634:1 935:1 1376:1 1790:1 1791:1 1792:1 1793:1 1794:1 
0 0 4.0505741013670988 0 0 0 8 0 0 6:5 14:1 51:1 83:1 240:1 1795:1 
8 0.081604433772080182 0 0.22127567901543921 0 0 1.3262450381723561 0 4.263317423819327 6:18 8:1 9:1 14:1 20:1 25:1 26:1 36:1 39:1 40:1 42:2 467:1 663:1 991:1 1796:1 1797:1 1798:1 1799:1 
3.536916008218197 0 8 0 0 8 8 0 8 6:6 9:1 14:1 42:1 168:1 757:1 1002:1 
3.6455824530586072 8 3.769151027961025 0 5.1542887395592603 1.9058317939749219 0 1.3914854332722195 0.61184592040028896 4:1 6:16 14:3 39:2 40:1 84:1 658:1 783:1 1578:1 1800:1 1801:1 1802:1 1803:1 1804:1 
2.9217583170012276 0 0 1.8484500675252951 1.8560625821474768 3.0955958862105346 0 1.7127516068199933 2.2981322441874807 3:1 6:34 9:2 14:4 20:2 25:2 30:2 36:2 39:2 40:1 42:1 378:1 878:1 1237:1 1350:1 1805:1 1806:1 1807:1 1808:1 1809:1 1810:1 1811:1 1812:1 1813:1 1814:1 1815:1 
0 0 0 0 0 0 0.16075212248294449 0 0 6:15 9:1 14:1 20:1 25:1 30:2 36:1 39:2 239:1 835:1 1118:1 1158:1 1262:1 1816:1 
4.140532726720795 0 3.2981771239682183 0 0.83079898372929772 0 8 0 3.9300849874721382 6:11 14:1 16:1 26:1 39:1 151:1 153:1 189:1 347:1 1018:1 1492:1 1817:1 
1.2096759056121797 0 1.7695691105669162 0 0 1.3358363965639142 0 0 0.2483025457322946 1:2 4:2 6:29 8:1 23:1 26:3 31:1 39:2 51:1 61:1 84:2 153:1 357:1 1018:1 1396:1 1818:1 1819:1 1820:1 1821:1 1822:1 1823:1 1824:1 1825:1 1826:1 
2.6592874496630419 8 6.3507974475479241 3.6211509746406465 4.2508610786955057 4.1779176099765287 0.61158857276689438 2.0664654215489313 8 6:30 14:5 20:1 26:1 61:1 84:1 103:1 107:1 348:1 422:1 551:1 586:1 727:1 1330:1 1821:1 1824:1 1827:1 1828:1 1829:1 1830:1 1831:1 1832:1 1833:1 1834:1 1835:1 1836:1 1837:1 
8 0 0 0 8 0 8 8 8 6:6 30:3 859:1 860:1 1838:1 
0 0 0 0 0 0 6.4993052588208737 0 0 6:7 14:1 23:1 40:1 51:1 65:1 1647:1 1839:1 
8 0 0 8 0 0 8 0 0 6:3 46:1 313:1 1474:1 
0 0 0 0 4.8155512198658084 0 8 0 0 4:1 6:15 9:2 26:1 30:1 42:1 51:1 61:2 240:1 243:1 262:1 790:1 1267:1 1840:1 
4.4070565430877142 0 8 0 8 1.4854034903569568 0.51056088612292994 0 8 6:10 9:1 26:1 61:2 103:2 189:1 467:1 1841:1 1842:1 
0.38258575879005186 6.7525172158382496 1.3373773873912 0 0.88313510564854902 0.92757712560805072 0 0 8 6:14 9:1 14:2 23:1 30:1 61:2 107:1 1766:1 1843:1 1844:1 1845:1 1846:1 1847:1 
3.6023637911164523 4.7036859783802072 0 3.7774986221266906 4.9140546250067265 6.5091745256562374 8 5.0013510793320659 0 6:7 14:1 20:1 39:1 325:1 1848:1 1849:1 1850:1 
8 8 8 0 5.4925014802278964 5.394049319610442 8 6.2980215274142264 6.4606459480831058 6:1 1851:1 
5.6481515559655158 4.695777859071093 4.0960643906051954 3.6745798571726866 3.311097891240208 2.5645562979147525 3.794058703939482 0.67994663686110146 2.6501041165270731 1:1 6:26 9:2 16:1 23:1 30:1 35:1 39:1 40:1 42:1 49:1 61:1 107:2 149:1 191:1 624:1 1153:1 1506:1 1852:1 1853:1 1854:1 1855:1 1856:1 1857:1 1858:1 
0 0 0 0 0 0 2.3577381537258804 0 0 3:1 6:28 14:1 25:1 26:1 32:1 35:1 36:1 37:1 40:1 42:2 46:2 58:1 61:2 262:1 314:1 493:1 532:1 548:1 828:1 835:1 1206:1 1233:1 1866:1 1867:1 1868:1 
1.7064122493128937 0 1.8305411888186816 0 2.8390753603608125 0 0 0 0 6:20 14:2 23:1 26:1 39:1 126:1 151:1 202:1 253:1 314:1 357:1 415:1 493:1 575:1 675:1 1243:1 1869:1 1870:1 1871:1 1872:1 
0 7.8707114747408475 5.7706547968161255 0 6.0196998738922032 0 8 0 0 6:3 26:1 1711:2 
0 0 0.71369507279158784 0.6119365390299657 0 0.53271161439431547 1.7470315565149932 3.1913576022490489 0 1:1 6:20 9:2 26:1 30:2 40:1 46:1 49:1 93:1 107:1 262:1 313:1 532:1 533:1 702:1 1282:1 1873:1 1874:1 1875:1 
5.5435733290634506 8 2.9054923459335984 7.7087083176724285 7.1242088790846125 2.7551540698603909 2.5075556897093731 0 5.714200711584783 1:1 6:24 14:4 20:1 23:2 30:1 46:1 141:1 156:1 348:1 579:1 1262:1 1876:1 1877:1 1878:1 1879:1 1880:1 1881:1 1882:1 1883:1 1884:1 
0 0 0 0 0.21423930344791667 2.8792194882090878 0 0 0 1:1 3:2 6:26 14:4 30:2 36:1 39:1 42:1 51:1 84:1 156:1 260:1 436:1 482:1 672:3 1244:1 1498:1 1885:1 1886:1 1887:1 
8 1.4419196126022864 8 5.5194569818909898 6.8993910854991602 2.485531257835123 4.3243564257905698 4.6261418128972513 8 6:9 23:1 42:1 103:1 498:1 976:1 1113:1 1888:1 1889:1 1890:1 
0 0 0 0 0 0 1.144862895280049 0 0 1:1 6:16 8:1 9:1 26:1 30:1 37:1 40:2 738:1 861:1 1889:1 1891:1 1892:1 1893:1 1894:1 1895:1 
1.2613975871174172 0 0 0 1.1400869288760267 0 8 0 0 6:7 14:1 51:1 52:1 151:1 819:1 835:1 1896:1 
8 6.035165673457322 7.0101751447999137 1.6367329066883958 0.003753025081025374 0 5.9566961991941181 0 8 1:1 4:1 6:9 14:1 42:1 83:1 94:1 1852:1 1897:1 1898:1 
2.2029036400017299 3.8173330565486583 0.53503739813804074 3.0399420078942181 8 6.5001116416423708 3.5523130984056519 5.0937037343533227 0 1:1 3:1 6:36 9:1 14:8 20:1 30:2 39:2 40:1 89:1 140:1 219:1 260:1 272:1 325:1 551:1 575:2 670:1 1403:1 1498:1 1899:1 1900:1 1901:1 1902:1 1903:1 1904:1 1905:1 
3.2547709804433484 8 6.2332176485306334 0 8 4.6998639682991827 8 0 1.3373256306242949 6:2 1816:1 1906:1 
8 4.6831526128307495 8 0 0 8 5.6002324557573502 8 0 6:8 13:1 39:2 51:1 125:1 187:1 1498:1 1907:1 
0.13609270883420213 0.42143960958734089 2.1494584990366161 0 0 0 0 0 0.6942544868868783 1:1 6:20 9:1 14:1 26:1 30:1 42:1 61:1 89:2 125:1 168:1 627:1 1711:1 1908:1 1909:1 1910:1 1911:1 1912:1 1913:1 1914:1 
1.6025526330382975 0.50197729023626836 0 0 4.3725039560184431 0 0 1.488680828920995 2.3291666199990684 1:1 3:1 6:28 14:2 23:1 25:1 30:4 39:2 40:2 46:1 70:1 103:1 123:1 126:1 151:1 240:1 418:1 567:1 1099:1 1570:1 1915:1 1916:1 1917:1 
5.7733196180558224 0 8 0 2.7376110197494525 8 8 8 0.92594696491789585 6:6 30:1 57:1 1498:1 1918:1 1919:1 1920:1 
0 0 0 0 0 0 0 0 7.8704908293055702 4:1 6:23 9:2 14:2 16:1 20:1 26:3 30:1 39:2 42:1 168:1 284:1 730:1 1434:1 1921:1 1922:1 1923:1 1924:1 1925:1 
0 0 0 0 0 0 0 0 8 4:2 6:6 51:2 52:1 1050:1 
0.092270137010508804 0 0 1.0928552257742403 1.9185045420748947 1.8429633758479294 0 0.30177226185131739 0 6:26 14:3 26:1 30:1 39:3 40:1 42:1 103:1 281:1 284:1 503:1 700:1 1926:1 1927:1 1928:1 1929:1 1930:1 1931:1 1932:1 1933:1 1934:1 1935:1 1936:1 
0 0 0 0 8 0 8 8 0 6:5 30:3 84:1 1937:1 
0 0 0 0 0 0 8 0 8 1:1 4:1 6:4 83:1 1938:1 
0 0 0 0.59220293205588137 0 0 4.1632095102711499 1.8818432144012527 0 6:10 9:1 30:2 182:2 1065:1 1067:1 1939:1 1940:1 1941:1 
1.8481985872679125 0 0.55442108223812503 0.9977459534226345 0 4.1589414641753191 1.3466310986932091 0 1.7849125917156103 4:1 6:8 9:1 14:1 42:1 420:1 1942:1 1943:1 1944:1 
1.951644298981009 8 1.4831938448747426 2.8745032066575447 3.9666021634130124 0 3.1312914492889607 1.4615628975350159 2.4055773593862866 3:1 6:29 9:1 14:4 16:1 23:1 30:1 34:1 39:4 42:1 156:1 272:1 624:1 1090:1 1521:1 1789:1 1938:1 1945:1 1946:1 1947:1 1948:1 1949:1 1950:1 1951:1 
0 0 0 0 0 0 8 0 0 6:2 30:1 145:1 
0 0 0 1.7198873242777786 0 0.17595163845126741 0 0 0 1:1 3:1 6:19 14:2 16:1 30:1 46:1 51:1 153:1 233:1 627:1 718:1 727:1 835:1 945:1 1826:1 1913:1 1952:1 1953:1 
8 8 8 0 8 8 8 4.64452661402931 8 6:1 1537:1 
0 2.8135701918502178 0 0 1.0680262273393812 0 3.7202939561191313 0 3.1935164433555028 6:27 13:1 14:1 16:1 23:1 26:2 30:2 40:1 42:1 46:1 51:2 52:1 54:1 82:1 89:1 93:1 117:1 134:1 506:1 1251:1 1456:1 1954:1 1955:1 1956:1 1957:1 
0 0 0 0 0 0 4.5041916347393602 0 0 6:24 9:1 14:1 26:1 30:2 39:2 40:1 89:1 107:1 156:1 253:1 262:1 310:1 325:1 385:1 467:1 1635:1 1958:1 1959:1 1960:1 1961:1 1962:1 1963:1 
5.9085869155768256 1.8643845900733291 0.52465760498309455 0.81655110546437892 3.295800428135002 5.8159101334069625 8 1.5321602773739595 1.6980557536850636 6:4 627:1 1776:1 1913:1 1964:1 
8 8 8 0 8 0 8 0 8 6:12 9:1 14:1 26:3 42:1 46:1 268:1 497:1 1456:1 1965:1 1966:1 
8 8 7.465048724009808 8 2.4163589946905248 0.40268423587860491 7.5791922753026757 4.4946177500719555 8 6:5 20:1 1104:1 1829:1 1967:1 1968:1 
8 8 6.1499193248901785 0 0 8 8 5.8122245318277379 0 6:2 9:1 1969:1 
8 8 4.633215954449466 4.9146188440306169 4.223086788844121 8 8 0 8 6:6 39:1 107:1 263:1 467:1 757:1 1465:1 
0.2403033620043461 2.2197601110476435 0 0 2.7889210137380718 1.0199155387211614 2.008357191440461 0 1.982639130555796 3:1 6:30 9:3 26:2 39:2 52:1 107:1 151:1 153:1 156:1 196:1 272:1 373:1 454:1 569:1 713:1 835:1 878:1 1090:1 1311:1 1822:1 1970:1 1971:1 1972:1 1973:1 1974:1 1975:1 
0 0.76799824092197122 0 0 0 0 8 0 0 6:8 14:1 26:1 51:1 61:1 107:1 274:1 1358:1 1403:1 
0.59731471624544252 3.8970627258342962 2.8524121516584104 3.5955526352959724 5.4218894264167146 1.8259060855320626 1.4242538050796894 0 2.4749400535781718 1:1 6:36 14:3 16:2 26:2 30:2 31:1 39:2 40:1 42:4 52:1 101:1 189:1 455:1 527:1 714:1 738:1 1197:1 1523:1 1976:1 1977:1 1978:1 1979:1 1980:1 1981:1 1982:1 1983:1 1984:1 
5.5087035777973394 0 0 0 0 0 8 5.1835616197807024 0 6:5 30:1 249:1 419:1 1451:1 1985:1 
0 0 0 0 0 0 7.6228104798185443 0 0 6:7 26:1 39:1 107:1 182:1 313:1 1321:1 1986:1 
4.5817689699532744 2.6920562222718725 0 2.5818731825367971 8 3.6206754079814845 8 0.74486612398066543 0 1:1 6:13 9:1 30:1 40:1 42:1 57:1 78:1 107:1 120:1 123:1 135:1 487:1 1987:1 
8 7.5137941464378697 8 1.8936769238441835 7.3469324166843757 7.2390120560725837 8 7.2277712757799666 4.1993511509128414 6:10 30:2 39:2 46:1 257:1 1823:1 1988:1 1989:1 1990:1 
8 7.6165961000073015 8 5.7079801739810563 0 3.5377053413467716 8 0 8 6:6 42:1 168:1 262:1 543:1 548:1 738:1 
3.2496780055764933 0 0 0 0 0 0 0 0 4:2 6:13 26:1 30:1 39:1 40:1 42:2 84:1 1708:1 1991:1 1992:1 1993:1 
1.6521152544190099 6.4559305681632093 0 0 1.3521099691337901 0 3.6849598062940268 0 0.74704668737405067 1:1 6:5 51:1 1994:1 1995:1 1996:1 
0.73411905767143781 2.6219496847130328 8 3.7249255436682835 0 7.4725242440403319 4.1949191428206287 1.3879088689762764 4.6765434557806325 6:8 9:1 14:1 78:1 240:1 1678:1 1829:1 1997:1 1998:1 
0.58728142884893098 0 2.6957307593667661 0.48297301917811947 1.9490825095799977 0 0 0.9676882800062292 1.1906693104409214 6:18 9:1 14:2 16:1 28:1 30:2 37:1 39:1 49:1 151:1 1999:1 2000:1 2001:1 2002:1 2003:1 2004:1 2005:1 
7.4848843927143465 4.612439574409013 0.21496799004136502 4.4906730596078113 5.0362860216714598 6.758786109818141 2.5099308972103707 4.1523810242071724 5.2059872418339621 1:1 3:1 6:35 8:1 9:2 14:4 23:1 30:2 35:1 39:2 40:1 42:1 52:1 61:1 126:1 139:1 239:2 256:1 479:1 551:1 1070:1 1158:1 1726:1 2006:1 2007:1 2008:1 2009:1 2010:1 2011:1 
0 0 0 0 0 0 2.3819812453302864 0 3.3260699552220334 1:1 6:17 14:1 26:1 30:2 39:1 40:1 83:1 89:1 727:1 1076:1 2012:1 2013:1 2014:1 2015:1 2016:1 2017:1 
6.0767816532292906 0 0 0 0 1.7105096479421846 0 2.6001366085453728 2.4127057195926347 6:11 14:1 20:1 23:1 30:1 36:1 42:1 137:1 2008:1 2018:1 2019:1 2020:1 
4.7169360877356032 3.6627076655038255 2.5725512624492439 0 3.9498303242041684 0 8 4.176657260910333 2.6892040065967899 6:14 13:1 14:1 26:1 30:2 40:1 42:1 84:1 452:1 762:1 1648:1 2021:1 2022:1 2023:1 
5.4378133152115273 2.998583798212755 2.6562569075498201 1.6058592128491285 0 0 8 0 6.0693807912878839 6:3 252:1 472:1 2024:1 
0 0 0 0 0 0 0.22309054985930349 2.3466186007108099 0 1:1 6:8 30:1 42:1 46:1 89:1 258:1 730:1 2025:1 
8 8 8 1.9084670512420117 8 7.2380370548457922 8 2.9316020881868541 8 6:1 270:1 
8 4.6487014427814506 0.50042738744816095 0 2.761760935134995 0.31207927386715223 8 0 0 1:1 6:5 39:1 107:1 1060:1 2026:1 
1.8992496045652569 1.4590066650249245 0 0 0 0 5.2365559261198564 0.97196340670933778 0 6:9 30:2 107:1 134:1 1058:1 1142:1 2027:1 2028:1 2029:1 
8 0 0 0 8 0 8 0 4.1502740140134602 6:7 30:2 61:1 107:1 741:1 2030:1 2031:1 
4.5313905476724532 8 8 0 2.137390612829198 8 8 3.0733901390121487 0 6:3 39:1 240:1 2015:1 
2.3378294456796738 0 0 0.30820577957858236 1.6150395482125202 0 8 3.2138973023922284 0 6:13 9:1 30:2 42:1 170:1 199:1 212:1 243:1 667:1 809:1 1197:1 1330:1 1985:1 
5.9441224250507911 5.5625276180944399 6.404497109013418 6.5322268986628176 6.5749766796460714 2.9501800735569579 7.72433858240628 1.4921945623660784 5.5389311828365333 6:20 9:1 14:2 16:1 39:1 46:1 52:1 265:1 468:1 624:1 791:1 1346:1 2032:1 2033:1 2034:1 2035:1 2036:1 2037:1 2038:1 2039:1 
0 8 3.8501419379474187 3.6380414138656398 8 4.3433826499770039 0 0 3.8924883831502655 6:8 9:1 14:1 40:1 73:1 1091:1 1147:1 2040:1 2041:1 
8 1.2228434811261728 3.6156000328197107 2.9570647203639582 6.3810460858423523 1.3580879954425917 8 0 0.24172476546065927 6:13 14:1 20:1 26:1 40:1 51:1 125:1 835:1 2042:1 2043:1 2044:1 2045:1 2046:1 2047:1 
8 0.26595485910406275 4.8654553107991632 0 0 0 8 0 5.1660463442125248 6:3 26:1 663:1 2048:1 
8 0.29831807115150438 0 0 0 2.3175592493741481 0 0.84240793697039684 1.7933371835432002 4:1 6:25 14:1 16:1 23:1 26:1 30:2 31:1 39:2 42:1 46:1 107:1 718:1 757:1 871:1 1301:1 1371:1 2049:1 2050:1 2051:1 2052:2 2053:1 2054:1 
5.3500617925435821 0 0 3.7409697475369881 0.47750211341731968 3.7454640117778424 0.75878500740852273 0.13389093646224196 0 6:18 8:1 9:1 14:1 23:1 30:2 54:1 78:1 89:1 262:1 384:1 465:1 844:1 1849:1 2055:1 2056:1 2057:1 2058:1 
0 0 0 0 0.5848825538561736 0 0 0 0 1:1 3:1 6:31 14:3 25:1 30:1 32:1 36:1 37:1 39:2 40:1 42:2 182:1 202:1 240:1 348:1 435:1 566:1 730:1 835:1 1018:1 1233:1 1248:1 1257:1 2059:1 2060:1 2061:1 2062:1 
3.1804746539437501 0 0 0 5.0335708111562303 0 1.809588755781447 1.9059268650352705 0 6:29 14:3 30:4 39:4 40:2 61:1 107:2 262:1 314:1 315:1 348:1 355:1 1235:1 2063:1 2064:1 2065:1 2066:1 2067:1 2068:1 2069:1 
4.4288961270260776 1.2656992380917902 5.8370831671641019 0.016282418369239802 2.3594892784552508 2.2208287538562548 8 0.54742008771910189 0 6:9 26:1 31:1 39:1 46:1 2070:1 2071:1 2072:1 2073:1 2074:1 
8 6.1562962263357317 0.48646475993129362 0 0 0 8 1.808415660625172 1.7942579318229732 1:1 6:6 9:1 30:1 212:1 2075:1 2076:1 
7.4047575661144363 5.4877934069119165 4.9163527526394661 2.2453913236211087 4.9337252859794987 4.3753691820744667 8 4.6694292222678753 5.5488509949146918 6:5 20:1 42:1 2077:1 2078:1 2079:1 
2.2207318360994281 3.2623696172945289 4.144097946798154 4.1268535503157064 4.3949795321601641 3.8189336648447911 6.1881901669107711 4.4316848934605133 0.42639484503345537 6:31 9:1 14:2 30:3 39:3 46:1 61:1 93:1 107:1 207:1 272:1 379:1 467:1 699:1 714:2 924:1 977:1 985:1 1268:1 1556:1 1926:1 1991:1 2080:1 2081:1 2082:1 2083:1 
0 0 0 0 2.5585406051035173 0 0 0 3.1400304981731768 1:1 4:2 6:27 13:1 14:1 16:1 23:2 26:1 30:1 40:1 51:1 89:1 126:1 134:1 265:1 289:1 384:1 385:1 467:1 1324:1 1339:1 2084:1 2085:1 2086:1 2087:1 2088:1 
0.17286340212845314 0 0 0 0 1.3140463024934386 0 0 0 6:20 9:1 14:2 16:1 23:2 26:1 39:1 42:1 84:1 107:1 289:1 380:1 384:1 1324:1 2084:1 2089:1 2090:1 2091:1 2092:1 
3.4804836393456049 0 1.1488730424765115 2.8906243396213767 2.0016968680081284 0.11128320220186196 5.2922860322367287 4.5276880152615426 2.3353035891482632 6:38 8:1 14:9 20:2 26:4 30:5 107:1 272:1 417:1 1083:1 1319:1 1877:1 2093:1 2094:1 2095:1 2096:1 2097:1 2098:1 2099:1 2100:1 2101:1 2102:1 2103:1 
3.3846634772912871 1.8308278686727752 1.1259169214657518 0 0 2.1527992540328165 8 3.8474876496841133 1.4961449178087456 6:2 783:1 1084:1 
0.35280439801987779 0 0 0 0 0 0.88611380895095915 0 1.2846554892291369 6:32 9:2 14:3 20:2 30:2 40:2 42:1 61:1 83:2 89:1 265:1 272:1 498:1 835:1 844:1 921:1 1985:1 2104:1 2105:1 2106:1 2107:1 2108:1 2109:1 2110:1 2111:1 2112:1 
3.413816737783411 6.3611733061230318 2.2942313933204366 0 3.018934607303946 1.6408156124454394 8 3.6289165612132162 3.2419821238574076 6:6 9:1 39:1 40:1 51:1 2113:1 2114:1 
0 1.1645772776621939 1.2755055053453856 0 0 0 4.881321567606947 0 3.6925201814515702 6:5 51:1 482:1 1888:1 2115:1 2116:1 
4.4174546230828149 1.5871064703737472 8 0 0 1.2279361046118411 8 3.9389815425098051 0 6:6 14:1 26:1 467:1 1044:1 2117:1 2118:1 
1.8826222170971063 0 0 0 1.5216012523903981 0 0.67262254471864935 0 0 3:1 6:32 9:1 23:1 26:2 30:1 32:1 37:1 39:3 40:1 46:1 84:1 91:1 651:1 667:1 730:1 835:2 962:1 1233:1 2119:1 2120:1 2121:1 2122:1 2123:1 2124:1 2125:1 2126:1 2127:1 2128:1 
8 0 2.3425587541294401 0 0 0 5.2760182580052861 0 0 6:4 83:1 562:1 1690:1 2129:1 
0 0 0 0 1.528305750495897 1.003686831259067 1.8411325783260821 0 0 3:2 6:21 14:2 30:2 36:1 39:1 51:1 482:1 672:3 1096:1 1286:1 1432:1 1638:1 2130:1 2131:1 2132:1 2133:1 
2.1131496557253686 0.16631256466578442 1.8197439378635711 0.73477787595393584 6.5509539797505214 8 3.5923995072852657 8 0 6:12 9:1 14:1 26:1 30:1 40:1 477:1 497:1 551:1 650:1 2134:1 2135:1 2136:1 
6.6392811061606318 3.3310414500819108 4.1981114540278002 3.0120760450081985 4.1103913816794941 0.58510216996914766 0.65780929389726961 0.34834190982463509 8 6:23 9:1 14:1 20:1 22:1 26:1 30:1 39:1 42:1 61:1 207:1 396:1 1021:1 1086:1 1191:1 1434:1 2137:1 2138:1 2139:1 2140:1 2141:1 2142:1 2143:1 2144:1 
1.3858521766935257 1.8291428456714758 4.4725254328490243 2.1193019218712199 5.2661975970878458 2.491857174270899 1.509561249050996 0 2.6818379673968029 6:26 8:1 9:2 14:2 16:1 20:2 26:2 30:2 39:1 42:2 316:1 490:1 624:1 703:1 1397:1 1662:1 1937:1 1978:1 2145:1 2146:1 2147:1 
1.6966539654979613 1.0629639455123452 2.1210345300353222 1.6015827197573609 2.9042347180446031 0.31504737979714986 3.3396559739555789 0.77433493143577026 2.6526596820100727 4:1 6:22 9:1 14:5 30:1 39:1 40:1 42:1 46:1 168:1 272:1 316:1 1647:1 2148:1 2149:1 2150:1 2151:1 2152:1 2153:1 
0 2.866053656731768 6.0300302967460144 0.16791555961214219 0 0.81697895486738059 0.83740616648340849 0 0 1:1 4:1 6:10 14:1 42:1 106:1 153:1 640:1 2157:1 2158:1 2159:1 
0 0 0.35605383822394798 0 0.44906167967958449 6.8369013095195648 0 1.6122792664422165 6.4949141238871588 6:17 9:1 14:3 30:1 39:2 42:1 57:1 168:1 490:1 500:1 503:1 743:1 1568:1 2160:1 2161:1 
0 8 2.2985380112212233 0 8 1.7176009037003848 8 0 8 6:8 14:1 31:1 39:1 51:1 91:1 136:1 272:1 730:1 
8 8 8 0.90969028010403907 7.5344580707260365 0.007196247803142322 7.9281794467517344 0.45570196185124251 8 4:1 6:11 9:1 26:1 46:1 61:1 151:1 174:1 726:1 2162:1 2163:1 2164:1 
5.8746053891252137 0 0 1.0663235384296044 4.6570143470103886 4.48961388793869 8 4.6414951899573431 0 6:8 9:1 30:1 42:1 78:1 262:1 2165:1 2166:1 2167:1 
2.7169601598219586 3.0410518635161234 8 0.28417028978026931 2.1381760085110133 5.7569599724007317 8 0.19922685626310951 3.5549722525065648 6:6 14:1 39:1 42:1 1216:1 1384:1 2168:1 
0 4.0587289290419397 0 0.4305086392586589 0.27305414585386467 0 5.151958832373472 0 1.3090126593029112 6:7 14:1 40:1 51:1 84:1 504:1 730:1 2169:1 
8 3.5453903120601029 8 1.0496511728666535 8 3.0394872948731244 1.852838592716006 0.37243851688869223 7.8012934801760832 6:5 42:1 103:1 2170:1 2171:1 2172:1 
0.47437407725228753 0 0 0 0 0 0 0 8 6:15 14:1 26:1 30:1 46:1 51:1 54:1 83:1 94:1 151:1 730:1 1319:1 2177:1 2178:1 2179:1 2180:1 
0 0 8 0 0 0 8 0 8 6:11 14:2 42:2 70:1 103:1 122:1 168:1 240:1 241:1 262:1 
1.2544740611461984 1.7578650280655741 2.2805373378146991 1.5377887391935361 1.2645055755195509 0 1.4627935032629567 0 2.0220342994842806 3:1 6:31 14:5 20:1 23:1 25:1 39:2 42:1 46:2 70:1 151:2 314:1 438:1 490:1 567:1 835:1 1186:1 1233:1 1300:1 2181:1 2182:1 2183:1 2184:1 2185:1 2186:1 
4.2621647974496542 0 8 0 8 0 8 0 4.6539323691121464 4:1 6:10 14:1 26:1 30:1 42:1 78:1 240:1 304:1 2129:1 2187:1 
4.8667688786594105 3.8659600135932242 5.6780198523590784 0.12002294222041461 0.027095429073910153 3.883477434683885 8 6.2631616028280126 2.6290499297620822 6:5 14:2 898:1 2188:1 2189:1 
8 2.9391756155036819 1.9115997131886049 0 2.8936288783837609 0.52715701144972837 4.8824996978768223 0 1.2506993474148074 4:1 6:7 14:1 42:1 107:1 776:1 2190:1 2191:1 
2.2131700152815816 4.4661667763368369 0 3.1873969010447958 3.6523921847522995 2.0325152988354969 0 0 5.3113698890631555 1:2 4:1 6:37 9:1 14:6 16:4 30:1 39:2 42:2 51:1 52:1 84:2 107:1 163:1 490:1 727:1 1368:1 1577:1 1823:1 2179:1 2192:1 2193:1 2194:1 2195:1 2196:1 2197:1 
0 0 1.9330783254972639 1.0469903167643426 3.2451260191816895 0 1.7443620139516298 0 1.1102792345326198 6:39 9:1 13:1 14:4 16:1 26:5 30:1 40:1 42:5 51:1 52:1 203:1 239:1 240:1 484:1 490:1 660:1 772:1 925:1 1322:1 1424:1 1577:1 2198:1 2199:1 2200:1 2201:1 2202:1 2203:1 2204:1 
2.0781321223488103 0 0 0 1.8757735730940384 0 3.4231620223099357 0 0 6:15 14:1 26:2 30:1 57:1 61:1 84:1 130:1 141:1 325:1 575:1 885:1 1343:1 2163:1 2205:1 
4.0145913493709759 8 3.6583044390725523 2.0239197101593764 8 0 8 0 7.8403114333299087 6:22 14:2 23:1 26:2 39:1 40:1 51:2 107:1 320:1 348:2 379:1 467:1 551:1 854:1 1509:1 2206:1 2207:1 2208:1 2209:1 
7.0726320966893761 4.1627837047795406 3.0975223890967527 2.9325080826828724 3.3700695755314682 3.9497311715799444 8 2.9880798164681468 3.9888235518526862 6:6 14:1 42:1 1776:1 2210:1 2211:1 2212:1 
5.7162391078600274 3.3048461512420007 2.1527740764691505 1.3413522476683168 6.0254539044324993 0.49306313714505945 4.6322138207690688 0.064616744650457927 1.5864798412631149 1:1 6:23 14:6 23:1 26:1 39:1 40:1 42:1 91:1 107:1 532:1 956:1 1322:1 2173:1 2213:1 2214:1 2215:1 2216:1 2217:1 
8 0 0 4.2116246613604451 8 8 0 0 3.2876514809238953 3:1 6:7 30:1 103:1 663:1 672:3 
8 0 1.6290691791203462 0.76072826290845907 1.0767499323967666 0.79318848866230307 0 0.39249017602126557 1.1782718050075416 6:15 14:1 16:1 20:1 23:1 30:2 46:1 189:1 1319:1 2218:1 2219:1 2220:3 2221:1 
0.41802284181530475 5.7536240810854089 2.6335425079748789 6.1253254437087907 3.9492826653004203 1.9338459573667173 0 0 7.19905279201509 3:1 6:26 9:1 14:3 39:2 42:1 46:2 51:1 61:1 103:2 272:1 289:1 314:1 596:1 1010:1 1322:1 1849:1 2219:1 2222:1 2223:1 2224:1 2225:1 
0 0.50849535126074519 0.94373758694730658 0.21307578403413865 6.531782792018098 2.6527202257552354 8 0 0 3:1 6:17 14:1 23:1 26:1 30:1 39:1 197:1 314:1 672:3 1319:1 1322:1 2226:1 2227:1 2228:1 2229:1 
1.6472026343845281 1.6524774923401371 0.45013356486150846 1.085074264907109 1.1797285432122095 0.22390011063108228 0 1.0214052584722189 0 6:33 14:7 20:1 26:1 30:1 39:1 40:1 89:1 107:1 252:1 314:1 556:1 570:1 666:1 1070:1 1163:1 1322:2 2186:1 2230:1 2231:1 2232:1 2233:1 2234:1 2235:1 2236:1 2237:1 2238:1 
1.3585289059404428 0 2.5551949394504225 0.44789097499705433 0 0 3.1110622756490978 0 0 3:1 6:37 9:1 14:3 23:1 25:1 26:3 32:1 36:1 37:1 39:2 40:2 42:2 46:1 139:1 202:1 272:1 835:1 969:1 1146:1 1233:1 2239:1 2240:1 2241:1 2242:1 2243:1 2244:1 2245:1 2246:1 2247:1 2248:1 
5.1402683229628456 3.1756039022111473 2.6209285851806361 2.8951869898683773 1.6795600445938881 1.4521492279644233 8 3.5870828683547216 4.6084967324405293 1:1 6:12 14:2 20:1 30:1 40:1 46:1 124:1 347:1 548:1 2249:1 2250:1 
0 0 0 0 0 0 1.5421300155955384 0 8 4:1 6:6 23:1 51:1 141:1 2251:1 2252:1 
0 0 0 0 0 3.4533500290193051 8 0 0 6:4 26:1 727:1 1462:1 1937:1 
4.5520676981612889 0 0 0 1.93543479312026 0 4.4933655376011039 0 0 6:16 9:1 13:1 26:1 30:3 51:1 54:1 73:1 78:1 313:1 419:1 556:1 684:1 2253:1 2254:1 
8 0 0 0 0 1.5439362584837275 6.9666166288371016 0 0.96703352295411493 6:17 16:1 23:1 26:1 30:3 107:1 191:1 262:1 395:1 397:1 456:1 783:1 1229:1 1635:1 1937:1 2255:1 
3.1830396746609764 2.1665248808647553 2.1110242040896536 2.117851390435014 3.7093402905075097 2.4596831824229368 8 3.6120362860328044 1.9795736360857688 1:1 6:17 14:4 16:1 30:2 39:2 272:1 2180:1 2256:1 2257:1 2258:1 2259:1 2260:1 
5.5778525439216402 5.4353424013228651 0 3.0846950769266561 2.4033976753237387 0.45507410734522757 6.6833652818289329 0.31534342216000061 0 6:30 9:3 14:2 30:1 39:2 40:1 42:1 46:1 61:1 156:1 193:1 395:1 463:1 562:1 623:1 656:1 754:1 873:1 894:2 1155:1 1320:1 2261:1 2262:1 2263:1 2264:1 2265:1 
0 0.099306774720405097 0 5.3511816722788534 2.1552082388533744 0 0 1.1571686116171431 1.0149326383006869 6:17 14:3 30:2 42:1 46:1 89:1 144:1 145:1 1337:1 2038:1 2266:1 2267:1 2268:1 2269:1 2270:1 
8 0 8 0 8 8 8 0 0 4:1 6:2 240:1 
8 6.0082756708354967 2.1927762095619299 0 8 1.6919718611734222 8 2.390487064674601 0 1:3 6:11 8:1 14:1 26:1 61:1 258:1 418:1 1577:1 2271:1 
8 0 0.41874950916942733 0 0 0 0 0 0 4:1 6:15 14:1 20:1 30:1 46:1 78:2 419:1 471:2 597:1 814:1 947:1 1146:1 2272:1 
0 5.5276139650729235 0 0 0 0 8 0 0 6:6 9:1 46:1 51:1 52:1 243:1 726:1 
0 2.9369917785367297 0 0 0 0 6.2687804143507764 1.4709880719403035 3.6422329867991974 6:3 20:1 471:1 882:1 
1.4562088177101549 0.1325717855868323 1.9239329338679292 3.7886488278368091 7.6197034139862225 1.115835684305994 0 2.0427509966961774 3.7777422279658115 1:2 6:34 8:1 9:1 14:2 20:1 26:1 30:1 39:2 46:1 89:1 106:1 153:1 175:1 196:1 239:1 265:1 289:1 476:1 882:1 1158:1 2273:1 2274:1 2275:1 2276:1 2277:1 2278:1 2279:1 2280:1 2281:1 2282:1 2283:1 
8 8 8 2.6242010060439505 2.0721576091978458 8 8 5.2259604805120965 0 6:3 14:1 548:1 2284:1 
0.26559420387844118 0 0.84077362426262836 0 2.6397179280853891 0 4.7076287499322387 0 2.1003679325516367 1:1 4:2 6:34 9:1 14:3 16:1 23:1 26:7 30:1 39:1 42:1 84:1 107:1 1071:1 1343:1 1909:1 1916:1 2285:1 2286:1 2287:1 2288:1 2289:1 2290:1 2291:1 2292:1 2293:1 
0 0 0.44711728973456766 0 0 0 0 0.26937255183199338 0 6:11 14:1 15:1 20:1 30:2 1058:1 1142:1 1431:1 2028:1 2294:1 2295:1 
7.2523486765522129 1.8246820113147257 8 3.3845127349833941 6.3749509726048181 5.4603443291124254 1.1412030233402204 0.45619663347261435 8 6:7 9:1 23:1 107:1 178:1 1508:1 2296:1 2297:1 
0 3.6446796076729373 2.277824831340646 1.5174992468483814 4.1542519052025852 0.84540998878271656 0.66513953314622198 0 0.17129416484440754 6:6 39:1 51:1 130:1 134:1 1916:1 2298:1 
3.6605822886682953 1.9431560551848541 0 0.69668989960600103 0.46447175697851806 1.4213401070188221 3.0168032489662098 1.1119961045209628 0 6:17 14:1 30:1 39:2 61:1 149:1 212:1 741:1 1556:1 1888:1 2299:1 2300:1 2301:1 2302:1 2303:1 2304:1 2305:1 
8 7.3113335697542681 2.5315384056094277 0 8 0 8 8 8 6:1 1004:1 
0 5.5835100354225942 3.2673122334888878 0.57339678352588497 0 1.8933873387560916 3.6355184596869616 1.1156280007585129 0 6:6 14:1 46:1 89:1 111:1 819:1 2306:1 
0 1.4513256422263139 5.4728059651824692 0 0.85836566514681345 0 8 0.91207053819993578 3.7074550465878149 6:10 14:2 20:1 26:1 36:1 2307:1 2308:1 2309:1 2310:1 2311:1 
1.3804560466165092 0 3.7536086922290504 0 0 0.60348316084356368 8 1.8813050557047366 0 6:9 30:1 42:1 83:1 436:1 741:1 926:1 2312:1 2313:1 2314:1 
4.6737489115024733 0 0 0 0 0 1.6164945281578955 0 3.8038220583344642 6:14 14:1 22:1 30:1 40:1 46:1 1004:1 1147:1 1657:1 1862:1 1865:1 2315:1 2316:1 2317:1 2318:1 
8 0 7.5919725757623659 6.6900518247605865 7.9803040263346148 8 6.6160313580397352 0 8 6:7 26:1 52:1 57:1 94:2 103:1 2319:1 
3.0625018460897171 0 0 0 0 0 8 0 0 6:5 26:1 40:1 61:1 252:1 2320:1 
1.8325597091562307 4.1953043357308708 0 0 7.4789117249072552 0 0.051154417271462679 0 8 6:10 14:1 26:1 39:1 40:1 103:1 141:2 182:1 624:1 2321:1 
0.82116590107856002 8 8 0 0 1.4382642305794087 8 3.5386706897208469 8 6:4 14:1 906:1 1689:1 1694:1 
0 8 8 2.7756829898612443 8 8 8 0 8 6:2 35:1 548:1 
0 0 0 0 0 0 8 0 3.0616523922487748 6:2 471:1 2322:1 
8 8 8 4.581790753063431 8 3.4584271855188615 8 0 8 6:7 16:1 23:1 40:1 52:1 174:1 809:1 2323:1 
8 8 8 0.73201624165625823 8 8 8 5.6352047282466673 1.5380300570822774 6:2 548:1 2324:1 
0.83189908975062843 0 0 0 7.505518922190304 0 0 0 8 4:1 6:6 9:1 52:1 83:1 1779:1 2325:1 
6.2278967932879912 8 8 0 7.1739623259349692 0 8 0 8 6:4 26:1 40:1 1147:1 2326:1 
0 0 0 0 2.1208537128749572 0 8 6.9541911150383307 0 6:7 30:4 61:1 1052:1 2327:1 
4.9240939725823161 3.6144776184729839 0.74254034070173436 2.6830611838355285 0.80673503135607016 0 0.14723389898125888 2.7313557848905181 2.5066470762593704 1:1 6:26 14:6 30:1 40:1 42:2 49:1 73:1 113:1 151:1 533:1 543:1 575:1 2328:1 2329:1 2330:1 2331:1 2332:1 2333:1 2334:1 2335:1 
6.7541240020132545 8 8 6.0618124563505686 6.5890390207758447 6.0767916353926497 8 2.677299610162819 8 6:6 39:1 42:1 854:1 1336:1 2336:1 2337:1 
2.9135519614634804 5.0297395606179967 0.47718981242814185 0 6.9058357664250112 0 4.6476482536223598 0.73644152189718093 0.11569869200970746 1:1 3:1 4:1 6:15 23:1 30:1 39:1 46:2 120:1 591:1 2195:1 2338:1 2339:1 2340:1 2341:1 
8 8 7.0479701001511961 0 1.4110872511926797 3.1639401771310225 8 8 8 6:1 1004:1 
6.8237067664341042 0 0.50580888828152404 0 1.1065005082508621 3.8001016015524991 3.7098784146123132 1.131117144281905 0 1:1 6:29 9:2 14:3 23:2 30:2 39:1 42:1 52:1 61:1 107:1 191:1 835:1 1090:1 2314:1 2342:1 2343:1 2344:1 2345:1 2346:1 2347:1 2348:1 2349:1 2350:1 2351:1 
4.0900155568321477 4.4316316268369738 0 3.3656378796445905 8 0.17411706411199154 2.6594949475979495 0 1.1571934623090356 3:1 6:38 9:1 13:1 14:2 20:2 23:2 26:2 30:2 39:1 40:3 42:1 46:2 191:1 230:1 658:1 844:1 956:1 957:1 1451:1 2251:1 2352:1 2353:1 2354:1 2355:1 2356:1 2357:1 2358:1 2359:1 2360:1 2361:1 
5.9627545365204462 4.3552681606296213 5.9190701320419166 3.9796539052296667 4.747293435773579 2.2037124139873181 2.8939293715742127 0 5.6901856018129147 1:1 6:34 9:1 14:2 39:2 40:2 42:2 46:1 103:1 107:1 141:1 153:1 182:1 314:1 470:1 472:1 532:1 689:1 794:1 2362:1 2363:1 2364:1 2365:1 2366:1 2367:1 2368:1 2369:1 2370:1 2371:1 2372:1 2373:1 
4.8539359749828321 3.2612907020988837 0 0 0 2.661239711361338 0 0 0 1:2 6:30 8:1 14:3 20:1 26:1 30:1 31:1 39:2 57:1 61:1 83:1 107:1 191:1 335:1 408:1 487:1 551:1 556:1 727:1 983:1 1965:1 2374:1 2375:1 2376:1 2377:1 2378:1 
5.5302378355857718 0 0 1.6277363979042954 2.2290527998732266 0.033559394237427501 6.6201190791115838 2.4469002823925652 1.4829535153493458 6:15 14:2 26:1 30:3 40:1 663:1 714:1 809:1 2379:1 2380:1 2381:1 2382:1 2383:1 
5.7630314778587817 1.3536196486040297 3.0200053846351875 4.4799967622128882 4.162344269257229 5.081627072533113 6.1425083180451994 3.2612450896498815 4.3620663245707201 3:1 6:19 14:3 23:1 26:1 30:1 36:1 39:1 40:1 423:1 1018:1 1713:1 1953:1 2384:1 2385:1 2386:1 2387:1 2388:1 
8 8 4.1951706085604226 8 8 0 6.175768365847504 0 0 6:11 14:1 26:2 30:1 40:1 151:1 201:1 216:1 1043:1 1321:1 2389:1 
4.1929357453384828 2.7155880492701159 5.2379866221172504 0.68448861650494452 5.3772052968066077 1.9488415213286361 5.9498609268785803 2.7982245137986612 1.7233981286764564 6:13 9:1 14:1 23:1 26:1 30:1 39:1 42:1 1234:1 1365:1 2390:1 2391:1 2392:1 2393:1 
5.5325553902987465 3.5863750951546662 3.5138667907754351 4.8188387993709547 7.3450097175447819 2.0418647194134172 1.5502655830833272 1.2286989885430872 2.4709145355461462 6:31 8:1 14:4 20:2 23:1 26:1 30:1 39:2 40:1 46:1 107:1 141:1 183:1 240:1 262:1 1341:1 1410:1 2394:1 2395:1 2396:1 2397:1 2398:1 2399:1 2400:1 2401:1 2402:1 2403:1 
5.610372279664352 8 4.3798663359240715 7.6738157500811317 4.4858093433025203 2.0893267138177642 3.5443363779809229 0 3.5764327792200459 4:1 6:24 9:1 14:3 20:1 23:1 26:2 39:1 41:1 42:1 46:1 89:1 151:1 201:1 223:1 947:1 2350:1 2404:1 2405:1 2406:1 2407:1 2408:1 
1.9502415440248468 2.9611212315425068 0 1.843513310168909 0 1.3082755133991548 0.53964905147912656 0 0.029951549294880222 6:18 20:1 30:1 40:1 243:2 262:1 395:1 894:1 1074:1 1148:2 1758:1 2409:1 2410:1 2411:1 2412:1 2413:1 2414:1 
2.7577669041899631 5.3294490711084492 8 0 6.6298201844956228 7.806435236755509 8 7.8036205292364125 8 6:1 642:1 
6.3829148148868668 5.2595664341726085 0 5.9532084770092348 7.0194021332459036 8 7.2743253538670976 0 1.9373654713792603 6:10 9:1 14:1 42:1 73:1 107:1 189:1 313:1 1074:1 1076:1 2415:1 
0.82028952210882899 0 0.22749686430237695 0 0 0 0 0 0 3:1 4:1 6:35 9:2 14:4 16:1 20:1 25:2 26:1 36:2 39:1 40:1 41:1 42:1 46:1 89:1 129:1 158:1 1159:1 2350:1 2404:1 2405:1 2416:1 2417:1 2418:1 2419:1 2420:1 2421:1 2422:1 2423:1 
6.2794868596307509 8 0 0 1.2964685696104781 0 8 4.2390400046828036 4.3787361749641178 6:2 9:1 2427:1 
0 0 0 0 0.77103271596339795 0 3.2665635559282995 0 0 3:1 6:26 25:2 26:1 36:2 40:1 42:3 82:1 84:1 89:1 151:1 253:1 314:1 341:1 395:1 594:1 873:1 894:1 1343:2 1673:2 2428:1 
3.4206754599540998 2.1374833356113694 0 4.219883262840658 2.4611527588518194 0 7.0123494031561862 0 2.8307778625727109 6:28 14:1 20:2 26:2 30:3 39:4 40:1 83:1 197:1 240:1 467:1 1432:1 1521:1 1732:1 1798:1 1989:1 2334:1 2429:1 2430:1 2431:1 2432:1 2433:1 
6.8999298474911779 1.9121136619074939 1.3893656078861396 0 6.1492764450407593 0 2.6647498324299521 0 0 6:23 14:2 26:1 30:3 39:2 40:2 42:1 54:1 70:1 107:2 657:1 704:2 1557:1 2434:1 2435:1 2436:1 2437:1 
2.779950025632417 5.9823165436732113 1.2555201677323551 1.5719544200034175 1.6778485585640082 0 7.7788289060388074 0 2.9575574248809628 6:21 14:3 20:1 23:1 39:1 42:1 52:1 141:1 149:1 325:1 498:1 575:1 1268:1 1556:1 2438:1 2439:1 2440:1 2441:1 2442:1 2443:1 
3.1523477901066363 7.0309094846994267 6.5278797365101946 2.2949644658803141 3.1025977487681469 4.2002635215870452 8 3.2851899565304534 8 6:7 42:1 151:1 467:1 1553:1 2444:1 2445:1 2446:1 
8 6.5452840988114769 4.848141609783486 3.7381759446559202 4.8508020567858159 6.9442268972783996 5.8612240170574248 1.4068842219530096 6.3039644590134678 1:1 6:32 14:6 20:1 26:2 30:2 31:1 39:1 380:1 384:1 422:1 560:1 575:1 1256:1 1268:1 1556:1 1666:1 2447:1 2448:1 2449:1 2450:1 2451:1 2452:1 2453:1 2454:1 2455:1 
8 6.8873969861365616 7.7513469250478382 1.3283675843204279 8 8 8 6.1324586527249005 8 6:4 14:1 42:1 2456:1 2457:1 
3.151480031951265 6.1624116572600096 8 0 6.6064695323843949 0.42626542705791309 8 2.1507653519469057 6.6089704234833944 6:5 26:1 764:1 2167:1 2458:1 2459:1 
8 0 3.9097034782696229 0 8 0 8 0 8 6:12 14:1 26:1 30:1 31:1 103:1 241:1 265:1 395:2 2464:1 2465:1 2466:1 
8 8 0 0 0 0 8 0 0 6:2 39:1 75:1 
0.96931501888169225 0 0 0.72141211392913729 0 7.4822674029470519 0 0 0 3:2 6:28 14:4 30:2 36:1 39:2 51:1 52:1 436:1 482:1 532:1 667:1 672:3 726:1 727:1 828:1 2467:1 2468:1 2469:1 2470:1 2471:1 
8 2.3355866687009623 8 0 6.8115453831500643 2.4224253382068168 8 8 8 6:3 42:1 715:1 2472:1 
4.6784301376542263 4.7226773083675573 5.4124966767646949 0.023531263951360827 3.7007976430934009 6.148216067186528 0 8 3.9551091973181025 1:1 3:1 6:18 14:2 42:1 89:1 155:1 224:1 225:1 229:1 551:1 676:1 1690:1 1699:1 1768:1 2251:1 2473:1 2474:1 
2.7413245823300332 2.2931449669732467 1.6661143179122184 0.38868025747272589 0 0.44935294168486251 2.0462481516198516 0.063168442977648315 5.0902633623736016 6:12 9:1 14:2 39:1 46:1 51:1 81:1 1730:1 2475:1 2476:1 2477:1 2478:1 
1.4860414936006474 0.70223655081207237 0 0.07685558118676844 1.8996237447493347 0 8 2.8745449596624169 3.3461242347592965 1:1 6:21 14:2 26:1 30:3 39:1 42:1 122:1 243:1 313:1 395:1 472:1 983:1 1090:1 2479:1 2480:1 2481:1 2482:1 2483:1 
1.1734841229604207 0 0 0 0 0 0 0 7.1522936380133109 1:1 6:24 8:1 9:2 16:1 26:2 30:1 42:1 52:1 61:1 83:2 84:1 107:1 680:1 810:1 1459:2 1862:1 1865:1 2484:1 2485:1 2486:1 
0 2.6385287229287848 0 0 0 0 3.1145789987173402 0 3.0476236268926504 1:2 4:2 6:30 14:3 16:1 30:3 39:1 40:1 42:2 57:1 61:1 107:1 109:1 122:1 359:1 395:1 1674:1 2481:1 2487:1 2488:1 2489:1 2490:1 2491:1 2492:1 
3.0475043272552509 0 0 1.5586312035204033 7.9215625787006969 0 0 0 5.4565565119617743 1:1 4:1 6:26 9:2 14:1 30:1 39:1 40:2 42:1 61:1 103:2 151:1 168:1 265:1 543:1 623:1 789:1 898:1 1368:1 2491:1 2493:1 2494:1 2495:1 2496:1 
1.5383684892884693 2.0472423874210106 0 0.9506105541412373 8 4.5158155566974587 0 0 3.818068873505073 4:3 6:28 9:1 14:3 30:1 39:3 42:3 51:1 106:1 262:1 329:1 718:1 1076:1 1595:1 2198:1 2497:1 2498:1 2499:1 2500:1 2501:1 2502:1 
2.2166278289882704 4.8068778322505246 1.848464813163619 2.7538358263223315 3.7500988109191304 5.2080927239879236 0 0 5.8395850197097268 1:1 6:25 9:1 16:1 30:1 39:1 51:1 61:2 89:1 125:1 240:1 265:1 272:1 283:1 420:1 422:2 1459:1 2205:1 2503:1 2504:1 2505:1 2506:1 2507:1 2508:1 
0 7.4132184279435451 0.76812041283733568 0 0 0 2.4857160360858717 0 3.5331476123062422 6:4 39:1 83:1 2509:1 2510:1 
3.7507511196344683 2.3499541829007118 3.510348889468704 4.1467258461311047 3.3879010747600891 0 6.5092172429354731 0 2.8356925442525669 1:1 6:28 9:1 14:1 20:1 26:2 30:1 40:1 84:1 107:1 240:1 262:1 314:1 620:1 639:1 684:1 1509:1 1844:1 2511:1 2512:1 2513:1 2514:1 2515:1 2516:1 2517:1 2518:1 2519:1 2520:1 
0 2.7194526853371292 0 0 0 0 8 0 0 6:4 40:1 51:1 2521:1 2522:1 
8 5.6800787000444499 6.013341993182503 2.0205178337577099 2.6683130482474735 0.58447382385545588 6.1367462162188673 0 8 6:8 16:1 39:1 51:1 125:1 178:1 551:1 2052:1 2523:1 
0 0 1.8385390979546921 0.63763418278780215 0.96137386049735507 0 0 0 2.3475782035337605 6:20 9:1 14:2 26:1 30:1 39:2 178:2 252:2 419:1 1451:1 2299:2 2524:1 2525:1 2526:1 2527:2 
0.47387547499245047 2.1935568735196744 2.4479367281952089 0 6.4769532490521069 1.028778942325713 2.2642106732095932 0 0 6:9 16:1 26:1 39:1 89:1 1127:1 2532:1 2533:1 2534:1 2535:1 
3.4929761539301833 0 0 0 4.0818077184852548 0 0 0.7734272255276915 1.0227644551762387 1:1 4:2 6:33 8:1 9:2 14:3 26:1 30:2 40:1 42:3 61:1 252:1 352:1 528:1 1052:1 2023:1 2144:1 2536:1 2537:1 2538:1 2539:1 2540:1 2541:1 2542:1 2543:1 2544:1 2545:1 
0 0 0 0 0 0 0.60265602845167332 0 0 6:7 14:2 30:1 145:1 2532:1 2546:1 2547:1 
5.6209916146025893 8 0 0 6.7629626809307188 0 8 0 6.0952883120986909 6:2 1776:1 2548:1 
4.2972591454152136 8 7.7308338299945989 0 8 8 8 0 8 6:10 9:1 14:1 51:2 107:1 109:1 422:1 854:1 2549:1 2550:1 
4.2559984895439564 3.448859437012282 0 1.8517696330370432 2.6784037477283782 0 1.0052961873788662 1.190210474126691 2.7342375422718059 3:2 6:27 14:2 25:1 26:1 30:2 36:1 40:2 46:1 49:1 107:1 450:1 604:1 623:1 1693:1 2525:1 2551:1 2552:1 2553:1 2554:1 2555:1 2556:1 2557:1 2558:1 
4.3625738758625943 0 0.60606497241778035 0 0 0 4.4871912405917005 0 0 6:10 26:1 30:1 39:1 61:1 252:1 456:1 648:1 766:1 2557:1 2559:1 
5.1104287581144909 7.5174387629885855 5.4865036235828475 4.0529597538985938 0 6.7482803672590039 8 8 8 6:5 30:1 120:1 153:1 1346:1 2560:1 
6.8365810410880199 8 3.1832310128330255 0 0.14617581858160192 3.2405638538828545 8 1.5594808580268718 5.5608150069344662 6:4 888:1 1307:1 2561:1 2562:1 
5.1719520499210727 0 0 0 0 0 1.4495022572565563 0 0 4:1 6:4 30:1 1084:1 2563:1 
7.5150061432249018 6.9491079562520266 4.0965738887693721 0 5.6370442760959047 6.6602947118798159 8 4.6159878482234307 2.5602242329402567 6:5 14:1 20:1 39:1 2564:1 2565:1 
8 8 8 0 0 4.8382124293483386 8 5.0833173182180333 0.11999395779401872 6:2 126:1 2566:1 
8 8 8 0 6.5148513671515342 6.7535905627714667 8 5.0701279448689034 6.217772320223748 6:2 9:1 2567:1 
8 5.7136542531003895 0 0 0 0 8 1.9326371795226995 1.6384159551679471 6:7 14:1 30:1 42:1 107:1 153:1 1673:1 2052:1 
6.9060796785969085 6.7099172307744928 8 8 0 0 8 0 1.7851537720368382 6:10 14:1 26:1 40:1 46:1 212:1 623:1 2568:1 2569:1 2570:1 2571:1 
8 8 5.0587298967035093 0 8 2.9884143267830505 8 0 0 6:3 107:1 1451:1 2572:1 
8 8 0 0 7.9558759584931851 0 8 0 8 6:1 22:1 
0 0.017404672443924605 0 0 2.3063816110364979 0 0.28463384945526204 0 2.1199081225066223 6:11 14:1 26:1 30:1 39:1 304:1 1648:1 2299:1 2573:1 2574:1 2575:1 2576:1 
7.0355182253736981 0 2.4959022802516535 2.7785437335336516 6.8079965154209745 5.2233122698314434 8 3.2218444588057156 2.1972822486439565 6:7 16:1 30:1 42:1 61:1 262:1 803:1 2577:1 
7.8152168600370064 3.0345242645172283 0 4.937995367089802 1.8811840472965655 1.6319655165419069 0.38898654875054695 2.6682257767271218 8 1:1 6:11 8:1 14:1 30:1 39:2 873:1 1010:1 1648:1 2074:1 2578:1 
0.98199470232037356 4.7544401254017616 2.8934404237863167 0 0.29101324257841332 1.7208416159342612 4.4114551465242675 1.1868108748374078 2.2315374109421726 6:13 9:1 14:1 39:1 42:1 51:2 107:1 281:1 854:1 1672:1 2579:1 2580:1 2581:1 
1.1775012966726193 0 0 0 0 0 0 0 0 6:11 14:1 30:1 40:1 151:1 422:1 504:1 505:1 623:1 1904:1 2582:1 2583:1 
3.918526341195891 6.9499044904247649 0 0 5.5575600913670176 0 0 0 5.283855754181026 6:11 14:2 39:1 51:1 52:1 83:1 107:1 151:1 263:1 556:1 2584:1 
3.7580683929204932 6.6147155997310625 2.9117028601136195 2.5057399755313177 0 2.5307654696199151 7.196756288789822 0 7.1226118351278798 6:10 14:1 40:1 46:1 61:1 212:1 1127:1 1147:1 2532:1 2585:1 2586:1 
0 6.5578180359074407 5.5378456696468996 0 0 2.4056440603317366 8 0.41220028333542935 2.4435011586729241 6:6 14:1 39:1 134:1 320:1 1621:1 2587:1 
0 0 2.8400619515367187 0 1.3921872133387379 0.56143705094844032 1.9550202631378824 0 0 6:12 9:1 14:1 30:1 39:1 40:1 42:1 109:1 239:1 1118:1 1158:1 1410:1 2398:1 
0.90474779242469205 2.4061486359783641 0 4.8473898534101778 0 0 0 0 7.775687973195863 6:24 14:1 30:2 39:2 40:2 89:1 107:2 141:1 149:1 529:1 933:1 1403:1 1678:1 1829:1 2588:1 2589:1 2590:1 2591:1 2592:1 2593:1 2594:1 
7.1772178481570794 0.35449978757406497 2.8084473530419438 1.2182949313908464 5.10024319627985 1.6802088352138143 0 2.4217607435380639 2.7620255731785508 6:30 14:3 23:1 30:4 39:2 49:1 61:1 91:1 107:1 401:1 730:1 1025:1 1123:1 1217:1 1251:1 2595:1 2596:1 2597:1 2598:1 2599:1 2600:1 2601:1 2602:1 2603:1 2604:1 
0 1.2288438540912376 0 0 0 0 5.5906477069708354 0 0.57041605690887864 6:5 39:1 182:2 2605:1 2606:1 
5.8759279246346363 8 8 8 8 3.5447509061373639 8 3.2744874223319704 8 6:8 9:1 13:1 40:1 89:1 743:1 860:1 2607:1 2608:1 
1.2272047086247766 2.3589075821745302 4.1211734765620252 0.52739680406603895 0.49207810939569047 5.2976955727942387 5.5159277384102765 5.2779465692394067 0 1:1 6:14 14:1 16:1 30:1 597:1 658:1 726:1 1017:1 1476:1 2004:1 2609:1 2610:1 2611:1 2612:1 
0.11262849934950867 1.8630439962966729 1.4763167715366237 4.0732213527574554 0.75339513062062902 0.26182879828579347 3.3871288381502973 0 0.14134853619047225 1:2 4:1 6:21 8:1 9:1 14:2 26:1 30:1 42:3 61:2 1342:1 2144:1 2536:1 2542:1 2613:1 2614:1 2615:1 
0 1.6840673986623627 4.4196193853933341 0 1.2668592144264348 0 0 0 6.0811499455126414 6:5 51:2 718:1 2616:1 2617:1 
4.811008601422416 8 3.0026014755751498 0 0.42530967192176339 5.3997744462421933 7.5651178318300021 0.24257722825854075 1.9200099289942854 6:9 9:1 20:1 46:1 51:1 107:1 600:1 2405:1 2618:1 2619:1 
8 0 8 0 0 0 0.75355584938548925 0 0.44995325318133239 6:6 39:1 40:1 52:1 151:1 1263:1 2620:1 
0 0 0 1.0017773384500841 0.067863819384539475 1.5598607976766368 0.99114896975466382 0 1.6857353810692957 1:1 6:13 9:1 14:1 30:1 39:1 91:1 123:1 151:1 730:1 791:1 2529:1 2621:1 2622:1 
8 8 8 6.9259793659493232 8 8 8 8 5.1921570497698495 6:3 14:1 166:1 2623:1 
8 2.2804924538343583 2.7707245948760173 2.016865550829392 3.6415869176886377 5.0912574937840427 3.1914101748113946 0 3.9878955468044834 1:1 4:1 6:10 9:2 42:1 107:1 667:1 1892:1 2624:1 2625:1 
0.14795527696413827 0 0 0 0 0 0 0 0 3:1 6:32 9:1 14:3 26:1 30:2 36:1 39:1 40:1 42:1 46:1 51:1 52:1 139:1 156:1 182:1 272:1 482:1 624:1 672:3 2130:1 2518:1 2626:1 2627:1 2628:1 2629:1 2630:1 2631:1 
0 0 0 0 0 0 8 8 0 6:4 30:3 61:1 
8 8 8 0 8 6.6545703414677142 8 8 0 6:1 54:1 
0 1.6103965702349279 2.034667639112465 1.6985350912410373 2.3330249296254615 0 4.8071804906208335 0 1.5883295592185476 6:22 9:1 13:1 14:2 23:1 26:1 30:1 39:1 46:1 272:1 898:1 977:1 1093:1 1776:1 2632:1 2633:1 2634:1 2635:1 2636:1 2637:1 2638:1 2639:1 
1.5571491709714802 1.9017646653615621 1.0916052861122083 0.42116717026272465 0 0.29702031634542436 2.332014109760939 1.3422180477764061 2.3669053182362676 6:9 14:1 26:1 30:1 39:1 89:1 1326:1 2640:1 2641:1 2642:1 
4.1770454923177835 7.7529230143136969 3.41435723713328 1.6120103952146816 7.1509444462211382 8 4.5239959049086611 3.5185442775434868 4.0438159432148986 1:1 6:10 9:1 14:1 39:1 598:1 971:1 2643:1 2644:1 2645:1 2646:1 
