svm_type c_svc
kernel_type polynomial
degree 1
gamma 0.03125
coef0 0
nr_class 10
total_sv 17754
rho -0.79257407925388679 -0.81316967748313496 -0.78312910219521648 -1.2069500964470155 -0.91480385786650142 -0.89343680085191546 0.13161468804440937 -0.98058133480361431 -0.88099165838938143 0.032446247479472105 0.03738158048367396 -0.97061245496237192 -0.39950620072890503 -0.36638789265215144 0.8024313495879094 -0.81114217797941435 -0.3166454212557917 -0.0083183985504911538 -0.98234835623422823 -0.38639984003098904 -0.3793452612694565 0.81676772834708999 -0.7559732097548636 -0.20900678715897683 -0.94339045569115032 -0.33390861739323313 -0.32432991535928124 0.78685415707543449 -0.76362802897530824 -0.1054247349755195 0.99490789945456215 0.93037512221851204 1.150630105405577 0.55005257885145853 0.91822998367737174 -0.15456565315967519 0.89762656191712265 -0.62950251725190864 0.056981449594451186 0.86628295922996068 -0.8062016191437541 0.18764379934054923 -0.97668923116255324 -0.8719694396019545 0.62094506119899895
label 0 1 2 3 4 5 6 7 8 9
nr_sv 2009 1973 2076 1560 1533 1802 1650 1985 1551 1615
SV
8 8 3.0805004267864602 1.9735049454295233 8 4.7296765163899126 7.7322821352294415 0.18111186890792583 5.753062064704868 1:1 2:1 3:7 4:1 5:1 6:1 7:1 8:1 
2.560774107295769 4.2169433445467712 7.2965513427307878 4.7387529895958824 4.1352251504455584 4.5078063936965611 0 4.6693146185982055 3.6915365766019157 3:16 9:1 10:1 11:1 12:1 13:1 14:4 15:1 16:1 17:1 18:1 19:1 20:1 21:1 
0 0 2.4149006097536905 2.3491943451551114 0 0 0 0 1.1845681891457596 3:17 4:1 20:2 23:1 24:1 32:1 34:1 37:1 40:1 45:1 46:1 47:1 48:1 49:1 50:1 51:1 52:1 
2.0431747136206577 2.7721382430486781 5.1018450291060606 0 0.7897697398077973 0 2.7470485258909805 0 3.0720402086092413 3:14 5:1 26:2 46:1 51:1 53:1 54:1 55:1 56:1 57:1 58:1 59:1 60:1 61:1 
3.4132733966377131 6.7391834317278274 5.5415709869239755 1.3328954123439165 2.4381657572185951 4.3737867583369869 2.8353243558250112 1.278770428930869 1.9147633232111052 3:31 4:1 14:2 20:1 23:2 25:1 26:1 34:1 39:3 42:2 43:1 44:1 45:1 46:1 47:1 62:1 63:1 64:1 65:2 66:1 67:1 68:1 69:1 70:1 71:1 72:1 
8 8 8 0 3.3340858889021208 8 8 0 8 3:4 9:1 14:1 61:1 73:1 
8 8 8 0 8 8 8 0.16691449428125171 8 3:2 31:1 74:1 
8 1.7797800161897854 0 0 0 0 8 0 0 3:2 39:1 75:1 
2.0958805032318031 0 8 4.5103663506449765 3.4152389905603662 3.5498217881995315 8 0 8 3:8 9:1 14:1 26:1 42:1 76:1 77:1 78:1 79:1 
8 8 8 0 0 0 8 0 8 3:2 51:1 80:1 
0 0 3.1343977975645863 0 0 0 0 0 1.4951584137612342 3:18 5:1 14:1 26:3 42:2 51:1 61:1 81:1 82:2 83:1 84:1 85:2 86:1 87:1 
0 0 0.83833972006183322 0 0 0 0 0 0 3:7 9:1 14:1 88:1 89:1 90:1 91:1 92:1 
1.6712738993081944 3.9408211410474534 2.5677783443886861 3.9869444372279359 0 0 1.7946582386720462 0 0 3:7 9:1 89:1 93:1 94:1 95:1 96:1 97:1 
0 0 1.4928769403553082 0 0 0 0.5894887509933241 0 0 3:7 14:1 16:1 83:1 89:1 98:1 99:1 100:1 
0 0 0 2.026585095549283 0 0 0 0 0 3:5 9:1 14:1 22:1 30:1 89:1 92:1 101:1 102:1 103:1 104:1 105:1 
4.1527248819599833 0 0 0 3.788767629123702 0 3.8479857118368401 0 0 3:5.6666667 23:1 26:1 30:3 42:2 46:1 106:1 107:1 108:1 109:1 110:1 111:1 112:1 113:1 114:1 115:1 116:1 117:1 
7.2601678552167259 0.99738478378278161 1.1341514240348873 3.3576985425752635 7.5483468696701426 0 8 4.4088025549303342 7.4889812933833886 3:3.3333333 5:1 9:1 30:3 39:1 118:1 119:1 120:1 121:1 122:1 123:1 124:1 
0 1.6051360226508105 0 2.6212171040799328 5.8239370585065071 3.1798169457934455 0 0.080805031327849108 4.9209058652872617 3:33 8:1 9:1 13:1 14:3 23:1 39:1 40:3 46:2 52:1 125:1 126:1 127:1 128:1 129:1 130:1 131:1 132:1 133:1 134:1 135:1 136:1 137:1 138:1 139:1 140:1 141:1 142:1 143:1 
0 0 0 0 0 0 0.62463977513637847 0 0 3:2 144:1 145:1 
1.7693917813540598 0 5.4640957057960247 0 0 0 8 0 3.171279403803303 3:4 14:1 83:1 146:1 147:1 
8 0 0 0 0 0 1.7884059450429293 0 0 3:6 13:1 51:1 83:1 148:1 149:1 150:1 
0.10606190715424606 1.9178676121545202 0.86370936777490859 0.48652500494244155 1.8326851927889163 1.1005346100351694 0.52125816329686125 0 2.1355090628080826 3:9.3333333 9:2 16:3 23:1 30:2 39:1 46:1 61:3 126:1 151:1 152:1 153:1 154:1 155:1 156:1 157:1 158:1 159:1 160:1 161:1 162:1 163:1 164:1 165:1 166:1 
7.8306674429734269 6.8496998170438967 0 0 0 0.7668395054928574 8 0 8 1:1 3:3.5 30:1 42:1 61:1 107:1 167:1 168:1 169:1 
3.3624663203078424 4.0565212378334818 0 1.2092450573037625 6.3852609815381669 0.4352522630320943 1.9845968637012064 0.063767905824964791 3.0016076103213383 1:1 3:6.6 9:1 16:2 26:1 30:5 31:1 39:4 40:1 42:1 46:1 49:1 70:1 107:1 126:1 139:1 170:1 171:1 172:1 173:1 174:1 175:1 176:1 177:1 178:1 179:1 180:1 181:1 182:1 183:1 184:1 
7.1799761921059151 8 8 3.9225207565075477 7.5166694971052488 8 8 8 8 3:4 14:1 39:1 185:1 186:1 
6.6120228000679813 8 5.0302494923888981 7.1187854723973727 8 4.7979832491589702 1.2484641608661819 3.0457470456121962 8 3:31 4:2 9:2 14:2 31:1 39:1 40:1 42:1 46:1 61:2 170:1 187:1 188:1 189:1 190:1 191:1 192:1 193:1 194:1 195:1 196:1 197:1 198:1 199:1 200:1 201:1 202:2 
0 0 0.21183417035127 0 0.062386753235370442 0 1.7353290742162357 0 0.86586807275396871 3:7.5 17:1 26:3 30:1 40:1 51:1 61:1 203:1 204:1 205:1 206:1 207:1 208:1 209:1 210:1 
5.9178326803782433 7.6238551232317686 4.3761450897222405 2.0043733116014923 0 0.31541567468785636 8 0 3.1476249273138772 1:1 3:5 9:1 211:1 212:1 213:1 
8 8 5.6480902350130595 8 8 6.6677983523936559 2.1588280628718346 3.7368121938861965 7.5224780999475156 3:18 9:2 14:1 30:1 39:1 40:1 42:1 46:1 61:1 83:1 107:1 214:1 215:1 216:1 217:1 218:1 219:2 220:1 
1.504666653250575 0 2.5691892421301228 2.9320343509109676 2.539936797051233 1.1064740571456317 2.6728613917590476 2.2287024717150556 2.0569534772181948 1:1 3:9.6666667 8:2 14:3 20:1 26:1 30:2 40:1 46:1 49:1 61:1 68:1 84:1 221:1 222:1 223:1 224:1 225:1 226:1 227:1 228:1 229:1 230:1 231:1 232:1 233:1 234:1 235:1 
0 0 0 0 0 0 5.8525961155530357 0 0 3:8.5 9:1 14:3 30:1 40:1 51:1 61:2 81:1 236:1 237:1 238:1 239:1 240:1 241:1 242:1 243:1 
5.350668277814953 8 1.3987270271849519 8 7.4011266595664784 2.461916417916632 0 2.2839327438840984 6.0478364243489873 1:1 3:23 5:2 9:2 14:1 31:1 39:1 42:3 61:2 135:1 230:1 244:1 245:1 246:1 247:1 248:1 249:1 250:1 251:1 
8 1.6678788264956759 8 0 8 5.4693538162784643 7.5481403943471586 0 8 3:9 14:1 40:1 42:2 103:1 265:1 266:1 267:1 268:1 
8 0 0 8 8 0 3.0482491455589207 8 8 3:1.75 5:1 14:1 16:1 20:1 30:4 40:1 269:1 270:1 
6.9797740455440884 2.8054363439151961 0 4.0511873394255629 6.9516707668904925 8 8 0 0.93167410586274091 3:6.5 14:1 16:1 30:2 39:1 40:1 42:2 52:1 89:1 271:1 272:1 273:1 274:1 275:1 
0.89555004557165618 0 0 0 0.29318587340672581 0 2.0458905687649964 5.2203134677364957 0 3:4 14:1 30:1 141:1 276:1 277:1 278:1 279:1 280:1 281:1 
0.47214878284157508 0 0 2.0815041733819082 2.3594911677160471 0 7.017208512224796 0.84453712187475594 5.746414170586573 3:6 14:2 30:2 39:1 42:1 51:1 282:1 283:1 284:1 285:1 286:1 287:1 288:1 
7.2012280234581638 5.8412887570283907 2.2047517244399457 4.5202442562134602 3.4726289115306921 2.2693439713349859 2.2552682821418979 2.0247084514974469 4.1211805030694091 3:32 4:1 5:1 9:1 14:3 20:2 23:1 39:1 40:1 46:1 107:2 182:1 240:1 272:1 289:1 290:1 291:1 292:1 293:1 294:1 295:1 296:1 297:1 298:1 299:1 300:1 301:1 302:1 303:1 
8 4.9366800047698653 0.78494272794306563 2.9134250032492282 8 0.54845074213235212 8 8 4.2936996579254405 3:2.5 30:2 40:1 304:1 305:1 306:1 307:1 
1.835292568020588 0 0 1.5209706457366767 0.41220356838062971 0 0 0 0 1:1 3:16 9:1 14:4 30:2 39:3 40:1 42:2 65:1 107:1 265:1 308:1 309:1 310:1 311:1 312:1 313:1 314:1 315:1 316:1 317:1 318:1 319:1 320:1 321:1 322:1 323:1 324:1 
2.7115650010745949 5.415541952695837 2.8771396591794143 4.3905918071951318 2.5956802072619425 3.3396015860865309 4.9097779355113644 2.7763101910118642 2.6385020124381691 3:30 4:1 9:1 14:2 25:1 26:1 34:1 39:2 40:2 42:1 129:1 246:1 325:1 326:1 327:1 328:1 329:1 330:1 331:1 332:1 333:1 334:1 335:1 336:1 337:1 338:1 339:1 340:1 
0 3.1375969801812444 0 0 2.1329077339906468 0 0 0 0 3:14 4:1 5:1 14:5 20:1 23:1 25:1 30:1 32:1 36:1 37:1 40:2 42:1 46:1 65:1 197:1 272:1 341:1 342:1 343:1 344:1 345:1 346:1 347:1 348:1 
0 0 0 0 0 0 0 0 2.6274762941215468 1:2 3:14.5 4:1 8:1 14:1 20:1 23:1 25:1 26:1 30:1 32:1 36:1 37:1 40:1 42:1 130:1 153:1 189:2 223:1 229:1 230:1 235:1 347:1 349:1 350:1 351:1 352:1 353:1 354:1 
4.7194964638945693 8 8 8 8 5.1438074728369765 5.7911194899387954 1.9377380117563721 8 3:13 4:1 8:1 14:1 20:1 26:1 46:1 70:1 151:1 202:1 360:1 361:1 362:1 363:1 
4.1182656430097531 4.2481234604305431 4.2787931971513098 3.3235969312539635 6.9433277568499205 0.65624524886728819 0 1.614097567187778 2.4898439082917405 3:25 4:1 14:2 23:1 26:1 39:4 61:1 78:2 265:1 272:1 364:1 365:1 366:1 367:1 368:1 369:1 370:1 371:1 372:1 373:1 374:1 
3.4495125461121465 3.0195318732576406 2.8622071215542322 1.7288869638369089 4.5937582235794991 1.1617902309838422 2.5468972344449043 0.012975308659197002 2.7527346301755093 3:22 5:1 14:3 26:3 39:2 40:1 49:1 100:1 134:1 135:1 136:1 375:1 376:1 377:1 378:1 379:1 380:1 381:1 
3.1186381208801346 1.3400684685819646 0.82608901371912047 3.9083736162485319 2.9770840897348703 2.7632074549151295 2.1811957188190112 0.71754473816351794 0.5077270092488233 3:13.5 14:3 20:2 26:2 29:1 30:1 31:1 39:2 40:1 94:1 123:1 382:2 383:1 384:1 385:1 386:1 387:1 388:1 389:1 390:1 391:1 392:1 393:1 
1.7633489261994468 0.29114391310532733 0 0 0 2.4071102479548054 8 0 0 3:6.5 14:1 26:1 30:2 42:1 61:1 240:1 243:1 284:1 394:1 395:1 396:1 397:1 398:1 399:1 
0 1.6887140387328625 4.0981910470047263 0.067868200765414624 4.7715787295666203 5.048759403924536 0.90493071976287609 0 0 3:12 5:1 14:1 20:1 42:1 46:1 51:1 240:1 400:1 401:1 402:1 403:1 404:1 
0 0 0 0 0 0 0.26158626373665689 0.50328344357620758 0 3:7.75 4:1 14:3 23:2 25:1 30:3 36:1 39:1 40:2 42:2 243:1 325:1 405:1 406:1 407:1 408:1 409:1 410:1 411:1 412:1 413:1 414:3 415:1 416:1 417:1 418:1 
8 8 8 4.0406923628958342 2.6939954835106037 5.6318087443355829 8 0.59935261284314767 8 3:7 26:1 30:1 61:1 89:1 419:1 420:1 421:1 422:1 
0 0 0 1.8222158694980088 0 0.32696359754864646 0 0 0.50910551591679709 3:14.5 4:1 9:1 14:2 23:1 25:1 30:1 36:1 39:1 40:1 42:1 84:1 89:1 151:1 239:1 325:1 408:1 409:1 410:1 412:1 414:1 415:1 423:1 424:1 425:1 426:1 427:1 428:1 429:1 430:1 
5.4614439673193234 0 0.83913004876137554 1.636333938145951 2.9928425942126693 4.3919564816262975 2.9545288938433414 3.6928462808973177 0.40802700098553679 3:8 14:3 23:1 30:2 39:1 40:1 61:1 78:1 431:1 432:1 433:1 434:1 435:1 436:1 437:1 438:1 439:1 440:1 441:1 442:1 443:1 444:1 445:1 446:1 
3.978476732008108 0.77332246450577291 3.5454844931280993 1.5145834001451899 1.9405405768342121 3.6076122293427813 0 4.6633988075617081 1.3349889824535066 3:15.5 9:3 14:2 21:1 30:1 39:1 40:1 46:3 381:1 383:1 390:1 447:1 448:1 449:1 450:1 451:1 452:1 453:1 454:1 455:1 456:1 457:1 458:1 459:1 460:1 461:1 462:1 463:1 
2.9582982161634024 0.44970182999562325 0 0.84218707337066046 1.6189994041356741 0.14882078939928933 6.9973391402067913 0 0 3:6.5 9:1 14:2 22:1 26:2 30:3 31:1 39:1 40:1 46:1 61:2 377:1 464:1 465:1 466:1 467:1 468:1 469:1 470:1 471:1 472:1 473:1 474:1 475:1 476:1 
0 0 1.4932337988770588 0 0 0 0 5.0823440590557238 0 1:1 3:10 14:3 16:1 30:2 36:1 39:1 40:1 51:1 86:1 89:1 477:1 478:1 479:1 480:1 481:1 482:1 483:1 484:1 485:1 
8 2.4560004757467233 0 2.0894318833675305 0 3.9007352931169024 0.57275470501296033 3.3552121010851126 0 3:16 9:1 14:4 20:1 23:1 30:1 39:3 40:2 42:1 241:1 348:1 371:1 407:1 467:1 486:1 487:1 488:1 489:1 490:1 491:1 492:1 493:2 494:1 495:1 496:1 497:1 498:1 
0 0 0 0.11000942932321206 0 0 0.014231521724632944 0 0 1:2 3:9 14:6 20:1 30:2 39:2 40:1 107:1 123:1 153:2 371:1 406:1 407:1 411:1 414:1 487:1 499:1 500:1 501:1 502:1 503:1 
0 0 0 0 0 1.0624691819762635 0 0 0 1:1 3:10 5:1 14:1 42:1 51:1 82:1 504:1 505:1 506:1 507:1 
0 0 3.1931811484654142 0 0 0 0 0 0 3:15 14:2 16:1 26:1 39:1 49:1 84:1 151:2 356:1 357:1 401:1 508:1 509:1 510:1 
0 1.6461170440026751 0 0 0 0 0 0 6.0471053487491719 3:10 14:1 16:1 23:1 40:1 51:1 83:1 111:1 203:1 511:1 512:1 
4.693174721650454 2.124694007315179 1.1359411805985669 2.1822046640437298 3.761032920082239 3.4854634003380962 3.8167547818471972 1.759806769085017 2.6680700335009888 1:1 3:6.5 13:1 14:3 23:1 30:3 31:1 39:1 40:1 42:1 411:1 470:1 513:1 514:1 515:1 516:1 517:1 518:1 519:1 520:1 521:1 522:1 523:1 524:1 525:1 526:1 
0 0 0.015645258916157624 7.5259889107100584 3.0342929722905883 0 8 0 0 1:1 3:8 9:1 14:2 15:1 16:1 30:2 39:1 40:1 49:1 61:1 126:1 149:1 262:1 265:1 527:1 528:1 529:1 530:1 531:1 532:1 533:1 534:1 535:1 536:1 
0 1.9258321474321827 0 1.1936363746036565 0 0 0 0 0 3:5.5 30:1 39:2 84:1 107:1 233:1 252:1 272:1 537:1 538:1 539:1 540:1 
3.5339032214087509 0 0 4.6801902033960294 3.3014165224588585 2.6586566094154751 2.1237792072832473 0 0.43075813845277333 3:17 4:1 14:2 25:2 30:1 36:2 40:2 42:2 166:1 347:1 557:1 558:1 559:1 560:1 
2.8497812947753425 0 0 0.49569127345027725 2.719377956747576 0 1.7932681616586501 0 0 1:1 3:25 4:1 14:2 20:1 25:2 36:2 39:1 40:2 42:1 46:1 271:1 457:1 527:1 548:1 561:1 562:1 563:1 564:1 565:1 566:1 567:1 
3.0706218562299927 6.0163764580040864 0 3.095412675021596 3.4685836917153297 4.7228337842612103 3.9555987551523346 0 2.6249749913417171 1:1 3:12.5 14:5 25:1 30:1 39:2 42:2 109:1 156:1 287:1 528:1 568:1 569:1 570:1 571:1 572:1 573:1 574:1 575:1 576:1 577:1 
3.5726573838871785 6.1708070752976072 4.886782788865208 4.8850456942704703 7.221300511667982 2.3475946299579764 1.4798601739641286 2.9779592807231534 1.614126595321252 1:2 3:31 4:1 9:1 14:3 26:1 30:1 39:2 40:1 42:1 107:1 189:1 454:1 578:1 579:1 580:1 581:1 582:1 583:1 584:1 585:1 586:1 587:1 588:1 589:1 590:1 591:1 592:1 593:1 
8 8 8 0 8 8 8 4.2522672334294427 8 3:6 14:1 22:1 46:1 272:1 353:1 594:1 
0.20400565661321257 0.4517225833796209 1.1498583886884437 0.39062831985225765 0 1.2719294359195377 0.51689177160095268 5.3086506095058708 0 3:5.2 14:4 20:1 30:4 39:1 40:1 42:1 46:1 86:1 145:1 582:1 595:1 596:1 597:1 598:1 599:1 600:1 601:1 602:1 603:1 604:1 605:1 606:1 607:1 608:1 
8 1.351301633429401 6.2333321571092037 8 4.9247755323966125 2.7264480119407026 8 8 8 3:1.5 30:2 403:1 609:1 610:1 
6.0531151052045029 4.103853021699269 6.0815887008110945 0 3.6525311127645872 4.1346251848051745 8 2.9760684636855546 0 3:1 611:1 
0 0 2.5608103180174493 0 0 0 3.2767854610381413 0 0 3:7 51:1 83:1 126:1 149:1 174:1 612:1 613:1 
3.2515728846674237 5.8034080572694133 8 0 0 0.8598074715764713 8 0 4.0330089325760552 3:2 614:1 615:1 
1.3721381715819176 7.3843847049133693 8 1.5395547645792536 4.340683242382144 0 8 5.9152983783486492 1.8844005760698859 1:1 3:10 9:1 14:1 30:1 49:1 156:1 541:1 616:1 617:1 618:1 619:1 
8 8 8 3.5329653668483467 8 8 8 0 8 3:4 14:1 26:1 620:1 621:1 
5.3878393088330645 0 0 0 0 0 8 0.0054098075507619811 0 3:4.5 26:2 30:2 243:1 622:1 623:1 624:1 625:1 626:1 627:1 
2.3864462728633211 0 0 2.3084037620417419 1.168826147029931 0 1.4785838495799331 0 3.0797003420660869 3:14 14:3 23:1 40:2 83:1 107:1 628:1 629:1 630:1 631:1 632:1 633:1 
0 1.3467890813401708 0 0 0 0 8 0 0 3:6 26:1 109:1 243:1 634:1 635:1 636:1 
2.008233964615397 4.7264756188695305 6.4767814439329889 5.6908187823298872 6.4831527414273635 0.52662402786760942 6.3023054811018699 1.3097977315845841 5.1943183011126566 3:11 20:1 26:1 30:1 40:1 46:1 207:1 269:1 637:1 638:1 639:1 640:1 641:1 
7.9212239840842535 0 0 0 8 0 8 0 0 3:1 642:1 
8 4.341794803708126 6.538162785670357 8 4.0674095972982185 8 8 6.5788834430203993 2.214790086987636 3:5 14:1 39:1 391:1 643:1 644:1 
0.046857024991760143 1.2548993317939909 0 0 1.3090870660773901 0.79033388983412123 0 1.0235568784443179 0 3:9 14:3 21:1 26:1 30:3 39:1 40:1 42:1 46:1 107:1 141:1 217:1 272:1 645:1 646:1 647:1 648:1 649:1 650:1 651:1 652:1 653:1 654:1 655:1 656:1 657:1 658:1 
0 0 8 6.114948524468554 0 2.4291041624244896 8 0 8 3:6 9:1 14:1 42:1 168:1 548:1 659:1 
3.1554050997112011 0 0 0 0 0 8 2.3905379206983941 0.84510232049990608 3:3.5 26:2 30:2 660:1 661:1 662:1 663:1 664:1 
7.9212417462702485 7.1208738301565964 8 0 3.8288410171574769 4.2838198153044296 8 2.9760606230919016 4.8393089960870483 3:1 665:1 
2.7217638984328256 6.2663712472538133 0 1.0552300117781543 0 0.81253542510490451 8 0 3.9912991302131231 3:6.5 9:1 14:1 30:1 39:1 42:1 61:1 153:2 272:1 374:1 666:1 667:1 668:1 669:1 
4.5934387618091401 4.8481271895697011 6.0723661965532543 2.5707860792899937 8 3.6198862148745827 4.409064805195996 0 8 1:1 3:9 14:2 40:1 61:1 103:1 681:1 682:1 683:1 
3.1016448154686751 4.4115110839745393 8 0 7.86147987288044 7.4481025749990453 8 4.4942113580309346 2.4887640331201872 3:13 26:1 31:1 46:1 86:1 597:1 684:1 685:1 686:1 687:1 688:1 689:1 690:1 691:1 
4.1841718993384474 1.556972343290687 6.944314612294427 4.0123302573592863 2.3735477568336396 1.6004351805450883 8 2.584885544001752 0.17127166614757813 3:5 39:1 40:1 692:1 693:1 694:1 
6.080739545460248 1.5911499988979572 0.76287840433860032 0.12379637593135094 2.7736496634888548 0 8 3.8513977275875808 1.9391389080037458 3:3.5 26:1 30:2 39:1 40:1 695:1 696:1 697:1 698:1 
0 0 4.6975064339287735 0 0 4.3783881610872246 8 0 2.324294004232955 3:6 14:1 39:1 83:1 699:1 700:1 701:1 
4.1185594581775762 8 8 0 8 0 8 0 7.7232929431201995 3:10 5:1 13:1 26:2 30:1 61:1 83:1 84:1 702:1 703:1 704:1 
8 3.4322467681457298 4.4503058721751243 1.1071554859425603 5.5322458678658553 3.5691133727988613 0.82034818089501893 0 0 3:8 14:2 26:1 30:2 39:2 40:3 46:1 61:1 268:1 533:1 705:1 706:1 707:1 708:1 709:1 710:1 711:1 712:1 713:1 714:2 715:1 
8 8 8 0 8 0 8 0 8 3:3 51:1 262:1 718:1 
2.1414667135890499 1.9355067370844239 3.8059946152377302 0.5692441676778579 2.5657679911859788 1.6171864566622038 5.2524911701079597 1.7650861760193568 0.35432054159490983 1:1 3:6.5 14:1 26:1 30:2 719:1 720:1 721:1 722:1 723:1 724:1 725:1 726:1 727:1 728:1 
0.45318047751473428 8 8 5.2977741379322669 5.7670748139084242 0.067104864728580821 7.0354152288808489 5.0884498990881708 0.88105249866916924 3:8 20:1 151:1 272:1 548:1 729:1 730:1 731:1 732:1 
0.57337234236857693 3.7642671144709978 4.9970562017854423 3.8935497315699696 6.3560389485152582 0.8941012213963927 2.4703553233775346 7.5062265503971908 1.9586180082027735 3:5 9:1 26:1 30:3 39:2 709:1 713:1 714:1 715:1 734:1 735:1 736:1 737:1 738:1 739:1 740:1 
2.7774976685900139 2.1112199399513814 0 0.98341915201666719 7.6158786636904168 0 8 0 7.712106955348772 1:1 3:9 40:1 107:1 239:1 738:1 741:1 742:1 743:1 744:1 
5.898535744642504 8 5.2515075804851792 4.772391071427883 0.22175717787642421 5.5101918470756157 8 7.4972577807489627 3.1542291069885264 3:4 9:1 193:1 733:1 745:1 
7.8080910117285542 8 8 0 0.96238615860437438 8 8 4.7073704693258476 0 3:4 14:2 234:1 755:1 
0 7.120830330962189 8 0 0 1.7333428256376315 8 0 0 3:1 759:1 
8 6.2949091805118673 7.0878161934769039 0 1.1709800916100319 0 8 0 8 3:3 42:1 168:1 766:1 
1.2582000896289409 8 0 0 0 0 0 0 0 3:8 4:1 5:1 16:1 20:1 40:1 356:1 357:1 767:1 
3.7700990416851865 1.004812713485961 0 0 7.0173203189351137 0 8 0 8 3:8 14:1 40:1 42:2 51:1 52:1 168:1 768:1 
0.90798693276597575 8 5.0370634010758675 0 5.0188492907166289 0 0.37512250551445814 0 0 3:8 4:1 39:1 151:1 232:1 356:1 357:1 769:1 770:1 
3.1011543900915979 4.7722570776429132 4.2013100470530782 2.4506508760640942 4.6805090680861721 3.3198446932717727 4.0440394019862529 3.4985605866750524 0 1:1 3:28 9:1 14:4 26:2 40:1 42:1 348:1 435:1 467:1 532:1 543:1 551:1 771:1 772:1 773:1 774:1 775:1 776:1 777:1 778:1 779:1 780:1 781:1 782:1 
8 0 1.2567281754215063 0 0 0 3.5211102010025352 0 8 3:3 5:1 783:1 784:1 
6.6774805039055227 7.0337885670126949 6.1541751084919953 0.40414068491054539 8 6.0516077720537824 8 8 5.1935077031091055 3:5 14:2 107:1 785:1 786:1 
4.8485961987801725 8 5.5292127089388234 0 2.5072563895013511 4.3219437643192107 8 3.7542660881081757 3.6193742747243847 3:3 39:1 787:1 788:1 
2.5792024562999742 0 0 0 0.25849539566876056 0 0 0 0 3:8 5:1 9:2 14:1 23:1 30:3 40:1 42:1 189:1 196:1 281:1 467:1 667:1 785:1 786:1 789:1 790:1 791:1 792:1 793:1 794:1 795:1 796:1 797:1 798:1 
0.35911762597067021 2.1081074495860572 3.607279070832091 4.455866464295875 1.7987994232617177 0 0.4104708035233271 0.41993759019847088 3.2805176721058973 1:1 3:18 14:2 20:1 26:1 40:1 52:1 84:1 91:1 136:1 192:1 272:1 477:1 799:1 800:1 801:1 802:1 803:1 
4.9734525475158931 8 8 7.8751728773092653 6.880637427820373 4.0313543909963432 4.3420741588759784 4.1030023760910099 8 3:17 14:1 23:1 28:1 31:1 39:1 49:1 61:1 107:1 197:1 344:1 804:1 805:1 806:1 807:1 808:1 809:1 810:1 
0 0 0 0 8 0 8 0 3.5572958446049343 3:3 30:2 31:1 61:2 534:1 819:1 820:1 
8 8 8 0.275758838977398 8 5.5048945207839939 8 5.433348483036462 7.26287057767449 3:8 4:1 39:1 151:1 232:1 356:1 357:1 769:1 770:1 
6.8103239891348366 0 1.9994218751497574 0 8 0 8 0 8 3:8 9:1 42:2 51:1 78:1 168:1 262:1 821:1 
0.48480885636717652 0 4.8959031047875659 0 8 0 8 0 8 3:2 51:1 822:1 
0 0 2.456647104625366 0 0 0 5.348091422096763 0 8 3:6 5:1 9:1 15:1 16:1 23:1 26:1 30:1 31:1 46:1 61:1 467:1 823:1 824:1 
0 0 0 0 5.3591946220581042 0 8 0 0.86851969374222093 3:2.5 14:1 30:1 54:1 91:1 825:1 826:1 
0 0 0 1.7702709276730926 2.2076464746092475 5.5143570744169921 0.4037342872368383 0 0 1:1 3:8 4:2 14:3 20:1 30:2 36:1 39:1 51:1 84:1 120:1 482:1 532:1 672:3 827:1 828:1 829:1 830:1 831:1 832:1 833:1 
0 0 0 0 0 0 0 0.27146230332764487 0 3:33 4:1 14:4 23:1 25:1 32:1 36:1 37:1 39:2 40:1 42:3 46:1 252:1 368:1 456:1 647:1 834:1 835:1 836:1 837:1 838:1 839:1 840:1 841:1 842:2 843:1 844:1 
7.6603810479205254 7.2290102099415012 3.5662862363278363 0 5.9086549192758975 4.9580318442914351 5.4663108074617712 8 6.5947987073742862 3:10 14:1 46:1 51:1 52:1 151:1 325:1 845:1 846:1 847:1 848:1 
5.5073785327138678 0 0 0 0 1.5832609766201049 0 0 0 3:4.3333333 14:1 30:2 42:1 46:2 233:1 240:1 448:1 601:1 849:1 850:1 851:1 852:1 853:1 
3.77671583787654 3.5773381436639573 6.9707116118378432 0.25915282683004082 4.995658448449424 0.64435028250167037 2.430079438503729 2.5486053628009655 6.2204709965541536 3:13 26:2 30:1 89:1 422:1 854:1 855:1 856:1 857:1 858:1 859:1 860:1 861:1 862:1 
0 1.504048613206711 1.1188332898169935 0 2.4337775442698266 0 2.5297403886696994 0.31098182802883767 3.1335978887197964 1:1 3:16.5 14:2 20:1 26:3 30:1 39:1 40:1 42:1 46:1 178:1 241:1 551:1 586:2 863:1 864:1 865:1 866:1 867:1 868:1 869:1 870:1 871:1 872:1 873:2 874:1 875:1 876:1 877:1 878:1 
8 4.8427905370346709 8 0 6.591082614108644 3.0127841971151343 8 8 6.3377201940108847 3:1 30:1 879:1 
2.6479541384871164 1.334555651690339 0 2.5362160106650196 0 1.8183846721747929 0 0 4.614642224592342 1:2 3:14 5:1 9:1 14:4 16:1 23:1 30:2 39:2 42:3 82:1 107:1 168:1 240:1 252:1 348:1 435:1 703:1 880:1 881:1 882:1 883:1 884:1 
0 0 0 0 0 0 0.87403837535492324 0 0.058960818971569809 3:16 4:1 14:3 25:1 26:1 30:1 32:1 36:1 37:1 39:1 40:4 42:3 186:1 272:1 395:1 601:1 691:1 850:1 891:1 892:1 893:1 894:1 895:1 896:1 897:1 898:1 899:1 
0 0 0 0.85193971178705008 0.36143801283399707 4.9394051329580266 1.6354001355787517 1.5003385003907306 0 1:1 3:28 4:1 9:3 14:3 25:1 32:1 36:1 37:1 40:1 42:2 170:1 298:1 368:1 467:1 601:1 730:1 850:1 900:1 901:1 902:1 903:1 904:1 905:1 
1.1208536912025833 4.3734750417525454 0 1.3872709100289435 2.6752576383648767 4.6274028841976129 0 1.034605736063394 4.1450045118446024 3:6.3333333 4:2 14:1 30:2 40:1 42:1 46:1 89:1 156:1 191:1 239:1 535:1 603:1 885:1 906:1 907:1 908:1 909:1 910:1 911:1 
4.8316869064510737 1.0915105383291703 0.18962238250561003 0 5.2568220120695903 0 7.8579068897690316 0 8 3:4 22:1 26:1 30:3 40:1 61:2 107:1 351:1 422:1 912:1 913:1 914:1 915:1 
0 2.2948479482178468 0.58328155199888487 0 0 0 0 0 0 1:2 3:8 9:1 26:1 30:1 42:2 46:1 89:1 107:1 421:1 717:1 916:1 917:1 918:1 919:1 920:1 
6.8233153750316626 0 1.8000263106258587 0 0.41282709320412209 0 1.2346038862459074 5.4819451674645476 7.441575224839597 3:2.5 30:2 46:1 921:1 922:1 923:1 924:1 
0 0 0.17856746378609387 0 4.1360052698820855 0 0 0 6.4844795197952516 1:1 3:10 5:1 13:1 14:2 26:1 30:1 42:2 46:1 83:2 103:1 107:1 925:1 926:1 927:1 928:1 929:1 930:1 931:1 
2.9812864637717111 4.7776214138135096 0 4.1543933209955162 6.3529044769305836 0 0 0 2.8875053709851994 3:9 14:2 26:2 30:2 40:1 42:2 46:1 52:1 89:1 144:1 145:1 201:1 239:1 262:1 272:1 289:1 348:1 395:1 435:1 551:1 932:1 933:1 934:1 935:1 936:1 937:1 
2.532260474899358 6.4997440328414191 0.34633393887845038 3.1979034769770305 6.5164444210794814 1.4990298757375931 0 2.560048764457878 3.3423391060896623 3:10.333333 4:1 14:5 30:2 39:3 42:1 65:1 89:1 151:1 222:1 348:1 385:1 435:1 467:1 490:1 527:1 532:1 617:1 659:1 777:1 938:1 939:1 940:1 941:1 942:1 943:1 944:1 
0 5.5031306489163194 0 7.1553429394438464 0.49138424197620173 0 8 2.3602940771237098 1.2736585771989732 3:4.5 14:1 26:1 30:1 46:1 233:1 399:1 945:1 946:1 947:1 948:1 
0 0 0 0 0 0 0 0 2.6984448923968656 1:1 3:13 8:1 14:1 30:1 39:1 42:2 46:1 51:4 83:1 258:1 259:1 490:1 777:1 919:1 949:1 950:1 951:1 952:1 953:1 954:1 955:1 956:1 957:1 
1.5234208863579159 1.8391243793508196 1.9539932842178593 2.1366245127535879 1.4433994688006835 2.2968583664684914 2.4721649463784123 0.77714271579973582 5.3076037973004473 3:21 9:2 14:1 30:1 39:2 42:1 51:1 107:1 112:1 272:1 287:1 368:1 490:1 919:1 950:1 952:1 958:1 959:1 960:1 961:1 962:1 
5.0127914854677877 3.0090340992622062 0.80563189410542291 0.14820256904392515 8 2.3177793123004924 4.1383009942499438 7.7562623498552226 4.2797248772227601 3:4 14:1 30:3 39:1 89:1 107:1 151:1 527:1 963:1 964:1 965:1 966:1 967:1 968:1 
5.4762042238558628 0 0 0 2.7874024786045966 0 0 2.4779941009776665 0 3:3.75 5:1 14:1 26:1 30:4 54:1 61:1 78:1 107:1 251:1 272:1 422:1 440:1 666:1 969:1 970:1 971:1 
0 0 0 0 0.17042935951267049 0 7.0204026950226268 0 0 3:3.5 5:1 23:1 30:1 42:1 54:1 107:1 240:1 972:1 
0.18080907360612689 0 0 0 0.36364638045005671 0 3.6316114763757477 0.63917422918724176 0 1:1 3:12.5 14:1 20:1 26:4 30:1 39:2 51:1 107:1 148:1 197:1 440:1 858:1 864:1 947:1 973:1 974:1 975:1 976:1 977:1 978:1 979:1 980:1 
1.9938270733471155 8 8 0 8 3.9022310696080256 8 3.1688631485643395 0 1:1 3:8 14:1 40:1 51:1 86:1 125:1 981:1 982:1 
3.2279090953696232 0 0 3.9260841360164926 4.9870110749173495 1.2267676628065667 6.3825280285520423 4.9289217230944917 3.4341354822358263 3:4.6666667 14:2 16:1 30:3 39:1 46:1 240:1 487:1 715:1 983:1 984:1 985:1 986:1 987:1 988:1 
1.3835390447606584 0 1.9338138443053687 0 0 2.5115837826582137 5.7591908920195749 0 5.6808359299040188 3:6 83:1 94:1 128:1 151:1 989:1 990:1 
2.9920125170969056 2.2770079507582044 0 0 1.9970890616594876 0 2.1068172117378938 7.0601199331530555 1.2686635091415979 3:6 14:1 26:2 30:2 39:1 79:1 89:1 107:1 252:1 991:1 992:1 993:1 994:1 
3.738676945891553 8 5.1755864884957932 3.4559745584870383 5.0549098041856961 6.4754042316713685 8 1.6186890920597592 7.9248179300491657 3:8 14:1 39:1 46:1 51:1 738:1 995:1 996:1 997:1 
6.9979161731613431 7.7648499275110527 1.2059196059146007 5.9662669914133515 8 3.4012630358956391 6.0809585736515031 3.7766033268232304 2.7293881150476378 3:8 14:1 30:1 40:1 201:1 551:1 998:1 999:1 1000:1 1001:1 
8 8 8 0 8 8 8 5.248045152723507 0 3:1 54:1 
8 6.982366680663401 3.6708716181054557 8 8 6.2550986610576969 0 0 1.0358622408815878 3:8 5:2 9:1 14:1 20:1 341:1 757:1 1002:1 
3.7022592669458865 0 0 4.3774134398125861 1.3557112300109937 2.2466348060058059 0.29639548285769984 0 0.022589429012693514 1:3 3:7 5:1 13:1 14:4 16:2 20:1 26:1 30:4 39:1 42:1 46:1 54:1 107:1 189:1 223:1 230:1 233:1 235:1 240:1 325:1 629:1 1003:1 1004:1 1005:1 1006:1 1007:1 1008:1 1009:1 1010:1 1011:1 
1.536222030841397 0 0 0 3.0173444221732364 0 0 0 0.65987319014953871 3:5.3333333 5:1 8:1 9:1 14:1 16:1 30:3 39:1 42:1 58:1 83:1 182:1 456:1 766:1 1012:1 1013:1 1014:1 1015:1 
4.2262692788332687 4.4313729381417764 0 0 4.6822938171680333 0 1.6001203644026525 0 0 1:1 3:7.75 5:1 9:3 14:3 15:1 20:1 30:3 46:1 52:1 61:1 65:1 170:1 189:1 223:1 566:1 705:1 1016:1 1017:1 1018:1 1019:1 1020:1 1021:1 1022:1 1023:1 1024:1 1025:1 1026:1 1027:1 
0.83680043376771851 6.0029686159714881 4.9690425156291367 0 0.26938093278567105 3.3663126942843293 7.5636379605128301 0.93380998722579656 0 1:1 3:7 16:1 39:1 530:1 1028:1 1029:1 1030:1 
6.3326870202799137 2.0003041106891835 0 1.2728446530079061 0 0 0 0 0 3:13 5:1 9:2 14:4 20:2 25:2 30:1 39:2 46:1 101:1 562:1 1031:1 1032:1 1033:1 1034:1 1035:1 1036:1 1037:1 1038:1 1039:1 1040:1 
3.7944950225931704 0 0 2.0441743700924473 4.6882835363476909 0.62948648214731018 2.083126248691241 0.50857993122662437 2.4070804457712094 3:8 9:1 14:3 22:1 26:1 30:3 40:1 42:1 61:1 89:1 125:1 265:1 272:1 313:1 638:1 1041:1 1042:1 1043:1 1044:1 1045:1 1046:1 1047:1 1048:1 1049:1 
0 0 0 0 1.9584980969542565 0 8 0 8 3:3 51:1 52:1 1050:1 
0 0 0 0 0 3.3201266247648475 1.1223479477648846 0 0 3:4.5 9:2 14:1 30:2 57:1 73:1 467:1 1051:1 1052:1 1053:1 
0 5.3463918976689859 1.6039137533583407 0 0 6.6399631892133577 8 0 3.5614481705526719 3:3 54:1 1054:1 1055:1 
0 0 0.80713674125379931 0 0 0 3.9363026497451594 1.2881748089485965 0 3:4 9:1 16:1 23:1 30:2 39:1 40:1 1056:1 1057:1 1058:1 1059:1 1060:1 1061:1 1062:1 
5.6869118989953176 0.93393398203694389 7.1867658793425919 1.5081458797010479 8 6.6911532351352729 0 1.6440125445257296 6.566577959056179 3:8 9:1 39:1 103:1 1063:1 1064:1 1065:1 1066:1 1067:1 
8 0 0 3.4792762605597365 5.8586102874056074 2.7445584797919782 8 4.5601920295814482 0 1:1 3:3.5 4:1 14:1 30:3 36:1 82:1 120:1 348:1 672:3 1040:1 1068:1 1069:1 1070:1 
6.6257076844134621 4.0524737564868856 4.9792836627791699 3.1995136144124898 4.293298113421681 0.4206374771251869 3.5637020544721683 2.8138239132136849 3.3096780687670067 3:18 8:1 14:3 26:2 30:1 40:1 100:1 936:1 1071:1 1072:1 1073:1 1074:2 1075:1 1076:1 1077:1 1078:1 
4.5089002249875838 7.6300338903603837 5.9040369179543513 1.0191426674611737 4.5009364708791253 3.452105723641369 8 3.1914489819848648 4.7712407399619314 3:9 26:1 31:1 39:1 46:1 51:1 61:1 1079:1 1080:1 1081:1 
0 0 1.7447092660823698 0 0 0 8 0 8 3:5 51:1 61:1 83:1 126:1 1082:1 
0 0 8 0 7.7109166138713467 0 8 6.7503038351371947 7.5659550594814542 3:2 30:1 1083:1 1084:1 
5.380705333831469 3.9990547205113831 0 3.3301200988779667 2.1065399568434997 0 0 0 0 3:21 9:1 14:2 20:2 30:1 39:1 40:1 51:1 107:3 125:1 217:1 240:1 356:1 401:1 423:1 458:1 640:1 1090:1 1091:1 
8 8 3.2420768527633861 0 8 4.6027312925075323 8 8 0 3:5 4:1 14:1 348:1 356:1 435:1 
3.3557846553593542 0 0 0 3.663233191712826 0 5.1458392606678354 0 4.6200964123359922 3:3.6666667 9:2 23:1 30:3 39:1 83:1 738:1 1052:1 1096:1 1097:1 1098:1 1099:1 
8 8 7.3170465688019437 6.163734689074003 8 2.6996975494930338 8 4.7667054906494117 2.9286890044715546 3:5 40:1 375:1 1100:1 1101:1 1102:1 
8 8 7.989592603225538 0.43063444776323018 6.7087516919267598 5.81309210210794 8 6.4968012042111534 6.6115527438631627 3:3 14:1 1103:1 1104:1 
6.363387029924283 5.1971460416255395 3.9486741612879768 3.3040127835834947 2.5469826246334231 3.6970009486351532 2.5873374788697188 4.4949773870052558 1.5866911666679455 3:20 9:2 14:2 26:1 39:1 40:1 61:1 435:1 765:1 978:1 985:1 1105:1 1106:1 1107:1 1108:1 1109:1 1110:1 1111:1 1112:1 
3.7119533527355499 3.4777261006565485 0.31117964202435394 1.0497815313344894 0 0.66351621611493483 2.8305881637503587 3.1351390606916016 0 3:4 14:2 20:1 30:1 1115:1 1116:1 1117:1 1118:1 1119:1 
0 4.4230056956380581 4.2146886293506753 0 2.1235322725063126 8 6.3293950260853631 7.7311677097326541 0 3:9 14:3 46:1 1120:1 1121:1 1122:1 1123:1 1124:1 
2.8058062228920524 0 0.62235873459511337 0.53225183807252852 5.575471392918196 0 0 0 3.5412551093915501 3:9 9:1 14:1 46:1 131:1 203:1 1125:1 1126:1 1127:1 1128:1 
8 8 8 8 5.8331670065580212 0 7.1329967413512501 0 0 3:10 28:1 51:2 125:1 253:1 422:1 663:1 1129:1 1130:1 1131:1 
3.0718312008885715 2.955008719576238 6.0255457402406609 1.5181125899851025 5.06814487199658 4.0496468401804924 0.49072136558075857 1.1734056732406712 2.4402788088538543 3:14.5 9:1 14:5 20:1 23:1 30:2 39:2 40:1 42:1 46:1 265:1 268:1 356:1 397:1 458:1 541:1 1054:1 1132:1 1133:1 1134:1 1135:1 1136:2 1137:1 1138:1 1139:1 
0.86748483547527833 4.7902923647842854 3.2989919967301415 1.5605947547678514 3.0848817754478457 1.7997209055742585 8 0.4098922774832493 7.1029097934202738 3:8 42:1 126:1 168:1 262:1 272:1 730:1 1140:1 1141:1 
2.9054302508725378 2.664114182916951 3.8217694149542876 0.094257655011777353 7.8058296942627052 0 8 3.817164467752594 0.24954722736777246 3:5 14:1 26:1 30:2 39:1 40:1 126:1 749:1 797:1 1142:1 1143:1 1144:1 
8 4.6362892671479718 1.9623329912601479 0.49120688809266505 6.411559624911928 0 8 0 3.4960660175543454 3:8.5 14:2 22:1 26:1 30:2 39:1 46:1 61:1 84:1 107:1 252:1 465:1 534:1 738:1 1087:1 1145:1 1146:1 1147:1 
8 8 4.2595644003449209 8 4.5934186791873781 8 8 1.3855949248855934 4.9534056366764165 3:3 39:1 1148:1 1149:1 
3.9024920607059728 0 0 0 2.3478689475572727 0 7.8544357170133106 0 6.5579437691737805 1:1 3:4.75 14:1 30:4 35:1 40:1 46:1 51:1 52:1 61:1 107:1 195:1 203:1 548:1 639:1 1150:1 1151:1 1152:1 1153:1 1154:1 1155:1 
0 0 1.8942628693101435 0.063099322469776911 1.8097080049609069 1.4793045664141147 4.2271182771815665 0 1.5953916819669418 3:9 9:1 14:4 16:1 26:1 30:2 39:1 61:1 83:1 189:1 1083:1 1156:1 1157:1 1158:1 1159:1 1160:1 1161:1 
0 0 0 0 0 0 8 0 8 3:1.6666667 30:3 51:3 125:1 1162:1 
0 1.4712681725760168 2.2760473436959989 3.8373435598963788 3.8799493187094041 0 1.7591003421908809 0.22994362700896986 2.6224523544718008 1:1 3:33 9:1 14:3 26:4 39:4 51:1 91:1 99:1 101:1 148:1 354:1 630:2 1163:1 1164:1 1165:1 1166:1 1167:1 1168:1 1169:1 1170:1 1171:1 1172:1 1173:1 1174:1 
8 3.2802811338091722 6.5578845818142852 0 8 0 8 0 8 3:1 1175:1 
8 8 8 0 3.8289776977941035 8 8 8 4.8391294973121042 3:1 1176:1 
3.0953974425532613 3.8405497908174659 2.1756338375476214 0 3.8289442134529272 4.2836110775521652 8 2.9758419131590901 4.8392208274001227 3:1 1175:1 
0 0 0 4.0958453849649885 0.13827073593348096 0 0.16897727097476103 4.0475317325877356 0.27344628250208558 3:5.5 14:2 17:1 20:1 30:1 101:1 272:1 313:1 1145:1 1177:1 1178:1 1179:1 
8 8 6.5655291601668946 0 7.3022757573681254 8 8 2.4789905010389397 7.1900191739019297 3:4 14:1 39:1 107:1 1180:1 
2.7284200450378431 3.7365951012602676 0 0 0.95509331331098279 0 5.6866889853241345 0 1.6276817007326077 1:1 3:5.4 5:1 9:1 14:4 16:1 23:1 26:1 30:4 40:1 42:1 107:2 140:1 247:1 395:1 467:1 508:1 991:1 1056:1 1181:1 1182:1 1183:1 1184:1 1185:1 1186:1 
0.42796716819718073 2.8806641668614108 3.8694135966448093 2.2384948283454089 0.93948829771662756 2.9082127007603864 1.6133915941645991 0 1.8550508592637791 1:1 3:28 5:1 9:2 14:3 26:1 39:2 42:1 61:1 107:1 123:1 182:1 440:1 467:1 506:1 1071:1 1085:1 1187:1 1188:1 1189:1 1190:1 1191:1 1192:1 1193:1 1194:1 
8 0 5.2324877671057495 0 7.7853081091100966 0 8 3.8485895095312879 3.2401031659627311 3:3 5:1 30:1 1195:1 1196:1 
0.14622261984463522 5.2047764679143782 0.82106669551202272 0 2.1564204979228272 3.449684493806267 8 1.577973063555411 0 3:8 9:1 40:1 95:1 107:1 170:1 1197:1 1198:1 1199:1 
0 0 1.8231410768373 0 0.058859616011653737 0 2.6940103536374016 1.1008863876874981 2.0138175048336708 3:8.5 5:1 9:1 14:1 26:2 30:2 39:1 40:1 42:2 154:1 950:1 1200:1 1201:1 1202:1 1203:1 1204:1 1205:1 
0.82614885528981563 0 0 0.019224486535247391 0.67978355714122041 0.63950284404970503 0 1.9440665992930184 5.0476760399563565 1:1 3:6.75 8:1 14:1 20:1 30:3 39:1 40:1 42:2 57:1 61:1 89:1 107:1 395:1 743:1 754:1 890:1 1206:1 1207:1 1208:1 1209:1 1210:1 1211:1 1212:1 1213:1 1214:1 1215:1 1216:1 
0 3.1155917509598807 0 0 0 2.8491124340357925 0 2.0713473754110803 5.8396654036390592 3:15 40:1 42:2 51:2 148:1 155:1 168:1 325:1 351:1 415:1 422:1 1087:1 1217:1 1218:1 
0 6.6805253001964671 1.8226986617223608 3.9646789174055685 1.3892469435513952 1.6831237005077786 7.3260113576483104 0 1.6070929425779636 3:15.5 4:2 9:1 14:4 23:1 26:2 30:1 39:1 40:1 51:1 61:1 84:1 126:1 156:1 189:1 490:1 804:1 932:1 1210:1 1219:1 1220:1 1221:1 1222:1 1223:1 1224:1 1225:1 1226:1 1227:1 
1.8808591407978428 5.5179508480559116 1.7596320129775784 0 6.2487585321955086 8 8 0 8 3:5 40:1 51:1 52:1 151:1 1228:1 
0 0 0 0 0.31230796684274997 0 0 0.081212179838199255 0 3:36 14:3 23:2 26:1 39:4 40:1 46:1 70:1 84:1 229:1 348:1 357:1 435:1 551:1 566:1 749:1 834:1 835:1 1114:1 1240:1 1245:2 1251:1 1252:1 1253:1 1254:1 1255:1 1256:1 1257:1 1258:1 1259:1 
2.8228485584641612 0 0 4.0778386781298277 1.9236773363199642 0 0 0 0 1:1 3:16.5 5:1 9:2 14:5 20:2 30:1 39:1 46:1 61:1 156:1 487:1 741:1 764:1 835:1 983:1 1260:1 1261:1 1262:1 1263:1 1264:1 1265:1 1266:1 1267:1 1268:1 1269:1 1270:1 1271:1 1272:1 
8 8 6.2959332370408241 7.6800657436847199 8 8 8 8 8 3:3 4:1 30:1 39:1 122:1 289:1 624:1 1273:1 
0 0 0 0.6520779664874391 0 2.6770254053194935 1.1344041437452423 0 0 1:1 3:7.25 14:4 22:1 25:2 30:3 36:1 39:3 40:1 42:2 46:1 61:1 141:1 503:1 521:1 1040:1 1274:1 1275:1 1276:1 1277:1 1278:1 1279:1 1280:1 1281:1 
7.6774337470431018 8 2.7048979039130492 0 0.58064048638036814 6.5945773768096672 8 0 2.9763425165776876 3:7 9:1 14:1 46:1 1052:1 1282:1 1283:1 1284:1 
0.53663180672564936 0 0.62257841254533763 0 1.1830198431579739 0.88812126717112294 4.392882023668526 0.38826425909185386 0 1:1 3:8 8:1 26:2 30:2 46:1 318:1 532:1 828:1 1096:1 1149:1 1285:1 1286:1 1287:1 1288:1 1289:1 1290:1 
4.905968671789422 2.8188488296875707 7.6494899025554242 2.8069530829574476 0.85929923455234536 1.1769937912834338 5.3783847965355402 1.2767465312078925 3.5700635538612686 3:15 8:1 14:2 16:1 23:2 42:1 46:1 1113:1 1291:1 1292:1 1293:1 1294:1 1295:1 1296:1 
0.09664861042306308 0 1.0502801684090546 2.4149285477915567 0.75138421438705139 2.6891308965908682 0 0 3.9658642031828855 1:1 3:24 14:2 23:1 39:2 40:1 42:1 46:1 49:1 51:1 52:1 61:1 84:1 151:1 357:1 401:1 458:1 1297:2 1298:1 1299:1 1300:1 1301:1 
0.72554998048158792 0 2.2162384322282076 0.54213524711913186 3.6538767203953126 0 3.0050572682811718 0 0 3:7.5 14:1 16:1 26:1 30:2 65:1 149:1 201:1 240:1 454:1 1302:1 1303:1 1304:1 1305:1 1306:1 1307:1 1308:1 
8 0 2.788176145549409 0 5.9966993005877676 8 8 7.8377593313003988 2.1225138975264031 1:1 3:3 30:3 42:1 57:1 61:1 107:1 651:1 1309:1 1310:1 1311:1 
0.21426493271892857 5.2889000930428596 0.29221210023170308 5.4283762010120133 8 0 8 0 2.5464051668842544 1:2 3:9 40:2 51:1 730:1 1312:1 1313:1 1314:1 
8 0.92489721951833148 0 0 8 0 8 8 0 3:2 30:2 40:1 440:1 457:1 1054:1 
1.3536445407350379 0.02947183980907396 0 0.75910274617459861 3.8473339350292455 1.6052030799503045 0 1.1955643348612908 0 3:6.3333333 4:1 10:1 14:2 26:1 30:2 40:2 46:1 313:1 397:1 548:1 1315:1 1316:1 1317:1 1318:1 1319:1 1320:1 1321:1 1322:1 
0 0.99984375829265926 0.91705331227060016 0 0 0 5.6477363135342378 0 0 1:1 3:10 14:1 26:2 89:1 384:1 1323:1 1324:1 1325:1 1326:1 
6.8395437938996171 0 0 1.9428930931395212 0 0 8 3.5998060538298984 0 3:7 9:1 15:1 26:1 30:1 78:1 251:1 666:1 1327:1 
4.9478475327992033 8 6.8644608425374827 5.086546432984191 8 8 3.3349128541197079 2.4449814437140449 8 3:11 9:1 16:1 39:1 42:1 51:1 422:1 766:1 1328:1 1329:1 1330:1 1331:1 
0 2.0165594098306747 4.7236792414620927 8 7.3327916698831066 0.64203660982365351 5.3395753139888189 0.17821379201729659 0 3:10.5 14:3 16:1 26:1 30:1 32:1 39:1 42:1 57:1 61:1 89:2 107:1 1013:1 1334:1 1335:1 1336:1 1337:1 1338:1 1339:1 1340:1 
1.6256701165436991 1.8468205091298362 0 2.6607971686351997 2.6548235102899747 0 0.96886878765018081 0.44091771295004023 7.5326535037510842 3:8 5:1 14:1 26:2 30:2 42:4 58:1 84:1 147:1 195:1 345:1 1029:1 1341:1 1342:1 1343:1 1344:1 1345:1 1346:1 1347:1 1348:1 1349:1 1350:1 
0 7.3489993573506744 0.11782419475810674 2.8785935200448964 3.8511948091998476 1.811201305272373 6.4821635798829611 0 0 3:15.5 9:1 14:5 26:2 30:1 40:2 42:3 61:1 109:1 113:2 122:1 548:1 579:1 822:1 1063:1 1347:1 1350:1 1351:1 1352:1 1353:1 1354:1 1355:1 1356:1 1357:1 
0.10526295564266976 0 1.5534980274638548 0.67519325316143608 3.4756155756587415 0 0.39033964515879571 0 2.8387339572299619 3:16 14:2 20:1 26:1 39:1 42:1 272:1 659:1 1050:1 1251:1 1358:1 1359:1 1360:1 1361:1 1362:1 1363:1 
6.1047222715958194 2.3418289639679304 0 2.1689981721974871 0 2.4048620958426423 2.4021579118618441 1.833922645055482 6.1218962440094424 1:1 3:9 14:1 30:1 42:1 107:1 551:1 1364:1 1365:1 1366:1 1367:1 
0 0.44876176940802015 8 0 0 8 3.1014591011243344 8 8 3:6 14:1 42:1 83:1 300:1 650:1 1368:1 
3.0312047667259279 6.9599750073911775 0.27752366378308596 0 4.2660483073373232 0 2.8397181021353517 0 0 3:26 4:1 14:2 26:4 39:1 40:1 65:1 89:1 144:1 145:1 348:1 435:1 738:1 1114:1 1339:1 1369:1 1370:1 1371:1 1372:1 1373:1 1374:1 1375:1 1376:1 
3.6505415677181419 0 2.8103649115709817 0 0.86490237593024366 0 6.6800006129921492 0 1.4108677688786513 3:16 9:1 14:2 26:1 40:1 42:1 348:1 467:1 490:1 810:1 1377:1 1378:1 1379:1 1380:1 1381:1 1382:1 
7.5357297378825967 8 8 1.9010074029141895 6.2264181078396623 8 8 4.8712756225508453 0 3:8 9:1 14:1 39:1 40:1 42:1 757:1 1383:1 1384:1 
5.4543404437308887 5.5780346126233153 8 6.5289432383638131 5.6392758274760109 7.0410569475094498 6.9463445841395988 5.7386010285262152 1.9507555626011575 1:1 3:13 8:1 9:2 42:1 149:1 151:1 379:1 1301:1 1385:1 1386:1 1387:1 1388:1 
1.2064473776811133 0 0.35183594950540298 0 3.3996155350627606 1.8446410991339139 0.61023946271614249 1.3414739633604915 0.33779011976027695 1:1 3:5.6666667 5:1 8:1 14:1 30:2 40:1 42:1 84:1 107:1 240:1 1389:1 1390:1 1391:1 1392:1 1393:1 1394:1 1395:1 1396:1 
8 2.6837684587220334 2.5745976330176865 0 0 0 8 0 8 3:4 39:1 78:1 1074:1 1397:1 
5.2076154712367089 8 0 0 8 0 8 4.2876038550832218 3.7529768227204165 3:6 14:1 26:1 42:1 348:1 717:1 1378:1 
5.3227510687749557 2.8664002503232848 0.1677932755988733 3.2005286501332142 1.6362313722084252 0.0091093096677057998 0 0.23678885414306847 3.6440595713184654 1:1 3:8.3333333 5:1 9:1 14:4 23:1 30:2 40:2 52:1 61:1 726:1 919:1 1210:1 1341:1 1398:1 1399:1 1400:1 1401:1 1402:1 1403:1 1404:1 1405:1 1406:1 
3.7261488016534026 0.58339338270948549 1.5990820973385993 1.3725539420106543 2.0599474231250796 0.48964624517390065 1.3417877798557956 0 2.4715224792863113 1:2 3:15 5:2 9:2 14:4 20:1 26:1 30:1 39:1 42:2 83:1 168:1 272:2 295:1 844:1 1106:1 1407:1 1408:1 1409:1 1410:1 1411:1 1412:1 1413:1 1414:1 
5.4195203373118899 2.7938627200370707 4.6429782407347808 2.1562403033474848 2.8215239282299307 0 8 0 3.437166462638789 3:26 9:1 14:1 26:5 39:1 52:1 80:2 83:1 243:1 259:1 272:1 532:1 780:1 976:1 1415:1 1416:1 1417:1 1418:1 1419:1 1420:1 1421:1 1422:1 
1.843131197456934 8 8 0 2.2098349733664935 8 8 7.8321727533706351 8 3:4 14:1 42:1 1423:1 1424:1 
0.29228323705425058 8 8 1.0911469118830435 3.9139094872677487 3.5796191630078789 8 3.2207405137974212 6.0351672363783555 1:1 3:7 16:1 39:1 89:1 1339:1 1425:1 1426:1 
4.9974198959511913 4.1962895271134428 3.685476626846822 0.14837673602113763 0 0 2.8597282775772923 1.9641944119611008 4.4452997001345462 3:7 23:1 46:1 82:1 1133:1 1427:1 1428:1 1429:1 
0 4.9896789083158932 0 2.3813911491164745 3.6665288087975973 8 0.27669035363002897 8 2.5668491268787164 3:6.5 14:2 30:1 39:1 126:1 130:1 325:1 414:1 718:1 1397:1 1430:1 1431:1 1432:1 1433:1 
2.9871146107285997 0 0 0 2.9859424974703996 0 3.9397823313527982 0 0 3:14.5 9:3 14:3 26:4 30:1 39:2 61:1 251:1 271:1 348:1 394:1 422:1 440:1 562:1 584:1 666:1 791:1 971:1 1357:1 1434:1 1435:1 1436:1 1437:1 
0 0 0 0 2.8579519459376779 0 1.0714190911646011 0 0 3:9.6666667 14:2 26:4 30:2 40:2 201:1 216:1 229:1 240:1 435:1 647:1 835:1 1114:1 1233:1 1245:2 1372:1 1438:1 1439:1 1440:1 1441:1 1442:1 1443:1 1444:1 1445:1 1446:1 
2.1461534552464072 1.1040585018637423 0 0 0 0.24595569945457768 5.3099437350334941 0 1.0791930948665618 3:7 8:1 9:1 30:2 31:1 61:1 83:1 84:1 243:1 272:1 1447:1 1448:1 1449:1 1450:1 1451:1 1452:1 
8 4.690797845581538 0 2.4733006777161912 6.3575719024448674 0 3.7331079676991514 0 1.0721760438187797 1:1 3:8.5 4:1 9:1 16:1 23:1 26:1 30:2 42:2 107:1 666:1 667:1 668:1 1058:1 1453:1 1454:1 1455:1 1456:1 
6.5711225964452105 4.5520397445218252 2.900928031721369 1.1515263349263929 0 2.3994115792272965 1.1007126501916726 3.6228404789140201 0 3:14 9:1 26:1 30:1 46:1 61:1 84:1 240:1 666:1 1245:1 1457:1 1458:1 1459:1 1460:1 1461:1 1462:1 
2.45484220720664 0 0 0 0 0 0 2.9800328340341116 0 3:2.6 14:2 30:4 51:1 52:1 348:1 435:1 647:1 1043:1 1245:2 1463:1 1464:1 1465:1 
2.0258053715359923 1.2564295100552909 0 0.31807958458761609 1.0563082175311445 1.1177710533613907 5.9819151961656702 0 2.2415686641327635 1:1 3:10 14:3 20:1 26:3 30:2 197:1 348:1 435:1 647:1 778:1 1245:2 1464:1 1466:1 1467:1 1468:1 1469:1 
0 0 3.8935960225491431 0 0 0 8 0 1.7129314358386303 1:1 3:8 26:1 30:1 40:1 61:1 83:1 467:1 1470:1 1471:1 
8 0 0.94587660204487867 0 0 0 1.7555703805585652 0 1.958896575382947 3:5 5:1 42:1 51:1 1472:1 1473:1 
0 0 0 1.2244831609125093 4.1892022075553053 0 1.3977206505277324 0 0 1:1 3:4 9:1 14:1 30:2 46:1 73:1 1474:1 1475:1 1476:1 
0 3.0161291689416578 3.6688223880057467 0 0 0 4.6965661745052412 0 0 3:7 26:1 719:1 725:1 727:1 1477:1 1478:1 1479:1 
4.9693939751137961 2.6895685825851783 3.34194554135988 2.6239530572533312 0.52047290875974683 1.102242155665081 8 1.8407793935378618 1.4262638896624951 3:8 9:1 23:1 30:1 89:1 107:1 266:1 1220:1 1480:1 1481:1 
0 0 1.6694574287925097 0 0 0 7.1033735716447213 0.90104004406644012 0 3:7 14:1 20:1 401:1 551:1 1482:1 1483:1 1484:1 
6.6028736665687884 8 5.1058580208086468 7.5750637197239667 6.5967210275175647 5.811008867624377 6.3933540588505942 3.376947126757365 4.2603580288444993 1:1 3:18 4:1 9:1 14:2 20:1 25:1 39:1 42:1 554:1 1483:1 1485:1 1486:1 1487:1 1488:1 1489:1 1490:1 1491:1 
8 2.3443400171986415 2.3707755207779635 6.1557225507812499 0 1.8370368572950924 8 8 5.7702211267825456 3:2 30:2 126:1 1440:1 1445:1 1494:1 
0 0 0 0 0 0.45675452249968934 0 0 0 1:1 3:34 4:1 13:1 14:1 25:2 26:1 36:2 39:2 40:2 42:2 54:1 61:1 84:1 125:1 229:1 395:1 834:1 835:1 1414:1 1440:1 1445:1 1495:1 1496:1 1497:1 1498:2 1499:1 1500:1 1501:1 
0 0 4.2065236246240678 0 0 0 0 0 5.0649599423296507 3:8.5 9:1 26:1 30:1 39:2 46:1 91:1 151:1 262:1 401:1 554:1 730:1 1210:1 1502:1 1503:1 1504:1 1505:1 1506:1 
1.5298211385962783 0.6119271765528973 0 0 1.6302689782890438 0 3.4716006293309456 0 0 3:7.3333333 9:1 14:1 23:1 26:2 30:2 40:2 61:1 89:1 107:2 149:1 262:1 272:1 524:1 715:2 968:1 1507:1 1508:1 1509:1 1510:1 
1.5886726226323962 2.7926165198631572 0 2.36434884578185 2.0773548694584818 0 0 0 2.8688704020605584 3:8.3333333 4:1 5:1 9:1 14:1 26:1 30:2 39:1 40:4 42:1 51:1 83:1 84:1 757:1 1043:1 1451:1 1511:1 1512:1 1513:1 1514:1 1515:1 1516:1 1517:1 1518:1 
0.30159039118622205 0 1.2005260825758659 0.11881411578139271 1.71545853277194 2.1874759923333644 0 5.8287676769706271 0.67081704014256616 1:1 3:5.5 14:1 30:2 39:1 40:1 42:2 1384:1 1519:1 1520:1 1521:1 1522:1 
8 0 0 0 0.84174962591221991 0 8 8 0 3:4.5 14:2 30:2 57:1 182:1 272:1 624:1 1523:1 1524:1 1525:1 
2.5534209247586497 0.12236954563278121 0 1.3307502346415825 5.3239947387141964 0 0 0 3.2132549970515387 3:23 9:1 14:3 26:1 39:1 51:1 52:1 61:1 83:1 107:1 216:1 313:1 320:1 420:1 1083:1 1526:1 1527:1 1528:1 1529:1 1530:1 1531:1 1532:1 
0 4.8716197112024018 0 1.0678533473251166 4.5777568024336688 0.33285283344021538 3.9054560244742453 0 3.3564730713889781 3:15 13:1 14:1 40:1 42:2 51:2 168:1 453:1 458:2 1533:1 1534:1 1535:1 1536:1 
4.058875477808038 0 1.8346111028410701 1.6592574628057952 3.2384389798319408 1.0833196377667613 5.7921739497265552 2.6901287112154479 0.88051036086963075 1:1 3:7.5 16:1 26:1 30:2 42:1 46:1 89:1 94:1 122:1 548:1 1537:1 1538:1 1539:1 1540:1 1541:1 1542:1 
0 0 0 0 0 0 7.615702836985192 0 0 3:3 26:1 30:2 83:1 419:1 1451:1 1493:1 1543:1 
5.1093443773526941 1.2892964932338333 0.46617969753448818 2.1712373874467694 5.4487291531193991 0.20921708831298538 2.0156932841427473 0 6.4099696127212953 3:6 8:1 9:1 14:1 23:1 30:2 46:1 61:1 80:1 103:1 107:1 272:1 1544:1 1545:1 1546:1 1547:1 1548:1 1549:1 1550:1 1551:1 
0 7.9704160638531594 0.73354297584058681 0 0 4.2835652360494407 8 2.9760031715618331 8 3:1 1552:1 
0 0 0 4.5034866000299862 0 0.52771660861757874 0.024610873749346916 0 0 3:8 4:1 14:4 30:2 36:1 39:2 42:1 51:2 84:1 482:1 672:3 828:1 1553:1 1554:1 1555:1 1556:1 1557:1 1558:1 1559:1 
1.4732793214871271 0 2.3734005235136499 0.35741951662088484 0 0 2.3293827299780898 0.87226494001458654 0 1:1 3:5.3333333 8:1 14:2 26:1 30:2 46:2 89:1 1133:1 1223:1 1508:1 1560:1 1561:1 1562:1 1563:1 1564:1 
5.5645691224416689 8 8 7.4588644513013236 6.9031514901714619 0 6.9493243459923679 1.4907504175245332 6.0162385595947354 3:16 9:1 14:1 26:1 31:1 42:2 51:1 65:1 126:1 262:1 919:1 1325:1 1565:1 1566:1 1567:1 1568:1 
8 0 0 4.3684332113210909 0 0 2.9547282443886229 4.9121188456096601 8 3:3 30:3 40:3 141:1 467:1 756:1 1569:1 1570:2 
0 5.0093687436850169 1.3550718468279874 1.0471157886891145 0 0.28694236019456676 5.4471824177128338 0 6.5668321255336206 1:1 3:13 9:1 14:1 23:1 26:1 42:1 46:1 61:1 107:1 1360:1 1571:1 1572:1 1573:1 
0 0 0 0 0 0 1.5931902950330219 0 0 3:16 4:1 9:1 13:1 14:3 16:1 23:1 25:1 30:1 32:1 36:1 37:1 39:1 40:1 42:2 89:1 125:1 159:1 253:1 355:1 395:1 754:1 835:1 1054:1 1233:1 1460:1 1574:1 1575:1 1576:1 1577:1 1578:1 
4.6259715038051255 3.3789125977312349 5.9047002260658257 0.2324783697816033 3.7632987653569865 1.3091469642802596 8 0.56302017116649083 2.5444555899287313 3:6 14:1 26:1 46:1 1579:1 1580:1 1581:1 
0 0.57918510325334183 0.8464771384650599 0.30133598399641764 0 0 0.98091780448371935 0.90061925781052665 0 3:8.5 9:1 30:2 39:1 40:1 46:1 61:2 293:1 652:1 1582:1 1583:1 1584:1 1585:1 1586:1 1587:1 1588:1 1589:1 1590:1 
6.6641297891720725 0.90129276831553606 8 0 8 2.3296448328727957 8 0 8 3:3 61:1 103:1 1599:1 
5.7810635403369908 6.7959926104217878 3.6293048590672168 0.61696956927022539 0 0 1.8570086163354351 0.59144650000724164 1.280288984859516 3:23 4:1 14:4 26:2 39:3 107:1 151:1 373:1 490:1 506:1 624:1 728:1 939:1 1600:1 1601:1 1602:1 1603:2 
2.6109841244979402 3.6119896168260115 0.93165698922460005 3.26946792570843 5.4271140799512274 4.9180970061333138 4.6531803076024225 4.5365452101624113 0.9304752050918691 3:10.666667 4:1 9:2 14:3 23:1 26:2 30:3 39:2 40:1 46:1 189:1 272:1 532:1 931:1 1530:1 1604:1 1605:1 1606:1 1607:1 1608:1 1609:1 1610:1 1611:1 1612:1 1613:1 1614:1 1615:1 1616:1 1617:1 
0 0 4.3339122029686186 0 0.50776715916318427 0 4.6898246293870569 0 0 1:1 3:9 9:1 51:1 61:1 83:1 148:1 239:1 240:1 1618:1 
3.7297264101364886 1.8335504598686392 8 0 3.0159471085355989 0 8 0.772968244283182 0 3:4 26:1 1353:1 1619:1 1620:1 
3.6143050709493383 0.96420082609148761 1.2244089139196337 4.6025678161069186 2.4275515156458169 1.0365190319321065 5.7910406439602733 0 1.8424788920285853 3:6.5 9:1 14:1 30:1 39:1 40:1 42:1 83:1 151:1 596:1 756:1 1621:1 1622:1 1623:1 1624:1 
2.9494596781753462 2.8858540101327237 2.7371732642945981 0 4.0639672983092119 8 1.0908831994922716 5.1440027396182133 2.693664235783781 1:2 3:29 4:1 9:1 16:1 20:1 26:1 35:1 39:2 40:2 86:1 113:1 395:1 532:1 601:1 603:1 1498:1 1625:1 1626:1 1627:1 1628:1 1629:1 1630:1 1631:1 1632:1 1633:1 1634:1 
2.2094496995211061 8 1.4071022016499528 2.0693101713516833 3.5570318654474904 5.7579312768137028 5.4629675360996988 2.7389395206479179 0 3:8.3333333 4:1 14:3 20:1 26:1 30:2 39:1 40:1 42:2 57:1 134:1 240:1 319:1 320:1 395:1 570:1 1635:1 1638:1 1639:1 1640:1 1641:1 1642:1 1643:1 1644:1 
0 0 5.0189978066920062 0 0 0.37399362362238314 0.82787347151136137 4.524518177641621 4.4973632983595966 3:10 14:1 31:1 39:1 239:1 262:1 1645:1 1646:1 1647:1 1648:1 1649:1 
3.5802326562500539 3.8783338151768878 4.8042749327351322 0.17938866222126404 1.558856946621398 5.2659697839500899 8 1.4131672014787593 6.645004776989361 3:4 23:1 1157:1 1650:1 1651:1 
4.6608313637107237 1.7566431620620122 4.0606751599072757 2.9862959135362686 6.9049204335105543 2.8405261967477502 5.3092790991299195 3.4543254798502554 5.671599033249108 1:1 3:9.5 14:2 23:1 30:2 39:1 40:1 141:1 448:1 849:1 854:1 1652:1 1653:1 1654:1 1655:1 1656:1 1657:1 1658:1 1659:1 1660:1 
1.0405694691222713 0 8 0 5.4392214054735453 1.3162141394255329 7.4297698017683338 8 7.4585581402412551 3:2 14:1 30:2 203:1 207:1 1661:1 1662:1 1663:1 
5.3317018533444296 2.0761985337242757 0 0 7.7249480461377198 0 5.6529653139592577 0 0 1:1 3:11 14:3 26:1 30:1 39:1 40:1 46:1 125:1 145:1 156:1 219:1 260:1 348:1 435:1 1320:1 1522:1 1556:1 1677:1 1678:1 1679:1 1680:1 
1.4228798206273259 0 8 0 1.7281767245852266 6.7642844605126271 8 0.93680361532370138 0 3:2 1353:1 1681:1 
1.2124964031617909 7.0172035075846484 0 8 4.0644063789939535 7.4570258462780918 1.3811647907921216 1.3683527914165576 0 1:1 3:7 4:1 8:1 14:3 16:1 20:1 26:1 30:3 42:1 46:3 89:1 126:1 232:1 233:1 556:1 672:3 945:1 1383:1 1682:1 1683:1 1684:1 1685:1 1686:1 
2.2195673002057807 7.5941803047430119 2.7868046891928633 2.4946420926522999 2.6966306614903175 2.5859322776808957 0 4.6047855089578196 2.5596295174024859 3:32 4:1 14:5 20:1 39:1 40:2 89:1 151:1 275:1 440:2 591:1 630:1 1245:1 1687:2 1688:1 1689:1 1690:1 1691:1 1692:1 1693:1 1694:1 1695:1 1696:1 1697:1 1698:1 1699:1 
5.6750327280862951 0.47072733372701814 0 4.2908101478494443 4.7600472696488216 0 1.1163392643950956 2.157696418774794 0.86870238253679732 3:19 9:1 25:1 30:1 40:2 82:1 101:1 113:1 432:1 467:1 548:1 859:1 1396:1 1514:1 1700:1 1701:1 1702:1 1703:1 1704:1 1705:1 
3.8733671043149909 2.6710470551998808 2.8264832487878344 4.3775985555590182 4.0104401206739517 1.0367259285241857 2.5224628364734074 1.4224768624729729 2.1466999586047919 3:11 9:1 14:3 26:2 30:2 42:1 61:1 100:1 107:1 1495:1 1706:1 1707:1 1708:1 1709:1 1710:1 1711:1 1712:1 1713:1 1714:1 1715:1 1716:1 
8 0 0 8 6.9260307299643138 0 8 1.0513073813697709 0 3:7 14:1 26:1 30:1 42:1 313:2 419:1 1423:1 
6.3937379860979382 0.73375933852152064 0 0 2.3086787876811625 0 3.3835180839827048 0.38422576119759688 2.3479805510598832 3:10 14:2 16:1 30:2 39:1 40:1 42:1 46:1 181:1 197:1 240:2 265:1 562:1 1717:1 1718:1 1719:1 1720:1 1721:1 1722:1 1723:1 
0 0.014683836351821388 3.998783752496669 0.57370091219783959 2.6422683860351421 0.96362706988284386 0.51502656497200583 2.8412322940446035 6.3385820714488332 3:21 9:1 14:2 20:1 26:1 35:1 42:3 51:1 61:1 107:1 168:1 466:1 497:1 1724:1 1725:1 1726:1 1727:1 1728:1 1729:1 
1.404877621282951 8 2.9646060444696558 2.2843881142876379 6.1185886032372787 3.966415644878365 8 5.480766130782432 0 3:7 14:1 39:1 42:1 1267:1 1730:1 1731:1 1732:1 
2.3909320423028961 0 0 0.15587758504752738 1.7313342470850415 0.08365125591785609 2.2726839645170767 0 1.6374300652602276 1:1 3:5 9:1 14:1 26:1 30:3 39:1 46:1 52:1 61:1 78:1 107:1 289:1 1733:1 1734:1 1735:1 1736:1 1737:1 1738:1 1739:1 1740:1 1741:1 
2.3887276827459969 0 0 0 0.24546597216082131 0 8 0 5.48644493124484 3:4 16:1 26:1 30:1 40:1 61:1 252:1 1742:1 1743:1 1744:1 
0 4.2998645770994841 0 2.14175334191092 0 1.1400931924455859 0 0 0.87720686873845111 1:1 3:11.5 14:2 26:1 30:1 39:1 40:1 42:1 46:1 107:2 126:1 219:1 240:1 247:1 551:1 733:1 1420:1 1453:1 1745:1 1746:1 1747:1 1748:1 1749:1 
1.9606393115468908 2.4348395010473385 3.8184380637356492 0 2.7136540511914471 0.21084455706053604 2.3603263367320784 0.88818828490448654 0 3:18.5 9:2 14:4 26:3 30:1 39:4 46:2 109:1 151:2 155:1 260:1 314:1 527:1 1148:1 1732:1 1750:1 1751:1 1752:1 1753:1 1754:1 1755:1 1756:1 1757:1 1758:1 1759:1 1760:1 1761:1 1762:1 
8 4.8073215635657682 0 0 2.4471520212594817 0 0 0 2.068995856453189 1:1 3:19 14:2 26:1 30:1 39:1 42:1 84:1 89:2 107:1 168:1 395:1 470:1 556:1 741:1 1763:1 1764:1 1765:1 1766:1 
0 4.1947356714998119 3.8063922740610612 1.6023057747394371 0.047761571387739767 0 0 0 7.7705272371801781 1:1 3:28 14:3 26:1 30:1 39:3 40:1 46:1 61:1 83:2 84:1 107:1 125:1 252:1 327:2 422:1 809:1 1767:1 1768:1 1769:1 1770:1 1771:1 1772:1 1773:1 
0 2.7963480709550761 0.53481848479128724 0 6.2484527975351281 1.1080843585796518 8 0 2.2262328332817773 3:3 1774:1 1775:1 1776:1 
0.96627757227463218 0 0 0 0 0 6.5111502446086442 0 2.6125414449649953 3:10 26:1 46:1 51:2 83:1 1526:1 1773:1 1777:1 1778:1 1779:1 
0 3.1185500913517425 0 1.617323455521817 0.54417662679867607 1.1692489131015331 0.20078781670459503 1.1082640755632081 0 1:1 3:9 9:2 14:3 16:1 26:1 30:3 39:2 40:1 46:2 75:1 84:1 170:1 286:1 506:1 530:1 697:1 991:1 1190:1 1353:1 1770:1 1780:1 1781:1 1782:1 
0 0.18409580668620151 0 0 0 0 0 0 4.5225240643336342 3:18 9:1 16:1 26:1 39:1 42:1 51:2 61:1 107:1 148:1 156:1 247:1 355:1 756:1 1050:1 1090:1 1783:1 1784:1 
1.8935234913051697 8 6.2456060751976699 6.8614410168148945 8 1.4664930381685488 3.0273811891122282 3.4681608846995107 0 1:1 3:9.6666667 4:1 9:2 14:5 20:1 23:1 26:2 30:3 40:1 42:1 89:1 131:1 459:1 548:1 789:1 1339:1 1685:1 1744:1 1772:1 1785:1 1786:1 1787:1 1788:1 1789:1 
3.1562734805144226 0 0 0 2.40450927020043 0 0 0 0.58874380344750032 3:6 5:1 9:1 14:2 26:1 30:3 39:1 61:1 83:1 348:1 594:1 634:1 935:1 1376:1 1790:1 1791:1 1792:1 1793:1 1794:1 
0 0 3.0791210655983945 0 0 0 8 0 1.4156023351882183 3:5 14:1 51:1 83:1 240:1 1795:1 
8 1.9186147069567376 0.48419193481981482 1.1613201714585824 0 0 1.1611575346838923 0 5.4461713403932128 3:18 8:1 9:1 14:1 20:1 25:1 26:1 36:1 39:1 40:1 42:2 467:1 663:1 991:1 1796:1 1797:1 1798:1 1799:1 
3.2150263574289495 0 8 0 0 8 8 0 8 3:6 9:1 14:1 42:1 168:1 757:1 1002:1 
3.5399597127272378 8 4.5278123740091241 0 4.7094388771819 2.4448810241866155 0 3.2092368042904331 0.90719549869579963 3:16 5:1 14:3 39:2 40:1 84:1 658:1 783:1 1578:1 1800:1 1801:1 1802:1 1803:1 1804:1 
1.7627064679090909 0 0 0.79222706324209813 0.63004391892360445 2.048662062967451 0.089387915053084188 0.29218368331715228 1.1920479676283162 3:10.666667 4:1 9:2 14:4 20:2 25:2 30:2 36:2 39:2 40:1 42:1 378:1 878:1 1237:1 1350:1 1805:1 1806:1 1807:1 1808:1 1809:1 1810:1 1811:1 1812:1 1813:1 1814:1 1815:1 
4.9125796907767123 0 4.4354462537216994 0 2.1626648142942546 0 8 0 5.6418255268826645 3:11 14:1 16:1 26:1 39:1 151:1 153:1 189:1 347:1 1018:1 1492:1 1817:1 
3.1221021922256478 0.12511890209137483 2.5665914518641801 0 0.32940210653623847 2.0543218703118469 0 0 0.34691320831826328 1:2 3:29 5:2 8:1 23:1 26:3 31:1 39:2 51:1 61:1 84:2 153:1 357:1 1018:1 1396:1 1818:1 1819:1 1820:1 1821:1 1822:1 1823:1 1824:1 1825:1 1826:1 
2.70530277004988 8 6.2455326044635378 3.4162038497707066 4.0802269865482579 3.7311314055490632 0.73386752464859895 2.9445749874128926 8 3:30 14:5 20:1 26:1 61:1 84:1 103:1 107:1 348:1 422:1 551:1 586:1 727:1 1330:1 1821:1 1824:1 1827:1 1828:1 1829:1 1830:1 1831:1 1832:1 1833:1 1834:1 1835:1 1836:1 1837:1 
8 8 2.6450968355104059 1.4833039977171152 8 1.2056078729508417 8 8 8 3:1 30:3 859:1 860:1 1838:1 
0 1.1896196043652314 0 0 0 0 6.2341676777862771 0 0 3:7 14:1 23:1 40:1 51:1 65:1 1647:1 1839:1 
7.4265190663197975 0 0 8 0 0 8 0 0 3:3 46:1 313:1 1474:1 
0 0 0 0 3.2131298316293897 0 8 0 0 3:7 5:1 9:2 26:1 30:1 42:1 51:1 61:2 240:1 243:1 262:1 790:1 1267:1 1840:1 
6.4321266584680883 0 8 1.6909873085747804 8 2.4921738853645428 0.097722195397820039 0 8 3:10 9:1 26:1 61:2 103:2 189:1 467:1 1841:1 1842:1 
0 6.1353571273369534 0.26986926624455826 0 0 0 0 0 8 3:6.5 9:1 14:2 23:1 30:1 61:2 107:1 1766:1 1843:1 1844:1 1845:1 1846:1 1847:1 
3.8450908905155834 4.2488012169608309 0 3.5168094937671399 5.0694277426039829 6.235890648266122 8 5.1920895537229308 0 3:7 14:1 20:1 39:1 325:1 1848:1 1849:1 1850:1 
7.92121644717081 7.1207217767924558 8 0 3.8289859129762638 4.2836391039839219 8 2.9760492191963066 4.8392676369000602 3:1 1851:1 
5.3963258898549933 3.14820758871419 2.3476226060237488 3.5562550192453792 2.1651926774088595 2.0299291622632682 4.0875623260597829 0 1.6580482946921222 1:1 3:12.5 9:2 16:1 23:1 30:1 35:1 39:1 40:1 42:1 49:1 61:1 107:2 149:1 191:1 624:1 1153:1 1506:1 1852:1 1853:1 1854:1 1855:1 1856:1 1857:1 1858:1 
0 0 0 0 0 0 2.0504733076584754 0 0 3:28 4:1 14:1 25:1 26:1 32:1 35:1 36:1 37:1 40:1 42:2 46:2 58:1 61:2 262:1 314:1 493:1 532:1 548:1 828:1 835:1 1206:1 1233:1 1866:1 1867:1 1868:1 
0.40940348795858389 0 2.4596361651223995 0 2.527860095941977 0 0 0 0 3:20 14:2 23:1 26:1 39:1 126:1 151:1 202:1 253:1 314:1 357:1 415:1 493:1 575:1 675:1 1243:1 1869:1 1870:1 1871:1 1872:1 
0 7.7568101636144018 6.3227508636024732 0 6.6363396620477895 0 8 0.0031340883523936747 0 3:3 26:1 1711:2 
0 0 0.24706498368991139 1.6049621100352045 0 0.5095271560874568 1.6813193244737543 1.5495734429336518 0 1:1 3:9 9:2 26:1 30:2 40:1 46:1 49:1 93:1 107:1 262:1 313:1 532:1 533:1 702:1 1282:1 1873:1 1874:1 1875:1 
4.7108224495012667 8 2.0078349603507655 7.1158838912441018 6.7559083300427831 1.6353146416198883 2.7512233705566751 0 4.9098614139342569 1:1 3:11.5 14:4 20:1 23:2 30:1 46:1 141:1 156:1 348:1 579:1 1262:1 1876:1 1877:1 1878:1 1879:1 1880:1 1881:1 1882:1 1883:1 1884:1 
0 0 0 0 1.1637606991580598 3.6811514146021529 0 0 0 1:1 3:8 4:2 14:4 30:2 36:1 39:1 42:1 51:1 84:1 156:1 260:1 436:1 482:1 672:3 1244:1 1498:1 1885:1 1886:1 1887:1 
8 1.0376232372397018 8 6.1607680392480981 6.3262241380446218 1.9508635336632174 4.1584656581460697 4.8856514811380851 8 3:9 23:1 42:1 103:1 498:1 976:1 1113:1 1888:1 1889:1 1890:1 
0 0 0 0 0 0 1.4235958123559971 0 0 1:1 3:7.5 8:1 9:1 26:1 30:1 37:1 40:2 738:1 861:1 1889:1 1891:1 1892:1 1893:1 1894:1 1895:1 
0.45749818212164112 0 0 0 1.8250554688588019 0 8 0 0 3:7 14:1 51:1 52:1 151:1 819:1 835:1 1896:1 
8 6.8509364403552242 6.5392804597009775 2.9508505187197267 1.2155194054324074 0 5.9724847544350759 0 8 1:1 3:9 5:1 14:1 42:1 83:1 94:1 1852:1 1897:1 1898:1 
1.8484081945363653 3.9616132775537434 0 3.1825698720864302 7.9428175285249454 6.5883558581900488 3.4917101513497619 3.8801719231932532 0 1:1 3:11.333333 4:1 9:1 14:8 20:1 30:2 39:2 40:1 89:1 140:1 219:1 260:1 272:1 325:1 551:1 575:2 670:1 1403:1 1498:1 1899:1 1900:1 1901:1 1902:1 1903:1 1904:1 1905:1 
3.0561024151150207 8 4.9022291894771284 0 8 2.4860570106680173 8 0 2.4148769974761426 3:2 1816:1 1906:1 
8 4.8211338368089534 8 0 0 8 5.4649213876718292 8 0 3:8 13:1 39:2 51:1 125:1 187:1 1498:1 1907:1 
0 0 0.94792719884191146 0 0 0 0 0 0 1:1 3:9.5 9:1 14:1 26:1 30:1 42:1 61:1 89:2 125:1 168:1 627:1 1711:1 1908:1 1909:1 1910:1 1911:1 1912:1 1913:1 1914:1 
1.4921441940635254 1.3042884842406144 0 0 2.9591791440139965 0 0 0 2.4415947741745136 1:1 3:4.8 4:1 14:2 23:1 25:1 30:4 39:2 40:2 46:1 70:1 103:1 123:1 126:1 151:1 240:1 418:1 567:1 1099:1 1570:1 1915:1 1916:1 1917:1 
5.4318707574498326 0 8 0 1.3263020842626569 8 8 8 0 3:2.5 30:1 57:1 1498:1 1918:1 1919:1 1920:1 
0 0 3.8580281644799856 0.082747631243516015 2.5629505753675388 0 0 0 8 3:22 5:1 9:2 14:2 16:1 20:1 26:3 30:1 39:2 42:1 168:1 284:1 730:1 1434:1 1921:1 1922:1 1923:1 1924:1 1925:1 
0 0 0 0 0 0 0 0 8 3:6 5:2 51:2 52:1 1050:1 
0 0 0 0 1.123637241971601 0.91591452390531458 0 0 0 3:12.5 14:3 26:1 30:1 39:3 40:1 42:1 103:1 281:1 284:1 503:1 700:1 1926:1 1927:1 1928:1 1929:1 1930:1 1931:1 1932:1 1933:1 1934:1 1935:1 1936:1 
8 0 0 8 8 8 8 8 8 3:0.66666667 30:3 84:1 1937:1 
0 0 0 0 0 0 7.9010873660403869 0 8 1:1 3:4 5:1 83:1 1938:1 
0 0 0 0 0 0 4.5067554548569806 0.71930546922322025 0 3:4 9:1 30:2 182:2 1065:1 1067:1 1939:1 1940:1 1941:1 
3.7695860582503466 0 0 1.0766805109328759 0 4.0085465188513991 1.4816155185669697 0 1.8778741664291694 3:8 5:1 9:1 14:1 42:1 420:1 1942:1 1943:1 1944:1 
1.1895313757060872 8 0.29107900259520436 2.5753620250296669 3.5209836056309491 0 3.1259789762174557 0 1.5765479676806282 3:14 4:1 9:1 14:4 16:1 23:1 30:1 34:1 39:4 42:1 156:1 272:1 624:1 1090:1 1521:1 1789:1 1938:1 1945:1 1946:1 1947:1 1948:1 1949:1 1950:1 1951:1 
0 0 0 0 0 0 8 0 0 3:1 30:1 145:1 
0 0 0 2.2586697760810743 0 0 0 0 0 1:1 3:9 4:1 14:2 16:1 30:1 46:1 51:1 153:1 233:1 627:1 718:1 727:1 835:1 945:1 1826:1 1913:1 1952:1 1953:1 
8 7.1208172233863873 8 0 8 8 8 0.28564040808519753 8 3:1 1537:1 
0 2.9872276905600548 0 0 1.0212057658581624 0 3.7984538844810398 0 2.8368748515971749 3:12.5 13:1 14:1 16:1 23:1 26:2 30:2 40:1 42:1 46:1 51:2 52:1 54:1 82:1 89:1 93:1 117:1 134:1 506:1 1251:1 1456:1 1954:1 1955:1 1956:1 1957:1 
0 0 0 0 0 0 4.4949421900570554 0 0 3:11 9:1 14:1 26:1 30:2 39:2 40:1 89:1 107:1 156:1 253:1 262:1 310:1 325:1 385:1 467:1 1635:1 1958:1 1959:1 1960:1 1961:1 1962:1 1963:1 
5.2208027162869373 0.69573312277651245 0.72550409520344927 0 2.074750735504034 3.9300944630807551 8 0.47651654237050634 0.55145895615607243 3:4 627:1 1776:1 1913:1 1964:1 
8 8 8 0 8 0.67648653916387536 8 0.28900611744858185 8 3:12 9:1 14:1 26:3 42:1 46:1 268:1 497:1 1456:1 1965:1 1966:1 
8 8 6.5966301569123225 6.778815406493873 1.323621341785125 0 7.8106105166134032 4.0295132091488597 8 3:5 20:1 1104:1 1829:1 1967:1 1968:1 
8 8 5.1622577310829998 0 0 8 8 0 1.0915233441175767 3:2 9:1 1969:1 
8 8 2.0800205855691147 3.4513955411910167 2.5339380349642417 8 8 0 8 3:6 39:1 107:1 263:1 467:1 757:1 1465:1 
1.133958097010175 1.7752664052003524 0 0 2.6930152250861483 0.70980885931070359 1.973852686793693 0 1.4049405872709524 3:30 4:1 9:3 26:2 39:2 52:1 107:1 151:1 153:1 156:1 196:1 272:1 373:1 454:1 569:1 713:1 835:1 878:1 1090:1 1311:1 1822:1 1970:1 1971:1 1972:1 1973:1 1974:1 1975:1 
0 0 0 0 0 0 8 0 0 3:8 14:1 26:1 51:1 61:1 107:1 274:1 1358:1 1403:1 
0.51336291397718037 3.6663736536661942 1.8719794594530357 4.2415115231432576 5.1352229577189803 2.1453370925115332 1.4230151140035805 0 2.0238648950031881 1:1 3:11.333333 14:3 16:2 26:2 30:2 31:1 39:2 40:1 42:4 52:1 101:1 189:1 455:1 527:1 714:1 738:1 1197:1 1523:1 1976:1 1977:1 1978:1 1979:1 1980:1 1981:1 1982:1 1983:1 1984:1 
4.6113002635967302 0 0 0 0 0 8 5.64375250565217 1.9817932077006011 3:2 30:1 249:1 419:1 1451:1 1985:1 
0 0 0 0 0 0 7.7789830909599882 0 0 3:7 26:1 39:1 107:1 182:1 313:1 1321:1 1986:1 
4.5768455038911622 2.8328858312073839 0 4.3077884451532622 7.9383453781638966 4.5261293086961185 8 0 0 1:1 3:6 9:1 30:1 40:1 42:1 57:1 78:1 107:1 120:1 123:1 135:1 487:1 1987:1 
8 8 8 2.2504688157751778 8 7.9484909792643563 8 8 5.7087151831469871 3:4 30:2 39:2 46:1 257:1 1823:1 1988:1 1989:1 1990:1 
8 7.1038211731663559 8 3.2653815233030801 0 5.2542761696212859 8 0 8 3:6 42:1 168:1 262:1 543:1 548:1 738:1 
7.613401643540918 0 0.18858948753507954 0 4.2463425900328415 0 0 0 2.7648315912325363 3:12 5:2 26:1 30:1 39:1 40:1 42:2 84:1 1708:1 1991:1 1992:1 1993:1 
1.1691198744795195 6.0738324445300691 0 0 0.58267494683568366 0 3.6164637036067147 0 0.055839313919457373 1:1 3:5 51:1 1994:1 1995:1 1996:1 
0 3.0396715445916813 8 3.0924862814139651 0 6.978790617268908 4.0872014707624924 1.1535742888171299 4.7590017094138366 3:8 9:1 14:1 78:1 240:1 1678:1 1829:1 1997:1 1998:1 
0.21394449939702662 0 1.5525561779728561 0.39109820372791204 1.395655111703034 0 0 0.60918683595893142 0 3:5.3333333 9:1 14:2 16:1 28:1 30:2 37:1 39:1 49:1 151:1 1999:1 2000:1 2001:1 2002:1 2003:1 2004:1 2005:1 
8 4.2756484207262782 0 5.2215765186777023 5.00095295330319 6.100395028526413 2.7298004420677007 2.4191249748146904 5.1894793864340141 1:1 3:16.5 4:1 8:1 9:2 14:4 23:1 30:2 35:1 39:2 40:1 42:1 52:1 61:1 126:1 139:1 239:2 256:1 479:1 551:1 1070:1 1158:1 1726:1 2006:1 2007:1 2008:1 2009:1 2010:1 2011:1 
0 0 0 0 0 0 2.3792621918644303 0 4.0730827267664109 1:1 3:7.5 14:1 26:1 30:2 39:1 40:1 83:1 89:1 727:1 1076:1 2012:1 2013:1 2014:1 2015:1 2016:1 2017:1 
5.1580066340989985 0 0 0 0 1.2290362740398284 0 1.9880688056864526 1.5504064399289912 3:5 14:1 20:1 23:1 30:1 36:1 42:1 137:1 2008:1 2018:1 2019:1 2020:1 
5.743231621466296 4.6880577083194703 4.7927402238755326 0 4.7675641447021206 0.18081815265863518 8 4.1926583238097193 4.2067647098773291 3:6 13:1 14:1 26:1 30:2 40:1 42:1 84:1 452:1 762:1 1648:1 2021:1 2022:1 2023:1 
2.9632269130711073 0.10529602251984242 0 0 0 0 8 0 3.8819260544678511 3:3 252:1 472:1 2024:1 
0 3.4046114424783629 0 1.0683030201161381 0 0 0 8 6.7198043947270918 1:1 3:7 30:1 42:1 46:1 89:1 258:1 730:1 2025:1 
8 8 8 0 8 5.2153882917462067 8 0.98473790240524584 8 3:1 270:1 
8 4.5685221637799902 1.3809676744364263 0 3.1091172079271754 2.5038711476687654 8 0 0 1:1 3:5 39:1 107:1 1060:1 2026:1 
0.79623145004418927 0 0 0 0 0 5.5815507545221008 0.68840891736872534 0 3:2.3333333 30:2 107:1 134:1 1058:1 1142:1 2027:1 2028:1 2029:1 
8 0 0 0 8 0 8 0 6.8445468172752602 3:2.5 30:2 61:1 107:1 741:1 2030:1 2031:1 
3.3956629420203406 8 8 0 2.4249449229866706 8 8 0.26816218732252967 0 3:3 39:1 240:1 2015:1 
1.930619578644414 1.1264434189367296 0 1.061930357820094 2.8180648214738899 0 8 3.5562914559603165 0 3:3.6666667 9:1 30:2 42:1 170:1 199:1 212:1 243:1 667:1 809:1 1197:1 1330:1 1985:1 
5.8794277579934544 5.4263604189211678 6.600782217521977 5.1766436886022058 6.4903018788044751 2.4757345474690173 7.6459867205927159 3.0777878355623471 4.9716231747084221 3:20 9:1 14:2 16:1 39:1 46:1 52:1 265:1 468:1 624:1 791:1 1346:1 2032:1 2033:1 2034:1 2035:1 2036:1 2037:1 2038:1 2039:1 
0 8 2.7984623952765935 2.0972223966462127 7.0618100793349949 3.2668448260830658 0 0 2.4797650067740467 3:8 9:1 14:1 40:1 73:1 1091:1 1147:1 2040:1 2041:1 
8 0.41014256881562655 3.1653808287314869 2.3137065825007199 6.4334683180428547 1.1208701905085292 8 0 0 3:13 14:1 20:1 26:1 40:1 51:1 125:1 835:1 2042:1 2043:1 2044:1 2045:1 2046:1 2047:1 
8 0 3.4332765306278552 0 0 0 8 0 3.3900388190896527 3:3 26:1 663:1 2048:1 
8 0 0 0 0 0.48895811140958806 0 0 0.12640094625321369 3:11.5 5:1 14:1 16:1 23:1 26:1 30:2 31:1 39:2 42:1 46:1 107:1 718:1 757:1 871:1 1301:1 1371:1 2049:1 2050:1 2051:1 2052:2 2053:1 2054:1 
5.1289018731394567 0 0 3.3479814168770372 1.7026536636136378 3.7682981680604879 0.689515418113398 1.9422045533158945 0 3:8 8:1 9:1 14:1 23:1 30:2 54:1 78:1 89:1 262:1 384:1 465:1 844:1 1849:1 2055:1 2056:1 2057:1 2058:1 
3.0660777466036069 0.79345074888146783 0 0.408014772073308 5.6883895511724258 0 1.6848243398094098 1.5547772339588719 0 3:5 14:3 30:4 39:4 40:2 61:1 107:2 262:1 314:1 315:1 348:1 355:1 1235:1 2063:1 2064:1 2065:1 2066:1 2067:1 2068:1 2069:1 
3.8776625758720624 0.73156662656375027 6.1366582315431195 0 2.6336981150073213 1.764557039064218 8 0.17784760774844921 0 3:9 26:1 31:1 39:1 46:1 2070:1 2071:1 2072:1 2073:1 2074:1 
8 8 3.1564212187118921 1.8332401886467473 1.3313812179575262 0 8 4.3349230154384619 3.8972806796445858 1:1 3:5 9:1 30:1 212:1 2075:1 2076:1 
6.8579248137656039 4.9546236748936074 4.4456094666411614 1.546163947018987 4.4139225305065635 4.1205764084810221 8 4.1377429920255402 4.8605562642888387 3:5 20:1 42:1 2077:1 2078:1 2079:1 
1.7191142924399583 3.3396851787095652 3.1760705657507295 3.8991279446543756 4.0983584886944007 3.5597591577861381 6.3147537478252715 3.4387287107286961 0.041818074126125752 3:7 9:1 14:2 30:3 39:3 46:1 61:1 93:1 107:1 207:1 272:1 379:1 467:1 699:1 714:2 924:1 977:1 985:1 1268:1 1556:1 1926:1 1991:1 2080:1 2081:1 2082:1 2083:1 
0 0 0 0 1.6948750461905591 0 0 0 1.4721301980985322 1:1 3:13 5:2 13:1 14:1 16:1 23:2 26:1 30:1 40:1 51:1 89:1 126:1 134:1 265:1 289:1 384:1 385:1 467:1 1324:1 1339:1 2084:1 2085:1 2086:1 2087:1 2088:1 
0.9959079984798066 0.73123328135205778 0 0 0 1.6977944866585555 0 0 0.66802569151293412 3:20 9:1 14:2 16:1 23:2 26:1 39:1 42:1 84:1 107:1 289:1 380:1 384:1 1324:1 2084:1 2089:1 2090:1 2091:1 2092:1 
3.065241216162176 0 0.52181499803761544 3.1288954085208154 2.04327039162983 0.14337576261117799 5.4723978824456996 3.0554622766005295 1.9997119468108757 3:6.6 8:1 14:9 20:2 26:4 30:5 107:1 272:1 417:1 1083:1 1319:1 1877:1 2093:1 2094:1 2095:1 2096:1 2097:1 2098:1 2099:1 2100:1 2101:1 2102:1 2103:1 
1.8791967225692965 0 0 0 0 1.2372824396182402 8 0 0 3:2 783:1 1084:1 
0 0 0 0 0 0 1.095517770764485 0 0.47242590286926189 3:10 9:2 14:3 20:2 30:2 40:2 42:1 61:1 83:2 89:1 265:1 272:1 498:1 835:1 844:1 921:1 1985:1 2104:1 2105:1 2106:1 2107:1 2108:1 2109:1 2110:1 2111:1 2112:1 
5.0609588726368777 8 3.8719329699360943 1.8379101793408341 4.2051308284183948 3.4424643766073966 8 2.7020957575522324 5.2253010932368866 3:6 9:1 39:1 40:1 51:1 2113:1 2114:1 
0 0 0.097145307398221081 0 0 0 5.2718676019316684 0 2.0550827251550263 3:5 51:1 482:1 1888:1 2115:1 2116:1 
4.4242122275722728 1.9255562527674652 8 0 0 1.8326470433018225 8 4.0476321471621324 0 3:6 14:1 26:1 467:1 1044:1 2117:1 2118:1 
0.56059661198571009 0 0 0 0.31020408083466472 0 0.865964761418897 0 0 3:15.5 4:1 9:1 23:1 26:2 30:1 32:1 37:1 39:3 40:1 46:1 84:1 91:1 651:1 667:1 730:1 835:2 962:1 1233:1 2119:1 2120:1 2121:1 2122:1 2123:1 2124:1 2125:1 2126:1 2127:1 2128:1 
8 0 0.31817054479376661 0 0 0 6.4625547009931452 0 0 3:4 83:1 562:1 1690:1 2129:1 
0 0 0 0 1.1593656733465112 0.4275101694039119 2.1325172482848771 0 0 3:6.3333333 4:2 14:2 30:2 36:1 39:1 51:1 482:1 672:3 1096:1 1286:1 1432:1 1638:1 2130:1 2131:1 2132:1 2133:1 
2.2965612942119518 1.2707361890379494 2.5801863604622013 2.244040777982454 7.1705300699863592 8 3.5246280008691877 8 0 3:5.5 9:1 14:1 26:1 30:1 40:1 477:1 497:1 551:1 650:1 2134:1 2135:1 2136:1 
5.0529010400162875 1.940026850067732 1.9777970616739986 1.3059927030301222 2.7660165694084324 0 1.0144130744266939 0 6.5991443007337285 3:11 9:1 14:1 20:1 22:1 26:1 30:1 39:1 42:1 61:1 207:1 396:1 1021:1 1086:1 1191:1 1434:1 2137:1 2138:1 2139:1 2140:1 2141:1 2142:1 2143:1 2144:1 
0.93134523059158947 3.9066122262458336 5.073082936123595 2.2972191631976004 5.4556219214563022 2.9449440024187803 1.7548875209449031 0 2.5188952361852905 3:8 8:1 9:2 14:2 16:1 20:2 26:2 30:2 39:1 42:2 316:1 490:1 624:1 703:1 1397:1 1662:1 1937:1 1978:1 2145:1 2146:1 2147:1 
3.5798338695902223 2.8097652605307686 4.4902256319078662 2.2191437769299944 4.1737312291380695 1.8482544820538926 3.0100989251965662 2.7867857082935652 4.7136476160518468 3:21 5:1 9:1 14:5 30:1 39:1 40:1 42:1 46:1 168:1 272:1 316:1 1647:1 2148:1 2149:1 2150:1 2151:1 2152:1 2153:1 
0 0 0.63881772118355762 0.92272880131143264 0 0.054854474419761899 0 0.094463089229430378 0 3:15 9:2 14:2 30:1 39:2 107:1 125:1 189:1 239:1 533:1 1368:1 2154:1 2155:1 2156:1 
0 1.5325836461997953 4.1011339831383369 0 0 0.04355889498452737 0.90094886152141107 0 0 1:1 3:10 5:1 14:1 42:1 106:1 153:1 640:1 2157:1 2158:1 2159:1 
0 0 0 0 0.90031681026120514 6.0170894036438156 0 1.6867803471714584 6.0838828780260705 3:8 9:1 14:3 30:1 39:2 42:1 57:1 168:1 490:1 500:1 503:1 743:1 1568:1 2160:1 2161:1 
0.04310377171595723 8 6.3652439951172699 1.0212736108028775 8 8 8 0 8 3:8 14:1 31:1 39:1 51:1 91:1 136:1 272:1 730:1 
8 8 8 1.0411569842762536 7.9135298483736145 0.1115973120305787 7.6595894125769473 0.99472689075879672 8 3:11 5:1 9:1 26:1 46:1 61:1 151:1 174:1 726:1 2162:1 2163:1 2164:1 
6.2045110882488324 0 0 1.9109976349879485 5.7275761666998006 5.4427028287427062 8 4.1317239803637396 0 3:3.5 9:1 30:1 42:1 78:1 262:1 2165:1 2166:1 2167:1 
3.537555832387218 2.2694210058466964 8 0 2.1845294479633908 5.5790623588844994 7.9088313071571736 1.8617303861480081 3.6126891284613638 3:6 14:1 39:1 42:1 1216:1 1384:1 2168:1 
0 6.1781600571412207 0 2.8819930952333506 1.481981591783692 0 4.8476447244126781 0 2.4693344315813119 3:7 14:1 40:1 51:1 84:1 504:1 730:1 2169:1 
8 2.2846357382642091 8 0.30474074849493721 8 2.3193369263086616 2.0229250287889378 0 6.8448187278780015 3:5 42:1 103:1 2170:1 2171:1 2172:1 
0.3111175271024707 0 0 0 0 0 0 0 6.8649422108766984 3:7 14:1 26:1 30:1 46:1 51:1 54:1 83:1 94:1 151:1 730:1 1319:1 2177:1 2178:1 2179:1 2180:1 
0 0 8 0 0 0 8 0 8 3:11 14:2 42:2 70:1 103:1 122:1 168:1 240:1 241:1 262:1 
2.8114722985249339 2.3471772646338591 3.049781446114757 2.8253192205488378 1.9373059696120483 0 1.0276116083078761 0.044865388017234796 3.5199122707305288 3:31 4:1 14:5 20:1 23:1 25:1 39:2 42:1 46:2 70:1 151:2 314:1 438:1 490:1 567:1 835:1 1186:1 1233:1 1300:1 2181:1 2182:1 2183:1 2184:1 2185:1 2186:1 
7.3515735937977338 2.8596485825509763 8 1.9026221401119119 8 1.204811762289532 8 0.5027545136531435 8 3:9 5:1 14:1 26:1 30:1 42:1 78:1 240:1 304:1 2129:1 2187:1 
4.1932624447835698 3.3763366700914483 5.2588406066425275 0 0.48033036969977061 3.4741750646763569 8 5.8393131479395093 3.2151659931799728 3:5 14:2 898:1 2188:1 2189:1 
8 2.7445397687235529 1.2074497848163446 0 2.0493547329835087 0.12508165014314232 5.0928062829908365 0 0.41803948708893374 3:7 5:1 14:1 42:1 107:1 776:1 2190:1 2191:1 
1.9818955219299599 4.7018257511000643 0 3.7523323517052218 2.8817157629942609 2.1050262973780698 0 0 4.8675230933569082 1:2 3:18 5:1 9:1 14:6 16:4 30:1 39:2 42:2 51:1 52:1 84:2 107:1 163:1 490:1 727:1 1368:1 1577:1 1823:1 2179:1 2192:1 2193:1 2194:1 2195:1 2196:1 2197:1 
0 0 0.41810005347514673 0.45149781696919927 2.4325212578109783 0 2.0311973706194326 0 0 3:19 9:1 13:1 14:4 16:1 26:5 30:1 40:1 42:5 51:1 52:1 203:1 239:1 240:1 484:1 490:1 660:1 772:1 925:1 1322:1 1424:1 1577:1 2198:1 2199:1 2200:1 2201:1 2202:1 2203:1 2204:1 
1.8037650022730372 0 0 0.098400491400600337 0.79827744923943578 0 3.6748398029456997 0 0 3:7 14:1 26:2 30:1 57:1 61:1 84:1 130:1 141:1 325:1 575:1 885:1 1343:1 2163:1 2205:1 
5.6764828155961062 8 6.2709893750460628 3.8895342186228294 8 0 8 0 8 3:22 14:2 23:1 26:2 39:1 40:1 51:2 107:1 320:1 348:2 379:1 467:1 551:1 854:1 1509:1 2206:1 2207:1 2208:1 2209:1 
7.2625484141071341 3.976269374696435 2.5490307112335069 2.9389776639907716 3.0147480851464339 3.3287372273388027 8 2.0710521101815633 3.5811176948371384 3:6 14:1 42:1 1776:1 2210:1 2211:1 2212:1 
8 5.2083335905368857 3.5673320769117582 3.4998958402637843 7.745351328073375 1.7770778897273529 4.2539889588204876 1.9362437332224056 3.5285920526242074 1:1 3:23 14:6 23:1 26:1 39:1 40:1 42:1 91:1 107:1 532:1 956:1 1322:1 2173:1 2213:1 2214:1 2215:1 2216:1 2217:1 
8 0 0 8 8 8 0 0 8 3:3 4:1 30:1 103:1 663:1 672:3 
8 0 1.8819677801136627 0.72315222273273627 1.1458692287145467 0.78569868695188227 0 1.1321364017865707 1.1388993307912281 3:6.5 14:1 16:1 20:1 23:1 30:2 46:1 189:1 1319:1 2218:1 2219:1 2220:3 2221:1 
2.6966017013737424 6.7512346255137752 3.7094071501522685 7.0706869398219236 4.9944371716986717 2.3399655669093056 0 0 8 3:26 4:1 9:1 14:3 39:2 42:1 46:2 51:1 61:1 103:2 272:1 289:1 314:1 596:1 1010:1 1322:1 1849:1 2219:1 2222:1 2223:1 2224:1 2225:1 
0 0.16222121443838439 0.9287811491251905 0.11402438301761267 5.9038857853445164 2.0486421151360346 8 0 0 3:8 4:1 14:1 23:1 26:1 30:1 39:1 197:1 314:1 672:3 1319:1 1322:1 2226:1 2227:1 2228:1 2229:1 
0.41868653582896043 0.29196811059679767 0 0 0 0 0 0 0 3:16 14:7 20:1 26:1 30:1 39:1 40:1 89:1 107:1 252:1 314:1 556:1 570:1 666:1 1070:1 1163:1 1322:2 2186:1 2230:1 2231:1 2232:1 2233:1 2234:1 2235:1 2236:1 2237:1 2238:1 
1.6448437011703483 0 2.8574277388733487 0 0.22857796477382045 0 2.995674857612852 0 0 3:37 4:1 9:1 14:3 23:1 25:1 26:3 32:1 36:1 37:1 39:2 40:2 42:2 46:1 139:1 202:1 272:1 835:1 969:1 1146:1 1233:1 2239:1 2240:1 2241:1 2242:1 2243:1 2244:1 2245:1 2246:1 2247:1 2248:1 
6.9195800331204467 4.7662989378160363 4.4281156932172738 5.1164301533748962 2.6853568127719081 2.591846901095701 8 2.9881149534244806 6.3736768132115023 1:1 3:5.5 14:2 20:1 30:1 40:1 46:1 124:1 347:1 548:1 2249:1 2250:1 
0 0 0 0 0 0 1.4472491534832197 0 8 3:6 5:1 23:1 51:1 141:1 2251:1 2252:1 
0 0 0 0 0 2.4580866774088626 8 0 0 3:4 26:1 727:1 1462:1 1937:1 
1.6171341202219709 0 0 0 0.9468295390493181 0 4.4100073826252402 0 0 3:4.3333333 9:1 13:1 26:1 30:3 51:1 54:1 73:1 78:1 313:1 419:1 556:1 684:1 2253:1 2254:1 
8 0 0 0 0 2.0160608084815297 7.1159413203578952 0 1.6880819969546625 3:3.5 16:1 23:1 26:1 30:3 107:1 191:1 262:1 395:1 397:1 456:1 783:1 1229:1 1635:1 1937:1 2255:1 
4.432665727601071 3.9571029217096743 3.3577140971465176 3.9770273772636742 4.4726679038014021 3.4283011514322506 8 4.2163041076298775 3.3670687376884967 1:1 3:7.5 14:4 16:1 30:2 39:2 272:1 2180:1 2256:1 2257:1 2258:1 2259:1 2260:1 
4.9499138974607089 5.6395394854993386 0 3.6441545559714208 1.6019161639387391 0.82212452079569498 6.724322210621283 0 0 3:14.5 9:3 14:2 30:1 39:2 40:1 42:1 46:1 61:1 156:1 193:1 395:1 463:1 562:1 623:1 656:1 754:1 873:1 894:2 1155:1 1320:1 2261:1 2262:1 2263:1 2264:1 2265:1 
0 0.43941045903335685 0 4.6703561548526658 2.3187697805634655 0 0 1.7720632297592331 0.53202659511907546 3:7.5 14:3 30:2 42:1 46:1 89:1 144:1 145:1 1337:1 2038:1 2266:1 2267:1 2268:1 2269:1 2270:1 
8 0 8 0 8 8 8 0 0 3:2 5:1 240:1 
8 6.5063609841748606 3.8271439983815134 0.80040178780186411 8 5.071716303891173 8 2.8613316510941891 0.14502455536844874 1:3 3:11 8:1 14:1 26:1 61:1 258:1 418:1 1577:1 2271:1 
8 0 0 0 0 0 0 0 0 3:7 5:1 14:1 20:1 30:1 46:1 78:2 419:1 471:2 597:1 814:1 947:1 1146:1 2272:1 
0 8 8 7.1890482740163408 0 6.9556788630373303 8 0 0 3:6 9:1 46:1 51:1 52:1 243:1 726:1 
0 2.457265346001563 1.8644907605978644 0 0 0.62838632549334161 6.4622354653558638 2.1717602507196165 4.0395249467908316 3:3 20:1 471:1 882:1 
0.85652372460873105 0 0 2.5495433694396654 6.563761277626714 0 0 0.80636999019004674 2.6608340773436887 1:2 3:16.5 8:1 9:1 14:2 20:1 26:1 30:1 39:2 46:1 89:1 106:1 153:1 175:1 196:1 239:1 265:1 289:1 476:1 882:1 1158:1 2273:1 2274:1 2275:1 2276:1 2277:1 2278:1 2279:1 2280:1 2281:1 2282:1 2283:1 
8 8 8 3.0691442579458439 3.5941084032995074 8 8 5.8482638723168607 0.67273273069129624 3:3 14:1 548:1 2284:1 
0 0 0 0.53241248786834072 2.2117507862196417 0 4.985620085583907 0 1.992788068698077 1:1 3:16.5 5:2 9:1 14:3 16:1 23:1 26:7 30:1 39:1 42:1 84:1 107:1 1071:1 1343:1 1909:1 1916:1 2285:1 2286:1 2287:1 2288:1 2289:1 2290:1 2291:1 2292:1 2293:1 
0 0 0.43122564768644744 0 0 0 0 0 0 3:3 14:1 15:1 20:1 30:2 1058:1 1142:1 1431:1 2028:1 2294:1 2295:1 
6.4657882206862984 0.56200789006401364 8 3.7838610884132056 6.1776148917137892 5.4874324755922208 1.2478561962114303 0 7.5409783673584405 3:7 9:1 23:1 107:1 178:1 1508:1 2296:1 2297:1 
0 3.5498961043875132 2.4577681498353003 1.7298721988175123 3.8275814444747294 1.1578718728214596 0.71364246321724867 0 0 3:6 39:1 51:1 130:1 134:1 1916:1 2298:1 
3.0352157997783906 0.91282533849691738 0 0 0 0.2840140981045724 3.1883504544328818 0.71337048365407119 0 3:8 14:1 30:1 39:2 61:1 149:1 212:1 741:1 1556:1 1888:1 2299:1 2300:1 2301:1 2302:1 2303:1 2304:1 2305:1 
8 8 1.884838040577818 0 8 0 8 8 8 3:1 1004:1 
0 5.1716869922828606 3.4279229466279002 1.1354269336645642 0 2.1680399893766782 3.5028044683433688 1.721880668373923 0 3:6 14:1 46:1 89:1 111:1 819:1 2306:1 
0 0.66194288002023915 4.5576363186253497 0 1.1338049475083443 0 8 0.6637395404688794 2.851050766574863 3:10 14:2 20:1 26:1 36:1 2307:1 2308:1 2309:1 2310:1 2311:1 
0.79233937223632966 0 0.62742492449364473 0 0 0 8 0.71825144169660482 0 3:4 30:1 42:1 83:1 436:1 741:1 926:1 2312:1 2313:1 2314:1 
4.9833186416067816 0 0 0 0 0 1.791941982236676 0 3.1347595049156358 3:6.5 14:1 22:1 30:1 40:1 46:1 1004:1 1147:1 1657:1 1862:1 1865:1 2315:1 2316:1 2317:1 2318:1 
8 0 8 7.9598626547727616 8 8 6.212499727391636 0 8 3:7 26:1 52:1 57:1 94:2 103:1 2319:1 
5.9378335510356051 0.13410041776638945 1.8657965075093239 0 3.0662197030890734 0 8 0 1.2229361410876227 3:5 26:1 40:1 61:1 252:1 2320:1 
7.5500153216320669 8 0 3.496658060334195 8 0 0 0 8 3:10 14:1 26:1 39:1 40:1 103:1 141:2 182:1 624:1 2321:1 
0.016436849675540308 8 8 0 0 0.68237707476102427 8 3.2095468303847769 7.6570142462487611 3:4 14:1 906:1 1689:1 1694:1 
0 8 8 3.9946006151056355 8 8 8 0 8 3:2 35:1 548:1 
0 0 0 0 0 0 8 0 1.1641033838642267 3:2 471:1 2322:1 
8 8 8 5.890300306724499 8 1.8616854523370092 8 0 8 3:7 16:1 23:1 40:1 52:1 174:1 809:1 2323:1 
8 6.7513221584127718 8 0 8 8 8 3.2913155750157301 0 3:2 548:1 2324:1 
0 0 0 0 7.0350278047698431 0 0 0 8 3:6 5:1 9:1 52:1 83:1 1779:1 2325:1 
7.764417341171038 8 8 0 6.8737819011584609 1.9819329160549644 8 0 8 3:4 26:1 40:1 1147:1 2326:1 
3.9347564360497849 0 0 0 8 0 8 8 5.805329295812534 3:0.75 30:4 61:1 1052:1 2327:1 
6.7130582636739939 4.5706709998811093 1.8996373938927245 2.9677262230739587 1.4280870971677537 0 0 3.8962374183854234 3.0108488278495256 1:1 3:25 14:6 30:1 40:1 42:2 49:1 73:1 113:1 151:1 533:1 543:1 575:1 2328:1 2329:1 2330:1 2331:1 2332:1 2333:1 2334:1 2335:1 
6.0268688388768501 8 8 6.7267310670810332 7.202649044229859 7.0967381160927632 8 2.8080380680606019 8 3:6 39:1 42:1 854:1 1336:1 2336:1 2337:1 
2.8266045585336474 5.7471931023375475 0.6890967050574951 0 6.2663455317655892 0 4.7826255026606388 0 0.6527198677622037 1:1 3:7 4:1 5:1 23:1 30:1 39:1 46:2 120:1 591:1 2195:1 2338:1 2339:1 2340:1 2341:1 
8 8 8 0 3.1671577749650166 8 8 8 8 3:1 1004:1 
6.330774094894621 0 0 0 0 2.5231964685146844 3.903779223676533 0 0 1:1 3:9 9:2 14:3 23:2 30:2 39:1 42:1 52:1 61:1 107:1 191:1 835:1 1090:1 2314:1 2342:1 2343:1 2344:1 2345:1 2346:1 2347:1 2348:1 2349:1 2350:1 2351:1 
3.9445839833046872 3.9669901267152143 0 3.7246991230207191 8 0.12997536863953851 2.8319512555833795 0 0.79077674793127539 3:12 4:1 9:1 13:1 14:2 20:2 23:2 26:2 30:2 39:1 40:3 42:1 46:2 191:1 230:1 658:1 844:1 956:1 957:1 1451:1 2251:1 2352:1 2353:1 2354:1 2355:1 2356:1 2357:1 2358:1 2359:1 2360:1 2361:1 
6.6194227775086052 4.132062788951365 6.113101601725484 3.9134667906586853 5.1556610355194845 2.6809017671123754 2.8046462737139275 0.65175120947384091 6.2055057435792706 1:1 3:34 9:1 14:2 39:2 40:2 42:2 46:1 103:1 107:1 141:1 153:1 182:1 314:1 470:1 472:1 532:1 689:1 794:1 2362:1 2363:1 2364:1 2365:1 2366:1 2367:1 2368:1 2369:1 2370:1 2371:1 2372:1 2373:1 
5.0375716495242271 2.7264930841385882 0 0 0 2.2741274072989728 0 0 0 1:2 3:14.5 8:1 14:3 20:1 26:1 30:1 31:1 39:2 57:1 61:1 83:1 107:1 191:1 335:1 408:1 487:1 551:1 556:1 727:1 983:1 1965:1 2374:1 2375:1 2376:1 2377:1 2378:1 
6.618937603246156 0 0.76930056785459133 2.2765808807670753 3.3714670962509148 0.17458672097604128 6.5128020202499561 3.1729331956914959 1.1359517917102988 3:4 14:2 26:1 30:3 40:1 663:1 714:1 809:1 2379:1 2380:1 2381:1 2382:1 2383:1 
4.2954308334430902 0.54178065290919863 1.9603901235915722 4.0930134619547873 3.9654453846940863 5.7635790696515663 6.2626400048912982 1.690301303347894 4.4512497228880461 3:9 4:1 14:3 23:1 26:1 30:1 36:1 39:1 40:1 423:1 1018:1 1713:1 1953:1 2384:1 2385:1 2386:1 2387:1 2388:1 
8 8 2.8143826711643136 8 8 0 6.1309290629308464 0 0 3:5 14:1 26:2 30:1 40:1 151:1 201:1 216:1 1043:1 1321:1 2389:1 
5.0124134386838266 4.0331598025678241 6.8269707785799705 1.4594513702758509 5.8477674324228239 2.7941882084512542 5.8840285428280703 3.9457730817412013 2.5748333008626698 3:12 9:1 14:1 23:1 26:1 30:1 39:1 42:1 1234:1 1365:1 2390:1 2391:1 2392:1 2393:1 
4.9668575046144952 3.0496621857908308 2.4858096889514667 4.913883316198806 7.1569234298233306 1.6669312110954639 1.6093456255079597 0 2.0296567671960233 3:15 8:1 14:4 20:2 23:1 26:1 30:1 39:2 40:1 46:1 107:1 141:1 183:1 240:1 262:1 1341:1 1410:1 2394:1 2395:1 2396:1 2397:1 2398:1 2399:1 2400:1 2401:1 2402:1 2403:1 
7.6399879465548484 8 6.19167449342038 8 6.8286104377764589 4.1712967947420427 3.1081731943956177 0 5.7377154797826861 3:24 5:1 9:1 14:3 20:1 23:1 26:2 39:1 41:1 42:1 46:1 89:1 151:1 201:1 223:1 947:1 2350:1 2404:1 2405:1 2406:1 2407:1 2408:1 
0 1.5229937587960125 0 0 0 0 0.63730316591941794 0 0 3:8.5 20:1 30:1 40:1 243:2 262:1 395:1 894:1 1074:1 1148:2 1758:1 2409:1 2410:1 2411:1 2412:1 2413:1 2414:1 
0 3.2019115375696181 4.3055469452009154 0 6.2967950979358127 8 8 6.7982124253735634 8 3:1 642:1 
6.0254086651530994 3.6905428270110905 0 6.9735355744238889 5.4758575737916058 7.5334133223409339 7.5138381577993245 0 1.0408018603841931 3:10 9:1 14:1 42:1 73:1 107:1 189:1 313:1 1074:1 1076:1 2415:1 
1.2636301409241717 0 0 0 0 0 0 0 0 3:35 4:1 5:1 9:2 14:4 16:1 20:1 25:2 26:1 36:2 39:1 40:1 41:1 42:1 46:1 89:1 129:1 158:1 1159:1 2350:1 2404:1 2405:1 2416:1 2417:1 2418:1 2419:1 2420:1 2421:1 2422:1 2423:1 
6.1640732388605404 8 0 0 0.44610804047435276 0 8 0 4.8519866321347029 3:2 9:1 2427:1 
1.9639190385919698 0 0 0 1.9248944593643704 0 3.0463979559617402 0 0 3:26 4:1 25:2 26:1 36:2 40:1 42:3 82:1 84:1 89:1 151:1 253:1 314:1 341:1 395:1 594:1 873:1 894:1 1343:2 1673:2 2428:1 
3.1726163431557688 1.2560408805961942 0 4.5089602052616922 2.0016624918308654 0 7.1565863790683331 0 1.6656652425890652 3:6.25 14:1 20:2 26:2 30:3 39:4 40:1 83:1 197:1 240:1 467:1 1432:1 1521:1 1732:1 1798:1 1989:1 2334:1 2429:1 2430:1 2431:1 2432:1 2433:1 
7.2061131524339528 3.0786439154294087 1.5649988419626129 0 6.0754959891497933 0 2.7299887979053361 0 0 3:6.6666667 14:2 26:1 30:3 39:2 40:2 42:1 54:1 70:1 107:2 657:1 704:2 1557:1 2434:1 2435:1 2436:1 2437:1 
3.2657666192692485 6.1702075985224276 2.5494571886870445 1.7030043927296639 2.6176508227736375 0 7.7088569976157473 1.9826917662010799 3.4205347068395655 3:21 14:3 20:1 23:1 39:1 42:1 52:1 141:1 149:1 325:1 498:1 575:1 1268:1 1556:1 2438:1 2439:1 2440:1 2441:1 2442:1 2443:1 
1.8237093878222399 6.5273125993801164 5.474992499350507 1.2415819887801749 2.3623110916697625 3.7165476122485113 8 2.6680857807262557 7.9319123470861559 3:7 42:1 151:1 467:1 1553:1 2444:1 2445:1 2446:1 
5.9370845562709738 5.4495496507838315 3.3153310286389517 1.8136009891615092 3.4129169151506913 5.7624260759631403 6.3072212678529942 0 4.6139640999937379 1:1 3:10 14:6 20:1 26:2 30:2 31:1 39:1 380:1 384:1 422:1 560:1 575:1 1256:1 1268:1 1556:1 1666:1 2447:1 2448:1 2449:1 2450:1 2451:1 2452:1 2453:1 2454:1 2455:1 
8 7.910268491106887 7.3951958454812718 1.7104016952027272 8 8 8 5.6937669953991223 8 3:4 14:1 42:1 2456:1 2457:1 
2.2276181544780251 4.2014025082625528 8 0 5.3614737573398363 0 8 1.4311017073572156 5.9125103822527727 3:5 26:1 764:1 2167:1 2458:1 2459:1 
8 0 4.2582917776818405 0 8 0.14072913139613144 8 0 8 3:5.5 14:1 26:1 30:1 31:1 103:1 241:1 265:1 395:2 2464:1 2465:1 2466:1 
8 8 0 0 0 0 8 0 0 3:2 39:1 75:1 
0.91728331336998448 0 0 0 0 6.535507729432287 0 0 0 3:8.6666667 4:2 14:4 30:2 36:1 39:2 51:1 52:1 436:1 482:1 532:1 667:1 672:3 726:1 727:1 828:1 2467:1 2468:1 2469:1 2470:1 2471:1 
8 1.8436737367913154 7.3816265635319631 0 6.4039716600436405 2.5619297502814802 8 8 8 3:3 42:1 715:1 2472:1 
3.8714771785725226 2.8562625015946312 5.9141997050553181 0 4.6056208525141846 6.4195522362371085 0 8 3.6318020457195264 1:1 3:18 4:1 14:2 42:1 89:1 155:1 224:1 225:1 229:1 551:1 676:1 1690:1 1699:1 1768:1 2251:1 2473:1 2474:1 
2.9457441972709941 2.1776703435554992 2.0136916166560841 0.30198588184325853 0 0 1.9241075661180982 0 5.7489864336737009 3:12 9:1 14:2 39:1 46:1 51:1 81:1 1730:1 2475:1 2476:1 2477:1 2478:1 
2.434796333100655 2.0626963049236089 0 0 1.4065839457961893 0 8 2.0749397206082385 3.694533693208649 1:1 3:6 14:2 26:1 30:3 39:1 42:1 122:1 243:1 313:1 395:1 472:1 983:1 1090:1 2479:1 2480:1 2481:1 2482:1 2483:1 
0.21766755606591145 0 0 0 0 0 0 0 6.7476926505896673 1:1 3:11.5 8:1 9:2 16:1 26:2 30:1 42:1 52:1 61:1 83:2 84:1 107:1 680:1 810:1 1459:2 1862:1 1865:1 2484:1 2485:1 2486:1 
0 2.7233992723513949 0 0 0 0 3.2181870299252293 0 1.6336389209840918 1:2 3:6.75 5:2 14:3 16:1 30:3 39:1 40:1 42:2 57:1 61:1 107:1 109:1 122:1 359:1 395:1 1674:1 2481:1 2487:1 2488:1 2489:1 2490:1 2491:1 2492:1 
2.9710445387356446 0 0 1.6135300321429515 6.9971905515999744 0 0 0 5.6030856476528967 1:1 3:12.5 5:1 9:2 14:1 30:1 39:1 40:2 42:1 61:1 103:2 151:1 168:1 265:1 543:1 623:1 789:1 898:1 1368:1 2491:1 2493:1 2494:1 2495:1 2496:1 
1.2409363729675533 2.4563255161925563 0 0.68721234066060344 8 4.5465294896332251 0 0 3.9647611926171478 3:13.5 5:3 9:1 14:3 30:1 39:3 42:3 51:1 106:1 262:1 329:1 718:1 1076:1 1595:1 2198:1 2497:1 2498:1 2499:1 2500:1 2501:1 2502:1 
2.5806153045228966 4.6870364481050775 2.2120590179975625 2.7647102546472055 3.6921999425601535 4.7846708943853429 0 0 5.2273353790278669 1:1 3:24 9:1 16:1 30:1 39:1 51:1 61:2 89:1 125:1 240:1 265:1 272:1 283:1 420:1 422:2 1459:1 2205:1 2503:1 2504:1 2505:1 2506:1 2507:1 2508:1 
0 6.8712360204948286 0.68363113538347442 0 0 0 2.390769952081063 0 4.0826922911321111 3:4 39:1 83:1 2509:1 2510:1 
2.0819111850303038 0.42715092022610529 1.0900678635183612 2.2479851503113082 1.9621022562125541 0 6.7914323757820831 0 0.35046514517909233 1:1 3:13.5 9:1 14:1 20:1 26:2 30:1 40:1 84:1 107:1 240:1 262:1 314:1 620:1 639:1 684:1 1509:1 1844:1 2511:1 2512:1 2513:1 2514:1 2515:1 2516:1 2517:1 2518:1 2519:1 2520:1 
0 2.1873769543776036 0 0 0 0 8 0 0 3:4 40:1 51:1 2521:1 2522:1 
5.7738936632381321 6.2955880794828998 4.5837135456442777 0 2.6799988166259023 0 5.9021590427180044 0 8 3:8 16:1 39:1 51:1 125:1 178:1 551:1 2052:1 2523:1 
0 0 0.30812899889817225 0.15592729655703372 0.43140229095280097 0 0 0 1.6872618696003159 3:9.5 9:1 14:2 26:1 30:1 39:2 178:2 252:2 419:1 1451:1 2299:2 2524:1 2525:1 2526:1 2527:2 
0.75331705876297506 2.1055905893052045 2.3085327780942198 0 6.2294039661787366 0.65304772484740725 2.1491560896893702 0 0 3:9 16:1 26:1 39:1 89:1 1127:1 2532:1 2533:1 2534:1 2535:1 
1.4279965514483184 0 0 0 2.6796855910358199 0 0 0 0 1:1 3:10.333333 5:2 8:1 9:2 14:3 26:1 30:2 40:1 42:3 61:1 252:1 352:1 528:1 1052:1 2023:1 2144:1 2536:1 2537:1 2538:1 2539:1 2540:1 2541:1 2542:1 2543:1 2544:1 2545:1 
0 0 0 0 0 0 0.5899813270138814 0 0 3:3 14:2 30:1 145:1 2532:1 2546:1 2547:1 
3.4286508680008509 8 0 0 8 0 8 0 5.9522583694254791 3:2 1776:1 2548:1 
5.9264509774151772 8 7.0360498198127344 0 8 8 8 0 8 3:10 9:1 14:1 51:2 107:1 109:1 422:1 854:1 2549:1 2550:1 
2.7074939067833901 2.1784113017954421 0 1.2038107610494539 1.6703606944885592 0 1.3340161850315324 0 1.8127484796029532 3:8.3333333 4:2 14:2 25:1 26:1 30:2 36:1 40:2 46:1 49:1 107:1 450:1 604:1 623:1 1693:1 2525:1 2551:1 2552:1 2553:1 2554:1 2555:1 2556:1 2557:1 2558:1 
6.9254769135366461 0 2.9347948498220626 0.5531320579935195 0 0 4.2039225321314921 2.0755571792261609 1.5736718781131929 3:9 26:1 30:1 39:1 61:1 252:1 456:1 648:1 766:1 2557:1 2559:1 
8 8 8 5.3355671899434629 4.1621457588487161 8 8 8 8 3:4 30:1 120:1 153:1 1346:1 2560:1 
5.0392177812453394 7.6268862216385163 2.0802135543358182 0 0 2.4433560641843752 8 1.5205149486438443 3.5483050604855713 3:4 888:1 1307:1 2561:1 2562:1 
6.1320267332689875 0 0 0 0 0 1.417029488899288 0.13657660130677687 0 3:3 5:1 30:1 1084:1 2563:1 
8 8 4.8444389022482692 1.4778403635191524 6.8603686707396623 8 8 4.4033530326074359 3.9999141676412182 3:5 14:1 20:1 39:1 2564:1 2565:1 
8 8 8 0 0 4.3131038510983828 8 2.0005732583516052 0 3:2 126:1 2566:1 
8 8 8 0 6.363573380953679 7.5085952140684835 8 1.3927844302149603 6.8909115688041211 3:2 9:1 2567:1 
8 8 3.1904622659173367 3.2094063867161546 0 8 8 8 8 3:6 14:1 30:1 42:1 107:1 153:1 1673:1 2052:1 
6.5936992460202317 8 8 8 0 0 8 0 3.7443241061802968 3:10 14:1 26:1 40:1 46:1 212:1 623:1 2568:1 2569:1 2570:1 2571:1 
8 8 5.7114117366230399 0 8 2.3630649303865043 8 0 0 3:3 107:1 1451:1 2572:1 
8 8 0 0 8 0 8 0 7.8997753154771413 3:1 22:1 
0 0 0 0 1.7887321063255699 0 0.63504529530802467 0 1.3476287247891507 3:5 14:1 26:1 30:1 39:1 304:1 1648:1 2299:1 2573:1 2574:1 2575:1 2576:1 
8 0.51782253036084069 5.3219768500829225 7.0568779577710874 7.5222005614705783 6.2450799883362116 8 3.7902438465224089 3.2076148990756446 3:3 16:1 30:1 42:1 61:1 262:1 803:1 2577:1 
8 4.8230401764549962 0 6.8288185972995308 3.7173572324570188 3.39023768415931 0 4.5076580338855532 8 1:1 3:5 8:1 14:1 30:1 39:2 873:1 1010:1 1648:1 2074:1 2578:1 
0.89784792849774486 4.9041634082982446 2.441642476637603 0 0.36488777370258968 1.8449616618554423 4.3743917629608591 0.85348054571553833 1.9355944243660084 3:13 9:1 14:1 39:1 42:1 51:2 107:1 281:1 854:1 1672:1 2579:1 2580:1 2581:1 
0.31389267009881727 0 0 0 0 0 0 0 0 3:5 14:1 30:1 40:1 151:1 422:1 504:1 505:1 623:1 1904:1 2582:1 2583:1 
5.4449185220875078 7.1844975367003832 0 0 6.0089674005981379 0 0 0 6.9817329971655209 3:11 14:2 39:1 51:1 52:1 83:1 107:1 151:1 263:1 556:1 2584:1 
2.4636595955345895 6.5396632319436314 3.1336711517675022 2.9418774919115545 0 3.0871604224846245 7.5012462586705508 0.23269232258398201 6.8005231515142404 3:10 14:1 40:1 46:1 61:1 212:1 1127:1 1147:1 2532:1 2585:1 2586:1 
0 5.4181789816335657 4.1085035957471998 0 0 1.5783891163880184 8 1.9811408884322319 1.1617945363969864 3:6 14:1 39:1 134:1 320:1 1621:1 2587:1 
0 0.95961783788251742 7.7767061267176967 0 2.3404261038941372 3.5603874892347718 1.5545468049396338 2.4751129016692488 0 3:11 9:1 14:1 30:1 39:1 40:1 42:1 109:1 239:1 1118:1 1158:1 1410:1 2398:1 
0 0.98243013954834391 0 4.6790943401440899 0 0 0 0 6.2483706178996252 3:7.3333333 14:1 30:2 39:2 40:2 89:1 107:2 141:1 149:1 529:1 933:1 1403:1 1678:1 1829:1 2588:1 2589:1 2590:1 2591:1 2592:1 2593:1 2594:1 
6.3366798809663276 0 1.3251154366374429 0 4.29492504454665 0.21308864733694921 0 1.2907546508474705 0.64987065583386106 3:5.2 14:3 23:1 30:4 39:2 49:1 61:1 91:1 107:1 401:1 730:1 1025:1 1123:1 1217:1 1251:1 2595:1 2596:1 2597:1 2598:1 2599:1 2600:1 2601:1 2602:1 2603:1 2604:1 
0 0 0 0 0 0 5.7882197762650049 0 0 3:5 39:1 182:2 2605:1 2606:1 
6.0426016862165914 8 8 8 8 3.7675512096681358 8 2.8274692575420635 8 3:8 9:1 13:1 40:1 89:1 743:1 860:1 2607:1 2608:1 
0 0.95505658956562167 2.1068247286996238 0 0 3.6972590387021573 5.7846583932938413 3.3874222055568444 0 1:1 3:6.5 14:1 16:1 30:1 597:1 658:1 726:1 1017:1 1476:1 2004:1 2609:1 2610:1 2611:1 2612:1 
3.6017063638389235 4.4414286094511395 4.171026167915028 6.4404903979270296 3.5202235048337074 1.7142317169853636 2.9448965232861268 1.0815750713607926 2.618758575599704 1:2 3:20 5:1 8:1 9:1 14:2 26:1 30:1 42:3 61:2 1342:1 2144:1 2536:1 2542:1 2613:1 2614:1 2615:1 
0 0.7536318949707197 2.7362798878777079 0 0 0 0.45886011571508595 0 5.069359453606447 3:5 51:2 718:1 2616:1 2617:1 
5.179470442561585 8 4.8289580238324685 0 1.2868435070300832 6.1444563856571168 7.2537509377223053 0.84725470516564638 3.5822501595053282 3:9 9:1 20:1 46:1 51:1 107:1 600:1 2405:1 2618:1 2619:1 
8 1.6299125546757307 8 0 0 4.847726651459344 0 0.19001656904482991 4.2804952562484697 3:6 39:1 40:1 52:1 151:1 1263:1 2620:1 
0 0 0 2.8435371064378079 0.34317149860046331 2.4473371747975965 0.7930398002249256 0 3.4021758354649032 1:1 3:6 9:1 14:1 30:1 39:1 91:1 123:1 151:1 730:1 791:1 2529:1 2621:1 2622:1 
8 8 8 3.9174748777860877 8 8 8 8 4.1599333250910897 3:3 14:1 166:1 2623:1 
8 2.7197976452794119 2.2904281207422064 1.7710979235664557 4.0249447774464278 5.2093390798622723 3.0613746022237383 0 3.6103148294305325 1:1 3:10 5:1 9:2 42:1 107:1 667:1 1892:1 2624:1 2625:1 
0 0 0 0 0 0 0.42821553569864002 0 0 3:10 4:1 9:1 14:3 26:1 30:2 36:1 39:1 40:1 42:1 46:1 51:1 52:1 139:1 156:1 182:1 272:1 482:1 624:1 672:3 2130:1 2518:1 2626:1 2627:1 2628:1 2629:1 2630:1 2631:1 
8 0 0 0 8 8 8 8 8 3:0.33333333 30:3 61:1 
8 8 8 0 8 0 8 0 0 3:1 54:1 
0 0.63377733257853597 1.2808728671962522 0.7033782729815693 1.929104277449152 0 4.9512782379675757 0 0.78666684005692489 3:10.5 9:1 13:1 14:2 23:1 26:1 30:1 39:1 46:1 272:1 898:1 977:1 1093:1 1776:1 2632:1 2633:1 2634:1 2635:1 2636:1 2637:1 2638:1 2639:1 
1.6904155153406373 2.113534189080033 1.0978521501361915 0.65172781567061289 0 0.43369382157350034 2.4483861214442775 1.0940351797254841 2.2824011912486517 3:4 14:1 26:1 30:1 39:1 89:1 1326:1 2640:1 2641:1 2642:1 
3.5814331268810187 7.766368055967229 3.875903797199431 1.7147617330846703 7.1719354659399368 8 4.5736371155250568 2.909792912657351 3.5730588847069429 1:1 3:10 9:1 14:1 39:1 598:1 971:1 2643:1 2644:1 2645:1 2646:1 
0 0 0 0.94602821881494636 0 0 0 0 0 3:37 4:1 8:2 9:1 14:4 20:3 25:1 26:1 32:1 36:1 37:1 39:1 40:2 42:2 46:1 252:1 325:1 472:1 717:1 835:1 1233:1 1689:1 2418:1 2647:1 2648:1 2649:1 2650:1 2651:1 2652:1 2653:1 
0 0 0 0 0 0.7339227278173871 0 0 0 3:33 4:1 6:1 14:3 25:1 26:2 32:1 36:1 37:1 39:2 40:2 42:1 46:1 61:1 212:1 325:1 629:1 846:1 890:1 1338:1 2654:1 2655:1 2656:1 2657:1 2658:1 2659:1 2660:1 2661:1 2662:1 
6.5479986593561375 3.3885525698044279 6.8123753787723018 7.2792249814851822 3.3107458875619238 5.6879473655385633 0.52725924645995947 0 7.603414179891212 3:32 4:1 14:5 20:1 23:3 25:2 26:1 36:1 39:3 40:1 42:1 46:2 70:1 454:1 493:1 532:1 1099:1 2651:1 2663:1 2664:1 2665:1 2666:1 2667:1 
1.684704961546609 3.1670359170942297 3.6001755317301516 3.6438706738417674 0.19469704583656655 0.057264841690624124 6.7107758032473734 0.22008950550944212 3.0429612018455394 3:7.25 9:1 14:3 23:1 30:3 40:2 42:1 46:1 49:1 52:1 107:1 240:1 490:1 624:1 726:1 873:1 1076:1 1689:1 2487:1 2668:1 2669:1 2670:1 2671:1 2672:1 2673:1 2674:1 2675:1 2676:1 
2.1236740907562872 2.5975049266566375 5.7065080471306757 2.4018845669204985 2.2536578353996348 3.755610250183699 0.37105146513990828 3.1117024659598154 4.2891526133101747 3:23 5:1 9:2 16:1 30:1 39:1 42:4 89:1 178:1 686:1 790:1 1909:1 2650:1 2677:1 2678:1 2679:1 2680:1 2681:1 2682:1 2683:1 2684:1 
3.8635761480543893 0 6.0521580986971522 0 0 0 8 0 3.5278403456656537 3:4 46:1 61:1 2685:1 2686:1 
4.2772717898543036 3.9326794631002704 3.0586299333586382 1.6288809882720865 0.64873011930526803 4.2862584698551833 4.2999819773246335 2.4480073107006142 2.3052092596258036 3:8 9:1 39:1 42:1 667:1 2687:1 2688:1 2689:1 2690:1 
