svm_type c_svc
kernel_type polynomial
degree 1
gamma 0.03125
coef0 0
nr_class 10
total_sv 17842
rho -0.70551017091305679 -0.7460414042220388 -0.67879817510715057 -1.1971358364700595 -0.85577858714987831 -0.88223830883056542 0.11553057139675384 -0.81685594873085288 -0.83250051353246868 -0.061625036060756762 0.013226806992580543 -0.96187130119664599 -0.35076450138844162 -0.44250238493826177 0.76047608796477473 -0.60296294446882037 -0.28139093185075792 0.02621296906349365 -0.92892745325887582 -0.28632911536472888 -0.40915771713051291 0.76600926440926409 -0.50196202307389814 -0.16668226539412936 -0.9523288398103722 -0.27477509890775242 -0.41846121720617407 0.69396348505245564 -0.49738926893489005 -0.12676824880172075 1.0085096784215117 0.85378818784111421 1.1252025768527143 0.69534672151250698 0.91480214173067098 -0.28363129901562895 0.85405810110358982 -0.38255967185983497 0.048590740007344861 0.87718733895682166 -0.36485632648319211 0.25998098793665003 -0.87381284029157169 -0.84568147655358683 0.37800065132973137
label 0 1 2 3 4 5 6 7 8 9
nr_sv 2015 1981 2067 1558 1537 1805 1684 1994 1592 1609
SV
8 6.9154239198212153 1.4236509271166706 1.1549056191254412 8 3.5963893759776626 7.5784286991575387 0 4.9149642390919936 1:1 2:0 3:1 4:0 5:1 6:0 7:1 8:1 9:1 10:0 11:1 12:1 13:1 
2.3077224450043889 3.0057618660822079 5.4413985031688448 5.5901139006118585 2.7766479035845468 4.4491173911863928 0 2.7361682497234265 3.0929203390934177 2:0 4:4 5:1 6:0 10:0 13:1 14:1 15:1 16:1 17:1 18:1 19:4 20:1 21:1 22:1 23:1 24:1 25:1 26:1 
0 0 0.3384014804743018 1.6490399479145867 0 0 0 0 0 2:0 4:2 5:0 6:0 9:1 10:0 13:0 25:2 28:1 29:1 37:1 39:1 42:1 45:1 50:1 51:1 52:1 53:1 54:1 55:1 56:1 57:1 
1.2655920785996062 0 4.0511953759809494 0 0.091931278810856956 0 2.0870640521553132 0 1.8990927761851923 2:0 4:0 5:1 6:2 10:0 11:1 13:2 31:2 51:1 56:1 58:1 59:1 60:1 61:1 62:1 63:1 64:1 65:1 66:1 
2.2442233036044237 5.9213488490664572 5.3329770963160534 0.83101816743932067 1.8241376287275395 3.6705149259405059 3.0188909149142642 0.80741163045578168 1.5301867082777929 2:0 4:7 5:0 6:3 9:1 10:0 13:0 19:2 25:1 28:2 30:1 31:1 39:1 44:3 47:2 48:1 49:1 50:1 51:1 52:1 67:1 68:1 69:1 70:2 71:1 72:1 73:1 74:1 75:1 76:1 77:1 
8 8 8 0 8 8 8 0 8 2:0 4:1 5:0 6:0 10:0 13:0 14:1 19:1 66:1 78:1 
8 8 8 0 8 8 8 6.4267967166917472 8 2:0 4:1 5:0 6:0 10:0 13:0 36:1 79:1 
8 3.6747773116139486 0 0 0 0 8 0 0 2:0 4:1 5:0 6:0 10:0 13:0 44:1 80:1 
3.2076077099695128 0.29126377643639484 8 4.9399716876311288 4.5843328935564163 4.1996452274151661 8 0 8 2:0 4:1 5:1 6:1 10:0 13:0 14:1 19:1 31:1 47:1 81:1 82:1 83:1 84:1 
8 8 8 0 7.3561122915494925 5.8580826874988787 8 0 8 2:0 4:0 5:0 6:0 10:0 13:0 56:1 85:1 
0 0 2.6548464211410936 0 0 0 0 0 0.96381772657227094 2:0 4:2 5:1 6:2 10:0 11:1 13:2 19:1 31:3 47:2 56:1 66:1 86:1 87:2 88:1 89:1 90:2 91:1 92:1 
0 2.3282918304787672 4.2687627251225733 0 0 0 0 0 1.1570056865933129 2:0 4:2 5:0 6:0 10:0 13:0 14:1 19:1 93:1 94:1 95:1 96:1 97:1 
1.1582824231878333 3.4750540571034856 2.9343244402946378 3.6716866455530854 0 0 1.7628633650724697 0 0.41535615756678362 2:0 4:0 5:1 6:1 10:0 13:0 14:1 94:1 98:1 99:1 100:1 101:1 102:1 
0 0 1.1606045880127931 0 0 0 0 0 0 2:0 4:1 5:1 6:0 10:0 13:2 19:1 21:1 88:1 94:1 103:1 104:1 105:1 
0 0 0 2.8040436435937934 0 0 0 0 1.7657182423137212 2:0 4:3 5:1 6:1 10:0 13:0 14:1 19:1 27:1 35:1 94:1 97:1 106:1 107:1 108:1 109:1 110:1 
4.4488328088884739 0 0 0.025120849846664073 3.9901246663947076 0 4.0477938876281598 0.70797321438632099 0.43651176425591098 2:0 4:5 5:0 6:1 10:0 13:1 28:1 31:1 35:3 47:2 51:1 111:1 112:1 113:1 114:1 115:1 116:1 117:1 118:1 119:1 120:1 121:1 122:1 
5.5705886867607344 0.36506100212606057 0 3.3637254053960421 6.6631428571997571 0 8 2.7626065870037788 8 2:0 4:2 5:1 6:0 10:0 11:1 13:1 14:1 35:3 44:1 123:1 124:1 125:1 126:1 127:1 128:1 129:1 
0 0.79356077497234512 0 2.2082472093020225 5.4155230942202923 2.6505588390988088 0 0 4.3938318177352746 2:0 4:4 5:3 6:3 10:0 12:1 13:0 14:1 18:1 19:3 28:1 44:1 45:3 51:2 57:1 130:1 131:1 132:1 133:1 134:1 135:1 136:1 137:1 138:1 139:1 140:1 141:1 142:1 143:1 144:1 145:1 146:1 147:1 148:1 
1.4806265935795309 0 4.9088014304968954 0 0 0 8 0 1.6265255210340499 2:0 4:0 5:0 6:1 10:0 13:1 19:1 88:1 151:1 152:1 
8 0 1.3516374515861072 0 0 0 2.788524565706886 0 0 2:0 4:1 5:0 6:0 10:0 13:1 18:1 56:1 88:1 153:1 154:1 155:1 
1.423990750986331 2.0715217649621191 2.8281944021671546 1.9946305787921912 2.7091037852918523 1.9131162940028736 0.99584368977986615 0.71964760364233005 2.6251725455429229 2:1 4:7 5:1 6:0 10:0 13:3 14:2 21:3 28:1 35:2 44:1 51:1 66:3 131:1 156:1 157:1 158:1 159:1 160:1 161:1 162:1 163:1 164:1 165:1 166:1 167:1 168:1 169:1 170:1 171:1 
7.7301490818374035 4.5001165462010775 0 0 0 0.16806703885967234 8 0 6.6905915854346834 1:1 2:0 4:0 5:0 6:1 10:0 13:1 35:1 47:1 66:1 112:1 172:1 173:1 174:1 
3.6639244993296187 3.8408618279071041 0 1.6014207903761339 6.6498033839111752 0.95335473351391931 1.8901214695756166 1.7873965840381352 4.9880783903398473 1:1 2:0 4:8 5:0 6:5 10:0 13:2 14:1 21:2 31:1 35:5 36:1 44:4 45:1 47:1 51:1 54:1 75:1 112:1 131:1 144:1 175:1 176:1 177:1 178:1 179:1 180:1 181:1 182:1 183:1 184:1 185:1 186:1 187:1 188:1 189:1 
8 8 8 4.4037296716507681 8 7.3629713005095088 8 8 8 2:0 4:2 5:0 6:0 10:0 13:0 19:1 44:1 190:1 191:1 
4.4617038495819008 8 4.3858571831090405 6.4315943496775478 8 4.9252732396981047 1.893425038157438 1.7499991994620532 8 2:0 4:6 5:1 6:2 9:2 10:0 13:0 14:2 19:2 36:1 44:1 45:1 47:1 51:1 66:2 175:1 192:1 193:1 194:1 195:1 196:1 197:1 198:1 199:1 200:1 201:1 202:1 203:1 204:1 205:1 206:1 207:2 
0 0 2.2648150596419288 0 0.69711962733809729 0 2.2661026930514621 0 2.9665501117481856 2:0 4:4 5:0 6:2 10:0 13:0 22:1 31:3 35:1 45:1 56:1 66:1 208:1 209:1 210:1 211:1 212:1 213:1 214:1 215:1 
6.6885537784253755 7.5681126966828005 5.1794296825377675 1.2850302048427715 0 0 8 0.11890847435489776 3.0626516416745653 1:1 2:0 4:0 5:0 6:1 10:0 13:0 14:1 216:1 217:1 218:1 
8 7.2110118383718547 4.3787458259219791 6.9996214510599621 8 5.6313817367340748 2.6891490033964911 2.4472624045332108 6.4634120320747508 2:0 4:4 5:0 6:1 10:0 13:2 14:2 19:1 35:1 44:1 45:1 47:1 51:1 66:1 88:1 112:1 219:1 220:1 221:1 222:1 223:1 224:2 225:1 
2.3271302390982096 0 4.4774034218438903 3.4219852022582242 3.1060946902214632 1.0582247767529027 2.4561319026145632 2.0543361925458337 2.6035475528325307 1:1 2:0 4:7 5:2 6:2 10:0 12:2 13:2 19:3 25:1 31:1 35:2 45:1 51:1 54:1 66:1 73:1 89:1 226:1 227:1 228:1 229:1 230:1 231:1 232:1 233:1 234:1 235:1 236:1 237:1 238:1 239:1 240:1 
0 0 0 0 0 0 5.9545294173608374 0 0 2:0 4:2 5:1 6:2 10:0 13:0 14:1 19:3 35:1 45:1 56:1 66:2 86:1 241:1 242:1 243:1 244:1 245:1 246:1 247:1 248:1 
4.3344558081189897 6.1411390304036946 0 7.221649249010949 6.1496219373722338 1.3137210734473608 0 1.3314393561834077 4.5174418208316949 1:1 2:0 4:3 5:0 6:0 10:0 11:2 13:2 14:2 19:1 36:1 44:1 47:3 66:2 140:1 235:1 249:1 250:1 251:1 252:1 253:1 254:1 255:1 256:1 
0 0 0 0 0 0 0 0 0.30564324959508737 1:1 2:0 4:3 5:1 6:2 9:1 10:0 12:1 13:2 19:2 30:2 35:3 41:2 44:1 45:1 47:2 57:1 112:2 141:1 146:1 191:1 257:1 258:1 259:1 260:1 261:1 262:1 263:1 264:1 
8 0.47687020980408268 8 0 8 7.1351586322868439 8 0 8 2:0 4:2 5:0 6:1 10:0 13:0 19:1 45:1 47:2 108:1 270:1 271:1 272:1 273:1 
4.6921143697807226 0 0 5.954553088295965 8 0 3.693096587632704 8 8 2:0 4:1 5:0 6:0 10:0 11:1 13:1 19:1 21:1 25:1 35:4 45:1 274:1 275:1 
4.5461623372165576 0.004098989482496462 0 0 5.9454179528943172 6.8423611948449166 8 0.67580938679915425 0 2:0 4:1 5:0 6:0 10:0 13:0 19:1 21:1 35:2 44:1 45:1 47:2 57:1 94:1 276:1 277:1 278:1 279:1 280:1 
0.60809004056439175 0 0 0 0 0 2.3856859405374964 4.3828929518609234 0 2:0 4:2 5:0 6:2 10:0 13:0 19:1 35:1 146:1 281:1 282:1 283:1 284:1 285:1 286:1 
0.40293304378285266 0 0 1.2985225450170765 1.5235622880395538 0 6.5765502517487571 0 5.1053434809417944 2:0 4:3 5:0 6:2 10:0 13:0 19:2 35:2 44:1 47:1 56:1 287:1 288:1 289:1 290:1 291:1 292:1 293:1 
6.1362860363170837 4.8186612140999738 0.46092230852329519 3.8192982868218994 2.225875215340376 1.5663463634601902 2.6075020298405374 0.3084924924724271 3.4679721975341726 2:0 4:5 5:0 6:2 9:1 10:0 11:1 13:3 14:1 19:3 25:2 28:1 44:1 45:1 51:1 112:2 187:1 245:1 277:1 294:1 295:1 296:1 297:1 298:1 299:1 300:1 301:1 302:1 303:1 304:1 305:1 306:1 307:1 308:1 
8 4.5413612328392992 0 2.0392855689907905 8 0.46638695369092398 8 6.168710233391038 4.6445242996360667 2:0 4:2 5:0 6:0 10:0 13:0 35:2 45:1 309:1 310:1 311:1 312:1 
1.8119089254557101 0 0 2.1050736215529078 1.2311550978927297 0 0 0 0.42870875020996568 1:1 2:0 4:9 5:1 6:3 10:0 13:1 14:1 19:4 35:2 44:3 45:1 47:2 70:1 112:1 270:1 313:1 314:1 315:1 316:1 317:1 318:1 319:1 320:1 321:1 322:1 323:1 324:1 325:1 326:1 327:1 328:1 329:1 
2.4174326653202374 5.9443852465056857 3.2428875622070086 4.9904708444758947 2.7715098491619754 3.9476390757803892 5.1504022178702575 1.9142697550388048 3.1272992664096155 2:0 4:9 5:0 6:4 9:1 10:0 13:0 14:1 19:2 30:1 31:1 39:1 44:2 45:2 47:1 134:1 251:1 330:1 331:1 332:1 333:1 334:1 335:1 336:1 337:1 338:1 339:1 340:1 341:1 342:1 343:1 344:1 345:1 
0 3.5496914523841014 0 0 3.3875507953954052 0 0 0 0 2:0 4:8 5:0 6:0 9:1 10:0 11:1 13:1 19:5 25:1 28:1 30:1 35:1 37:1 41:1 42:1 45:2 47:1 51:1 70:1 202:1 277:1 346:1 347:1 348:1 349:1 350:1 351:1 352:1 353:1 
0 0 0 0 0 0 0 0 3.2173480926116449 1:2 2:0 4:3 5:2 6:3 9:1 10:0 12:1 13:0 19:1 25:1 28:1 30:1 31:1 35:1 37:1 41:1 42:1 45:1 47:1 135:1 158:1 194:2 228:1 234:1 235:1 240:1 352:1 354:1 355:1 356:1 357:1 358:1 359:1 
4.4719642894823881 8 7.7579909854148585 8 8 4.6267833081274814 6.3332811527007724 2.0086018901684133 8 2:0 4:4 5:0 6:0 9:1 10:0 12:1 13:1 19:1 25:1 31:1 51:1 75:1 156:1 207:1 365:1 366:1 367:1 368:1 
3.2047459323397653 3.0580814862661794 3.4686047119381218 3.1501400450282975 6.3737041470462978 0 0 0 1.9548153205261471 2:0 4:6 5:0 6:1 9:1 10:0 13:2 19:2 28:1 31:1 44:4 66:1 82:2 270:1 277:1 369:1 370:1 371:1 372:1 373:1 374:1 375:1 376:1 377:1 378:1 379:1 
2.9994401507958242 1.3295193288413969 1.6321809487985071 0.87962540270668743 3.6720472325178544 0.32279826349792357 3.1424118969909753 0 0.28558806747372945 2:1 4:3 5:2 6:1 10:0 11:1 13:1 19:3 31:3 44:2 45:1 54:1 104:1 139:1 140:1 141:1 380:1 381:1 382:1 383:1 384:1 385:1 386:1 
2.4044002949264018 2.0414988943857626 1.1386677424973703 3.8550419923457446 3.0929890649973739 2.7333177654573841 2.5472742031599527 1.7230030853460285 0.53565733387532632 2:1 4:4 5:2 6:0 10:0 13:0 19:3 25:2 31:2 34:1 35:1 36:1 44:2 45:1 99:1 126:1 387:1 388:1 389:1 390:1 391:1 392:1 393:2 394:1 395:1 396:1 397:1 398:1 
0.407051732842449 0 0 0 0 1.7021903340084497 8 0 0 2:0 4:1 5:1 6:1 10:0 13:0 19:1 31:1 35:2 47:1 66:1 245:1 248:1 289:1 399:1 400:1 401:1 402:1 403:1 404:1 
0.22999533753834953 4.5836030935675458 7.2498975336902713 2.2143531015088538 5.4903457327136973 6.4335701997578614 1.3871515616095937 0 0 2:0 4:4 5:0 6:1 10:0 11:1 13:0 19:1 25:1 47:1 51:1 56:1 245:1 405:1 406:1 407:1 408:1 409:1 
0 0 0 0 0 0 0.018247937462635054 2.0597144641353773 0 2:0 4:6 5:1 6:3 9:1 10:0 13:0 19:3 28:2 30:1 35:3 41:1 44:1 45:2 47:2 248:1 330:1 410:1 411:1 412:1 413:1 414:1 415:1 416:1 417:1 418:1 419:3 420:1 421:1 422:1 423:1 
8 8 6.7170358113614261 0.74852382523538108 0 2.7933290486059903 8 0 8 2:0 4:1 5:0 6:0 10:0 13:0 31:1 35:1 66:1 94:1 424:1 425:1 426:1 427:1 
0 1.2925444049536605 0 2.6445292440075976 0.74762525649486355 1.3957433402461223 0 0 1.5697938827454923 2:0 4:9 5:0 6:3 9:1 10:0 13:0 14:1 19:2 28:1 30:1 35:1 41:1 44:1 45:1 47:1 89:1 94:1 156:1 244:1 330:1 413:1 414:1 415:1 417:1 419:1 420:1 428:1 429:1 430:1 431:1 432:1 433:1 434:1 435:1 
5.9053202773928977 0 1.3284658273979264 2.4994170744823254 3.1933382735945011 5.3153181711866875 2.4987938087830877 4.1876580827395022 1.5149471982064684 2:0 4:6 5:2 6:4 10:0 13:1 19:3 28:1 35:2 44:1 45:1 66:1 82:1 436:1 437:1 438:1 439:1 440:1 441:1 442:1 443:1 444:1 445:1 446:1 447:1 448:1 449:1 450:1 451:1 
4.9172085982641756 1.8250879687425692 4.7653630300175047 2.6976986577972846 2.8726230787744815 4.7196684686340946 0 5.2447948728541016 2.7067679237798608 2:0 4:7 5:4 6:1 10:0 13:0 14:3 19:2 26:1 35:1 44:1 45:1 51:3 386:1 390:1 394:1 452:1 453:1 454:1 455:1 456:1 457:1 458:1 459:1 460:1 461:1 462:1 463:1 464:1 465:1 466:1 467:1 468:1 
3.86300614328221 1.3644264387336502 0 1.1051408353705561 2.1074394391573521 1.46406536776917 7.5497365950770154 0.011006643961840073 0 2:0 4:5 5:3 6:3 10:0 13:0 14:1 19:2 27:1 31:2 35:3 36:1 44:1 45:1 51:1 66:2 382:1 469:1 470:1 471:1 472:1 473:1 474:1 475:1 476:1 477:1 478:1 479:1 480:1 481:1 
0 0 1.0177282195676496 0 0 0 0 4.5041448573869243 0 1:1 2:0 4:3 5:0 6:1 10:0 13:0 19:3 21:1 35:2 41:1 44:1 45:1 56:1 91:1 94:1 482:1 483:1 484:1 485:1 486:1 487:1 488:1 489:1 490:1 
8 3.7107351809714544 0 3.3841308434169455 0.11782776373746802 4.9186484365938936 0.66870436302140857 6.1266567568467085 0.59993658748954826 2:0 4:10 5:2 6:0 10:0 13:0 14:1 19:4 25:1 28:1 35:1 44:3 45:2 47:1 246:1 353:1 373:1 412:1 472:1 491:1 492:1 493:1 494:1 495:1 496:1 497:1 498:2 499:1 500:1 501:1 502:1 503:1 
0 0 0 0.5467600566279206 0 0 0 0 0 1:2 2:0 4:5 5:3 6:3 10:0 13:2 19:6 25:1 35:2 44:2 45:1 112:1 126:1 158:2 373:1 411:1 412:1 416:1 419:1 492:1 504:1 505:1 506:1 507:1 508:1 
0 0 2.5054391187854446 0 0 0 0 0 0 2:1 4:5 5:0 6:1 10:0 13:1 19:2 21:1 31:1 44:1 54:1 89:1 156:2 361:1 362:1 406:1 513:1 514:1 515:1 
0 1.0146583602058659 0 0 0 0 0 0 3.7620826587374019 2:0 4:1 5:0 6:1 10:0 13:1 19:1 21:1 28:1 45:1 56:1 88:1 116:1 208:1 516:1 517:1 
5.8488448236294452 2.8710221375748728 1.9826440155633263 2.9170979770570682 4.1604223942797942 4.2015953393112486 2.4791687528558999 2.2052248847387239 3.5671755855458835 1:1 2:0 4:5 5:1 6:10 10:0 13:0 18:1 19:3 28:1 35:3 36:1 44:1 45:1 47:1 416:1 475:1 518:1 519:1 520:1 521:1 522:1 523:1 524:1 525:1 526:1 527:1 528:1 529:1 530:1 531:1 
0.35779435287037281 0 1.9135202381131649 5.9951555709759594 4.0748475623342726 0 8 0 0 1:1 2:0 4:4 5:1 6:2 10:0 13:1 14:1 19:2 20:1 21:1 35:2 44:1 45:1 54:1 66:1 131:1 154:1 267:1 270:1 532:1 533:1 534:1 535:1 536:1 537:1 538:1 539:1 540:1 541:1 
0 2.4514727673018863 0 1.1529771145305188 0 0 0 0 0 2:0 4:3 5:0 6:2 10:0 13:1 35:1 44:2 89:1 112:1 238:1 259:1 277:1 542:1 543:1 544:1 545:1 
2.2849031752345939 0 0 4.3614271903267676 2.6665886378367527 1.9436086152843397 3.0503015530724547 0 0 2:1 4:3 5:0 6:0 9:1 10:0 13:0 19:2 30:2 35:1 41:2 45:2 47:2 171:1 352:1 562:1 563:1 564:1 565:1 
2.6932126845274271 0 0 1.6714531703532316 2.2043802481988872 0 1.7534063510155768 0 0 1:1 2:1 4:5 5:0 6:3 9:1 10:0 13:0 19:2 25:1 30:2 41:2 44:1 45:2 47:1 51:1 276:1 462:1 532:1 553:1 566:1 567:1 568:1 569:1 570:1 571:1 572:1 
3.2032194737112558 7.077513086327186 0.83881863586121441 3.8578543268076033 4.3070741984274816 5.0878233883443356 4.2288259312088341 0.53598446019508972 3.6373186269784465 1:1 2:0 4:8 5:1 6:0 10:0 13:0 19:5 30:1 35:1 44:2 47:2 114:1 161:1 292:1 533:1 573:1 574:1 575:1 576:1 577:1 578:1 579:1 580:1 581:1 582:1 
2.7524445488668734 4.4001332061645115 3.3922189232586231 4.2319043209126015 6.2039740718406922 1.5691613000523694 1.0992705728761407 0.44243571812740307 0.12233021479929972 1:2 2:0 4:5 5:1 6:4 9:1 10:0 13:3 14:1 19:3 31:1 35:1 44:2 45:1 47:1 112:1 194:1 459:1 583:1 584:1 585:1 586:1 587:1 588:1 589:1 590:1 591:1 592:1 593:1 594:1 595:1 596:1 597:1 598:1 
8 8 8 0 8 7.7922840871490919 8 4.4655665943478242 8 2:0 4:1 5:2 6:0 10:0 13:0 19:1 27:1 51:1 277:1 358:1 599:1 
0.3441371921275832 0 0.96070240514308669 0.25112863547139691 0 1.2457560317510046 0.23382625483593053 5.5240132573399645 0 2:0 4:5 5:1 6:2 10:0 13:0 19:4 25:1 35:4 44:1 45:1 47:1 51:1 91:1 150:1 587:1 600:1 601:1 602:1 603:1 604:1 605:1 606:1 607:1 608:1 609:1 610:1 611:1 612:1 613:1 
8 0 0.094617713955640628 4.0759218478997266 2.0428163670173598 0 8 8 5.3384807130378071 2:0 4:0 5:0 6:0 10:0 13:0 35:2 408:1 614:1 615:1 
8 6.5462599403428152 8 0 5.2714356363643233 5.4972334593805332 8 5.4037619495710736 2.1777309089401369 2:0 4:0 5:0 6:1 10:0 13:0 616:1 
0 0 1.4669725309459385 0 0 0 3.2628690438907864 0 0 2:0 4:0 5:0 6:0 10:0 13:1 56:1 88:1 131:1 154:1 179:1 617:1 618:1 
4.9901585590066588 6.5503312522752326 8 0 0 1.0967161908273408 8 0 6.0100015739230113 2:0 4:0 5:0 6:1 10:0 13:0 619:1 620:1 
0 5.5804714517957805 5.544278229532928 0.30947795053753185 2.0902602535821555 0 8 2.6598480787729679 0.6040195061668614 1:1 2:0 4:1 5:0 6:2 10:0 13:0 14:1 19:1 35:1 54:1 161:1 546:1 621:1 622:1 623:1 624:1 
8 8 8 5.9182357447643934 8 8 8 7.8164863687024395 8 2:0 4:2 5:0 6:0 10:0 13:0 19:1 31:1 625:1 626:1 
3.7499358638278406 0 0 0 0 0 8 0.31154370497521988 0 2:0 4:0 5:1 6:0 10:0 13:0 31:2 35:2 248:1 627:1 628:1 629:1 630:1 631:1 632:1 
2.532936856812392 0 0 1.4357486303231863 0.66912171480885774 0 1.6927523099908881 0 1.5604558810121607 2:0 4:2 5:1 6:0 10:0 13:2 19:3 28:1 45:2 88:1 112:1 633:1 634:1 635:1 636:1 637:1 638:1 
0 2.0945893167526144 0.05026642888954428 0 0 0 8 0 0 2:0 4:1 5:0 6:1 10:0 13:0 31:1 114:1 248:1 639:1 640:1 641:1 
0.039996706085344551 2.8868906589107044 4.7232531632139692 4.7360032054799497 5.0653223748415757 0 7.8947587611150052 0.74271199750363492 2.4806970182507957 2:0 4:3 5:0 6:0 10:0 13:0 25:1 31:1 35:1 45:1 51:1 212:1 274:1 642:1 643:1 644:1 645:1 646:1 
0 0 0 0 0 0 8 0 0 2:0 4:0 5:0 6:0 10:0 13:0 647:1 
8 2.8968559559486087 5.7403316369814377 8 3.252150730721826 7.5391864773529624 8 6.5884546498901528 1.3953341703522379 2:0 4:1 5:0 6:1 10:0 13:0 19:1 44:1 391:1 648:1 649:1 
0.63516770674948353 1.3011104814304075 0 0 1.1019813023199434 0.75809705944558547 0 1.3527005171119721 0 2:0 4:4 5:1 6:5 10:0 13:1 19:3 26:1 31:1 35:3 44:1 45:1 47:1 51:1 112:1 146:1 222:1 277:1 650:1 651:1 652:1 653:1 654:1 655:1 656:1 657:1 658:1 659:1 660:1 661:1 662:1 663:1 
0 0 8 2.3560303254294928 0 1.8253880709368826 8 0 8 2:1 4:0 5:1 6:0 10:0 13:0 14:1 19:1 47:1 173:1 553:1 664:1 
2.491123343909138 0 0 0 0 0 8 0.64917597491332901 0.037500812289192248 2:0 4:0 5:2 6:0 10:0 13:0 31:2 35:2 665:1 666:1 667:1 668:1 669:1 
8 8 8 0 5.6285280181252393 5.614667688020349 8 5.4022645130130673 7.000425632639625 2:0 4:0 5:0 6:1 10:0 13:0 670:1 
2.7819400041384919 7.4817515249974136 0 2.4620788564529441 0 1.0510267079496372 8 1.3082447749833261 6.0425498541679863 2:0 4:2 5:2 6:2 10:0 13:0 14:1 19:1 35:1 44:1 47:1 66:1 158:2 277:1 375:1 671:1 672:1 673:1 674:1 
5.0646012107706184 4.704037495845407 6.3519091998745356 2.8633641278596329 8 3.6189353854991997 4.0474678367967556 0.16358725488501338 8 1:1 2:0 4:1 5:1 6:1 10:0 13:0 19:2 45:1 66:1 108:1 686:1 687:1 688:1 
3.6759499054411662 5.5525711589013591 8 0.52274932430600818 8 7.9168319282398674 8 4.2958933096982337 2.7876482275057737 2:0 4:2 5:2 6:1 10:0 13:0 31:1 36:1 51:1 91:1 602:1 689:1 690:1 691:1 692:1 693:1 694:1 695:1 696:1 
4.5142474627463081 2.0358531529079458 7.4985826837081548 4.2375509667846067 2.7232906705266626 1.3223580646525841 8 2.7776389829677046 0.51149423686677187 2:0 4:1 5:0 6:2 10:0 13:0 44:1 45:1 697:1 698:1 699:1 
4.7623060685735101 0 0 0 1.7122596705981941 0 8 1.8993720855460934 0 2:0 4:0 5:1 6:1 10:0 13:0 31:1 35:2 44:1 45:1 700:1 701:1 702:1 703:1 
0 0 6.103086292558519 0 1.5269095681721458 3.999254075944767 8 0 3.4955037973075358 2:0 4:2 5:0 6:0 10:0 13:1 19:1 44:1 88:1 704:1 705:1 706:1 
0 8 8 0 3.5128962067026919 0 8 0 5.4559197507602661 2:0 4:2 5:0 6:1 10:0 11:1 13:2 18:1 31:2 35:1 66:1 88:1 89:1 707:1 708:1 709:1 
8 3.2236957119503655 4.7622317735814956 1.7603012988287416 6.5258745860728871 3.8295554369793434 0.32111117614300411 0.93617525733511109 0 2:0 4:4 5:3 6:2 10:0 13:0 19:2 31:1 35:2 44:2 45:3 51:1 66:1 273:1 538:1 710:1 711:1 712:1 713:1 714:2 715:1 716:1 717:1 718:1 719:1 720:1 
8 8 8 0 8 0 8 0 8 2:0 4:0 5:0 6:1 10:0 13:0 56:1 267:1 723:1 
1.9464325731826255 1.6933367232218191 3.023193342137259 0.56277284401751093 2.2583664670558012 1.630153575617765 5.27002244565365 1.1374949106441778 0.65504669438041718 1:1 2:0 4:2 5:1 6:1 10:0 13:0 19:1 31:1 35:2 724:1 725:1 726:1 727:1 728:1 729:1 730:1 731:1 732:1 733:1 
0.6889156098621515 8 8 7.3418987641342337 7.040395993043548 2.1775753189206251 7.4538526211420564 4.378992705699801 0.54956458320033497 2:2 4:2 5:0 6:0 10:0 13:0 25:1 156:1 277:1 553:1 734:1 735:1 736:1 737:1 
0.76563480196164369 3.5214868422671306 4.5364726523272356 4.2833483116745441 6.5499748408162004 1.2006223896788866 2.6535485784676016 6.8393561645099776 2.6337294571504226 2:0 4:4 5:1 6:2 10:0 13:0 14:1 31:1 35:3 44:2 713:1 714:1 715:1 718:1 739:1 740:1 741:1 742:1 743:1 744:1 745:1 
4.7909319488047197 0.52515003767600654 0 0.76208039427150209 7.355293671155632 0 7.1701251317007948 0 7.8053280201127269 1:1 2:0 4:0 5:0 6:3 10:1 13:2 45:1 112:1 244:1 743:1 746:1 747:1 748:1 749:1 
5.6919440509603971 8 4.598760767147688 5.1189284568233733 0 4.9867473189393916 8 5.6637551354530506 3.1210241378766663 2:0 4:0 5:0 6:1 10:0 13:0 14:1 198:1 738:1 750:1 
0 0 0 0 0 0 0 0.79973329726989739 0 2:0 4:5 5:1 6:1 9:1 10:0 13:0 19:4 25:1 30:1 35:1 37:1 41:1 42:1 44:2 45:1 47:2 260:2 400:1 655:1 751:1 752:1 753:1 754:1 755:1 756:1 757:1 758:1 759:1 
8 8 8 0 2.1104133570277783 8 8 6.8785872184983718 0.21121885536160917 2:0 4:1 5:1 6:0 10:0 13:0 19:2 239:1 760:1 
0 8 8 0 0 4.9011951467082735 8 1.869801934950357 2.8020601879021876 2:0 4:0 5:0 6:0 10:0 13:0 764:1 
8 5.876706054489464 8 0 3.0693027079494617 0 8 0 8 2:0 4:0 5:0 6:0 10:0 13:0 47:1 173:1 771:1 
0.37730383772169135 8 0 0 0 0 0 0 0 2:0 4:0 5:0 6:2 9:1 10:0 11:1 13:1 21:1 25:1 45:1 361:1 362:1 772:1 
1.6314505331248952 0 0 0 5.1089340473792344 0 8 0 8 2:0 4:0 5:0 6:0 10:0 13:0 19:1 45:1 47:2 56:1 57:1 173:1 773:1 
4.4741070867501458 8 8 0 6.4349747830135353 0 0 0 0 2:1 4:3 5:0 6:2 9:1 10:0 13:0 44:1 156:1 237:1 361:1 362:1 774:1 775:1 
3.3372061580716852 4.2545369724147042 4.0460995063797913 2.6391759426655437 3.8961319943784405 3.0765381078654084 4.1585311826859757 1.9914861290473673 0 1:1 2:0 4:7 5:2 6:2 10:0 13:0 14:1 19:4 31:2 45:1 47:1 353:1 440:1 472:1 537:1 548:1 556:1 776:1 777:1 778:1 779:1 780:1 781:1 782:1 783:1 784:1 785:1 786:1 787:1 
8 0 0.63356618673339993 0 0 0 2.5268376036887581 0 8 2:0 4:0 5:0 6:1 10:0 11:1 13:1 788:1 789:1 
8 8 7.6560170393040741 1.4392290103597312 8 7.0402957577236362 8 8 5.9158873785517887 2:0 4:1 5:1 6:0 10:0 13:1 19:2 112:1 790:1 791:1 
5.5056967968382855 8 7.5126758779866005 0 2.9079621855608169 4.4191479830834153 8 5.1529298948594873 4.3860720953746108 2:0 4:1 5:0 6:0 10:0 13:0 44:1 792:1 793:1 
2.3033982539145108 0 0 0.14218044503491112 0.38427068509238493 0 0 0.61804769649957036 0 2:0 4:4 5:2 6:2 10:0 11:1 13:0 14:2 19:1 28:1 35:3 45:1 47:1 194:1 201:1 286:1 472:1 672:1 790:1 791:1 794:1 795:1 796:1 797:1 798:1 799:1 800:1 801:1 802:1 803:1 
0.33638002477684459 1.2654235979176796 1.6776415101353124 4.3194015560932213 1.0883548373540928 0 0 0 3.0760361628221151 1:1 2:0 4:3 5:0 6:4 10:0 13:0 19:2 25:1 31:1 45:1 57:1 89:1 96:1 141:1 197:1 277:1 482:1 804:1 805:1 806:1 807:1 808:1 
4.4885409308326096 8 8 6.9500922233973084 6.0185822809677552 3.9336359265790852 4.3581196004033016 1.7331558186817939 7.2910666240946007 2:0 4:1 5:2 6:0 10:0 13:1 19:1 28:1 33:1 36:1 44:1 54:1 66:1 112:1 202:1 349:1 809:1 810:1 811:1 812:1 813:1 814:1 815:1 
0 0 0 0 6.9140423166414271 0 8 0 0 2:0 4:0 5:0 6:0 10:0 13:0 35:2 36:1 66:2 539:1 824:1 825:1 
8 8 8 2.4253129774506723 8 7.6376086388594455 7.3595343442413368 5.9909166344043889 7.4135766675435431 2:1 4:3 5:0 6:2 9:1 10:0 13:0 44:1 156:1 237:1 361:1 362:1 774:1 775:1 
4.7382618097962075 0 1.396221380701494 0 8 0 8 0 8 2:0 4:0 5:1 6:0 10:0 13:0 14:1 47:2 56:1 82:1 173:1 267:1 826:1 
0.67598399210283855 0 4.0967898371859892 0 8 0 8 0 8 2:0 4:0 5:0 6:0 10:0 13:0 56:1 827:1 
0 0 1.0987210418979849 0 0 0 5.8916128666572876 0 8 2:0 4:0 5:0 6:0 10:0 11:1 13:1 14:1 20:1 21:1 28:1 31:1 35:1 36:1 51:1 66:1 472:1 828:1 829:1 
0 0 0 0 6.1913641242981683 0 8 0 0.37686516743510745 2:0 4:1 5:0 6:1 10:0 13:1 19:1 35:1 59:1 96:1 830:1 831:1 
0 0.2683439243099669 0 3.0036128516221501 3.113956514820396 6.5240210813664214 0.24053643037541231 0.060465983863531844 0 1:1 2:0 4:5 5:0 6:2 9:2 10:0 13:0 19:3 25:1 35:2 41:1 44:1 56:1 89:1 124:1 486:1 537:1 677:3 832:1 833:1 834:1 835:1 836:1 837:1 838:1 
8 7.2499169050905197 2.7032831434229094 0 6.4465032342041093 4.9854862706082441 4.7291584621009344 8 8 2:0 4:3 5:0 6:2 10:0 13:0 19:1 51:1 56:1 57:1 156:1 330:1 850:1 851:1 852:1 853:1 
5.8997535209589236 0 0 0 0 0 0 0 0 2:0 4:2 5:0 6:2 10:1 13:0 19:1 35:2 47:1 51:2 238:1 245:1 453:1 606:1 854:1 855:1 856:1 857:1 858:1 
2.002873623332794 2.9844695434833928 5.0557302233985482 0 3.8108044539306123 0.34896343299901705 2.3919204949800732 1.6301429790993391 5.1236371259877052 2:0 4:1 5:1 6:1 10:0 13:0 31:2 35:1 94:1 426:1 859:1 860:1 861:1 862:1 863:1 864:1 865:1 866:1 867:1 
0.3243010008349882 2.9628035842949605 1.8934596107797979 0.28016244545485269 2.6355992226494593 0.24674916431879926 2.7089021654435292 1.5983961803209892 4.1734650838640528 1:1 2:0 4:11 5:0 6:3 10:0 13:0 19:2 25:1 31:3 35:1 44:1 45:1 47:1 51:1 183:1 246:1 556:1 591:2 868:1 869:1 870:1 871:1 872:1 873:1 874:1 875:1 876:1 877:1 878:2 879:1 880:1 881:1 882:1 883:1 
8 0.84575576138172059 8 0 4.7705991706830178 1.0635029568445828 8 8 4.8957175812322768 2:0 4:0 5:0 6:1 10:0 13:0 35:1 884:1 
1.0880155732063115 1.5388111897602998 0 1.3316816545452297 0 1.3784951924959614 0 0.55781266479725278 4.2298652119508615 1:2 2:0 4:5 5:0 6:2 10:0 11:1 13:1 14:1 19:4 21:1 28:1 35:2 44:2 47:3 87:1 112:1 173:1 245:1 259:1 353:1 440:1 708:1 885:1 886:1 887:1 888:1 889:1 
0 0 0 0 0 0 0.37278292770129678 0 0.57282657974362328 2:0 4:7 5:0 6:0 9:1 10:1 13:0 19:3 30:1 31:1 35:1 37:1 41:1 42:1 44:1 45:4 47:3 191:1 277:1 400:1 606:1 696:1 855:1 896:1 897:1 898:1 899:1 900:1 901:1 902:1 903:1 904:1 
0.36664002075397506 0 0 1.0257217220994803 0.24632462886974946 3.5005446618113356 0.75591766544078043 0.45242991735800536 0 1:1 2:1 4:4 5:1 6:3 9:1 10:1 13:1 14:3 19:3 30:1 37:1 41:1 42:1 45:1 47:2 175:1 303:1 372:1 472:1 606:1 736:1 855:1 905:1 906:1 907:1 908:1 909:1 910:1 
1.0752176808400555 5.6159569876887527 0 1.9955369372934408 1.8065611283051664 4.926914611190413 0 1.4220424659328281 4.2396529927185558 2:0 4:4 5:0 6:4 9:2 10:0 13:0 19:1 35:2 45:1 47:1 51:1 94:1 161:1 196:1 244:1 540:1 608:1 890:1 911:1 912:1 913:1 914:1 915:1 916:1 
3.1083636664381111 0 0 0 3.8071129149586103 0 7.7624763585230596 0 6.6272666638325743 2:0 4:0 5:2 6:2 10:0 13:1 27:1 31:1 35:3 45:1 66:2 112:1 356:1 426:1 917:1 918:1 919:1 920:1 
0 0.8802163300007152 1.8349274758163685 0 0 0 0 0 0 1:2 2:0 4:4 5:0 6:1 10:0 13:2 14:1 31:1 35:1 47:2 51:1 94:1 112:1 425:1 722:1 921:1 922:1 923:1 924:1 925:1 
6.1377399703236657 0 0 0 0 0 0.82084297311714449 2.9536229684753637 6.3233332542631766 2:0 4:0 5:0 6:3 10:0 13:0 35:2 51:1 926:1 927:1 928:1 929:1 
1.2434361109983256 0 0.9504383386665739 0 4.9576392940202609 0 0 0 5.6614706907489465 1:1 2:1 4:2 5:0 6:3 10:0 11:1 13:3 18:1 19:2 31:1 35:1 47:2 51:1 88:2 108:1 112:1 930:1 931:1 932:1 933:1 934:1 935:1 936:1 
4.8107213616607654 5.3481910277547033 0 2.8767798631434323 7.1032842969166721 0 0 0 2.7645594196926804 2:0 4:6 5:1 6:2 10:0 13:0 19:2 31:2 35:2 45:1 47:2 51:1 57:1 94:1 149:1 150:1 206:1 244:1 267:1 277:1 294:1 353:1 400:1 440:1 556:1 937:1 938:1 939:1 940:1 941:1 942:1 
4.1800908822418554 8 2.5219480394533171 4.76470324911429 8 3.4565626457355463 0 4.3375917996266837 5.5521634226052976 2:1 4:11 5:2 6:4 9:1 10:0 13:0 19:5 35:2 44:3 47:1 70:1 94:1 156:1 227:1 353:1 388:1 440:1 472:1 495:1 532:1 537:1 623:1 664:1 782:1 943:1 944:1 945:1 946:1 947:1 948:1 949:1 
0 5.1993583047969665 0 7.2108064464185873 1.4935248589067294 1.6499199833882781 8 2.3207711569278886 3.3900276303949664 2:0 4:1 5:2 6:1 10:0 13:0 19:1 31:1 35:1 51:1 238:1 404:1 950:1 951:1 952:1 953:1 
0 0 0 0 0 0 0 0 3.5078534137331649 1:1 2:0 4:5 5:0 6:4 10:0 12:1 13:1 19:1 35:1 44:1 47:2 51:1 56:4 88:1 258:1 264:1 495:1 782:1 924:1 954:1 955:1 956:1 957:1 958:1 959:1 960:1 961:1 962:1 
0.043793890452167569 1.1322943767327467 0.39441528564848932 2.1519196163687413 0.36453140629070996 1.9069516594103977 3.0030028491323377 0 4.4121422919397375 2:0 4:5 5:0 6:3 10:0 13:1 14:2 19:1 35:1 44:2 47:1 56:1 112:1 117:1 277:1 292:1 372:1 495:1 924:1 958:1 960:1 963:1 964:1 965:1 966:1 967:1 
4.5730698819022324 1.0333465428638542 0.034066541309908285 0 8 2.0855949429787053 4.0745761880836397 5.5491618820236104 2.5919726129841862 2:1 4:3 5:0 6:2 10:0 13:1 19:1 35:3 44:1 94:1 112:1 156:1 532:1 968:1 969:1 970:1 971:1 972:1 973:1 
3.2758071627368466 0 0 0 0.52647107648955438 0 0 0 0 2:0 4:1 5:0 6:3 10:0 11:1 13:4 19:1 31:1 35:4 59:1 66:1 82:1 112:1 256:1 277:1 426:1 448:1 671:1 974:1 975:1 976:1 
4.3562462124755799 0 0 0 1.7925856690932784 0 6.4654479117687291 0 0 2:0 4:1 5:0 6:0 10:0 11:1 13:3 28:1 35:1 47:1 59:1 112:1 245:1 977:1 
2.1051303659671827 0.46223606027986225 0 0.44667452212802577 1.846775074823362 0 3.5181245062946567 2.4919433688143453 0.33124595611417218 1:1 2:1 4:6 5:1 6:2 10:0 13:1 19:1 25:1 31:4 35:1 44:2 56:1 112:1 153:1 202:1 448:1 863:1 869:1 952:1 978:1 979:1 980:1 981:1 982:1 983:1 984:1 985:1 
1.9744894871983631 8 8 0 8 3.0988766778364218 8 4.3311347335678336 0.44966708592968352 1:1 2:0 4:1 5:0 6:1 10:0 13:0 19:1 45:1 56:1 91:1 130:1 986:1 987:1 
1.9087876203837282 0 0 1.5644178986680251 3.7965817314856558 0 6.6421841646928756 2.6012006070478453 0.97330774778592766 2:0 4:2 5:0 6:0 10:0 13:1 19:2 21:1 35:3 44:1 51:1 245:1 492:1 715:1 988:1 989:1 990:1 991:1 992:1 993:1 
0.70290984085821151 0 1.4957851368683899 0 0 0.43494681865454565 5.5748958494823828 0 4.0361673789100312 2:0 4:1 5:0 6:0 10:0 13:1 88:1 99:1 133:1 156:1 994:1 995:1 
0.55222399962517421 0.074761794229667361 0 0 0.03427708802714638 0 1.9121358024389361 5.1408539341669997 0 2:0 4:0 5:1 6:0 10:0 13:1 19:1 31:2 35:2 44:1 84:1 94:1 112:1 259:1 996:1 997:1 998:1 999:1 
2.8561529078001824 8 4.1809410840015726 3.2547306327805114 5.5425554691191143 6.1449023105979919 8 1.5841222549479832 7.5916081136391167 2:0 4:1 5:1 6:0 10:0 13:0 19:1 44:1 51:1 56:1 743:1 1000:1 1001:1 1002:1 
5.5175110268714036 5.9194812291303753 0 4.4800337014930962 6.36422169223908 2.7078880930486124 6.0179036652895483 1.4580884006015038 1.6670278927313669 2:0 4:2 5:0 6:1 10:0 13:0 19:1 35:1 45:1 206:1 556:1 1003:1 1004:1 1005:1 1006:1 
8 8 8 0 8 0 8 0 0 2:0 4:0 5:0 6:0 10:0 13:1 59:1 
8 8 8 8 8 6.9818768360770358 0 0 3.4924618975618484 2:0 4:1 5:0 6:0 10:0 11:2 13:1 14:1 19:1 25:1 346:1 763:1 1007:1 
4.0573542251501271 0 0 3.8756978324479472 1.7749785332660197 1.857418434677347 0 0 0 1:3 2:0 4:3 5:2 6:3 10:0 11:1 13:3 18:1 19:4 21:2 25:1 31:1 35:4 44:1 47:1 51:1 59:1 112:1 194:1 228:1 235:1 238:1 240:1 245:1 330:1 636:1 1008:1 1009:1 1010:1 1011:1 1012:1 1013:1 1014:1 1015:1 1016:1 
2.7390342099347325 0 0 0 2.0984375518242406 0 0 0 1.787676176680407 2:0 4:3 5:0 6:1 10:0 11:1 12:1 13:3 14:1 19:1 21:1 35:3 44:1 47:1 63:1 88:1 187:1 461:1 771:1 1017:1 1018:1 1019:1 1020:1 
5.2652399071641156 4.2182543573756881 0 0.17066063728457434 5.3233499644036941 0 1.7192805674499032 0 0 1:1 2:0 4:6 5:1 6:2 10:0 11:1 13:2 14:3 19:3 20:1 25:1 35:3 51:1 57:1 66:1 70:1 175:1 194:1 228:1 571:1 710:1 1021:1 1022:1 1023:1 1024:1 1025:1 1026:1 1027:1 1028:1 1029:1 1030:1 1031:1 1032:1 
0.59569619488587766 7.0265380323952078 5.0205765366611894 0 0.53430396354198273 4.6324364910882068 7.0761399912174294 0.49755948940269257 0.050352041636975167 1:1 2:0 4:1 5:1 6:2 10:0 13:0 21:1 44:1 535:1 1033:1 1034:1 1035:1 
7.4279585253538887 2.5693303150512414 0 1.5879968707450356 0 0 0 0 0 2:0 4:8 5:0 6:1 10:0 11:1 13:1 14:2 19:4 25:2 30:2 35:1 44:2 51:1 107:1 569:1 1036:1 1037:1 1038:1 1039:1 1040:1 1041:1 1042:1 1043:1 1044:1 1045:1 
5.2539989580300821 0 0 2.3747433836110523 5.491801911631593 1.4759511163139263 1.4737951653644474 0.76363745274100159 2.9071798454916449 2:0 4:2 5:6 6:2 10:0 13:0 14:1 19:3 27:1 31:1 35:3 45:1 47:1 66:1 94:1 130:1 270:1 277:1 318:1 643:1 1046:1 1047:1 1048:1 1049:1 1050:1 1051:1 1052:1 1053:1 1054:1 
0 0 0 0 8 0 8 0 8 2:0 4:0 5:0 6:0 10:0 13:0 56:1 57:1 1055:1 
0 0 0 0 0 4.9988231419309574 2.3474395570751412 0 0 2:0 4:1 5:2 6:1 10:0 13:0 14:2 19:1 35:2 62:1 78:1 472:1 1056:1 1057:1 1058:1 
0 3.9934019872223057 0.95806544348276235 0 0 5.6537310834352645 8 0 0 2:0 4:0 5:1 6:0 10:0 13:1 59:1 1059:1 1060:1 
0 0 2.3940427308246779 0 0.026620067264649789 1.4606143251049371 4.1592258516825327 2.6496129788717804 0 2:0 4:3 5:0 6:3 10:0 13:0 14:1 21:1 28:1 35:2 44:1 45:1 1061:1 1062:1 1063:1 1064:1 1065:1 1066:1 1067:1 
6.0213289503684129 0.8310261231583852 7.366662471835463 1.8399444020749882 8 6.2718956318007466 0 1.4384699297364449 7.5547330397892516 2:0 4:2 5:0 6:2 10:0 13:0 14:1 44:1 108:1 1068:1 1069:1 1070:1 1071:1 1072:1 
8 0 0 2.3611024738273305 4.7251650725044048 1.4730024596985638 8 0.18185026553877284 0 1:1 2:0 4:1 5:1 6:1 9:1 10:0 13:0 19:1 35:3 41:1 87:1 124:1 353:1 677:3 1045:1 1073:1 1074:1 1075:1 
5.9572463183735032 2.884501229431963 3.3466564475493126 2.9767557458923011 3.5001466182690022 0 3.5670175274252891 0 2.5068630343814746 2:0 4:3 5:2 6:2 10:0 12:1 13:1 19:3 31:2 35:1 45:1 104:1 941:1 1076:1 1077:1 1078:1 1079:2 1080:1 1081:1 1082:1 1083:1 
3.0323583589892813 5.7813336832658022 4.3158236025152554 0 3.1992003554434056 1.505351386385632 8 2.5055575410145758 2.8725155097765747 2:0 4:0 5:0 6:1 10:0 13:0 31:1 36:1 44:1 51:1 56:1 66:1 1084:1 1085:1 1086:1 
0 0 2.3227234271952226 0 0 0 8 0 8 2:0 4:0 5:1 6:0 10:0 13:1 56:1 66:1 88:1 131:1 1087:1 
0 0 6.0990990921513113 0 6.1417765417884569 0 8 3.5229842583411304 7.6400194648999369 2:0 4:1 5:0 6:0 10:0 13:0 35:1 1088:1 1089:1 
0 0 0.45007780853916285 0 0 0 0 0 0 2:0 4:5 5:1 6:1 10:0 11:3 13:1 19:3 35:2 44:2 45:3 47:1 56:1 66:1 96:2 156:1 277:2 361:1 406:1 1063:1 1090:1 1091:1 1092:1 1093:1 1094:1 
0.61441277288399487 1.618870678409261 0 1.4264752401022351 0 0 0 0 0 2:0 4:3 5:0 6:2 10:0 13:3 14:1 19:2 25:2 35:1 44:1 45:1 56:1 112:3 130:1 222:1 245:1 361:1 406:1 428:1 463:1 645:1 1095:1 1096:1 
8 8 5.2963545073706451 0 8 2.6643177028245635 8 8 0 2:0 4:2 5:0 6:1 9:1 10:0 13:0 19:1 353:1 361:1 440:1 
1.0401146573219611 0 0 0 2.8715223075858365 0 5.6929105618141858 0 2.5568422619103655 2:0 4:2 5:0 6:1 10:0 13:1 14:2 28:1 35:3 44:1 88:1 743:1 1057:1 1101:1 1102:1 1103:1 1104:1 
8 8 8 8 8 4.250698874175491 8 5.1261093623572673 4.4006701787703832 2:0 4:1 5:1 6:2 10:0 13:0 45:1 380:1 1105:1 1106:1 1107:1 
8 8 8 0.76329082289316563 6.5903067300553193 6.1291136601392093 8 7.3443430147317752 7.8652448103080719 2:0 4:1 5:0 6:0 10:0 13:0 19:1 1108:1 1109:1 
6.4655007440028349 5.2317289409907275 2.969122961076045 3.9348341970879539 2.598914713824942 4.1517575682394181 2.7263545741244335 3.8382995082597584 1.6186552351873078 2:0 4:4 5:3 6:1 10:0 13:0 14:2 19:2 31:1 44:1 45:1 66:1 440:1 770:1 984:1 990:1 1110:1 1111:1 1112:1 1113:1 1114:1 1115:1 1116:1 1117:1 
3.4492507858021324 2.4962798919268043 0 0.90495294035685703 0 0.58879315074112026 2.9928797670784806 2.2388010749391345 0 2:0 4:1 5:1 6:0 10:0 13:0 19:2 25:1 35:1 1120:1 1121:1 1122:1 1123:1 1124:1 
0 4.9415903380434871 4.3292143877414428 0.61071216949470253 2.5858332122068317 8 6.4764763969172812 6.4812394610257904 0 2:0 4:2 5:2 6:1 10:0 13:0 19:3 51:1 1125:1 1126:1 1127:1 1128:1 1129:1 
3.1116375612986484 0.091781151357989074 1.4055587146697812 0.4523410066502605 5.1049734120360606 0 0 0 4.017874028815771 2:0 4:2 5:0 6:2 10:0 13:0 14:1 19:1 51:1 136:1 208:1 1130:1 1131:1 1132:1 1133:1 
8 8 8 8 6.5526000658195898 0 7.2423056945455562 0 0 2:0 4:1 5:1 6:0 10:0 13:0 33:1 56:2 130:1 260:1 426:1 666:1 1134:1 1135:1 1136:1 
2.7864865363312328 2.6558086286462492 5.769223076123561 1.5192066636566746 5.0258312407510672 3.7960523322166106 0.53782016915154851 1.0211018459280727 2.54622943211012 2:0 4:6 5:1 6:4 10:0 13:0 14:1 19:5 25:1 28:1 35:2 44:2 45:1 47:1 51:1 270:1 273:1 361:1 402:1 463:1 546:1 1059:1 1137:1 1138:1 1139:1 1140:1 1141:2 1142:1 1143:1 1144:1 
2.7147973303302613 3.596083724426578 2.211589807746754 2.6409175636579225 3.7029580816050287 2.5164220981051315 8 0 7.4713714685390427 2:0 4:0 5:2 6:0 10:0 13:1 47:1 131:1 173:1 267:1 277:1 736:1 1145:1 1146:1 
0.48094530262196722 0.33800151521954569 1.3777020653747005 0 5.9508385974527478 0 8 1.8876744514160164 0 2:0 4:2 5:0 6:0 10:0 13:0 19:1 31:1 35:2 44:1 45:1 131:1 756:1 802:1 1147:1 1148:1 1149:1 
8 4.3413850386163766 1.012990017711366 0 6.7537982727394752 0 8 0 5.1349666470454665 2:0 4:4 5:2 6:0 10:0 13:1 19:2 27:1 31:1 35:2 44:1 51:1 66:1 89:1 112:1 259:1 470:1 539:1 743:1 1091:1 1150:1 1151:1 1152:1 
8 8 5.8500926297176061 8 8 8 8 4.0526408501814366 2.346135076127279 2:1 4:1 5:0 6:0 10:0 13:0 44:1 1153:1 1154:1 
4.440913593971632 0 0 0.063419762609578365 2.2319936507372491 0 8 0 7.7890450139064384 1:1 2:1 4:5 5:0 6:2 10:0 13:1 19:1 35:4 40:1 45:1 51:1 56:1 57:1 66:1 112:1 200:1 208:1 553:1 644:1 1155:1 1156:1 1157:1 1158:1 1159:1 1160:1 
0 0 1.4117715516189802 0 1.2588616833530553 1.6738428194575541 4.3785023914885768 0 1.5167460032288396 2:0 4:5 5:1 6:0 10:0 13:2 14:1 19:4 21:1 31:1 35:2 44:1 66:1 88:1 194:1 1088:1 1161:1 1162:1 1163:1 1164:1 1165:1 1166:1 
0 0 0 0 0 0 8 0 6.8607573104248942 2:0 4:1 5:0 6:0 10:0 13:0 35:3 56:3 130:1 1167:1 
0 0.73420864535624819 1.6513289460593503 2.5823117990890996 2.8991950681060574 0 1.4858497442164804 0 2.1452382782199155 1:1 2:0 4:5 5:1 6:4 10:0 13:0 14:1 19:3 31:4 44:4 56:1 96:1 103:1 107:1 153:1 359:1 637:2 1168:1 1169:1 1170:1 1171:1 1172:1 1173:1 1174:1 1175:1 1176:1 1177:1 1178:1 1179:1 
6.0244590437842511 1.3580468177227811 4.1278452097585747 0 5.6474509584687214 0 8 0 5.1452017406718786 2:0 4:0 5:0 6:1 10:0 13:0 1180:1 
8 8 8 0 5.6298182684552902 8 8 8 6.996343026997752 2:0 4:0 5:0 6:1 10:0 13:0 1181:1 
8 8 8 0 7.9843234433131736 5.6162428071358717 8 5.4010336526627416 8 2:0 4:0 5:0 6:1 10:0 13:0 1180:1 
0 0 0 3.3139817312378401 0.60879552470129428 0 0.22048732926580195 4.7473866379282432 0 2:0 4:3 5:0 6:0 10:0 13:0 19:2 22:1 25:1 35:1 107:1 277:1 318:1 1150:1 1182:1 1183:1 1184:1 
8 8 5.6293302048109553 0 6.9853831577964298 6.8222561177816265 8 3.0981359572693812 4.9293766483299164 2:0 4:0 5:0 6:1 10:0 13:1 19:1 44:1 112:1 1185:1 
2.4369510268253456 3.0474578957089924 0 0 0.8687449118892574 0 5.6760313391643766 0 0.67302172300194718 1:1 2:0 4:4 5:0 6:1 10:0 11:1 13:3 14:1 19:4 21:1 28:1 31:1 35:4 45:1 47:1 112:2 145:1 252:1 400:1 472:1 513:1 996:1 1061:1 1186:1 1187:1 1188:1 1189:1 1190:1 1191:1 
0 2.7744112757401105 3.3306563970510012 2.0449775078602999 0 2.2458400359999722 2.2669696392691363 0 1.2807928303067391 1:1 2:0 4:6 5:0 6:1 10:0 11:1 13:2 14:2 19:3 31:1 44:2 47:1 66:1 112:1 126:1 187:1 448:1 472:1 510:1 1076:1 1090:1 1192:1 1193:1 1194:1 1195:1 1196:1 1197:1 1198:1 1199:1 
8 0 1.4132048249063871 0 6.1353770073832861 0 8 0 1.3610922832439603 2:0 4:0 5:0 6:1 10:0 11:1 13:1 35:1 1200:1 1201:1 
0.11252265338455077 5.3208948767245952 0.67771452577637092 0.10524310526693351 2.0575791259562726 3.9816626169840341 8 0.095792134012286811 0 2:1 4:1 5:1 6:1 10:0 13:1 14:1 45:1 100:1 112:1 175:1 1202:1 1203:1 1204:1 
0 0 1.2043914227907695 0 0 0 2.6834751045757619 1.9275979799661083 1.6163896219434364 2:0 4:4 5:0 6:1 10:0 11:1 13:1 14:1 19:1 31:2 35:2 44:1 45:1 47:2 159:1 958:1 1205:1 1206:1 1207:1 1208:1 1209:1 1210:1 
1.8040384549171926 0 0 0 0.83746700010079167 0 0 2.2731536467845266 5.0884665276916587 1:1 2:0 4:4 5:1 6:3 10:1 12:1 13:2 19:1 25:1 35:3 44:1 45:1 47:2 62:1 66:1 94:1 112:1 400:1 749:1 754:1 895:1 1211:1 1212:1 1213:1 1214:1 1215:1 1216:1 1217:1 1218:1 1219:1 1220:1 1221:1 
1.1405076440556969 2.025544888176309 0 0 0 2.6567385406786652 0 2.5034240157282754 6.0557462574401502 2:0 4:3 5:1 6:1 10:0 13:0 45:1 47:2 56:2 153:1 160:1 173:1 330:1 356:1 420:1 426:1 1091:1 1222:1 1223:1 
0 6.522366535932111 2.9185046143485036 3.9084997793045568 1.283436099055409 2.0461856388226671 7.1682120270017959 0 1.5037325133076243 2:0 4:6 5:0 6:3 9:2 10:0 13:0 14:1 19:4 28:1 31:2 35:1 44:1 45:1 56:1 66:1 89:1 131:1 161:1 194:1 495:1 809:1 937:1 1215:1 1224:1 1225:1 1226:1 1227:1 1228:1 1229:1 1230:1 1231:1 1232:1 
3.6576259058318974 3.4874205003743062 1.0139955222915595 0 7.3751670974542476 8 8 0 8 2:0 4:1 5:0 6:1 10:0 13:0 45:1 56:1 57:1 156:1 1233:1 
3.4602044385985793 1.1239690854215447 0.85460322392747279 5.0008401231013355 2.6727797420169286 0.94393519090379208 0 1.2351469968923603 1.9230373637009379 1:1 2:1 4:7 5:2 6:4 10:0 11:1 13:1 14:2 19:5 25:2 35:1 44:1 51:1 66:1 161:1 492:1 746:1 769:1 840:1 988:1 1265:1 1266:1 1267:1 1268:1 1269:1 1270:1 1271:1 1272:1 1273:1 1274:1 1275:1 1276:1 1277:1 
8 8 2.7929021218548971 7.6114014095881233 8 6.9186475141352197 8 8 8 2:0 4:1 5:0 6:0 9:1 10:0 13:1 35:1 44:1 125:1 294:1 632:1 1278:1 
0 0 0 0 0 2.2032999025879247 1.2150656573319523 0.95151686280678749 0 1:1 2:0 4:6 5:1 6:1 10:0 13:0 19:4 27:1 30:2 35:3 41:1 44:3 45:1 47:2 51:1 66:1 146:1 508:1 526:1 1045:1 1279:1 1280:1 1281:1 1282:1 1283:1 1284:1 1285:1 1286:1 
8 7.7597971137747246 1.3509769888264922 0 1.2784081227732105 5.8051107658310288 8 0.43337192046547551 3.2965487966705629 2:0 4:1 5:1 6:1 10:0 13:0 14:1 19:1 51:1 1057:1 1287:1 1288:1 1289:1 
0.21765712986586672 0 0.77975644573733438 0 1.3274703043980727 1.3979392194089437 5.1025336595213728 0.40754194213633121 0.68820280309321191 1:1 2:1 4:3 5:0 6:0 10:0 12:1 13:0 31:2 35:2 51:1 323:1 537:1 835:1 1104:1 1154:1 1290:1 1291:1 1292:1 1293:1 1294:1 1295:1 
4.6290738477015365 4.5946279820560507 8 4.779311861101899 1.2188391089371799 2.8690837111847429 6.0870155842211853 1.3417940334257312 6.0434405293479356 2:0 4:4 5:2 6:1 10:0 12:1 13:0 19:2 21:1 28:2 47:1 51:1 1118:1 1296:1 1297:1 1298:1 1299:1 1300:1 1301:1 
0 0 0.42942807321847393 2.0002758269212468 0.55291725678425285 1.8423246383853942 0 0 2.8905643481709951 1:1 2:1 4:5 5:1 6:2 10:0 13:0 19:2 28:1 44:2 45:1 47:1 51:1 54:1 56:1 57:1 66:1 89:1 156:1 362:1 406:1 463:1 1302:1 1303:1 1304:2 1305:1 1306:1 
1.8182726707167978 0 3.7127703707648458 1.0672546797630376 3.978858988148279 0.52541489446649448 2.3916671037810002 0 0 2:1 4:2 5:0 6:3 10:0 13:1 19:1 21:1 31:1 35:2 70:1 154:1 206:1 245:1 459:1 1307:1 1308:1 1309:1 1310:1 1311:1 1312:1 1313:1 
8 0 0 0 4.0090364748799496 6.2224348889986851 8 7.1699311032188842 0 1:1 2:0 4:1 5:1 6:0 10:0 13:1 35:3 47:1 62:1 66:1 112:1 656:1 1314:1 1315:1 1316:1 
0 5.9543301387889978 0 4.4771916681910158 8 0 8 0 1.6803716700176039 1:2 2:0 4:0 5:0 6:1 10:0 13:0 45:2 56:1 736:1 1317:1 1318:1 1319:1 
8 0 0 0 8 0 8 8 0 2:0 4:1 5:1 6:0 10:0 13:0 35:2 45:1 448:1 462:1 1059:1 
1.1543812131305946 0 0 0.3233838463687182 3.7372972216184124 1.5294515571064522 0 0.81910021829490809 0 2:1 4:2 5:1 6:2 9:1 10:0 13:0 15:1 19:2 31:1 35:2 45:2 51:1 318:1 402:1 553:1 1320:1 1321:1 1322:1 1323:1 1324:1 1325:1 1326:1 1327:1 
0 0 0 0 0 0 3.4649100178210794 0 0 1:1 2:0 4:1 5:1 6:0 10:1 13:0 19:1 31:2 94:1 387:1 1328:1 1329:1 1330:1 1331:1 
4.3346403340090545 0 0 0.82766266594127502 0 0 8 2.1382642899466284 0 2:0 4:0 5:0 6:2 10:0 13:1 14:1 20:1 31:1 35:1 82:1 256:1 671:1 1332:1 
4.8115248813162781 8 6.736215541717292 4.6381696576337657 8 8 3.3764029319004343 3.8922357913815717 8 2:0 4:1 5:1 6:1 10:0 13:0 14:1 21:1 44:1 47:1 56:1 426:1 771:1 1333:1 1334:1 1335:1 1336:1 
0 1.377459533830502 4.5444384328191232 8 7.6260467846705762 0.16991845984476875 5.2668351021759454 0 0 2:0 4:2 5:1 6:3 10:0 13:2 19:3 21:1 31:1 35:1 37:1 44:1 47:1 62:1 66:1 94:2 112:1 1018:1 1339:1 1340:1 1341:1 1342:1 1343:1 1344:1 1345:1 
3.5602566086786678 2.8289985231658688 1.6309219438673643 4.3819854536552656 3.7506801746377896 0.6697655112832378 0.72430186951346442 1.8160311131432798 8 2:0 4:8 5:1 6:4 10:0 11:1 13:1 19:1 31:2 35:2 47:4 63:1 89:1 152:1 200:1 350:1 1033:1 1346:1 1347:1 1348:1 1349:1 1350:1 1351:1 1352:1 1353:1 1354:1 1355:1 
0.22245724566874425 7.8710325324425314 2.0202142815799893 3.588532935740961 3.9982080566404816 1.8799408950466947 6.7407676951690947 0.69129605231184066 0.099986550651006104 2:1 4:8 5:0 6:2 10:0 13:0 14:1 19:5 31:2 35:1 45:2 47:3 66:1 114:1 118:2 125:1 553:1 584:1 827:1 1068:1 1351:1 1355:1 1356:1 1357:1 1358:1 1359:1 1360:1 1361:1 1362:1 
0 0 0 0.73482574829824465 3.008332203389279 0 0.46769802720392251 0 2.4042735139957565 2:0 4:3 5:2 6:0 10:0 13:0 19:2 25:1 31:1 44:1 47:1 277:1 664:1 1055:1 1256:1 1363:1 1364:1 1365:1 1366:1 1367:1 1368:1 
6.4207916803992466 1.7851062114290908 0 2.9057352464251567 0 2.3965411792625768 2.8247299487720388 1.4677976954528769 6.9065593740817901 1:1 2:0 4:4 5:0 6:1 10:0 13:1 19:1 35:1 47:1 112:1 556:1 1369:1 1370:1 1371:1 1372:1 
0 0 8 0 0 8 1.4019105640086715 8 8 2:0 4:0 5:0 6:1 10:0 13:1 19:1 47:1 88:1 305:1 655:1 1373:1 
0.75917151026711249 6.0913265214769963 0 0 3.0865083007131613 0 2.9605232748303409 0 0 2:0 4:3 5:2 6:1 9:1 10:0 13:0 19:2 31:4 44:1 45:1 70:1 94:1 149:1 150:1 353:1 440:1 743:1 1119:1 1344:1 1374:1 1375:1 1376:1 1377:1 1378:1 1379:1 1380:1 1381:1 
2.1085827356527549 0 1.1508864510532595 0 0 0 7.1120726730139765 0 0 2:0 4:3 5:1 6:0 10:0 13:0 14:1 19:2 31:1 45:1 47:1 353:1 472:1 495:1 815:1 1382:1 1383:1 1384:1 1385:1 1386:1 1387:1 
1.3636446432870839 8 8 0 2.1958414211645567 4.9393404573280852 8 5.1295720841006656 0 2:0 4:1 5:0 6:0 10:0 13:0 14:1 19:1 44:1 45:1 47:1 763:1 1388:1 1389:1 
5.7790062611294202 3.5254424554399302 8 5.3621624073032761 4.7013721364817282 5.1471159256071752 6.5450240707620884 5.0226411802929407 0.68437195808378004 1:1 2:0 4:2 5:0 6:2 10:0 12:1 13:1 14:2 47:1 154:1 156:1 384:1 1306:1 1390:1 1391:1 1392:1 1393:1 
2.3847574704719881 1.1021311192127607 0.91175603900814783 1.0417595950194991 4.6299875810931574 2.8368716390804862 0.54698934558664702 1.6713250108887556 1.9914066648869018 1:1 2:0 4:4 5:1 6:2 10:0 11:1 12:1 13:2 19:1 35:2 45:1 47:1 89:1 112:1 245:1 1394:1 1395:1 1396:1 1397:1 1398:1 1399:1 1400:1 1401:1 
8 1.5058896374481974 4.1041631440774866 0 0 0.33212178104110829 8 2.6404276325207618 8 2:0 4:1 5:0 6:1 10:0 13:1 44:1 82:1 1079:1 1402:1 
8 8 0 0 8 0.26191937246908575 8 4.8723584656842194 5.5092714129722342 2:0 4:3 5:0 6:0 10:0 13:0 19:1 31:1 47:1 353:1 722:1 1383:1 
5.7174950026655615 2.3602675165621783 0.11848244317679389 2.7570983484475247 2.2417851221541754 0.56867206950785543 0 0.71611025032090569 3.409121307301354 1:1 2:0 4:3 5:1 6:4 10:0 11:1 13:1 14:1 19:4 28:1 35:2 45:2 57:1 66:1 731:1 924:1 1215:1 1346:1 1403:1 1404:1 1405:1 1406:1 1407:1 1408:1 1409:1 1410:1 1411:1 
5.2328439175112322 1.4867383325369852 4.7048073651056264 2.4815555813696841 3.0198395417245592 1.816490995979992 1.6747189866026513 0 4.4595332510833376 1:2 2:0 4:7 5:0 6:0 10:0 11:2 13:2 14:2 19:4 25:1 31:1 35:1 44:1 47:2 88:1 173:1 277:2 300:1 849:1 1111:1 1412:1 1413:1 1414:1 1415:1 1416:1 1417:1 1418:1 1419:1 
5.0011017100486619 3.0798948036679854 5.1775656033491027 1.6758474079867858 2.0194936873551557 0 8 0 3.2669962581236991 2:0 4:4 5:0 6:2 10:0 13:1 14:1 19:1 31:5 44:1 57:1 85:2 88:1 248:1 258:1 277:1 537:1 785:1 983:1 1420:1 1421:1 1422:1 1423:1 1424:1 1425:1 1426:1 1427:1 
4.3544837494984083 8 8 0 3.7669008945132512 8 8 8 8 2:0 4:2 5:0 6:0 10:0 13:0 19:1 47:1 1428:1 1429:1 
0 8 7.6809946752384164 1.3229951271526486 3.6846264768200281 2.8445413572313778 8 2.4274592612470105 6.7945154840147888 1:1 2:0 4:1 5:0 6:1 10:0 13:0 21:1 44:1 94:1 1344:1 1430:1 1431:1 
7.5005949878700173 3.5603452881623929 4.0680987212125048 0.18055525034679043 0 0 2.3173721904020455 1.7285842175243487 3.9790835214113951 2:0 4:1 5:0 6:2 10:0 13:0 28:1 51:1 87:1 1138:1 1432:1 1433:1 1434:1 
0 4.4659570021081239 0 1.6046797894791465 3.0071019718560956 8 0.54745795926873209 8 1.0988654966916778 2:0 4:3 5:0 6:1 10:0 13:0 19:2 35:1 44:1 131:1 135:1 330:1 419:1 723:1 1402:1 1435:1 1436:1 1437:1 1438:1 
5.2174362500982117 0 0 0 4.5516978009624234 0 3.8570764339048731 0 0.15152483848789045 2:0 4:7 5:0 6:4 10:0 13:1 14:3 19:3 31:4 35:1 44:2 66:1 256:1 276:1 353:1 399:1 426:1 448:1 569:1 589:1 671:1 796:1 976:1 1360:1 1439:1 1440:1 1441:1 1442:1 
0 0 0 0 3.3465102850257304 0 1.1505908235288043 0 0 2:0 4:4 5:2 6:0 10:0 13:0 19:2 31:4 35:2 45:2 206:1 221:1 234:1 245:1 440:1 652:1 840:1 1119:1 1238:1 1250:2 1380:1 1443:1 1444:1 1445:1 1446:1 1447:1 1448:1 1449:1 1450:1 1451:1 
2.0308292725461099 0 0 0 0 0.82615679778020612 5.4868589966085857 0 1.2335258837375309 2:0 4:2 5:0 6:2 10:0 12:1 13:2 14:1 35:2 36:1 66:1 88:1 89:1 248:1 277:1 1452:1 1453:1 1454:1 1455:1 1456:1 1457:1 
6.3306278700264542 4.0356405406277451 0 1.7024625744039537 5.4927448258310667 0 3.3962924417698463 0.63010117766585028 0.29417244601568704 1:1 2:0 4:2 5:0 6:3 9:1 10:0 13:1 14:1 21:1 28:1 31:1 35:2 47:2 112:1 671:1 672:1 673:1 1063:1 1458:1 1459:1 1460:1 1461:1 
6.4209482216135125 3.6648415841170112 1.5747137722158495 0.3204736598064703 0 1.9225715057319408 0.77517959677972104 0.47932676074391523 0 2:0 4:2 5:1 6:4 10:0 13:0 14:1 31:1 35:1 51:1 66:1 89:1 245:1 671:1 1250:1 1462:1 1463:1 1464:1 1465:1 1466:1 1467:1 
0.85126120257798099 0 0 0 0 0 0 0 0 2:0 4:3 5:2 6:1 10:0 13:0 19:2 35:4 56:1 57:1 353:1 440:1 652:1 1053:1 1250:2 1468:1 1469:1 1470:1 
2.8210229665125901 1.4483268382445909 0 0 0.92583454769465079 1.294071168430116 5.6434684176972558 3.1895499415906339 1.4787503388232213 1:1 2:0 4:5 5:0 6:2 10:0 13:0 19:3 25:1 31:3 35:2 202:1 353:1 440:1 652:1 783:1 1250:2 1469:1 1471:1 1472:1 1473:1 1474:1 
0 0 2.0001713593922177 0 0 0 8 0 0 1:1 2:0 4:0 5:0 6:1 10:0 13:0 31:1 35:1 45:1 66:1 88:1 472:1 1475:1 1476:1 
8 2.7718996685913342 3.9577677301104615 2.3766768082822205 0 0 1.5385188721301348 0 6.0491646463049786 2:0 4:1 5:0 6:1 10:0 11:1 13:0 47:1 56:1 1477:1 1478:1 
0 0 0 0 2.5050223737251458 0 2.6956756398770731 0 0 1:1 2:0 4:2 5:0 6:0 10:0 13:0 14:1 19:1 35:2 51:1 78:1 1479:1 1480:1 1481:1 
0 3.2403777208258662 3.2926331785560614 0 0 0 5.1603201188083743 0 0.87126354445132093 2:0 4:2 5:0 6:0 10:0 13:0 31:1 724:1 730:1 732:1 1482:1 1483:1 1484:1 
2.4085484642787667 1.0656073453803103 0.73699670301081088 1.8330280238077772 0 0 8 0 1.0448076791677776 2:0 4:1 5:0 6:2 10:0 13:1 14:1 28:1 35:1 94:1 112:1 271:1 1225:1 1485:1 1486:1 
0 0 0.30607232239925086 0 0 0 7.3078955977822275 1.0901099230087694 0 2:0 4:3 5:0 6:0 10:0 13:0 19:1 25:1 406:1 556:1 1487:1 1488:1 1489:1 
5.8392701993270695 8 5.5002660058593769 6.6132844454865207 6.2480815462842347 5.9514272523159795 6.5065375996451262 3.0967384848604542 3.5356065756922006 1:1 2:0 4:3 5:1 6:1 9:1 10:0 13:0 14:1 19:2 25:1 30:1 44:1 47:1 559:1 1487:1 1490:1 1491:1 1492:1 1493:1 1494:1 1495:1 1496:1 
8 1.0590501246722965 0.15998004418497544 3.7909348466368087 0 1.3083696717480848 8 8 5.1482550874913438 2:0 4:1 5:1 6:0 10:0 13:0 35:2 131:1 1445:1 1450:1 1499:1 
0 0 4.9968564882761131 0.17027770637726333 0.16068094216634746 0 0 0 6.0991984201526916 2:0 4:4 5:2 6:1 10:0 13:0 14:1 31:1 35:1 44:2 51:1 96:1 156:1 267:1 406:1 559:1 736:1 1215:1 1507:1 1508:1 1509:1 1510:1 1511:1 
2.6813788351055257 1.4675343801735454 0.40954846065109296 0 1.454339783144029 0 2.8650322592080046 0 0 2:0 4:4 5:0 6:2 10:0 13:2 14:1 19:1 28:1 31:2 35:2 45:2 66:1 94:1 112:2 154:1 267:1 277:1 529:1 715:2 973:1 1512:1 1513:1 1514:1 1515:1 
5.1299175986744148 4.2463771833956612 0 3.1945606052248516 3.2714791563140477 0 0 0 5.1219683012176027 2:0 4:6 5:1 6:2 9:1 10:1 11:1 13:2 14:1 19:1 31:1 35:2 44:1 45:4 47:1 56:1 88:1 89:1 763:1 1053:1 1456:1 1516:1 1517:1 1518:1 1519:1 1520:1 1521:1 1522:1 1523:1 
0 0 0.20307480308618436 0 1.1026811923869604 1.9365821835226538 0 5.1891090485052329 0 1:1 2:0 4:3 5:0 6:0 10:0 13:1 19:1 35:2 44:1 45:1 47:2 1389:1 1524:1 1525:1 1526:1 1527:1 
8 0 0 0 0 0 8 8 0 2:0 4:1 5:2 6:0 10:0 13:0 19:2 35:2 62:1 187:1 277:1 632:1 1528:1 1529:1 1530:1 
2.2079889465620566 0 0 1.1479689039277237 4.573369669135535 0 0 0 2.3613164914706632 2:0 4:3 5:1 6:3 10:0 13:2 14:1 19:3 31:1 44:1 56:1 57:1 66:1 88:1 112:1 221:1 318:1 325:1 427:1 1088:1 1531:1 1532:1 1533:1 1534:1 1535:1 1536:1 1537:1 
0 3.8391126497314221 0 1.1357976896633279 4.1404858531027937 0 3.1645289399615124 0 3.4828684924170705 2:0 4:2 5:0 6:4 10:0 13:0 18:1 19:1 45:1 47:2 56:2 173:1 458:1 463:2 1538:1 1539:1 1540:1 1541:1 
3.3233362444635848 0 2.9673432395927959 1.7112234514837898 3.0499200134759641 0.79172470452369226 6.3026029544572078 3.1465509530959359 1.2288768585056267 1:1 2:1 4:3 5:0 6:1 10:0 13:0 21:1 31:1 35:2 47:1 51:1 94:1 99:1 125:1 553:1 1542:1 1543:1 1544:1 1545:1 1546:1 1547:1 
0 0 0 0 0 0 7.9021590978083349 0 0 2:0 4:1 5:0 6:0 10:0 13:1 31:1 35:2 88:1 424:1 1456:1 1498:1 1548:1 
5.6522595111235558 0 0.13323310615059178 1.5701901350512717 5.6502553519221506 0.0086087599793601543 1.3246706110816637 0 5.7492972024791715 2:0 4:2 5:0 6:2 10:0 12:1 13:3 14:1 19:1 28:1 35:2 51:1 66:1 85:1 108:1 112:1 277:1 1549:1 1550:1 1551:1 1552:1 1553:1 1554:1 1555:1 1556:1 
3.1508229429875967 8 8 0 0 5.614476485400929 8 5.4030390889612914 8 2:0 4:0 5:0 6:1 10:0 13:0 1557:1 
0 0 0 3.8503542429310049 0 0.82538339611192302 0.059331630273316699 0 0 2:0 4:6 5:0 6:0 9:1 10:0 13:0 19:4 35:2 41:1 44:2 47:1 56:2 89:1 486:1 677:3 835:1 1558:1 1559:1 1560:1 1561:1 1562:1 1563:1 1564:1 
1.0753766145312247 0 2.1664198406243131 0 0 0 1.8579217126668333 0.77528626253958455 0 1:1 2:0 4:1 5:0 6:4 10:0 12:1 13:0 19:2 31:1 35:2 51:2 94:1 1138:1 1228:1 1514:1 1565:1 1566:1 1567:1 1568:1 1569:1 
6.3106735240236187 8 8 7.3405838853793686 5.9521872990231923 0 5.7330954066563855 0.29259298177820492 7.6782361670136492 2:0 4:3 5:1 6:0 10:1 13:0 14:1 19:1 31:1 36:1 47:2 56:1 70:1 131:1 267:1 924:1 1330:1 1570:1 1571:1 1572:1 1573:1 
8 0 0 1.6249607749620993 0 0 0 0.18108512808301361 8 2:0 4:0 5:0 6:1 10:2 13:0 35:3 45:3 146:1 472:1 761:1 1574:1 1575:2 
0 3.0666564888632508 0 0 0 0 5.7648493595576902 0 4.0085814304788805 1:1 2:0 4:1 5:0 6:0 10:0 13:1 14:1 19:1 28:1 31:1 47:1 51:1 66:1 112:1 1365:1 1576:1 1577:1 1578:1 
0 0 0 0 0 0 1.1415484740735335 0 0 2:1 4:3 5:2 6:1 9:1 10:0 13:1 14:1 18:1 19:3 21:1 28:1 30:1 35:1 37:1 41:1 42:1 44:1 45:1 47:2 94:1 130:1 164:1 260:1 360:1 400:1 754:1 840:1 1059:1 1238:1 1465:1 1579:1 1580:1 1581:1 1582:1 1583:1 
2.8794305379869374 1.8570953585582433 4.4588288252383927 0 2.2078883459709884 0 8 0.1345506280146922 0.63898132609068903 2:0 4:0 5:0 6:0 10:0 13:0 19:1 31:1 51:1 1584:1 1585:1 1586:1 
0.95314384893502668 0 1.2132584868650553 0.70205420089642423 0 0.54977543478482949 0.11710931133572974 0.50543722957565085 0.13917783334865602 2:0 4:2 5:0 6:7 10:0 13:1 14:1 35:2 44:1 45:1 51:1 66:2 298:1 657:1 1587:1 1588:1 1589:1 1590:1 1591:1 1592:1 1593:1 1594:1 1595:1 
0.032618347348972329 0 0 0 0 0 0 0 0 2:0 4:1 5:0 6:0 10:0 11:1 13:1 88:1 98:1 108:1 154:1 155:1 245:1 
7.9861222949939457 2.5017399110467209 8 0 8 2.6937171693179716 8 0 8 2:0 4:0 5:0 6:1 10:0 13:0 66:1 108:1 1604:1 
5.1485464598861901 5.41907903313788 2.7722394327129383 0 0 0 1.5835453785368767 0 0 2:1 4:5 5:2 6:1 9:1 10:0 13:1 19:4 31:2 44:3 112:1 156:1 379:1 495:1 510:1 632:1 733:1 944:1 1605:1 1606:1 1607:1 1608:2 
3.1067131117028461 4.6679504003862426 1.5207328378313416 3.5350889351465828 6.0071632347181945 5.3024566420662911 4.0993882664329941 5.5891065167060461 1.9045658078552632 2:0 4:6 5:1 6:5 9:1 10:0 13:0 14:2 19:3 28:1 31:2 35:3 44:2 45:1 51:1 194:1 277:1 537:1 936:1 1537:1 1609:1 1610:1 1611:1 1612:1 1613:1 1614:1 1615:1 1616:1 1617:1 1618:1 1619:1 1620:1 1621:1 1622:1 
0 0 2.2524520979799121 0 0 0 5.8042737928605828 0 0 1:1 2:0 4:0 5:0 6:1 10:0 13:1 14:1 56:1 66:1 88:1 153:1 244:1 245:1 1623:1 
5.4239113769606222 3.2278021678187798 8 0 3.8087970386182133 0 8 1.8311022763227813 0.37284696271066364 2:0 4:1 5:1 6:0 10:0 13:0 31:1 1357:1 1624:1 1625:1 
4.2361071185213639 0 0.69187733296101894 4.2164148275525823 2.9231464045540538 0.17401014431833911 4.3561557143944327 0.1507613071690492 0.18745798430452634 2:0 4:2 5:0 6:3 10:0 13:1 14:1 19:1 35:1 44:1 45:1 47:1 88:1 156:1 601:1 761:1 1626:1 1627:1 1628:1 1629:1 
2.7259501863114526 3.7924823437959518 2.6696712070288711 0 3.8838366498162542 8 1.9735430175515241 4.3873717289651148 3.0095763179169492 1:2 2:0 4:7 5:1 6:1 9:1 10:0 13:0 14:1 21:1 25:1 31:1 40:1 44:2 45:2 91:1 118:1 400:1 537:1 606:1 608:1 1503:1 1630:1 1631:1 1632:1 1633:1 1634:1 1635:1 1636:1 1637:1 1638:1 1639:1 
2.3905316760450273 7.2427812818563968 2.1945820190558889 2.1390929720807454 3.9797567656632236 5.9489890375388681 5.4445375319952269 3.3754994954493847 0 2:0 4:6 5:2 6:1 9:1 10:0 13:1 19:3 25:1 31:1 35:2 44:1 45:1 47:2 62:1 139:1 245:1 324:1 325:1 400:1 575:1 1640:1 1643:1 1644:1 1645:1 1646:1 1647:1 1648:1 1649:1 
0 0 6.4821237078948446 2.3539760069958797 0 1.7743703749636459 0.96022753675334971 5.2038028268239804 5.804541034306097 2:0 4:4 5:0 6:1 10:0 13:0 19:1 36:1 44:1 244:1 267:1 1650:1 1651:1 1652:1 1653:1 1654:1 
5.2372949312450645 6.7908063734268662 7.6361967651312854 2.8993200596684119 3.0376010533730491 7.471336714611029 8 3.4817665586655755 8 2:0 4:3 5:0 6:0 10:0 13:0 28:1 1162:1 1655:1 1656:1 
4.1131136407337721 1.2538087752637876 3.2558371248581048 3.1253539546921267 6.4535068699348139 3.5122728704083759 5.1439994825777653 3.1314567596660146 5.7898211663777319 1:1 2:0 4:3 5:2 6:1 10:0 13:0 19:2 28:1 35:2 44:1 45:1 146:1 453:1 854:1 859:1 1657:1 1658:1 1659:1 1660:1 1661:1 1662:1 1663:1 1664:1 1665:1 
2.736612622437407 0 4.5209612782322726 0 2.818411735435379 0 3.6513849874212649 8 8 2:0 4:0 5:1 6:1 10:1 13:0 19:1 35:2 208:1 212:1 1666:1 1667:1 1668:1 
0 0 0 0 0 0.093611981110430939 0 0 0 1:2 2:0 4:7 5:1 6:1 9:1 10:0 11:1 13:1 19:3 25:1 30:1 35:3 37:1 41:1 42:1 44:2 45:1 47:3 51:1 319:1 584:1 708:1 958:1 992:1 1395:1 1561:1 1673:1 1674:1 1675:1 1676:1 
0 0 0.079196449890718973 0 0 0 0 0 0 2:0 4:7 5:0 6:1 9:1 10:0 13:0 14:1 19:3 21:1 25:1 28:1 30:1 37:1 41:1 42:1 44:2 45:1 47:3 87:1 319:1 987:1 1107:1 1378:1 1677:1 1678:1 1679:1 1680:1 1681:1 
4.8850813731465648 2.1538015299195288 0 0 7.5199674075211815 0 6.276217781674398 0 0 1:1 2:0 4:5 5:0 6:1 10:0 13:0 19:3 31:1 35:1 44:1 45:1 51:1 130:1 150:1 161:1 224:1 265:1 353:1 440:1 1325:1 1526:1 1561:1 1682:1 1683:1 1684:1 1685:1 
4.7344934260711522 0 8 0 2.731540805026988 8 8 2.9661475047234416 0 2:0 4:1 5:0 6:0 10:0 13:0 1357:1 1686:1 
2.0593272251724644 7.5112189012598058 0 8 5.2996516839418177 8 1.697984189541542 5.4922952319439027 0.50156923037404411 1:1 2:0 4:7 5:0 6:1 9:1 10:0 12:1 13:1 19:3 21:1 25:1 31:1 35:3 47:1 51:3 94:1 131:1 237:1 238:1 561:1 677:3 950:1 1388:1 1687:1 1688:1 1689:1 1690:1 1691:1 
1.6460854139641969 7.2900047194986879 2.780048504453053 2.6654752668357875 2.423872147345119 2.5166419150404136 0 4.2438998591886952 2.6041581912701868 2:1 4:10 5:0 6:1 9:1 10:0 13:0 19:5 25:1 44:1 45:2 94:1 156:1 280:1 448:2 596:1 637:1 1250:1 1692:2 1693:1 1694:1 1695:1 1696:1 1697:1 1698:1 1699:1 1700:1 1701:1 1702:1 1703:1 1704:1 
3.1697014505194794 0 0 3.3773602144526307 3.6789123169265463 0 1.1524394042027175 0 0 2:1 4:2 5:0 6:5 10:0 13:0 14:1 30:1 35:1 45:2 87:1 107:1 118:1 437:1 472:1 553:1 864:1 1401:1 1519:1 1705:1 1706:1 1707:1 1708:1 1709:1 1710:1 
3.8906545011902183 3.5972348534038106 3.3192392301299827 4.5303097132482195 4.1131457814185044 1.4429848431352232 2.858860509531211 1.7237234714371554 3.144112186309175 2:0 4:5 5:1 6:1 10:0 13:1 14:1 19:3 31:2 35:2 47:1 66:1 104:1 112:1 1500:1 1711:1 1712:1 1713:1 1714:1 1715:1 1716:1 1717:1 1718:1 1719:1 1720:1 1721:1 
7.5678593546810333 0 0 7.0166453413076715 4.8025477852243412 0 8 0 0 2:0 4:1 5:0 6:0 10:0 13:0 19:1 31:1 35:1 47:1 318:2 424:1 1428:1 
6.515635570621642 1.4822610782872703 1.3220158689117967 0 2.9125063081160372 0 3.575297453082269 1.5170709592683156 3.5038453945982679 2:0 4:5 5:1 6:2 10:0 13:0 19:2 21:1 35:2 44:1 45:1 47:1 51:1 186:1 202:1 245:2 270:1 569:1 1722:1 1723:1 1724:1 1725:1 1726:1 1727:1 1728:1 
0 0 3.3459238322046509 0.11754681495858851 2.4139057141500198 0.37758655765447252 0.069736044585638951 1.7714344577456427 6.4487897774112248 2:0 4:3 5:1 6:2 10:0 13:1 14:1 19:2 25:1 31:1 40:1 47:3 56:1 66:1 112:1 173:1 471:1 502:1 1729:1 1730:1 1731:1 1732:1 1733:1 1734:1 
4.3570901738962329 8 4.4978751276825122 2.8088509674239326 6.1718177517860511 4.7241457769947619 8 5.8282333992621416 0 2:0 4:2 5:2 6:0 10:0 13:0 19:1 44:1 47:1 1272:1 1735:1 1736:1 1737:1 
2.5641671855754664 0 0 0.0041699059055470972 2.0992882290695847 0.46188573314110343 1.5771769465321213 0 1.5590878342462144 1:1 2:0 4:2 5:0 6:4 10:0 13:3 14:1 19:1 31:1 35:3 44:1 51:1 57:1 66:1 82:1 112:1 294:1 1738:1 1739:1 1740:1 1741:1 1742:1 1743:1 1744:1 1745:1 1746:1 
1.5569012332622181 0 0 0 0 0 7.6143288124662032 0 3.777890511900805 2:0 4:0 5:0 6:1 10:0 13:1 21:1 31:1 35:1 45:1 66:1 259:1 1747:1 1748:1 1749:1 
0.79601106054634241 5.1813057952921744 0 3.0809151782915625 0 2.0703727414355622 0 0 1.9418865961793381 1:1 2:0 4:6 5:1 6:1 10:0 13:2 19:2 31:1 35:1 44:1 45:1 47:1 51:1 112:2 131:1 224:1 245:1 252:1 556:1 738:1 1422:1 1458:1 1750:1 1751:1 1752:1 1753:1 1754:1 
2.5970487851951747 4.0545769786550796 5.3558768702028576 0 3.3856239849944223 0.64640677982731154 1.8666808165227775 2.4561304811670568 1.2131928815175974 2:0 4:12 5:1 6:5 10:0 13:0 14:2 19:4 31:3 35:1 44:4 51:2 114:1 156:2 160:1 265:1 319:1 532:1 1153:1 1737:1 1755:1 1756:1 1757:1 1758:1 1759:1 1760:1 1761:1 1762:1 1763:1 1764:1 1765:1 1766:1 1767:1 
4.983699354581268 1.4615681085149284 0 0 0.37451012945804568 0 0 0 0.14697981808188196 1:1 2:0 4:4 5:0 6:1 10:0 13:2 19:2 31:1 35:1 44:1 47:1 89:1 94:2 112:1 173:1 400:1 475:1 561:1 746:1 1768:1 1769:1 1770:1 1771:1 
0 2.8075194919218487 2.7852462660908812 0.62900054204488154 0 0 0 0 6.5630723145201761 1:1 2:0 4:6 5:0 6:2 10:0 13:3 19:3 31:1 35:1 44:3 45:1 51:1 66:1 88:2 89:1 112:1 130:1 259:1 332:2 426:1 814:1 1772:1 1773:1 1774:1 1775:1 1776:1 1777:1 1778:1 
0.20709063361842822 3.8738637690685125 1.6516209809855178 0 6.8738214478093118 2.1937175933738624 8 0 3.4319134651999326 2:0 4:1 5:0 6:0 10:0 13:0 1779:1 1780:1 1781:1 
1.0404300956168053 0 0 0 0 0 6.1054433367290679 0 2.5485079378875413 2:0 4:1 5:0 6:3 10:0 13:1 31:1 51:1 56:2 88:1 1536:1 1778:1 1782:1 1783:1 1784:1 
0 4.452510101356121 0 2.063444588480607 1.1671992546160077 1.7870305376846232 0.099109736452680411 2.8906369886443088 0 1:1 2:0 4:7 5:2 6:2 10:0 13:0 14:2 19:3 21:1 31:1 35:3 44:2 45:1 51:2 80:1 89:1 175:1 291:1 510:1 535:1 701:1 996:1 1195:1 1357:1 1776:1 1785:1 1786:1 1787:1 
0 0.42427696453662045 0 0 0 0 0 0 3.8412526934898583 2:0 4:3 5:0 6:1 10:0 13:2 14:1 21:1 31:1 44:1 47:1 56:2 66:1 112:1 153:1 161:1 252:1 360:1 761:1 1055:1 1095:1 1788:1 1789:1 
2.3008603857724981 8 6.3861089142755167 6.2461573968491386 8 1.1839767470485814 3.3006928197543508 4.6149813533615021 0.089275624518390273 1:1 2:1 4:6 5:1 6:1 9:1 10:0 13:0 14:2 19:5 25:1 28:1 31:2 35:3 45:1 47:1 94:1 136:1 464:1 553:1 794:1 1344:1 1691:1 1748:1 1774:1 1790:1 1791:1 1792:1 1793:1 1794:1 
3.3765464051354632 0 0 0 1.6013558200612672 0 0 0 0 2:0 4:3 5:0 6:3 10:0 11:1 13:2 14:1 19:2 31:1 35:3 44:1 66:1 88:1 353:1 599:1 639:1 940:1 1378:1 1795:1 1796:1 1797:1 1798:1 1799:1 
0 0 5.8805249273593221 0 0 0 8 0 1.4664825849951217 2:0 4:1 5:0 6:0 10:0 13:1 19:1 56:1 88:1 245:1 1800:1 
8 0 0 0 0 0 1.3557958292023322 0 4.6787475167529955 2:0 4:3 5:0 6:0 10:0 12:1 13:1 14:1 19:1 25:1 30:1 31:1 41:1 44:1 45:1 47:2 472:1 666:1 996:1 1801:1 1802:1 1803:1 1804:1 
5.3197256052327067 0 8 0 0 8 8 0 8 2:0 4:1 5:0 6:0 10:0 13:0 14:1 19:1 47:1 173:1 763:1 1007:1 
2.7382956172534598 8 3.401496918200329 0 4.0041376416595895 1.4109660400215891 0 1.8286844802102578 1.4846115029116913 2:0 4:5 5:0 6:2 10:0 11:1 13:1 19:3 44:2 45:1 89:1 663:1 788:1 1583:1 1805:1 1806:1 1807:1 1808:1 1809:1 
2.3608521435124854 0 0 1.0407268633258269 1.3225263028492065 2.6698920513135493 0 1.0343000499533475 1.9257698519174322 2:0 4:4 5:1 6:4 9:1 10:0 13:0 14:2 19:4 25:2 30:2 35:2 41:2 44:2 45:1 47:1 383:1 883:1 1242:1 1355:1 1810:1 1811:1 1812:1 1813:1 1814:1 1815:1 1816:1 1817:1 1818:1 1819:1 1820:1 
6.2235297349028915 0 3.3602380469604665 0 2.3623492750664496 0 8 0 4.6412520282638745 2:0 4:2 5:2 6:2 10:0 13:1 19:1 21:1 31:1 44:1 156:1 158:1 194:1 352:1 1023:1 1497:1 1822:1 
1.8346542143105558 0.098547956747008614 2.2727059038833626 0 0.19201064992844835 2.2795735494376919 0 0 0.66085164865368962 1:2 2:1 4:6 5:2 6:3 10:0 11:2 12:1 13:1 28:1 31:3 36:1 44:2 56:1 66:1 89:2 158:1 362:1 1023:1 1401:1 1823:1 1824:1 1825:1 1826:1 1827:1 1828:1 1829:1 1830:1 1831:1 
2.3969198370570775 8 5.4415916267467415 3.784038742227001 3.7707077281863977 4.0176556971393387 0.76050103238469269 1.4922972147409042 8 2:0 4:7 5:3 6:4 10:0 13:1 19:5 25:1 31:1 66:1 89:1 108:1 112:1 353:1 426:1 556:1 591:1 732:1 1335:1 1827:1 1829:1 1832:1 1833:1 1834:1 1835:1 1836:1 1837:1 1838:1 1839:1 1840:1 1841:1 1842:1 
8 1.6798323679734326 0 0 8 0.25943454474078137 8 8 8 2:0 4:0 5:0 6:2 10:0 13:0 35:3 864:1 865:1 1843:1 
0 0.36732524959379309 0 0 0 0 7.8393480047096586 0 0 2:0 4:2 5:0 6:0 10:0 13:0 19:1 28:1 45:1 56:1 70:1 1650:1 1844:1 
6.7871744477418217 0 0 8 0 0 8 0 0 2:0 4:0 5:0 6:0 10:0 13:0 51:1 318:1 1480:1 
0 0 0 0 5.6292981001332203 0 8 0 0 2:0 4:0 5:1 6:2 10:0 11:1 13:0 14:2 31:1 35:1 47:1 56:1 66:2 245:1 248:1 267:1 795:1 1272:1 1845:1 
5.9151779305433587 0 8 1.6323059286896788 8 1.9769176578294834 0 0 8 2:0 4:0 5:1 6:1 10:0 13:0 14:1 31:1 66:2 108:2 194:1 472:1 1846:1 1847:1 
0.073592953846437534 6.9879456765114831 1.3324425164089404 0 1.0707295533369301 1.0266145872723156 0 0.010551359468384765 8 2:0 4:2 5:1 6:0 10:0 13:1 14:1 19:2 28:1 35:1 66:2 112:1 1771:1 1848:1 1849:1 1850:1 1851:1 1852:1 
2.9927895791704024 4.5798210873689511 0 2.7957707264369134 4.9698568922901956 6.6708026697486531 8 5.027842842586467 0 2:0 4:3 5:0 6:0 10:0 13:0 19:1 25:1 44:1 330:1 1853:1 1854:1 1855:1 
8 8 8 0 7.6487115826433314 7.370224063828708 8 7.5584806352879479 8 2:0 4:0 5:1 6:0 10:0 13:0 1856:1 
6.1293202773659567 4.2725586024470381 3.5828848281352701 4.0003656771778333 3.629956959662505 2.9021360892724815 3.2392515905331662 1.1355685298735538 2.6685634579910715 1:1 2:0 4:2 5:2 6:4 10:0 13:2 14:2 21:1 28:1 35:1 40:1 44:1 45:1 47:1 54:1 66:1 112:2 154:1 196:1 632:1 1155:1 1511:1 1857:1 1858:1 1859:1 1860:1 1861:1 1862:1 1863:1 
0 0 0 0 0 0 2.8814453484149971 0 0 2:1 4:6 5:0 6:1 9:1 10:0 13:0 19:1 30:1 31:1 37:1 40:1 41:1 42:1 45:1 47:2 51:2 63:1 66:2 267:1 319:1 498:1 537:1 553:1 835:1 840:1 1211:1 1238:1 1871:1 1872:1 1873:1 
0.3398486879897708 0 0.97912077196481506 0 2.163004845559255 0 0 0 0 2:1 4:4 5:0 6:0 10:0 13:0 19:2 28:1 31:1 44:1 131:1 156:1 207:1 260:1 319:1 362:1 420:1 498:1 580:1 680:1 1248:1 1874:1 1875:1 1876:1 1877:1 
0 6.841315738483515 4.3619578185981114 0 6.1128739125375979 0 8 0 0 2:0 4:0 5:0 6:0 10:0 13:0 31:1 1712:2 
0 0 2.5481881164704396 2.7837018369709741 0.3075526153108849 2.2958809073725104 2.9453486830145259 4.5739883694525627 0 1:1 2:0 4:4 5:1 6:0 10:0 13:1 14:2 31:1 35:2 45:1 51:1 54:1 98:1 112:1 267:1 318:1 537:1 538:1 707:1 1287:1 1878:1 1879:1 1880:1 
5.9983163466166145 8 3.1100017304144862 8 7.463106170026216 3.318317515957717 3.1490614742246672 0 6.1626202169575652 1:1 2:0 4:7 5:2 6:2 10:0 13:0 19:4 25:1 28:2 35:1 51:1 146:1 161:1 353:1 584:1 1267:1 1881:1 1882:1 1883:1 1884:1 1885:1 1886:1 1887:1 1888:1 1889:1 
0 0.14416168995046816 0 0 0.59028602206526681 2.9746434096844707 0 0 0 1:1 2:0 4:6 5:0 6:0 9:2 10:0 13:0 19:4 35:2 41:1 44:1 47:1 56:1 89:1 161:1 265:1 445:1 486:1 677:3 1249:1 1503:1 1890:1 1891:1 1892:1 
8 0.57802440488474705 8 5.997701332824982 6.6856041717566068 1.53495364932113 4.7918793844408931 4.3872411958447133 8 2:0 4:2 5:1 6:0 10:0 13:0 28:1 47:1 108:1 503:1 983:1 1118:1 1893:1 1894:1 1895:1 
0 0 0 0 0 0 1.5062154678566686 0 0 1:1 2:0 4:1 5:0 6:3 10:0 12:1 13:0 14:1 31:1 35:1 42:1 45:2 743:1 866:1 1895:1 1896:1 1897:1 1898:1 1899:1 1900:1 
2.3185766663113814 0 0 0 2.6265937698322386 0 8 0 0 2:0 4:2 5:0 6:0 10:0 13:0 19:1 56:1 57:1 156:1 824:1 840:1 1901:1 
7.5969195865419081 5.0612623197746816 4.9556614980463731 0.28884197338388223 0 0 6.3072166300730661 0 8 1:1 2:0 4:0 5:0 6:0 10:0 11:1 13:1 19:1 47:1 88:1 99:1 1857:1 1902:1 1903:1 
2.2399387387867922 4.3374397200345216 1.0677065887129964 3.1619007004849595 8 6.5159435148723368 3.2290712869097828 5.1829679793926999 0 1:1 2:0 4:10 5:1 6:1 9:1 10:0 13:0 14:1 19:8 25:1 35:2 44:2 45:1 94:1 145:1 224:1 265:1 277:1 330:1 556:1 580:2 675:1 1409:1 1503:1 1904:1 1905:1 1906:1 1907:1 1908:1 1909:1 1910:1 
5.7221787416654966 8 8 3.2726089897644157 8 7.7115102506613091 8 1.0564837967910292 4.2362051744964981 2:1 4:1 5:0 6:0 10:0 13:0 1821:1 1911:1 
8 5.2345345450717993 8 0 0 8 5.4291124960214283 8 0.63381391032737766 2:0 4:2 5:0 6:1 10:0 13:0 18:1 44:2 56:1 130:1 192:1 1503:1 1912:1 
0.10867552598746719 1.2888600095520062 2.9196869973880721 0 0 0 0 0 1.2029209955002136 1:1 2:0 4:3 5:0 6:3 10:0 13:0 14:1 19:1 31:1 35:1 47:1 66:1 94:2 130:1 173:1 629:1 1712:1 1913:1 1914:1 1915:1 1916:1 1917:1 1918:1 1919:1 
3.0360728784412383 3.0150197893087261 0 0.059817256019389253 6.0942371541153433 0 0 3.2404797917885908 3.5520430170838226 1:1 2:0 4:4 5:1 6:1 9:1 10:1 13:0 19:2 28:1 30:1 35:4 44:2 45:2 51:1 75:1 108:1 126:1 131:1 156:1 245:1 423:1 572:1 1103:1 1575:1 1920:1 1921:1 1922:1 
4.4749822343551315 0 8 0 1.7809993905522117 8 8 8 0 2:0 4:1 5:1 6:1 10:0 13:0 35:1 62:1 1503:1 1923:1 1924:1 1925:1 
0 0 2.115423944899721 0 0 0 0 0 8 2:0 4:4 5:0 6:1 10:0 11:1 13:1 14:2 19:2 21:1 25:1 31:3 35:1 44:2 47:1 173:1 289:1 736:1 1439:1 1926:1 1927:1 1928:1 1929:1 1930:1 
0 0 0 0 0 0 0 0 8 2:0 4:0 5:0 6:0 10:0 11:2 13:2 56:2 57:1 1055:1 
0 0 0 0.70827651941708558 1.7054559581687765 1.8494077784328731 0 0.13317591128928957 0 2:0 4:6 5:2 6:2 10:0 13:0 19:3 31:1 35:1 44:3 45:1 47:1 108:1 286:1 289:1 508:1 705:1 1931:1 1932:1 1933:1 1934:1 1935:1 1936:1 1937:1 1938:1 1939:1 1940:1 1941:1 
0 0 0 0 8 4.7617723216612475 8 8 0 2:0 4:1 5:0 6:0 10:0 13:0 35:3 89:1 1942:1 
0 0 0 0 0 0 8 0 8 1:1 2:0 4:0 5:0 6:0 10:0 11:1 13:1 88:1 1943:1 
0 0 0 0 0 0 4.2682965642628217 0.94908194917802968 0 2:0 4:2 5:0 6:2 10:0 13:0 14:1 35:2 187:2 1071:1 1072:1 1944:1 1945:1 1946:1 
2.0098070425302241 0 0 0 0 2.5343165350624401 0.72362230019924845 0 0 2:0 4:0 5:0 6:1 10:0 11:1 13:1 14:1 19:1 47:1 427:1 1947:1 1948:1 1949:1 
2.0612446908189921 8 0.49992203798075152 2.2934865885570415 4.4359874281398319 0 1.6428991469956553 0.3855497924261207 1.9661050969252274 2:0 4:3 5:1 6:5 9:1 10:0 13:2 14:1 19:4 21:1 28:1 35:1 39:1 44:4 47:1 161:1 277:1 632:1 1095:1 1525:1 1794:1 1943:1 1950:1 1951:1 1952:1 1953:1 1954:1 1955:1 1956:1 
0 0 0 0 0 0 8 0 0 2:0 4:0 5:0 6:0 10:0 13:0 35:1 150:1 
0 0 0 1.8145999249160536 0 0.30334714014603253 0 0 0 1:1 2:0 4:3 5:0 6:1 9:1 10:0 13:0 19:2 21:1 35:1 51:1 56:1 158:1 238:1 629:1 723:1 732:1 840:1 950:1 1831:1 1918:1 1957:1 1958:1 
8 8 8 0 8 8 8 2.2575004696835679 8 2:0 4:0 5:0 6:1 10:0 13:0 1542:1 
0 2.9217140896179532 0 0 0.44640996087102663 0 4.7702476056685006 0 3.1431599421853469 2:0 4:4 5:0 6:0 10:0 13:1 18:1 19:1 21:1 28:1 31:2 35:2 45:1 47:1 51:1 56:2 57:1 59:1 87:1 94:1 98:1 122:1 139:1 510:1 1256:1 1461:1 1959:1 1960:1 1961:1 1962:1 
0 0.10035297009166635 0 0.37984957574746342 0 0 4.1193196907719889 0 0 2:1 4:5 5:1 6:3 10:0 13:1 14:1 19:1 31:1 35:2 44:2 45:1 94:1 112:1 161:1 260:1 267:1 315:1 330:1 388:1 472:1 1640:1 1963:1 1964:1 1965:1 1966:1 1967:1 1968:1 
5.0167019471693868 0 0 0 1.9335592438781746 3.149064379666882 8 0.12327929009635399 0 2:0 4:0 5:0 6:0 10:0 13:0 629:1 1781:1 1918:1 1969:1 
8 8 8 0 8 0 8 0.7918733259689702 8 2:0 4:2 5:0 6:2 10:0 13:0 14:1 19:1 31:3 47:1 51:1 273:1 502:1 1461:1 1970:1 1971:1 
8 8 7.1702058128029975 8 2.0425528112486813 0.54200509829450794 7.9124476259663643 4.5949585788243859 8 2:0 4:1 5:1 6:0 10:0 13:0 25:1 1109:1 1834:1 1972:1 1973:1 
8 8 8 1.3180978893057587 0 8 8 8 8 2:0 4:1 5:0 6:0 10:0 13:0 14:1 1974:1 
8 8 2.4673298029363258 5.1588502576717827 3.3246626913304498 8 8 0 8 2:0 4:1 5:1 6:0 10:0 13:1 44:1 112:1 268:1 472:1 763:1 1470:1 
0.62514438835186092 2.2288021693698625 0 0 2.6855976704929736 0.5081330300797442 2.4627832626691233 0 1.0746799963877158 2:1 4:6 5:1 6:2 9:1 10:0 13:1 14:3 31:2 44:2 57:1 112:1 156:1 158:1 161:1 201:1 277:1 379:1 459:1 574:1 713:1 840:1 883:1 1095:1 1315:1 1825:1 1975:1 1976:1 1977:1 1978:1 1979:1 1980:1 
0 1.9770292846132178 2.1647265351720746 0 0 0 8 0 0 2:0 4:2 5:0 6:0 10:0 13:1 19:1 31:1 56:1 66:1 112:1 279:1 1363:1 1409:1 
0.98775231277629594 4.835854430240266 3.5761796678150826 4.6020181798285353 5.7788560222830743 2.4360713408565515 1.5622734208720135 0.03477140768826846 2.5011337164781526 1:1 2:1 4:7 5:1 6:3 10:0 13:1 19:3 21:2 31:2 35:2 36:1 44:2 45:1 47:4 57:1 107:1 194:1 460:1 532:1 714:1 743:1 1202:1 1528:1 1981:1 1982:1 1983:1 1984:1 1985:1 1986:1 1987:1 1988:1 1989:1 
3.1038102222444826 0 0 0 0 0 8 5.3792908510300883 0 2:0 4:0 5:0 6:0 10:0 13:0 35:1 254:1 424:1 1456:1 1990:1 
0 2.013794667410449 0 0 0.69280058278188916 0 7.134859115054045 0 0.024772412601804062 2:0 4:1 5:1 6:1 10:0 13:1 31:1 44:1 112:1 187:1 318:1 1326:1 1991:1 
5.836765787891272 0.67496228061170371 0 3.4682441778811577 8 5.1755412000514038 8 0 0 1:1 2:0 4:1 5:1 6:0 10:0 13:3 14:1 35:1 45:1 47:1 62:1 82:1 112:1 124:1 126:1 140:1 492:1 1992:1 
8 8 8 3.0822636507483256 7.8780845775829729 8 8 8 5.0778692201222313 2:0 4:3 5:1 6:0 10:0 13:0 35:2 44:2 51:1 263:1 1828:1 1993:1 1994:1 1995:1 
8 5.7638815924648581 8 1.3219870750959857 0 3.4888780412652896 8 0 8 2:1 4:0 5:0 6:0 10:0 13:0 47:1 173:1 267:1 548:1 553:1 743:1 
5.5936050112553142 0 0 0 2.1174636498163895 0 0 0 3.7661122319789011 2:0 4:3 5:0 6:1 10:0 11:2 13:1 31:1 35:1 44:1 45:1 47:2 89:1 1717:1 1996:1 1997:1 1998:1 
3.3674089681236232 6.5545554395906844 0 0 1.37715257705375 0 3.445827981123573 0 2.2966919476381165 1:1 2:0 4:1 5:0 6:1 10:0 13:0 56:1 1999:1 2000:1 2001:1 
0.86003727775945527 3.3213298073400725 8 4.2440132447877223 0 7.6460950845653324 2.7017474902168992 0 5.0260973155125503 2:0 4:1 5:0 6:3 10:0 13:1 14:1 19:1 82:1 245:1 1682:1 1834:1 2002:1 2003:1 
0.30008263224886328 0 2.5567784323761167 0.36881315000498877 1.3420346077011447 0 0 1.7433784477068612 1.2644099351471023 2:0 4:4 5:0 6:1 10:0 13:0 14:1 19:2 21:1 33:1 35:2 42:1 44:1 54:1 156:1 2004:1 2005:1 2006:1 2007:1 2008:1 2009:1 2010:1 
7.7069747822388539 4.8519755899777017 1.2920138405398183 4.6467640260845346 4.7431258043080682 6.8898592765517046 2.8822046415992704 4.3861964190534044 5.9851358163159887 1:1 2:0 4:8 5:0 6:3 9:1 10:0 12:1 13:0 14:2 19:4 28:1 35:2 40:1 44:2 45:1 47:1 57:1 66:1 131:1 144:1 244:2 257:1 483:1 556:1 1075:1 1163:1 1731:1 2011:1 2012:1 2013:1 2014:1 2015:1 2016:1 
0 0 0 0 0 0 2.4265223608337529 0 3.3077738797918159 1:1 2:0 4:3 5:1 6:1 10:0 13:1 19:1 31:1 35:2 44:1 45:1 88:1 94:1 732:1 1081:1 2017:1 2018:1 2019:1 2020:1 2021:1 2022:1 
6.1708213685834954 0 0 0 0 1.958692084461237 0 2.6442621487845193 1.9926734017183609 2:0 4:3 5:0 6:0 10:0 13:0 19:1 25:1 28:1 35:1 41:1 47:1 142:1 2013:1 2023:1 2024:1 2025:1 
6.7483290607148803 4.4358454892686723 4.0542019858437373 0 5.4318561349631187 0.45160789747825941 8 4.5166911513819734 3.7687463068303044 2:0 4:3 5:2 6:2 10:0 13:0 18:1 19:1 31:1 35:2 45:1 47:1 89:1 457:1 767:1 1653:1 2026:1 2027:1 2028:1 
7.5011155264017377 2.3328974287275313 3.1696161638169151 0 0 0 8 0 7.264611164313612 2:0 4:1 5:0 6:1 10:0 13:0 259:1 477:1 2029:1 
0 0 0 0 0 0 0.072854199193141359 7.048582023259085 1.5669502932875135 1:1 2:0 4:0 5:0 6:1 10:0 13:0 35:1 47:1 51:1 94:1 264:1 736:1 2030:1 
8 8 8 1.5202084246617129 8 5.9275391663799555 8 1.468095050433881 8 2:0 4:0 5:0 6:0 10:0 13:0 275:1 
8 5.4486881937920453 1.0538527842777607 0 3.4475066049803518 0.76527872516748041 8 0 0 1:1 2:0 4:1 5:0 6:0 10:0 13:1 44:1 112:1 1065:1 2031:1 
2.5061128335615388 0.74007490058532144 0 0 0 0 5.3563054429252359 0.67284219226199404 0 2:0 4:2 5:1 6:2 10:0 13:1 35:2 112:1 139:1 1063:1 1148:1 2032:1 2033:1 2034:1 
8 0 0 0 6.5082623876905208 0 8 0 6.5454016026154092 2:0 4:2 5:0 6:0 10:0 13:2 35:2 66:1 112:1 746:1 2035:1 2036:1 
5.9964983286746154 8 8 0 4.0855607332754413 8 8 3.8751542279445892 0 2:0 4:1 5:0 6:0 10:0 13:0 44:1 245:1 2020:1 
2.7950273923310487 0.11401357504370319 0 1.0302974439765993 2.7051313601964537 0 8 3.3230054743010831 0 2:1 4:2 5:1 6:1 10:0 13:0 14:1 35:2 47:1 175:1 204:1 217:1 248:1 672:1 814:1 1202:1 1335:1 1990:1 
5.9574914096604186 4.7243444546709146 4.809680332009318 5.6292680206846466 6.0096868025510322 2.0627373107208347 7.6973727779115064 0.77618735503507807 4.5927379926254241 2:0 4:3 5:1 6:2 10:0 13:1 14:1 19:2 21:1 44:1 51:1 57:1 270:1 473:1 632:1 796:1 1350:1 2037:1 2038:1 2039:1 2040:1 2041:1 2042:1 2043:1 2044:1 
0 8 2.0742353630087935 3.1712987987287731 8 2.844365258489653 0 0 2.412276536775352 2:0 4:1 5:1 6:0 10:0 13:0 14:1 19:1 45:1 78:1 1096:1 1152:1 2045:1 2046:1 
8 0.088416707521543986 2.4121265590525414 1.9721270628122429 5.5994718455000392 0.018947483694279378 8 0 0 2:0 4:1 5:0 6:1 10:0 13:0 19:1 25:1 31:1 45:1 56:1 130:1 840:1 2047:1 2048:1 2049:1 2050:1 2051:1 2052:1 
8 0 3.038270159782797 0 0 0 8 0 3.4380779515652029 2:0 4:0 5:0 6:0 10:0 13:0 31:1 666:1 2053:1 
8 0 0 0 0 1.8416404277982243 0 0.081325257972839682 0.19415012806836135 2:0 4:3 5:0 6:3 10:0 11:1 13:2 19:1 21:1 28:1 31:1 35:2 36:1 44:2 47:1 51:1 112:1 723:1 763:1 876:1 1306:1 1379:1 2054:1 2055:1 2056:1 2057:1 2058:2 2059:1 
5.9245393940861311 0 0 4.0685422889647755 1.3253748912851959 4.9363341475585294 1.2607410083836794 0.016139551109930213 0 2:0 4:4 5:2 6:0 10:0 12:1 13:2 14:1 19:1 28:1 35:2 59:1 82:1 94:1 267:1 387:1 470:1 849:1 1855:1 2060:1 2061:1 2062:1 2063:1 
0 0 0 0 0.1626784477696597 0 0 0 0 1:1 2:0 4:7 5:0 6:2 9:1 10:0 13:0 19:3 30:1 35:1 37:1 41:1 42:1 44:2 45:1 47:2 187:1 207:1 245:1 353:1 440:1 571:1 736:1 840:1 1023:1 1238:1 1253:1 1262:1 2064:1 2065:1 2066:1 2067:1 
3.3749289369826054 0.70171263038978959 0 0.56753885968484119 5.2551096466689868 0 2.304263681347368 2.478399848753488 0 2:0 4:8 5:0 6:0 10:0 13:2 19:3 35:4 44:4 45:2 66:1 112:2 267:1 319:1 320:1 353:1 360:1 1240:1 2068:1 2069:1 2070:1 2071:1 2072:1 2073:1 2074:1 
3.235709400272373 0.062541606527304977 5.3225307240611528 0 1.8489386263938219 1.3866615282823735 8 0.10644186080881528 0 2:0 4:2 5:0 6:0 10:0 13:0 31:1 36:1 44:1 51:1 2075:1 2076:1 2077:1 2078:1 2079:1 
8 6.7547953170689752 0.4891069477896941 0 0.30603023696443871 0 8 2.252744702546646 2.0168124088182484 1:1 2:0 4:0 5:0 6:1 10:0 13:0 14:1 35:1 217:1 2080:1 2081:1 
6.6282588603906971 4.5437453473085476 4.1475172783761947 1.1255830419492752 4.1692298257158198 3.5070143877423812 8 4.5856592359591204 4.3404316247383745 2:0 4:1 5:0 6:0 10:0 13:0 25:1 47:1 2082:1 2083:1 2084:1 
2.2073435412268942 3.2058621527000568 3.2842388172724459 4.0170129075848777 4.2191053981386544 3.1607008805400514 5.9006673754544208 3.2443040655046946 0 2:1 4:3 5:1 6:6 10:0 13:1 14:1 19:2 35:3 44:3 51:1 66:1 98:1 112:1 212:1 277:1 384:1 472:1 704:1 714:2 929:1 979:1 990:1 1273:1 1561:1 1931:1 1998:1 2085:1 2086:1 2087:1 2088:1 
0 0 0 0 2.3194801619040701 0 0 0 2.3969960290522434 1:1 2:1 4:1 5:1 6:3 10:0 11:2 13:2 18:1 19:1 21:1 28:2 31:1 35:1 45:1 56:1 94:1 131:1 139:1 270:1 294:1 387:1 388:1 472:1 1329:1 1344:1 2089:1 2090:1 2091:1 2092:1 2093:1 
0 0 0 0 0 0.62956980080776448 0 0 0 2:0 4:3 5:1 6:1 10:0 13:2 14:1 19:2 21:1 28:2 31:1 44:1 47:1 89:1 112:1 294:1 385:1 387:1 1329:1 2089:1 2094:1 2095:1 2096:1 2097:1 
2.9894683974752643 0 1.1522562902055671 2.9805776026596322 2.0834882483911228 0.14201582483107741 5.4333571054989021 4.9251950351537745 2.4677219642077337 2:0 4:7 5:2 6:1 10:0 12:1 13:1 19:9 25:2 31:4 35:5 112:1 277:1 422:1 1088:1 1324:1 1884:1 2098:1 2099:1 2100:1 2101:1 2102:1 2103:1 2104:1 2105:1 2106:1 2107:1 2108:1 
3.0329341179430647 0.53322959922423596 2.2050126939250618 0 0 1.9181991432901342 8 2.1755336234704812 0.42251961244073394 2:0 4:0 5:0 6:1 10:0 13:0 788:1 1089:1 
0 0 0 0 0 0 1.1299725224935477 0 0.64740884094245577 2:0 4:5 5:0 6:1 10:0 13:2 14:2 19:3 25:2 35:2 45:2 47:1 66:1 88:2 94:1 270:1 277:1 503:1 840:1 849:1 926:1 1990:1 2109:1 2110:1 2111:1 2112:1 2113:1 2114:1 2115:1 2116:1 2117:1 
3.1609510861605448 6.1530680448704169 1.8137543829819414 0 3.2075342885465328 0.72426142650731651 8 3.9789178748189205 2.6039925023570811 2:0 4:0 5:0 6:0 10:0 13:0 14:1 44:1 45:1 56:1 2118:1 2119:1 
0 0 0 0 0 0 5.5936520572836619 0 1.1575117540068292 2:0 4:0 5:0 6:0 10:0 13:0 56:1 486:1 1894:1 2120:1 2121:1 
4.4220596227523137 1.7935209290803222 8 0 0 1.2345903499297499 8 4.9486655471400738 0.49854223878016696 2:0 4:1 5:1 6:0 10:0 13:0 19:1 31:1 472:1 1047:1 2122:1 2123:1 
1.5743504947241753 0 0 0 1.2849299304694819 0 1.3412772270985716 0 0 2:0 4:8 5:1 6:0 9:1 10:0 13:1 14:1 28:1 31:2 35:1 37:1 42:1 44:3 45:1 51:1 89:1 96:1 656:1 672:1 736:1 840:2 967:1 1238:1 2124:1 2125:1 2126:1 2127:1 2128:1 2129:1 2130:1 2131:1 2132:1 2133:1 
8 0 2.9146317687268044 0 0 0 5.5108912883976613 0 0 2:1 4:0 5:0 6:1 10:0 13:0 88:1 569:1 1695:1 2134:1 
0 0 0 0 0.84134944497127506 1.0798963239541695 1.5910624431612936 0 0 2:0 4:3 5:1 6:1 9:2 10:0 13:0 19:2 35:2 41:1 44:1 56:1 486:1 677:3 1104:1 1291:1 1437:1 1645:1 2135:1 2136:1 2137:1 2138:1 
2.4130857425385202 1.2371238784333221 3.3290172559493763 1.5109399437112423 6.9261099836013917 8 4.4297173549204043 8 0 2:0 4:3 5:0 6:1 10:0 13:0 14:1 19:1 31:1 35:1 45:1 482:1 502:1 556:1 655:1 2139:1 2140:1 2141:1 
5.9129847068521189 2.3626197614151447 2.9565137341078929 1.6585477395714505 3.7275454965727826 0 0.55022795791365864 0 7.1431936294274658 2:0 4:3 5:2 6:4 10:0 13:0 14:1 19:1 25:1 27:1 31:1 35:1 44:1 47:1 66:1 212:1 401:1 1026:1 1093:1 1196:1 1439:1 2142:1 2143:1 2144:1 2145:1 2146:1 2147:1 2148:1 2149:1 
3.893555433425679 3.3824539152222823 6.512535343169036 2.8972814912367575 6.8238538612841735 1.172761219470013 0 0 4.4692317133048656 2:0 4:3 5:1 6:3 10:1 12:1 13:1 14:2 19:2 21:1 25:2 31:2 35:2 44:1 47:2 321:1 495:1 632:1 708:1 1402:1 1668:1 1942:1 1983:1 2150:1 2151:1 2152:1 
2.5899506827064451 1.8737616711704237 3.0786070132080976 2.0279063124926919 3.0427538512904215 1.1379672742704172 3.3275628968026734 1.4096389616309812 3.9143823011850793 2:0 4:5 5:1 6:1 10:0 11:1 13:1 14:1 19:5 35:1 44:1 45:1 47:1 51:1 173:1 277:1 321:1 1650:1 2153:1 2154:1 2155:1 2156:1 2157:1 2158:1 
0 2.5065839051802365 5.3575614589855558 0 0 0.47223109833652305 1.4701316107406408 0 0 1:1 2:0 4:1 5:2 6:0 10:0 11:1 13:0 19:1 47:1 111:1 158:1 645:1 2162:1 2163:1 2164:1 
0 0 1.1745977395424865 0 1.3235734178036911 4.6062655574474469 0 2.3711099165989071 8 2:0 4:4 5:2 6:0 10:1 13:0 14:1 19:3 35:1 44:2 47:1 62:1 173:1 495:1 505:1 508:1 749:1 1573:1 2165:1 2166:1 
0 8 6.5498065267424765 0 8 5.3490457641544475 8 0 8 2:0 4:1 5:0 6:0 10:0 13:0 19:1 36:1 44:1 56:1 96:1 141:1 277:1 736:1 
8 8 8 1.4140520600189721 8 0.072029811529839449 8 0.59365037334448811 8 2:0 4:2 5:1 6:0 10:0 11:1 13:1 14:1 31:1 51:1 66:1 156:1 179:1 731:1 2167:1 2168:1 2169:1 
5.5209587383112764 0 0 1.2986854998765374 5.0953368092657874 4.8532321047302869 8 6.5948735620304912 0 2:0 4:1 5:0 6:1 10:0 13:0 14:1 35:1 47:1 82:1 267:1 2170:1 2171:1 2172:1 
1.7385230633515594 0 7.3149141287241415 0 0.80762216691920452 3.4713667921702194 7.3417787169358206 0 0 2:0 4:1 5:0 6:0 10:0 13:1 19:1 44:1 47:1 1221:1 1389:1 2173:1 
0 5.4431772734560999 0 1.7591553589660223 1.7049108615610316 0 5.3530246909711821 0 2.2608478077465 2:0 4:2 5:0 6:0 10:0 13:1 19:1 45:1 56:1 89:1 509:1 736:1 2174:1 
7.5005727558124207 4.2109805979935189 8 1.3055348375297613 8 3.2346894215419186 2.5689903743373934 1.122759273316128 8 2:0 4:2 5:0 6:0 10:0 13:0 47:1 108:1 2175:1 2176:1 2177:1 
1.0945122314069475 0 0 0 0 0 0 0 7.5641283147472 2:0 4:3 5:1 6:0 10:0 13:3 19:1 31:1 35:1 51:1 56:1 59:1 88:1 99:1 156:1 736:1 1324:1 2182:1 2183:1 2184:1 2185:1 
0 0 8 0 0 0 8 0 8 2:0 4:3 5:0 6:0 10:0 13:0 19:2 47:2 75:1 108:1 125:1 173:1 245:1 246:1 267:1 
1.5073904924590009 2.0836851312765914 2.8386311459807367 2.535431395588688 1.4273943327059766 0 1.3645931697879985 0 3.2045870577806683 2:0 4:11 5:0 6:2 9:1 10:0 13:0 19:5 25:1 28:1 30:1 44:2 47:1 51:2 75:1 156:2 319:1 441:1 495:1 572:1 840:1 1191:1 1238:1 1303:1 2186:1 2187:1 2188:1 2189:1 2190:1 2191:1 
3.7786582671599032 0 8 0 8 0 8 0 4.6420699885356163 2:0 4:1 5:0 6:0 10:0 11:1 13:1 19:1 31:1 35:1 47:1 82:1 245:1 309:1 2134:1 2192:1 
5.2780515567295314 5.3233544286447527 7.0053390917136786 0.7803699054180756 0.3812307712655077 4.3601503613870785 8 6.6184524622075314 4.5087883299152125 2:0 4:2 5:0 6:1 10:0 13:0 19:2 903:1 2193:1 2194:1 
8 4.3597089946775016 2.4492278150268274 0 3.0890872126591482 1.6666679668801387 4.441534311837712 0 2.3475279767932484 2:0 4:1 5:1 6:1 10:0 11:1 13:1 19:1 47:1 112:1 781:1 2195:1 2196:1 
3.2412671372353086 1.9343432460112304 0 2.9785743197097441 3.2366505864970945 1.3055437753805461 0 0 2.7631035159462076 1:2 2:0 4:6 5:1 6:0 10:0 11:1 13:8 14:1 19:6 21:4 35:1 44:2 47:2 56:1 57:1 89:2 112:1 168:1 495:1 732:1 1373:1 1582:1 1828:1 2184:1 2197:1 2198:1 2199:1 2200:1 2201:1 2202:1 
0 0.25803132184864863 2.2132833354639669 1.6794194330239007 3.5707636673609655 0 1.9400811245594936 0 1.2421947183935247 2:0 4:8 5:1 6:4 10:0 13:2 14:1 18:1 19:4 21:1 31:5 35:1 45:1 47:5 56:1 57:1 208:1 244:1 245:1 487:1 495:1 668:1 777:1 930:1 1327:1 1429:1 1582:1 2203:1 2204:1 2205:1 2206:1 2207:1 2208:1 2209:1 
6.051976134368898 0 0 0 3.5275380831377978 0 0.85250430186189463 0 7.2010535377097877 2:0 4:4 5:1 6:0 10:1 13:0 19:1 31:2 35:1 62:1 66:1 89:1 135:1 146:1 330:1 580:1 890:1 1348:1 2167:1 2210:1 
5.4072218033103887 8 5.7619514781534802 4.0861835291180899 8 0.021663128497168244 8 0 8 2:0 4:8 5:1 6:1 10:0 13:1 19:2 28:1 31:2 44:1 45:1 56:2 112:1 325:1 353:2 384:1 472:1 556:1 859:1 1513:1 2211:1 2212:1 2213:1 2214:1 
6.6136215039211512 4.3600195574129721 2.9235371255318676 1.9103205649727764 3.1131566353873521 3.6888858340424804 8 2.7263967445282784 3.8955634348484263 2:0 4:2 5:0 6:0 10:0 13:0 19:1 47:1 1781:1 2215:1 2216:1 2217:1 
6.3368133439885783 1.5553064266353263 0.64767942199321449 1.3176081227318408 6.2213191763987146 0 3.3145080246682741 0 0.071146498302506078 1:1 2:0 4:3 5:0 6:3 10:0 13:2 19:6 28:1 31:1 44:1 45:1 47:1 96:1 112:1 537:1 957:1 1327:1 2178:1 2218:1 2219:1 2220:1 2221:1 2222:1 
8 0 0 4.500676422577305 8 8 0 0 2.4151991116718574 2:0 4:0 5:0 6:0 9:1 10:0 13:0 35:1 108:1 666:1 677:3 
8 0 1.5270439463302301 0.98652435522679238 1.1617912844998188 1.1660283927081034 0.12299477162629865 0.61176545924815118 1.3307715553721227 2:0 4:4 5:1 6:0 10:0 13:1 19:1 21:1 25:1 28:1 35:2 51:1 194:1 1324:1 2223:1 2224:1 2225:3 2226:1 
0.28827130506319221 5.5630866982565479 2.9491774344799655 6.6831655566929431 3.9943372721092238 1.4596776952986259 0 0 8 2:0 4:4 5:0 6:2 9:1 10:0 13:0 14:1 19:3 44:2 47:1 51:2 56:1 66:1 108:2 277:1 294:1 319:1 601:1 1015:1 1327:1 1855:1 2224:1 2227:1 2228:1 2229:1 2230:1 
0 0 0.88529695611460901 0 6.3298966853947629 2.1852523031964064 8 0 0 2:0 4:3 5:0 6:0 9:1 10:0 13:0 19:1 28:1 31:1 35:1 44:1 202:1 319:1 677:3 1324:1 1327:1 2231:1 2232:1 2233:1 2234:1 
1.3289523820826816 2.2870485814462036 0.77374633658829861 0.75009770316864977 1.0817853528421315 0.23584645869830898 0 1.0255435413872931 0 2:0 4:11 5:0 6:3 10:0 13:1 19:7 25:1 31:1 35:1 44:1 45:1 94:1 112:1 259:1 319:1 561:1 575:1 671:1 1075:1 1168:1 1327:2 2191:1 2235:1 2236:1 2237:1 2238:1 2239:1 2240:1 2241:1 2242:1 2243:1 
0.7468563972992468 0 3.1578231399414496 0.13210108543968832 0 0 2.7083789257000594 0 0 2:0 4:7 5:0 6:4 9:1 10:0 13:0 14:1 19:3 28:1 30:1 31:3 37:1 41:1 42:1 44:2 45:2 47:2 51:1 144:1 207:1 277:1 840:1 974:1 1151:1 1238:1 2244:1 2245:1 2246:1 2247:1 2248:1 2249:1 2250:1 2251:1 2252:1 2253:1 
8 5.2758899969752528 5.7234125906501774 5.22093876950529 3.9370907442319716 3.3061675415937248 8 5.0652735320918278 6.4515258451616111 1:1 2:1 4:2 5:1 6:1 10:0 13:0 19:2 25:1 35:1 45:1 51:1 127:1 352:1 553:1 2254:1 2255:1 
0 0 0 0 0 0 1.438367090304457 0 8 2:0 4:0 5:1 6:0 10:0 11:1 13:1 28:1 56:1 146:1 2256:1 2257:1 
0 0 0 0 0 3.7961279180135472 8 0 0 2:0 4:0 5:0 6:1 10:0 13:0 31:1 732:1 1467:1 1942:1 
0.79087592876990465 0 0 0 0 0 4.6334041665522863 0 0 2:0 4:0 5:0 6:1 10:0 13:2 14:1 18:1 31:1 35:3 56:1 59:1 78:1 82:1 318:1 424:1 561:1 689:1 2258:1 2259:1 
8 0 0 0 0 1.3208458220415629 6.1206668340944734 0 0.56869174669617262 2:0 4:2 5:0 6:2 10:0 13:2 21:1 28:1 31:1 35:3 112:1 196:1 267:1 400:1 402:1 461:1 788:1 1234:1 1640:1 1942:1 2260:1 
3.7760831583521499 2.0456673523690396 1.8563721332270777 2.4769145709139782 4.1106646718183368 2.3127978821479198 7.3697614618899294 3.1304076398639777 1.6732594343422185 1:1 2:0 4:2 5:0 6:3 10:0 13:1 19:4 21:1 35:2 44:2 277:1 2185:1 2261:1 2262:1 2263:1 2264:1 2265:1 
6.1830718117003771 6.9417466514096473 0 4.1410309900352216 2.8804421848964048 1.3167479180052053 7.0480883401690901 1.0730228415569636 0.51732797938024877 2:0 4:8 5:0 6:2 10:0 13:0 14:3 19:2 35:1 44:2 45:1 47:1 51:1 66:1 161:1 198:1 400:1 468:1 569:1 631:1 661:1 754:1 878:1 899:2 1160:1 1325:1 2266:1 2267:1 2268:1 2269:1 2270:1 
0 0.06521462044911995 0 5.1847932464082946 2.2237508955801761 0.0780809562410687 0 1.4561886032829456 0.83210995095701978 2:0 4:3 5:2 6:1 10:0 13:0 19:3 35:2 47:1 51:1 94:1 149:1 150:1 1342:1 2044:1 2271:1 2272:1 2273:1 2274:1 2275:1 
8 0 8 0 8 8 8 0 0 2:0 4:0 5:0 6:0 10:0 11:1 13:1 245:1 
8 5.5077992875169928 2.2555406470625443 0 8 3.0240135568958286 8 0.95132553309953649 0 1:3 2:0 4:0 5:1 6:1 10:0 12:1 13:1 19:1 31:1 66:1 264:1 423:1 1582:1 2276:1 
8 0 1.6564642912923899 0 0 0 0 0 0 2:0 4:3 5:1 6:1 10:0 11:1 13:1 19:1 25:1 35:1 51:1 82:2 424:1 476:2 602:1 819:1 952:1 1151:1 2277:1 
0 8 7.6004902098884823 4.2070840709385067 0 6.2816274762652995 8 0 0 2:0 4:0 5:0 6:0 10:0 13:0 14:1 51:1 56:1 57:1 248:1 731:1 
0 1.4832916404586995 0 0 0 0.58843886158823611 6.6067762475135314 1.5103019305716918 3.4126182486435375 2:0 4:1 5:0 6:1 10:0 13:0 25:1 476:1 886:1 
0.68805588700670284 0 0.81014937891158367 2.9234991600034266 7.3111584160278023 0.2871667927222919 0 1.5920920045904969 2.5102819566667969 1:2 2:0 4:4 5:2 6:5 10:0 12:1 13:0 14:1 19:2 25:1 31:1 35:1 44:2 51:1 94:1 111:1 158:1 180:1 201:1 244:1 270:1 294:1 481:1 886:1 1163:1 2278:1 2279:1 2280:1 2281:1 2282:1 2283:1 2284:1 2285:1 2286:1 2287:1 2288:1 
8 8 8 4.4808795860754866 4.6345345372066538 8 8 5.868459900701315 0 2:1 4:0 5:1 6:0 10:0 13:0 19:1 553:1 2289:1 
0.78284882917762144 0 1.5194567436368569 1.0880994406612441 3.4286252732483198 0 4.8369795903279176 0 2.3676320070090684 1:1 2:0 4:5 5:3 6:2 10:0 11:2 13:2 14:1 19:3 21:1 28:1 31:7 35:1 44:1 47:1 89:1 112:1 1076:1 1348:1 1915:1 1922:1 2290:1 2291:1 2292:1 2293:1 2294:1 2295:1 2296:1 2297:1 2298:1 
7.5350492997697032 1.4419232749913304 8 3.1699119100203221 5.6914468241976968 5.4792869283871033 1.4081405814161345 0.25233121601101882 8 2:0 4:1 5:0 6:2 10:0 13:1 14:1 28:1 112:1 183:1 1514:1 2301:1 2302:1 
0 2.9682003607080598 2.2729196653279589 1.4844778968308652 3.3666308376262126 0 0.24015851375438341 0 0.14174027124893229 2:0 4:1 5:0 6:1 10:0 13:0 44:1 56:1 135:1 139:1 1922:1 2303:1 
2.4456229083893484 0.28898934717375485 0 0 0 0 3.2029266875939713 0 0 2:0 4:2 5:0 6:1 10:0 13:1 19:1 35:1 44:2 66:1 154:1 217:1 746:1 1561:1 1894:1 2304:1 2305:1 2306:1 2307:1 2308:1 2309:1 2310:1 
8 7.4570643361358337 0 0 0 0 8 8 8 2:0 4:0 5:0 6:0 10:0 13:0 1009:1 
0 4.5807490661087096 2.7235894554406319 0.39203542186397983 0 1.2440896834839754 3.6512461551413944 0.90108206602766561 0 2:0 4:1 5:0 6:0 10:0 13:0 19:1 51:1 94:1 116:1 824:1 2311:1 
0.16947361076048342 2.1748827190117956 5.5293915326070033 0 1.2530872411528751 0.57053276898993344 8 1.1542363749642552 3.6498350070633556 2:0 4:3 5:1 6:0 10:0 13:0 19:2 25:1 31:1 41:1 2312:1 2313:1 2314:1 2315:1 2316:1 
0.64086573706525729 0 2.0217941448152574 0 0 0.13574559021759705 8 0 0 2:0 4:1 5:0 6:3 10:0 13:2 35:1 47:1 88:1 445:1 746:1 931:1 2317:1 2318:1 2319:1 
5.8121136002609699 0 0 0 0 0 2.0891439358899904 0 2.8562858698724911 2:1 4:1 5:3 6:0 10:0 13:0 19:1 27:1 35:1 45:1 51:1 1009:1 1152:1 1658:1 1867:1 1870:1 2320:1 2321:1 2322:1 2323:1 
8 0 8 7.9544359640742872 8 8 7.265821288445677 0 8 2:0 4:0 5:2 6:0 10:0 13:0 31:1 57:1 62:1 99:2 108:1 2324:1 
4.2237453223371011 0 3.6179423603701446 0 1.4517145773676241 0 8 0 0 2:0 4:0 5:0 6:0 10:0 13:0 31:1 45:1 66:1 259:1 2325:1 
6.1271377345361646 7.5595240096105734 0 2.8523247055812142 8 0 0.32309827944033115 0 8 2:0 4:2 5:0 6:0 10:0 13:0 19:1 31:1 44:1 45:1 108:1 146:2 187:1 632:1 2326:1 
0 7.6106257636611003 8 0 0 0.072817053779998933 8 4.1792418120565165 7.3589203252978939 2:0 4:1 5:0 6:0 10:0 13:0 19:1 914:1 1694:1 1699:1 
0 8 8 6.4973869599242526 8 8 8 0 8 2:1 4:0 5:0 6:0 10:0 13:0 40:1 553:1 
0 0 0 0 0 0 8 0 2.7370323001079782 2:0 4:1 5:0 6:0 10:0 13:0 476:1 2327:1 
8 8 8 3.1756926540637691 7.7431364364957878 0.57622533032553525 8 0 8 2:0 4:0 5:0 6:0 10:0 13:1 21:1 28:1 45:1 57:1 179:1 814:1 2328:1 
8 7.7514457179315892 8 0.95371219810584384 8 8 8 3.5298407150456828 0.92239394753791826 2:1 4:0 5:0 6:1 10:0 13:0 553:1 2329:1 
3.866959063180901 0 0 0 7.1790867899980988 0 0 0 8 2:0 4:0 5:0 6:2 10:0 11:1 13:2 14:1 57:1 88:1 1784:1 2330:1 
5.0584362362554298 8 8 0 7.4036824886963819 0.034156664324365059 8 0.12758717602199385 8 2:0 4:0 5:0 6:0 10:0 13:0 31:1 45:1 1152:1 2331:1 
0 0 0 0 2.5968528534084765 0 8 7.9057760755902065 0 2:0 4:0 5:0 6:1 10:0 13:0 35:4 66:1 1057:1 2332:1 
5.8435125450974557 3.3247189661680263 0 2.4287648455953259 0.39483240139402098 0 0.32368912862478255 1.9503297468306688 1.3933852560324336 1:1 2:0 4:6 5:3 6:1 10:0 13:0 19:6 35:1 45:1 47:2 54:1 78:1 118:1 156:1 538:1 548:1 580:1 2333:1 2334:1 2335:1 2336:1 2337:1 2338:1 2339:1 2340:1 
5.9495305015466071 8 7.2071326368797477 5.6756767413161624 7.0590955543609581 5.2724918089972164 8 2.9917667915077537 7.5162300212098483 2:0 4:1 5:0 6:0 10:0 13:0 44:1 47:1 859:1 1341:1 2341:1 2342:1 
3.211711865506484 4.4446366535120365 0.36939031795957694 0 7.0213714572488382 0 3.8551125899520207 0.11786918102994688 0.60159791407679342 1:1 2:0 4:1 5:1 6:2 9:1 10:0 11:1 13:1 28:1 35:1 44:1 51:2 124:1 596:1 2200:1 2343:1 2344:1 2345:1 2346:1 
8 8 5.666913026298583 0 3.6542616944411406 0.2974588316178598 8 8 8 2:0 4:0 5:0 6:0 10:0 13:0 1009:1 
7.9021289172071683 0 0.97641638250797547 0.51266566407692693 1.1650257290914237 4.3060548125597506 4.1359397436710372 1.5130133476863186 0.85199034260933326 1:1 2:0 4:6 5:1 6:3 10:0 13:1 14:2 19:3 28:2 35:2 44:1 47:1 57:1 66:1 112:1 196:1 840:1 1095:1 2319:1 2347:1 2348:1 2349:1 2350:1 2351:1 2352:1 2353:1 2354:1 2355:1 2356:1 
4.0296110193498649 3.7272924374348944 0 3.1491630107212023 8 0 2.5606246827845007 0 0.56564976717861148 2:0 4:6 5:1 6:2 9:1 10:0 13:1 14:1 18:1 19:2 25:2 28:2 31:2 35:2 44:1 45:3 47:1 51:2 196:1 235:1 663:1 849:1 957:1 962:1 1456:1 2256:1 2357:1 2358:1 2359:1 2360:1 2361:1 2362:1 2363:1 2364:1 2365:1 2366:1 
6.1736340242400773 3.3821681765993454 4.6839309014832722 3.8653936606008292 5.4485425640698812 2.3300247388348199 3.3170004997239393 0 5.5374997809844357 1:1 2:0 4:6 5:4 6:3 10:0 13:1 14:1 19:2 44:2 45:2 47:2 51:1 108:1 112:1 146:1 158:1 187:1 319:1 475:1 477:1 537:1 694:1 799:1 2367:1 2368:1 2369:1 2370:1 2371:1 2372:1 2373:1 2374:1 2375:1 2376:1 2377:1 2378:1 
5.0840938559655218 3.5368021789629216 0 0 0 2.6578782982340252 0 0 0.25540146745860559 1:2 2:0 4:6 5:3 6:0 10:0 12:1 13:2 19:3 25:1 31:1 35:1 36:1 44:2 62:1 66:1 88:1 112:1 196:1 340:1 413:1 492:1 556:1 561:1 732:1 988:1 1970:1 2379:1 2380:1 2381:1 2382:1 2383:1 
5.6493674099079332 0.34052281190599643 0.72241676253681264 2.5999188851319377 2.5716213477033514 0.41065461034548367 6.8282828922285397 2.8568391270271327 2.2521329907357197 2:0 4:4 5:0 6:2 10:0 13:0 19:2 31:1 35:3 45:1 666:1 714:1 814:1 2384:1 2385:1 2386:1 2387:1 2388:1 
5.8786221956622082 1.5972097425533029 2.8212544849398835 4.701586546662182 4.8036221699263191 5.1824465204473329 6.1243738687607436 3.4929094225553015 4.8221930962906798 2:0 4:4 5:2 6:0 9:1 10:0 13:0 19:3 28:1 31:1 35:1 41:1 44:1 45:1 428:1 1023:1 1721:1 1958:1 2389:1 2390:1 2391:1 2392:1 2393:1 
8 8 4.1964170136810051 8 8 0 6.0993789802880176 0 0 2:0 4:2 5:2 6:0 10:0 13:0 19:1 31:2 35:1 45:1 156:1 206:1 221:1 1053:1 1326:1 2394:1 
3.3305737124920247 2.2499988853543393 4.6561078460075951 0 4.9530633017625743 1.2486411285349679 6.0800383834361309 3.0631124263312559 0.92676647466152295 2:0 4:2 5:0 6:0 10:0 13:0 14:1 19:1 28:1 31:1 35:1 44:1 47:1 1239:1 1370:1 2395:1 2396:1 2397:1 2398:1 
5.2597794087364527 2.767748470914702 2.8486032299690534 4.6641452035644795 7.091253218630083 1.8411053067064405 1.2907306307932518 0.66765938225861332 1.6676114940247095 2:0 4:5 5:1 6:2 10:0 12:1 13:2 19:4 25:2 28:1 31:1 35:1 44:2 45:1 51:1 112:1 146:1 188:1 245:1 267:1 1346:1 1418:1 2399:1 2400:1 2401:1 2402:1 2403:1 2404:1 2405:1 2406:1 2407:1 2408:1 
6.3756671053342258 8 4.5810705280715887 7.9570387642795044 5.2156459369523906 2.0315304633395752 2.9107338308044599 0 3.3454335167272244 2:0 4:4 5:1 6:1 10:0 11:1 13:1 14:1 19:3 25:1 28:1 31:2 44:1 46:1 47:1 51:1 94:1 156:1 206:1 228:1 952:1 2355:1 2409:1 2410:1 2411:1 2412:1 2413:1 
0.82470206940182411 1.6196285439140161 0 0.21898448603788334 0 0.55279763062027598 0.33773360052830825 0 0 2:0 4:2 5:1 6:4 10:0 13:0 25:1 35:1 45:1 248:2 267:1 400:1 899:1 1079:1 1153:2 1763:1 2414:1 2415:1 2416:1 2417:1 2418:1 2419:1 
1.3184179708016057 0.18792754932104216 2.5444806866995702 0 6.2461827223510609 3.7806241769769633 8 5.902858232414796 5.3792626027324442 2:0 4:0 5:0 6:0 10:0 13:0 647:1 
8 6.0234529333439539 0 7.7417855202848438 7.5559778117026069 8 7.2495198189560064 0 3.0821398914945943 2:0 4:1 5:2 6:1 10:0 13:1 14:1 19:1 47:1 78:1 112:1 194:1 318:1 1079:1 1081:1 2420:1 
1.2199966110717464 0 0 0 0 0.17240925378715935 0 0 0 2:0 4:8 5:1 6:1 9:1 10:0 11:1 13:2 14:2 19:4 21:1 25:1 30:2 31:1 41:2 44:1 45:1 46:1 47:1 51:1 94:1 134:1 163:1 1164:1 2355:1 2411:1 2412:1 2421:1 2422:1 2423:1 2424:1 2425:1 2426:1 2427:1 2428:1 
8 8 5.8890924484373786 0 3.7060804700122576 0 8 4.6427708396498755 7.4857175232115925 2:0 4:0 5:0 6:1 10:0 13:0 14:1 2432:1 
0 0 0 0 1.2080403088180398 0 3.7340333299941375 0 0 2:0 4:5 5:0 6:1 9:1 10:0 13:0 30:2 31:1 41:2 45:1 47:3 87:1 89:1 94:1 156:1 260:1 319:1 346:1 400:1 599:1 878:1 899:1 1348:2 1680:2 2433:1 
4.3919112593084337 1.5079315508654141 0 4.8899330271672508 2.5412971072469719 0 7.0927780336114514 0 2.3230637505402667 2:0 4:6 5:2 6:0 10:0 13:2 19:1 25:2 31:2 35:3 44:4 45:1 88:1 202:1 245:1 472:1 1437:1 1525:1 1737:1 1803:1 1994:1 2340:1 2434:1 2435:1 2436:1 2437:1 2438:1 
6.8844250908288238 0.50428392388173726 0.45629348487173266 0 5.70543583242093 0 3.8151214783334413 0 0 2:0 4:4 5:1 6:0 10:0 13:3 19:2 31:1 35:3 44:2 45:2 47:1 59:1 75:1 112:2 662:1 709:2 1562:1 2439:1 2440:1 2441:1 2442:1 
3.0134943278999304 6.4220007196418152 1.2466230335509487 1.3669268220545066 1.7590225991772421 0 7.7498930677494222 0 2.9136991953993738 2:0 4:6 5:1 6:2 10:0 13:0 19:3 25:1 28:1 44:1 47:1 57:1 146:1 154:1 330:1 503:1 580:1 1273:1 1561:1 2443:1 2444:1 2445:1 2446:1 2447:1 2448:1 
2.2122756852408285 6.4533981666978084 6.1914787600925898 1.0873692839432934 2.2273858663214998 3.439475090043552 8 3.1346769273741755 8 2:0 4:3 5:0 6:0 10:0 13:0 47:1 156:1 472:1 1558:1 2449:1 2450:1 2451:1 
7.9643829563746742 6.2061329888793706 4.4625977644923038 2.9875011614071627 4.349163786289254 6.8214428163031284 5.5952262768336274 0.82040062416891146 5.7520239544587763 1:1 2:0 4:6 5:2 6:5 10:0 13:1 19:6 25:1 31:2 35:2 36:1 44:1 385:1 387:1 426:1 565:1 580:1 1261:1 1273:1 1561:1 1671:1 2452:1 2453:1 2454:1 2455:1 2456:1 2457:1 2458:1 2459:1 2460:1 
8 7.3315955413579861 8 1.4070300892542795 8 8 8 6.6477736502203237 8 2:0 4:1 5:0 6:0 10:0 13:0 19:1 47:1 2461:1 2462:1 
2.5960285260151559 4.6415869737104751 8 0 5.6647640091005602 0 8 0.85240871203461099 5.6874970092128772 2:0 4:0 5:1 6:1 10:0 13:0 31:1 769:1 2170:1 2463:1 2464:1 
8 0 4.9037680208889514 0 8 0 8 0 8 2:0 4:3 5:0 6:0 10:0 13:0 19:1 31:1 35:1 36:1 108:1 246:1 270:1 400:2 2469:1 2470:1 2471:1 
8 8 0 0 0 0 8 0 0 2:0 4:1 5:0 6:0 10:0 13:0 44:1 80:1 
0.36672241647540815 0 0 0.054030497586554586 0 6.4641073369512316 0 0 0 2:0 4:4 5:0 6:0 9:2 10:0 13:0 19:4 35:2 41:1 44:2 56:1 57:1 445:1 486:1 537:1 672:1 677:3 731:1 732:1 835:1 2472:1 2473:1 2474:1 2475:1 2476:1 
8 2.6037749127726273 8 0 7.5669971390079374 2.9448200741622936 8 8 8 2:0 4:1 5:0 6:0 10:0 13:0 47:1 715:1 2477:1 
