svm_type c_svc
kernel_type polynomial
degree 1
gamma 0.03125
coef0 0
nr_class 10
total_sv 17854
rho -0.6569404738978718 -0.70115878701244994 -0.62280637929213278 -1.1321427447259556 -0.81850612785130061 -0.81990560597293027 0.10077830992598755 -0.80340926915091448 -0.7887141096230067 -0.053750753944529842 0.027021986041606428 -0.94092059339198209 -0.37199710136969388 -0.41682164520502613 0.70809461300843346 -0.62198022642940964 -0.29483428641983211 0.047002644561960349 -0.90759081701547972 -0.31385768969982797 -0.37069751290767422 0.72401060126958383 -0.52113682087916779 -0.14277643336003051 -0.9203894272935319 -0.31191929014527914 -0.38474873525107572 0.63804026462762353 -0.51432692602502694 -0.13624829064341909 0.94355254530847665 0.82335990170478746 1.077479907164365 0.66925137751015296 0.88365538078649164 -0.21926589377146649 0.82840029017547923 -0.3648389760568706 0.081533440528810716 0.82028785288219741 -0.37771254100713758 0.25604094517681786 -0.84976481629081835 -0.79386832657149342 0.40475697036311925
label 0 1 2 3 4 5 6 7 8 9
nr_sv 2010 1979 2081 1564 1538 1801 1693 1992 1583 1613
SV
8 8 2.0278583772387151 1.5809632499656376 8 4.2554972242685114 7.6424072566131818 0 5.6286827493522198 1:1 2:1 3:1 4:1 5:1 6:1 7:1 8:1 
1.6491391216201226 3.2287861989903099 5.7812249221921483 4.1740665468450562 2.4373328450964973 3.7376870857088371 0 2.4537919910818684 2.5055324577382652 2:0 9:1 10:1 11:1 12:1 13:1 14:4 15:1 16:1 17:1 18:1 19:1 20:1 21:1 
0 0 1.8178886050575915 2.2042953409787267 0 0 0 0 0.6430099693439516 2:2 4:1 20:2 23:1 24:1 32:1 34:1 37:1 40:1 45:1 46:1 47:1 48:1 49:1 50:1 51:1 52:1 
1.2387787369062764 1.5583705266224697 4.46419607284896 0 0.22631640098043301 0 2.7891155879539524 0 2.1318918698080704 2:3 5:1 26:2 46:1 51:1 53:1 54:1 55:1 56:1 57:1 58:1 59:1 60:1 61:1 
2.7194623883204243 6.133112176883337 5.2748485120237598 1.0454360983631859 2.013845136732376 3.9427145564183097 2.9440546592979588 0.76640140449540939 1.8714218989301159 2:3 4:1 14:2 20:1 23:2 25:1 26:1 34:1 39:3 42:2 43:1 44:1 45:1 46:1 47:1 62:1 63:1 64:1 65:2 66:1 67:1 68:1 69:1 70:1 71:1 72:1 
8 8 8 0 8 8 8 0 8 2:0 9:1 14:1 61:1 73:1 
8 8 8 0 8 8 8 4.7649425411373274 8 2:0 31:1 74:1 
8 8 0 0 0 0 8 0 0 2:0 39:1 75:1 
3.0598911395954813 0 8 4.8088995941719919 3.2946589604762817 3.8499567146193878 8 0 8 2:1 9:1 14:1 26:1 42:1 76:1 77:1 78:1 79:1 
8 8 8 0 8 7.6354358560498143 8 0 8 2:1 51:1 80:1 
0 0 3.2339933923817985 0 0 0 0 0 1.6959626802549606 2:4 5:1 14:1 26:3 42:2 51:1 61:1 81:1 82:2 83:1 84:1 85:2 86:1 87:1 
0 0.59589884380872282 1.3088219988249421 0 0 0 0 0 0 2:0 9:1 14:1 88:1 89:1 90:1 91:1 92:1 
1.524258222478543 5.0011228531807399 3.4677835646807869 3.9009996732473606 0 0 1.8669325403947232 0 0 2:0 9:1 89:1 93:1 94:1 95:1 96:1 97:1 
0 0 1.5277208221643368 0 0 0 0.73507732318828911 0 0 2:0 14:1 16:1 83:1 89:1 98:1 99:1 100:1 
0 0 0 2.142034426616009 0 0 0 0 0.37675729206221875 2:2 9:1 14:1 22:1 30:1 89:1 92:1 101:1 102:1 103:1 104:1 105:1 
4.4344619940234926 0 0 0 3.9288875008722024 0 3.7876756835187293 0.47787658798953148 0 2:4 23:1 26:1 30:3 42:2 46:1 106:1 107:1 108:1 109:1 110:1 111:1 112:1 113:1 114:1 115:1 116:1 117:1 
5.4996755629525556 0 0 2.2724043877580384 6.2864874647237121 0 8 1.1223949380129712 6.2921302841045055 2:3 5:1 9:1 30:3 39:1 118:1 119:1 120:1 121:1 122:1 123:1 124:1 
0 0.20212818047940775 0 2.0883165889831572 5.3099894408950634 2.1891450771985652 0 0 3.7597838467201123 2:0 8:1 9:1 13:1 14:3 23:1 39:1 40:3 46:2 52:1 125:1 126:1 127:1 128:1 129:1 130:1 131:1 132:1 133:1 134:1 135:1 136:1 137:1 138:1 139:1 140:1 141:1 142:1 143:1 
2.3061109277398426 0 5.8408360776547061 0 0 0 8 0 3.7099901699764066 2:0 14:1 83:1 146:1 147:1 
8 0 0 0 0 0 1.5855752522423954 0 0 2:1 13:1 51:1 83:1 148:1 149:1 150:1 
0.037204173579686292 1.7771039732574252 1.7344928954912937 0.30542640881856187 1.7862231771815795 0.98643027215450663 0.52190170290702409 0.97603549939292922 2.3923764339497624 2:2 9:2 16:3 23:1 30:2 39:1 46:1 61:3 126:1 151:1 152:1 153:1 154:1 155:1 156:1 157:1 158:1 159:1 160:1 161:1 162:1 163:1 164:1 165:1 166:1 
8 7.7571596274759331 1.154017459669161 0 0.59770558289788356 1.3694195864301093 8 0 8 1:1 2:1 30:1 42:1 61:1 107:1 167:1 168:1 169:1 
3.7174869969053006 4.2994501868041493 0 1.1403347677282261 6.4323133165316646 1.098965581455005 1.8272233328063954 1.9846091287495533 3.4757279539613255 1:1 2:6 9:1 16:2 26:1 30:5 31:1 39:4 40:1 42:1 46:1 49:1 70:1 107:1 126:1 139:1 170:1 171:1 172:1 173:1 174:1 175:1 176:1 177:1 178:1 179:1 180:1 181:1 182:1 183:1 184:1 
8 8 8 4.388095733915824 8 8 8 8 8 2:0 14:1 39:1 185:1 186:1 
4.4957349278531522 8 3.8354410553782854 6.2495451705891902 8 4.070283280779897 1.5328749311337388 1.2869202262839574 8 2:2 4:2 9:2 14:2 31:1 39:1 40:1 42:1 46:1 61:2 170:1 187:1 188:1 189:1 190:1 191:1 192:1 193:1 194:1 195:1 196:1 197:1 198:1 199:1 200:1 201:1 202:2 
0 0 0.87691891381014675 0 0.15282837158761522 0 1.5488354778962086 0 1.3643892283414707 2:5 17:1 26:3 30:1 40:1 51:1 61:1 203:1 204:1 205:1 206:1 207:1 208:1 209:1 210:1 
7.5481081490135065 8 6.5509245399349636 2.7968591592701531 0.81606649285597921 0.57988186185415291 8 0.6242793913971183 3.8378466304980332 1:1 2:0 9:1 211:1 212:1 213:1 
8 7.8189371816030535 4.4432814888288208 7.261103480466514 8 5.8681306009498151 2.5065686023067109 2.6473926241679901 6.0573569457743286 2:1 9:2 14:1 30:1 39:1 40:1 42:1 46:1 61:1 83:1 107:1 214:1 215:1 216:1 217:1 218:1 219:2 220:1 
2.1417449808917279 0 4.1637612855281692 3.2407764467073874 3.1726011131126826 1.7047524745604927 2.5590498868882592 2.1493514353198764 2.2279923211528736 1:1 2:3 8:2 14:3 20:1 26:1 30:2 40:1 46:1 49:1 61:1 68:1 84:1 221:1 222:1 223:1 224:1 225:1 226:1 227:1 228:1 229:1 230:1 231:1 232:1 233:1 234:1 235:1 
0 0 0 0 0 0 5.7431828940098528 0 0 2:2 9:1 14:3 30:1 40:1 51:1 61:2 81:1 236:1 237:1 238:1 239:1 240:1 241:1 242:1 243:1 
4.6151641707309548 7.951196763895509 0.79110566599959908 7.9310327384616564 6.8666851299621738 1.6170253346923957 0 1.6396725512870396 5.5388957452353775 1:1 2:0 5:2 9:2 14:1 31:1 39:1 42:3 61:2 135:1 230:1 244:1 245:1 246:1 247:1 248:1 249:1 250:1 251:1 
0 0 0 0 0 0 0 0 0.15051963143185262 1:1 2:6 4:1 8:1 14:2 25:2 30:3 36:2 39:1 40:1 42:2 52:1 107:2 136:1 141:1 186:1 252:1 253:1 254:1 255:1 256:1 257:1 258:1 259:1 
8 2.4473130358371802 8 0 8 6.2257583880202407 6.8406783517754386 0 8 2:2 14:1 40:1 42:2 103:1 265:1 266:1 267:1 268:1 
8 0 0 8 8 0 3.0970346956918173 8 8 2:4 5:1 14:1 16:1 20:1 30:4 40:1 269:1 270:1 
7.1272825535941129 3.3975630942218604 0 3.9386039943321904 7.2930975133752876 8 8 0.82509765315041905 0.91578545641400311 2:2 14:1 16:1 30:2 39:1 40:1 42:2 52:1 89:1 271:1 272:1 273:1 274:1 275:1 
0.38079920941435602 0 0 0 0 0 2.2074576755388171 3.8991980964937358 0 2:1 14:1 30:1 141:1 276:1 277:1 278:1 279:1 280:1 281:1 
0.10981081831565748 0 0 1.7218055918782795 1.8277508653638137 0 7.1230426739261006 0.58800600079457988 5.8238086371934674 2:3 14:2 30:2 39:1 42:1 51:1 282:1 283:1 284:1 285:1 286:1 287:1 288:1 
6.2436595722570223 4.8704502489219719 0.76243682919772515 3.7698619678014706 2.4356429124062182 1.6593764848365347 2.5154179897852504 0.38360436125634184 3.350547791422859 2:1 4:1 5:1 9:1 14:3 20:2 23:1 39:1 40:1 46:1 107:2 182:1 240:1 272:1 289:1 290:1 291:1 292:1 293:1 294:1 295:1 296:1 297:1 298:1 299:1 300:1 301:1 302:1 303:1 
8 3.2980230552276404 0 1.9848993415864853 8 0 8 5.6348630781949467 2.7125680324997656 2:2 30:2 40:1 304:1 305:1 306:1 307:1 
2.1496251311966699 0 0 1.7086713748365274 1.0493984423273177 0 0 0 0.14731088829478078 1:1 2:3 9:1 14:4 30:2 39:3 40:1 42:2 65:1 107:1 265:1 308:1 309:1 310:1 311:1 312:1 313:1 314:1 315:1 316:1 317:1 318:1 319:1 320:1 321:1 322:1 323:1 324:1 
2.0236426204905515 4.8094497248441108 1.8801333356353689 3.9732991749429036 2.3183487124415274 2.8668047232860601 5.0627091301327685 1.2657036849191843 2.2102905357135367 2:3 4:1 9:1 14:2 25:1 26:1 34:1 39:2 40:2 42:1 129:1 246:1 325:1 326:1 327:1 328:1 329:1 330:1 331:1 332:1 333:1 334:1 335:1 336:1 337:1 338:1 339:1 340:1 
1.5250660862374863 4.6259581525490976 0 0 3.7098828625360514 0 0 0 0 2:3 4:1 5:1 14:5 20:1 23:1 25:1 30:1 32:1 36:1 37:1 40:2 42:1 46:1 65:1 197:1 272:1 341:1 342:1 343:1 344:1 345:1 346:1 347:1 348:1 
0 0 0 0 0 0 0 0 2.4062944626109717 1:2 2:4 4:1 8:1 14:1 20:1 23:1 25:1 26:1 30:1 32:1 36:1 37:1 40:1 42:1 130:1 153:1 189:2 223:1 229:1 230:1 235:1 347:1 349:1 350:1 351:1 352:1 353:1 354:1 
4.616928111606021 8 8 8 8 5.2628585316448877 5.6640702359957729 2.2911100651949954 8 2:2 4:1 8:1 14:1 20:1 26:1 46:1 70:1 151:1 202:1 360:1 361:1 362:1 363:1 
3.3130718711468221 3.6963927887421133 3.1519088597513716 2.8944615350270761 6.5162215658365996 0.19661479553760819 0 0 2.2089084906818655 2:3 4:1 14:2 23:1 26:1 39:4 61:1 78:2 265:1 272:1 364:1 365:1 366:1 367:1 368:1 369:1 370:1 371:1 372:1 373:1 374:1 
2.8544967738997018 2.195175112094454 2.0005330005164712 0.90384589399099524 3.894326863346834 0.5319185379579906 2.6710388767983866 0 1.9819116863230231 2:3 5:1 14:3 26:3 39:2 40:1 49:1 100:1 134:1 135:1 136:1 375:1 376:1 377:1 378:1 379:1 380:1 381:1 
2.9585922641720499 1.6337875004436986 1.4063103429916815 4.1306529191381625 3.1692225156575757 2.9367869803078199 2.0858255442003131 1.4127717607306123 0.73779706626235897 2:3 14:3 20:2 26:2 29:1 30:1 31:1 39:2 40:1 94:1 123:1 382:2 383:1 384:1 385:1 386:1 387:1 388:1 389:1 390:1 391:1 392:1 393:1 
0.40900224206724156 0 0 0 0 1.8101941957781718 8 0 0 2:3 14:1 26:1 30:2 42:1 61:1 240:1 243:1 284:1 394:1 395:1 396:1 397:1 398:1 399:1 
0 1.8534103033535305 4.6079809757698618 0 5.0949981539496969 5.0376096546451974 0.93672938733749911 0 0 2:1 5:1 14:1 20:1 42:1 46:1 51:1 240:1 400:1 401:1 402:1 403:1 404:1 
0 0 0 0 0 0 0.092937382816681097 2.3566870542832477 0 2:5 4:1 14:3 23:2 25:1 30:3 36:1 39:1 40:2 42:2 243:1 325:1 405:1 406:1 407:1 408:1 409:1 410:1 411:1 412:1 413:1 414:3 415:1 416:1 417:1 418:1 
8 8 8 3.7713785399739739 2.1513118735466445 5.581986795119195 8 0 8 2:2 26:1 30:1 61:1 89:1 419:1 420:1 421:1 422:1 
0 0.37902257539829187 0 2.0971127899735302 0.29959146742515858 0.94293427837343546 0 0 1.0582494658891197 2:3 4:1 9:1 14:2 23:1 25:1 30:1 36:1 39:1 40:1 42:1 84:1 89:1 151:1 239:1 325:1 408:1 409:1 410:1 412:1 414:1 415:1 423:1 424:1 425:1 426:1 427:1 428:1 429:1 430:1 
4.9926688669098027 0 0.8488512734708612 1.6764246112904586 2.9166158079464775 4.1803891599104643 2.933905703589029 4.1801285352575555 0.44813376120807247 2:2 14:3 23:1 30:2 39:1 40:1 61:1 78:1 431:1 432:1 433:1 434:1 435:1 436:1 437:1 438:1 439:1 440:1 441:1 442:1 443:1 444:1 445:1 446:1 
4.1316851496835367 1.207720075645154 4.052933701928187 1.4945967840313195 2.224958373069656 3.6144250867006038 0 4.6465627889694874 1.5555604129786731 2:1 9:3 14:2 21:1 30:1 39:1 40:1 46:3 381:1 383:1 390:1 447:1 448:1 449:1 450:1 451:1 452:1 453:1 454:1 455:1 456:1 457:1 458:1 459:1 460:1 461:1 462:1 463:1 
3.4978953423522943 0.53125882684663672 0 1.0213847790069801 1.8504672658767138 0.92795664387257604 6.9253427494604631 0 0 2:5 9:1 14:2 22:1 26:2 30:3 31:1 39:1 40:1 46:1 61:2 377:1 464:1 465:1 466:1 467:1 468:1 469:1 470:1 471:1 472:1 473:1 474:1 475:1 476:1 
0 0 1.3959847202570257 0 0 0 0 3.915825487362659 0 1:1 2:3 14:3 16:1 30:2 36:1 39:1 40:1 51:1 86:1 89:1 477:1 478:1 479:1 480:1 481:1 482:1 483:1 484:1 485:1 
8 2.5815571131603563 0 2.3369159056639264 0 4.3833950718966825 0.39950245495643327 5.6924094767239071 0.32839354586546599 2:1 9:1 14:4 20:1 23:1 30:1 39:3 40:2 42:1 241:1 348:1 371:1 407:1 467:1 486:1 487:1 488:1 489:1 490:1 491:1 492:1 493:2 494:1 495:1 496:1 497:1 498:1 
0 0 0 0.34367326901221101 0 0 0.035556674824425226 0 0 1:2 2:2 14:6 20:1 30:2 39:2 40:1 107:1 123:1 153:2 371:1 406:1 407:1 411:1 414:1 487:1 499:1 500:1 501:1 502:1 503:1 
0 0 0 0 0 0.69469678426167769 0 0 0 1:1 2:1 5:1 14:1 42:1 51:1 82:1 504:1 505:1 506:1 507:1 
0 0 4.4094526926751838 0 0 0 0 0 0 2:1 14:2 16:1 26:1 39:1 49:1 84:1 151:2 356:1 357:1 401:1 508:1 509:1 510:1 
0 0.86194448401762691 0 0 0 0 0 0 5.5149704585756405 2:1 14:1 16:1 23:1 40:1 51:1 83:1 111:1 203:1 511:1 512:1 
5.3116114999112494 2.5933489340989651 0.98706495679859696 2.3933311345559689 3.7549664218976955 3.5556198038018025 3.7231263859585133 2.4595150590115513 3.0933973763948335 1:1 2:3 13:1 14:3 23:1 30:3 31:1 39:1 40:1 42:1 411:1 470:1 513:1 514:1 515:1 516:1 517:1 518:1 519:1 520:1 521:1 522:1 523:1 524:1 525:1 526:1 
0.69669837461126249 0 1.8997778098492684 7.6353678912189782 4.7071566604229478 0 8 0 0.65834071957088569 1:1 2:3 9:1 14:2 15:1 16:1 30:2 39:1 40:1 49:1 61:1 126:1 149:1 262:1 265:1 527:1 528:1 529:1 530:1 531:1 532:1 533:1 534:1 535:1 536:1 
0 1.680993767947599 0 0.90341548507819314 0 0 0 0 0 2:1 30:1 39:2 84:1 107:1 233:1 252:1 272:1 537:1 538:1 539:1 540:1 
2.6607798944114451 0 0 3.9466347138877262 2.4235612571803782 1.8782851711260176 2.3553174656415452 0 0 2:4 4:1 14:2 25:2 30:1 36:2 40:2 42:2 166:1 347:1 557:1 558:1 559:1 560:1 
1.2836089186774888 0 0 0.34388479690685297 1.9647525773343619 0 1.9103615726311953 0 0 1:1 2:3 4:1 14:2 20:1 25:2 36:2 39:1 40:2 42:1 46:1 271:1 457:1 527:1 548:1 561:1 562:1 563:1 564:1 565:1 566:1 567:1 
3.2875313845406633 6.5845315045277104 0.12651861361166425 3.4426575805998092 4.2485605536338618 4.7151718313146143 3.6723181847375601 0.2036892816164069 3.8618641216686287 1:1 2:2 14:5 25:1 30:1 39:2 42:2 109:1 156:1 287:1 528:1 568:1 569:1 570:1 571:1 572:1 573:1 574:1 575:1 576:1 577:1 
2.5170869407805658 5.2014558249045439 3.7302000655889351 4.4630120936674809 6.4572455603948571 1.5848286204712827 1.6724004775851393 1.1369790748910877 0.53214165437730598 1:2 2:3 4:1 9:1 14:3 26:1 30:1 39:2 40:1 42:1 107:1 189:1 454:1 578:1 579:1 580:1 581:1 582:1 583:1 584:1 585:1 586:1 587:1 588:1 589:1 590:1 591:1 592:1 593:1 
8 8 8 0 8 7.7579154667230918 8 4.1408373632128406 8 2:0 14:1 22:1 46:1 272:1 353:1 594:1 
0.39809941160297219 0.44093612014254752 1.2061796494901378 0.47046915011485102 0 1.2587920914365618 0.4942260970498269 5.877301231464398 0 2:4 14:4 20:1 30:4 39:1 40:1 42:1 46:1 86:1 145:1 582:1 595:1 596:1 597:1 598:1 599:1 600:1 601:1 602:1 603:1 604:1 605:1 606:1 607:1 608:1 
8 0 2.6776651336824826 8 3.4049266086244354 1.2463189556947902 8 8 7.3213111577597658 2:2 30:2 403:1 609:1 610:1 
8 6.481012326425712 8 0 5.3155519172558794 5.2543682661777318 8 6.2959790120312249 1.282790455265477 2:0 611:1 
0 0 2.3816419637865263 0 0 0 3.3750044166047357 0 0 2:1 51:1 83:1 126:1 149:1 174:1 612:1 613:1 
4.4551483003315653 6.2499820522759082 8 0 0 1.8378763267397356 8 0 4.8870103087611385 2:0 614:1 615:1 
0 6.0974675392265949 6.8000919031959901 0.97558972691980617 1.9245192639763862 0 8 3.0607413671439896 0.79411103976211184 1:1 2:1 9:1 14:1 30:1 49:1 156:1 541:1 616:1 617:1 618:1 619:1 
8 8 8 6.0380616072603823 8 8 8 7.8832120043140472 8 2:1 14:1 26:1 620:1 621:1 
4.1187214054379586 0 0 0 0 0 8 0.57966926276000963 0 2:4 26:2 30:2 243:1 622:1 623:1 624:1 625:1 626:1 627:1 
1.9980420204573734 0 0 2.5921413966339268 1.0211788904265058 0 1.5465706412739926 0 2.8461916517118224 2:0 14:3 23:1 40:2 83:1 107:1 628:1 629:1 630:1 631:1 632:1 633:1 
0 1.3011821934801626 0 0 0 0 8 0 0 2:1 26:1 109:1 243:1 634:1 635:1 636:1 
1.0774571483764057 3.891261310941907 5.8504478958225992 5.1462757780454647 5.9697237735014745 0.016391153237916255 6.5544786896596827 0.76976440697824777 4.076119502930811 2:2 20:1 26:1 30:1 40:1 46:1 207:1 269:1 637:1 638:1 639:1 640:1 641:1 
0 0 0 0 1.9381276899415643 0 8 0 0 2:0 642:1 
7.9926090541215205 4.9465212892619448 7.0295393572545644 8 3.6697502970973712 8 8 7.7240354487765037 2.6382599712067769 2:0 14:1 39:1 391:1 643:1 644:1 
0.12994385965511901 0.92433855622764716 0 0 1.1869672904939352 0.64267853261718444 0 1.4202007766090665 0 2:4 14:3 21:1 26:1 30:3 39:1 40:1 42:1 46:1 107:1 141:1 217:1 272:1 645:1 646:1 647:1 648:1 649:1 650:1 651:1 652:1 653:1 654:1 655:1 656:1 657:1 658:1 
0 0.45775727194173127 8 8 0 2.7494106055219625 8 0 8 2:0 9:1 14:1 42:1 168:1 548:1 659:1 
2.6392257409492226 0 0 0 0 0 8 0.24015496047639207 0 2:4 26:2 30:2 660:1 661:1 662:1 663:1 664:1 
8 8 8 0 5.81426623651301 5.7598279034274222 8 6.2887485045498677 6.7667764144225702 2:0 665:1 
4.6479933155615392 6.9233524995038671 0 2.4572787448064557 0 1.1340681151999077 8 1.1661715025936537 5.3630244506053728 2:1 9:1 14:1 30:1 39:1 42:1 61:1 153:2 272:1 374:1 666:1 667:1 668:1 669:1 
4.6765055322777869 5.1118213931139369 6.7092811108089441 2.8382104147949887 8 3.6760643930868158 4.3549220921170324 0.026093766370451073 8 1:1 2:1 14:2 40:1 61:1 103:1 681:1 682:1 683:1 
2.6135765776013034 4.5694698579284214 8 0 8 7.2779387220100835 8 3.4719255915684424 2.2457313491492306 2:1 26:1 31:1 46:1 86:1 597:1 684:1 685:1 686:1 687:1 688:1 689:1 690:1 691:1 
4.9158062038233776 2.2204179835391908 7.5505581805534128 4.6813175300566092 3.1778881482248003 1.8887024138826554 8 3.1360669588591708 0.33369252595257781 2:0 39:1 40:1 692:1 693:1 694:1 
5.7133283154850609 0.80695188898188874 0 0 2.1547171510352454 0 8 2.7711618440015049 1.3460605243781234 2:3 26:1 30:2 39:1 40:1 695:1 696:1 697:1 698:1 
0 0 5.6920751501774722 0 1.791502434494546 5.3701736583643092 8 0 3.5628404865251486 2:0 14:1 39:1 83:1 699:1 700:1 701:1 
0 8 8 0 4.2542704556840736 0 8 0 5.4864096022848603 2:3 5:1 13:1 26:2 30:1 61:1 83:1 84:1 702:1 703:1 704:1 
8 3.3946902624824897 4.8432664943782697 1.6661090914496381 6.3088366140492447 3.7981261136843698 0.76814258484794096 1.0086783774581571 0 2:3 14:2 26:1 30:2 39:2 40:3 46:1 61:1 268:1 533:1 705:1 706:1 707:1 708:1 709:1 710:1 711:1 712:1 713:1 714:2 715:1 
8 8 8 0 8 0 8 0 8 2:1 51:1 262:1 718:1 
1.3618762546838148 1.4988541353741434 2.9457596681627956 0.14047308444220719 1.7031220413807935 1.2455697591161425 5.3202618674025128 0.88768611777999351 0.052044194299294674 1:1 2:3 14:1 26:1 30:2 719:1 720:1 721:1 722:1 723:1 724:1 725:1 726:1 727:1 728:1 
0.067627561216822216 8 8 5.1317635673316699 5.1197857115356715 0 6.9562044873104112 2.8647370070424949 0.55839409027745002 2:0 20:1 151:1 272:1 548:1 729:1 730:1 731:1 732:1 
0 0 0 0 0 0 0 0 1.8490125152844668 2:2 9:1 30:1 51:1 83:1 89:1 92:1 107:1 733:1 
0.0049328308941472554 2.7965105806182473 3.9538912334871075 3.2428968483974581 6.1856863885665794 0.26957053012823085 2.5587804951194801 6.5856019388116271 1.492843994442568 2:4 9:1 26:1 30:3 39:2 709:1 713:1 714:1 715:1 734:1 735:1 736:1 737:1 738:1 739:1 740:1 
0.95424406489915348 1.5530772046360874 0 0.39662229799655202 7.144607331736526 0 8 0 6.471596015956619 1:1 2:0 40:1 107:1 239:1 738:1 741:1 742:1 743:1 744:1 
6.5021987189629158 8 6.0928242323273611 4.9471284373293765 0 6.3856988006205064 8 7.1706856752812911 2.7562032304569151 2:0 9:1 193:1 733:1 745:1 
0 0 0 0 0 0 0 0.79535232130337763 0 2:3 4:1 14:4 20:1 25:1 30:1 32:1 36:1 37:1 39:2 40:1 42:2 253:2 395:1 650:1 746:1 747:1 748:1 749:1 750:1 751:1 752:1 753:1 754:1 
8 8 8 0 1.5745976248255236 8 8 6.2987940634254587 0.43401582445378117 2:0 14:2 234:1 755:1 
2.1261649272194583 8 8 0 0 4.2645588240839434 8 1.3750733932286447 0.10506835292972591 2:0 759:1 
8 8 8 0 4.6799446829463118 0 8 0 8 2:0 42:1 168:1 766:1 
2.6145001145381288 8 0 0 0 0 0 0 0 2:1 4:1 5:1 16:1 20:1 40:1 356:1 357:1 767:1 
6.8422514053223846 3.3476047001554239 1.1245582128347229 0 8 0 8 0 8 2:1 14:1 40:1 42:2 51:1 52:1 168:1 768:1 
2.0573485588839526 8 5.6600903249650187 0 5.4194952150644022 0 0.08871163030595991 0 0 2:1 4:1 39:1 151:1 232:1 356:1 357:1 769:1 770:1 
2.4210012827933172 3.8901174126028657 3.1401075526691549 2.1408948045809209 3.8868556949368185 2.7434815203231642 4.2589551305784967 1.9558826704457053 0 1:1 2:2 9:1 14:4 26:2 40:1 42:1 348:1 435:1 467:1 532:1 543:1 551:1 771:1 772:1 773:1 774:1 775:1 776:1 777:1 778:1 779:1 780:1 781:1 782:1 
8 0 1.8026324143205563 0 0 0 3.400476976228759 0 8 2:0 5:1 783:1 784:1 
8 7.6346633852140426 7.3403506203697546 0.87242297274385783 8 6.783904742666242 8 8 4.9845598980945045 2:0 14:2 107:1 785:1 786:1 
5.9768899225681222 8 7.3698599311228152 0 3.2030479359945674 4.8439489869049908 8 4.8759196553706774 4.2917868091710911 2:0 39:1 787:1 788:1 
1.8326707716061674 0 0 0 0.15987258869273879 0 0 0.51869955151521085 0 2:3 5:1 9:2 14:1 23:1 30:3 40:1 42:1 189:1 196:1 281:1 467:1 667:1 785:1 786:1 789:1 790:1 791:1 792:1 793:1 794:1 795:1 796:1 797:1 798:1 
0 2.1016921707194478 2.0157767692143573 4.1061905217052272 1.1808537037411604 0 0.59172651487569383 0 2.8350654392668351 1:1 2:1 14:2 20:1 26:1 40:1 52:1 84:1 91:1 136:1 192:1 272:1 477:1 799:1 800:1 801:1 802:1 803:1 
4.2139748017647021 8 8 7.2288529711423255 5.4691297155119667 3.4790699107385956 4.4838698962240624 1.7978633652211313 7.7010561538901996 2:0 14:1 23:1 28:1 31:1 39:1 49:1 61:1 107:1 197:1 344:1 804:1 805:1 806:1 807:1 808:1 809:1 810:1 
0 0 0 0 8 0 8 0 0.93548850137573181 2:2 30:2 31:1 61:2 534:1 819:1 820:1 
8 8 8 0.73004132960155965 8 5.7429687961528622 8 5.566011254581837 7.8651313268713245 2:1 4:1 39:1 151:1 232:1 356:1 357:1 769:1 770:1 
6.6481849753075331 0 4.4797193787988236 0.63494167008545821 8 0.39152716740311955 8 0 8 2:1 9:1 42:2 51:1 78:1 168:1 262:1 821:1 
2.4588508752411218 0.60826548473920838 7.1603564898474525 0 8 0 8 0 8 2:1 51:1 822:1 
0.046917773084369847 0 4.4998840109457614 0 0 0 5.156330092287372 0 8 2:2 5:1 9:1 15:1 16:1 23:1 26:1 30:1 31:1 46:1 61:1 467:1 823:1 824:1 
0 0 0 0 5.5678737175506416 0 8 0 0.40414916998850836 2:1 14:1 30:1 54:1 91:1 825:1 826:1 
0 0.25923235174877041 0 1.7941943198721899 2.7082202505323423 5.8046374282372382 0.25674847009095814 0 0 1:1 2:5 4:2 14:3 20:1 30:2 36:1 39:1 51:1 84:1 120:1 482:1 532:1 672:3 827:1 828:1 829:1 830:1 831:1 832:1 833:1 
7.9091299083488726 6.8114743955337635 1.9739353080863258 0 5.7815388255651134 4.6927369074514171 5.4709792117835665 8 6.8742524320723559 2:1 14:1 46:1 51:1 52:1 151:1 325:1 845:1 846:1 847:1 848:1 
5.5884099050974037 0 0 0 0 1.8116707370338738 0 0 0 2:2 14:1 30:2 42:1 46:2 233:1 240:1 448:1 601:1 849:1 850:1 851:1 852:1 853:1 
3.3069367770448403 3.6465864397042447 5.7308002282064754 0 4.2637528638983229 0.48559293136456116 2.658575274518018 1.6771015849714772 5.2739311157537045 2:3 26:2 30:1 89:1 422:1 854:1 855:1 856:1 857:1 858:1 859:1 860:1 861:1 862:1 
0.21246780362784332 1.7434608589803584 1.4120949867388257 0 2.5902148484651337 0.037924786240397815 2.44575859669499 1.3695408139347285 3.4044426698674215 1:1 2:4 14:2 20:1 26:3 30:1 39:1 40:1 42:1 46:1 178:1 241:1 551:1 586:2 863:1 864:1 865:1 866:1 867:1 868:1 869:1 870:1 871:1 872:1 873:2 874:1 875:1 876:1 877:1 878:1 
8 2.2583179987490549 8 0 5.4737190667796911 2.0400105728284608 8 8 5.5425190913833111 2:1 30:1 879:1 
3.0747328084326138 1.7827015876732031 0 2.6550815403145869 0 2.1934725564948163 0 0.72396635230401951 4.7809485817735409 1:2 2:2 5:1 9:1 14:4 16:1 23:1 30:2 39:2 42:3 82:1 107:1 168:1 240:1 252:1 348:1 435:1 703:1 880:1 881:1 882:1 883:1 884:1 
0 0 0 0 0 0 0.62949620499149472 0 0.64239162097051083 2:4 4:1 14:3 25:1 26:1 30:1 32:1 36:1 37:1 39:1 40:4 42:3 186:1 272:1 395:1 601:1 691:1 850:1 891:1 892:1 893:1 894:1 895:1 896:1 897:1 898:1 899:1 
0 0 0 0.43610147282509365 0 4.811349289965408 1.6888318147401842 0.84738885420441656 0 1:1 2:2 4:1 9:3 14:3 25:1 32:1 36:1 37:1 40:1 42:2 170:1 298:1 368:1 467:1 601:1 730:1 850:1 900:1 901:1 902:1 903:1 904:1 905:1 
1.2887450001751526 4.3625935640223377 0 1.2028978951077829 2.0954825820451957 4.7934412718863673 0 1.5089923828558736 4.5205791135086173 2:4 4:2 14:1 30:2 40:1 42:1 46:1 89:1 156:1 191:1 239:1 535:1 603:1 885:1 906:1 907:1 908:1 909:1 910:1 911:1 
3.2304845057881049 0.054324757313648074 0 0 4.2792599679520098 0 8 0 7.9097768583189012 2:4 22:1 26:1 30:3 40:1 61:2 107:1 351:1 422:1 912:1 913:1 914:1 915:1 
0 3.1806797509778493 1.6865983317207196 0 0 0 0 0 0.42322020241825259 1:2 2:2 9:1 26:1 30:1 42:2 46:1 89:1 107:1 421:1 717:1 916:1 917:1 918:1 919:1 920:1 
5.0733354155069144 0 0 0 0 0 1.3944762799835584 3.1829270923930686 6.4240617047370012 2:2 30:2 46:1 921:1 922:1 923:1 924:1 
0.38779743588322568 0 0.69416937050421756 0 4.6609754579067051 0 0 0 6.6317254869204181 1:1 2:3 5:1 13:1 14:2 26:1 30:1 42:2 46:1 83:2 103:1 107:1 925:1 926:1 927:1 928:1 929:1 930:1 931:1 
4.7326052563768775 5.5599095080921224 0 4.3898924075377179 7.0402519039243101 0 0 0 3.0215729574478347 2:4 14:2 26:2 30:2 40:1 42:2 46:1 52:1 89:1 144:1 145:1 201:1 239:1 262:1 272:1 289:1 348:1 395:1 435:1 551:1 932:1 933:1 934:1 935:1 936:1 937:1 
3.4083484848660746 7.8864522156078829 1.4457714366208647 3.5019928694962674 7.5468047501273317 1.8706260613775434 0 3.8631999024589874 3.9115494222620621 2:3 4:1 14:5 30:2 39:3 42:1 65:1 89:1 151:1 222:1 348:1 385:1 435:1 467:1 490:1 527:1 532:1 617:1 659:1 777:1 938:1 939:1 940:1 941:1 942:1 943:1 944:1 
0 5.6328686513448343 0 6.7708283444254391 0.065331450069749969 0 8 1.8115903506160711 1.6861222534869362 2:2 14:1 26:1 30:1 46:1 233:1 399:1 945:1 946:1 947:1 948:1 
0 0 0 0 0 0 0 0 3.2979903662876104 1:1 2:5 8:1 14:1 30:1 39:1 42:2 46:1 51:4 83:1 258:1 259:1 490:1 777:1 919:1 949:1 950:1 951:1 952:1 953:1 954:1 955:1 956:1 957:1 
0.52427838866005638 1.0316185273259206 0.46014791186703874 1.6661212785132336 0.78773604453032708 1.5837590225025333 2.6464745845906545 0 4.3839716435199625 2:2 9:2 14:1 30:1 39:2 42:1 51:1 107:1 112:1 272:1 287:1 368:1 490:1 919:1 950:1 952:1 958:1 959:1 960:1 961:1 962:1 
4.1899864266032987 1.9450891925594018 0 0 8 1.5945836845465542 4.3227880807822832 5.8733431598887318 3.5406292092148002 2:3 14:1 30:3 39:1 89:1 107:1 151:1 527:1 963:1 964:1 965:1 966:1 967:1 968:1 
2.9084457219513489 0 0 0 0.61801633684912993 0 0 0.65322881106131103 0 2:5 5:1 14:1 26:1 30:4 54:1 61:1 78:1 107:1 251:1 272:1 422:1 440:1 666:1 969:1 970:1 971:1 
0.9887153379931779 0 0 0 1.7411331627282443 0 6.6080366302416857 0 0 2:1 5:1 23:1 30:1 42:1 54:1 107:1 240:1 972:1 
1.2805128866619684 0 0 0.014288437716250461 1.5413623324314154 0 3.3616228967251716 2.4295788050855576 0.21624249213580796 1:1 2:6 14:1 20:1 26:4 30:1 39:2 51:1 107:1 148:1 197:1 440:1 858:1 864:1 947:1 973:1 974:1 975:1 976:1 977:1 978:1 979:1 980:1 
2.2867302879173823 8 8 0 8 4.1449886923622419 8 3.7850074817107968 0 1:1 2:1 14:1 40:1 51:1 86:1 125:1 981:1 982:1 
2.4671798790183703 0 0 2.6901849958967663 4.5664834101074803 0.4276722375431895 6.5342241219756607 3.8231534256793682 2.8898090745673861 2:3 14:2 16:1 30:3 39:1 46:1 240:1 487:1 715:1 983:1 984:1 985:1 986:1 987:1 988:1 
1.38717716275553 0 2.6499912214073236 0 0 2.4697842055464601 5.7241787675898212 0 5.8427121585638604 2:0 83:1 94:1 128:1 151:1 989:1 990:1 
1.9960427385813988 2.1601169215167668 0 0 1.2795587371067996 0 2.1824601297618553 6.7202091384884461 0.80999812003727645 2:4 14:1 26:2 30:2 39:1 79:1 89:1 107:1 252:1 991:1 992:1 993:1 994:1 
3.2140237971005785 8 5.4705159610939438 3.5817727492926692 5.4060679787933887 6.4883120504432172 8 1.5728232284810229 7.8142330506176521 2:1 14:1 39:1 46:1 51:1 738:1 995:1 996:1 997:1 
5.9467278615123815 6.1018635941056463 0 5.4401410976343607 6.647333895122939 3.0549746796094013 6.336351735260104 1.7634698588346525 1.8538311337735351 2:1 14:1 30:1 40:1 201:1 551:1 998:1 999:1 1000:1 1001:1 
8 8 8 0 8 4.4326474449543287 8 8 0 2:0 54:1 
8 7.8537879991438242 8 8 8 6.7557657027023446 0 0 0.52330311549587849 2:0 5:2 9:1 14:1 20:1 341:1 757:1 1002:1 
4.1307106802114868 0 0 4.4066974556641449 1.5580381445614619 1.9910057806448112 0.30989874752613639 0 0 1:3 2:5 5:1 13:1 14:4 16:2 20:1 26:1 30:4 39:1 42:1 46:1 54:1 107:1 189:1 223:1 230:1 233:1 235:1 240:1 325:1 629:1 1003:1 1004:1 1005:1 1006:1 1007:1 1008:1 1009:1 1010:1 1011:1 
0.81279918361139125 0 0 0 1.8616859532651768 0 0 0 1.0527453850748685 2:3 5:1 8:1 9:1 14:1 16:1 30:3 39:1 42:1 58:1 83:1 182:1 456:1 766:1 1012:1 1013:1 1014:1 1015:1 
4.7881315487137757 4.6833781373548486 0 0 5.3562582428735652 0 1.4610161845323117 0 0 1:1 2:3 5:1 9:3 14:3 15:1 20:1 30:3 46:1 52:1 61:1 65:1 170:1 189:1 223:1 566:1 705:1 1016:1 1017:1 1018:1 1019:1 1020:1 1021:1 1022:1 1023:1 1024:1 1025:1 1026:1 1027:1 
0.41497361265562199 5.9490254361425974 3.8397931314907137 0 0 2.955964293916558 7.6109690984568088 0 0 1:1 2:0 16:1 39:1 530:1 1028:1 1029:1 1030:1 
7.2628538880954183 2.8326885352461622 0 1.5765308506665505 0 0 0 0 0 2:3 5:1 9:2 14:4 20:2 25:2 30:1 39:2 46:1 101:1 562:1 1031:1 1032:1 1033:1 1034:1 1035:1 1036:1 1037:1 1038:1 1039:1 1040:1 
3.8333555931044376 0 0 2.0581710866114888 4.3663641426679147 0.58313224350100978 1.9793425672690284 0.25151940371806614 2.577845693454675 2:5 9:1 14:3 22:1 26:1 30:3 40:1 42:1 61:1 89:1 125:1 265:1 272:1 313:1 638:1 1041:1 1042:1 1043:1 1044:1 1045:1 1046:1 1047:1 1048:1 1049:1 
0 0 0 0 8 0 8 0 8 2:1 51:1 52:1 1050:1 
0 0 0 0 0 2.5276090620080609 1.0784546575982044 0.23970704107105459 0 2:2 9:2 14:1 30:2 57:1 73:1 467:1 1051:1 1052:1 1053:1 
0 5.3115649647629617 2.3256445638023564 0 0 4.5005762634666828 8 0 0.55097344097885259 2:0 54:1 1054:1 1055:1 
0 0 0.86659192332682378 0 0 0.027375538921963045 3.9026888350238362 2.1464459389151003 0 2:2 9:1 16:1 23:1 30:2 39:1 40:1 1056:1 1057:1 1058:1 1059:1 1060:1 1061:1 1062:1 
5.2273190037201847 0.17177158101811529 6.5598323824303133 1.2337923670494051 8 5.9340244501197157 0 0.91908944585875207 6.3683541047088665 2:1 9:1 39:1 103:1 1063:1 1064:1 1065:1 1066:1 1067:1 
8 0 0 2.8078339725879431 4.0007256828552178 1.4134408498648974 8 0.73509329860377148 0 1:1 2:4 4:1 14:1 30:3 36:1 82:1 120:1 348:1 672:3 1040:1 1068:1 1069:1 1070:1 
5.5408580361945354 2.7345215619941001 3.4107473202308083 2.5305065412926537 3.5733250779148484 0 3.7419195719596896 0 2.3511904992510373 2:3 8:1 14:3 26:2 30:1 40:1 100:1 936:1 1071:1 1072:1 1073:1 1074:2 1075:1 1076:1 1077:1 1078:1 
4.9384366945797824 7.9251373924689155 6.52659290260583 1.4297946403772976 4.4858483923625858 3.529749908637601 8 3.9092966477674675 5.5544135180072587 2:2 26:1 31:1 39:1 46:1 51:1 61:1 1079:1 1080:1 1081:1 
0 0 3.0731850693509446 0 0 0 8 0 8 2:1 51:1 61:1 83:1 126:1 1082:1 
0 0 7.5353381975636315 0 6.9317779375264719 0 8 1.0426495483136509 3.7312524147437522 2:1 30:1 1083:1 1084:1 
0 0 2.3411021984149909 0 0 0 0 0 0 2:3 5:3 14:3 30:2 39:2 40:3 42:1 51:1 61:1 91:2 151:1 272:2 356:1 401:1 1058:1 1085:1 1086:1 1087:1 1088:1 1089:1 
2.7530681318515398 2.8644243197543173 0 2.7207779303426101 0 0 0 0 0 2:2 9:1 14:2 20:2 30:1 39:1 40:1 51:1 107:3 125:1 217:1 240:1 356:1 401:1 423:1 458:1 640:1 1090:1 1091:1 
8 8 4.5524478541306062 0 8 4.9443316818012413 8 8 0 2:1 4:1 14:1 348:1 356:1 435:1 
2.1713798525532733 0 0 0 3.4126431698619446 0 5.1893429358220846 0 4.1301170954240032 2:3 9:2 23:1 30:3 39:1 83:1 738:1 1052:1 1096:1 1097:1 1098:1 1099:1 
8 8 7.5176559210683358 6.3711021060452424 8 2.863554851902792 8 5.0705223712225944 2.9174212118247271 2:0 40:1 375:1 1100:1 1101:1 1102:1 
8 8 8 1.0717622845907289 7.3260729813654679 6.5253441242446231 8 7.3850368450692239 6.250437277304794 2:0 14:1 1103:1 1104:1 
5.2075602272525501 4.2594577903417132 2.6732369224751733 2.9168356565077014 2.0261397593049222 3.0495486133670693 2.7654618080868492 3.0240186503214264 0.61103586133448373 2:1 9:2 14:2 26:1 39:1 40:1 61:1 435:1 765:1 978:1 985:1 1105:1 1106:1 1107:1 1108:1 1109:1 1110:1 1111:1 1112:1 
3.2754529736968587 2.8809428129011101 0 0.42420780260969576 0 0.77404633000274548 2.7426107514292832 2.2369173722101636 0 2:1 14:2 20:1 30:1 1115:1 1116:1 1117:1 1118:1 1119:1 
0 4.4217803109353344 4.5107154200300323 0 1.9584061449883694 8 6.2408767500206173 6.5064016146900761 0 2:0 14:3 46:1 1120:1 1121:1 1122:1 1123:1 1124:1 
2.7447570511882819 0 0.30385026222872807 0.19554397684338556 5.0048790817806692 0 0 0 2.7377308587207705 2:0 9:1 14:1 46:1 131:1 203:1 1125:1 1126:1 1127:1 1128:1 
6.1157147867043946 8 8 8 5.7372532243015604 0 7.0217104532145349 0 0 2:2 28:1 51:2 125:1 253:1 422:1 663:1 1129:1 1130:1 1131:1 
3.0257904986053341 2.8913684941394675 5.8349439935228773 1.3528657077053869 5.0952360431954284 4.1005760695552409 0.50413354327285298 1.1586390949895977 2.6549567521280357 2:3 9:1 14:5 20:1 23:1 30:2 39:2 40:1 42:1 46:1 265:1 268:1 356:1 397:1 458:1 541:1 1054:1 1132:1 1133:1 1134:1 1135:1 1136:2 1137:1 1138:1 1139:1 
0 3.783063263516615 2.4080271285661587 0.72798529591907712 1.5620869794129137 1.000292761881755 8 0 6.2515303699751081 2:0 42:1 126:1 168:1 262:1 272:1 730:1 1140:1 1141:1 
3.0646555561489519 2.145593366291715 2.9000853541790614 0 7.3838751679799257 0 8 2.7982124375040138 0 2:3 14:1 26:1 30:2 39:1 40:1 126:1 749:1 797:1 1142:1 1143:1 1144:1 
8 5.77536202112893 1.8877609173512397 1.0685116826327161 6.8320009687138121 0 8 0 4.8726407640409164 2:3 14:2 22:1 26:1 30:2 39:1 46:1 61:1 84:1 107:1 252:1 465:1 534:1 738:1 1087:1 1145:1 1146:1 1147:1 
8 8 4.8531613388953456 8 5.8724870624850354 8 8 4.6054209389873932 5.1330282801712839 2:0 39:1 1148:1 1149:1 
3.9006597312080755 0 0 0 1.8406857242900418 0 7.8823888706303791 0 6.8003518429304792 1:1 2:5 14:1 30:4 35:1 40:1 46:1 51:1 52:1 61:1 107:1 195:1 203:1 548:1 639:1 1150:1 1151:1 1152:1 1153:1 1154:1 1155:1 
0 0 2.0895759763987236 0 1.6242772145870363 1.7359356149146952 4.3015690393987551 0 1.4356516070963721 2:3 9:1 14:4 16:1 26:1 30:2 39:1 61:1 83:1 189:1 1083:1 1156:1 1157:1 1158:1 1159:1 1160:1 1161:1 
0 0 0 0 0 0 8 0 7.3768776780707377 2:6 30:3 51:3 125:1 1162:1 
0 1.1374125396133874 1.9364724177847208 3.3282707957351976 3.0964756726824527 0 1.8990168521272413 0 2.3988078155319883 1:1 2:5 9:1 14:3 26:4 39:4 51:1 91:1 99:1 101:1 148:1 354:1 630:2 1163:1 1164:1 1165:1 1166:1 1167:1 1168:1 1169:1 1170:1 1171:1 1172:1 1173:1 1174:1 
6.9246701698910131 1.5573322224707453 4.0685720624170809 0 5.8151848529504848 0 8 0 6.7686425786200717 2:0 1175:1 
8 8 8 0 5.8099265071182824 8 8 8 6.7702126050716727 2:0 1176:1 
8 8 8 0 8 5.7582685362864501 8 6.2841028799345313 8 2:0 1175:1 
0 0 0 4.2968907700644632 1.026683880663642 0 0.20764982905305279 4.5009028609446586 0.42772401385837328 2:1 14:2 17:1 20:1 30:1 101:1 272:1 313:1 1145:1 1177:1 1178:1 1179:1 
8 8 8 0.83857551895032112 8 8 8 7.1087896184172958 8 2:0 14:1 39:1 107:1 1180:1 
3.370106887083149 3.9436693621759535 0 0 1.8102153318235774 0 5.6065570121063475 0 1.4047465253154601 1:1 2:5 5:1 9:1 14:4 16:1 23:1 26:1 30:4 40:1 42:1 107:2 140:1 247:1 395:1 467:1 508:1 991:1 1056:1 1181:1 1182:1 1183:1 1184:1 1185:1 1186:1 
0 2.4497781469952482 2.9322739457678924 1.7682874042051326 0 2.3866763869464696 1.8482067908968345 0 0.98405604767985511 1:1 2:1 5:1 9:2 14:3 26:1 39:2 42:1 61:1 107:1 123:1 182:1 440:1 467:1 506:1 1071:1 1085:1 1187:1 1188:1 1189:1 1190:1 1191:1 1192:1 1193:1 1194:1 
8 0 2.3818363171579562 0 6.1849770361495171 0 8 0.44919892642618281 1.3316096039447696 2:1 5:1 30:1 1195:1 1196:1 
0 4.479818494534296 0.42273282651145144 0 1.750629163732663 2.2504384882023625 8 0 0 2:0 9:1 40:1 95:1 107:1 170:1 1197:1 1198:1 1199:1 
0 0 1.7187229841317171 0 0.066133110606250739 0 2.5861380047453872 1.9437923755792528 1.6988016482454267 2:4 5:1 9:1 14:1 26:2 30:2 39:1 40:1 42:2 154:1 950:1 1200:1 1201:1 1202:1 1203:1 1204:1 1205:1 
1.1938329699824255 0 0 0 0.86039127514042102 0.65216609829964511 0 2.5243824786524445 5.0451615199136528 1:1 2:3 8:1 14:1 20:1 30:3 39:1 40:1 42:2 57:1 61:1 89:1 107:1 395:1 743:1 754:1 890:1 1206:1 1207:1 1208:1 1209:1 1210:1 1211:1 1212:1 1213:1 1214:1 1215:1 1216:1 
0 1.9124021651916587 0 0 0 2.9146032588887136 0 2.4201921270077831 5.4619127339086742 2:2 40:1 42:2 51:2 148:1 155:1 168:1 325:1 351:1 415:1 422:1 1087:1 1217:1 1218:1 
0 6.8097981430098899 2.9051934201690712 4.3003970440681458 1.7248827446620318 2.1458489617258847 7.0883553986867405 0 2.054708228577081 2:6 4:2 9:1 14:4 23:1 26:2 30:1 39:1 40:1 51:1 61:1 84:1 126:1 156:1 189:1 490:1 804:1 932:1 1210:1 1219:1 1220:1 1221:1 1222:1 1223:1 1224:1 1225:1 1226:1 1227:1 
4.9833521419961038 8 4.5615076690530971 0 8 8 8 0 8 2:1 40:1 51:1 52:1 151:1 1228:1 
3.1628792335426494 0 0 4.4081502056474564 2.2811349025286076 0.27405276295996778 0 0.33861411384324946 0.57856392876300178 1:1 2:1 5:1 9:2 14:5 20:2 30:1 39:1 46:1 61:1 156:1 487:1 741:1 764:1 835:1 983:1 1260:1 1261:1 1262:1 1263:1 1264:1 1265:1 1266:1 1267:1 1268:1 1269:1 1270:1 1271:1 1272:1 
8 8 7.5081526838681736 8 8 8 8 8 8 2:2 4:1 30:1 39:1 122:1 289:1 624:1 1273:1 
0 0 0 0.97194743692579755 0 3.3679147507152365 0.976012897622204 1.1803321953898369 0.27852831021938029 1:1 2:5 14:4 22:1 25:2 30:3 36:1 39:3 40:1 42:2 46:1 61:1 141:1 503:1 521:1 1040:1 1274:1 1275:1 1276:1 1277:1 1278:1 1279:1 1280:1 1281:1 
8 8 3.4009931719667614 0 0.33655320434740343 6.5312781958743171 8 1.0867468299063601 3.1139292090785693 2:0 9:1 14:1 46:1 1052:1 1282:1 1283:1 1284:1 
0 0 0 0 0.61060293731922122 0.62139730577685348 4.3888331751260932 0 0 1:1 2:4 8:1 26:2 30:2 46:1 318:1 532:1 828:1 1096:1 1149:1 1285:1 1286:1 1287:1 1288:1 1289:1 1290:1 
3.8726918746836629 2.3502266238058405 5.7385245686200745 2.5196599768977923 0.1213216032477249 1.0076699878025175 5.6719821248519988 0 2.8421387936600166 2:0 8:1 14:2 16:1 23:2 42:1 46:1 1113:1 1291:1 1292:1 1293:1 1294:1 1295:1 1296:1 
0 0 0.91623207101747195 2.4194249578157283 1.126849216304896 2.3277928943095016 0 0 4.3301793215263356 1:1 2:1 14:2 23:1 39:2 40:1 42:1 46:1 49:1 51:1 52:1 61:1 84:1 151:1 357:1 401:1 458:1 1297:2 1298:1 1299:1 1300:1 1301:1 
0.2547242364813827 0 2.2076921607308404 0.449925674263431 3.1887671556135873 0 3.001572624657864 0 0 2:3 14:1 16:1 26:1 30:2 65:1 149:1 201:1 240:1 454:1 1302:1 1303:1 1304:1 1305:1 1306:1 1307:1 1308:1 
8 0 0.29718922923095797 0 4.8035738594303696 8 8 7.8495746163682005 0.38218884205786469 1:1 2:3 30:3 42:1 57:1 61:1 107:1 651:1 1309:1 1310:1 1311:1 
0 6.022224118692912 0.041968177629947319 6.3006121408876838 8 0 8 0 2.2961798918076886 1:2 2:1 40:2 51:1 730:1 1312:1 1313:1 1314:1 
8 0 0 0 8 0 8 8 0 2:2 30:2 40:1 440:1 457:1 1054:1 
1.808432957977079 0.22071743874577579 0 0.60945745047970712 4.1194798418159513 1.9059894855936177 0 1.2587852427000397 0 2:4 4:1 10:1 14:2 26:1 30:2 40:2 46:1 313:1 397:1 548:1 1315:1 1316:1 1317:1 1318:1 1319:1 1320:1 1321:1 1322:1 
0 0.86311014295981237 0.46259066579811486 0 0 0 5.7356220571230887 0 0 1:1 2:2 14:1 26:2 89:1 384:1 1323:1 1324:1 1325:1 1326:1 
5.6311456291292572 0 0 1.352791664257847 0 0 8 2.9551594883235328 0 2:2 9:1 15:1 26:1 30:1 78:1 251:1 666:1 1327:1 
5.295520586152497 8 7.4602459719717968 5.3723204782877492 8 8 3.3892628612444602 3.5934676922089732 8 2:1 9:1 16:1 39:1 42:1 51:1 422:1 766:1 1328:1 1329:1 1330:1 1331:1 
0 2.1294671674619008 5.0759024962998671 8 7.7361033065924607 1.0569925901327726 5.3291362001104661 0.59614070446759371 0 2:2 14:3 16:1 26:1 30:1 32:1 39:1 42:1 57:1 61:1 89:2 107:1 1013:1 1334:1 1335:1 1336:1 1337:1 1338:1 1339:1 1340:1 
2.3776760806214026 2.1488169969738551 0.69770748913875147 3.1103660197283838 2.9575588444597476 0 0.94038251909492732 1.4324117745671685 8 2:4 5:1 14:1 26:2 30:2 42:4 58:1 84:1 147:1 195:1 345:1 1029:1 1341:1 1342:1 1343:1 1344:1 1345:1 1346:1 1347:1 1348:1 1349:1 1350:1 
0.13654021103053293 8 1.0530883979686474 3.272166137014914 4.2809017537792711 2.0231885801747751 6.3602251411836024 0.68595448483939114 0 2:3 9:1 14:5 26:2 30:1 40:2 42:3 61:1 109:1 113:2 122:1 548:1 579:1 822:1 1063:1 1347:1 1350:1 1351:1 1352:1 1353:1 1354:1 1355:1 1356:1 1357:1 
0 0 0 0.16499966145144859 2.1717438780327449 0 0.3921991588460042 0 1.9821063676831778 2:1 14:2 20:1 26:1 39:1 42:1 272:1 659:1 1050:1 1251:1 1358:1 1359:1 1360:1 1361:1 1362:1 1363:1 
5.4279120066761495 1.4597585967816149 0 1.6392655232012272 0 1.56621846917728 2.5790201610838701 0.55291380712604976 5.7376343151258578 1:1 2:1 14:1 30:1 42:1 107:1 551:1 1364:1 1365:1 1366:1 1367:1 
0.68116935145326918 0.0038606570285524932 8 0 0 8 2.7724305537186713 8 8 2:0 14:1 42:1 83:1 300:1 650:1 1368:1 
1.3300957141552938 6.004879061696391 0 0 3.4917127078630044 0 2.9786174322866712 0 0 2:5 4:1 14:2 26:4 39:1 40:1 65:1 89:1 144:1 145:1 348:1 435:1 738:1 1114:1 1339:1 1369:1 1370:1 1371:1 1372:1 1373:1 1374:1 1375:1 1376:1 
2.2842653866135136 0 2.1925114502531509 0 0.022703873618864757 0 6.7761089602900677 0 0.60873636647752172 2:1 9:1 14:2 26:1 40:1 42:1 348:1 467:1 490:1 810:1 1377:1 1378:1 1379:1 1380:1 1381:1 1382:1 
6.2734930770851651 8 8 1.9838275226741475 6.2508899084767 8 8 7.9860449728799976 0 2:0 9:1 14:1 39:1 40:1 42:1 757:1 1383:1 1384:1 
6.3468885790665386 6.1794726992914946 8 6.5041160273457281 5.6799755343383023 6.8416567447261132 6.9217359243349508 6.2930181020292579 1.6588815403738666 1:1 2:0 8:1 9:2 42:1 149:1 151:1 379:1 1301:1 1385:1 1386:1 1387:1 1388:1 
1.4224961040715898 0.0048673077691006577 0.38283696475465873 0 3.8429750301643746 2.0636592957647544 0.50190907744477176 1.267552445333934 0.63951118383478611 1:1 2:2 5:1 8:1 14:1 30:2 40:1 42:1 84:1 107:1 240:1 1389:1 1390:1 1391:1 1392:1 1393:1 1394:1 1395:1 1396:1 
8 6.3836953302098145 4.0544988817666994 0 0 0 8 2.8061666403421581 8 2:0 39:1 78:1 1074:1 1397:1 
8 8 0 0 8 0 8 4.2578532291081057 4.9100580979223842 2:1 14:1 26:1 42:1 348:1 717:1 1378:1 
5.2824561465234199 3.1675908568032427 0.31903675298938111 3.0354483259905112 2.0404220762737735 0.055408165707691304 0 0.92120870052910941 3.5915356292893437 1:1 2:2 5:1 9:1 14:4 23:1 30:2 40:2 52:1 61:1 726:1 919:1 1210:1 1341:1 1398:1 1399:1 1400:1 1401:1 1402:1 1403:1 1404:1 1405:1 1406:1 
4.3546680619305675 0.99546731430749302 3.4061859633544254 1.8620665906606886 2.8294199390395489 1.1614157855467759 1.080002405855613 0 2.9417710315300627 1:2 2:2 5:2 9:2 14:4 20:1 26:1 30:1 39:1 42:2 83:1 168:1 272:2 295:1 844:1 1106:1 1407:1 1408:1 1409:1 1410:1 1411:1 1412:1 1413:1 1414:1 
4.2696705340727901 2.745468271999143 4.2774675918555216 1.7746665524910112 1.8344851247743301 0 8 0 2.7315264247758515 2:5 9:1 14:1 26:5 39:1 52:1 80:2 83:1 243:1 259:1 272:1 532:1 780:1 976:1 1415:1 1416:1 1417:1 1418:1 1419:1 1420:1 1421:1 1422:1 
4.3484660975532758 8 8 0 2.9141727777779587 8 8 8 8 2:0 14:1 42:1 1423:1 1424:1 
0 8 7.1971640051601034 1.0002427081750225 3.9095720325643177 3.0672997710085075 8 1.7594283537537068 6.4121338015490137 1:1 2:0 16:1 39:1 89:1 1339:1 1425:1 1426:1 
6.6638490441138272 4.6792680982616757 3.350642839174812 0.071293020159473794 0 0 2.8379843353804022 1.6066145503968161 4.2237102075767758 2:0 23:1 46:1 82:1 1133:1 1427:1 1428:1 1429:1 
0 4.4202220029828938 0 2.2038112523920965 3.4524560039096843 8 0.62496930822541741 8 1.8796490655126248 2:1 14:2 30:1 39:1 126:1 130:1 325:1 414:1 718:1 1397:1 1430:1 1431:1 1432:1 1433:1 
5.1739786500492411 0 0 0 4.7558618130859136 0 3.5671773595694671 0 0 2:5 9:3 14:3 26:4 30:1 39:2 61:1 251:1 271:1 348:1 394:1 422:1 440:1 562:1 584:1 666:1 791:1 971:1 1357:1 1434:1 1435:1 1436:1 1437:1 
0 0 0 0 3.417371729802392 0 1.0027159460122088 0 0 2:6 14:2 26:4 30:2 40:2 201:1 216:1 229:1 240:1 435:1 647:1 835:1 1114:1 1233:1 1245:2 1372:1 1438:1 1439:1 1440:1 1441:1 1442:1 1443:1 1444:1 1445:1 1446:1 
1.2746405990998158 0 0 0 0 0 5.464280072872322 0 0.7632808346456168 2:2 8:1 9:1 30:2 31:1 61:1 83:1 84:1 243:1 272:1 1447:1 1448:1 1449:1 1450:1 1451:1 1452:1 
7.8453885750262344 4.5936581365655744 0 2.1706405073225192 6.1373400047572106 0 3.5486667087796699 0.85457958125900035 1.1647678049198997 1:1 2:4 4:1 9:1 16:1 23:1 26:1 30:2 42:2 107:1 666:1 667:1 668:1 1058:1 1453:1 1454:1 1455:1 1456:1 
5.4716932994817329 3.1679442920754131 1.7135733702635481 0 0 0.8017552274409061 1.320297527958703 0.19925892670208875 0 2:2 9:1 26:1 30:1 46:1 61:1 84:1 240:1 666:1 1245:1 1457:1 1458:1 1459:1 1460:1 1461:1 1462:1 
0.061734594072652471 0 0 0 0 0 0 0 0 2:5 14:2 30:4 51:1 52:1 348:1 435:1 647:1 1043:1 1245:2 1463:1 1464:1 1465:1 
4.1939095283273558 2.1185804450317964 0.99077296389327008 0.28049201779492017 1.2083062038270365 1.6012055990006075 5.7510101570331695 3.2646717659540978 2.8787098977416372 1:1 2:5 14:3 20:1 26:3 30:2 197:1 348:1 435:1 647:1 778:1 1245:2 1464:1 1466:1 1467:1 1468:1 1469:1 
0 0 2.1414207339312945 0 0 0 8 0 0.28745579398675797 1:1 2:2 26:1 30:1 40:1 61:1 83:1 467:1 1470:1 1471:1 
8 0 1.1316847749912724 0 0 0 1.4776076063561472 0 2.8660518368656347 2:1 5:1 42:1 51:1 1472:1 1473:1 
0 0 0 0 1.6217314598591182 0 1.5005748862626931 0 0 1:1 2:2 9:1 14:1 30:2 46:1 73:1 1474:1 1475:1 1476:1 
0 2.3718849825474644 2.3525901666892683 0 0 0 4.7302784168465868 0 0 2:1 26:1 719:1 725:1 727:1 1477:1 1478:1 1479:1 
3.1251137211683879 0.84189027976442499 1.8075839931071727 1.8381477759379741 0 0 8 0.25516670579198386 0.49209696552900872 2:1 9:1 23:1 30:1 89:1 107:1 266:1 1220:1 1480:1 1481:1 
0 0 1.2175345632511425 0 0.059903623174578632 0 7.109210773603011 1.4548903282372687 0 2:0 14:1 20:1 401:1 551:1 1482:1 1483:1 1484:1 
5.8828893984271904 8 5.0595563956091594 7.4393112067948426 6.4970913849973364 5.6287587513635886 6.3751530780544625 2.9554908692258528 4.2015181767484142 1:1 2:2 4:1 9:1 14:2 20:1 25:1 39:1 42:1 554:1 1483:1 1485:1 1486:1 1487:1 1488:1 1489:1 1490:1 1491:1 
8 1.0643619290823638 0 4.924674126570622 0 1.1708708503732963 8 8 4.5193788729785629 2:2 30:2 126:1 1440:1 1445:1 1494:1 
0 0 4.5155440861530236 0 0.2615446945160142 0 0 0 5.4039248886282634 2:2 9:1 26:1 30:1 39:2 46:1 91:1 151:1 262:1 401:1 554:1 730:1 1210:1 1502:1 1503:1 1504:1 1505:1 1506:1 
3.2101652356388217 1.7205137182991161 0 0.040075125997816055 1.9611937193220765 0 3.2044261972432451 0 0 2:4 9:1 14:1 23:1 26:2 30:2 40:2 61:1 89:1 107:2 149:1 262:1 272:1 524:1 715:2 968:1 1507:1 1508:1 1509:1 1510:1 
2.7847464740520751 3.8460522434656221 0 2.8272262043580256 3.055770446242871 0 0 0 3.7777090697760403 2:5 4:1 5:1 9:1 14:1 26:1 30:2 39:1 40:4 42:1 51:1 83:1 84:1 757:1 1043:1 1451:1 1511:1 1512:1 1513:1 1514:1 1515:1 1516:1 1517:1 1518:1 
0 0 0.48387403485424474 0 1.0137190901484627 2.2669677301490267 0 6.0052868244355935 0 1:1 2:2 14:1 30:2 39:1 40:1 42:2 1384:1 1519:1 1520:1 1521:1 1522:1 
8 0 0 0 0 0 8 8 0 2:2 14:2 30:2 57:1 182:1 272:1 624:1 1523:1 1524:1 1525:1 
1.3973564345788652 0 0 1.0115762965353667 3.9427690581322477 0 0 0 2.773142896255778 2:2 9:1 14:3 26:1 39:1 51:1 52:1 61:1 83:1 107:1 216:1 313:1 320:1 420:1 1083:1 1526:1 1527:1 1528:1 1529:1 1530:1 1531:1 1532:1 
0 3.9238098480693195 0 0.43345374549869836 3.7836780201599414 0 4.0227826330444607 0 2.7856573016943029 2:2 13:1 14:1 40:1 42:2 51:2 168:1 453:1 458:2 1533:1 1534:1 1535:1 1536:1 
3.8869620693524491 0 1.9846500894493684 1.3781930079752305 3.2114050735297628 1.3078792213300867 5.7715286542279109 1.8839536752481931 0.52655464910115013 1:1 2:3 16:1 26:1 30:2 42:1 46:1 89:1 94:1 122:1 548:1 1537:1 1538:1 1539:1 1540:1 1541:1 1542:1 
0 0 0 0 0 0 7.720326983652944 0 0 2:3 26:1 30:2 83:1 419:1 1451:1 1493:1 1543:1 
5.824951511701804 1.4374679578569114 1.0199734146003137 2.489965711183038 6.1790415240549663 0.51836647214567255 1.8204665995532852 0 6.9531777210875045 2:3 8:1 9:1 14:1 23:1 30:2 46:1 61:1 80:1 103:1 107:1 272:1 1544:1 1545:1 1546:1 1547:1 1548:1 1549:1 1550:1 1551:1 
2.9833206219109591 8 4.0674694917492689 0 0.061696941287312512 5.7618085634216563 8 6.2950220705370334 8 2:0 1552:1 
0.22770784717336656 0 0 4.5239435504912526 0 0.79592863606588171 0 0 0 2:5 4:1 14:4 30:2 36:1 39:2 42:1 51:2 84:1 482:1 672:3 828:1 1553:1 1554:1 1555:1 1556:1 1557:1 1558:1 1559:1 
1.4702114357840517 0 3.0219094115359044 0.18823658358210443 0 0 2.3579316383534965 1.4252448292239088 0 1:1 2:3 8:1 14:2 26:1 30:2 46:2 89:1 1133:1 1223:1 1508:1 1560:1 1561:1 1562:1 1563:1 1564:1 
4.3534656515199934 7.296308083964961 8 7.1466833704544195 5.731385541621103 0 6.9890676451718878 0 5.2580025635285121 2:2 9:1 14:1 26:1 31:1 42:2 51:1 65:1 126:1 262:1 919:1 1325:1 1565:1 1566:1 1567:1 1568:1 
8 0 0 2.1510952148124511 0 0 3.3801381223262683 0.73272906545019523 8 2:3 30:3 40:3 141:1 467:1 756:1 1569:1 1570:2 
0 5.65164935718742 2.4933711698413559 1.5385063758271358 0 0.24990942985145945 5.3737005784938034 0 6.6356271704611371 1:1 2:1 9:1 14:1 23:1 26:1 42:1 46:1 61:1 107:1 1360:1 1571:1 1572:1 1573:1 
0 0 0 0 0 0 1.3668372856030122 0 0 2:3 4:1 9:1 13:1 14:3 16:1 23:1 25:1 30:1 32:1 36:1 37:1 39:1 40:1 42:2 89:1 125:1 159:1 253:1 355:1 395:1 754:1 835:1 1054:1 1233:1 1460:1 1574:1 1575:1 1576:1 1577:1 1578:1 
4.8679815995398092 3.7923648884370253 7.2354321807997728 0.59242566744874603 4.0902142197858424 1.5851211426878991 8 1.3433679288164446 2.7156389742371636 2:1 14:1 26:1 46:1 1579:1 1580:1 1581:1 
0 0.14105193699964791 0.38491129754453829 0 0 0 1.0305145822740258 0.90151310283788544 0 2:2 9:1 30:2 39:1 40:1 46:1 61:2 293:1 652:1 1582:1 1583:1 1584:1 1585:1 1586:1 1587:1 1588:1 1589:1 1590:1 
8 2.5378231773666422 8 0 8 3.4274173652159639 8 0 8 2:1 61:1 103:1 1599:1 
5.5623610167310238 6.1902547538587296 2.9099334294913226 0.25990423760111181 0 0 1.9498941454527468 0.17351358120318272 1.1870464809370556 2:3 4:1 14:4 26:2 39:3 107:1 151:1 373:1 490:1 506:1 624:1 728:1 939:1 1600:1 1601:1 1602:1 1603:2 
2.9132526544972288 4.0209817066979117 1.0059670367763607 3.3557520453777148 5.8637405921975612 5.0844722448293087 4.5829335376172287 5.6218632009797131 1.0584026817048553 2:6 4:1 9:2 14:3 23:1 26:2 30:3 39:2 40:1 46:1 189:1 272:1 532:1 931:1 1530:1 1604:1 1605:1 1606:1 1607:1 1608:1 1609:1 1610:1 1611:1 1612:1 1613:1 1614:1 1615:1 1616:1 1617:1 
0 0 5.4511734015731435 0 0.51678342967448132 0 4.692959677522869 0 0 1:1 2:1 9:1 51:1 61:1 83:1 148:1 239:1 240:1 1618:1 
4.3268810751405944 2.1000669818830544 8 0 2.9439260365301712 0 8 0.79233860170522197 0 2:1 26:1 1353:1 1619:1 1620:1 
4.5279543116505439 1.9687669909719374 1.9737507462648665 4.8909243208051612 3.2904750918597379 1.8245896623124696 5.564294254728563 1.513235973404754 2.2926424142302593 2:1 9:1 14:1 30:1 39:1 40:1 42:1 83:1 151:1 596:1 756:1 1621:1 1622:1 1623:1 1624:1 
2.0076672613183444 2.122311792312777 1.3861394211068252 0 3.0342456978466257 7.5806593249357981 1.3635337882326788 3.2577273403701055 1.7585937860273404 1:2 2:2 4:1 9:1 16:1 20:1 26:1 35:1 39:2 40:2 86:1 113:1 395:1 532:1 601:1 603:1 1498:1 1625:1 1626:1 1627:1 1628:1 1629:1 1630:1 1631:1 1632:1 1633:1 1634:1 
2.5567135347029026 8 2.0401017910081314 2.2748203030913405 3.815874984346503 6.1137594454705146 5.3319741161250338 4.0671291062027084 0 2:4 4:1 14:3 20:1 26:1 30:2 39:1 40:1 42:2 57:1 134:1 240:1 319:1 320:1 395:1 570:1 1635:1 1638:1 1639:1 1640:1 1641:1 1642:1 1643:1 1644:1 
0 0 3.2117477046185803 0 0 0.18271673287614884 1.0011688503950946 4.3715880250487338 3.7096786288142276 2:0 14:1 31:1 39:1 239:1 262:1 1645:1 1646:1 1647:1 1648:1 1649:1 
3.5074070468156604 4.0940846847196273 4.531539714356013 0.45636209944016115 1.8622869265581665 5.3007208945029296 8 1.4830599934802244 6.4406659331010738 2:0 23:1 1157:1 1650:1 1651:1 
5.0093619567575951 1.5126649113971877 3.8058075118838772 3.069545120327136 6.359161984158181 2.6017160490922882 5.2925834487354351 2.9612678399010046 5.683182129144023 1:1 2:2 14:2 23:1 30:2 39:1 40:1 141:1 448:1 849:1 854:1 1652:1 1653:1 1654:1 1655:1 1656:1 1657:1 1658:1 1659:1 1660:1 
0 0 5.8332237528999267 0 2.0175577513990262 0 7.9249152260796158 8 6.0063985735045824 2:2 14:1 30:2 203:1 207:1 1661:1 1662:1 1663:1 
0 0 0 0 0 0.30147684656056978 0 0 0 1:2 2:5 4:1 5:1 14:3 20:1 25:1 30:3 32:1 36:1 37:1 39:2 40:1 42:3 46:1 314:1 579:1 703:1 950:1 987:1 1390:1 1556:1 1668:1 1669:1 1670:1 1671:1 
5.4342327760851186 2.6126762953059361 0 0 8 0 5.6754217674967684 0 0 1:1 2:2 14:3 26:1 30:1 39:1 40:1 46:1 125:1 145:1 156:1 219:1 260:1 348:1 435:1 1320:1 1522:1 1556:1 1677:1 1678:1 1679:1 1680:1 
4.743568644609101 0 8 0 2.3645587607752603 6.9179879684528531 8 2.954238786984142 0 2:0 1353:1 1681:1 
2.1482964432078608 7.6254439960652709 0 8 5.326026310672435 8 1.3209947626142415 5.3039253797436539 0 1:1 2:5 4:1 8:1 14:3 16:1 20:1 26:1 30:3 42:1 46:3 89:1 126:1 232:1 233:1 556:1 672:3 945:1 1383:1 1682:1 1683:1 1684:1 1685:1 1686:1 
1.503342538697334 7.3544451693871835 2.3792137661635575 2.1589350541521624 2.19814961802882 2.1653461288089586 0 4.0381080730078036 2.3221592423609683 2:1 4:1 14:5 20:1 39:1 40:2 89:1 151:1 275:1 440:2 591:1 630:1 1245:1 1687:2 1688:1 1689:1 1690:1 1691:1 1692:1 1693:1 1694:1 1695:1 1696:1 1697:1 1698:1 1699:1 
3.7470417991585308 0 0 3.3430306200615134 3.0605728918258719 0 1.4211746201283326 0.017839167428669658 0 2:2 9:1 25:1 30:1 40:2 82:1 101:1 113:1 432:1 467:1 548:1 859:1 1396:1 1514:1 1700:1 1701:1 1702:1 1703:1 1704:1 1705:1 
3.7710030124641296 2.3658442964125386 2.0979145221916329 4.3198086677141987 3.7392614090185385 0.8062711820458095 2.5210869148753829 1.2557041261406978 2.1047712735154582 2:4 9:1 14:3 26:2 30:2 42:1 61:1 100:1 107:1 1495:1 1706:1 1707:1 1708:1 1709:1 1710:1 1711:1 1712:1 1713:1 1714:1 1715:1 1716:1 
8 0 0 8 6.7745437720739918 0 8 0 0 2:2 14:1 26:1 30:1 42:1 313:2 419:1 1423:1 
6.6005662830548006 0.40751178614188627 0.48649338271546055 0 2.2082939237546499 0 3.2976253164076206 0.41654551479842605 2.5041796218513395 2:3 14:2 16:1 30:2 39:1 40:1 42:1 46:1 181:1 197:1 240:2 265:1 562:1 1717:1 1718:1 1719:1 1720:1 1721:1 1722:1 1723:1 
0 0 3.2883395331083376 0.18184671926017118 2.1786954715868148 0.27802775499198584 0.56145651724154422 1.7117961687123464 6.0502633081367314 2:2 9:1 14:2 20:1 26:1 35:1 42:3 51:1 61:1 107:1 168:1 466:1 497:1 1724:1 1725:1 1726:1 1727:1 1728:1 1729:1 
2.3569474614935477 8 3.5612554803402112 2.1258947174253291 5.1699815751570313 3.7892868108228543 8 5.3693971884257135 0 2:0 14:1 39:1 42:1 1267:1 1730:1 1731:1 1732:1 
2.6812741942890033 0 0 0.35225354238763856 2.193593827787272 0.31682639419111774 2.1564526684888783 0.30569266863298711 2.1359075662318907 1:1 2:4 9:1 14:1 26:1 30:3 39:1 46:1 52:1 61:1 78:1 107:1 289:1 1733:1 1734:1 1735:1 1736:1 1737:1 1738:1 1739:1 1740:1 1741:1 
1.9221953791653821 0 0 0 0 0 8 0 5.2231301346013872 2:2 16:1 26:1 30:1 40:1 61:1 252:1 1742:1 1743:1 1744:1 
0 4.6277321810704484 0 2.7006800914810754 0 1.9772993547793132 0 0 1.4306477733005647 1:1 2:2 14:2 26:1 30:1 39:1 40:1 42:1 46:1 107:2 126:1 219:1 240:1 247:1 551:1 733:1 1420:1 1453:1 1745:1 1746:1 1747:1 1748:1 1749:1 
2.6922583124034905 3.5788600341942871 4.9952485501591424 0 3.462878603673285 0.58411141055811 2.1246281345296714 2.4570090670814664 0.63616776763016969 2:4 9:2 14:4 26:3 30:1 39:4 46:2 109:1 151:2 155:1 260:1 314:1 527:1 1148:1 1732:1 1750:1 1751:1 1752:1 1753:1 1754:1 1755:1 1756:1 1757:1 1758:1 1759:1 1760:1 1761:1 1762:1 
6.2342082735906832 2.5868447221373403 0 0 0.87548067065444268 0 0 0 0.77230601318987713 1:1 2:2 14:2 26:1 30:1 39:1 42:1 84:1 89:2 107:1 168:1 395:1 470:1 556:1 741:1 1763:1 1764:1 1765:1 1766:1 
0 3.525321635695696 2.4242439539103544 1.3239185291032196 0 0 0 0 7.0908757315194952 1:1 2:2 14:3 26:1 30:1 39:3 40:1 46:1 61:1 83:2 84:1 107:1 125:1 252:1 327:2 422:1 809:1 1767:1 1768:1 1769:1 1770:1 1771:1 1772:1 1773:1 
0 2.9999153446996769 0.79989565398097151 0 6.1014490673687103 1.0044912228200125 8 0 2.2592553030877038 2:0 1774:1 1775:1 1776:1 
0.66535950970808611 0 0 0 0 0 6.6595241209001017 0 2.2170991403514311 2:3 26:1 46:1 51:2 83:1 1526:1 1773:1 1777:1 1778:1 1779:1 
0 3.4344001700748463 0 2.052266180291527 0.90137541777757935 1.3839723402450983 0.045331218006196224 2.3879944696235982 0 1:1 2:4 9:2 14:3 16:1 26:1 30:3 39:2 40:1 46:2 75:1 84:1 170:1 286:1 506:1 530:1 697:1 991:1 1190:1 1353:1 1770:1 1780:1 1781:1 1782:1 
0 0 0 0 0 0 0 0 4.1835317451923526 2:3 9:1 16:1 26:1 39:1 42:1 51:2 61:1 107:1 148:1 156:1 247:1 355:1 756:1 1050:1 1090:1 1783:1 1784:1 
2.9274905426421993 8 7.4117350596054541 7.0866708486057739 8 1.8756458892886694 2.8314547730470876 4.8500938903678783 0.46316928415124342 1:1 2:6 4:1 9:2 14:5 20:1 23:1 26:2 30:3 40:1 42:1 89:1 131:1 459:1 548:1 789:1 1339:1 1685:1 1744:1 1772:1 1785:1 1786:1 1787:1 1788:1 1789:1 
3.0755852494492943 0 0 0 1.6803064507325962 0 0 0 0 2:4 5:1 9:1 14:2 26:1 30:3 39:1 61:1 83:1 348:1 594:1 634:1 935:1 1376:1 1790:1 1791:1 1792:1 1793:1 1794:1 
0 0 5.4329396010781599 0 0 0 8 0 2.0671620518735172 2:1 14:1 51:1 83:1 240:1 1795:1 
8 1.1444823972034919 0 1.5695454731568892 0 0 1.1349274741052575 0 5.7756268705030012 2:2 8:1 9:1 14:1 20:1 25:1 26:1 36:1 39:1 40:1 42:2 467:1 663:1 991:1 1796:1 1797:1 1798:1 1799:1 
6.1671764548578949 0.073012202558956546 8 0 0 8 8 0 8 2:0 9:1 14:1 42:1 168:1 757:1 1002:1 
2.4895778155512787 8 3.3768667700302353 0 4.0902838382375029 2.3385163600110501 0 1.9985973934799617 0 2:0 5:1 14:3 39:2 40:1 84:1 658:1 783:1 1578:1 1800:1 1801:1 1802:1 1803:1 1804:1 
2.6387905607340691 0 0 1.3345523722162649 1.3312249293856231 2.4579902082816036 0 1.2984020716611395 1.965416462479326 2:5 4:1 9:2 14:4 20:2 25:2 30:2 36:2 39:2 40:1 42:1 378:1 878:1 1237:1 1350:1 1805:1 1806:1 1807:1 1808:1 1809:1 1810:1 1811:1 1812:1 1813:1 1814:1 1815:1 
4.3693433487828068 0 4.3979239153788079 0 1.1923359393606054 0 8 0 4.9240073792080361 2:1 14:1 16:1 26:1 39:1 151:1 153:1 189:1 347:1 1018:1 1492:1 1817:1 
2.0399626070580061 0 1.8416346440224687 0 0 1.7593690067673473 0 0 0.012289782773730379 1:2 2:4 5:2 8:1 23:1 26:3 31:1 39:2 51:1 61:1 84:2 153:1 357:1 1018:1 1396:1 1818:1 1819:1 1820:1 1821:1 1822:1 1823:1 1824:1 1825:1 1826:1 
1.9785478609881975 8 5.4348648181036703 3.218302507393946 3.2663020907779319 3.054049515947928 0.98980930189530614 1.1388024567581652 8 2:2 14:5 20:1 26:1 61:1 84:1 103:1 107:1 348:1 422:1 551:1 586:1 727:1 1330:1 1821:1 1824:1 1827:1 1828:1 1829:1 1830:1 1831:1 1832:1 1833:1 1834:1 1835:1 1836:1 1837:1 
8 1.9792480988062811 0 0 8 0 8 8 8 2:3 30:3 859:1 860:1 1838:1 
0 1.999445442282495 1.2231082390114083 0 0 0 5.9688197646681278 0 0 2:1 14:1 23:1 40:1 51:1 65:1 1647:1 1839:1 
4.7852591359520078 0 0 8 0 0 8 0 0 2:0 46:1 313:1 1474:1 
0 0 0 0 5.0432897778230759 0 8 0 0 2:3 5:1 9:2 26:1 30:1 42:1 51:1 61:2 240:1 243:1 262:1 790:1 1267:1 1840:1 
5.7918295879213542 0 8 2.0362379620126267 8 2.5166677311234182 0 0 8 2:3 9:1 26:1 61:2 103:2 189:1 467:1 1841:1 1842:1 
0.22929514374404467 7.2402604990362622 1.2214026664883446 0 0.37839435417732986 0.35213908844235187 0 0 8 2:1 9:1 14:2 23:1 30:1 61:2 107:1 1766:1 1843:1 1844:1 1845:1 1846:1 1847:1 
4.1182544090676272 4.0778624497101097 0 3.3630765802623754 5.0858404832776696 6.8990994013398463 8 5.3919247102314927 0 2:0 14:1 20:1 39:1 325:1 1848:1 1849:1 1850:1 
8 8 8 0 5.8153636241440374 5.759526741241114 8 6.2883198238026861 6.7692080563819736 2:0 1851:1 
5.9793845458511603 4.0209162885558731 3.9125610696341506 3.9299559499936834 3.2448659834582783 2.414102792445441 3.9000396814555511 1.1263610242668187 2.1692487283819717 1:1 2:1 9:2 16:1 23:1 30:1 35:1 39:1 40:1 42:1 49:1 61:1 107:2 149:1 191:1 624:1 1153:1 1506:1 1852:1 1853:1 1854:1 1855:1 1856:1 1857:1 1858:1 
0 0 0 0 0 0 2.2296850539527524 0 0 2:3 4:1 14:1 25:1 26:1 32:1 35:1 36:1 37:1 40:1 42:2 46:2 58:1 61:2 262:1 314:1 493:1 532:1 548:1 828:1 835:1 1206:1 1233:1 1866:1 1867:1 1868:1 
0 0 1.3205234570673419 0 2.1185420638580297 0 0 0 0 2:1 14:2 23:1 26:1 39:1 126:1 151:1 202:1 253:1 314:1 357:1 415:1 493:1 575:1 675:1 1243:1 1869:1 1870:1 1871:1 1872:1 
0 8 7.2571118868524502 0 7.2550933636333648 0 8 0.17353747708778527 0 2:1 26:1 1711:2 
0 0 1.3314925165200944 1.2763509001940556 0 1.0013305641765231 1.6504135539890947 3.2233078023826258 0 1:1 2:3 9:2 26:1 30:2 40:1 46:1 49:1 93:1 107:1 262:1 313:1 532:1 533:1 702:1 1282:1 1873:1 1874:1 1875:1 
4.6806325510259725 8 2.1798392066296643 7.4231855831297446 6.7055948331796555 1.4084863468058748 2.6901134766987518 0 4.9291164946129404 1:1 2:1 14:4 20:1 23:2 30:1 46:1 141:1 156:1 348:1 579:1 1262:1 1876:1 1877:1 1878:1 1879:1 1880:1 1881:1 1882:1 1883:1 1884:1 
0 0.54109100028157786 0 0 1.1229883259509126 3.5496253149844352 0 0 0 1:1 2:5 4:2 14:4 30:2 36:1 39:1 42:1 51:1 84:1 156:1 260:1 436:1 482:1 672:3 1244:1 1498:1 1885:1 1886:1 1887:1 
8 0.43553158086693999 8 6.001532024718446 6.4269811780890116 1.1108509705348721 4.4752896660603074 3.6719827067566531 8 2:1 23:1 42:1 103:1 498:1 976:1 1113:1 1888:1 1889:1 1890:1 
0 0 0 0 0 0 1.3769644150475597 0 0 1:1 2:2 8:1 9:1 26:1 30:1 37:1 40:2 738:1 861:1 1889:1 1891:1 1892:1 1893:1 1894:1 1895:1 
2.8085221106237701 0 0 0 2.1302312487720183 0 8 0 0 2:1 14:1 51:1 52:1 151:1 819:1 835:1 1896:1 
8 6.6458272603837516 7.1674765040589508 2.3187029451568941 0.79148518179051419 0 6.0923130235825047 0 8 1:1 2:0 5:1 14:1 42:1 83:1 94:1 1852:1 1897:1 1898:1 
3.339962448679243 4.9187550653875363 1.6659405447741353 3.9687769180053816 8 7.1715514433466945 3.2134253542068243 5.4648333329829635 0 1:1 2:3 4:1 9:1 14:8 20:1 30:2 39:2 40:1 89:1 140:1 219:1 260:1 272:1 325:1 551:1 575:2 670:1 1403:1 1498:1 1899:1 1900:1 1901:1 1902:1 1903:1 1904:1 1905:1 
4.1745226495967316 8 6.3109530637710858 0.098283557080636158 8 3.3682866598654941 8 0 3.0327609789535166 2:0 1816:1 1906:1 
8 5.4261210846278072 8 0 0 8 5.1140430872657605 8 0.34901878889505494 2:1 13:1 39:2 51:1 125:1 187:1 1498:1 1907:1 
0 0 1.5734242041162243 0 0 0 0 0 0.19156610715197159 1:1 2:2 9:1 14:1 26:1 30:1 42:1 61:1 89:2 125:1 168:1 627:1 1711:1 1908:1 1909:1 1910:1 1911:1 1912:1 1913:1 1914:1 
4.4759263755420289 2.1440020179938379 0 0 5.7095338672336551 0 0 3.1910589308159221 4.4139221736427201 1:1 2:7 4:1 14:2 23:1 25:1 30:4 39:2 40:2 46:1 70:1 103:1 123:1 126:1 151:1 240:1 418:1 567:1 1099:1 1570:1 1915:1 1916:1 1917:1 
4.8523409262230235 0 8 0 1.082039013571773 8 8 8 0 2:1 30:1 57:1 1498:1 1918:1 1919:1 1920:1 
0 0 1.3548551286356394 0 0 0 0 0 8 2:4 5:1 9:2 14:2 16:1 20:1 26:3 30:1 39:2 42:1 168:1 284:1 730:1 1434:1 1921:1 1922:1 1923:1 1924:1 1925:1 
0 0 0 0 0 0 0 0 8 2:2 5:2 51:2 52:1 1050:1 
0 0 0 0 1.3525003162726204 1.0587952868656534 0 0 0 2:3 14:3 26:1 30:1 39:3 40:1 42:1 103:1 281:1 284:1 503:1 700:1 1926:1 1927:1 1928:1 1929:1 1930:1 1931:1 1932:1 1933:1 1934:1 1935:1 1936:1 
8 0 0 2.3771552702934855 8 8 8 8 0 2:3 30:3 84:1 1937:1 
0 0 0 0 0 0 7.6371976746338355 0 8 1:1 2:0 5:1 83:1 1938:1 
0 0 0 0 0 0 4.5082171081159892 0.78605200178901646 0 2:2 9:1 30:2 182:2 1065:1 1067:1 1939:1 1940:1 1941:1 
3.4875431872760712 0.029612537401325658 0.82017136837628024 1.4124048282607342 0 4.2503634559280563 1.5341400534921457 0 1.7424997484213018 2:0 5:1 9:1 14:1 42:1 420:1 1942:1 1943:1 1944:1 
2.0839684051076812 8 1.3373308941806554 2.8564619442559098 4.4536911337275535 0 2.9236093669183636 1.7353411266377752 2.3250643476650441 2:2 4:1 9:1 14:4 16:1 23:1 30:1 34:1 39:4 42:1 156:1 272:1 624:1 1090:1 1521:1 1789:1 1938:1 1945:1 1946:1 1947:1 1948:1 1949:1 1950:1 1951:1 
0 0 0 0 0 0 8 0 0 2:1 30:1 145:1 
0 0 0 2.1297033615665462 0 0.49189431855552496 0 0 0 1:1 2:3 4:1 14:2 16:1 30:1 46:1 51:1 153:1 233:1 627:1 718:1 727:1 835:1 945:1 1826:1 1913:1 1952:1 1953:1 
8 8 8 0 8 8 8 4.402027502427484 8 2:0 1537:1 
0 2.9783951688349415 0 0 1.3503814886972105 0 3.6897249976270734 0 3.3094200060941534 2:6 13:1 14:1 16:1 23:1 26:2 30:2 40:1 42:1 46:1 51:2 52:1 54:1 82:1 89:1 93:1 117:1 134:1 506:1 1251:1 1456:1 1954:1 1955:1 1956:1 1957:1 
0 0 0 0 0 0 4.5499965443844586 0 0 2:3 9:1 14:1 26:1 30:2 39:2 40:1 89:1 107:1 156:1 253:1 262:1 310:1 325:1 385:1 467:1 1635:1 1958:1 1959:1 1960:1 1961:1 1962:1 1963:1 
5.2796717743785724 0.94299393019121858 0 0 2.5290069593178792 3.7470777558278794 8 0.55815124607171096 0.016183257160312534 2:0 627:1 1776:1 1913:1 1964:1 
8 8 8 0 8 0.61383889294842719 8 1.8628146731734845 8 2:3 9:1 14:1 26:3 42:1 46:1 268:1 497:1 1456:1 1965:1 1966:1 
8 8 7.195639960768653 7.0252736967003111 1.0221097710836142 0 7.7123650679853837 3.7408738384309341 8 2:0 20:1 1104:1 1829:1 1967:1 1968:1 
8 8 8 0.97582380063519114 0 8 8 7.8458393088824989 3.442660182068654 2:0 9:1 1969:1 
8 8 2.3663805258247956 3.4200182111771484 1.2526319830227117 8 8 0 8 2:0 39:1 107:1 263:1 467:1 757:1 1465:1 
0.63118737480090514 2.2200932989851285 0 0 2.4012684852680262 0.42666414675759368 2.088047538374199 0 1.047871400315791 2:3 4:1 9:3 26:2 39:2 52:1 107:1 151:1 153:1 156:1 196:1 272:1 373:1 454:1 569:1 713:1 835:1 878:1 1090:1 1311:1 1822:1 1970:1 1971:1 1972:1 1973:1 1974:1 1975:1 
0 0.73304314482323341 1.1275591801540421 0 0 0 8 0 0 2:2 14:1 26:1 51:1 61:1 107:1 274:1 1358:1 1403:1 
1.075972435657826 4.7668538457302834 3.3574092373137927 4.6585825323479915 5.8211859079988928 2.1815239819857264 1.2831220994705843 0.41051272460441074 2.5621023863995394 1:1 2:4 14:3 16:2 26:2 30:2 31:1 39:2 40:1 42:4 52:1 101:1 189:1 455:1 527:1 714:1 738:1 1197:1 1523:1 1976:1 1977:1 1978:1 1979:1 1980:1 1981:1 1982:1 1983:1 1984:1 
4.4455523843103135 0 0 0 0 0 8 4.8952391608535573 0.49894729615753308 2:1 30:1 249:1 419:1 1451:1 1985:1 
0 0 0 0 0 0 7.8145367678976312 0 0 2:1 26:1 39:1 107:1 182:1 313:1 1321:1 1986:1 
5.4975738565782697 3.6575398037238269 0.98780779311483924 5.6731624370968392 8 5.3637262773677561 8 1.8880270825031327 0 1:1 2:1 9:1 30:1 40:1 42:1 57:1 78:1 107:1 120:1 123:1 135:1 487:1 1987:1 
8 7.5605198848212636 7.9692849132121815 0.99334853121078792 7.2759551036897392 7.2536934177412302 8 7.9410181236134152 4.7280085169763044 2:2 30:2 39:2 46:1 257:1 1823:1 1988:1 1989:1 1990:1 
8 8 8 1.419671824495728 0 6.0631735610480408 8 0 8 2:0 42:1 168:1 262:1 543:1 548:1 738:1 
6.0514271096807919 0 0 0 2.3561418893183248 0 0 0 1.406278838824887 2:2 5:2 26:1 30:1 39:1 40:1 42:2 84:1 1708:1 1991:1 1992:1 1993:1 
1.9467238567140446 5.61646740016955 0 0 0.46092814709452823 0 3.3789214453831367 0 0.64607715858330883 1:1 2:1 51:1 1994:1 1995:1 1996:1 
0.021113989908386623 2.9111371837775466 8 3.3330601090169392 0 6.9817320264775011 4.0732409930518507 0.55131634219676262 4.5985108573249454 2:0 9:1 14:1 78:1 240:1 1678:1 1829:1 1997:1 1998:1 
0.83958517086394535 0 2.5010214659315957 0.52661415602622852 1.4468051938722584 0 0 0.94667000061345163 0 2:2 9:1 14:2 16:1 28:1 30:2 37:1 39:1 49:1 151:1 1999:1 2000:1 2001:1 2002:1 2003:1 2004:1 2005:1 
8 5.0853501969300288 1.2153488373176755 4.9833349851599253 5.2657830060696806 6.6832854483347255 2.521515693927348 4.4054331166835619 5.5103760497823586 1:1 2:3 4:1 8:1 9:2 14:4 23:1 30:2 35:1 39:2 40:1 42:1 52:1 61:1 126:1 139:1 239:2 256:1 479:1 551:1 1070:1 1158:1 1726:1 2006:1 2007:1 2008:1 2009:1 2010:1 2011:1 
0 0 0 0 0 0 2.3641892331057113 0 4.0034477907309904 1:1 2:3 14:1 26:1 30:2 39:1 40:1 83:1 89:1 727:1 1076:1 2012:1 2013:1 2014:1 2015:1 2016:1 2017:1 
6.6653721132226655 0 0 0 0 2.0110515454423727 0 2.8883360666541034 2.2366876193298557 2:1 14:1 20:1 23:1 30:1 36:1 42:1 137:1 2008:1 2018:1 2019:1 2020:1 
6.5364598040699526 4.8173737505472403 4.8316267255506009 0 5.3834090873515938 0.59451118811343462 8 4.8419944078803896 4.0967975846224265 2:3 13:1 14:1 26:1 30:2 40:1 42:1 84:1 452:1 762:1 1648:1 2021:1 2022:1 2023:1 
4.7942556632294764 0.95235998311828274 0 0 0 0 8 0 4.2733793881548596 2:0 252:1 472:1 2024:1 
0 2.6832443903198175 0 0 0 0 0 7.6851676982842516 6.1787676982435569 1:1 2:1 30:1 42:1 46:1 89:1 258:1 730:1 2025:1 
8 8 8 2.2442835060174602 8 7.6120701472832231 8 4.4491231541042087 8 2:0 270:1 
8 6.401735295422748 2.886154538561378 0 3.8171964888012018 2.8293501308502984 8 0 0 1:1 2:0 39:1 107:1 1060:1 2026:1 
0.25164016833365144 0 0 0 0 0 5.7189989121190621 0 0 2:2 30:2 107:1 134:1 1058:1 1142:1 2027:1 2028:1 2029:1 
8 0 0 0 6.0642022837196325 0 8 0 4.3400366547393192 2:2 30:2 61:1 107:1 741:1 2030:1 2031:1 
6.458615342788887 8 8 0 4.1923329145433526 8 8 3.1576258292295205 0 2:0 39:1 240:1 2015:1 
2.4019618177416246 0 0 1.2508666576312011 1.0645711543017042 0 8 3.0335609436326165 0 2:2 9:1 30:2 42:1 170:1 199:1 212:1 243:1 667:1 809:1 1197:1 1330:1 1985:1 
5.4317286366424566 4.7964274203506685 5.2323972006478527 4.858197960765076 6.0404824738391438 1.6929488323772786 7.7816707214623486 0.98600634861959613 4.2040853252063242 2:1 9:1 14:2 16:1 39:1 46:1 52:1 265:1 468:1 624:1 791:1 1346:1 2032:1 2033:1 2034:1 2035:1 2036:1 2037:1 2038:1 2039:1 
0 8 2.8498879666012487 2.4231002490686988 8 2.1357738422350612 0 0 2.8629443188649923 2:0 9:1 14:1 40:1 73:1 1091:1 1147:1 2040:1 2041:1 
8 0.048925347241240889 3.1694406027955395 2.2615357361371844 6.1637938062945183 0.72670906107045075 8 0 0 2:2 14:1 20:1 26:1 40:1 51:1 125:1 835:1 2042:1 2043:1 2044:1 2045:1 2046:1 2047:1 
8 0.83385583643440353 4.1592054809480752 0 0 0 8 0 5.1492544844760735 2:1 26:1 663:1 2048:1 
8 0 0 0 0 1.0624587675601398 0 0.45389546442146256 0.1409826411522753 2:3 5:1 14:1 16:1 23:1 26:1 30:2 31:1 39:2 42:1 46:1 107:1 718:1 757:1 871:1 1301:1 1371:1 2049:1 2050:1 2051:1 2052:2 2053:1 2054:1 
3.6369003600474286 0 0 2.230602040456112 0.36257583153816642 2.8331607759757662 0.89984010239107148 0 0 2:2 8:1 9:1 14:1 23:1 30:2 54:1 78:1 89:1 262:1 384:1 465:1 844:1 1849:1 2055:1 2056:1 2057:1 2058:1 
0 0 0 0 0.25805027824921356 0 0 0 0 1:1 2:3 4:1 14:3 25:1 30:1 32:1 36:1 37:1 39:2 40:1 42:2 182:1 202:1 240:1 348:1 435:1 566:1 730:1 835:1 1018:1 1233:1 1248:1 1257:1 2059:1 2060:1 2061:1 2062:1 
3.6210594483032499 0.46687580801799272 0 0.30134933840208133 5.7554490553541058 0 1.6273480764571218 2.0849428516508062 0 2:4 14:3 30:4 39:4 40:2 61:1 107:2 262:1 314:1 315:1 348:1 355:1 1235:1 2063:1 2064:1 2065:1 2066:1 2067:1 2068:1 2069:1 
3.9146188486619518 0.11028071735776068 5.5101299018812373 0 2.2166593634013561 1.5261837506931359 8 0.085745971187517783 0 2:1 26:1 31:1 39:1 46:1 2070:1 2071:1 2072:1 2073:1 2074:1 
8 8 2.4248580048845865 1.3774920201609417 1.0632173296605703 0 8 2.8659483514661686 3.2256003090544136 1:1 2:1 9:1 30:1 212:1 2075:1 2076:1 
7.3206105853861088 5.3154204811571475 4.7285866139627775 1.8248645053258672 4.6774873618030659 4.2741252409028085 8 4.7637309665409751 5.1658204198590987 2:0 20:1 42:1 2077:1 2078:1 2079:1 
3.0933262220859752 3.3414885162121251 3.6153679889814021 4.4048128175513659 4.6081138275386149 3.6319569610567419 6.2942095587454716 4.3776069759310401 0.35480581494806629 2:3 9:1 14:2 30:3 39:3 46:1 61:1 93:1 107:1 207:1 272:1 379:1 467:1 699:1 714:2 924:1 977:1 985:1 1268:1 1556:1 1926:1 1991:1 2080:1 2081:1 2082:1 2083:1 
0 0 0 0 2.1676522961687148 0 0 0 2.2463715535055022 1:1 2:4 5:2 13:1 14:1 16:1 23:2 26:1 30:1 40:1 51:1 89:1 126:1 134:1 265:1 289:1 384:1 385:1 467:1 1324:1 1339:1 2084:1 2085:1 2086:1 2087:1 2088:1 
0.77465529758411589 0.18240815359809912 0 0 0 1.4104546838755319 0 0 0.24507056988489756 2:1 9:1 14:2 16:1 23:2 26:1 39:1 42:1 84:1 107:1 289:1 380:1 384:1 1324:1 2084:1 2089:1 2090:1 2091:1 2092:1 
3.5803260303807023 0 1.1247957727204771 3.1172944038205439 2.0358155439031362 0.23133161159039192 5.3736166761218502 4.9337205555000549 2.6780524270351931 2:9 8:1 14:9 20:2 26:4 30:5 107:1 272:1 417:1 1083:1 1319:1 1877:1 2093:1 2094:1 2095:1 2096:1 2097:1 2098:1 2099:1 2100:1 2101:1 2102:1 2103:1 
4.2824505396498171 0.9550536486746567 1.3361280559987789 0 0 1.9578005011997675 8 4.5077858141143423 4.919242407593007 2:0 783:1 1084:1 
0.038660757409976168 0 0 0 0 0 0.8979989789576357 0 1.6906180690050585 2:3 9:2 14:3 20:2 30:2 40:2 42:1 61:1 83:2 89:1 265:1 272:1 498:1 835:1 844:1 921:1 1985:1 2104:1 2105:1 2106:1 2107:1 2108:1 2109:1 2110:1 2111:1 2112:1 
6.1741268543425969 8 5.7765336165688819 2.6846652898891201 5.2842146782150765 4.0887174635710606 8 5.3915571466537786 6.3704352323384263 2:1 9:1 39:1 40:1 51:1 2113:1 2114:1 
0 0 0 0 0 0 4.8951538699864452 0 1.6673568335072573 2:1 51:1 482:1 1888:1 2115:1 2116:1 
4.2771487036497868 1.5894002395849174 8 0 0 1.4989830535313817 8 4.6492225910498988 0 2:1 14:1 26:1 467:1 1044:1 2117:1 2118:1 
1.5883348089051315 0 0 0 0.81335877587113392 0 0.74662496152886104 0 0 2:4 4:1 9:1 23:1 26:2 30:1 32:1 37:1 39:3 40:1 46:1 84:1 91:1 651:1 667:1 730:1 835:2 962:1 1233:1 2119:1 2120:1 2121:1 2122:1 2123:1 2124:1 2125:1 2126:1 2127:1 2128:1 
8 0 0 0 0 0 6.0186814409122018 0 0 2:0 83:1 562:1 1690:1 2129:1 
0 0 0 0 0.63328282250609624 0.43603183005765395 2.1656060046548444 0 0 2:5 4:2 14:2 30:2 36:1 39:1 51:1 482:1 672:3 1096:1 1286:1 1432:1 1638:1 2130:1 2131:1 2132:1 2133:1 
3.6200938374717895 2.2389874012287359 3.7494735244535269 2.3147549514681014 7.6826269080713203 8 3.5743892556455066 8 0 2:2 9:1 14:1 26:1 30:1 40:1 477:1 497:1 551:1 650:1 2134:1 2135:1 2136:1 
5.1092613901980011 2.3981455197838462 2.1758407546643763 1.7180360798503242 3.0837319237455003 0 1.0105824357874458 0 7.1998902893050269 2:2 9:1 14:1 20:1 22:1 26:1 30:1 39:1 42:1 61:1 207:1 396:1 1021:1 1086:1 1191:1 1434:1 2137:1 2138:1 2139:1 2140:1 2141:1 2142:1 2143:1 2144:1 
2.6279784723331705 4.4707202523076557 7.4249621388313631 3.218328775626782 7.4773020673456365 4.2378359341437175 1.2175320443255939 0 4.7871470428468017 2:4 8:1 9:2 14:2 16:1 20:2 26:2 30:2 39:1 42:2 316:1 490:1 624:1 703:1 1397:1 1662:1 1937:1 1978:1 2145:1 2146:1 2147:1 
2.1342247425008498 1.5276915507143831 2.8341228587381821 1.6110928419582313 2.6897238096696485 0.7459208141342738 3.3568597127704884 1.7069431363492511 3.3714429466901796 2:1 5:1 9:1 14:5 30:1 39:1 40:1 42:1 46:1 168:1 272:1 316:1 1647:1 2148:1 2149:1 2150:1 2151:1 2152:1 2153:1 
0 1.5045593491504474 4.8891798690183395 0 0 0 0.977181085663821 0 0 1:1 2:0 5:1 14:1 42:1 106:1 153:1 640:1 2157:1 2158:1 2159:1 
0 0 0.63889768755368403 0 1.252943264439935 6.349884113588967 0 1.9852095366253155 7.1487711078048131 2:1 9:1 14:3 30:1 39:2 42:1 57:1 168:1 490:1 500:1 503:1 743:1 1568:1 2160:1 2161:1 
0 8 8 3.4762820667429049 8 7.8867330631811612 8 0 8 2:1 14:1 31:1 39:1 51:1 91:1 136:1 272:1 730:1 
8 8 8 0.67480541113399262 8 0 7.8916223379979806 0.87329607578588586 8 2:1 5:1 9:1 26:1 46:1 61:1 151:1 174:1 726:1 2162:1 2163:1 2164:1 
6.3978832867750697 0 0 1.9433668888390634 5.8241018074813082 5.8740031636734056 8 6.0470720454437075 0 2:1 9:1 30:1 42:1 78:1 262:1 2165:1 2166:1 2167:1 
2.0875545075753887 2.3391679614359773 8 0 2.0543602120910029 6.2677186665495235 7.8642762405286541 0.3068254774165633 3.7065394620027075 2:0 14:1 39:1 42:1 1216:1 1384:1 2168:1 
0 6.6913977654470687 0.33661956552669581 3.4296205612062685 2.5558931619279832 0 4.8313232408965323 0 3.1176824109282077 2:1 14:1 40:1 51:1 84:1 504:1 730:1 2169:1 
7.7098198044881761 2.5691560800703059 8 0.60204292238856738 8 2.077131909708803 1.8324111676518455 0 6.9957186433391998 2:1 42:1 103:1 2170:1 2171:1 2172:1 
0 0 0 0 0 0 0 0 6.4131520019844839 2:3 14:1 26:1 30:1 46:1 51:1 54:1 83:1 94:1 151:1 730:1 1319:1 2177:1 2178:1 2179:1 2180:1 
0 0 8 0 0 0 8 0 8 2:1 14:2 42:2 70:1 103:1 122:1 168:1 240:1 241:1 262:1 
1.946684327898238 2.0470452119873164 3.0901744992851392 2.7175208183454411 1.4952883580501117 0 1.2014825261514934 0 3.1412223740601148 2:2 4:1 14:5 20:1 23:1 25:1 39:2 42:1 46:2 70:1 151:2 314:1 438:1 490:1 567:1 835:1 1186:1 1233:1 1300:1 2181:1 2182:1 2183:1 2184:1 2185:1 2186:1 
4.8632576431566248 0.45089260912920637 8 0.15853177902047727 8 0.02234973187603595 8 0 6.2931177700570125 2:2 5:1 14:1 26:1 30:1 42:1 78:1 240:1 304:1 2129:1 2187:1 
4.354947970460354 3.807042899485912 5.5991950107289341 0 0.21744206893580553 3.6404833471315738 8 6.1960516625996513 3.2384078450272611 2:0 14:2 898:1 2188:1 2189:1 
8 2.1522672045992315 0.9992390037804425 0 2.1552559848012871 0.085936750477707408 4.9225267799925758 0 0.052416549190581641 2:0 5:1 14:1 42:1 107:1 776:1 2190:1 2191:1 
3.7601160341569941 6.325006053351677 0.4073398305301511 4.3754020528752946 4.4282168163659934 2.7781956395220093 0 0 5.8959196990819507 1:2 2:2 5:1 9:1 14:6 16:4 30:1 39:2 42:2 51:1 52:1 84:2 107:1 163:1 490:1 727:1 1368:1 1577:1 1823:1 2179:1 2192:1 2193:1 2194:1 2195:1 2196:1 2197:1 
0 0 2.643087137665777 1.1103904859725191 3.5072691848157906 0 1.8132667785335281 0 0.88760642803326506 2:7 9:1 13:1 14:4 16:1 26:5 30:1 40:1 42:5 51:1 52:1 203:1 239:1 240:1 484:1 490:1 660:1 772:1 925:1 1322:1 1424:1 1577:1 2198:1 2199:1 2200:1 2201:1 2202:1 2203:1 2204:1 
1.5776211696964682 0 0 0.22625111650704147 2.4557727735621246 0 3.3564553594086628 0 0.56603219767146007 2:3 14:1 26:2 30:1 57:1 61:1 84:1 130:1 141:1 325:1 575:1 885:1 1343:1 2163:1 2205:1 
4.9904116315440774 8 5.1182742377631563 3.2303981742969707 8 0 8 0 8 2:4 14:2 23:1 26:2 39:1 40:1 51:2 107:1 320:1 348:2 379:1 467:1 551:1 854:1 1509:1 2206:1 2207:1 2208:1 2209:1 
7.1254837670642104 3.9706623259224418 2.4695029632960916 2.8842394103339499 2.7594892847546006 3.1491435308798943 8 2.3471821524296197 3.4583067284080995 2:0 14:1 42:1 1776:1 2210:1 2211:1 2212:1 
7.2412155823878237 5.6931581643857161 3.1467450206562462 3.2641791123057802 7.562266572242959 1.2761684779567835 4.5333189363749407 1.0834532354533344 2.7358514977840254 1:1 2:1 14:6 23:1 26:1 39:1 40:1 42:1 91:1 107:1 532:1 956:1 1322:1 2173:1 2213:1 2214:1 2215:1 2216:1 2217:1 
8 0 0 8 8 8 0 0 7.0643403905342348 2:3 4:1 30:1 103:1 663:1 672:3 
8 0 1.0978035537719371 0.39136720526549768 0.4723782672652867 0.4665887709503459 0 0.36298483042564428 0.85644015534706075 2:2 14:1 16:1 20:1 23:1 30:2 46:1 189:1 1319:1 2218:1 2219:1 2220:3 2221:1 
1.6465248781590454 5.589995016909743 3.1143468636514142 6.6574024401828602 4.7893435898811889 1.9571154628801521 0 0 8 2:4 4:1 9:1 14:3 39:2 42:1 46:2 51:1 61:1 103:2 272:1 289:1 314:1 596:1 1010:1 1322:1 1849:1 2219:1 2222:1 2223:1 2224:1 2225:1 
0 0 1.2558169818510605 0.29757730433956575 7.0999574770896423 2.0612335932584256 8 0 0 2:3 4:1 14:1 23:1 26:1 30:1 39:1 197:1 314:1 672:3 1319:1 1322:1 2226:1 2227:1 2228:1 2229:1 
0.78024316791815163 0.52166526228581545 0 0 0.83560789467085517 0 0 0.18532120064167154 0 2:2 14:7 20:1 26:1 30:1 39:1 40:1 89:1 107:1 252:1 314:1 556:1 570:1 666:1 1070:1 1163:1 1322:2 2186:1 2230:1 2231:1 2232:1 2233:1 2234:1 2235:1 2236:1 2237:1 2238:1 
1.0194785325816567 0 2.6921612997077573 0 0 0 3.2628295683454898 0 0 2:5 4:1 9:1 14:3 23:1 25:1 26:3 32:1 36:1 37:1 39:2 40:2 42:2 46:1 139:1 202:1 272:1 835:1 969:1 1146:1 1233:1 2239:1 2240:1 2241:1 2242:1 2243:1 2244:1 2245:1 2246:1 2247:1 2248:1 
8 5.8984391235069396 6.2779266181241677 5.916171687017588 3.93945108281252 3.2910635091041001 8 5.8250755022362499 7.4559972941101886 1:1 2:1 14:2 20:1 30:1 40:1 46:1 124:1 347:1 548:1 2249:1 2250:1 
0 0 0 0 0 0 1.293854984420862 0 8 2:1 5:1 23:1 51:1 141:1 2251:1 2252:1 
0 0 0 0 0 4.0556978684686191 8 0 0 2:1 26:1 727:1 1462:1 1937:1 
1.9851900034664047 0 0 0 0.065964636877743565 0 4.5949121795072214 0 0 2:5 9:1 13:1 26:1 30:3 51:1 54:1 73:1 78:1 313:1 419:1 556:1 684:1 2253:1 2254:1 
8 0 0 0 0 1.6000098611429829 7.1464764185577465 0 0.39831614319996878 2:4 16:1 23:1 26:1 30:3 107:1 191:1 262:1 395:1 397:1 456:1 783:1 1229:1 1635:1 1937:1 2255:1 
4.4240557061253858 4.330719399365857 3.5856176405274649 3.6174758586460052 4.667256817701551 3.5334191147425043 8 4.6997472779881564 3.031192340754632 1:1 2:2 14:4 16:1 30:2 39:2 272:1 2180:1 2256:1 2257:1 2258:1 2259:1 2260:1 
6.3010937690894382 6.1836693142302073 0 4.1891268826128165 2.497642271608068 1.22725597741223 6.4602724699563874 0.70302429091208718 0 2:1 9:3 14:2 30:1 39:2 40:1 42:1 46:1 61:1 156:1 193:1 395:1 463:1 562:1 623:1 656:1 754:1 873:1 894:2 1155:1 1320:1 2261:1 2262:1 2263:1 2264:1 2265:1 
0 0 0 4.5280609496346873 1.6354620102145687 0 0 1.0287446135431848 0 2:2 14:3 30:2 42:1 46:1 89:1 144:1 145:1 1337:1 2038:1 2266:1 2267:1 2268:1 2269:1 2270:1 
8 8 8 0 8 8 8 0 0 2:0 5:1 240:1 
8 7.0380315654505043 4.2886270708556697 1.356479026388137 8 5.3712223093302756 8 1.6394949382262676 0 1:3 2:1 8:1 14:1 26:1 61:1 258:1 418:1 1577:1 2271:1 
8 0 0 0 0 0 0 0 0 2:1 5:1 14:1 20:1 30:1 46:1 78:2 419:1 471:2 597:1 814:1 947:1 1146:1 2272:1 
0 8 8 8 0 8 8 0 0 2:1 9:1 46:1 51:1 52:1 243:1 726:1 
0 2.0664372325662486 0 0 0 0.15482968824259447 6.2751792498265937 1.4350682350787214 3.8021673756723153 2:0 20:1 471:1 882:1 
0.86812734238592448 0 0.83066502234201456 2.779893529421801 7.1428759509954114 0.058486559446430587 0 1.7293556771144807 2.9630158099169353 1:2 2:3 8:1 9:1 14:2 20:1 26:1 30:1 39:2 46:1 89:1 106:1 153:1 175:1 196:1 239:1 265:1 289:1 476:1 882:1 1158:1 2273:1 2274:1 2275:1 2276:1 2277:1 2278:1 2279:1 2280:1 2281:1 2282:1 2283:1 
8 8 8 4.0629231101473602 4.256608473223503 8 8 5.926219239641493 1.0986992395268933 2:0 14:1 548:1 2284:1 
1.3397844853021594 0 2.2074943855715077 1.5454289291801251 3.3697983621524683 0 4.6639108423418865 0 2.990516814656905 1:1 2:8 5:2 9:1 14:3 16:1 23:1 26:7 30:1 39:1 42:1 84:1 107:1 1071:1 1343:1 1909:1 1916:1 2285:1 2286:1 2287:1 2288:1 2289:1 2290:1 2291:1 2292:1 2293:1 
6.6439787112842481 0.40141848409050013 8 3.8590061196988024 5.8275014293711456 5.9109281578934869 1.2470036511081375 0.20360295352272401 7.8256131349949385 2:0 9:1 23:1 107:1 178:1 1508:1 2296:1 2297:1 
0 3.4516991955949266 1.6248324619340626 1.5954310770876297 3.6419143896978095 1.2152328774118157 0.59188111117610842 0 0 2:1 39:1 51:1 130:1 134:1 1916:1 2298:1 
3.2693883171927367 0.50311210212005797 0 0 0 0.38118210024774607 3.3526285956026127 0.51963369639537726 0 2:1 14:1 30:1 39:2 61:1 149:1 212:1 741:1 1556:1 1888:1 2299:1 2300:1 2301:1 2302:1 2303:1 2304:1 2305:1 
8 6.5098015311394191 0.91314059684377713 0 0 0 8 8 8 2:0 1004:1 
0 6.1202984419012418 4.0031417774052374 1.217569440059447 0 2.3974141933899857 3.5224250082225832 1.5993745079483017 0.27088176759246058 2:0 14:1 46:1 89:1 111:1 819:1 2306:1 
0 0.76289826887854573 4.1322839058643801 0 0.10031296065812496 0 8 0.35839403846568579 2.506700954102691 2:1 14:2 20:1 26:1 36:1 2307:1 2308:1 2309:1 2310:1 2311:1 
0 0 0.35027451149472233 0 0 0 8 0.95047507737337478 0 2:1 30:1 42:1 83:1 436:1 741:1 926:1 2312:1 2313:1 2314:1 
4.7416916714453077 0 0 0 0 0 1.7607251768058871 0 2.6717986117265071 2:1 14:1 22:1 30:1 40:1 46:1 1004:1 1147:1 1657:1 1862:1 1865:1 2315:1 2316:1 2317:1 2318:1 
8 0 8 8 8 8 5.7801319779238476 0 8 2:2 26:1 52:1 57:1 94:2 103:1 2319:1 
8 3.3736726347262591 6.4580498894278771 0 4.510620506445413 0 8 0 3.2730129660094303 2:1 26:1 40:1 61:1 252:1 2320:1 
8 8 0 4.6971043487762945 8 0 0 0 8 2:2 14:1 26:1 39:1 40:1 103:1 141:2 182:1 624:1 2321:1 
0.55167087608782417 8 8 0 0 1.6821486019318475 8 4.437138495501908 8 2:0 14:1 906:1 1689:1 1694:1 
0 8 8 8 8 8 8 0 8 2:0 35:1 548:1 
0 0 0 0 0 0 8 0 1.6463515740559225 2:0 471:1 2322:1 
8 8 8 6.4787259672855804 8 1.5679459144431938 8 0 8 2:0 16:1 23:1 40:1 52:1 174:1 809:1 2323:1 
8 8 8 0.071831979637463461 8 8 8 4.2146065467152658 0.48826299550928504 2:0 548:1 2324:1 
0 0 0 0 6.4545061424569692 0 0 0 8 2:0 5:1 9:1 52:1 83:1 1779:1 2325:1 
8 8 8 1.2350897784760801 8 3.7004546428508864 8 1.4166726925914488 8 2:1 26:1 40:1 1147:1 2326:1 
0 0 0 0 4.789634874825512 0 8 8 0 2:4 30:4 61:1 1052:1 2327:1 
5.0817747428905422 3.3167681285071602 0 1.8564501481205309 0.2267131109821609 0 0.29398392830163023 2.5734600014474629 1.9069990089163156 1:1 2:1 14:6 30:1 40:1 42:2 49:1 73:1 113:1 151:1 533:1 543:1 575:1 2328:1 2329:1 2330:1 2331:1 2332:1 2333:1 2334:1 2335:1 
6.9722317503903604 8 8 7.1943313766000774 7.3516852860471236 7.183307528444133 8 3.5009640999476819 8 2:0 39:1 42:1 854:1 1336:1 2336:1 2337:1 
4.0816828722461409 6.5926431116387452 1.9767795809014488 0 7.6560770767541273 0 4.565687476342271 1.122258256416655 1.7690137121975475 1:1 2:2 4:1 5:1 23:1 30:1 39:1 46:2 120:1 591:1 2195:1 2338:1 2339:1 2340:1 2341:1 
8 8 8 0 7.2737294760096942 5.0135927025739786 8 8 8 2:0 1004:1 
7.1251870314136729 0 0 0 0.4567748764874846 2.9726726983064422 3.777904107510246 1.3262055930882661 0 1:1 2:2 9:2 14:3 23:2 30:2 39:1 42:1 52:1 61:1 107:1 191:1 835:1 1090:1 2314:1 2342:1 2343:1 2344:1 2345:1 2346:1 2347:1 2348:1 2349:1 2350:1 2351:1 
4.9349108557059971 4.902255487694803 0.39559932452248536 4.2422327955032149 8 0.91802737092019482 2.620908851595916 0 2.0353693208828361 2:5 4:1 9:1 13:1 14:2 20:2 23:2 26:2 30:2 39:1 40:3 42:1 46:2 191:1 230:1 658:1 844:1 956:1 957:1 1451:1 2251:1 2352:1 2353:1 2354:1 2355:1 2356:1 2357:1 2358:1 2359:1 2360:1 2361:1 
5.2962364514400031 3.1345679177050565 5.1231514796511304 3.5467808147278279 4.8485188401987855 2.0346218859792722 3.0966968950056097 0 5.2342318334811822 1:1 2:1 9:1 14:2 39:2 40:2 42:2 46:1 103:1 107:1 141:1 153:1 182:1 314:1 470:1 472:1 532:1 689:1 794:1 2362:1 2363:1 2364:1 2365:1 2366:1 2367:1 2368:1 2369:1 2370:1 2371:1 2372:1 2373:1 
5.1297378496414447 3.6603066123292609 0 0 0 2.9650092185105925 0 0 0 1:2 2:2 8:1 14:3 20:1 26:1 30:1 31:1 39:2 57:1 61:1 83:1 107:1 191:1 335:1 408:1 487:1 551:1 556:1 727:1 983:1 1965:1 2374:1 2375:1 2376:1 2377:1 2378:1 
5.7032894299916688 0 0 1.7155227961249964 2.4561818959967763 0 6.6624462866865128 2.5068672343402136 0.50768031041178419 2:4 14:2 26:1 30:3 40:1 663:1 714:1 809:1 2379:1 2380:1 2381:1 2382:1 2383:1 
6.0326865993700594 1.5820084426388403 3.5319121298238993 4.6119762781836986 4.3226567809512533 6.2546110605874325 6.0596366157313675 3.5158787304319739 5.1011237147395887 2:3 4:1 14:3 23:1 26:1 30:1 36:1 39:1 40:1 423:1 1018:1 1713:1 1953:1 2384:1 2385:1 2386:1 2387:1 2388:1 
8 8 5.7743536411794913 8 8 0 5.7612003880816118 0 0 2:3 14:1 26:2 30:1 40:1 151:1 201:1 216:1 1043:1 1321:1 2389:1 
4.3419562103774023 3.4520607781633119 5.8722142035018017 1.1413656953580058 5.3062721712687422 2.4365497207598703 5.8888951025576519 3.5341092994322731 2.0352586762274023 2:2 9:1 14:1 23:1 26:1 30:1 39:1 42:1 1234:1 1365:1 2390:1 2391:1 2392:1 2393:1 
5.5827307924053997 3.5587196969606234 3.3161707983758704 5.5088088574907088 7.4554709928125904 2.4343631079333736 1.6177118405076789 1.2264835813547095 2.419068213327864 2:2 8:1 14:4 20:2 23:1 26:1 30:1 39:2 40:1 46:1 107:1 141:1 183:1 240:1 262:1 1341:1 1410:1 2394:1 2395:1 2396:1 2397:1 2398:1 2399:1 2400:1 2401:1 2402:1 2403:1 
7.1706412319127804 8 7.118423263921505 8 6.7007659793387964 3.909273281635957 3.2002666398011219 0 5.0181977744582982 2:2 5:1 9:1 14:3 20:1 23:1 26:2 39:1 41:1 42:1 46:1 89:1 151:1 201:1 223:1 947:1 2350:1 2404:1 2405:1 2406:1 2407:1 2408:1 
0 0.86878199052478389 0 0 0 0 0.86402157791379097 0 0 2:1 20:1 30:1 40:1 243:2 262:1 395:1 894:1 1074:1 1148:2 1758:1 2409:1 2410:1 2411:1 2412:1 2413:1 2414:1 
2.9813628479518437 1.5604780601241168 4.0677154520120853 0 8 5.7597927917486578 8 6.3934686234921081 6.7792182554180123 2:0 642:1 
7.4963869775332066 3.5992660297620174 0 7.5142533364150177 6.0321187829277028 7.563915492425128 7.1079414281410065 0 1.1599164994312441 2:0 9:1 14:1 42:1 73:1 107:1 189:1 313:1 1074:1 1076:1 2415:1 
0.53211834620544485 0 0 0 0 0 0 0 0 2:4 4:1 5:1 9:2 14:4 16:1 20:1 25:2 26:1 36:2 39:1 40:1 41:1 42:1 46:1 89:1 129:1 158:1 1159:1 2350:1 2404:1 2405:1 2416:1 2417:1 2418:1 2419:1 2420:1 2421:1 2422:1 2423:1 
8 8 4.1076510236581578 0 4.1709620377686836 0 8 4.9764310262630573 8 2:0 9:1 2427:1 
1.1428520945793996 0 0 0 2.192373463724349 0 3.1540824188170702 0 0 2:4 4:1 25:2 26:1 36:2 40:1 42:3 82:1 84:1 89:1 151:1 253:1 314:1 341:1 395:1 594:1 873:1 894:1 1343:2 1673:2 2428:1 
3.9400758069046145 2.0556776621699449 0 4.915914139933883 2.5309182063720335 0 6.997207408491378 0 2.2749894482437893 2:5 14:1 20:2 26:2 30:3 39:4 40:1 83:1 197:1 240:1 467:1 1432:1 1521:1 1732:1 1798:1 1989:1 2334:1 2429:1 2430:1 2431:1 2432:1 2433:1 
7.5517889664016336 2.5697635537515708 1.7200313137554955 0 6.3641713696209914 0 2.5838802974606336 0 0 2:4 14:2 26:1 30:3 39:2 40:2 42:1 54:1 70:1 107:2 657:1 704:2 1557:1 2434:1 2435:1 2436:1 2437:1 
1.6479118603865717 5.4416961916018378 0.82705574483232647 0.87414551875143853 1.2884005104086831 0 8 0 2.5911911929220559 2:0 14:3 20:1 23:1 39:1 42:1 52:1 141:1 149:1 325:1 498:1 575:1 1268:1 1556:1 2438:1 2439:1 2440:1 2441:1 2442:1 2443:1 
1.7918000633500395 6.0238994538640069 5.2987256298377741 1.365854446944907 2.1603136095304798 3.5279353753324734 8 2.6000027751785755 7.7298218387638036 2:0 42:1 151:1 467:1 1553:1 2444:1 2445:1 2446:1 
7.121383283609795 6.0149017723794991 3.9916193505095099 2.2722088113680092 4.1092381541285334 6.0776468487070634 6.328893559164821 1.0452466406889234 5.2779187061956536 1:1 2:4 14:6 20:1 26:2 30:2 31:1 39:1 380:1 384:1 422:1 560:1 575:1 1256:1 1268:1 1556:1 1666:1 2447:1 2448:1 2449:1 2450:1 2451:1 2452:1 2453:1 2454:1 2455:1 
8 8 8 2.8370732442217959 8 8 8 7.0567860670938289 8 2:0 14:1 42:1 2456:1 2457:1 
2.716620422035291 4.4174996892498859 8 0 5.5842449610726517 0 8 0.91678646390894214 5.8542551982136821 2:1 26:1 764:1 2167:1 2458:1 2459:1 
0 0 0 0.35596537516853183 0 0 0 0 0 2:2 9:1 26:1 30:1 32:1 37:1 40:1 46:3 134:1 448:1 642:1 1146:1 1311:1 1923:1 2460:1 2461:1 2462:1 2463:1 
8 0 3.8194914012883769 0 8 0 8 0 8 2:4 14:1 26:1 30:1 31:1 103:1 241:1 265:1 395:2 2464:1 2465:1 2466:1 
8 8 0 0 0 0 8 0 0 2:0 39:1 75:1 
0.9318119096299432 0 0 0 0 6.7518821494305303 0 0 0 2:5 4:2 14:4 30:2 36:1 39:2 51:1 52:1 436:1 482:1 532:1 667:1 672:3 726:1 727:1 828:1 2467:1 2468:1 2469:1 2470:1 2471:1 
8 2.2637620396643228 8 0 7.4296569633310687 3.2300353431343187 8 8 8 2:0 42:1 715:1 2472:1 
3.7427255421892047 3.1979900532984402 5.2361750854824161 0 4.2211062943099584 6.1365527933374784 0 8 3.1023261347491089 1:1 2:1 4:1 14:2 42:1 89:1 155:1 224:1 225:1 229:1 551:1 676:1 1690:1 1699:1 1768:1 2251:1 2473:1 2474:1 
2.5944886310397042 2.4327431223057601 1.3369372243525972 0 0 0 2.0062658547666432 0 5.316554596777272 2:1 9:1 14:2 39:1 46:1 51:1 81:1 1730:1 2475:1 2476:1 2477:1 2478:1 
2.2009876253587746 1.5068199729349083 0 0 1.6086171023824805 0 8 3.784300390802414 4.3142858705449321 1:1 2:4 14:2 26:1 30:3 39:1 42:1 122:1 243:1 313:1 395:1 472:1 983:1 1090:1 2479:1 2480:1 2481:1 2482:1 2483:1 
0.77686474751625967 0 0 0 0 0 0 0 7.239988952519254 1:1 2:3 8:1 9:2 16:1 26:2 30:1 42:1 52:1 61:1 83:2 84:1 107:1 680:1 810:1 1459:2 1862:1 1865:1 2484:1 2485:1 2486:1 
0 3.5647988857466508 0 0 0 0 3.1110583830560041 0 2.1965927103157203 1:2 2:3 5:2 14:3 16:1 30:3 39:1 40:1 42:2 57:1 61:1 107:1 109:1 122:1 359:1 395:1 1674:1 2481:1 2487:1 2488:1 2489:1 2490:1 2491:1 2492:1 
3.4241223698875025 0 0.071588225120598925 2.2626858518496573 8 0 0 0 5.9332064027635996 1:1 2:4 5:1 9:2 14:1 30:1 39:1 40:2 42:1 61:1 103:2 151:1 168:1 265:1 543:1 623:1 789:1 898:1 1368:1 2491:1 2493:1 2494:1 2495:1 2496:1 
2.1190193382288109 3.1122328618246158 0 1.0325899599032242 8 5.0982562092585315 0 0 4.254958369038909 2:2 5:3 9:1 14:3 30:1 39:3 42:3 51:1 106:1 262:1 329:1 718:1 1076:1 1595:1 2198:1 2497:1 2498:1 2499:1 2500:1 2501:1 2502:1 
1.2757751676327853 3.8329683082003774 0.96250130184924976 1.7579114041445156 2.3541621248650793 3.9931141715148932 0 0 4.3224714271623483 1:1 2:3 9:1 16:1 30:1 39:1 51:1 61:2 89:1 125:1 240:1 265:1 272:1 283:1 420:1 422:2 1459:1 2205:1 2503:1 2504:1 2505:1 2506:1 2507:1 2508:1 
0 8 1.0536037187470444 0 0 0 2.2627883672455043 0 4.2673069846572469 2:0 39:1 83:1 2509:1 2510:1 
2.3602070263009987 0.25283511969064232 1.9629920865441819 2.2143660496905149 1.7814139302761673 0 6.7860448973022587 0 0.69648134091922465 1:1 2:3 9:1 14:1 20:1 26:2 30:1 40:1 84:1 107:1 240:1 262:1 314:1 620:1 639:1 684:1 1509:1 1844:1 2511:1 2512:1 2513:1 2514:1 2515:1 2516:1 2517:1 2518:1 2519:1 2520:1 
0.68685777329601405 2.2860816451918162 0.11550931308874239 0 0 0 8 0 0.45362557358363115 2:1 40:1 51:1 2521:1 2522:1 
6.802125371074716 6.3809688561028164 7.0606490847993735 2.0437441735780033 3.6293240400005891 0.44209389078560729 5.8400062112703992 0 8 2:1 16:1 39:1 51:1 125:1 178:1 551:1 2052:1 2523:1 
0 0 0.90365309809828853 0.25325438671130535 0.42741038349282551 0 0 0 1.6561939319328647 2:2 9:1 14:2 26:1 30:1 39:2 178:2 252:2 419:1 1451:1 2299:2 2524:1 2525:1 2526:1 2527:2 
0.15105707299935361 1.6257995288207194 2.1485619852577638 0 6.0019170413462302 0.56764780840594442 2.2832336944090907 0 0 2:1 16:1 26:1 39:1 89:1 1127:1 2532:1 2533:1 2534:1 2535:1 
2.7772702131583511 0 0 0 3.2992016009458376 0 0 0.36360104566879436 0 1:1 2:3 5:2 8:1 9:2 14:3 26:1 30:2 40:1 42:3 61:1 252:1 352:1 528:1 1052:1 2023:1 2144:1 2536:1 2537:1 2538:1 2539:1 2540:1 2541:1 2542:1 2543:1 2544:1 2545:1 
0 0 0 0 0 0 0.65106855937150543 0 0 2:1 14:2 30:1 145:1 2532:1 2546:1 2547:1 
7.5502685783884704 8 0 0 8 0 8 0 5.5259973215458702 2:0 1776:1 2548:1 
7.0153254503308355 8 8 0 8 8 8 0 8 2:2 9:1 14:1 51:2 107:1 109:1 422:1 854:1 2549:1 2550:1 
3.3801157755611011 2.5659168552559888 0 1.5425615049622625 2.0384956061798158 0 1.1052610310300099 0.57645903420163214 2.5244840299781481 2:6 4:2 14:2 25:1 26:1 30:2 36:1 40:2 46:1 49:1 107:1 450:1 604:1 623:1 1693:1 2525:1 2551:1 2552:1 2553:1 2554:1 2555:1 2556:1 2557:1 2558:1 
5.6370511801351828 0 1.106192067897924 0 0 0 4.4587368694516343 0 0.19257587655135011 2:2 26:1 30:1 39:1 61:1 252:1 456:1 648:1 766:1 2557:1 2559:1 
7.7768366642694753 8 8 3.7876463339974364 1.894748201958935 6.9986349417539655 8 8 8 2:1 30:1 120:1 153:1 1346:1 2560:1 
5.0986107664989007 7.7138128223624101 1.7111004666039282 0 0 2.071652764490358 8 0.31165156066966876 3.4059138680607086 2:0 888:1 1307:1 2561:1 2562:1 
3.5759864775929704 0 0 0 0 0 1.58115246557671 0 0 2:1 5:1 30:1 1084:1 2563:1 
8 8 6.9948527930743234 2.5268137674111752 7.4605402893746113 8 8 6.6642974893366311 5.3844692984712408 2:0 14:1 20:1 39:1 2564:1 2565:1 
8 8 8 0 0 5.0683396646233954 8 4.3453449214718383 0.81963259690437407 2:0 126:1 2566:1 
8 8 8 0 8 8 8 7.1685381986940158 8 2:0 9:1 2567:1 
8 8 0 0.20065425424003552 0 4.2271997754334381 8 3.6968113844380293 7.0049073154948003 2:1 14:1 30:1 42:1 107:1 153:1 1673:1 2052:1 
7.1297766476180779 8 8 8 0 0 8 0 3.648705828288259 2:1 14:1 26:1 40:1 46:1 212:1 623:1 2568:1 2569:1 2570:1 2571:1 
8 8 6.4137090130841354 0 8 2.3197311909226288 8 0 0 2:0 107:1 1451:1 2572:1 
8 8 0 0 1.8693849044083404 0 8 0 8 2:0 22:1 
0 0 0 0 1.4891484510901822 0 0.45278494799213953 0 1.3428628109135243 2:2 14:1 26:1 30:1 39:1 304:1 1648:1 2299:1 2573:1 2574:1 2575:1 2576:1 
8 0 5.8039786473691333 6.6837621952780051 7.4074125171278533 5.9679798441599683 8 4.0323959892989345 3.28416759228053 2:1 16:1 30:1 42:1 61:1 262:1 803:1 2577:1 
8 5.0669785869216613 0.71618666096465844 6.5067758692506539 2.8317684055864891 3.4566221975267628 0 3.6964787809554442 8 1:1 2:1 8:1 14:1 30:1 39:2 873:1 1010:1 1648:1 2074:1 2578:1 
1.2500043715238645 4.7911672124986326 2.052887968288359 0 0.44605156062663559 1.7936876791612681 4.3773897624471996 0.19981347883405376 2.0138259652676513 2:2 9:1 14:1 39:1 42:1 51:2 107:1 281:1 854:1 1672:1 2579:1 2580:1 2581:1 
0.43668630200938524 0 0 0 0 0 0 0 0 2:1 14:1 30:1 40:1 151:1 422:1 504:1 505:1 623:1 1904:1 2582:1 2583:1 
5.027581511388993 6.3296040030493357 0 0 6.925370656878524 0 0 0 6.9970366404178144 2:1 14:2 39:1 51:1 52:1 83:1 107:1 151:1 263:1 556:1 2584:1 
2.4814000170794479 6.5621285369542068 2.8614274696342021 2.9661458833012637 0 2.7106407855920915 7.4724402527312925 0 6.8259679241104134 2:0 14:1 40:1 46:1 61:1 212:1 1127:1 1147:1 2532:1 2585:1 2586:1 
0 5.4393125385285259 4.7627734704555635 0 0 1.1142508991889899 8 0 1.0142431475670393 2:0 14:1 39:1 134:1 320:1 1621:1 2587:1 
0 0 4.7502634710106015 0 0.44629459619969997 1.648387629234733 1.7636007948505459 0 0 2:1 9:1 14:1 30:1 39:1 40:1 42:1 109:1 239:1 1118:1 1158:1 1410:1 2398:1 
0 1.2694287862247884 0 4.8302659850470384 0 0 0 0 7.3041903627522426 2:2 14:1 30:2 39:2 40:2 89:1 107:2 141:1 149:1 529:1 933:1 1403:1 1678:1 1829:1 2588:1 2589:1 2590:1 2591:1 2592:1 2593:1 2594:1 
5.6858052287915539 0 1.797931528525313 0.0033952899081777098 4.8231356919168613 0.31643323070471491 0 1.345679708488684 0.6523760616042652 2:4 14:3 23:1 30:4 39:2 49:1 61:1 91:1 107:1 401:1 730:1 1025:1 1123:1 1217:1 1251:1 2595:1 2596:1 2597:1 2598:1 2599:1 2600:1 2601:1 2602:1 2603:1 2604:1 
0 0 0 0 0 0 5.4852536762278756 0 0 2:0 39:1 182:2 2605:1 2606:1 
7.3599399641755614 8 8 8 8 4.275785686321103 8 2.5852906491857484 8 2:0 9:1 13:1 40:1 89:1 743:1 860:1 2607:1 2608:1 
0 1.0144781265933132 2.251301262320081 0 0 3.3961589464123505 5.8289383020305277 4.1357929081131042 0 1:1 2:1 14:1 16:1 30:1 597:1 658:1 726:1 1017:1 1476:1 2004:1 2609:1 2610:1 2611:1 2612:1 
1.6138117154811609 3.4508915945099172 2.6114313056942451 5.6259299263773395 2.0858301363862282 0.85206998517564525 3.184347945575559 0 1.5917400743339989 1:2 2:2 5:1 8:1 9:1 14:2 26:1 30:1 42:3 61:2 1342:1 2144:1 2536:1 2542:1 2613:1 2614:1 2615:1 
0 0 2.2563558983334158 0 0 0 0.45045258138495298 0 5.1150240495102004 2:2 51:2 718:1 2616:1 2617:1 
6.5901248170478057 8 6.0561078983707652 0 1.8538702529165751 7.462335204201124 7.0738756980292674 0.32941785390886746 3.1125045446971136 2:1 9:1 20:1 46:1 51:1 107:1 600:1 2405:1 2618:1 2619:1 
8 1.8701644667325779 8 0 0 5.3524288357697785 0 0 4.5625523346161732 2:0 39:1 40:1 52:1 151:1 1263:1 2620:1 
0 0 0 4.1876488773279208 1.4210035790064375 2.825979586353875 0.58693182874069549 0 4.687837527853981 1:1 2:1 9:1 14:1 30:1 39:1 91:1 123:1 151:1 730:1 791:1 2529:1 2621:1 2622:1 
8 8 8 5.4198757220508291 8 8 8 8 3.8707757722702363 2:0 14:1 166:1 2623:1 
8 2.3696978702255351 2.6413928762362442 1.6785098391431765 3.7920684385346646 5.0670774396872629 3.0952770860011118 0 3.9499313100017468 1:1 2:0 5:1 9:2 42:1 107:1 667:1 1892:1 2624:1 2625:1 
0 0 0 0 0 0 0.11807024976092936 0 0 2:5 4:1 9:1 14:3 26:1 30:2 36:1 39:1 40:1 42:1 46:1 51:1 52:1 139:1 156:1 182:1 272:1 482:1 624:1 672:3 2130:1 2518:1 2626:1 2627:1 2628:1 2629:1 2630:1 2631:1 
8 0 0 0 8 0 8 8 8 2:3 30:3 61:1 
8 8 8 0 8 8 8 8 0.71130057170574901 2:0 54:1 
0 0.78534290126154849 1.4483548018356265 0.96660758944274505 1.7829353376184722 0 4.9736331645492662 0 0.79971065295141175 2:2 9:1 13:1 14:2 23:1 26:1 30:1 39:1 46:1 272:1 898:1 977:1 1093:1 1776:1 2632:1 2633:1 2634:1 2635:1 2636:1 2637:1 2638:1 2639:1 
1.9552810482824097 2.5733973179572227 2.1127542844724636 0.69621190525623322 0 0.69131493856056525 2.2837461575502855 1.3026608539331852 2.9458388955807702 2:2 14:1 26:1 30:1 39:1 89:1 1326:1 2640:1 2641:1 2642:1 
3.4141000597035145 8 4.0270332359790508 1.6161245705604852 7.7108906740049799 8 4.5332231383026542 3.3574786135170847 3.6154337225968827 1:1 2:0 9:1 14:1 39:1 598:1 971:1 2643:1 2644:1 2645:1 2646:1 
0 0 0 0.5519035040453294 0 0 0 0 0 2:3 4:1 8:2 9:1 14:4 20:3 25:1 26:1 32:1 36:1 37:1 39:1 40:2 42:2 46:1 252:1 325:1 472:1 717:1 835:1 1233:1 1689:1 2418:1 2647:1 2648:1 2649:1 2650:1 2651:1 2652:1 2653:1 
0 0 0 0 0 0.43212200979350535 0 0 0 2:4 4:1 6:1 14:3 25:1 26:2 32:1 36:1 37:1 39:2 40:2 42:1 46:1 61:1 212:1 325:1 629:1 846:1 890:1 1338:1 2654:1 2655:1 2656:1 2657:1 2658:1 2659:1 2660:1 2661:1 2662:1 
6.9342385914793168 3.5144037074991519 8 7.6635139144318121 3.7679110995089751 5.7120862027283721 0.63759486698494983 0 7.5974368821941161 2:4 4:1 14:5 20:1 23:3 25:2 26:1 36:1 39:3 40:1 42:1 46:2 70:1 454:1 493:1 532:1 1099:1 2651:1 2663:1 2664:1 2665:1 2666:1 2667:1 
2.8007559922748846 3.6400784533020163 4.989471629992912 3.8318297561115116 0.44565885477719536 0.50244307473768512 6.5506699623201046 1.7822976948984608 3.4026232409522565 2:3 9:1 14:3 23:1 30:3 40:2 42:1 46:1 49:1 52:1 107:1 240:1 490:1 624:1 726:1 873:1 1076:1 1689:1 2487:1 2668:1 2669:1 2670:1 2671:1 2672:1 2673:1 2674:1 2675:1 2676:1 
0.83881250230622773 1.7099484991577216 3.1515982447154505 1.7549399497814651 0.91319203219670086 2.6144310661238546 0.70094588799382829 1.494333636866445 2.6478344123720197 2:1 5:1 9:2 16:1 30:1 39:1 42:4 89:1 178:1 686:1 790:1 1909:1 2650:1 2677:1 2678:1 2679:1 2680:1 2681:1 2682:1 2683:1 2684:1 
6.1468820670708206 0.36886061232912548 8 0 0 0.24232344246864321 8 0.44317448583234031 4.5166370266025497 2:0 46:1 61:1 2685:1 2686:1 
4.0900461571530382 3.9193043623050814 2.5057739956770702 1.8565724043122034 0.51947311363312965 4.4460508401816483 4.2853273987412406 3.6378424663486593 2.6723444124137306 2:0 9:1 39:1 42:1 667:1 2687:1 2688:1 2689:1 2690:1 
0.17614110991385046 2.1122008991667069 5.2665065492961824 5.5840015216175267 1.4111432689995558 8 8 5.8143348214374209 2.274670405296138 2:0 9:1 14:1 239:1 2406:1 2691:1 
8 8 8 0 8 3.5899583559755848 8 0.69239678095702173 8 2:1 39:1 51:1 125:1 2692:1 
1.4417201879402131 3.3724986442971754 2.2414761000143062 3.6096967267512881 1.5310658061586906 2.226658265067734 1.1058464907313887 2.5590406348802102 4.7196094880952142 2:1 9:3 30:1 40:1 42:1 46:1 196:1 512:1 871:1 1822:1 2431:1 2475:1 2693:2 2694:1 2695:1 2696:1 2697:1 2698:1 2699:1 2700:1 2701:1 2702:1 2703:1 
8 7.422845770289781 0 0.61004353732288841 6.0475929048545067 3.0171310415533426 0 4.8258743513633968 5.5043714220027482 2:2 4:1 9:1 14:1 30:1 39:3 42:1 61:1 94:1 107:1 556:1 894:1 1050:1 1083:1 2023:1 2687:1 2704:1 2705:1 2706:1 
0 0 1.8655704937536688 0 0 0 0 0 0 1:1 2:0 8:1 16:1 91:1 124:1 240:1 1058:1 2578:1 2707:1 
8 8 0 0 8 0 8 0 8 2:0 22:1 
