svm_type c_svc
kernel_type polynomial
degree 1
gamma 0.03125
coef0 0
nr_class 10
total_sv 17862
rho -1.1234100987604554 -1.2203872852598132 -1.3266012907622728 -1.7809866100874703 -0.84883195824331881 -0.9719054206455201 -0.27033020385488116 -0.75714787092732339 -1.6931900547375929 -0.13822573510848152 -0.36674932054024512 -1.2205207321170317 0.39657392148631937 -0.27756412756405746 0.90932124082801957 -0.35077071531535958 -0.97630660929105806 -0.29154700481031215 -1.4148385910198651 0.61425232010729069 -0.18911684177927593 0.96345265791192458 -0.11947440720190546 -0.7399340274942553 -1.1445843486483658 0.97806934080895258 0.062414669320448847 1.0529017803722591 0.070435114737922633 -0.39426543229258393 1.9140739732239496 1.4478685426030082 1.4368156483097425 1.334099680749588 0.90468726391920762 -1.2668093101193063 0.75347850179695608 -0.96812861826103214 -1.3930063883201309 0.84368415358018223 -0.16155681919196888 -0.54604656863168421 -0.83241976435363996 -1.2703801252893698 -0.5729120564202379
label 0 1 2 3 4 5 6 7 8 9
nr_sv 2012 1976 2081 1558 1533 1810 1695 1994 1594 1609
SV
8 8 3.9261824807854921 3.113617253351773 8 4.4524036683483894 8 0 8 1:1 2:4 3:1 4:1 5:1 6:1 7:1 8:1 
1.7614397992481825 2.988710789303433 5.9485473187488811 4.0020935430343521 2.4366907991597029 3.7232566105676272 0 2.4599259121504118 2.6091414315350256 2:2.625 9:1 10:1 11:1 12:1 13:1 14:4 15:1 16:1 17:1 18:1 19:1 20:1 21:1 
0 0 1.1699239576495599 3.0685497560913468 0 0 0 0 0.20255158538154069 2:2.7647059 4:1 20:2 23:1 24:1 32:1 34:1 37:1 40:1 45:1 46:1 47:1 48:1 49:1 50:1 51:1 52:1 
1.6287764551160506 2.2421823073885139 4.9264071580591713 0 0.18069158236843164 0 2.9944805316048235 0 3.0904630102201445 2:2.7857143 5:1 26:2 46:1 51:1 53:1 54:1 55:1 56:1 57:1 58:1 59:1 60:1 61:1 
2.6794375807352475 6.0514625224993281 4.9394651504014746 0.6151230062835884 1.9716543892326703 3.8985913387448021 2.9704350754953954 0.82384391520882616 1.7170072778657373 2:2.8387097 4:1 14:2 20:1 23:2 25:1 26:1 34:1 39:3 42:2 43:1 44:1 45:1 46:1 47:1 62:1 63:1 64:1 65:2 66:1 67:1 68:1 69:1 70:1 71:1 72:1 
8 8 8 0 8 8 8 0 0 2:1.75 9:1 14:1 61:1 73:1 
8 8 8 0.75386541906865789 8 8 8 4.585594131802913 8 2:4 31:1 74:1 
8 0 0 0 0 0 8 0 0 2:2.5 39:1 75:1 
2.3170802795611078 0 8 3.481702249946427 3.3780530075229573 3.5551545680281276 8 0 8 2:2.5 9:1 14:1 26:1 42:1 76:1 77:1 78:1 79:1 
8 8 8 0 6.5019164913036702 1.9496865084476405 8 0 8 2:2 51:1 80:1 
0 0 1.8587248546089921 0 0 0 0 0 0.67191113536594438 2:2.6666667 5:1 14:1 26:3 42:2 51:1 61:1 81:1 82:2 83:1 84:1 85:2 86:1 87:1 
0 1.8124052297273525 2.7592833807801669 0 0 0 0 0 0 2:2.7142857 9:1 14:1 88:1 89:1 90:1 91:1 92:1 
2.167646367352853 4.8600460047305889 3.8147210899429593 3.7733426322823673 0 0 2.1520093825989375 0 1.1392245865231068 2:3.4285714 9:1 89:1 93:1 94:1 95:1 96:1 97:1 
0 0 1.5789659195431562 0 0 0 0.76378460183969588 0 0 2:3.1428571 14:1 16:1 83:1 89:1 98:1 99:1 100:1 
0 0 0 2.1961758892402092 0 0 0 0 0.92455949892522926 2:2.8181818 9:1 14:1 22:1 30:1 89:1 92:1 101:1 102:1 103:1 104:1 105:1 
4.4855987331055855 0 0 0 3.9521832180405663 0 3.8790991706036633 0.44284286542682766 0 2:2.85 23:1 26:1 30:3 42:2 46:1 106:1 107:1 108:1 109:1 110:1 111:1 112:1 113:1 114:1 115:1 116:1 117:1 
5.4301008554697123 0 0 2.3680026013098323 6.2502100006985462 0 8 1.0871997140381793 7.0767567730149885 2:2.7692308 5:1 9:1 30:3 39:1 118:1 119:1 120:1 121:1 122:1 123:1 124:1 
0 0.1733992097542203 0 2.3388926598848907 5.3462159061387666 2.3578493983167061 0 0 4.1854555793392958 2:3.1212121 8:1 9:1 13:1 14:3 23:1 39:1 40:3 46:2 52:1 125:1 126:1 127:1 128:1 129:1 130:1 131:1 132:1 133:1 134:1 135:1 136:1 137:1 138:1 139:1 140:1 141:1 142:1 143:1 
0.071226877336441771 0 4.0814836525102205 0 0 0 8 0 0 2:5 144:1 145:1 
2.4488694523232786 0 5.487829129924032 0 0 0 8 0 2.7235939461524565 2:3 14:1 83:1 146:1 147:1 
8 0 0 0 0 0 0.72425718587152443 0 0 2:2.8333333 13:1 51:1 83:1 148:1 149:1 150:1 
0.11874958598399951 1.8763500469784771 2.0884212946248453 0.65001536411660144 1.7930296999225077 1.116146622473849 0.60609935131305448 0.97278322469053802 2.3370202122527943 2:3.2333333 9:2 16:3 23:1 30:2 39:1 46:1 61:3 126:1 151:1 152:1 153:1 154:1 155:1 156:1 157:1 158:1 159:1 160:1 161:1 162:1 163:1 164:1 165:1 166:1 
7.280574521652202 6.5753750976437351 0.39362856805058621 0 0.52254793644898923 1.1151968550361022 8 0 7.1309082201069831 1:1 2:2.125 30:1 42:1 61:1 107:1 167:1 168:1 169:1 
3.4950606526248698 3.7868308973681266 0 1.1075117889547881 6.4437757878101367 1.000187081292466 1.6454833613742763 1.9470399153420883 3.5214074665287236 1:1 2:2.6842105 9:1 16:2 26:1 30:5 31:1 39:4 40:1 42:1 46:1 49:1 70:1 107:1 126:1 139:1 170:1 171:1 172:1 173:1 174:1 175:1 176:1 177:1 178:1 179:1 180:1 181:1 182:1 183:1 184:1 
7.8519053814444613 8 8 1.6038927478349105 8 8 8 8 8 2:2.75 14:1 39:1 185:1 186:1 
4.8546481974228151 8 3.7184706297089538 5.8641537101617525 8 4.2554798160143692 1.7101969953328384 1.292321828021503 8 2:3 4:2 9:2 14:2 31:1 39:1 40:1 42:1 46:1 61:2 170:1 187:1 188:1 189:1 190:1 191:1 192:1 193:1 194:1 195:1 196:1 197:1 198:1 199:1 200:1 201:1 202:2 
0 0 0.76068691120519238 0 0.12459212521898656 0 1.4354028209608267 0 1.1406092775601229 2:2.625 17:1 26:3 30:1 40:1 51:1 61:1 203:1 204:1 205:1 206:1 207:1 208:1 209:1 210:1 
8 8 7.0898515719595423 2.9173538496738094 0.80289234437786705 0.59107428595492528 8 0.60054176303986073 5.1385792310065446 1:1 2:3.4 9:1 211:1 212:1 213:1 
8 7.5461808491575697 4.5690362858158897 6.4764583592114287 8 5.9101236680866052 2.4929556801626132 2.6237255660966907 5.7970793202514432 2:2.7894737 9:2 14:1 30:1 39:1 40:1 42:1 46:1 61:1 83:1 107:1 214:1 215:1 216:1 217:1 218:1 219:2 220:1 
2.0637875787007798 0 3.8716307311424045 3.0489954433040114 3.1756262336037291 1.631077700031021 2.6146724554011405 2.1524534357589657 2.0780325288580785 1:1 2:2.9677419 8:2 14:3 20:1 26:1 30:2 40:1 46:1 49:1 61:1 68:1 84:1 221:1 222:1 223:1 224:1 225:1 226:1 227:1 228:1 229:1 230:1 231:1 232:1 233:1 234:1 235:1 
0 0 0 0.33905713981939806 0 0 5.7246529755715221 0 0 2:2.7222222 9:1 14:3 30:1 40:1 51:1 61:2 81:1 236:1 237:1 238:1 239:1 240:1 241:1 242:1 243:1 
5.0758700782041188 7.6192291309498801 0.66771838452207777 7.5754566494091309 6.8881327049329926 1.6092395271464615 0 1.6397637927859658 4.5918828057510828 1:1 2:2.9130435 5:2 9:2 14:1 31:1 39:1 42:3 61:2 135:1 230:1 244:1 245:1 246:1 247:1 248:1 249:1 250:1 251:1 
8 0 8 0 8 5.8086270252687218 5.9043926869806747 0 8 2:1.7777778 14:1 40:1 42:2 103:1 265:1 266:1 267:1 268:1 
6.4915598234998955 0 0 5.9452666138710404 8 0 0 8 8 2:1.9090909 5:1 14:1 16:1 20:1 30:4 40:1 269:1 270:1 
6.7037628972010168 2.0548594137818665 0 2.5391533071108578 7.2251717003822806 8 8 0.94451315059420571 0 2:2 14:1 16:1 30:2 39:1 40:1 42:2 52:1 89:1 271:1 272:1 273:1 274:1 275:1 
0.6365038127331909 0 0 0 0 0 2.3813697273854531 3.8768606645966064 0 2:3.8888889 14:1 30:1 141:1 276:1 277:1 278:1 279:1 280:1 281:1 
0.21210363219283909 0 0 1.3611172041660748 1.776389837608326 0 6.7836080979551552 0.66935343980187123 5.6468749075037561 2:2.5714286 14:2 30:2 39:1 42:1 51:1 282:1 283:1 284:1 285:1 286:1 287:1 288:1 
6.2532951454687833 5.0575055667272197 0.79115586435441743 3.9290638797944597 2.4422603943315968 1.7830970387873017 2.4274018531059403 0.37233458739350139 3.6239211299569636 2:2.84375 4:1 5:1 9:1 14:3 20:2 23:1 39:1 40:1 46:1 107:2 182:1 240:1 272:1 289:1 290:1 291:1 292:1 293:1 294:1 295:1 296:1 297:1 298:1 299:1 300:1 301:1 302:1 303:1 
8 3.1297417226061741 0 1.320778276156914 8 0 8 5.6854052945561486 2.6794527983502738 2:2.8571429 30:2 40:1 304:1 305:1 306:1 307:1 
1.9488534612220731 0 0 1.4040038634394572 1.0618905013447557 0 0 0 0 1:1 2:2.6470588 9:1 14:4 30:2 39:3 40:1 42:2 65:1 107:1 265:1 308:1 309:1 310:1 311:1 312:1 313:1 314:1 315:1 316:1 317:1 318:1 319:1 320:1 321:1 322:1 323:1 324:1 
2.1480271225199727 5.0817369142470197 2.1024637008909579 4.0462721996413205 2.276713845794065 2.9386015439531938 5.1042838460974576 1.296321443487336 2.1247384788160435 2:3.2666667 4:1 9:1 14:2 25:1 26:1 34:1 39:2 40:2 42:1 129:1 246:1 325:1 326:1 327:1 328:1 329:1 330:1 331:1 332:1 333:1 334:1 335:1 336:1 337:1 338:1 339:1 340:1 
1.1894031190098135 4.6811056110617102 0 0 3.7430102251123367 0 0 0 0 2:2.5172414 4:1 5:1 14:5 20:1 23:1 25:1 30:1 32:1 36:1 37:1 40:2 42:1 46:1 65:1 197:1 272:1 341:1 342:1 343:1 344:1 345:1 346:1 347:1 348:1 
0 0 0 0 0 0 0 0 2.6738428805957102 1:2 2:2.8666667 4:1 8:1 14:1 20:1 23:1 25:1 26:1 30:1 32:1 36:1 37:1 40:1 42:1 130:1 153:1 189:2 223:1 229:1 230:1 235:1 347:1 349:1 350:1 351:1 352:1 353:1 354:1 
4.5935664476133455 8 8 8 8 5.2297470488669111 5.3103128066626377 2.3572510549575809 8 2:2.8461538 4:1 8:1 14:1 20:1 26:1 46:1 70:1 151:1 202:1 360:1 361:1 362:1 363:1 
3.4395130992816827 3.7802489848447287 3.108951199766858 3.0491591083973728 6.4765683668008345 0.28603579784022976 0 0 2.0266006169775661 2:3.16 4:1 14:2 23:1 26:1 39:4 61:1 78:2 265:1 272:1 364:1 365:1 366:1 367:1 368:1 369:1 370:1 371:1 372:1 373:1 374:1 
2.7682422489099481 1.7699687479128063 1.9561076509100928 0.17992190888365395 3.8704968135618589 0.27750530913423366 2.6003440248071574 0 1.6460980414838089 2:3 5:1 14:3 26:3 39:2 40:1 49:1 100:1 134:1 135:1 136:1 375:1 376:1 377:1 378:1 379:1 380:1 381:1 
3.1243765976669056 1.8029798065397855 1.6711281057894265 4.2052545739022982 3.2035972312202956 2.9116650328054794 2.1344020480405992 1.4043730909928303 1.0378889140180088 2:3.6428571 14:3 20:2 26:2 29:1 30:1 31:1 39:2 40:1 94:1 123:1 382:2 383:1 384:1 385:1 386:1 387:1 388:1 389:1 390:1 391:1 392:1 393:1 
0.41794320941258728 0 0 0 0 1.7679416641995869 8 0 0 2:2.7333333 14:1 26:1 30:2 42:1 61:1 240:1 243:1 284:1 394:1 395:1 396:1 397:1 398:1 399:1 
0 2.2170998532102582 4.6472298769473408 0.21631358344130994 5.0860448945401959 5.196531194589312 0.86811143285555481 0 0 2:2.75 5:1 14:1 20:1 42:1 46:1 51:1 240:1 400:1 401:1 402:1 403:1 404:1 
0 0 0 0 0 0 0.090744949590331664 2.3462335860327368 0 2:2.6470588 4:1 14:3 23:2 25:1 30:3 36:1 39:1 40:2 42:2 243:1 325:1 405:1 406:1 407:1 408:1 409:1 410:1 411:1 412:1 413:1 414:3 415:1 416:1 417:1 418:1 
8 8 5.3667882035223435 0 1.8653923151148546 4.6678400208345341 8 0 4.1603976729429126 2:2.25 26:1 30:1 61:1 89:1 419:1 420:1 421:1 422:1 
0 0.73909122628369761 0 2.2133104175563072 0.30202863107510436 0.95272447020583917 0 0 1.4946695922427879 2:3.0666667 4:1 9:1 14:2 23:1 25:1 30:1 36:1 39:1 40:1 42:1 84:1 89:1 151:1 239:1 325:1 408:1 409:1 410:1 412:1 414:1 415:1 423:1 424:1 425:1 426:1 427:1 428:1 429:1 430:1 
5.2869531746573104 0 1.1065966850729423 1.4982934462104764 2.8995002191738162 4.2032014962830946 3.1744431710391061 4.1684874069298985 0.70525976750318164 2:3.2692308 14:3 23:1 30:2 39:1 40:1 61:1 78:1 431:1 432:1 433:1 434:1 435:1 436:1 437:1 438:1 439:1 440:1 441:1 442:1 443:1 444:1 445:1 446:1 
4.1395732103721823 1.2241024949342338 4.0086303353803405 1.9271368547079764 2.2271573618835196 3.7482490189965563 0 4.6422635704395097 1.9235003425840835 2:3.28125 9:3 14:2 21:1 30:1 39:1 40:1 46:3 381:1 383:1 390:1 447:1 448:1 449:1 450:1 451:1 452:1 453:1 454:1 455:1 456:1 457:1 458:1 459:1 460:1 461:1 462:1 463:1 
3.7329175979437896 0.72429960027030227 0 1.4151319508952622 1.8668096664632605 1.2171649419874147 7.0192847405090513 0 0 2:2.9655172 9:1 14:2 22:1 26:2 30:3 31:1 39:1 40:1 46:1 61:2 377:1 464:1 465:1 466:1 467:1 468:1 469:1 470:1 471:1 472:1 473:1 474:1 475:1 476:1 
0 0 1.2039543909748078 0 0 0 0 3.8667104377266495 0 1:1 2:3.0909091 14:3 16:1 30:2 36:1 39:1 40:1 51:1 86:1 89:1 477:1 478:1 479:1 480:1 481:1 482:1 483:1 484:1 485:1 
8 2.6418118047387251 0 2.514665875960977 0 4.4100913340322698 0.46030642583823023 5.646235192377878 0.42728139051563635 2:2.8484848 9:1 14:4 20:1 23:1 30:1 39:3 40:2 42:1 241:1 348:1 371:1 407:1 467:1 486:1 487:1 488:1 489:1 490:1 491:1 492:1 493:2 494:1 495:1 496:1 497:1 498:1 
0 0 0 0.61155465664642039 0 0 0 0 0 1:2 2:2.862069 14:6 20:1 30:2 39:2 40:1 107:1 123:1 153:2 371:1 406:1 407:1 411:1 414:1 487:1 499:1 500:1 501:1 502:1 503:1 
0 0 0 0 0 0.50673694148912107 0 0 0 1:1 2:2.7 5:1 14:1 42:1 51:1 82:1 504:1 505:1 506:1 507:1 
0 0 4.3884671073558543 0 0 0 0 0 0 2:3 14:2 16:1 26:1 39:1 49:1 84:1 151:2 356:1 357:1 401:1 508:1 509:1 510:1 
0 0.9284110061939046 0 0 0 0 0 0 4.8937691448599843 2:2.8 14:1 16:1 23:1 40:1 51:1 83:1 111:1 203:1 511:1 512:1 
5.4881850883634948 2.6399728693283153 1.1772755874410823 2.3323346166854879 3.7540404999154062 3.5359575413812285 3.8468281479829045 2.4433714586525035 2.977358476894846 1:1 2:3.2068966 13:1 14:3 23:1 30:3 31:1 39:1 40:1 42:1 411:1 470:1 513:1 514:1 515:1 516:1 517:1 518:1 519:1 520:1 521:1 522:1 523:1 524:1 525:1 526:1 
0 0 1.3902467323589061 6.9384058253807348 4.6498955428143729 0 7.9773252258212315 0 0.008151522104717996 1:1 2:2.8076923 9:1 14:2 15:1 16:1 30:2 39:1 40:1 49:1 61:1 126:1 149:1 262:1 265:1 527:1 528:1 529:1 530:1 531:1 532:1 533:1 534:1 535:1 536:1 
0 1.7402295570473822 0 0.19573863106968542 0 0 0 0 0 2:2.6666667 30:1 39:2 84:1 107:1 233:1 252:1 272:1 537:1 538:1 539:1 540:1 
2.364559102649054 0 0 3.2593392342057399 2.3187747655110149 1.794055512222307 1.8144147778905655 0 0 2:1.8333333 4:1 14:2 25:2 30:1 36:2 40:2 42:2 166:1 347:1 557:1 558:1 559:1 560:1 
1.4704285104379404 0 0 0.34512949014174277 1.9369059166655296 0 1.4779504433635213 0 0 1:1 2:2.4 4:1 14:2 20:1 25:2 36:2 39:1 40:2 42:1 46:1 271:1 457:1 527:1 548:1 561:1 562:1 563:1 564:1 565:1 566:1 567:1 
3.3010522346474556 6.3610015355893914 0.37082440295272845 3.3661544702242896 4.2053916576192876 4.7002242352233203 3.840203406845486 0.24114973950587043 3.664319565406772 1:1 2:2.8846154 14:5 25:1 30:1 39:2 42:2 109:1 156:1 287:1 528:1 568:1 569:1 570:1 571:1 572:1 573:1 574:1 575:1 576:1 577:1 
2.5872326752376531 5.2219127080302146 3.8371304657778542 4.7518316222608847 6.4407409380168144 1.6164456003967251 1.679838022461376 1.1305195818076279 0.69792196422060404 1:2 2:3.03125 4:1 9:1 14:3 26:1 30:1 39:2 40:1 42:1 107:1 189:1 454:1 578:1 579:1 580:1 581:1 582:1 583:1 584:1 585:1 586:1 587:1 588:1 589:1 590:1 591:1 592:1 593:1 
8 8 7.2257069775797582 0 8 7.7316812921439899 8 4.3124611539668383 8 2:2.8333333 14:1 22:1 46:1 272:1 353:1 594:1 
0.49711234178330693 0.40792279835043593 1.2421515223710733 0.5975130437824574 0 1.2888452250057654 0.25058398259490489 5.8765885875510806 0 2:3.0333333 14:4 20:1 30:4 39:1 40:1 42:1 46:1 86:1 145:1 582:1 595:1 596:1 597:1 598:1 599:1 600:1 601:1 602:1 603:1 604:1 605:1 606:1 607:1 608:1 
8 0 2.2172913540200998 6.604655492058213 3.3513805065659832 0.99627051490839602 8 8 6.7333204654386636 2:2.8 30:2 403:1 609:1 610:1 
8 8 8 2.8857382139640642 5.7434859750185323 7.8058807687328091 8 5.6217208339181202 8 2:5 611:1 
0 0.79057022175536573 4.8817246013673872 0 0 0 4.5094340058772433 0 0.82767729469798357 2:3.8571429 51:1 83:1 126:1 149:1 174:1 612:1 613:1 
7.6887265257829887 8 8 1.1064589322010439 0 2.3385882692357827 8 0 8 2:4 614:1 615:1 
0 6.3583936308764706 6.677158541350221 1.277610445398252 1.9169334431141012 0 8 3.0596370705770655 0.78504069574575641 1:1 2:3.5454545 9:1 14:1 30:1 49:1 156:1 541:1 616:1 617:1 618:1 619:1 
8 8 8 0 8 8 8 8 8 2:2.5 14:1 26:1 620:1 621:1 
4.225508754684018 0 0 0 0 0 8 0.61435271439813344 0 2:2.6363636 26:2 30:2 243:1 622:1 623:1 624:1 625:1 626:1 627:1 
1.6626581118856933 0 0 1.5942617405252122 1.0534802906371332 0 1.4073588910096952 0 2.1091522766291826 2:2.8571429 14:3 23:1 40:2 83:1 107:1 628:1 629:1 630:1 631:1 632:1 633:1 
0 2.0129879354989555 0.31104287837934458 0 0 0 8 0 0 2:3.3333333 26:1 109:1 243:1 634:1 635:1 636:1 
1.4829091560850352 4.2398121967239515 5.9981761071182564 5.1382248357874802 5.9672995031589817 0.035007378379323342 7.0902349940034641 0.75215241491524676 4.4072024534799246 2:3.4166667 20:1 26:1 30:1 40:1 46:1 207:1 269:1 637:1 638:1 639:1 640:1 641:1 
0 0 1.6896071639485528 0 2.2071438051146273 0 8 0 6.8922741848336635 2:4 642:1 
8 6.0867144295376789 8 8 3.8213411625610672 8 8 7.7369964838442717 4.4792635655300517 2:3.6 14:1 39:1 391:1 643:1 644:1 
0.33023756787439607 1.0270801506591363 0 0 1.1835838591859671 0.78218936962184715 0 1.4281704542242408 0 2:2.7666667 14:3 21:1 26:1 30:3 39:1 40:1 42:1 46:1 107:1 141:1 217:1 272:1 645:1 646:1 647:1 648:1 649:1 650:1 651:1 652:1 653:1 654:1 655:1 656:1 657:1 658:1 
0 0 8 1.761167016398544 0 1.8568116872663578 8 0 3.5839445133483387 2:2.1666667 9:1 14:1 42:1 168:1 548:1 659:1 
3.205377058230082 0 0 0 0 0 8 0.31363424682966801 1.6324930923752345 2:3.4444444 26:2 30:2 660:1 661:1 662:1 663:1 664:1 
8 8 8 8 6.5653417241392402 8 8 5.196475097358948 8 2:6 665:1 
3.8210021523673179 6.6925472694767789 0 1.7374324915513091 0 1.0197901956581361 8 1.1086534960161714 6.2951213579904639 2:2.6428571 9:1 14:1 30:1 39:1 42:1 61:1 153:2 272:1 374:1 666:1 667:1 668:1 669:1 
4.5083085750299903 4.8695741212232573 6.3743631776360745 2.1210509979123553 8 3.6201198203499727 4.5732482561692844 0.23512549019443446 8 1:1 2:2.5555556 14:2 40:1 61:1 103:1 681:1 682:1 683:1 
2.2235130022786236 4.5859114677908925 8 0 8 7.1349347718850584 8 3.5681752002863765 1.7897172238622763 2:3 26:1 31:1 46:1 86:1 597:1 684:1 685:1 686:1 687:1 688:1 689:1 690:1 691:1 
4.8323598959429779 2.1202215615067903 7.7496843139569807 4.4227564947576044 3.1747508014694228 1.9368866021064646 8 3.1516786819745781 0.49752629024836204 2:3.2 39:1 40:1 692:1 693:1 694:1 
5.5520580230405585 0.20222630788055718 0 0 2.0980481473514265 0 8 2.8369019643789315 0.99286260771659463 2:2.6666667 26:1 30:2 39:1 40:1 695:1 696:1 697:1 698:1 
0 0 4.188112943206697 0 1.7621480225710342 4.8537041296937389 8 0 1.592717726431699 2:2.6666667 14:1 39:1 83:1 699:1 700:1 701:1 
0 8 8 0 4.0583284182834412 0 8 0 3.3697803229723933 2:2.1818182 5:1 13:1 26:2 30:1 61:1 83:1 84:1 702:1 703:1 704:1 
8 3.2245478903585543 4.7680938586029988 1.4310955703966273 6.312683939938128 3.8232108712996866 0.74406069440623035 1.0089768385573707 0 2:2.9615385 14:2 26:1 30:2 39:2 40:3 46:1 61:1 268:1 533:1 705:1 706:1 707:1 708:1 709:1 710:1 711:1 712:1 713:1 714:2 715:1 
8 8 8 0 8 0 8 0 8 2:2.3333333 51:1 262:1 718:1 
1.5584531899540142 1.3483695593583116 3.2631633987243331 0.35677605445264321 1.6787506424591241 1.1802990691795034 5.3475241460610761 0.89199605681519079 0.2978015629580642 1:1 2:3.1333333 14:1 26:1 30:2 719:1 720:1 721:1 722:1 723:1 724:1 725:1 726:1 727:1 728:1 
0 8 8 4.3105876585132661 5.1008729836001203 0 6.9311850127091956 2.9685467529341443 0 2:3 20:1 151:1 272:1 548:1 729:1 730:1 731:1 732:1 
0.00095789722624976814 2.6558552330031828 3.9152575439595196 2.9488600605763828 6.1513012832300902 0.21581260473813257 2.4646296932028968 6.5955183968560203 1.6007877081452906 2:2.8333333 9:1 26:1 30:3 39:2 709:1 713:1 714:1 715:1 734:1 735:1 736:1 737:1 738:1 739:1 740:1 
0.82324566496394469 1.2440759863395663 0 0.30139845741034116 7.1372925464887755 0 8 0 5.8670502680567429 1:1 2:2.7777778 40:1 107:1 239:1 738:1 741:1 742:1 743:1 744:1 
5.5393737285143212 8 6.0097393038346354 3.2177367722013774 0 5.7819838875211698 8 6.9447770177136867 3.7811596086927795 2:2.75 9:1 193:1 733:1 745:1 
0 0 0 0 0 0 0 0.79960475111193752 0 2:2.4482759 4:1 14:4 20:1 25:1 30:1 32:1 36:1 37:1 39:2 40:1 42:2 253:2 395:1 650:1 746:1 747:1 748:1 749:1 750:1 751:1 752:1 753:1 754:1 
8 8 8 0.46247451308880178 1.7057438197831807 8 8 6.1360201354222177 4.915987086162775 2:4 14:2 234:1 755:1 
8 8 8 1.5829664157705345 0 8 8 0.054563301957056165 8 2:5 759:1 
8 4.1237328784992062 6.4703771224478306 0 4.761736867775344 0 8 0 8 2:2 42:1 168:1 766:1 
3.1867827478076967 8 0 0 0 0 0 0 0 2:3 4:1 5:1 16:1 20:1 40:1 356:1 357:1 767:1 
3.5463082601972689 0 0 0 8 0 6.7169483811710577 0 8 2:1.625 14:1 40:1 42:2 51:1 52:1 168:1 768:1 
3.6695345900856418 8 6.0079296832436748 0 5.3364254526990225 0 0.0067694049823364766 0 0 2:2.625 4:1 39:1 151:1 232:1 356:1 357:1 769:1 770:1 
2.3266694810671562 4.0620700853164697 3.7623899739992761 2.1552996975757788 3.8773723558436402 2.8780815642812394 4.1783507120051535 1.9885454536952742 0 1:1 2:3.3214286 9:1 14:4 26:2 40:1 42:1 348:1 435:1 467:1 532:1 543:1 551:1 771:1 772:1 773:1 774:1 775:1 776:1 777:1 778:1 779:1 780:1 781:1 782:1 
8 0 3.5984772329676771 0 0 0 4.6835249017886786 0 8 2:3.6666667 5:1 783:1 784:1 
6.2408296279528157 5.8767030368244875 4.6559728890049987 0 8 6.0989887857032707 8 8 1.3222445150900248 2:2.2 14:2 107:1 785:1 786:1 
8 8 8 1.5992771211075505 3.3050167434767452 5.2911101761865273 8 4.7294675908305752 8 2:4 39:1 787:1 788:1 
2.0752007402812507 0 0 0 0.15148668424721154 0 0 0.51322750898291403 0 2:3.037037 5:1 9:2 14:1 23:1 30:3 40:1 42:1 189:1 196:1 281:1 467:1 667:1 785:1 786:1 789:1 790:1 791:1 792:1 793:1 794:1 795:1 796:1 797:1 798:1 
0 2.0371958570950528 3.1522088497922076 4.4371162428868836 1.1650317908822749 0 0.93779136771630378 0 3.2424376428627726 1:1 2:3.1666667 14:2 20:1 26:1 40:1 52:1 84:1 91:1 136:1 192:1 272:1 477:1 799:1 800:1 801:1 802:1 803:1 
4.5865170564983009 8 8 7.3851337611575048 5.5189213227611278 3.6734916452002002 5.2629262651124913 1.718355841031167 8 2:3.8823529 14:1 23:1 28:1 31:1 39:1 49:1 61:1 107:1 197:1 344:1 804:1 805:1 806:1 807:1 808:1 809:1 810:1 
0 0 0 0 8 0 8 0 0 2:2.5 30:2 31:1 61:2 534:1 819:1 820:1 
5.6040949871459222 8 8 0 8 5.8215471016161588 8 5.6604364334042421 6.802908799006345 2:2.625 4:1 39:1 151:1 232:1 356:1 357:1 769:1 770:1 
6.4677742338866908 0 4.5488953583140059 0.20081387784234572 8 0.46264873583304855 8 0 8 2:2.25 9:1 42:2 51:1 78:1 168:1 262:1 821:1 
1.0189409801399218 0 3.470721420091702 0 8 0 8 0 7.3597757367711445 2:2.5 51:1 822:1 
0 0 3.768868085044768 0 0 0 4.9313557046936225 0 8 2:2.5384615 5:1 9:1 15:1 16:1 23:1 26:1 30:1 31:1 46:1 61:1 467:1 823:1 824:1 
0 0 0 0 5.5296423366758765 0 8 0 0.45550492973796469 2:2.6666667 14:1 30:1 54:1 91:1 825:1 826:1 
0 0.23341649190649197 0 2.1475747536600314 2.7186956614893161 5.816183132666664 0.41747710937103383 0 0 1:1 2:2.6153846 4:2 14:3 20:1 30:2 36:1 39:1 51:1 84:1 120:1 482:1 532:1 672:3 827:1 828:1 829:1 830:1 831:1 832:1 833:1 
8 6.4437240750597722 2.1059928964735288 0 5.793878681686575 4.7794446915477344 5.3234758149091927 8 6.5934056088617687 2:2.7 14:1 46:1 51:1 52:1 151:1 325:1 845:1 846:1 847:1 848:1 
5.6413615748604169 0 0 0 0 1.8048986656350516 0 0 0 2:2.6666667 14:1 30:2 42:1 46:2 233:1 240:1 448:1 601:1 849:1 850:1 851:1 852:1 853:1 
3.1952916453675377 3.7970724096748629 5.6425767151007973 0 4.3147084844993548 0.3766340604882249 2.9789049335316098 1.6568221517242714 5.7641906916418293 2:3.2857143 26:2 30:1 89:1 422:1 854:1 855:1 856:1 857:1 858:1 859:1 860:1 861:1 862:1 
0.14666524821405511 1.802470347244308 1.3165063267262704 0 2.5758712767922778 0 2.3946315413795309 1.3766222864162634 2.9712781921309923 1:1 2:3.0588235 14:2 20:1 26:3 30:1 39:1 40:1 42:1 46:1 178:1 241:1 551:1 586:2 863:1 864:1 865:1 866:1 867:1 868:1 869:1 870:1 871:1 872:1 873:2 874:1 875:1 876:1 877:1 878:1 
5.7541004830536338 0 4.1287340355155546 0 5.0853128910102727 0.18365438444956705 8 8 0 2:2 30:1 879:1 
2.7675101825204766 2.0273169959508017 0 2.8259465046577685 0 2.3401186095394908 0 0.70674746828253465 4.9180750304751966 1:2 2:2.0333333 5:1 9:1 14:4 16:1 23:1 30:2 39:2 42:3 82:1 107:1 168:1 240:1 252:1 348:1 435:1 703:1 880:1 881:1 882:1 883:1 884:1 
0 0 0 0 0 0 0.73223568357228497 0 0.3746081595196199 2:2.4848485 4:1 14:3 25:1 26:1 30:1 32:1 36:1 37:1 39:1 40:4 42:3 186:1 272:1 395:1 601:1 691:1 850:1 891:1 892:1 893:1 894:1 895:1 896:1 897:1 898:1 899:1 
0 0 0 0.23016478923539882 0 4.6912934081639595 1.59102445842547 0.84210385713188896 0 1:1 2:2.6428571 4:1 9:3 14:3 25:1 32:1 36:1 37:1 40:1 42:2 170:1 298:1 368:1 467:1 601:1 730:1 850:1 900:1 901:1 902:1 903:1 904:1 905:1 
1.4754061419107103 4.6226597560490559 0 1.280341350313736 2.0711571964564812 4.8562393791579668 0 1.5580960514308095 4.3841945255148813 2:2.8095238 4:2 14:1 30:2 40:1 42:1 46:1 89:1 156:1 191:1 239:1 535:1 603:1 885:1 906:1 907:1 908:1 909:1 910:1 911:1 
3.4318521833148052 0 0 0 4.1982296057022825 0 7.8058658003499195 0 7.1873873896606346 2:2.5333333 22:1 26:1 30:3 40:1 61:2 107:1 351:1 422:1 912:1 913:1 914:1 915:1 
0 2.7261321697707839 3.4873873796077044 0.053433203718584038 0 0 0 0 1.2590749482720374 1:2 2:2.4705882 9:1 26:1 30:1 42:2 46:1 89:1 107:1 421:1 717:1 916:1 917:1 918:1 919:1 920:1 
4.8928420289723071 0 0 0 0 0 1.9913242283035379 3.1472406805218749 7.7369767392237305 2:3.4285714 30:2 46:1 921:1 922:1 923:1 924:1 
0.43531092462834331 0 0.51975692968897214 0 4.6373590681141224 0 0 0 6.5541739599855893 1:1 2:2.4761905 5:1 13:1 14:2 26:1 30:1 42:2 46:1 83:2 103:1 107:1 925:1 926:1 927:1 928:1 929:1 930:1 931:1 
4.5435642961449449 6.250087085318448 0 3.9205584730788523 7.0707760210401318 0 0 0 3.1617064918639652 2:2.5862069 14:2 26:2 30:2 40:1 42:2 46:1 52:1 89:1 144:1 145:1 201:1 239:1 262:1 272:1 289:1 348:1 395:1 435:1 551:1 932:1 933:1 934:1 935:1 936:1 937:1 
3.6133262132326327 7.8417510306394274 1.926147768245358 4.1503491151968266 7.5469125420555159 2.0437464390021312 0 3.8276578991075443 4.3194156289786871 2:3.0909091 4:1 14:5 30:2 39:3 42:1 65:1 89:1 151:1 222:1 348:1 385:1 435:1 467:1 490:1 527:1 532:1 617:1 659:1 777:1 938:1 939:1 940:1 941:1 942:1 943:1 944:1 
0 5.8268775141445248 0 6.8323750456251808 0.062808636867710321 0 8 1.7909671793018365 1.8485751108968222 2:3.3 14:1 26:1 30:1 46:1 233:1 399:1 945:1 946:1 947:1 948:1 
0 0 0 0 0 0 0 0 3.7360844706158853 1:1 2:3.1111111 8:1 14:1 30:1 39:1 42:2 46:1 51:4 83:1 258:1 259:1 490:1 777:1 919:1 949:1 950:1 951:1 952:1 953:1 954:1 955:1 956:1 957:1 
0.30658096279526886 1.263698351341763 0.46144441212125586 1.6921074913730139 0.79627361820285858 1.5876549703671383 2.5899391080588434 0 4.4009001873808833 2:3.1363636 9:2 14:1 30:1 39:2 42:1 51:1 107:1 112:1 272:1 287:1 368:1 490:1 919:1 950:1 952:1 958:1 959:1 960:1 961:1 962:1 
4.6533749130206186 2.1870422681325472 0.20142707751119099 0 8 1.6777569687875284 4.5781726958953461 5.8363452285128998 4.1975650250154883 2:3 14:1 30:3 39:1 89:1 107:1 151:1 527:1 963:1 964:1 965:1 966:1 967:1 968:1 
2.8708411200222672 0 0 0 0.60693191397303703 0 0 0.4855903102278461 0 2:2.6842105 5:1 14:1 26:1 30:4 54:1 61:1 78:1 107:1 251:1 272:1 422:1 440:1 666:1 969:1 970:1 971:1 
0.51378930445404492 0 0 0 1.7225952379398091 0 6.6774774672297639 0 0 2:2.125 5:1 23:1 30:1 42:1 54:1 107:1 240:1 972:1 
1.4767367738098924 0 0 0 1.5293201529086919 0 3.4252180717006913 2.4724262627818088 0 1:1 2:3.1923077 14:1 20:1 26:4 30:1 39:2 51:1 107:1 148:1 197:1 440:1 858:1 864:1 947:1 973:1 974:1 975:1 976:1 977:1 978:1 979:1 980:1 
1.8895702373098788 8 8 0 8 3.9275295567384498 8 3.9036076134049402 0 1:1 2:2.5 14:1 40:1 51:1 86:1 125:1 981:1 982:1 
2.8573286097648531 0 0 2.8001356036840512 4.5430875315436774 0.48872152257325796 6.7545617805402678 3.831897400824503 2.6830305225077984 2:2.8823529 14:2 16:1 30:3 39:1 46:1 240:1 487:1 715:1 983:1 984:1 985:1 986:1 987:1 988:1 
1.8652627422470429 0 2.8359417068339976 0 0 2.5035796513077839 5.8454214778005227 0 6.1385905143925825 2:3.3333333 83:1 94:1 128:1 151:1 989:1 990:1 
2.0351272019542002 1.9767523587722926 0 0 1.1867491973001176 0 2.4339855569397444 6.78543280111416 0.60866435756893045 2:2.5714286 14:1 26:2 30:2 39:1 79:1 89:1 107:1 252:1 991:1 992:1 993:1 994:1 
3.1792942658742112 8 5.3492361508146189 3.3213045099908376 5.3572712677261194 6.4888774148312853 8 1.6148133281704293 7.3028970339634016 2:2.75 14:1 39:1 46:1 51:1 738:1 995:1 996:1 997:1 
5.9305370832811892 6.1620222961002735 0 5.1607383459030824 6.6363781236889929 3.0373333475620292 6.2796663685282317 1.7718566458660503 2.0382823945477431 2:3.1111111 14:1 30:1 40:1 201:1 551:1 998:1 999:1 1000:1 1001:1 
8 8 8 0 8 0 8 8 0 2:2 54:1 
8 6.8488998506663981 6.1396765716668193 7.2415200827176074 8 6.158719778326196 0 0 5.0563959846756017 2:2.625 5:2 9:1 14:1 20:1 341:1 757:1 1002:1 
4.2893748224839703 0 0 4.5969732283077516 1.5516230815327796 2.0505935619661666 0.69407655883009578 0 0.70088885977356963 1:3 2:2.5384615 5:1 13:1 14:4 16:2 20:1 26:1 30:4 39:1 42:1 46:1 54:1 107:1 189:1 223:1 230:1 233:1 235:1 240:1 325:1 629:1 1003:1 1004:1 1005:1 1006:1 1007:1 1008:1 1009:1 1010:1 1011:1 
1.3385063905678383 0 0 0 1.9372822125322329 0 0 0 1.6460062323890636 2:2.7368421 5:1 8:1 9:1 14:1 16:1 30:3 39:1 42:1 58:1 83:1 182:1 456:1 766:1 1012:1 1013:1 1014:1 1015:1 
4.9499250038264861 4.9401965374931374 0 0 5.356452779558321 0 1.6396118195450506 0 0 1:1 2:2.9411765 5:1 9:3 14:3 15:1 20:1 30:3 46:1 52:1 61:1 65:1 170:1 189:1 223:1 566:1 705:1 1016:1 1017:1 1018:1 1019:1 1020:1 1021:1 1022:1 1023:1 1024:1 1025:1 1026:1 1027:1 
1.3628217451883557 6.7526015188573405 5.0962880836128184 0 0.021785217508438787 3.1707115132889347 8 0 0.73760803859908675 1:1 2:3.7142857 16:1 39:1 530:1 1028:1 1029:1 1030:1 
7.3702522377161932 2.8171132532136873 0 1.4434624884062102 0 0 0 0 0 2:2.8518519 5:1 9:2 14:4 20:2 25:2 30:1 39:2 46:1 101:1 562:1 1031:1 1032:1 1033:1 1034:1 1035:1 1036:1 1037:1 1038:1 1039:1 1040:1 
4.1429993826720217 0 0 2.3181135722011854 4.3115504169535495 0.75699292209113966 2.2463831205089604 0.32351402615928687 3.005170929093202 2:2.8518519 9:1 14:3 22:1 26:1 30:3 40:1 42:1 61:1 89:1 125:1 265:1 272:1 313:1 638:1 1041:1 1042:1 1043:1 1044:1 1045:1 1046:1 1047:1 1048:1 1049:1 
0 0 0 0 8 0 8 0 8 2:2.3333333 51:1 52:1 1050:1 
0 0 0 0 0 2.6423421547376615 0.65151158750033045 0.27506987920235387 0 2:2.3636364 9:2 14:1 30:2 57:1 73:1 467:1 1051:1 1052:1 1053:1 
0 7.5869618257682818 3.9254007343633854 0 0 6.7751282535896626 8 0 3.9227780277864812 2:3.3333333 54:1 1054:1 1055:1 
0 0 0.69778199024214438 0 0 0 4.2725529580144759 2.1250796778911862 0 2:3.3571429 9:1 16:1 23:1 30:2 39:1 40:1 1056:1 1057:1 1058:1 1059:1 1060:1 1061:1 1062:1 
5.8702617394046905 0.89887469444659474 6.8288188030355164 1.3714409025550109 8 6.0642046121971767 0 1.0452684786190405 7.2003796062017464 2:3.375 9:1 39:1 103:1 1063:1 1064:1 1065:1 1066:1 1067:1 
8 0 0 2.5462255153787328 4.0426265692171084 1.2371683601171555 8 0.7091692257257336 0 1:1 2:2.5294118 4:1 14:1 30:3 36:1 82:1 120:1 348:1 672:3 1040:1 1068:1 1069:1 1070:1 
5.4198959903191222 2.2083801685006157 3.2742078202628551 2.0208997691837083 3.5263964243248536 0 3.8033727855582837 0 1.6842849579521166 2:3.0526316 8:1 14:3 26:2 30:1 40:1 100:1 936:1 1071:1 1072:1 1073:1 1074:2 1075:1 1076:1 1077:1 1078:1 
4.3672818528297253 7.1856717028908177 5.7894689772740975 0.10162267534057123 4.4251382455398014 3.4148015365180746 8 4.0407395822075856 4.1468238546085887 2:2.4444444 26:1 31:1 39:1 46:1 51:1 61:1 1079:1 1080:1 1081:1 
0 0 0 0 0 0 8 0 7.3482174772806736 2:2.4 51:1 61:1 83:1 126:1 1082:1 
0 0 5.2821446275712169 0 6.7380169037888971 0 8 1.3716950273156436 0.25168930401223177 2:2.6666667 30:1 1083:1 1084:1 
0 0 3.5464695946439804 0 0 0 0 0 0 2:2.3793103 5:3 14:3 30:2 39:2 40:3 42:1 51:1 61:1 91:2 151:1 272:2 356:1 401:1 1058:1 1085:1 1086:1 1087:1 1088:1 1089:1 
2.5701485198054281 3.2811786894895207 0 3.0993088766146024 0 0 0 0 0 2:2.4545455 9:1 14:2 20:2 30:1 39:1 40:1 51:1 107:3 125:1 217:1 240:1 356:1 401:1 423:1 458:1 640:1 1090:1 1091:1 
8 8 1.556293387520014 0 8 4.2186462937008864 6.8490066496049486 8 0 2:2.4 4:1 14:1 348:1 356:1 435:1 
1.823168748772457 0 0 0 3.4165372801487313 0 4.9837030967922704 0 3.0861248412468223 2:2.4285714 9:2 23:1 30:3 39:1 83:1 738:1 1052:1 1096:1 1097:1 1098:1 1099:1 
8 8 8 8 8 3.7231413229335462 8 4.8711658942600993 8 2:5.2 40:1 375:1 1100:1 1101:1 1102:1 
8 8 8 0 7.2509508400771914 6.1459469017275277 8 7.5305500221609201 4.5985795812202852 2:3 14:1 1103:1 1104:1 
5.6566984824030566 4.9038061531758386 3.3445720990916517 3.224130907144954 2.0330475259524889 3.2635514280808722 3.1300747549690198 2.994642504702739 1.4139239225002835 2:3.9 9:2 14:2 26:1 39:1 40:1 61:1 435:1 765:1 978:1 985:1 1105:1 1106:1 1107:1 1108:1 1109:1 1110:1 1111:1 1112:1 
3.9087129994382108 3.5738367908116597 0.7074302296034658 1.172177896409061 0 0.9536186969746443 3.2512264240768687 2.1486417024753495 0.14973373089681657 2:3.5555556 14:2 20:1 30:1 1115:1 1116:1 1117:1 1118:1 1119:1 
0 4.5025935760580031 4.0279559668485572 0 1.9107086043075947 8 5.9200848066487914 6.5355618523093755 0 2:3 14:3 46:1 1120:1 1121:1 1122:1 1123:1 1124:1 
2.7838136489459688 0 0.20425931396781941 0.10199453775554788 5.0022564462176105 0 0 0 2.6137871869227323 2:3.2222222 9:1 14:1 46:1 131:1 203:1 1125:1 1126:1 1127:1 1128:1 
6.9162544599065487 8 8 8 5.8336095540332851 0 6.7793806952231774 0 0.3934786851867999 2:2.8 28:1 51:2 125:1 253:1 422:1 663:1 1129:1 1130:1 1131:1 
3.0649217575328591 2.5549736939820602 5.7325240891447464 1.464507325627997 5.095492447756099 4.1000408884171833 0.57890000314650136 1.179811650289565 1.8504384325942733 2:2.8064516 9:1 14:5 20:1 23:1 30:2 39:2 40:1 42:1 46:1 265:1 268:1 356:1 397:1 458:1 541:1 1054:1 1132:1 1133:1 1134:1 1135:1 1136:2 1137:1 1138:1 1139:1 
0.055583216366821162 5.0807885435120435 3.8027284223316582 1.7831783959374385 1.6010822288741393 1.1448260864627482 8 0 7.5273094965145688 2:3.125 42:1 126:1 168:1 262:1 272:1 730:1 1140:1 1141:1 
3.1026921150768798 2.3526324331128072 2.9021347160785838 0 7.428270258713793 0 8 2.8495418911313468 0 2:3 14:1 26:1 30:2 39:1 40:1 126:1 749:1 797:1 1142:1 1143:1 1144:1 
8 4.4381671990419616 0 0 6.7483818261027029 0 8 0 4.2935023633082565 2:2.3684211 14:2 22:1 26:1 30:2 39:1 46:1 61:1 84:1 107:1 252:1 465:1 534:1 738:1 1087:1 1145:1 1146:1 1147:1 
8 8 0.046910852346022512 3.0522487820462998 5.6473840899055929 8 8 4.9364883466855263 0 2:2 39:1 1148:1 1149:1 
4.1942864618002806 0 0 0 1.8253508473892712 0 8 0 7.271100112062455 1:1 2:2.5217391 14:1 30:4 35:1 40:1 46:1 51:1 52:1 61:1 107:1 195:1 203:1 548:1 639:1 1150:1 1151:1 1152:1 1153:1 1154:1 1155:1 
0 0 1.9770340680439886 0 1.5963683960942905 1.6467569341678827 4.2309269566834793 0 1.5469441291183561 2:2.75 9:1 14:4 16:1 26:1 30:2 39:1 61:1 83:1 189:1 1083:1 1156:1 1157:1 1158:1 1159:1 1160:1 1161:1 
0 0 0 0 0 0 8 0 0 2:1.375 30:3 51:3 125:1 1162:1 
0 0.90840326645151692 1.7901192083901054 3.1951552496557545 3.1059712939058848 0 1.8908413427574071 0 2.454543248365094 1:1 2:2.5151515 9:1 14:3 26:4 39:4 51:1 91:1 99:1 101:1 148:1 354:1 630:2 1163:1 1164:1 1165:1 1166:1 1167:1 1168:1 1169:1 1170:1 1171:1 1172:1 1173:1 1174:1 
8 8 8 4.1589880070597349 8 2.33192641819151 8 0 8 2:6 1175:1 
8 8 8 0 5.9766788599913534 8 8 8 8 2:4 1176:1 
8 8 8 7.9667432542993959 6.5662267219263111 7.151652866346752 8 5.195556636987507 8 2:6 1175:1 
0 0 0 3.7429317201286536 1.0840623156205251 0 0.29289573144188841 4.5021814896611776 0.74150977336069679 2:2.9166667 14:2 17:1 20:1 30:1 101:1 272:1 313:1 1145:1 1177:1 1178:1 1179:1 
8 8 5.0934932974061917 0 8 8 8 7.4280082344766125 2.5389297351204321 2:2.25 14:1 39:1 107:1 1180:1 
3.8270974584381059 4.1777472836757967 0 0 1.8306110232141044 0 5.7881208804847137 0 1.705875307530426 1:1 2:2.6451613 5:1 9:1 14:4 16:1 23:1 26:1 30:4 40:1 42:1 107:2 140:1 247:1 395:1 467:1 508:1 991:1 1056:1 1181:1 1182:1 1183:1 1184:1 1185:1 1186:1 
0 2.8853869975338813 3.0921455458601406 2.1940186531046462 0 2.4095861492115875 1.9170375736359526 0 1.5439428198372398 1:1 2:2.8571429 5:1 9:2 14:3 26:1 39:2 42:1 61:1 107:1 123:1 182:1 440:1 467:1 506:1 1071:1 1085:1 1187:1 1188:1 1189:1 1190:1 1191:1 1192:1 1193:1 1194:1 
8 0 3.8152300799728036 0 6.1987550303867085 0 8 0.41489809604017902 4.0652159919170536 2:3.5 5:1 30:1 1195:1 1196:1 
0 5.1747324422800318 0.86349618527431327 0 1.794792049673114 2.3514551989920736 8 0 0 2:3.375 9:1 40:1 95:1 107:1 170:1 1197:1 1198:1 1199:1 
0.18594138589178746 0 1.7403120482964198 0 0.052939061763261977 0 2.8131520440786759 1.9385372302117971 1.9859512328234366 2:2.8421053 5:1 9:1 14:1 26:2 30:2 39:1 40:1 42:2 154:1 950:1 1200:1 1201:1 1202:1 1203:1 1204:1 1205:1 
1.2050071749557221 0 0 0 0.88691753853364219 0.6674317817672244 0 2.5003617649660677 4.6854916197854015 1:1 2:2.4666667 8:1 14:1 20:1 30:3 39:1 40:1 42:2 57:1 61:1 89:1 107:1 395:1 743:1 754:1 890:1 1206:1 1207:1 1208:1 1209:1 1210:1 1211:1 1212:1 1213:1 1214:1 1215:1 1216:1 
0.31102480530910398 2.5398326139809653 0 0 0 3.1036868157186057 0 2.4612553928514891 6.0051201625210195 2:2.8 40:1 42:2 51:2 148:1 155:1 168:1 325:1 351:1 415:1 422:1 1087:1 1217:1 1218:1 
0.12449441820677511 6.7611411792414255 2.9641778946570323 4.3044614024529455 1.6828847707668018 2.1526734969619961 6.8557962373731529 0 1.4652855704754046 2:2.65625 4:2 9:1 14:4 23:1 26:2 30:1 39:1 40:1 51:1 61:1 84:1 126:1 156:1 189:1 490:1 804:1 932:1 1210:1 1219:1 1220:1 1221:1 1222:1 1223:1 1224:1 1225:1 1226:1 1227:1 
1.990303983900872 3.7889267725012243 0 0 8 8 8 0 8 2:2 40:1 51:1 52:1 151:1 1228:1 
3.346047852462088 0.23893467939596386 0.50268836133113359 4.3087626208714171 2.2705677010348229 0.4447502967260904 0 0.21058209366321065 1.6193448484531687 1:1 2:2.8235294 5:1 9:2 14:5 20:2 30:1 39:1 46:1 61:1 156:1 487:1 741:1 764:1 835:1 983:1 1260:1 1261:1 1262:1 1263:1 1264:1 1265:1 1266:1 1267:1 1268:1 1269:1 1270:1 1271:1 1272:1 
8 8 6.1936499050000728 5.5199514280762632 8 8 8 8 8 2:2.4285714 4:1 30:1 39:1 122:1 289:1 624:1 1273:1 
0 0 0 1.170750162534532 0 3.4793491830787118 1.0595467271248891 1.242105674432745 0.42187364401288713 1:1 2:2.875 14:4 22:1 25:2 30:3 36:1 39:3 40:1 42:2 46:1 61:1 141:1 503:1 521:1 1040:1 1274:1 1275:1 1276:1 1277:1 1278:1 1279:1 1280:1 1281:1 
7.166870265761073 7.4775425894383112 1.4066342206959208 0 0.23854169159557059 6.0137340717131309 8 1.3074506819592293 0 2:2.1428571 9:1 14:1 46:1 1052:1 1282:1 1283:1 1284:1 
0 0 0 0 0.60146619198795725 0.49059919328681872 4.2362178090586893 0 0.24149384395298804 1:1 2:2.9444444 8:1 26:2 30:2 46:1 318:1 532:1 828:1 1096:1 1149:1 1285:1 1286:1 1287:1 1288:1 1289:1 1290:1 
3.6984778992518526 2.4899015213029534 5.924650545576533 2.846499944749743 0.13564833904529222 0.88361789977108707 5.8274370715244252 0 3.7204036575861279 2:3.0666667 8:1 14:2 16:1 23:2 42:1 46:1 1113:1 1291:1 1292:1 1293:1 1294:1 1295:1 1296:1 
0 0 1.0477204150092363 2.4437311661100094 1.1375313159330944 2.3605529343590557 0 0 4.6498678898878847 1:1 2:2.4583333 14:2 23:1 39:2 40:1 42:1 46:1 49:1 51:1 52:1 61:1 84:1 151:1 357:1 401:1 458:1 1297:2 1298:1 1299:1 1300:1 1301:1 
0.1844671367978431 0 2.2891155373569712 0.37504189867764309 3.2038158010650841 0 3.0268231402869459 0 0 2:3.0588235 14:1 16:1 26:1 30:2 65:1 149:1 201:1 240:1 454:1 1302:1 1303:1 1304:1 1305:1 1306:1 1307:1 1308:1 
8 0 0 0 4.8270498223831897 7.863791482669968 8 7.891006535620372 0 1:1 2:2.4166667 30:3 42:1 57:1 61:1 107:1 651:1 1309:1 1310:1 1311:1 
0 5.6298941478174314 0 5.5552252447139372 8 0 8 0 1.3219209085036185 1:2 2:2.7777778 40:2 51:1 730:1 1312:1 1313:1 1314:1 
8 0 0 0 8 0 8 8 0 2:2.3333333 30:2 40:1 440:1 457:1 1054:1 
1.6860011390626701 0.47947401570747378 0 0.68703114154708755 4.0928488511537831 1.9417058767036786 0 1.2941415763426565 0 2:3 4:1 10:1 14:2 26:1 30:2 40:2 46:1 313:1 397:1 548:1 1315:1 1316:1 1317:1 1318:1 1319:1 1320:1 1321:1 1322:1 
0 0.77485314494554836 0.66739577976473641 0 0 0 5.6077446373360171 0 0 1:1 2:3 14:1 26:2 89:1 384:1 1323:1 1324:1 1325:1 1326:1 
5.9366629696015432 0 0 1.7041063940045378 0 0 8 3.0458384280487625 0 2:3.375 9:1 15:1 26:1 30:1 78:1 251:1 666:1 1327:1 
5.2199010380474471 8 7.3514651056423395 5.5855526454358468 8 8 2.8720417330988908 3.5970609086487584 8 2:2.7272727 9:1 16:1 39:1 42:1 51:1 422:1 766:1 1328:1 1329:1 1330:1 1331:1 
0 1.9908573680590951 4.2878986955876028 8 7.7401225530793685 1.0495761527933276 4.9092422995179348 0.59286132454505025 0 2:2.5 14:3 16:1 26:1 30:1 32:1 39:1 42:1 57:1 61:1 89:2 107:1 1013:1 1334:1 1335:1 1336:1 1337:1 1338:1 1339:1 1340:1 
2.3324267636019167 2.1705772402677899 0.42045738994175602 3.135805224508021 2.9547253560603961 0 1.0078970656982058 1.4258278068660175 8 2:3.2692308 5:1 14:1 26:2 30:2 42:4 58:1 84:1 147:1 195:1 345:1 1029:1 1341:1 1342:1 1343:1 1344:1 1345:1 1346:1 1347:1 1348:1 1349:1 1350:1 
0.13211252753831668 7.9058429388181359 1.4640726837286233 3.3909073424565239 4.2741159810667941 2.093072650725059 6.4200104401219704 0.66178202771138406 0 2:2.65625 9:1 14:5 26:2 30:1 40:2 42:3 61:1 109:1 113:2 122:1 548:1 579:1 822:1 1063:1 1347:1 1350:1 1351:1 1352:1 1353:1 1354:1 1355:1 1356:1 1357:1 
0 0 0 0.72993219291423539 2.1962030493186977 0 0.57269875501683065 0 2.269279640464438 2:3.1875 14:2 20:1 26:1 39:1 42:1 272:1 659:1 1050:1 1251:1 1358:1 1359:1 1360:1 1361:1 1362:1 1363:1 
5.753197783533067 1.9577248257706241 0 2.0709580430106129 0 1.6813639189039034 2.851818345555758 0.49641174872157934 6.4185013753179412 1:1 2:3.4 14:1 30:1 42:1 107:1 551:1 1364:1 1365:1 1366:1 1367:1 
0 0.21266285146732294 8 0 0 8 1.4276400550656989 8 8 2:3 14:1 42:1 83:1 300:1 650:1 1368:1 
1.0605923774055019 6.1230772106420783 0 0 3.4731679183942736 0 2.542147260077201 0 0 2:3.1923077 4:1 14:2 26:4 39:1 40:1 65:1 89:1 144:1 145:1 348:1 435:1 738:1 1114:1 1339:1 1369:1 1370:1 1371:1 1372:1 1373:1 1374:1 1375:1 1376:1 
2.4542290508002766 0 2.5626299803718466 0 0.0064609445539832193 0 6.645001469980846 0 1.0657472160201151 2:3.25 9:1 14:2 26:1 40:1 42:1 348:1 467:1 490:1 810:1 1377:1 1378:1 1379:1 1380:1 1381:1 1382:1 
7.069717211931847 8 8 0 6.1516657111940827 8 8 8 0 2:2.375 9:1 14:1 39:1 40:1 42:1 757:1 1383:1 1384:1 
6.0802675471372982 6.0244421424012939 8 5.8689972024997248 5.6728926478485304 6.6073192413732249 6.8163078645501685 6.3362605685346773 1.2083305974846783 1:1 2:2.8461538 8:1 9:2 42:1 149:1 151:1 379:1 1301:1 1385:1 1386:1 1387:1 1388:1 
1.6141169830717745 0.1995937303296233 0.53989486946714349 0 3.9208803502724274 2.1889909544417887 0.71643860103776091 1.2809742844657577 1.0164490417538052 1:1 2:2.7894737 5:1 8:1 14:1 30:2 40:1 42:1 84:1 107:1 240:1 1389:1 1390:1 1391:1 1392:1 1393:1 1394:1 1395:1 1396:1 
8 4.5248200949925819 1.9560387258464742 0 0 0 8 2.7644361122276635 8 2:3 39:1 78:1 1074:1 1397:1 
8 8 0 0 8 0 8 4.2333844807227807 1.8650789886297927 2:2.1666667 14:1 26:1 42:1 348:1 717:1 1378:1 
5.4064247294010004 3.466264394397351 0.355436539601025 3.3103746025308749 2.0582857789961415 0.12740143089337178 0 0.89738677844128145 3.8267549564022589 1:1 2:3.0740741 5:1 9:1 14:4 23:1 30:2 40:2 52:1 61:1 726:1 919:1 1210:1 1341:1 1398:1 1399:1 1400:1 1401:1 1402:1 1403:1 1404:1 1405:1 1406:1 
4.6003458758679923 1.3190940123655661 3.7703341396879155 1.9826718714613427 2.8474947781510047 1.3489402260888685 1.3821076051936456 0 3.5948081069858939 1:2 2:2.6774194 5:2 9:2 14:4 20:1 26:1 30:1 39:1 42:2 83:1 168:1 272:2 295:1 844:1 1106:1 1407:1 1408:1 1409:1 1410:1 1411:1 1412:1 1413:1 1414:1 
4.3038762868388272 2.771200208374665 4.3368756952628962 1.4523262644770498 1.8891136472220924 0 8 0 2.4553074595273174 2:3.1923077 9:1 14:1 26:5 39:1 52:1 80:2 83:1 243:1 259:1 272:1 532:1 780:1 976:1 1415:1 1416:1 1417:1 1418:1 1419:1 1420:1 1421:1 1422:1 
1.6565607376716951 8 6.4680519634689269 0 2.5910883499727393 8 8 8 6.3604623871031167 2:2 14:1 42:1 1423:1 1424:1 
0 8 7.1539428660020645 0.34937827445978853 3.8939670171924012 2.8701243779122874 8 1.8266665352375973 5.5695480279065777 1:1 2:3 16:1 39:1 89:1 1339:1 1425:1 1426:1 
8 6.4345272078854023 5.5774599981935618 2.5775038682025833 0 0 4.1658876434209988 1.4944941224697115 7.6422325508129534 2:4.7142857 23:1 46:1 82:1 1133:1 1427:1 1428:1 1429:1 
0 4.2659046633320807 0 1.9854313174707321 3.4731091696743213 8 0.84298659962412059 8 1.5235992880759461 2:3.1428571 14:2 30:1 39:1 126:1 130:1 325:1 414:1 718:1 1397:1 1430:1 1431:1 1432:1 1433:1 
4.9746002248570615 0 0 0 4.7167840579922702 0 3.4886145709897458 0 0 2:2.8 9:3 14:3 26:4 30:1 39:2 61:1 251:1 271:1 348:1 394:1 422:1 440:1 562:1 584:1 666:1 791:1 971:1 1357:1 1434:1 1435:1 1436:1 1437:1 
0 0 0 0 3.4283565477870939 0 1.0874031089613985 0 0 2:3 14:2 26:4 30:2 40:2 201:1 216:1 229:1 240:1 435:1 647:1 835:1 1114:1 1233:1 1245:2 1372:1 1438:1 1439:1 1440:1 1441:1 1442:1 1443:1 1444:1 1445:1 1446:1 
1.7569296408712698 0.47547061417208286 0 0 0 0 5.7740244986879139 0 0.68761388784770494 2:3 8:1 9:1 30:2 31:1 61:1 83:1 84:1 243:1 272:1 1447:1 1448:1 1449:1 1450:1 1451:1 1452:1 
7.7489293812802043 4.6326261988238011 0 2.3790253971610058 6.1023004523648403 0 3.6785743627379026 0.88281698658919905 0.25294248303039008 1:1 2:2.7368421 4:1 9:1 16:1 23:1 26:1 30:2 42:2 107:1 666:1 667:1 668:1 1058:1 1453:1 1454:1 1455:1 1456:1 
5.8292174649538318 3.4735923568381368 1.7384325288420346 0.61053660658277586 0 0.9157202902692142 1.3875994523081085 0.20546239624970924 0 2:3 9:1 26:1 30:1 46:1 61:1 84:1 240:1 666:1 1245:1 1457:1 1458:1 1459:1 1460:1 1461:1 1462:1 
0.54348991308359895 0 0 0 0 0 0 0 0 2:2.7058824 14:2 30:4 51:1 52:1 348:1 435:1 647:1 1043:1 1245:2 1463:1 1464:1 1465:1 
3.3712358370643698 1.6366526431787773 0.18274610341031652 0 1.1482802729608215 1.4958698226185474 5.361181390674064 3.295638586057918 1.4968501571426929 1:1 2:2.5454545 14:3 20:1 26:3 30:2 197:1 348:1 435:1 647:1 778:1 1245:2 1464:1 1466:1 1467:1 1468:1 1469:1 
0 0 1.196758971498266 0 0 0 8 0 0 1:1 2:2.4444444 26:1 30:1 40:1 61:1 83:1 467:1 1470:1 1471:1 
8 0 0 0 0 0 0.47002042021196422 0 0.42346337425139213 2:2.4 5:1 42:1 51:1 1472:1 1473:1 
0 0 0 0 1.5926321453288486 0 1.2609859303032573 0 0 1:1 2:2.4 9:1 14:1 30:2 46:1 73:1 1474:1 1475:1 1476:1 
0 2.994454347796597 3.2055785190850061 0 0 0 5.1100489001143412 0 0.68799493375756471 2:3.5714286 26:1 719:1 725:1 727:1 1477:1 1478:1 1479:1 
2.8261688893212988 1.0520862473584618 0.11968035934992077 0.95141632043918956 0 0 8 0.31485131921723719 0 2:2.4444444 9:1 23:1 30:1 89:1 107:1 266:1 1220:1 1480:1 1481:1 
0 0 1.6195067293694663 0 0.082984377121792768 0 7.2839273388262971 1.4744027620520082 0 2:3.4285714 14:1 20:1 401:1 551:1 1482:1 1483:1 1484:1 
5.7546006819580908 8 4.9713234043719146 7.0092407391382094 6.4287471362326691 5.5930750589473925 6.4302678369622264 3.0037047710749354 3.6402340100819486 1:1 2:3.1111111 4:1 9:1 14:2 20:1 25:1 39:1 42:1 554:1 1483:1 1485:1 1486:1 1487:1 1488:1 1489:1 1490:1 1491:1 
0 5.8515612163912909 1.622330499658923 0 0 0 0 0 8 2:5 1492:1 1493:1 
8 1.1844710933809146 0 4.1966792069892511 0 1.0961273119205799 8 8 3.8028453255698276 2:3 30:2 126:1 1440:1 1445:1 1494:1 
0 0 4.2012645342701047 0 0.2743189353743376 0 0 0 5.7130561404174713 2:3.0555556 9:1 26:1 30:1 39:2 46:1 91:1 151:1 262:1 401:1 554:1 730:1 1210:1 1502:1 1503:1 1504:1 1505:1 1506:1 
2.870039164014456 1.2388137485808066 0 0 1.9584409629279942 0 3.079674690235858 0 0 2:2.5 9:1 14:1 23:1 26:2 30:2 40:2 61:1 89:1 107:2 149:1 262:1 272:1 524:1 715:2 968:1 1507:1 1508:1 1509:1 1510:1 
2.9395768390673545 3.9087903024063309 0 2.7457270258655555 3.0549377583908095 0 0 0 3.7617603184183852 2:2.5185185 4:1 5:1 9:1 14:1 26:1 30:2 39:1 40:4 42:1 51:1 83:1 84:1 757:1 1043:1 1451:1 1511:1 1512:1 1513:1 1514:1 1515:1 1516:1 1517:1 1518:1 
0 0 0.29707662173535071 0 1.0007587158438629 2.4220984844901938 0 6.0075089054327631 0 1:1 2:2.5384615 14:1 30:2 39:1 40:1 42:2 1384:1 1519:1 1520:1 1521:1 1522:1 
8 0 0 0 0 0 8 8 0 2:2.5454545 14:2 30:2 57:1 182:1 272:1 624:1 1523:1 1524:1 1525:1 
1.3966057460506798 0 0 1.2548731347547857 4.0180787045580129 0 0 0 2.7218488863952235 2:2.9565217 9:1 14:3 26:1 39:1 51:1 52:1 61:1 83:1 107:1 216:1 313:1 320:1 420:1 1083:1 1526:1 1527:1 1528:1 1529:1 1530:1 1531:1 1532:1 
0 4.5036249444744625 0 1.072970344021456 3.7775384999461772 0 4.2634701237248054 0 3.2326721055970276 2:2.9333333 13:1 14:1 40:1 42:2 51:2 168:1 453:1 458:2 1533:1 1534:1 1535:1 1536:1 
3.7475719128511877 0 1.8826912172395287 1.2264533233216903 3.1751353838729219 1.2871349928520301 5.58404814319743 1.9645161954602817 0.24154125835543069 1:1 2:2.7647059 16:1 26:1 30:2 42:1 46:1 89:1 94:1 122:1 548:1 1537:1 1538:1 1539:1 1540:1 1541:1 1542:1 
0 0 0 0 0 0 7.4172306784447146 0 0 2:2.75 26:1 30:2 83:1 419:1 1451:1 1493:1 1543:1 
5.7256164098959248 1.5633381152786481 1.1969028575229281 2.0467517289912034 6.1621796508973903 0.80008043879987567 1.9237983239935297 0 7.0300161425339036 2:2.65 8:1 9:1 14:1 23:1 30:2 46:1 61:1 80:1 103:1 107:1 272:1 1544:1 1545:1 1546:1 1547:1 1548:1 1549:1 1550:1 1551:1 
7.4393441401311948 8 8 0 0.28572520860220346 6.6125037937291733 8 6.0452182142185054 8 2:4 1552:1 
0.16135229197194917 0 0 4.9058725001104637 0 0.85974836657586851 0.60949924831143687 0 0 2:2.3076923 4:1 14:4 30:2 36:1 39:2 42:1 51:2 84:1 482:1 672:3 828:1 1553:1 1554:1 1555:1 1556:1 1557:1 1558:1 1559:1 
1.3727923984066455 0 3.1971628201744799 0 0 0 2.2121259728826099 1.4301297655101217 0 1:1 2:2.8333333 8:1 14:2 26:1 30:2 46:2 89:1 1133:1 1223:1 1508:1 1560:1 1561:1 1562:1 1563:1 1564:1 
4.3555096465492458 6.9366995139475982 8 6.7092663186073223 5.7441291690151521 0 6.8839071023454554 0 4.5475316105512906 2:2.8125 9:1 14:1 26:1 31:1 42:2 51:1 65:1 126:1 262:1 919:1 1325:1 1565:1 1566:1 1567:1 1568:1 
8 0 0 1.6373923241242592 0 0 3.0299430338755156 0.72482619013143057 8 2:2.3333333 30:3 40:3 141:1 467:1 756:1 1569:1 1570:2 
0 2.8338774031790925 1.4770296927933948 0 0 0 5.0198787223736687 0 4.886562224651458 1:1 2:2.5384615 9:1 14:1 23:1 26:1 42:1 46:1 61:1 107:1 1360:1 1571:1 1572:1 1573:1 
0 0 0 0 0 0 1.4738072637622934 0 0 2:2.5757576 4:1 9:1 13:1 14:3 16:1 23:1 25:1 30:1 32:1 36:1 37:1 39:1 40:1 42:2 89:1 125:1 159:1 253:1 355:1 395:1 754:1 835:1 1054:1 1233:1 1460:1 1574:1 1575:1 1576:1 1577:1 1578:1 
4.8981400953506862 3.4964353711577001 6.5751366131197742 0 4.0312019439688083 1.4203987825606097 8 1.433669638925732 2.3018958305706709 2:2.8333333 14:1 26:1 46:1 1579:1 1580:1 1581:1 
0.064149975642941712 0.33342280759425896 0.9855122338038661 0.24602649890205436 0 0 1.1354743781411747 0.87317977987811657 0.46885303404267237 2:3.2105263 9:1 30:2 39:1 40:1 46:1 61:2 293:1 652:1 1582:1 1583:1 1584:1 1585:1 1586:1 1587:1 1588:1 1589:1 1590:1 
7.8942643614175054 1.9016962675140308 8 0 8 3.1076903682752564 8 0 8 2:2.6666667 61:1 103:1 1599:1 
5.6753775926190801 6.344035901091571 2.7775800426414015 0.11777207213967289 0 0 1.9710769762867308 0.18201934949863688 1.0484443082438 2:2.6956522 4:1 14:4 26:2 39:3 107:1 151:1 373:1 490:1 506:1 624:1 728:1 939:1 1600:1 1601:1 1602:1 1603:2 
2.9080075619326702 3.9715228934698565 1.0650991382857447 3.3394496716050837 5.8590578983683788 5.0619192360323018 4.5528433716742454 5.626327961599725 0.91847723493910316 2:2.7142857 4:1 9:2 14:3 23:1 26:2 30:3 39:2 40:1 46:1 189:1 272:1 532:1 931:1 1530:1 1604:1 1605:1 1606:1 1607:1 1608:1 1609:1 1610:1 1611:1 1612:1 1613:1 1614:1 1615:1 1616:1 1617:1 
0 0 3.4774993331185429 0 0.365982978041825 0 2.8205036393573919 0 0 1:1 2:2.3333333 9:1 51:1 61:1 83:1 148:1 239:1 240:1 1618:1 
4.177332313396799 2.5165597429476745 8 0 2.9181396638503525 0 8 0.87654062743140637 0 2:3.25 26:1 1353:1 1619:1 1620:1 
4.0824068564959326 1.6527121018193405 1.9963487133847921 4.0947683874254945 3.2822872438595936 1.8190257719301934 5.3090397966292349 1.5343329935432968 1.889785667298806 2:2.5714286 9:1 14:1 30:1 39:1 40:1 42:1 83:1 151:1 596:1 756:1 1621:1 1622:1 1623:1 1624:1 
2.0215569169338381 2.1963324935343911 1.2747046952354728 0 3.0278290043270619 7.5511368401193835 1.6097651594912381 3.2456737425370696 1.9945288344342844 1:2 2:3.3103448 4:1 9:1 16:1 20:1 26:1 35:1 39:2 40:2 86:1 113:1 395:1 532:1 601:1 603:1 1498:1 1625:1 1626:1 1627:1 1628:1 1629:1 1630:1 1631:1 1632:1 1633:1 1634:1 
2.2206317724556781 8 2.0925137840714512 2.467820619118458 3.8584249236178993 6.1964963236261097 5.2658297539009835 4.0375019660270528 0 2:2.8148148 4:1 14:3 20:1 26:1 30:2 39:1 40:1 42:2 57:1 134:1 240:1 319:1 320:1 395:1 570:1 1635:1 1638:1 1639:1 1640:1 1641:1 1642:1 1643:1 1644:1 
0 0 3.5652511268142835 0.43210950292994699 0 0.31312049508718343 0.78605761543772279 4.2950588642812084 3.1311489719762013 2:2.9 14:1 31:1 39:1 239:1 262:1 1645:1 1646:1 1647:1 1648:1 1649:1 
6.3485295266273143 7.1307334074329169 8 3.4584053148311482 2.011696182341109 5.951351531882608 8 1.3022633715926017 8 2:4.75 23:1 1157:1 1650:1 1651:1 
4.9351327307499018 1.6904752344917209 3.7234456341668176 2.8770713284408798 6.3535839506188427 2.5801122127848419 5.4105828017378519 2.9735010473877943 5.8845156847913751 1:1 2:3.3809524 14:2 23:1 30:2 39:1 40:1 141:1 448:1 849:1 854:1 1652:1 1653:1 1654:1 1655:1 1656:1 1657:1 1658:1 1659:1 1660:1 
0 0 4.9278257923575834 0 1.9590224701213306 0 7.2294140915273921 8 4.6580907203725586 2:2.5 14:1 30:2 203:1 207:1 1661:1 1662:1 1663:1 
0 0 0 0 0 0.36384847706008305 0 0 0 1:2 2:2.3939394 4:1 5:1 14:3 20:1 25:1 30:3 32:1 36:1 37:1 39:2 40:1 42:3 46:1 314:1 579:1 703:1 950:1 987:1 1390:1 1556:1 1668:1 1669:1 1670:1 1671:1 
5.5034250879441613 2.386024535025741 0 0 8 0 5.9326469221026414 0 0 1:1 2:3.1304348 14:3 26:1 30:1 39:1 40:1 46:1 125:1 145:1 156:1 219:1 260:1 348:1 435:1 1320:1 1522:1 1556:1 1677:1 1678:1 1679:1 1680:1 
6.7682722682591416 0 8 0 2.4937089687816192 7.6636021886460943 8 2.7279788025999885 0 2:4 1353:1 1681:1 
2.2553700002231882 8 0 8 5.3708448599621761 8 1.2252172132605956 5.2358391368798554 0.44158661376039832 1:1 2:2.2903226 4:1 8:1 14:3 16:1 20:1 26:1 30:3 42:1 46:3 89:1 126:1 232:1 233:1 556:1 672:3 945:1 1383:1 1682:1 1683:1 1684:1 1685:1 1686:1 
1.5916071972443318 7.2681890931856703 2.5122750095391888 2.1113952044511084 2.1975565927936374 2.1654280722603487 0 4.0101866225982725 2.3150372963037982 2:3.15625 4:1 14:5 20:1 39:1 40:2 89:1 151:1 275:1 440:2 591:1 630:1 1245:1 1687:2 1688:1 1689:1 1690:1 1691:1 1692:1 1693:1 1694:1 1695:1 1696:1 1697:1 1698:1 1699:1 
3.5714373469607259 0 0 3.1176646335190776 2.9874621557810741 0 1.3578403833596548 0.10460511196194827 0 2:2.95 9:1 25:1 30:1 40:2 82:1 101:1 113:1 432:1 467:1 548:1 859:1 1396:1 1514:1 1700:1 1701:1 1702:1 1703:1 1704:1 1705:1 
3.9957722361770371 2.0535806134804453 1.7411025747001112 4.0823951994921943 3.7266490996650452 0.77241042098284274 2.6814569158811539 1.2549264521094234 1.843236812712006 2:2.9166667 9:1 14:3 26:2 30:2 42:1 61:1 100:1 107:1 1495:1 1706:1 1707:1 1708:1 1709:1 1710:1 1711:1 1712:1 1713:1 1714:1 1715:1 1716:1 
8 0 0 8 6.9106716240275619 0 8 0 0 2:2.125 14:1 26:1 30:1 42:1 313:2 419:1 1423:1 
6.5538973799480562 0.52088033433186243 0.45354709937387255 0 2.1812906635524962 0 3.0932026743455245 0.4775384951358006 2.4236663599861945 2:2.7272727 14:2 16:1 30:2 39:1 40:1 42:1 46:1 181:1 197:1 240:2 265:1 562:1 1717:1 1718:1 1719:1 1720:1 1721:1 1722:1 1723:1 
0 0 3.6181446594602313 0.37554458102016552 2.1790763927998342 0.24599682073472423 0.69868669666310779 1.7056394303477636 6.3338712815168439 2:2.2857143 9:1 14:2 20:1 26:1 35:1 42:3 51:1 61:1 107:1 168:1 466:1 497:1 1724:1 1725:1 1726:1 1727:1 1728:1 1729:1 
1.727765808332602 8 2.6322320882769241 1.1209060091216736 5.1028306952182954 3.5060393596792139 8 5.4819636257591577 0 2:2.7142857 14:1 39:1 42:1 1267:1 1730:1 1731:1 1732:1 
2.6010557044278855 0 0 0.40033172209463386 2.1977016500673319 0.42912039636575139 2.2785163486658782 0.29160395090364621 2.3200560978024436 1:1 2:2.5652174 9:1 14:1 26:1 30:3 39:1 46:1 52:1 61:1 78:1 107:1 289:1 1733:1 1734:1 1735:1 1736:1 1737:1 1738:1 1739:1 1740:1 1741:1 
1.3585444020402642 0 0 0 0 0 7.8306381985918501 0 4.9982001776023814 2:2.5555556 16:1 26:1 30:1 40:1 61:1 252:1 1742:1 1743:1 1744:1 
0.24047090036623686 4.9842948239828857 0 2.8109512143432918 0 2.0370516259219835 0 0 2.4719161821745232 1:1 2:2.7083333 14:2 26:1 30:1 39:1 40:1 42:1 46:1 107:2 126:1 219:1 240:1 247:1 551:1 733:1 1420:1 1453:1 1745:1 1746:1 1747:1 1748:1 1749:1 
2.7062362843271957 3.3504268526376011 5.3797198685367054 0.061113596727448753 3.484168260369005 0.63657728631850485 2.0943301390692408 2.4096737339704446 0.82875822382502995 2:2.6052632 9:2 14:4 26:3 30:1 39:4 46:2 109:1 151:2 155:1 260:1 314:1 527:1 1148:1 1732:1 1750:1 1751:1 1752:1 1753:1 1754:1 1755:1 1756:1 1757:1 1758:1 1759:1 1760:1 1761:1 1762:1 
6.3114338907327001 2.7472531747593365 0 0 0.8880540350398809 0 0.15436877186001419 0 1.3493327408552049 1:1 2:2.45 14:2 26:1 30:1 39:1 42:1 84:1 89:2 107:1 168:1 395:1 470:1 556:1 741:1 1763:1 1764:1 1765:1 1766:1 
0 3.221337869389588 2.8710854935721253 1.1589646806163203 0 0 0 0 6.9175103236312152 1:1 2:2.6206897 14:3 26:1 30:1 39:3 40:1 46:1 61:1 83:2 84:1 107:1 125:1 252:1 327:2 422:1 809:1 1767:1 1768:1 1769:1 1770:1 1771:1 1772:1 1773:1 
1.9153337036107383 6.5982558463174454 4.0278380328727401 0.45811883088636152 6.2363133365941215 1.8504169307048255 8 0 8 2:5 1774:1 1775:1 1776:1 
1.118238180302213 0 0 0 0 0 6.7635100048343109 0 2.5476622494362391 2:2.9 26:1 46:1 51:2 83:1 1526:1 1773:1 1777:1 1778:1 1779:1 
0 3.9930190323329575 0 2.1066098613807038 0.95693462857345712 1.4960456718001998 0.15485369573334809 2.3417259897273515 0 1:1 2:2.5666667 9:2 14:3 16:1 26:1 30:3 39:2 40:1 46:2 75:1 84:1 170:1 286:1 506:1 530:1 697:1 991:1 1190:1 1353:1 1770:1 1780:1 1781:1 1782:1 
0 0 0 0 0 0 0 0 3.68874216062876 2:2.6111111 9:1 16:1 26:1 39:1 42:1 51:2 61:1 107:1 148:1 156:1 247:1 355:1 756:1 1050:1 1090:1 1783:1 1784:1 
2.976409641720108 8 7.5059498415731234 6.8746782136196964 8 1.8749154538059472 2.9910000585712302 4.8653457038998633 0.11526980304666204 1:1 2:2.65625 4:1 9:2 14:5 20:1 23:1 26:2 30:3 40:1 42:1 89:1 131:1 459:1 548:1 789:1 1339:1 1685:1 1744:1 1772:1 1785:1 1786:1 1787:1 1788:1 1789:1 
3.4412042689456248 0 0 0 1.7034641490213116 0 0.23764563445865602 0 1.1183049971164289 2:3.0952381 5:1 9:1 14:2 26:1 30:3 39:1 61:1 83:1 348:1 594:1 634:1 935:1 1376:1 1790:1 1791:1 1792:1 1793:1 1794:1 
0 0 4.3429586204300641 0 0 0 8 0 0.4841401509686899 2:2.6 14:1 51:1 83:1 240:1 1795:1 
8 0.4200749288288444 0 1.6780872359563421 0 0 0.83920566045046818 0 4.7270367973895073 2:2.5 8:1 9:1 14:1 20:1 25:1 26:1 36:1 39:1 40:1 42:2 467:1 663:1 991:1 1796:1 1797:1 1798:1 1799:1 
2.3555582720534085 0 8 0 0 8 8 0 0 2:1.8333333 9:1 14:1 42:1 168:1 757:1 1002:1 
2.9616900368040646 8 3.3866520275406309 0 4.1934581704538143 2.2986646761439662 0 1.9833125235162388 0 2:3.375 5:1 14:3 39:2 40:1 84:1 658:1 783:1 1578:1 1800:1 1801:1 1802:1 1803:1 1804:1 
2.5877095562583716 0 0 1.3965890068959561 1.304474326018038 2.4963186525504129 0.079305089403182108 1.3048237189424143 1.942538560830837 2:2.4117647 4:1 9:2 14:4 20:2 25:2 30:2 36:2 39:2 40:1 42:1 378:1 878:1 1237:1 1350:1 1805:1 1806:1 1807:1 1808:1 1809:1 1810:1 1811:1 1812:1 1813:1 1814:1 1815:1 
4.0301577524227179 0 3.9423665437659956 0 1.2442593874732142 0 8 0 2.625576487360596 2:3 14:1 16:1 26:1 39:1 151:1 153:1 189:1 347:1 1018:1 1492:1 1817:1 
2.0348030587392243 0 1.6780527827785516 0 0 1.6568787644406735 0 0 0.11814420327202618 1:2 2:3.1034483 5:2 8:1 23:1 26:3 31:1 39:2 51:1 61:1 84:2 153:1 357:1 1018:1 1396:1 1818:1 1819:1 1820:1 1821:1 1822:1 1823:1 1824:1 1825:1 1826:1 
1.9916074351753068 8 5.7486105680960105 3.2112481812880747 3.2406763532759655 3.0967080942284069 1.32103582735703 1.1710137806241487 8 2:3.1 14:5 20:1 26:1 61:1 84:1 103:1 107:1 348:1 422:1 551:1 586:1 727:1 1330:1 1821:1 1824:1 1827:1 1828:1 1829:1 1830:1 1831:1 1832:1 1833:1 1834:1 1835:1 1836:1 1837:1 
8 0 0 0 8 0 8 8 8 2:2.5 30:3 859:1 860:1 1838:1 
0 1.5617337255402575 0.20113383205110066 0 0 0 5.8441422461490902 0 0 2:2.8571429 14:1 23:1 40:1 51:1 65:1 1647:1 1839:1 
2.4833065950982505 0 0 8 0 0 8 0 0 2:3 46:1 313:1 1474:1 
0 0 0 0 5.1532824359282436 0 8 0 0 2:2.2 5:1 9:2 26:1 30:1 42:1 51:1 61:2 240:1 243:1 262:1 790:1 1267:1 1840:1 
6.051565999852202 0 8 0.92611883405569073 8 2.6110895720400484 0.73708846905703751 0 8 2:2.3 9:1 26:1 61:2 103:2 189:1 467:1 1841:1 1842:1 
0.33141696438699114 7.6231775390648657 1.797930368024973 0 0.39705060505076456 0.39858788908609244 0 0 8 2:2.9285714 9:1 14:2 23:1 30:1 61:2 107:1 1766:1 1843:1 1844:1 1845:1 1846:1 1847:1 
4.4548629332279504 4.6808521565980055 0 3.9941212072162187 5.1366034842945067 6.8753810103967323 8 5.3343530859331771 0 2:3.1428571 14:1 20:1 39:1 325:1 1848:1 1849:1 1850:1 
8 8 8 0 5.9751795192800987 6.6120176758815061 8 6.0434281686580267 8 2:4 1851:1 
5.9415165253904556 4.4785282961891841 4.415790501149548 3.8942987787938277 3.261635047203264 2.4719733596489366 3.973021519025036 1.1117222937019171 2.718098758611772 1:1 2:3.1923077 9:2 16:1 23:1 30:1 35:1 39:1 40:1 42:1 49:1 61:1 107:2 149:1 191:1 624:1 1153:1 1506:1 1852:1 1853:1 1854:1 1855:1 1856:1 1857:1 1858:1 
0 0 0 0 0 0 2.1770088049908489 0 0 2:2.8214286 4:1 14:1 25:1 26:1 32:1 35:1 36:1 37:1 40:1 42:2 46:2 58:1 61:2 262:1 314:1 493:1 532:1 548:1 828:1 835:1 1206:1 1233:1 1866:1 1867:1 1868:1 
0 0 0.92768072691687986 0 2.1838484920965224 0 0 0 0 2:3.4 14:2 23:1 26:1 39:1 126:1 151:1 202:1 253:1 314:1 357:1 415:1 493:1 575:1 675:1 1243:1 1869:1 1870:1 1871:1 1872:1 
0.18642646022409634 8 8 0 7.2518279959065293 0 8 0.19977812858132021 0 2:3.6666667 26:1 1711:2 
0 0 0.66203626252733239 1.3049171480177824 0 1.2002885860500991 1.5358611729312399 3.1205943442647182 0 1:1 2:2.85 9:2 26:1 30:2 40:1 46:1 49:1 93:1 107:1 262:1 313:1 532:1 533:1 702:1 1282:1 1873:1 1874:1 1875:1 
4.6875500485218344 8 2.3176990838351665 7.0280686102329666 6.7031339386731581 1.4595705404995716 2.6691322147762038 0 4.9443914260273578 1:1 2:3.375 14:4 20:1 23:2 30:1 46:1 141:1 156:1 348:1 579:1 1262:1 1876:1 1877:1 1878:1 1879:1 1880:1 1881:1 1882:1 1883:1 1884:1 
0 0.58681874088989672 0 0 1.1187154556922301 3.5758792394605101 0 0 0 1:1 2:2.3846154 4:2 14:4 30:2 36:1 39:1 42:1 51:1 84:1 156:1 260:1 436:1 482:1 672:3 1244:1 1498:1 1885:1 1886:1 1887:1 
8 1.0579837474726856 8 5.3285170229837462 6.3502393611863761 1.0941185167688714 5.073772634100262 3.8132162164116963 8 2:3.5555556 23:1 42:1 103:1 498:1 976:1 1113:1 1888:1 1889:1 1890:1 
0 0 0 0 0 0 1.4524319078170644 0 0 1:1 2:3.1875 8:1 9:1 26:1 30:1 37:1 40:2 738:1 861:1 1889:1 1891:1 1892:1 1893:1 1894:1 1895:1 
3.1344677199991224 0 0 0 2.0647711863792084 0 8 0 0 2:2.4285714 14:1 51:1 52:1 151:1 819:1 835:1 1896:1 
8 6.2890325043278148 5.9833441652131514 1.5457420193100952 0.85005749538939235 0 5.3966903282290408 0 8 1:1 2:2.6666667 5:1 14:1 42:1 83:1 94:1 1852:1 1897:1 1898:1 
3.2890042607152901 4.7877788617469514 1.5641291498603156 3.8286384463206691 8 7.2211547092344173 3.0257641274581739 5.4911681239586114 0 1:1 2:2.6944444 4:1 9:1 14:8 20:1 30:2 39:2 40:1 89:1 140:1 219:1 260:1 272:1 325:1 551:1 575:2 670:1 1403:1 1498:1 1899:1 1900:1 1901:1 1902:1 1903:1 1904:1 1905:1 
3.596878824252693 8 5.4901276621265955 0 8 2.8392509589683819 8 0 1.2293751638911008 2:3 1816:1 1906:1 
8 4.3628234813398601 8 0 0 8 3.615416546407773 8 0 2:2.125 13:1 39:2 51:1 125:1 187:1 1498:1 1907:1 
0 0.013514297770924319 2.0355926888933649 0 0 0 0 0 0.69624045388022371 1:1 2:2.8 9:1 14:1 26:1 30:1 42:1 61:1 89:2 125:1 168:1 627:1 1711:1 1908:1 1909:1 1910:1 1911:1 1912:1 1913:1 1914:1 
5.0070904262089071 2.1174381944627418 0 0 5.6217827543066798 0 0 3.282503810694287 4.6503375902046669 1:1 2:2.2142857 4:1 14:2 23:1 25:1 30:4 39:2 40:2 46:1 70:1 103:1 123:1 126:1 151:1 240:1 418:1 567:1 1099:1 1570:1 1915:1 1916:1 1917:1 
4.7215186227744734 0 8 0 1.0709031333990706 8 8 8 0 2:3 30:1 57:1 1498:1 1918:1 1919:1 1920:1 
0 0 2.4811884202715357 0 0 0 0 0 8 2:2.4347826 5:1 9:2 14:2 16:1 20:1 26:3 30:1 39:2 42:1 168:1 284:1 730:1 1434:1 1921:1 1922:1 1923:1 1924:1 1925:1 
0 0 0 0 0 0 0 0 8 2:2.3333333 5:2 51:2 52:1 1050:1 
0 0 0 0.02985936791348829 1.3475681999283657 1.1451922118069922 0 0 0 2:3.3076923 14:3 26:1 30:1 39:3 40:1 42:1 103:1 281:1 284:1 503:1 700:1 1926:1 1927:1 1928:1 1929:1 1930:1 1931:1 1932:1 1933:1 1934:1 1935:1 1936:1 
1.7239587167501027 0 0 0 8 7.3906594925683784 8 8 0 2:1.8 30:3 84:1 1937:1 
0 0 0 0 0 0 7.0815104296467641 0 8 1:1 2:3 5:1 83:1 1938:1 
0 0 0 0 0 0 4.9955672938330009 0.7134007233902363 0 2:3.4 9:1 30:2 182:2 1065:1 1067:1 1939:1 1940:1 1941:1 
3.7829347476478166 0.16392705245118777 0.8494427208006724 1.9022709378003482 0 4.3204031380700822 2.3171671354344952 0 1.9318231434668318 2:3.5 5:1 9:1 14:1 42:1 420:1 1942:1 1943:1 1944:1 
2.242923148459556 8 2.1422072516027879 2.891335322248755 4.4646609200913518 0 2.8638594075286461 1.7197172410446595 2.5302162282898446 2:3 4:1 9:1 14:4 16:1 23:1 30:1 34:1 39:4 42:1 156:1 272:1 624:1 1090:1 1521:1 1789:1 1938:1 1945:1 1946:1 1947:1 1948:1 1949:1 1950:1 1951:1 
0 0 0 0 0 0 8 0 0 2:4 30:1 145:1 
0 0 0 2.0918632411048241 0 0.65701576950564666 0 0 0 1:1 2:2.5263158 4:1 14:2 16:1 30:1 46:1 51:1 153:1 233:1 627:1 718:1 727:1 835:1 945:1 1826:1 1913:1 1952:1 1953:1 
8 8 8 0 8 8 8 4.0807992012508514 8 2:4 1537:1 
0.69896734592964371 3.4469942852756006 0 0 1.3416370762599741 0 3.6690869250310314 0 4.1896196727826887 2:2.2962963 13:1 14:1 16:1 23:1 26:2 30:2 40:1 42:1 46:1 51:2 52:1 54:1 82:1 89:1 93:1 117:1 134:1 506:1 1251:1 1456:1 1954:1 1955:1 1956:1 1957:1 
0 0 0 0 0 0 4.5281081572145769 0 0 2:2.7916667 9:1 14:1 26:1 30:2 39:2 40:1 89:1 107:1 156:1 253:1 262:1 310:1 325:1 385:1 467:1 1635:1 1958:1 1959:1 1960:1 1961:1 1962:1 1963:1 
6.0041593804888249 2.2156943679692529 0 0.80627427414617414 2.5626694019570442 3.9217130704056231 8 0.43685315291341958 2.315188758163389 2:4.25 627:1 1776:1 1913:1 1964:1 
8 8 8 0 8 0.06711386329656345 8 2.0505607407606501 8 2:2.1666667 9:1 14:1 26:3 42:1 46:1 268:1 497:1 1456:1 1965:1 1966:1 
8 8 8 8 1.0864792024790224 0.207954837684966 8 3.6070944120594857 8 2:4 20:1 1104:1 1829:1 1967:1 1968:1 
8 8 8 0 0 8 8 8 2.5467346287143227 2:3 9:1 1969:1 
8 8 2.317955548689969 2.7886094764091358 1.2858390311347463 8 8 0 8 2:2.8333333 39:1 107:1 263:1 467:1 757:1 1465:1 
0.66383120545262464 2.4242437255041493 0 0 2.3924126283309568 0.47764714215998277 2.2315425143886798 0 1.5713239739612672 2:3.0333333 4:1 9:3 26:2 39:2 52:1 107:1 151:1 153:1 156:1 196:1 272:1 373:1 454:1 569:1 713:1 835:1 878:1 1090:1 1311:1 1822:1 1970:1 1971:1 1972:1 1973:1 1974:1 1975:1 
0 0.28566849453985343 0 0 0 0 8 0 0 2:2.5 14:1 26:1 51:1 61:1 107:1 274:1 1358:1 1403:1 
1.1852414517598908 4.6570743916409114 3.5787216870946805 4.5656913545472584 5.7951705470449628 2.2481501321526363 1.2924029891000268 0.39932076484712353 2.5720836908629301 1:1 2:2.8333333 14:3 16:2 26:2 30:2 31:1 39:2 40:1 42:4 52:1 101:1 189:1 455:1 527:1 714:1 738:1 1197:1 1523:1 1976:1 1977:1 1978:1 1979:1 1980:1 1981:1 1982:1 1983:1 1984:1 
3.2180219789896984 0 0 0 0 0 8 4.9711647104913999 0 2:3.2 30:1 249:1 419:1 1451:1 1985:1 
0 0 0 0 0 0 7.3958868463417646 0 0 2:2.7142857 26:1 39:1 107:1 182:1 313:1 1321:1 1986:1 
4.9267814285819354 3.2087192666376465 0.45161869223605183 4.9747426130012249 8 5.2152746411482154 8 1.9423537993479345 0 1:1 2:2.5384615 9:1 30:1 40:1 42:1 57:1 78:1 107:1 120:1 123:1 135:1 487:1 1987:1 
8 6.8059874384729975 7.284278604677537 0.44172586825097276 7.241858401437236 7.2256019160990874 8 7.9628964251516834 4.0954039546116485 2:2.7 30:2 39:2 46:1 257:1 1823:1 1988:1 1989:1 1990:1 
8 7.7871775962127643 5.6571834399753405 0 0 5.0219824161023539 8 0 8 2:2.3333333 42:1 168:1 262:1 543:1 548:1 738:1 
5.3635170307069755 0 0 0 2.388952027646893 0 0 0 0.58512553853894123 2:2 5:2 26:1 30:1 39:1 40:1 42:2 84:1 1708:1 1991:1 1992:1 1993:1 
1.5042712085949266 5.2707217825146877 0 0 0.42945630086729092 0 2.8807377094021946 0 0.4131746141272884 1:1 2:2.8 51:1 1994:1 1995:1 1996:1 
0.2916697385999093 3.2185064190315278 8 3.6456557550440367 0 6.9205219665649897 3.9249897728297882 0.57895298882561996 4.615937487594497 2:3 9:1 14:1 78:1 240:1 1678:1 1829:1 1997:1 1998:1 
0.95574377313169778 0 2.948720247470404 0.54938723969039183 1.4630833198127386 0 0 0.91550908229843986 0.87439210017986224 2:3.1111111 9:1 14:2 16:1 28:1 30:2 37:1 39:1 49:1 151:1 1999:1 2000:1 2001:1 2002:1 2003:1 2004:1 2005:1 
8 5.0971926669586543 1.1018326239107854 5.347609848442616 5.2550615442187816 6.7708033015316902 2.6084361236689135 4.4280887294779703 5.6122458080002815 1:1 2:2.7428571 4:1 8:1 9:2 14:4 23:1 30:2 35:1 39:2 40:1 42:1 52:1 61:1 126:1 139:1 239:2 256:1 479:1 551:1 1070:1 1158:1 1726:1 2006:1 2007:1 2008:1 2009:1 2010:1 2011:1 
0 0 0 0 0 0 2.5016943397398497 0 3.9451641015010002 1:1 2:2.6470588 14:1 26:1 30:2 39:1 40:1 83:1 89:1 727:1 1076:1 2012:1 2013:1 2014:1 2015:1 2016:1 2017:1 
6.5248624161222191 0 0 0 0 1.9885622951893271 0 2.842324702973726 2.6224323371812828 2:3.0909091 14:1 20:1 23:1 30:1 36:1 42:1 137:1 2008:1 2018:1 2019:1 2020:1 
5.2133557427163826 5.0119527990667185 4.3989763791851137 0 5.4858050500754745 0.42592845120649253 8 4.9711433138532044 3.3371039134065046 2:2.6428571 13:1 14:1 26:1 30:2 40:1 42:1 84:1 452:1 762:1 1648:1 2021:1 2022:1 2023:1 
7.1569989287499238 4.9012116637334326 3.8001665692294981 1.0376723930531597 0 0 8 0 8 2:3.6666667 252:1 472:1 2024:1 
0 2.557797234577798 0 0 0 0 0 7.7473994639210568 7.1420373092472671 1:1 2:3.125 30:1 42:1 46:1 89:1 258:1 730:1 2025:1 
8 8 8 0 8 6.9458671206672129 8 4.9298607252679645 8 2:3 270:1 
8 7.9163439064321066 4.6089618229283609 0 3.8585730494533146 3.3728156950324784 8 0 1.6614474416205092 1:1 2:3.6 39:1 107:1 1060:1 2026:1 
0.52407261345479506 0 0 0 0 0 6.0539030616681817 0 0 2:3.4444444 30:2 107:1 134:1 1058:1 1142:1 2027:1 2028:1 2029:1 
8 0 0 0 5.9906449770685741 0 8 0 3.655916649092831 2:2.5714286 30:2 61:1 107:1 741:1 2030:1 2031:1 
3.5283906323907339 8 8 0 4.0110204252509138 8 8 3.5323167533097464 0 2:2.3333333 39:1 240:1 2015:1 
2.5800866145736943 0 0 0 1.112390346519077 0 8 3.0610960041605622 0 2:2.7692308 9:1 30:2 42:1 170:1 199:1 212:1 243:1 667:1 809:1 1197:1 1330:1 1985:1 
5.5237786288643029 4.7937185461859046 5.4823331349850477 4.9819416391317706 6.0013034793515212 1.8049443382252444 7.7833517886137278 1.0296494799905065 4.3814756517550668 2:2.95 9:1 14:2 16:1 39:1 46:1 52:1 265:1 468:1 624:1 791:1 1346:1 2032:1 2033:1 2034:1 2035:1 2036:1 2037:1 2038:1 2039:1 
0 8 3.4643752893458637 0.77276746603700253 8 1.5231871801158356 0 0 2.8032206397441741 2:3.375 9:1 14:1 40:1 73:1 1091:1 1147:1 2040:1 2041:1 
8 0 1.985249722039429 1.2025789514680201 6.083196302102639 0.53986447360136747 8 0 0 2:1.7692308 14:1 20:1 26:1 40:1 51:1 125:1 835:1 2042:1 2043:1 2044:1 2045:1 2046:1 2047:1 
8 2.2535052905632527 7.2332690678496121 0 0 0 8 0 8 2:3.3333333 26:1 663:1 2048:1 
8 0 0 0 0 1.278782042319492 0.18691272812722667 0.41826911701277053 1.0320126102768503 2:2.84 5:1 14:1 16:1 23:1 26:1 30:2 31:1 39:2 42:1 46:1 107:1 718:1 757:1 871:1 1301:1 1371:1 2049:1 2050:1 2051:1 2052:2 2053:1 2054:1 
4.2936120796601047 0 0 2.5694164521955956 0.38523947770038758 3.2214118106526386 1.2678353343546194 0 0 2:2.8888889 8:1 9:1 14:1 23:1 30:2 54:1 78:1 89:1 262:1 384:1 465:1 844:1 1849:1 2055:1 2056:1 2057:1 2058:1 
0 0 0 0 0.23047219274259298 0 0 0 0 1:1 2:2.7741935 4:1 14:3 25:1 30:1 32:1 36:1 37:1 39:2 40:1 42:2 182:1 202:1 240:1 348:1 435:1 566:1 730:1 835:1 1018:1 1233:1 1248:1 1257:1 2059:1 2060:1 2061:1 2062:1 
3.6842586382842013 0.49326453383206981 0 0.43879372816480749 5.7643413364326177 0 1.6652808832354526 2.0309219186755336 0 2:2.4482759 14:3 30:4 39:4 40:2 61:1 107:2 262:1 314:1 315:1 348:1 355:1 1235:1 2063:1 2064:1 2065:1 2066:1 2067:1 2068:1 2069:1 
5.1499225688477539 1.83919842023282 7.1752179457801173 0.60428936400062705 2.273224931733175 1.8610682301124435 8 0.018874300873168087 1.265171224510973 2:4.1111111 26:1 31:1 39:1 46:1 2070:1 2071:1 2072:1 2073:1 2074:1 
8 8 1.9341245793546895 0.53004366109439904 0.98156935383376198 0 8 2.9062032770405892 3.1820411659153036 1:1 2:3 9:1 30:1 212:1 2075:1 2076:1 
8 8 8 4.5347066978003658 4.795694846487474 4.8839257922306141 8 4.5858290028919599 8 2:4.6 20:1 42:1 2077:1 2078:1 2079:1 
2.9573705714573917 3.1918738850776309 3.8647180685520826 4.13554358405964 4.6462946149333906 3.7569564876616761 6.6513781638431855 4.3836353682872451 0.54468724743653629 2:2.8064516 9:1 14:2 30:3 39:3 46:1 61:1 93:1 107:1 207:1 272:1 379:1 467:1 699:1 714:2 924:1 977:1 985:1 1268:1 1556:1 1926:1 1991:1 2080:1 2081:1 2082:1 2083:1 
0 0 0 0 2.118952699009597 0 0 0 2.7307134130115731 1:1 2:2.8148148 5:2 13:1 14:1 16:1 23:2 26:1 30:1 40:1 51:1 89:1 126:1 134:1 265:1 289:1 384:1 385:1 467:1 1324:1 1339:1 2084:1 2085:1 2086:1 2087:1 2088:1 
0.78462448343458602 0.16501795871223285 0 0 0 1.4107816680179295 0 0 0 2:2.95 9:1 14:2 16:1 23:2 26:1 39:1 42:1 84:1 107:1 289:1 380:1 384:1 1324:1 2084:1 2089:1 2090:1 2091:1 2092:1 
3.5348310606216615 0 1.4888218617502136 3.2863870448190968 2.0282528055220586 0.24658463803877206 5.5154442035045959 4.9195017450614706 2.9945921347230833 2:2.5789474 8:1 14:9 20:2 26:4 30:5 107:1 272:1 417:1 1083:1 1319:1 1877:1 2093:1 2094:1 2095:1 2096:1 2097:1 2098:1 2099:1 2100:1 2101:1 2102:1 2103:1 
3.9086188237118766 0.9036937342282011 0.47481198520376949 0 0 1.6769725237814208 8 4.4315155514068696 5.0652044326231218 2:3 783:1 1084:1 
0.38883852800346835 0 0 0 0 0 0.99139818643237643 0 1.7136992229141537 2:2.53125 9:2 14:3 20:2 30:2 40:2 42:1 61:1 83:2 89:1 265:1 272:1 498:1 835:1 844:1 921:1 1985:1 2104:1 2105:1 2106:1 2107:1 2108:1 2109:1 2110:1 2111:1 2112:1 
3.8392840460908428 6.7897935101616094 1.9682009401220812 0 5.0900930945767211 3.4036572511170182 8 5.6587204054660241 1.5300841288518245 2:1.8333333 9:1 39:1 40:1 51:1 2113:1 2114:1 
1.8469238364323728 2.0920848806151326 2.9954204105219806 0 0 0 7.1693521577358892 0 6.7205128640695788 2:5 51:1 482:1 1888:1 2115:1 2116:1 
4.455084766068361 1.2918165505338994 8 0 0 1.3824662321035912 8 4.654284988060077 0 2:3.1666667 14:1 26:1 467:1 1044:1 2117:1 2118:1 
1.6635593917216318 0 0 0 0.82815343657558838 0 0.80017004402681979 0 0 2:2.8125 4:1 9:1 23:1 26:2 30:1 32:1 37:1 39:3 40:1 46:1 84:1 91:1 651:1 667:1 730:1 835:2 962:1 1233:1 2119:1 2120:1 2121:1 2122:1 2123:1 2124:1 2125:1 2126:1 2127:1 2128:1 
8 0 2.8239491862100601 0 0 0 8 0 0 2:4 83:1 562:1 1690:1 2129:1 
0 0 0 0 0.62159482527051368 0.46760666928579919 2.5410176252074339 0 0 2:2.6190476 4:2 14:2 30:2 36:1 39:1 51:1 482:1 672:3 1096:1 1286:1 1432:1 1638:1 2130:1 2131:1 2132:1 2133:1 
3.376831613550328 1.9767867039373885 3.0583024254815441 1.6698045331552829 7.6534904292719501 8 3.5143534248190402 8 0 2:3 9:1 14:1 26:1 30:1 40:1 477:1 497:1 551:1 650:1 2134:1 2135:1 2136:1 
5.2133122306738713 2.1780513431690118 1.5404101758245967 1.8713322681539231 3.0399287270727586 0 1.0756793692420306 0 7.2808951834958169 2:3.2173913 9:1 14:1 20:1 22:1 26:1 30:1 39:1 42:1 61:1 207:1 396:1 1021:1 1086:1 1191:1 1434:1 2137:1 2138:1 2139:1 2140:1 2141:1 2142:1 2143:1 2144:1 
2.7701973226522565 4.0592854359729058 7.8976425764049516 3.2392888635835138 7.4816516784544884 4.2215586458824186 1.3437417450889428 0 4.880532035098919 2:2.3846154 8:1 9:2 14:2 16:1 20:2 26:2 30:2 39:1 42:2 316:1 490:1 624:1 703:1 1397:1 1662:1 1937:1 1978:1 2145:1 2146:1 2147:1 
2.2976717144705954 1.9256152821869708 3.5880528275948698 2.1285978069195846 2.7305057926804861 0.85462200042347425 3.7289679141148744 1.6807907852689103 3.8182415585211702 2:2.6818182 5:1 9:1 14:5 30:1 39:1 40:1 42:1 46:1 168:1 272:1 316:1 1647:1 2148:1 2149:1 2150:1 2151:1 2152:1 2153:1 
0 1.0585926884112784 5.2050686994922231 0 0 0 0.81724129316517857 0 0 1:1 2:2.9 5:1 14:1 42:1 106:1 153:1 640:1 2157:1 2158:1 2159:1 
0 0 0.80777157100978592 0 1.2509184744536095 6.2495655752204389 0 2.0264784615073537 5.933181780804123 2:2.3529412 9:1 14:3 30:1 39:2 42:1 57:1 168:1 490:1 500:1 503:1 743:1 1568:1 2160:1 2161:1 
0 8 3.5868436811006568 0 8 7.3982473317324553 8 0 8 2:2.375 14:1 31:1 39:1 51:1 91:1 136:1 272:1 730:1 
8 8 8 0.49542520914725674 8 0 7.6557132917645134 0.92448182972907333 8 2:2.8181818 5:1 9:1 26:1 46:1 61:1 151:1 174:1 726:1 2162:1 2163:1 2164:1 
5.2049234410077814 0 0 0.49972987423458559 5.7372277147631019 5.4421533882140922 8 6.1616536040041225 0 2:2.25 9:1 30:1 42:1 78:1 262:1 2165:1 2166:1 2167:1 
3.1136630810782884 2.7840277842975651 8 0 2.0219395931024922 6.1014264377468912 7.5273683725963707 0.34316409107450974 3.7704157729802699 2:2.8333333 14:1 39:1 42:1 1216:1 1384:1 2168:1 
0 5.3821633782286318 0 1.5505611656459162 2.4981336532719189 0 3.9460438002227671 0 1.0474349080340239 2:2.5714286 14:1 40:1 51:1 84:1 504:1 730:1 2169:1 
7.8720450405922628 3.1085895135748736 8 0.63723377237661227 8 2.1391700639182019 2.6836438945209027 0 7.7724001883918783 2:3.2 42:1 103:1 2170:1 2171:1 2172:1 
0.7838510656537806 0 0 0 0 0 0 0 7.9310085251979734 2:3.1333333 14:1 26:1 30:1 46:1 51:1 54:1 83:1 94:1 151:1 730:1 1319:1 2177:1 2178:1 2179:1 2180:1 
0 0 8 0 0 0 8 0 8 2:1.7272727 14:2 42:2 70:1 103:1 122:1 168:1 240:1 241:1 262:1 
1.7080810457306277 2.0719826780021977 2.9664189498957509 2.5782879892025661 1.4958754726975314 0 1.1544737645209726 0 2.4177640785382382 2:2.4516129 4:1 14:5 20:1 23:1 25:1 39:2 42:1 46:2 70:1 151:2 314:1 438:1 490:1 567:1 835:1 1186:1 1233:1 1300:1 2181:1 2182:1 2183:1 2184:1 2185:1 2186:1 
3.8361196071189023 0 8 0 8 0 6.7550107815060461 0 3.0448978835989502 2:2.2 5:1 14:1 26:1 30:1 42:1 78:1 240:1 304:1 2129:1 2187:1 
4.9958023205966615 4.5227402205061544 6.1818798981380807 0.016670011493160809 0.25206177029463689 3.6300333831916478 8 6.1650866813307585 4.171908003651577 2:3.4 14:2 898:1 2188:1 2189:1 
8 2.1995625323730552 0.43445865507555737 0 2.1088645448508783 0 4.550110806823267 0 0 2:2.8571429 5:1 14:1 42:1 107:1 776:1 2190:1 2191:1 
3.7125255522295069 6.1352036308037139 0.54529203531684556 4.7568204424346785 4.4376824944873832 2.8996182655606697 0 0 6.531459342866472 1:2 2:2.6486486 5:1 9:1 14:6 16:4 30:1 39:2 42:2 51:1 52:1 84:2 107:1 163:1 490:1 727:1 1368:1 1577:1 1823:1 2179:1 2192:1 2193:1 2194:1 2195:1 2196:1 2197:1 
0 0 2.6978750676820473 1.5860872121853566 3.528856930040368 0 2.0020616598789651 0 1.0944994772130647 2:2.6153846 9:1 13:1 14:4 16:1 26:5 30:1 40:1 42:5 51:1 52:1 203:1 239:1 240:1 484:1 490:1 660:1 772:1 925:1 1322:1 1424:1 1577:1 2198:1 2199:1 2200:1 2201:1 2202:1 2203:1 2204:1 
1.0580430045366607 0 0 0 2.3815354757272091 0 3.0097679207776675 0 0 2:3.1333333 14:1 26:2 30:1 57:1 61:1 84:1 130:1 141:1 325:1 575:1 885:1 1343:1 2163:1 2205:1 
5.0426735271014689 8 5.5663216821506518 3.2290083792407858 8 0 8 0 8 2:2.6818182 14:2 23:1 26:2 39:1 40:1 51:2 107:1 320:1 348:2 379:1 467:1 551:1 854:1 1509:1 2206:1 2207:1 2208:1 2209:1 
6.6610142516833788 4.1013951223006133 1.8354171286221699 2.5972494131618968 2.7440285113002729 3.1392010429950168 8 2.3337886418065725 3.681625697442843 2:3.6666667 14:1 42:1 1776:1 2210:1 2211:1 2212:1 
6.9727284508904663 5.1729729157475983 2.6528383086806118 2.5966155503040089 7.5581861390321459 1.1867500134162996 4.501264761473867 1.0994319323219559 2.1123351908054695 1:1 2:2.5217391 14:6 23:1 26:1 39:1 40:1 42:1 91:1 107:1 532:1 956:1 1322:1 2173:1 2213:1 2214:1 2215:1 2216:1 2217:1 
8 0 0 0 8 8 0 0 0 2:1.4285714 4:1 30:1 103:1 663:1 672:3 
8 0 1.5996272266237783 0.75822667275578493 0.51391991804779025 0.56567683296346116 0.29678244261906372 0.33209680266655695 1.5015442015567739 2:3.8666667 14:1 16:1 20:1 23:1 30:2 46:1 189:1 1319:1 2218:1 2219:1 2220:3 2221:1 
1.8097523084142035 6.1292527110119774 3.8550602525744386 7.4982882161671709 4.7325558624537525 2.2417848068530866 0 0 8 2:2.4615385 4:1 9:1 14:3 39:2 42:1 46:2 51:1 61:1 103:2 272:1 289:1 314:1 596:1 1010:1 1322:1 1849:1 2219:1 2222:1 2223:1 2224:1 2225:1 
0 0 0.6397717911293942 0 7.1589728293046813 2.0054440022309681 8 0 0 2:2.4705882 4:1 14:1 23:1 26:1 30:1 39:1 197:1 314:1 672:3 1319:1 1322:1 2226:1 2227:1 2228:1 2229:1 
0.80227110411203917 0.57450378193469287 0 0 0.86614992545316194 0 0 0.1526283003302904 0 2:2.8484848 14:7 20:1 26:1 30:1 39:1 40:1 89:1 107:1 252:1 314:1 556:1 570:1 666:1 1070:1 1163:1 1322:2 2186:1 2230:1 2231:1 2232:1 2233:1 2234:1 2235:1 2236:1 2237:1 2238:1 
1.4120224929976855 0 2.8839037254008355 0.21670736271928662 0 0 3.4404898704241793 0 0 2:2.5405405 4:1 9:1 14:3 23:1 25:1 26:3 32:1 36:1 37:1 39:2 40:2 42:2 46:1 139:1 202:1 272:1 835:1 969:1 1146:1 1233:1 2239:1 2240:1 2241:1 2242:1 2243:1 2244:1 2245:1 2246:1 2247:1 2248:1 
7.9436860805488489 5.5052845387806038 5.5340228102072819 5.2127721674643146 3.9383171863467541 3.199991725056285 8 5.8685067892778777 6.7140171753146225 1:1 2:2.5833333 14:2 20:1 30:1 40:1 46:1 124:1 347:1 548:1 2249:1 2250:1 
0 0 0 0 0 0 1.984561913581335 0 8 2:3.3333333 5:1 23:1 51:1 141:1 2251:1 2252:1 
0 0 0 0 0 3.5600971193297259 8 0 0 2:2.75 26:1 727:1 1462:1 1937:1 
3.4470135923326541 0 0 0 0.048845082105426471 0 5.5993347684938293 0 0 2:2.3125 9:1 13:1 26:1 30:3 51:1 54:1 73:1 78:1 313:1 419:1 556:1 684:1 2253:1 2254:1 
8 0 0 0 0 1.6485708762175662 6.6881915694177758 0 0.94606354409488158 2:3.1176471 16:1 23:1 26:1 30:3 107:1 191:1 262:1 395:1 397:1 456:1 783:1 1229:1 1635:1 1937:1 2255:1 
3.9723233602718646 3.7860966617452481 2.913257600185593 3.1573091015195671 4.7386793362738793 3.3745680840529717 8 4.7007329374533553 2.300229932738759 1:1 2:2.4117647 14:4 16:1 30:2 39:2 272:1 2180:1 2256:1 2257:1 2258:1 2259:1 2260:1 
6.2909933907538607 6.0660189641676103 0 4.0966273770394093 2.4971010725939524 1.2323648982154629 6.2581875559971358 0.67926182681615044 0 2:2.7333333 9:3 14:2 30:1 39:2 40:1 42:1 46:1 61:1 156:1 193:1 395:1 463:1 562:1 623:1 656:1 754:1 873:1 894:2 1155:1 1320:1 2261:1 2262:1 2263:1 2264:1 2265:1 
0 0 0 4.329495583831954 1.6295416738107149 0 0 1.0503751520450577 0.17740460441062902 2:2.7058824 14:3 30:2 42:1 46:1 89:1 144:1 145:1 1337:1 2038:1 2266:1 2267:1 2268:1 2269:1 2270:1 
8 0 8 0 8 8 8 0 0 2:2.5 5:1 240:1 
8 6.7307772719491652 3.8048145463935201 0 8 5.1193266301552898 8 1.6432137050038687 0 1:3 2:2.9090909 8:1 14:1 26:1 61:1 258:1 418:1 1577:1 2271:1 
8 0 0 0 0 0 0 0 0 2:3.1333333 5:1 14:1 20:1 30:1 46:1 78:2 419:1 471:2 597:1 814:1 947:1 1146:1 2272:1 
0 8 7.7001565228774425 0 0 8 8 0 0 2:1.6666667 9:1 46:1 51:1 52:1 243:1 726:1 
0 1.212257397498457 0 0 0 0 6.6978056984444923 1.4978368240159783 1.4605006117378134 2:3.3333333 20:1 471:1 882:1 
0.99992143164055403 0 1.5738326278368437 3.0591494808489901 7.1470497662738719 0.18069402914859201 0 1.7425964390551072 3.2087560201074115 1:2 2:3.0588235 8:1 9:1 14:2 20:1 26:1 30:1 39:2 46:1 89:1 106:1 153:1 175:1 196:1 239:1 265:1 289:1 476:1 882:1 1158:1 2273:1 2274:1 2275:1 2276:1 2277:1 2278:1 2279:1 2280:1 2281:1 2282:1 2283:1 
8 8 8 5.028450854039809 4.2339287003062465 8 8 5.9602962814461122 1.9851154462986 2:3.3333333 14:1 548:1 2284:1 
1.0211156763078839 0 1.7007719666693022 1.0541660905793713 3.3583559723672201 0 4.6873343122734825 0 2.7509317388253414 1:1 2:2.5882353 5:2 9:1 14:3 16:1 23:1 26:7 30:1 39:1 42:1 84:1 107:1 1071:1 1343:1 1909:1 1916:1 2285:1 2286:1 2287:1 2288:1 2289:1 2290:1 2291:1 2292:1 2293:1 
7.6436539115434279 1.6234232573957841 8 4.169906517502727 5.8390289488333682 5.8681232788569151 2.0720509706711634 0.16674580357065222 8 2:3.4285714 9:1 23:1 107:1 178:1 1508:1 2296:1 2297:1 
0 5.7604219624042896 4.0627525878925432 4.4304765417988889 3.755989577001595 1.719425965240736 2.2137702604463789 0 4.297347242286425 2:4 39:1 51:1 130:1 134:1 1916:1 2298:1 
2.7343192382807011 0.4086717062142346 0 0 0 0.26576362257175917 3.7592225746923864 0.54543650709205593 0 2:3.5294118 14:1 30:1 39:2 61:1 149:1 212:1 741:1 1556:1 1888:1 2299:1 2300:1 2301:1 2302:1 2303:1 2304:1 2305:1 
8 8 8 0 0.20147527034102705 0 8 8 8 2:5 1004:1 
0 5.4185678676875 3.4213441794973023 0 0 2.2086474402267613 2.9911636873283465 1.6857128118891325 0 2:2.5 14:1 46:1 89:1 111:1 819:1 2306:1 
0 0.68529172538436667 4.3336596587933922 0 0.15031869429021097 0 8 0.35383595163808296 2.7788117133944792 2:2.9 14:2 20:1 26:1 36:1 2307:1 2308:1 2309:1 2310:1 2311:1 
0.78150652806152587 0 3.2502745564108206 0 0 0 8 0.86885442257253986 0 2:3.5555556 30:1 42:1 83:1 436:1 741:1 926:1 2312:1 2313:1 2314:1 
4.4169831574821483 0 0 0 0 0 2.0710195378084433 0 2.1322194605184284 2:3.7142857 14:1 22:1 30:1 40:1 46:1 1004:1 1147:1 1657:1 1862:1 1865:1 2315:1 2316:1 2317:1 2318:1 
8 0 8 6.516221625192264 8 8 5.4383109533380507 0 8 2:2.7142857 26:1 52:1 57:1 94:2 103:1 2319:1 
5.9271991182558219 0.091891936675308511 2.8258016793403979 0 4.3066976843586309 0 8 0 0 2:2.4 26:1 40:1 61:1 252:1 2320:1 
7.7592535442053308 7.9826203277830672 0 1.7877859553534714 8 0 0 0 8 2:2.4 14:1 26:1 39:1 40:1 103:1 141:2 182:1 624:1 2321:1 
1.00522454121669 8 8 0 0 1.3362662706988973 8 4.4792163142668979 8 2:3.25 14:1 906:1 1689:1 1694:1 
0 8 8 0 8 8 8 0 5.2640418079382352 2:2.5 35:1 548:1 
0 3.7035568290657315 4.8304980486922364 0 0 0 8 0 8 2:5 471:1 2322:1 
8 8 8 5.7709310585900511 8 1.9818847667590456 8 0 8 2:3 16:1 23:1 40:1 52:1 174:1 809:1 2323:1 
8 8 8 1.656968285962533 8 8 8 4.1608358789115698 2.4669779451931384 2:3.5 548:1 2324:1 
0 0 0 0 6.4116637671837076 0 0 0 6.0398113294628679 2:2.8333333 5:1 9:1 52:1 83:1 1779:1 2325:1 
8 8 8 1.1555294471909627 8 3.6521471362400684 8 1.5465656430846535 8 2:3.25 26:1 40:1 1147:1 2326:1 
0 0 0 0 4.5362855643721316 0 8 8 0 2:2.1428571 30:4 61:1 1052:1 2327:1 
5.0887840150653885 3.3963092296933475 0 2.0896899847287367 0.22569324635523169 0 0.73797918142460905 2.5603478413934422 2.292020080791906 1:1 2:3.1153846 14:6 30:1 40:1 42:2 49:1 73:1 113:1 151:1 533:1 543:1 575:1 2328:1 2329:1 2330:1 2331:1 2332:1 2333:1 2334:1 2335:1 
7.1402964998336085 8 8 6.7767097023911971 7.3777838572453502 7.1742100869144121 8 3.4938114047009083 8 2:3.3333333 39:1 42:1 854:1 1336:1 2336:1 2337:1 
3.7095566701831397 6.1218937756852307 1.3851531285494294 0 7.5928493307372955 0 4.5138480723389538 1.1406154391291483 0.63242422873727888 1:1 2:2.6 4:1 5:1 23:1 30:1 39:1 46:2 120:1 591:1 2195:1 2338:1 2339:1 2340:1 2341:1 
8 8 8 0 8 8 8 8 8 2:5 1004:1 
7.0959266808253618 0 0.38230969019619399 0 0.47651297260131531 2.9802602510631564 3.8447447406341735 1.2425600366343716 0 1:1 2:2.4482759 9:2 14:3 23:2 30:2 39:1 42:1 52:1 61:1 107:1 191:1 835:1 1090:1 2314:1 2342:1 2343:1 2344:1 2345:1 2346:1 2347:1 2348:1 2349:1 2350:1 2351:1 
4.631926390990877 4.9353198047593434 0 4.0551651845233279 8 0.88380359426692834 2.6285755286304577 0 1.8776049735553304 2:2.3947368 4:1 9:1 13:1 14:2 20:2 23:2 26:2 30:2 39:1 40:3 42:1 46:2 191:1 230:1 658:1 844:1 956:1 957:1 1451:1 2251:1 2352:1 2353:1 2354:1 2355:1 2356:1 2357:1 2358:1 2359:1 2360:1 2361:1 
5.2095674230736453 3.2657981030154892 5.087863410608934 3.5734432597083878 4.8569738079247307 2.0300494534725146 3.5583268075693959 0 4.993155549984996 1:1 2:2.9117647 9:1 14:2 39:2 40:2 42:2 46:1 103:1 107:1 141:1 153:1 182:1 314:1 470:1 472:1 532:1 689:1 794:1 2362:1 2363:1 2364:1 2365:1 2366:1 2367:1 2368:1 2369:1 2370:1 2371:1 2372:1 2373:1 
4.8585284806238223 3.3616653593711274 0 0 0 2.9611269738951704 0 0 0 1:2 2:3 8:1 14:3 20:1 26:1 30:1 31:1 39:2 57:1 61:1 83:1 107:1 191:1 335:1 408:1 487:1 551:1 556:1 727:1 983:1 1965:1 2374:1 2375:1 2376:1 2377:1 2378:1 
5.5913866127101857 0 0 2.0164454443050621 2.4236913893246292 0 6.6324434172538425 2.595933050689001 0.89024788489360651 2:2.8 14:2 26:1 30:3 40:1 663:1 714:1 809:1 2379:1 2380:1 2381:1 2382:1 2383:1 
5.9274447951482543 1.6495568252446757 3.3950861466880951 4.6324627365825108 4.3300639952261015 6.1311019115925811 6.1543547285635221 3.5243853540031687 4.9488270938643906 2:2.8421053 4:1 14:3 23:1 26:1 30:1 36:1 39:1 40:1 423:1 1018:1 1713:1 1953:1 2384:1 2385:1 2386:1 2387:1 2388:1 
8 8 4.939646711917943 8 8 0 5.1583174501995899 0 0 2:2.5454545 14:1 26:2 30:1 40:1 151:1 201:1 216:1 1043:1 1321:1 2389:1 
4.4941791883932476 3.6978497708792624 6.1149978782127734 1.154425925329432 5.3129415131295437 2.429661245378941 6.1380134485695788 3.5481690269292772 2.276582713608295 2:3.1538462 9:1 14:1 23:1 26:1 30:1 39:1 42:1 1234:1 1365:1 2390:1 2391:1 2392:1 2393:1 
5.4566089519638918 3.7207069180941112 3.333721586772219 5.0414455458451979 7.4750395832800178 2.4372018414566874 1.6990565661680639 1.1938072958123789 2.6729311849675081 2:3.1612903 8:1 14:4 20:2 23:1 26:1 30:1 39:2 40:1 46:1 107:1 141:1 183:1 240:1 262:1 1341:1 1410:1 2394:1 2395:1 2396:1 2397:1 2398:1 2399:1 2400:1 2401:1 2402:1 2403:1 
6.8130864192007996 8 6.9372062088904647 8 6.6756902342050006 3.8067262969317928 3.151518911790224 0 5.0204478327308708 2:2.0833333 5:1 9:1 14:3 20:1 23:1 26:2 39:1 41:1 42:1 46:1 89:1 151:1 201:1 223:1 947:1 2350:1 2404:1 2405:1 2406:1 2407:1 2408:1 
0 1.1497859790366169 0 0.41767887485532407 0 0 0.91922938129832399 0 0 2:3.3888889 20:1 30:1 40:1 243:2 262:1 395:1 894:1 1074:1 1148:2 1758:1 2409:1 2410:1 2411:1 2412:1 2413:1 2414:1 
7.4360130532138777 6.4653602026702046 8 0 8 6.6086585757023784 8 6.0435741980851709 8 2:4 642:1 
7.7555061863423846 4.2539999602054577 0 6.7924327904860631 6.0665864530971589 7.8155785007651781 7.3380870637263662 0 2.2386677528658563 2:2.8 9:1 14:1 42:1 73:1 107:1 189:1 313:1 1074:1 1076:1 2415:1 
0.35492453395679824 0 0 0 0 0 0 0 0 2:2.3428571 4:1 5:1 9:2 14:4 16:1 20:1 25:2 26:1 36:2 39:1 40:1 41:1 42:1 46:1 89:1 129:1 158:1 1159:1 2350:1 2404:1 2405:1 2416:1 2417:1 2418:1 2419:1 2420:1 2421:1 2422:1 2423:1 
4.3431323400423798 0.91876817775131037 0 0 3.7083311263947678 0 8 6.0575370454196591 0 2:2 9:1 2427:1 
0.48328978024719588 0 0 0 2.0627433705501446 0 2.9836931356451908 0 0 2:2.3076923 4:1 25:2 26:1 36:2 40:1 42:3 82:1 84:1 89:1 151:1 253:1 314:1 341:1 395:1 594:1 873:1 894:1 1343:2 1673:2 2428:1 
3.8583213714264124 2.5140772638619109 0.35590365560688414 5.0524248610416329 2.5459282284084943 0 7.1157471336136489 0 2.857064920467737 2:2.6785714 14:1 20:2 26:2 30:3 39:4 40:1 83:1 197:1 240:1 467:1 1432:1 1521:1 1732:1 1798:1 1989:1 2334:1 2429:1 2430:1 2431:1 2432:1 2433:1 
8 3.5843104824899514 2.9678363666929148 0 6.4205501290477507 0 3.0562431596894553 0 1.1794364487908415 2:2.5217391 14:2 26:1 30:3 39:2 40:2 42:1 54:1 70:1 107:2 657:1 704:2 1557:1 2434:1 2435:1 2436:1 2437:1 
1.8040804646383388 5.6276714697500765 1.1812788451429757 1.1141433704277492 1.296839762225414 0 8 0 2.6700415758472289 2:3.4761905 14:3 20:1 23:1 39:1 42:1 52:1 141:1 149:1 325:1 498:1 575:1 1268:1 1556:1 2438:1 2439:1 2440:1 2441:1 2442:1 2443:1 
1.8669637178209122 5.7694191320675827 5.1710796889522355 0.80740382494979723 2.1481139200401298 3.4117679233715554 8 2.6309583837720396 7.4741265133752606 2:2.8571429 42:1 151:1 467:1 1553:1 2444:1 2445:1 2446:1 
7.167443581978743 6.0037458338611236 4.1299984851355536 2.5719848061949269 4.1338627328431921 6.1070751372573815 6.7846962246045148 1.0613651975338909 5.1735383569438493 1:1 2:3.15625 14:6 20:1 26:2 30:2 31:1 39:1 380:1 384:1 422:1 560:1 575:1 1256:1 1268:1 1556:1 1666:1 2447:1 2448:1 2449:1 2450:1 2451:1 2452:1 2453:1 2454:1 2455:1 
8 8 8 2.0830261526212608 8 8 8 7.1119965269722263 8 2:3 14:1 42:1 2456:1 2457:1 
3.4834793997250921 4.986871128814566 8 0 5.5979431222230494 0 8 0.91465091628003503 6.6205761560705216 2:3.4 26:1 764:1 2167:1 2458:1 2459:1 
8 0 4.1126526639559779 0 8 0 8 0 8 2:2.6666667 14:1 26:1 30:1 31:1 103:1 241:1 265:1 395:2 2464:1 2465:1 2466:1 
8 4.6875977343653821 0 0 0 0 8 0 0 2:2.5 39:1 75:1 
1.0239331306030723 0 0 0.52687474103249177 0 6.9161272252384691 0 0 0 2:2.6071429 4:2 14:4 30:2 36:1 39:2 51:1 52:1 436:1 482:1 532:1 667:1 672:3 726:1 727:1 828:1 2467:1 2468:1 2469:1 2470:1 2471:1 
8 3.5965927994565963 8 0 7.4651040379346627 3.1747019560714533 8 8 8 2:3.3333333 42:1 715:1 2472:1 
4.0576539392295228 3.3895106994277144 5.3872028918481298 0 4.217230004150089 6.1368826181469514 0 8 4.1657927626356779 1:1 2:3.3333333 4:1 14:2 42:1 89:1 155:1 224:1 225:1 229:1 551:1 676:1 1690:1 1699:1 1768:1 2251:1 2473:1 2474:1 
2.9415744217195057 2.8133902982378829 2.5365757808249532 0.34449648613116779 0 0 2.1712781438473412 0 6.0274929482077431 2:3 9:1 14:2 39:1 46:1 51:1 81:1 1730:1 2475:1 2476:1 2477:1 2478:1 
2.0003794163162985 1.3661126276931201 0 0.0090845805074758028 1.6236638959584042 0 8 3.8235286910931023 3.2912420289605064 1:1 2:2.6666667 14:2 26:1 30:3 39:1 42:1 122:1 243:1 313:1 395:1 472:1 983:1 1090:1 2479:1 2480:1 2481:1 2482:1 2483:1 
1.2698997016746625 0 0 0 0 0 0 0 6.3171142498693857 1:1 2:3.25 8:1 9:2 16:1 26:2 30:1 42:1 52:1 61:1 83:2 84:1 107:1 680:1 810:1 1459:2 1862:1 1865:1 2484:1 2485:1 2486:1 
0 3.8975907668826366 0 0 0 0 3.2750059231141311 0 3.2234634455370625 1:2 2:2.4666667 5:2 14:3 16:1 30:3 39:1 40:1 42:2 57:1 61:1 107:1 109:1 122:1 359:1 395:1 1674:1 2481:1 2487:1 2488:1 2489:1 2490:1 2491:1 2492:1 
3.8224490589901432 0 0.91278441267716082 2.7233821897145334 8 0 0 0 6.1049895817204698 1:1 2:2.8846154 5:1 9:2 14:1 30:1 39:1 40:2 42:1 61:1 103:2 151:1 168:1 265:1 543:1 623:1 789:1 898:1 1368:1 2491:1 2493:1 2494:1 2495:1 2496:1 
2.1870685153852962 3.0488147738111779 0 1.4742104596796433 8 5.2262349900339524 0 0 4.2595502531780092 2:2.6428571 5:3 9:1 14:3 30:1 39:3 42:3 51:1 106:1 262:1 329:1 718:1 1076:1 1595:1 2198:1 2497:1 2498:1 2499:1 2500:1 2501:1 2502:1 
1.5284684272264946 3.9321090763141147 1.546913768934058 2.4774238881728197 2.3423973269745804 4.1804438057298379 0 0 5.2140619877536762 1:1 2:2.88 9:1 16:1 30:1 39:1 51:1 61:2 89:1 125:1 240:1 265:1 272:1 283:1 420:1 422:2 1459:1 2205:1 2503:1 2504:1 2505:1 2506:1 2507:1 2508:1 
0 8 2.3882421716417457 0 0 0 2.8613916746236163 0 6.0529125712455425 2:3.5 39:1 83:1 2509:1 2510:1 
2.2581468454671088 0.24592310568453796 1.8522674086943822 2.614726823242433 1.7871703278563125 0 6.6561092244869329 0 1.3652287474582623 1:1 2:2.7857143 9:1 14:1 20:1 26:2 30:1 40:1 84:1 107:1 240:1 262:1 314:1 620:1 639:1 684:1 1509:1 1844:1 2511:1 2512:1 2513:1 2514:1 2515:1 2516:1 2517:1 2518:1 2519:1 2520:1 
3.0719040209063686 4.653370570303589 3.611826979953384 0 0 0 8 0 3.4769487698239319 2:3.5 40:1 51:1 2521:1 2522:1 
6.2318474704486606 5.1918582528999337 5.4036822534161368 0.59619913452038042 3.5231587056400238 0.47459811742321267 4.9044169656558863 0 8 2:2.5 16:1 39:1 51:1 125:1 178:1 551:1 2052:1 2523:1 
0 0 1.531401984426499 0.59549207428347006 0.43949954242990086 0 0 0 2.16989449008687 2:3.45 9:1 14:2 26:1 30:1 39:2 178:2 252:2 419:1 1451:1 2299:2 2524:1 2525:1 2526:1 2527:2 
0.078351123249624094 1.9644222803671765 2.9097672292392329 0 6.015217567847194 0.57251918809353897 2.6601978113786866 0 0 2:3.3333333 16:1 26:1 39:1 89:1 1127:1 2532:1 2533:1 2534:1 2535:1 
2.9932389713111287 0 0 0 3.3177907747806836 0 0 0.34064635660866954 0.10433060936876434 1:1 2:3.1212121 5:2 8:1 9:2 14:3 26:1 30:2 40:1 42:3 61:1 252:1 352:1 528:1 1052:1 2023:1 2144:1 2536:1 2537:1 2538:1 2539:1 2540:1 2541:1 2542:1 2543:1 2544:1 2545:1 
0 0 0 0 0 0 0.4065217491052634 0 0 2:3.5714286 14:2 30:1 145:1 2532:1 2546:1 2547:1 
8 8 0 0 8 0 8 0 8 2:4 1776:1 2548:1 
6.2916237834586815 8 8 0 8 8 8 0 8 2:2.3 9:1 14:1 51:2 107:1 109:1 422:1 854:1 2549:1 2550:1 
3.4534735534699887 2.8096872834840081 0 1.469464350398388 2.0093006856387516 0 1.2340890133938194 0.60333126987254271 2.1286744355127993 2:2.9259259 4:2 14:2 25:1 26:1 30:2 36:1 40:2 46:1 49:1 107:1 450:1 604:1 623:1 1693:1 2525:1 2551:1 2552:1 2553:1 2554:1 2555:1 2556:1 2557:1 2558:1 
5.5381512000811259 0 1.0555267755953435 0 0 0 4.7281368130127088 0 0.18360986685677461 2:3 26:1 30:1 39:1 61:1 252:1 456:1 648:1 766:1 2557:1 2559:1 
8 8 8 4.5005469039679298 1.8345798084303255 7.0602830118005162 8 8 8 2:3.2 30:1 120:1 153:1 1346:1 2560:1 
5.5100882474285013 7.8652581813473299 1.9308885303507128 0 0 1.9996923681886762 8 0.28714791361733377 3.9522844053439532 2:3.25 888:1 1307:1 2561:1 2562:1 
3.2713898866864608 0 0 0 0 0 1.1388183510978378 0 0 2:2.75 5:1 30:1 1084:1 2563:1 
8 8 5.9226923279327481 1.1951244394066267 7.3791853124006659 8 8 6.7710648552346084 4.0174550016942963 2:2.8 14:1 20:1 39:1 2564:1 2565:1 
8 8 8 2.0674018336250795 0 5.9355875999715879 8 4.150393990073332 7.7833088857967265 2:4 126:1 2566:1 
8 8 8 0 8 8 8 7.3275742851222825 8 2:3 9:1 2567:1 
8 7.9115741651310705 0 0 0 2.8522642565936618 8 3.9470887985575209 1.5284984227863683 2:2.2857143 14:1 30:1 42:1 107:1 153:1 1673:1 2052:1 
6.4890744202513346 7.2070176279615925 8 8 0 0 8 0 1.7343303040017275 2:2.5 14:1 26:1 40:1 46:1 212:1 623:1 2568:1 2569:1 2570:1 2571:1 
8 8 6.9122333146210755 0 8 2.270505450291636 8 0 1.6576073571866914 2:3.3333333 107:1 1451:1 2572:1 
8 8 0 0 3.1178866487641299 0 8 0 8 2:4 22:1 
0 0 0 0 1.4923977309636449 0 1.2098414834970648 0 2.5693423137801008 2:3.6363636 14:1 26:1 30:1 39:1 304:1 1648:1 2299:1 2573:1 2574:1 2575:1 2576:1 
7.3005339247342977 0 3.1668662780714176 3.0020638170744074 7.3227447978052993 5.6078887590630888 8 4.1171613723852385 1.3503561955115999 2:2.2857143 16:1 30:1 42:1 61:1 262:1 803:1 2577:1 
8 3.660913969469028 0 5.3605211770365599 2.7919983400780146 2.9108720207900554 0.0078017964070477607 3.7270778719272304 8 1:1 2:2.7272727 8:1 14:1 30:1 39:2 873:1 1010:1 1648:1 2074:1 2578:1 
1.3336432467683801 4.8654277218529067 2.082903363582993 0 0.45416269722154351 1.8910179362337374 4.0824121030767584 0.20706110494288513 1.546639046157203 2:2.7692308 9:1 14:1 39:1 42:1 51:2 107:1 281:1 854:1 1672:1 2579:1 2580:1 2581:1 
0.83911994205043594 0 0 0 0 0 0 0 0 2:3 14:1 30:1 40:1 151:1 422:1 504:1 505:1 623:1 1904:1 2582:1 2583:1 
4.1201909751084909 6.2528571889204345 0 0 6.8477967304607494 0 0 0 4.9997373697620962 2:2.2727273 14:2 39:1 51:1 52:1 83:1 107:1 151:1 263:1 556:1 2584:1 
3.7419682890950603 6.772833910114012 3.0067967450854627 3.2733600251065886 0 2.8381562754361847 7.3795617114521557 0 7.6398836291532932 2:3.3 14:1 40:1 46:1 61:1 212:1 1127:1 1147:1 2532:1 2585:1 2586:1 
0 4.0232111516473621 2.7785397245391574 0 0 0.55280319277852108 8 0 0 2:2.3333333 14:1 39:1 134:1 320:1 1621:1 2587:1 
0 0 3.3827313176719076 0 0.4491105288906625 1.2852275043354935 1.2613907135689495 0 0 2:2.5833333 9:1 14:1 30:1 39:1 40:1 42:1 109:1 239:1 1118:1 1158:1 1410:1 2398:1 
0 1.2604258868091878 0 4.0590028676120626 0 0 0 0 6.9152856290647531 2:2.875 14:1 30:2 39:2 40:2 89:1 107:2 141:1 149:1 529:1 933:1 1403:1 1678:1 1829:1 2588:1 2589:1 2590:1 2591:1 2592:1 2593:1 2594:1 
5.6075134836189804 0 1.6233399865882174 0.031970472704790712 4.828306615838156 0.46282935634775718 0 1.2920019765410542 0.53682467000004497 2:2.9333333 14:3 23:1 30:4 39:2 49:1 61:1 91:1 107:1 401:1 730:1 1025:1 1123:1 1217:1 1251:1 2595:1 2596:1 2597:1 2598:1 2599:1 2600:1 2601:1 2602:1 2603:1 2604:1 
0 1.939262456588859 0 0 0 0 6.389969060156643 0 2.2432081691165333 2:3.4 39:1 182:2 2605:1 2606:1 
6.4427626012768791 8 8 8 8 3.8919791976980385 8 2.6945985498458831 8 2:2.125 9:1 13:1 40:1 89:1 743:1 860:1 2607:1 2608:1 
0 1.3199145135794428 2.3347898505790607 0 0 3.387230078345886 5.9627914204061128 4.1739876240530576 0 1:1 2:3.2142857 14:1 16:1 30:1 597:1 658:1 726:1 1017:1 1476:1 2004:1 2609:1 2610:1 2611:1 2612:1 
1.6477559916435751 3.6333568159118315 3.1695277541537443 5.5703128110479172 2.0919219043309485 0.91316084962603661 3.2878678170795936 0 1.829848767451248 1:2 2:2.8571429 5:1 8:1 9:1 14:2 26:1 30:1 42:3 61:2 1342:1 2144:1 2536:1 2542:1 2613:1 2614:1 2615:1 
0.42886018045419222 4.0227290836386054 7.3045837791104642 0.76214644480863325 0 0 3.1198841005196196 0 8 2:4.2 51:2 718:1 2616:1 2617:1 
5.3690831312983196 8 4.1868646297726597 0 1.7522455972759952 7.2138777749227145 5.8805658226335424 0.45435591731785235 1.5081275017089033 2:2.2222222 9:1 20:1 46:1 51:1 107:1 600:1 2405:1 2618:1 2619:1 
8 4.4281312479815407 8 0 0 5.3570818967831402 0 0 0.45311149883839436 2:1.8333333 39:1 40:1 52:1 151:1 1263:1 2620:1 
0 0 0 3.4540548546357916 1.3954417113954365 2.7325698372252409 0 0 3.2130215462013068 1:1 2:2.6923077 9:1 14:1 30:1 39:1 91:1 123:1 151:1 730:1 791:1 2529:1 2621:1 2622:1 
8 8 8 7.0913234240287348 8 8 8 8 5.569554375436315 2:3.3333333 14:1 166:1 2623:1 
8 2.4337955109122289 2.5371684177230067 1.8297742792445346 3.7600798471197296 5.1753334994304199 2.9919562375210211 0 4.0684321401751236 1:1 2:2.8 5:1 9:2 42:1 107:1 667:1 1892:1 2624:1 2625:1 
0.084265445632401709 0 0 0 0 0 0.37055210282510759 0 0 2:2.40625 4:1 9:1 14:3 26:1 30:2 36:1 39:1 40:1 42:1 46:1 51:1 52:1 139:1 156:1 182:1 272:1 482:1 624:1 672:3 2130:1 2518:1 2626:1 2627:1 2628:1 2629:1 2630:1 2631:1 
4.3515334643140671 0 0 0 8 0 8 8 0 2:1.25 30:3 61:1 
8 8 8 0 8 3.7185527197701838 8 8 0 2:2 54:1 
0 0.43552046500998015 0.5005605293864136 0.26809175614415348 1.765963126636668 0 5.0302744962275119 0 0.35089930617819309 2:3.1363636 9:1 13:1 14:2 23:1 26:1 30:1 39:1 46:1 272:1 898:1 977:1 1093:1 1776:1 2632:1 2633:1 2634:1 2635:1 2636:1 2637:1 2638:1 2639:1 
1.8255751536177454 2.3136657110395813 2.0241210301860582 0.14804500632309842 0 0.56190532887333666 2.3331305925199084 1.3387949798277587 2.5061697906794214 2:2.6666667 14:1 26:1 30:1 39:1 89:1 1326:1 2640:1 2641:1 2642:1 
