svm_type c_svc
kernel_type polynomial
degree 1
gamma 0.03125
coef0 0
nr_class 10
total_sv 17840
rho -0.72988979764418283 -0.79389249046710042 -0.72491387190967971 -1.247740263036303 -0.88594308265694588 -0.90590108004882186 0.12150358656802954 -0.86053047373851066 -0.88060177417907359 -0.065080651054459843 0.011001686513307822 -1.0061014407526505 -0.3523205147306247 -0.46314812092139157 0.77367114667528869 -0.64958219461268529 -0.31434066968001728 0.015367248638237433 -0.99028984326994085 -0.29856675839943064 -0.42096867653718695 0.78650402899218175 -0.54709862777260687 -0.16340792497770537 -0.98377174349177343 -0.26133156032346438 -0.41343601065097169 0.72845500876263869 -0.5358734617224945 -0.13245216113016001 1.0160850562340744 0.90689032205978215 1.1607809337882704 0.71527276534087125 0.96022331324325827 -0.27461784305618014 0.87615601990741132 -0.43107369767808784 0.031103327367690364 0.89492464495232604 -0.44092758613597327 0.26427975396663017 -0.90239693088290396 -0.87016253792885345 0.4313105591813739
label 0 1 2 3 4 5 6 7 8 9
nr_sv 2019 1974 2080 1556 1526 1808 1700 1993 1572 1612
SV
8 8 6.1876227604762191 5.4847259115797913 8 6.2344482653736097 7.3448880974638513 1.670793645548621 8 1:0 2:1 3:3 4:2 5:1 6:1 7:1 8:1 9:1 10:1 11:1 12:0 
0.52431736041690569 1.8754688203494225 5.0415382008037772 3.1483085951592011 1.9573873157178923 2.9377686018358382 0 2.056968392177378 2.6261449736435747 1:0 3:3 4:1 10:0 12:0 13:1 14:1 15:1 16:1 17:1 18:4 19:1 20:1 21:1 22:1 23:1 24:1 25:1 
0 0 0.71028396708277408 1.3537048629111783 0 0 0 0 0 1:0 3:7 4:0 6:1 10:0 12:0 24:2 27:1 28:1 36:1 38:1 41:1 44:1 49:1 50:1 51:1 52:1 53:1 54:1 55:1 56:1 
2.2290167051683261 3.4145106290381095 5.9216125829233297 0 0.65470649616059529 0 2.6930129635609643 0 3.9459316434101712 1:0 3:6 4:0 7:1 10:0 12:0 30:2 50:1 55:1 57:1 58:1 59:1 60:1 61:1 62:1 63:1 64:1 65:1 
2.3375956747209505 5.5169951684474201 4.736701167100537 0 1.6111723018631992 3.722663629294551 2.9585335861107267 0.4179096759099693 2.0257522039156424 1:0 3:13 4:3 6:1 10:0 12:0 18:2 24:1 27:2 29:1 30:1 38:1 43:3 46:2 47:1 48:1 49:1 50:1 51:1 66:1 67:1 68:1 69:2 70:1 71:1 72:1 73:1 74:1 75:1 76:1 
8 8 8 0 6.5495515194667755 8 8 0 7.3713547804103721 1:0 3:0 4:0 10:0 12:0 13:1 18:1 65:1 77:1 
8 8 8 0 8 8 8 4.0178850682451124 8 1:0 3:1 4:0 10:0 12:0 35:1 78:1 
8 0 0 0 0 0 8 0 0 1:0 3:1 4:0 10:0 12:0 43:1 79:1 
1.3453964922577379 0 6.7057470893808917 3.630829291208634 2.6580996539662096 2.1132056438232527 8 0 8 1:0 3:2 4:1 10:0 12:0 13:1 18:1 30:1 46:1 80:1 81:1 82:1 83:1 
8 8 8 0 0 0 8 0 8 1:0 3:0 4:0 10:0 12:0 55:1 84:1 
0 0 1.2256784597574963 0 0 0 0 0 0.43894618405282182 1:0 3:7 4:0 7:1 10:0 12:0 18:1 30:3 46:2 55:1 65:1 85:1 86:2 87:1 88:1 89:2 90:1 91:1 
0 1.7597740504728865 4.3851722302415626 0 0 0 0 0 0.57306790375516659 1:0 3:2 4:1 10:0 12:0 13:1 18:1 92:1 93:1 94:1 95:1 96:1 
2.5994714782007748 4.7011281818490644 3.0440048156946569 4.21426195339619 0 0 1.5569503996879508 0 1.4712787217490308 1:0 3:4 4:1 10:0 12:0 13:1 93:1 97:1 98:1 99:1 100:1 101:1 
0 0 2.2409890050032035 0 0 0 0.42836138869225904 0 0 1:0 3:3 4:0 10:0 12:0 18:1 20:1 87:1 93:1 102:1 103:1 104:1 
0 0 0 2.5701586155409744 0 0 0 0 1.0748560771292479 1:0 3:4 4:2 10:0 12:0 13:1 18:1 26:1 34:1 93:1 96:1 105:1 106:1 107:1 108:1 109:1 
4.9057859972460447 0 0 0 4.4451050626453945 0 3.3771637908014105 0.64674548805650289 0.41470353544565436 1:0 3:7 4:3 10:0 12:0 27:1 30:1 34:3 46:2 50:1 110:1 111:1 112:1 113:1 114:1 115:1 116:1 117:1 118:1 119:1 120:1 121:1 
6.1134835807034396 0 0 2.4460841491124805 7.1706445845782749 0 8 2.7238711252255938 7.7529098266174303 1:0 3:4 4:1 7:1 10:0 12:0 13:1 34:3 43:1 122:1 123:1 124:1 125:1 126:1 127:1 128:1 
0 1.2840832991029181 0 2.3115792623395697 5.6417821532073154 3.5694757162718425 0 0 4.5516405480031299 1:0 3:12 4:4 10:1 11:1 12:0 13:1 17:1 18:3 27:1 43:1 44:3 50:2 56:1 129:1 130:1 131:1 132:1 133:1 134:1 135:1 136:1 137:1 138:1 139:1 140:1 141:1 142:1 143:1 144:1 145:1 146:1 147:1 
0 0 0 0 0 0 0.34822989986859271 0 0 1:0 3:1 4:1 10:0 12:0 148:1 149:1 
2.7121896491072168 0 5.5600096534657046 0 0 0 8 0 2.6010140550188146 1:0 3:2 4:0 10:0 12:0 18:1 87:1 150:1 151:1 
8 0 0 0 0 0 4.7430745498198528 0 0 1:0 3:2 4:0 10:0 12:0 17:1 55:1 87:1 152:1 153:1 154:1 
1.1148783809286573 2.8701203528518269 2.5844386696961772 2.0118243907525759 3.2242696573728451 2.0832660572989568 0.015309221100471344 1.0437621792113334 3.2148976685334745 1:0 3:11 4:5 10:0 12:0 13:2 20:3 27:1 34:2 43:1 50:1 65:3 130:1 155:1 156:1 157:1 158:1 159:1 160:1 161:1 162:1 163:1 164:1 165:1 166:1 167:1 168:1 169:1 170:1 
8 7.0767559317664155 0 0 0.99168957845180272 1.6671816010836329 8 0 7.8740623577194961 1:0 2:1 3:2 4:0 10:0 12:0 34:1 46:1 65:1 111:1 171:1 172:1 173:1 
2.9088601054876433 3.1846159845203186 0 0.26295959564633592 6.3913352545643809 0 1.7858444900539068 1.7651751810476743 3.3230576099829197 1:0 2:1 3:12 4:1 10:0 12:0 13:1 20:2 30:1 34:5 35:1 43:4 44:1 46:1 50:1 53:1 74:1 111:1 130:1 143:1 174:1 175:1 176:1 177:1 178:1 179:1 180:1 181:1 182:1 183:1 184:1 185:1 186:1 187:1 188:1 
6.7469730751839361 8 8 2.2624557621472539 7.0177456299508369 7.0506230086435222 8 8 8 1:0 3:2 4:0 10:0 12:0 18:1 43:1 189:1 190:1 
4.6889495095279896 8 3.6838913019232078 5.4920847465715328 8 4.7038209304320855 1.471453056697392 1.0101041929226298 8 1:0 3:11 4:2 6:2 10:0 12:0 13:2 18:2 35:1 43:1 44:1 46:1 50:1 65:2 174:1 191:1 192:1 193:1 194:1 195:1 196:1 197:1 198:1 199:1 200:1 201:1 202:1 203:1 204:1 205:1 206:2 
0 0 0 0 0.091993958886788435 0 1.7171576027180877 0 1.026009205097419 1:0 3:5 4:0 10:0 12:0 21:1 30:3 34:1 44:1 55:1 65:1 207:1 208:1 209:1 210:1 211:1 212:1 213:1 214:1 
7.494834802196146 8 7.1390141260554394 2.1509010343770796 0.64573262586294322 0.0034688016497801256 8 0.17992665273143438 3.815920307594141 1:0 2:1 3:2 4:1 10:0 12:0 13:1 215:1 216:1 217:1 
8 6.9947649827682321 4.795883668440891 4.7727649395167617 8 5.9372631416363122 2.3221694429832174 2.1210206114045365 5.9821991958816252 1:0 3:7 4:3 10:0 12:0 13:2 18:1 34:1 43:1 44:1 46:1 50:1 65:1 87:1 111:1 218:1 219:1 220:1 221:1 222:1 223:2 224:1 
2.2215422174990573 0 4.6130724452305421 3.1846769422230436 3.2069450598082474 1.7948992630487748 2.4199208192151396 2.4702033828554435 2.9103870731735975 1:0 2:1 3:14 4:2 10:0 11:2 12:0 18:3 24:1 30:1 34:2 44:1 50:1 53:1 65:1 72:1 88:1 225:1 226:1 227:1 228:1 229:1 230:1 231:1 232:1 233:1 234:1 235:1 236:1 237:1 238:1 239:1 
0 0 0 0 0 0.67875387598146464 5.6306635294822822 0 0 1:0 3:6 4:1 10:0 12:0 13:1 18:3 34:1 44:1 55:1 65:2 85:1 240:1 241:1 242:1 243:1 244:1 245:1 246:1 247:1 
5.6763373818375493 6.6980381990536326 0.62731056512752836 7.4902628972464438 6.8406136467774461 2.0459125623193803 0 1.8225905111084273 5.2665217838653176 1:0 2:1 3:9 4:2 7:2 10:0 12:0 13:2 18:1 35:1 43:1 46:3 65:2 139:1 234:1 248:1 249:1 250:1 251:1 252:1 253:1 254:1 255:1 
8 0 8 0 8 1.8659371397489957 8 0 8 1:0 3:1 4:0 10:0 12:0 18:1 44:1 46:2 107:1 269:1 270:1 271:1 272:1 
1.3558149385000329 0 0 0 8 0 4.9636693779167098 8 6.4631802370102989 1:0 3:1 4:0 7:1 10:0 12:0 18:1 20:1 24:1 34:4 44:1 273:1 274:1 
4.2680660989004648 0 0 0 5.0049133874802667 5.541044307668022 8 0 0 1:0 3:2 4:0 10:0 12:0 18:1 20:1 34:2 43:1 44:1 46:2 56:1 93:1 275:1 276:1 277:1 278:1 279:1 
1.0447231980696201 0 0 0 0 0 1.4461378059518655 5.2049758549507334 0 1:0 3:6 4:2 10:0 12:0 18:1 34:1 145:1 280:1 281:1 282:1 283:1 284:1 285:1 
0.26165652249672583 0 0 0.83171600297967796 1.2687803392236241 0 7.3689769263502747 0.68692631509503954 5.2151461432386181 1:0 3:5 4:1 10:0 12:0 18:2 34:2 43:1 46:1 55:1 286:1 287:1 288:1 289:1 290:1 291:1 292:1 
5.8003882197704577 5.4202900441594561 0.33763832760918167 4.2719542009594447 2.4729690193305744 2.0125204701576607 2.7199995104768213 0.78997170026476782 3.9238324985438457 1:0 3:9 4:1 6:1 7:1 10:1 12:0 13:1 18:3 24:2 27:1 43:1 44:1 50:1 111:2 186:1 244:1 276:1 293:1 294:1 295:1 296:1 297:1 298:1 299:1 300:1 301:1 302:1 303:1 304:1 305:1 306:1 307:1 
7.9080728823451452 2.9374037767051586 0 0.80987864313687019 8 0 8 5.7436905940674112 3.3438940882998285 1:0 3:3 4:0 10:0 12:0 34:2 44:1 308:1 309:1 310:1 311:1 
0.6399964050941751 0 0 0.82512424818005636 0.33726577602784269 0 0 0 0 1:0 2:1 3:11 4:2 10:0 12:0 13:1 18:4 34:2 43:3 44:1 46:2 69:1 111:1 269:1 312:1 313:1 314:1 315:1 316:1 317:1 318:1 319:1 320:1 321:1 322:1 323:1 324:1 325:1 326:1 327:1 328:1 
3.0853733737479732 6.0795640922600604 3.0460866745649704 5.0178106967124538 3.2606195372220164 4.1978322175762814 4.6811959197449458 1.7985724733090442 3.14023155702428 1:0 3:16 4:5 6:1 10:0 12:0 13:1 18:2 29:1 30:1 38:1 43:2 44:2 46:1 133:1 250:1 329:1 330:1 331:1 332:1 333:1 334:1 335:1 336:1 337:1 338:1 339:1 340:1 341:1 342:1 343:1 344:1 
0 2.119696568517246 0 0 2.0495058224637379 0 0 0 0 1:0 3:9 4:1 6:1 7:1 10:0 12:0 18:5 24:1 27:1 29:1 34:1 36:1 40:1 41:1 44:2 46:1 50:1 69:1 201:1 276:1 345:1 346:1 347:1 348:1 349:1 350:1 351:1 352:1 
0 0 0 1.0056494417697326 0 0 0 0 3.059072511476522 1:0 2:2 3:11 4:3 6:1 10:0 11:1 12:0 18:1 24:1 27:1 29:1 30:1 34:1 36:1 40:1 41:1 44:1 46:1 134:1 157:1 193:2 227:1 233:1 234:1 239:1 351:1 353:1 354:1 355:1 356:1 357:1 358:1 
4.9500314491013135 8 7.2254067003341467 7.3333301850391823 8 4.903356632660639 5.9966683785034176 2.8601471073790936 8 1:0 3:5 4:1 6:1 10:0 11:1 12:0 18:1 24:1 30:1 50:1 74:1 155:1 206:1 364:1 365:1 366:1 367:1 
4.0679538893750902 3.2348444675114725 3.6547853765569625 3.7859067616849105 7.0164826069519988 0.28470314982015205 0 0 2.0983204876111032 1:0 3:10 4:6 6:1 10:0 12:0 18:2 27:1 30:1 43:4 65:1 81:2 269:1 276:1 368:1 369:1 370:1 371:1 372:1 373:1 374:1 375:1 376:1 377:1 378:1 
2.3065686272872732 2.0329234328363306 2.5226966546529002 0.88006470171344209 3.0466786716193872 0 2.7301475698195383 0 1.5324140235227719 1:0 3:8 4:4 7:1 10:0 12:0 18:3 30:3 43:2 44:1 53:1 104:1 138:1 139:1 140:1 379:1 380:1 381:1 382:1 383:1 384:1 385:1 
3.9272831920809326 2.62649108480863 2.4608791432594224 4.8354363655929982 4.0659861401641537 3.4472521111247838 1.6911837368143936 2.1372878013922838 1.9216675271383836 1:0 3:15 4:6 10:1 12:0 18:3 24:2 30:2 33:1 34:1 35:1 43:2 44:1 98:1 125:1 386:1 387:1 388:1 389:1 390:1 391:1 392:2 393:1 394:1 395:1 396:1 397:1 
0 0 0 0 0 1.6018710908475895 8 0 0 1:0 3:4 4:1 10:0 12:0 18:1 30:1 34:2 46:1 65:1 244:1 247:1 288:1 398:1 399:1 400:1 401:1 402:1 403:1 
0.0082520401581152227 2.5705077090312991 4.5922828067164216 1.3935292381020987 5.6190213360675187 5.4977034731543082 0.97085036355870591 0 0 1:0 3:4 4:1 7:1 10:0 12:0 18:1 24:1 46:1 50:1 55:1 244:1 404:1 405:1 406:1 407:1 408:1 
0 0 0 0 0 0 0.14592313916969724 1.8884324904455041 0 1:0 3:10 4:2 6:1 10:0 12:0 18:3 27:2 29:1 34:3 40:1 43:1 44:2 46:2 247:1 329:1 409:1 410:1 411:1 412:1 413:1 414:1 415:1 416:1 417:1 418:3 419:1 420:1 421:1 422:1 
8 4.1131576055959327 1.6137787948169151 0 0 1.1868512170059387 8 0 1.7028022305992117 1:0 3:2 4:0 10:0 12:0 30:1 34:1 65:1 93:1 423:1 424:1 425:1 426:1 
0 1.3802137784737272 0 2.581889663937281 1.1857951108153566 0.98519930849568937 0 0 1.8707240377798859 1:0 3:11 4:5 6:1 10:0 12:0 13:1 18:2 27:1 29:1 34:1 40:1 43:1 44:1 46:1 88:1 93:1 155:1 243:1 329:1 412:1 413:1 414:1 416:1 418:1 419:1 427:1 428:1 429:1 430:1 431:1 432:1 433:1 434:1 
6.051179623720329 0.050386591092731241 1.4745437087592734 2.3686989689583484 3.3295058702528255 5.1949979387715066 2.7408517652273634 4.4476317311754032 1.6936856409088985 1:0 3:12 4:5 10:0 12:0 18:3 27:1 34:2 43:1 44:1 65:1 81:1 435:1 436:1 437:1 438:1 439:1 440:1 441:1 442:1 443:1 444:1 445:1 446:1 447:1 448:1 449:1 450:1 
4.8572400835109466 1.5639695661420192 4.5596392340977543 2.8150951115926994 2.4002889120378117 4.4583776041491543 0 5.1801469142205336 2.4081132399971641 1:0 3:16 4:5 10:0 12:0 13:3 18:2 25:1 34:1 43:1 44:1 50:3 385:1 389:1 393:1 451:1 452:1 453:1 454:1 455:1 456:1 457:1 458:1 459:1 460:1 461:1 462:1 463:1 464:1 465:1 466:1 467:1 
3.8713901680665397 1.5730015391707732 0 1.2082701857887874 2.7204637428731648 2.0864023444810291 6.7173827667814674 0 0 1:0 3:12 4:4 10:0 12:0 13:1 18:2 26:1 30:2 34:3 35:1 43:1 44:1 50:1 65:2 381:1 468:1 469:1 470:1 471:1 472:1 473:1 474:1 475:1 476:1 477:1 478:1 479:1 480:1 
0 0 1.6939405290053233 0 0 0 0 4.2777626470139092 0 1:0 2:1 3:10 4:4 10:0 12:0 18:3 20:1 34:2 40:1 43:1 44:1 55:1 90:1 93:1 481:1 482:1 483:1 484:1 485:1 486:1 487:1 488:1 489:1 
8 2.4420594191348135 0 3.0133356763214212 0.054719246959223547 4.290799297411299 0.21694055083927849 5.5031717567614127 0.36146153129315445 1:0 3:13 4:5 10:0 12:0 13:1 18:4 24:1 27:1 34:1 43:3 44:2 46:1 245:1 352:1 372:1 411:1 471:1 490:1 491:1 492:1 493:1 494:1 495:1 496:1 497:2 498:1 499:1 500:1 501:1 502:1 
0 0 0 0.58828484074979237 0 0 0 0 0 1:0 2:2 3:13 4:2 10:0 12:0 18:6 24:1 34:2 43:2 44:1 111:1 125:1 157:2 372:1 410:1 411:1 415:1 418:1 491:1 503:1 504:1 505:1 506:1 507:1 
0 0 4.066910816248785 0 0 0 0 0 0 1:0 3:4 4:1 10:1 12:1 18:2 20:1 30:1 43:1 53:1 88:1 155:2 360:1 361:1 405:1 512:1 513:1 514:1 
0 0.22893253649158293 0 0 0 0 0 0 4.0021080275080312 1:0 3:3 4:1 10:0 12:0 18:1 20:1 27:1 44:1 55:1 87:1 115:1 207:1 515:1 516:1 
6.0907605626674348 3.0517807275065745 1.7666699062900528 2.7467720885342857 4.3093088666946926 4.2241976477159389 3.4348055796204671 3.1508916126610016 3.3200938946851259 1:0 2:1 3:14 4:3 10:0 12:0 17:1 18:3 27:1 34:3 35:1 43:1 44:1 46:1 415:1 474:1 517:1 518:1 519:1 520:1 521:1 522:1 523:1 524:1 525:1 526:1 527:1 528:1 529:1 530:1 
0 0 1.1933065983439324 4.5523517568445397 3.5885523661779279 0 8 0 0 1:0 2:1 3:8 4:1 10:0 12:0 13:1 18:2 19:1 20:1 34:2 43:1 44:1 53:1 65:1 130:1 153:1 266:1 269:1 531:1 532:1 533:1 534:1 535:1 536:1 537:1 538:1 539:1 540:1 
0 1.9786388191888749 0 0 0.24665842410439526 0 0 0 0 1:0 3:3 4:1 10:0 12:0 34:1 43:2 88:1 111:1 237:1 258:1 276:1 541:1 542:1 543:1 544:1 
0.70299106559382907 0 0 0.73930363250669051 0.51426417641829236 0.73909629166327195 2.8321873508872697 0 0 1:0 3:3 4:0 6:1 10:0 12:0 18:2 29:2 34:1 40:2 44:2 46:2 170:1 351:1 561:1 562:1 563:1 564:1 
2.3212032683667867 0 0 0.64829829561733976 2.1323703244143446 0 2.377555656976607 0 0 1:0 2:1 3:5 4:1 6:1 10:1 12:0 18:2 24:1 29:2 40:2 43:1 44:2 46:1 50:1 275:1 461:1 531:1 552:1 565:1 566:1 567:1 568:1 569:1 570:1 571:1 
2.9743050431036946 6.6377303218728336 1.1329052225544358 3.163686310530843 3.8303013621371176 5.2813054444855165 3.6299289997497537 0.71714667406399291 3.5093157929332781 1:0 2:1 3:12 4:1 10:0 12:0 18:5 29:1 34:1 43:2 46:2 113:1 160:1 291:1 532:1 572:1 573:1 574:1 575:1 576:1 577:1 578:1 579:1 580:1 581:1 
2.8250250142876876 5.3503464323712304 4.0087493564458212 4.7317068983945445 6.2081420922155628 2.4034544320888345 1.5465974492423711 1.8033245705337704 1.4674767629245156 1:0 2:2 3:14 4:2 6:1 10:0 12:0 13:1 18:3 30:1 34:1 43:2 44:1 46:1 111:1 193:1 458:1 582:1 583:1 584:1 585:1 586:1 587:1 588:1 589:1 590:1 591:1 592:1 593:1 594:1 595:1 596:1 597:1 
8 8 8 0 8 7.7078845465800407 8 3.5482988681547036 8 1:0 3:2 4:1 10:0 12:0 18:1 26:1 50:1 276:1 357:1 598:1 
0.61410734472605832 0 1.3809827734946787 0.99652236449417997 0 1.1530501335820673 0.36704314063006033 5.4531660218269629 0 1:0 3:12 4:5 10:0 12:0 18:4 24:1 34:4 43:1 44:1 46:1 50:1 90:1 149:1 586:1 599:1 600:1 601:1 602:1 603:1 604:1 605:1 606:1 607:1 608:1 609:1 610:1 611:1 612:1 
8 0 1.6701234986049736 5.2685509299121245 3.3247189715982395 0.33519801268653138 8 8 6.9299706493703148 1:0 3:2 4:0 10:0 12:0 34:2 407:1 613:1 614:1 
8 7.5637994813657112 8 0 4.8149777199990078 6.0766504906817325 8 6.6778856597085472 2.2040869466564623 1:0 3:1 4:0 10:0 12:0 615:1 
0 1.9476894728244738 5.7874149654023537 0 0 0 2.8466966366563882 0 0.49298954203643147 1:0 3:4 4:1 10:0 12:0 55:1 87:1 130:1 153:1 178:1 616:1 617:1 
3.9679764048884563 5.8880116204163322 8 0 0 1.1029577716572978 8 0 5.9214929260526397 1:0 3:1 4:0 10:0 12:0 618:1 619:1 
0 6.2118650720817437 7.0558638565025333 2.0078773661329481 2.0932091795320447 0 8 2.7400906386570978 0.23532172827145892 1:0 2:1 3:7 4:2 10:0 12:0 13:1 18:1 34:1 53:1 160:1 545:1 620:1 621:1 622:1 623:1 
8 8 8 3.467030675405002 8 8 8 5.1473481320095233 8 1:0 3:2 4:0 10:0 12:0 18:1 30:1 624:1 625:1 
4.1086004358774817 0 0 0 0 0 8 0 0 1:0 3:3 4:2 10:0 12:0 30:2 34:2 247:1 626:1 627:1 628:1 629:1 630:1 631:1 
2.4980694312074778 0 0 2.5026352870965427 0.56850847912243696 0 1.7005671565568978 0 2.1353649600792948 1:0 3:4 4:1 10:1 12:0 18:3 27:1 44:2 87:1 111:1 632:1 633:1 634:1 635:1 636:1 637:1 
0 2.770042647996299 0.16816259984104651 0 0 0.63377200915806819 8 0 0 1:0 3:3 4:0 10:0 12:0 30:1 113:1 247:1 638:1 639:1 640:1 
2.7337847440499554 4.104598736986051 5.8941386257552342 4.931786013263789 6.4970071803355145 0.16403880753152753 6.1623896642039551 0.85025480030209599 4.8739478969809173 1:0 3:5 4:3 10:0 12:0 24:1 30:1 34:1 44:1 50:1 211:1 273:1 641:1 642:1 643:1 644:1 645:1 
0 0 0 0 0 0 8 0 0 1:0 3:1 4:0 10:0 12:0 646:1 
8 3.7133986813310567 6.7804589508002735 6.1962375637098468 4.4250231014840145 8 8 7.1440037494865631 2.4431803421307707 1:0 3:3 4:1 10:0 12:0 18:1 43:1 390:1 647:1 648:1 
0.57319471970689395 1.4225836737380464 0 0 1.6379897361563445 1.1115769659535355 0 1.3135365762874014 0 1:0 3:11 4:2 10:0 12:0 18:3 25:1 30:1 34:3 43:1 44:1 46:1 50:1 111:1 145:1 221:1 276:1 649:1 650:1 651:1 652:1 653:1 654:1 655:1 656:1 657:1 658:1 659:1 660:1 661:1 662:1 
0 0 8 0 0 0 8 0 8 1:0 3:1 4:1 10:0 12:0 13:1 18:1 46:1 172:1 552:1 663:1 
3.7025283138362592 0 0 0 0 0 8 2.2928448669706039 2.6644086021602424 1:0 3:5 4:1 10:1 12:0 30:2 34:2 664:1 665:1 666:1 667:1 668:1 
8 8 8 0 7.0783549859584545 5.5082477411655191 8 6.5857995358512689 8 1:0 3:1 4:1 10:0 12:0 669:1 
1.1374032931066207 7.8012990185156301 0 2.1672350644731626 0 0 8 0.36984290087990218 6.3268297471886612 1:0 3:5 4:1 10:0 12:0 13:1 18:1 34:1 43:1 46:1 65:1 157:2 276:1 374:1 670:1 671:1 672:1 673:1 
4.1417424745410534 4.6848364567701948 5.9671769850344107 1.7402207517635142 7.6180858213222606 3.6375610735045272 4.4817011587592503 0 8 1:0 2:1 3:3 4:1 10:0 12:0 18:2 44:1 65:1 107:1 685:1 686:1 687:1 
1.5490133645845245 4.3695598304151062 8 0 6.9864910708491159 6.4725210718492256 8 3.2743293233689101 1.4202580018200368 1:0 3:5 4:0 10:0 12:0 30:1 35:1 50:1 90:1 601:1 688:1 689:1 690:1 691:1 692:1 693:1 694:1 695:1 
3.7344990686255692 0.54967659400460411 6.4953766831710436 2.760020176439359 2.258122552181101 0.84181340755812939 8 2.3509823990921137 0 1:0 3:2 4:1 10:0 12:0 43:1 44:1 696:1 697:1 698:1 
5.2754039016809857 0 0 0 2.0790679552429401 0 8 2.8111167934298424 1.6059806757981634 1:0 3:4 4:1 10:0 12:0 30:1 34:2 43:1 44:1 699:1 700:1 701:1 702:1 
0 0 4.0136928418848576 0 0.43691575301183694 3.7031525202286786 8 0 1.4885579364373904 1:0 3:2 4:0 10:0 12:0 18:1 43:1 87:1 703:1 704:1 705:1 
0 8 8 0 3.8059557114132097 0 8 0 5.0211816350968537 1:0 3:1 4:0 7:1 10:0 12:0 17:1 30:2 34:1 65:1 87:1 88:1 706:1 707:1 708:1 
8 3.4824016892835745 5.6323316702337607 2.2771539964687273 5.9800761899496555 4.1407520556712667 0.50937358555363177 0.95034031329675239 0 1:0 3:13 4:3 10:0 12:0 18:2 30:1 34:2 43:2 44:3 50:1 65:1 272:1 537:1 709:1 710:1 711:1 712:1 713:2 714:1 715:1 716:1 717:1 718:1 719:1 
8 8 8 0 8 0 8 0 8 1:0 3:1 4:0 10:0 12:0 55:1 266:1 722:1 
2.4546010991521841 2.1952377478876195 4.50740623407955 1.0953529250064871 2.3928070387014215 2.386525529879358 5.0042641951032802 1.4553876747246701 1.3273360519958102 1:0 2:1 3:7 4:2 10:0 12:0 18:1 30:1 34:2 723:1 724:1 725:1 726:1 727:1 728:1 729:1 730:1 731:1 732:1 
0 8 8 4.6081225993881265 4.8225406420876675 0 6.7019041894140301 3.2077794583155419 0 1:0 3:3 4:0 10:0 12:0 24:1 155:1 276:1 552:1 733:1 734:1 735:1 736:1 
0.38314894589824589 3.059727130841611 3.0036397831017498 3.0990940619053657 6.1694138307681472 0.90792685270911788 2.768222806524518 6.9525284454299641 2.2723394885449264 1:0 3:8 4:0 10:0 12:0 13:1 30:1 34:3 43:2 712:1 713:1 714:1 717:1 738:1 739:1 740:1 741:1 742:1 743:1 744:1 
1.8422369739547559 1.6365397568693389 0 0.53845446604326708 7.4422238524851192 0 8 0 7.665993176793096 1:0 2:1 3:2 4:0 10:0 12:0 44:1 111:1 243:1 742:1 745:1 746:1 747:1 748:1 
6.0697766689941455 8 5.2287730223556137 5.5564386136054411 0 6.5663711355109262 8 8 4.6623411678710189 1:0 3:2 4:0 10:0 12:0 13:1 197:1 737:1 749:1 
0 0 0 0 0 0 0 0.61838843936331322 0 1:0 3:8 4:1 6:1 10:0 12:0 18:4 24:1 29:1 34:1 36:1 40:1 41:1 43:2 44:1 46:2 259:2 399:1 654:1 750:1 751:1 752:1 753:1 754:1 755:1 756:1 757:1 758:1 
8 8 8 1.0726224207539403 3.4534461997761028 8 8 7.5643860512438543 2.4366090284374731 1:0 3:2 4:2 10:1 12:0 18:2 238:1 759:1 
2.7786006732847457 8 8 0 0 8 8 5.4730679150244868 2.7340022155457078 1:0 3:1 4:0 10:0 12:0 763:1 
8 3.2234656022847363 8 0 3.4869628107729138 0 8 0 8 1:0 3:1 4:0 10:0 12:0 46:1 172:1 770:1 
3.9070702741666539 8 0 1.1177011249621145 0 1.2749492213937421 0 0 0 1:0 3:1 4:1 6:1 7:1 10:1 12:0 20:1 24:1 44:1 360:1 361:1 771:1 
1.1254910786849059 0 0 0 5.2848894631228953 0 8 0 8 1:0 3:1 4:0 10:0 12:0 18:1 44:1 46:2 55:1 56:1 172:1 772:1 
0.30013695791558948 8 5.7649667439533134 0 4.7913036291379045 0 0.62469480271956368 0 0 1:0 3:2 4:0 6:1 10:0 12:0 43:1 155:1 236:1 360:1 361:1 773:1 774:1 
3.5851283205100457 5.1734398247563647 5.1959211755672197 3.9325532191440926 3.9869683922017658 4.3898009897544688 4.1405450178448069 2.5783017854470951 0.15073790592304126 1:0 2:1 3:14 4:4 10:1 12:0 13:1 18:4 30:2 44:1 46:1 352:1 439:1 471:1 536:1 547:1 555:1 775:1 776:1 777:1 778:1 779:1 780:1 781:1 782:1 783:1 784:1 785:1 786:1 
8 0 0.58079998895337903 0 0 0 3.2408130130771986 0 8 1:0 3:1 4:0 7:1 10:0 12:0 787:1 788:1 
5.8506236597225261 6.3405079293546383 5.300456575780867 0 8 5.4101317841253795 8 8 3.5102203953042972 1:0 3:1 4:0 10:0 12:0 18:2 111:1 789:1 790:1 
6.6763282989918018 8 8 0.13730896021094507 3.8048351611149327 4.9263581730594739 8 5.1142453481768548 4.9907361170020437 1:0 3:2 4:1 10:0 12:0 43:1 791:1 792:1 
2.7911781322937839 0 0 0.77274607533939232 0.54590160659013875 0 0 0.57715008612096985 0 1:0 3:10 4:4 7:1 10:0 12:0 13:2 18:1 27:1 34:3 44:1 46:1 193:1 200:1 285:1 471:1 671:1 789:1 790:1 793:1 794:1 795:1 796:1 797:1 798:1 799:1 800:1 801:1 802:1 
0.25798357070073252 1.233574936319485 3.7076908918103446 4.7870298279106596 1.1447405509872997 0.87998964531327739 0.085470804854932747 0 4.1391713564187187 1:0 2:1 3:6 4:3 10:0 12:0 18:2 24:1 30:1 44:1 56:1 88:1 95:1 140:1 196:1 276:1 481:1 803:1 804:1 805:1 806:1 807:1 
5.1812253901893488 8 8 8 6.8798619264872141 5.2967880307637296 4.0423253736827771 2.5842174058891634 8 1:0 3:8 4:4 10:1 12:0 18:1 27:1 32:1 35:1 43:1 53:1 65:1 111:1 201:1 348:1 808:1 809:1 810:1 811:1 812:1 813:1 814:1 
0 0 0 0 6.5045926299207677 0 8 0 0.64716234355506874 1:0 3:1 4:0 10:0 12:0 34:2 35:1 65:2 538:1 823:1 824:1 
8 8 8 0 8 5.2699430235032692 8 5.1076267357957752 5.9341966769611947 1:0 3:2 4:0 6:1 10:0 12:0 43:1 155:1 236:1 360:1 361:1 773:1 774:1 
6.6360040613816853 0 4.2197712238004916 2.5379663755182915 8 0.1683674234248379 8 0 8 1:0 3:1 4:1 10:1 12:0 13:1 46:2 55:1 81:1 172:1 266:1 825:1 
2.5533266346482852 0.44253570085407917 6.1881147824912288 0 8 0 8 0 8 1:0 3:1 4:0 10:0 12:0 55:1 826:1 
0 0 1.5400919288713384 0 0 0 5.6629607631098082 0 8 1:0 3:3 4:0 7:1 10:0 12:0 13:1 19:1 20:1 27:1 30:1 34:1 35:1 50:1 65:1 471:1 827:1 828:1 
0 0 0.33540945680445589 0 6.1571336159968677 0 8 0 1.5729885408383262 1:0 3:2 4:0 10:0 12:0 18:1 34:1 58:1 95:1 829:1 830:1 
0 0.29985627133163789 0 3.0852155609276499 3.4248284002364708 5.7896640412579998 0.16570720753202892 0.18075625111248289 0 1:0 2:1 3:9 4:2 6:2 10:0 12:0 18:3 24:1 34:2 40:1 43:1 55:1 88:1 123:1 486:1 536:1 676:3 831:1 832:1 833:1 834:1 835:1 836:1 837:1 
7.7960992182004585 6.9522864422489814 1.1285144246028429 0 5.0695191358276404 4.9560972969976227 5.7549316639753041 8 6.3963252754099207 1:0 3:3 4:0 10:0 12:0 18:1 50:1 55:1 56:1 155:1 329:1 849:1 850:1 851:1 852:1 
4.8145802122850601 0 0 0 0 1.8523091485203533 0 0 0 1:0 3:6 4:1 10:0 12:0 18:1 34:2 46:1 50:2 237:1 244:1 452:1 605:1 853:1 854:1 855:1 856:1 857:1 
2.9737549111946708 4.72292765252016 6.7868274459128424 0.26655407121695018 5.2948558033322541 0.71182481898146899 2.1454618924146351 2.2401849004334489 6.8217354139257491 1:0 3:8 4:2 10:0 12:0 30:2 34:1 93:1 425:1 858:1 859:1 860:1 861:1 862:1 863:1 864:1 865:1 866:1 
0.24814259532053504 1.9941209620121227 1.540363787892254 0 2.2502827354050559 0.34618350310662538 2.4874604848006987 1.2208575834753208 3.0961473195668159 1:0 2:1 3:15 4:1 10:0 12:0 18:2 24:1 30:3 34:1 43:1 44:1 46:1 50:1 182:1 245:1 555:1 590:2 867:1 868:1 869:1 870:1 871:1 872:1 873:1 874:1 875:1 876:1 877:2 878:1 879:1 880:1 881:1 882:1 
6.9690066708875191 0 6.8851998634593974 0 2.7375178131300926 0 8 8 1.575702345990162 1:0 3:0 4:0 10:0 12:0 34:1 883:1 
0 0 0 0 0 0 0 0 0.81014194302837028 1:0 2:2 3:4 4:0 7:1 10:0 12:0 13:1 18:4 20:1 27:1 34:2 43:2 46:3 86:1 111:1 172:1 244:1 258:1 352:1 439:1 707:1 884:1 885:1 886:1 887:1 888:1 
0 0 0 0 0 0 0.65147808525950501 0 0.11125943994363786 1:0 3:9 4:3 6:1 10:0 12:0 18:3 29:1 30:1 34:1 36:1 40:1 41:1 43:1 44:4 46:3 190:1 276:1 399:1 605:1 695:1 854:1 895:1 896:1 897:1 898:1 899:1 900:1 901:1 902:1 903:1 
0 0 0 0.11893257903737298 0.017308427455880987 3.7906927921416842 1.603195360976569 0.90050319883204644 0 1:0 2:1 3:10 4:2 6:1 10:0 12:0 13:3 18:3 29:1 36:1 40:1 41:1 44:1 46:2 174:1 302:1 371:1 471:1 605:1 735:1 854:1 904:1 905:1 906:1 907:1 908:1 909:1 
1.4839745490282203 4.3177574399218219 0 0.93082636515241945 1.9607823133365925 4.4911640147247036 0 1.4880409197804687 4.0661515051959496 1:0 3:7 4:3 6:2 10:0 12:0 18:1 34:2 44:1 46:1 50:1 93:1 160:1 195:1 243:1 539:1 607:1 889:1 910:1 911:1 912:1 913:1 914:1 915:1 
3.2249041281653859 0 0 0 4.4576962685055745 0 7.7451795331400612 0 6.2013559930446061 1:0 3:6 4:0 10:0 12:0 26:1 30:1 34:3 44:1 65:2 111:1 355:1 425:1 916:1 917:1 918:1 919:1 
0 1.8663182571210997 2.6044919131293267 0 0 0 0 0 0 1:0 2:2 3:5 4:1 10:0 12:0 13:1 30:1 34:1 46:2 50:1 93:1 111:1 424:1 721:1 920:1 921:1 922:1 923:1 924:1 
6.8498898220779489 0 0 0 0.44475892648466819 0 1.2750735655100738 4.3435217934713384 8 1:0 3:4 4:1 10:0 12:0 34:2 50:1 925:1 926:1 927:1 928:1 
0.44787043046580483 0 0.0031472820929461516 0 4.5782142910586021 0 0 0 6.1895494594184752 1:0 2:1 3:5 4:2 7:1 10:0 12:0 17:1 18:2 30:1 34:1 46:2 50:1 87:2 107:1 111:1 929:1 930:1 931:1 932:1 933:1 934:1 935:1 
3.6283750613532582 4.9295107255770922 0 0.8542784275292008 6.5833004476974883 0 0 0 2.8189635637214998 1:0 3:6 4:2 10:0 12:0 18:2 30:2 34:2 44:1 46:2 50:1 56:1 93:1 148:1 149:1 205:1 243:1 266:1 276:1 293:1 352:1 399:1 439:1 555:1 936:1 937:1 938:1 939:1 940:1 941:1 
3.8277934991211024 7.2603782323166923 1.46813369454536 4.094441613552716 7.0608086720564041 2.833290994424178 0 4.3198681952603808 4.8005582924661647 1:0 3:15 4:5 6:1 10:0 12:0 18:5 34:2 43:3 46:1 69:1 93:1 155:1 226:1 352:1 387:1 439:1 471:1 494:1 531:1 536:1 622:1 663:1 781:1 942:1 943:1 944:1 945:1 946:1 947:1 948:1 
0 6.1149392167352108 0 7.3863113351448515 1.372200034072337 0.88620149361297662 8 2.6589393890168109 3.0810193495944556 1:0 3:5 4:1 10:0 12:0 18:1 30:1 34:1 50:1 237:1 403:1 949:1 950:1 951:1 952:1 
0 0.35587966070469129 0 0 0 0 0 0 3.6801162023980054 1:0 2:1 3:12 4:3 10:0 11:1 12:0 18:1 34:1 43:1 46:2 50:1 55:4 87:1 257:1 263:1 494:1 781:1 923:1 953:1 954:1 955:1 956:1 957:1 958:1 959:1 960:1 961:1 
0.61597453763870769 1.4649815463870897 0.79369748347843105 2.3770949965370152 0.64504118810437927 1.7942603841528024 2.3990120905251557 0 4.5399446705975954 1:0 3:11 4:3 10:0 12:0 13:2 18:1 34:1 43:2 46:1 55:1 111:1 116:1 276:1 291:1 371:1 494:1 923:1 957:1 959:1 962:1 963:1 964:1 965:1 966:1 
5.360999254990463 1.959842504451037 0.77803538727693744 0.5332585748267562 8 2.1434254889853075 3.8921798161618724 6.516284407179568 4.4772510668568319 1:0 3:6 4:2 10:0 12:0 18:1 34:3 43:1 93:1 111:1 155:1 531:1 967:1 968:1 969:1 970:1 971:1 972:1 
1.9923614894132362 0 0 0 1.0746901168213348 0 0 0.54778228452704469 0 1:0 3:5 4:2 7:1 10:0 12:0 18:1 30:1 34:4 58:1 65:1 81:1 111:1 255:1 276:1 425:1 447:1 670:1 973:1 974:1 975:1 
0.99510459746544078 0 0 0 0.38133122385071966 0 6.8614513655452001 0 0 1:0 3:1 4:0 7:1 10:0 12:0 27:1 34:1 46:1 58:1 111:1 244:1 976:1 
1.7861784100290521 0 0 0.14586890930590712 1.490450537833333 0 3.2112032729966558 2.4158372286198979 0.20238397971392311 1:0 2:1 3:12 4:4 10:0 12:0 18:1 24:1 30:4 34:1 43:2 55:1 111:1 152:1 201:1 447:1 862:1 868:1 951:1 977:1 978:1 979:1 980:1 981:1 982:1 983:1 984:1 
1.3532657203465641 7.7247619858119476 8 0 8 3.022302249094091 8 3.6881890634164725 0 1:0 2:1 3:3 4:0 10:0 12:0 18:1 44:1 55:1 90:1 129:1 985:1 986:1 
3.8352510316544026 0 0 3.7930362879738224 6.1207098788452337 1.9662479140713967 6.3049294273362655 4.4893369448811553 3.9926202047405854 1:0 3:8 4:2 10:0 12:0 18:2 20:1 34:3 43:1 50:1 244:1 491:1 714:1 987:1 988:1 989:1 990:1 991:1 992:1 
1.4378286685133728 0 2.0307048978223374 0 0.053060081794358713 2.6608318328237393 5.4509599393981301 0 5.5447900136724106 1:0 3:3 4:0 10:0 12:0 87:1 98:1 132:1 155:1 993:1 994:1 
2.3590545709294468 3.2531216802539431 0 0 1.2060145180766493 0 2.1047397171416744 6.6373776263143256 1.7189615065283417 1:0 3:5 4:1 10:1 12:0 18:1 30:2 34:2 43:1 83:1 93:1 111:1 258:1 995:1 996:1 997:1 998:1 
3.1945631767580442 8 5.2920493394627224 3.7624050755452902 5.1078060040752122 6.0889617336502422 8 1.6559214606340937 7.5917237872449022 1:0 3:3 4:1 10:0 12:0 18:1 43:1 50:1 55:1 742:1 999:1 1000:1 1001:1 
5.7482102095026724 5.7276565309520082 0 4.1424531399580893 6.5891126314333652 2.9792094583250512 6.2549196090812567 1.4994152913083996 2.4515330777080888 1:0 3:3 4:1 10:0 12:0 18:1 34:1 44:1 205:1 555:1 1002:1 1003:1 1004:1 1005:1 
8 8 8 0 8 2.5726155187153341 8 8 0 1:0 3:0 4:0 10:0 12:0 58:1 
8 4.4811588420671278 5.380706925081685 5.196774500498182 8 4.7170342722596637 0 0 0 1:0 3:2 4:0 7:2 10:0 12:0 13:1 18:1 24:1 345:1 762:1 1006:1 
4.0298222259666048 0 0 4.9220039810222644 1.5723379311445986 2.1835882246867806 0.39320865569301078 0 0.35798104895757615 1:0 2:3 3:10 4:0 7:1 10:0 12:0 17:1 18:4 20:2 24:1 30:1 34:4 43:1 46:1 50:1 58:1 111:1 193:1 227:1 234:1 237:1 239:1 244:1 329:1 635:1 1007:1 1008:1 1009:1 1010:1 1011:1 1012:1 1013:1 1014:1 1015:1 
1.4550782689072215 0 0 0 1.915958282272505 0 0 0 0.19088330134736406 1:0 3:6 4:1 7:1 10:0 11:1 12:0 13:1 18:1 20:1 34:3 43:1 46:1 62:1 87:1 186:1 460:1 770:1 1016:1 1017:1 1018:1 1019:1 
5.5889282447106421 5.4016726347796276 0.095687306649539769 0.96585595229856036 6.2299006629510938 0.25640888085899161 1.2629138152897694 0.49581589450718322 0.1681461073154161 1:0 2:1 3:12 4:3 7:1 10:1 12:0 13:3 18:3 19:1 24:1 34:3 50:1 56:1 65:1 69:1 174:1 193:1 227:1 570:1 709:1 1020:1 1021:1 1022:1 1023:1 1024:1 1025:1 1026:1 1027:1 1028:1 1029:1 1030:1 1031:1 
1.6405117606089008 7.2604754204525896 5.3312829466592504 0 0.86904234672234248 4.1969769599659523 7.3022137440145025 0.41354299035336151 0.46068981277023952 1:0 2:1 3:4 4:1 10:0 12:0 20:1 43:1 534:1 1032:1 1033:1 1034:1 
7.6276505553170013 2.7715309689032863 0 1.4431331482723675 0 0 0 0 0 1:0 3:11 4:2 7:1 10:1 12:0 13:2 18:4 24:2 29:2 34:1 43:2 50:1 106:1 568:1 1035:1 1036:1 1037:1 1038:1 1039:1 1040:1 1041:1 1042:1 1043:1 1044:1 
4.6447372274376812 0 0 2.3930547208317581 5.0462763357367155 1.1012241829667038 1.6057321076502076 0.40801615364077526 2.6205223548981365 1:0 3:10 4:5 10:0 12:0 13:1 18:3 26:1 30:1 34:3 44:1 46:1 65:1 93:1 129:1 269:1 276:1 317:1 642:1 1045:1 1046:1 1047:1 1048:1 1049:1 1050:1 1051:1 1052:1 1053:1 
0 0 0 0 8 0 8 0 8 1:0 3:1 4:0 10:0 12:0 55:1 56:1 1054:1 
0 0 0 0 0 2.9052150316467196 1.6693460858730971 0 0 1:0 3:2 4:0 10:0 12:0 13:2 18:1 34:2 61:1 77:1 471:1 1055:1 1056:1 1057:1 
0 6.5928060752233195 4.019720879449963 0 0 5.4572328706403885 8 0 0.58899502500172507 1:0 3:1 4:1 10:0 12:0 58:1 1058:1 1059:1 
0.9399666776115766 0 2.3528420051968939 0.89400463315031486 0.78492289979009622 1.5673447513507974 3.6513307400867867 2.5786611522186145 0.18311074182196391 1:0 3:6 4:3 10:1 12:0 13:1 20:1 27:1 34:2 43:1 44:1 1060:1 1061:1 1062:1 1063:1 1064:1 1065:1 1066:1 
5.7457230124024168 1.3882320954913225 6.6721103720226136 0.87768584608314193 8 6.8770153945777572 0 1.292068548639673 7.4514340949148989 1:0 3:5 4:0 10:0 12:0 13:1 43:1 107:1 1067:1 1068:1 1069:1 1070:1 1071:1 
8 0 0 6.1490753562948663 6.2056912614401361 2.155941097703538 8 1.6250768626312813 0 1:0 2:1 3:5 4:2 6:1 10:1 12:0 18:1 34:3 40:1 86:1 123:1 352:1 676:3 1044:1 1072:1 1073:1 1074:1 
4.4501368881987577 2.8752796038195014 3.2764287860492542 2.277633077265635 3.293322267956833 0.24383296678970909 3.9604878947788276 0.49826376334810268 2.6670020632823181 1:0 3:8 4:0 10:0 11:1 12:0 18:3 30:2 34:1 44:1 104:1 940:1 1075:1 1076:1 1077:1 1078:2 1079:1 1080:1 1081:1 1082:1 
2.6550664766692713 5.7543611494433735 5.0802445506074827 0 3.4011510574986472 1.7192421677472591 8 2.5620119810316897 3.0506404323478731 1:0 3:2 4:1 10:0 12:0 30:1 35:1 43:1 50:1 55:1 65:1 1083:1 1084:1 1085:1 
0 0 1.2991064797029046 0 0 0 8 0 8 1:0 3:0 4:0 10:0 12:0 55:1 65:1 87:1 130:1 1086:1 
0 0 4.5649854242560552 0 4.971122007360524 0 8 2.4094014180082168 5.6944244566083615 1:0 3:1 4:0 10:0 12:0 34:1 1087:1 1088:1 
0 0 0.87280409716038465 0 0 0 0 0 0 1:0 3:6 4:1 7:3 10:0 12:0 18:3 34:2 43:2 44:3 46:1 55:1 65:1 95:2 155:1 276:2 360:1 405:1 1062:1 1089:1 1090:1 1091:1 1092:1 1093:1 
1.0463395217252107 2.3620185175746693 0 0.10590506083296891 0 0 0 0 0 1:0 3:5 4:0 10:0 12:0 13:1 18:2 24:2 34:1 43:1 44:1 55:1 111:3 129:1 221:1 244:1 360:1 405:1 427:1 462:1 644:1 1094:1 1095:1 
0 0 0 0 0.78978290550916075 0 0 0 0 1:0 3:8 4:2 10:0 12:0 34:2 43:1 53:1 65:1 87:1 95:1 155:1 403:1 405:1 735:1 1096:1 1097:1 1098:1 1099:1 
8 8 0 0 8 1.6551706940363837 8 8 0 1:0 3:1 4:0 6:1 10:0 12:0 18:1 352:1 360:1 439:1 
0.80737869385996375 0 0 0 2.2332578429921059 0 5.8214869751779084 0 2.3773389760453028 1:0 3:3 4:0 10:0 12:0 13:2 27:1 34:3 43:1 87:1 742:1 1056:1 1100:1 1101:1 1102:1 1103:1 
8 8 8 8 8 4.1104734535691385 8 5.812129689684169 5.0393478608711426 1:0 3:4 4:4 10:0 12:0 44:1 379:1 1104:1 1105:1 1106:1 
8 8 8 0.52014684902312336 6.6847376872841906 7.1044195720913459 8 7.6312216831455899 7.1491478292384656 1:0 3:2 4:0 10:0 12:0 18:1 1107:1 1108:1 
7.7054202084248997 7.2595654918930732 6.0830572599598813 5.5119321186670689 3.7472334746072087 5.3885615400470286 2.2049686093918752 4.551906696857003 3.3972542474118876 1:0 3:12 4:7 10:2 12:0 13:2 18:2 30:1 43:1 44:1 65:1 439:1 769:1 983:1 989:1 1109:1 1110:1 1111:1 1112:1 1113:1 1114:1 1115:1 1116:1 
0 0 0 0 0 0 0.1099964228637695 0 0 1:0 3:5 4:2 6:1 10:0 12:0 18:2 34:3 40:1 46:1 160:1 447:1 486:1 676:3 1117:1 1118:1 
4.354859492537333 4.4112865100926903 1.2680551026027147 2.1237089344958582 0.058576753640842694 1.9027494465533596 2.326110669001844 2.6544088329599558 0.51259611799762539 1:0 3:5 4:2 10:0 12:0 18:2 24:1 34:1 1119:1 1120:1 1121:1 1122:1 1123:1 
0 4.8474485604487247 3.0999055211228228 0 1.2866899146626065 8 6.4031455268663384 6.9666342604068578 0 1:0 3:5 4:0 10:0 12:0 18:3 50:1 1124:1 1125:1 1126:1 1127:1 1128:1 
3.1452843247309707 0 1.0027968386720953 0.80235415566712065 5.932255277961997 0 0 0 3.8259715975754287 1:0 3:5 4:1 10:0 12:0 13:1 18:1 50:1 135:1 207:1 1129:1 1130:1 1131:1 1132:1 
8 8 8 8 5.7980624384895263 0.28739310207955499 6.8416662410433862 0 0.12313456381806834 1:0 3:4 4:0 10:0 12:0 32:1 55:2 129:1 259:1 425:1 667:1 1133:1 1134:1 1135:1 
3.2063285552124574 2.5997809042362978 5.8695306652056285 2.0322969330920628 5.2389241437894274 3.9758258030366207 0.67358432292351422 1.0589448215635713 2.4166204726572191 1:0 3:12 4:2 10:1 12:0 13:1 18:5 24:1 27:1 34:2 43:2 44:1 46:1 50:1 269:1 272:1 360:1 401:1 462:1 545:1 1058:1 1136:1 1137:1 1138:1 1139:1 1140:2 1141:1 1142:1 1143:1 
1.7620034774998963 6.9683228310077441 4.9841298165141277 4.2042171142001115 4.2284717177248723 2.8609036254821172 8 0.033429686065980638 8 1:0 3:3 4:1 10:0 12:0 46:1 130:1 172:1 266:1 276:1 735:1 1144:1 1145:1 
2.5041403629305492 1.5316971324604884 3.1018855679726522 0 7.4725185074707703 0 8 1.9604291194104253 0 1:0 3:4 4:3 10:0 12:0 18:1 30:1 34:2 43:1 44:1 130:1 755:1 801:1 1146:1 1147:1 1148:1 
8 0.8793114703032866 0 0 4.6027612803186866 0 8 0 1.4517177387346223 1:0 3:5 4:0 10:0 12:0 18:2 26:1 30:1 34:2 43:1 50:1 65:1 88:1 111:1 258:1 469:1 538:1 742:1 1091:1 1149:1 1150:1 1151:1 
8 8 1.293749057148875 0 5.9189986390820719 6.8913013728535066 8 3.0862828229889741 3.0130005633992538 1:0 3:0 4:0 10:0 12:0 43:1 1152:1 1153:1 
3.0799248703976096 0 0 0 1.8518299078492666 0 7.5387302557952598 0 5.5154331397972136 1:0 2:1 3:7 4:0 10:0 12:0 18:1 34:4 39:1 44:1 50:1 55:1 56:1 65:1 111:1 199:1 207:1 552:1 643:1 1154:1 1155:1 1156:1 1157:1 1158:1 1159:1 
0 0 1.981276006381137 0 1.1940536377428823 0.9041700159454813 4.1922004291332513 0 0.92177080836247627 1:0 3:6 4:2 10:0 12:0 13:1 18:4 20:1 30:1 34:2 43:1 65:1 87:1 193:1 1087:1 1160:1 1161:1 1162:1 1163:1 1164:1 1165:1 
0 0 0 0 0 0 8 0 0 1:0 3:0 4:0 10:0 12:0 34:3 55:3 129:1 1166:1 
0 0.21045120538987447 1.3073105789332009 2.1532303985348813 2.6209716365631888 0 1.8585268636388654 0 2.232732719236703 1:0 2:1 3:11 4:1 10:0 12:0 13:1 18:3 30:4 43:4 55:1 95:1 103:1 106:1 152:1 358:1 636:2 1167:1 1168:1 1169:1 1170:1 1171:1 1172:1 1173:1 1174:1 1175:1 1176:1 1177:1 1178:1 
8 2.2103421485577037 5.8833214118343147 0 7.0757666972272535 0 8 0 8 1:0 3:1 4:1 10:0 12:0 1179:1 
8 8 8 0 5.4140797107087835 8 8 8 6.7539373086342493 1:0 3:1 4:0 10:0 12:0 1180:1 
8 7.9921499184645786 7.9806117955442843 0 8 5.5093310544502563 8 6.5863539886741433 8 1:0 3:1 4:1 10:0 12:0 1179:1 
0 0 0 2.9501216999569855 1.6967190005608848 0 0.27714628946760478 5.5124277695355799 1.4937586031553887 1:0 3:5 4:0 10:0 12:0 18:2 21:1 24:1 34:1 106:1 276:1 317:1 1149:1 1181:1 1182:1 1183:1 
8 8 5.7175919674238145 0 6.2579361201330501 7.7108485151850408 8 4.8533691324250432 4.8640495166599766 1:0 3:1 4:0 10:0 12:0 18:1 43:1 111:1 1184:1 
4.5906910268848202 3.6094640169156191 0 0.31367601797122635 2.6888325962215895 0 6.233050483491132 0 1.9141440273832369 1:0 2:1 3:7 4:2 7:1 10:1 12:1 13:1 18:4 20:1 27:1 30:1 34:4 44:1 46:1 111:2 144:1 251:1 399:1 471:1 512:1 995:1 1060:1 1185:1 1186:1 1187:1 1188:1 1189:1 1190:1 
0 2.7403283114204764 3.0641614132953841 2.285982947013677 0 2.3855958988928418 1.8656463173665312 0 1.2615023611445302 1:0 2:1 3:9 4:2 7:1 10:0 12:0 13:2 18:3 30:1 43:2 46:1 65:1 111:1 125:1 186:1 447:1 471:1 509:1 1075:1 1089:1 1191:1 1192:1 1193:1 1194:1 1195:1 1196:1 1197:1 1198:1 
8 0 3.0521361808733216 0 6.9905175016685348 0 8 1.941752747640596 3.2180520252782503 1:0 3:2 4:0 7:1 10:0 12:0 34:1 1199:1 1200:1 
0.20719891546686281 5.4634656611239185 1.431407042214536 0 2.8419572408149927 4.0683120144627924 8 0.98965892875861006 0 1:0 3:4 4:1 10:0 12:0 13:1 44:1 99:1 111:1 174:1 1201:1 1202:1 1203:1 
0.44567371795435501 0 1.5512934042435971 0 0.17687376421673814 0 2.5527049302223763 1.7319037120104692 1.5429035254353614 1:0 3:7 4:3 7:1 10:0 12:0 13:1 18:1 30:2 34:2 43:1 44:1 46:2 158:1 957:1 1204:1 1205:1 1206:1 1207:1 1208:1 1209:1 
0.65193864670481771 0 0 0 0.19430483511297394 0.23029677860043427 0 2.1825372758731039 3.7236974330254928 1:0 2:1 3:7 4:0 10:0 11:1 12:0 18:1 24:1 34:3 43:1 44:1 46:2 61:1 65:1 93:1 111:1 399:1 748:1 753:1 894:1 1210:1 1211:1 1212:1 1213:1 1214:1 1215:1 1216:1 1217:1 1218:1 1219:1 1220:1 
0.49549359012594441 3.1194869805205099 0 0 0 1.7953416663565771 0 1.9968676858458203 6.8824472666784384 1:0 3:6 4:1 10:0 12:0 44:1 46:2 55:2 152:1 159:1 172:1 329:1 355:1 419:1 425:1 1091:1 1221:1 1222:1 
0 5.7051777754251578 2.0916615814772475 2.7034429685631158 0.66625750473839107 1.7165399223516327 7.350342681879745 0 0.6426593953078592 1:0 3:10 4:2 6:2 10:0 12:0 13:1 18:4 27:1 30:2 34:1 43:1 44:1 55:1 65:1 88:1 130:1 160:1 193:1 494:1 808:1 936:1 1214:1 1223:1 1224:1 1225:1 1226:1 1227:1 1228:1 1229:1 1230:1 1231:1 
2.137704929646477 2.7948801334948237 0 0 5.8342385935841561 8 8 0 8 1:0 3:1 4:0 10:0 12:0 44:1 55:1 56:1 155:1 1232:1 
2.1099760687312639 0 0.34066960030203924 4.1117439275818546 1.8642407007630544 0.59221903445421431 0 0.66536019501468757 0.81237966004548701 1:0 2:1 3:13 4:2 7:1 10:0 12:0 13:2 18:5 24:2 34:1 43:1 50:1 65:1 160:1 491:1 745:1 768:1 839:1 987:1 1264:1 1265:1 1266:1 1267:1 1268:1 1269:1 1270:1 1271:1 1272:1 1273:1 1274:1 1275:1 1276:1 
8 8 6.3976220537751765 5.5536962514061052 8 5.7791862300783201 8 8 8 1:0 3:1 4:1 6:1 10:0 12:0 34:1 43:1 124:1 293:1 631:1 1277:1 
0 0 0 0.98578450880075263 0.29662828104125388 3.3121492414166323 0.94024174935292792 0.86259810004373594 1.00950794994632 1:0 2:1 3:13 4:4 10:1 12:0 18:4 26:1 29:2 34:3 40:1 43:3 44:1 46:2 50:1 65:1 145:1 507:1 525:1 1044:1 1278:1 1279:1 1280:1 1281:1 1282:1 1283:1 1284:1 1285:1 
6.0676473069816881 6.8525288672842422 1.0169290111316278 0 0 5.0529839630516538 8 0 0.17408347021530829 1:0 3:1 4:0 10:0 12:0 13:1 18:1 50:1 1056:1 1286:1 1287:1 1288:1 
0 0 0 0 0.38473844783927974 0.36396314630498339 4.5376003155032576 0 0.28854933971934149 1:0 2:1 3:6 4:1 10:0 11:1 12:0 30:2 34:2 50:1 322:1 536:1 834:1 1103:1 1153:1 1289:1 1290:1 1291:1 1292:1 1293:1 1294:1 
4.8908937648317323 2.851264172423527 8 3.9367114693004646 0.77962486061067915 1.6186779470062136 5.1843576047799136 0 4.8119229614757826 1:0 3:6 4:2 10:0 11:1 12:0 18:2 20:1 27:2 46:1 50:1 1117:1 1295:1 1296:1 1297:1 1298:1 1299:1 1300:1 
0 0 0 0.70873847868268436 0.0058312917449484126 1.4457293303622714 0 0 2.291929396173078 1:0 2:1 3:6 4:1 10:0 12:0 18:2 27:1 43:2 44:1 46:1 50:1 53:1 55:1 56:1 65:1 88:1 155:1 361:1 405:1 462:1 1301:1 1302:1 1303:2 1304:1 1305:1 
0.74624103706005673 0 2.6050858115459001 0.36250084610783384 4.0341790602401426 0 2.9481388593038718 0 0 1:0 3:7 4:1 10:0 12:0 18:1 20:1 30:1 34:2 69:1 153:1 205:1 244:1 458:1 1306:1 1307:1 1308:1 1309:1 1310:1 1311:1 1312:1 
8 0 0 0 2.9908631571370572 6.7937699018396813 8 6.6175618610650204 0 1:0 2:1 3:3 4:0 10:0 12:0 34:3 46:1 61:1 65:1 111:1 655:1 1313:1 1314:1 1315:1 
0 4.3191651603483301 0 3.873341170337723 8 0 8 0 1.5837545500256667 1:0 2:2 3:4 4:0 10:0 12:0 44:2 55:1 735:1 1316:1 1317:1 1318:1 
5.1204866041579411 0 0 0 7.4019529562638331 0 8 8 0 1:0 3:1 4:1 10:0 12:0 34:2 44:1 447:1 461:1 1058:1 
2.4511104244444186 1.4481393561362284 0 2.6257387791024756 4.3086088425309308 2.8856439963744287 0 1.9939903456243255 0 1:0 3:7 4:3 6:1 10:1 12:0 14:1 18:2 30:1 34:2 44:2 50:1 317:1 401:1 552:1 1319:1 1320:1 1321:1 1322:1 1323:1 1324:1 1325:1 1326:1 
0 0 0.8414565727294091 0 0 0 5.7449811812287646 0 0 1:0 2:1 3:4 4:2 10:0 12:0 18:1 30:2 93:1 386:1 1327:1 1328:1 1329:1 1330:1 
4.5286884796563651 0 0 3.7028738529604235 0 0 8 1.9372441243430933 0 1:0 3:4 4:2 10:0 12:0 13:1 19:1 30:1 34:1 81:1 255:1 670:1 1331:1 
5.3062606200871789 8 7.3308530715216147 5.1636200287337122 8 8 3.640252494888641 3.4077556480938025 8 1:0 3:3 4:1 10:0 12:0 13:1 20:1 43:1 46:1 55:1 425:1 770:1 1332:1 1333:1 1334:1 1335:1 
0 1.7194742581406344 3.431139982775957 8 7.684061009190561 0.85159432383087719 5.3878374190264164 0.65858035616846655 0 1:0 3:7 4:0 10:0 12:0 18:3 20:1 30:1 34:1 36:1 43:1 46:1 61:1 65:1 93:2 111:1 1017:1 1338:1 1339:1 1340:1 1341:1 1342:1 1343:1 1344:1 
2.5532625868832635 2.700126718338983 0.79947309150679524 2.7134785298345494 3.8310277546878262 0.27615939543228724 0.57342820537327188 1.9106526548279832 8 1:0 3:13 4:4 7:1 10:0 12:0 18:1 30:2 34:2 46:4 62:1 88:1 151:1 199:1 349:1 1033:1 1345:1 1346:1 1347:1 1348:1 1349:1 1350:1 1351:1 1352:1 1353:1 1354:1 
0 7.4068431041374119 1.1346429028378333 3.2254349079914753 4.5418401215376978 2.2198479712012826 6.343285672414833 0.57522902109440588 0 1:0 3:9 4:3 10:1 12:0 13:1 18:5 30:2 34:1 44:2 46:3 65:1 113:1 117:2 124:1 552:1 583:1 826:1 1067:1 1350:1 1354:1 1355:1 1356:1 1357:1 1358:1 1359:1 1360:1 1361:1 
0.096027758080817288 0 1.2888206889102403 1.6831361897597361 3.5764312222564794 0 0 0 3.5962518668017673 1:0 3:8 4:4 10:0 12:0 18:2 24:1 30:1 43:1 46:1 276:1 663:1 1054:1 1255:1 1362:1 1363:1 1364:1 1365:1 1366:1 1367:1 
5.0371372581032166 1.1065034139341909 0 1.5139145757117602 0 1.0875217727127742 2.3431076842918208 0.85656406943126406 5.8381972718975694 1:0 2:1 3:4 4:2 10:0 12:0 18:1 34:1 46:1 111:1 555:1 1368:1 1369:1 1370:1 1371:1 
0 0.1876432663759936 8 0 0 8 2.9834923569076048 8 8 1:0 3:2 4:0 10:0 12:0 18:1 46:1 87:1 304:1 654:1 1372:1 
2.0051083500061941 7.9333439893915054 0.10432064469610901 0.67067024991751212 3.32382386219839 0 2.9374359710936213 0 0 1:0 3:12 4:4 6:1 10:1 12:0 18:2 30:4 43:1 44:1 69:1 93:1 148:1 149:1 352:1 439:1 742:1 1118:1 1343:1 1373:1 1374:1 1375:1 1376:1 1377:1 1378:1 1379:1 1380:1 
3.7037162922532492 0.32720102080930336 3.6338419428469724 0 0.65633156144592975 0 6.6290726212831466 0 1.2713049464015587 1:0 3:8 4:3 10:0 12:0 13:1 18:2 30:1 44:1 46:1 352:1 471:1 494:1 814:1 1381:1 1382:1 1383:1 1384:1 1385:1 1386:1 
3.5182234255603779 8 8 0 4.0245662266057689 6.742131734412343 8 4.7696705625478932 0 1:0 3:3 4:0 10:0 12:0 13:1 18:1 43:1 44:1 46:1 762:1 1387:1 1388:1 
4.4344912487541865 5.1101579236647527 8 4.0503357777394609 5.09566389366225 4.9337053789710605 7.1138216354524326 5.1044547283073527 0.85490319479836541 1:0 2:1 3:3 4:1 10:0 11:1 12:0 13:2 46:1 153:1 155:1 383:1 1305:1 1389:1 1390:1 1391:1 1392:1 
1.987412642388813 0.27854441684329373 0.5514996408053443 0 4.9048494035353158 2.5410202889580833 0.38244680143862086 1.5228223887036678 1.9922010361139355 1:0 2:1 3:6 4:2 7:1 10:0 11:1 12:0 18:1 34:2 44:1 46:1 88:1 111:1 244:1 1393:1 1394:1 1395:1 1396:1 1397:1 1398:1 1399:1 1400:1 
8 0.10800176364966389 1.5387569056960466 0 0 0 8 3.3733125274415827 8 1:0 3:2 4:0 10:0 12:0 43:1 81:1 1078:1 1401:1 
6.5272956247138882 8 0 0 8 0 8 2.3261817590319223 0.33740842422705203 1:0 3:1 4:0 10:0 12:0 18:1 30:1 46:1 352:1 721:1 1382:1 
7.9858684226358578 4.6705125138508548 2.1319544227173837 4.6811937010606695 3.5575804306825729 0.41102419612330948 2.1255788459384855 2.2648921903162944 5.2998940448044793 1:1 2:1 3:9 4:3 7:1 10:1 12:1 13:1 18:4 27:1 34:2 44:2 56:1 65:1 730:1 923:1 1214:1 1345:1 1402:1 1403:1 1404:1 1405:1 1406:1 1407:1 1408:1 1409:1 1410:1 
4.4157496970381791 0.52555211105070787 3.3859595478349873 0.88342423005608339 3.2481548306381169 0.81782651374714599 1.0285745779550197 0 3.3749836090198637 1:0 2:2 3:9 4:3 7:2 10:0 12:0 13:2 18:4 24:1 30:1 34:1 43:1 46:2 87:1 172:1 276:2 299:1 848:1 1110:1 1411:1 1412:1 1413:1 1414:1 1415:1 1416:1 1417:1 1418:1 
5.0961352759226317 3.5300808298480613 5.2927041627648856 2.323966736325429 2.2886404089980155 0.50418134707516771 8 0 3.8870352289927017 1:0 3:12 4:3 10:0 12:0 13:1 18:1 30:5 43:1 56:1 84:2 87:1 247:1 257:1 276:1 536:1 784:1 982:1 1419:1 1420:1 1421:1 1422:1 1423:1 1424:1 1425:1 1426:1 
1.9331942031571854 8 6.7439752013657399 0 2.1671316019805431 8 8 5.4747156802226016 7.9180471879112959 1:0 3:0 4:0 10:0 12:0 18:1 46:1 1427:1 1428:1 
0.64861763719134036 8 7.475805022235825 0.85619485596985423 3.6297218093706021 2.668223597149475 8 0.98413399011809344 5.2871729867171622 1:0 2:1 3:3 4:1 10:0 12:0 20:1 43:1 93:1 1343:1 1429:1 1430:1 
8 7.173005687347076 6.8735030058709743 4.6049777125985809 0 0.47969036137104876 1.9700335796349608 2.7914792336263523 6.6813764008971868 1:0 3:5 4:3 10:1 12:0 27:1 50:1 86:1 1137:1 1431:1 1432:1 1433:1 
0.36447963509104336 5.5716461574230944 0.95747922035595967 3.5614073719819723 4.1145148317692914 8 0 8 2.4079778388406221 1:0 3:7 4:0 10:0 12:0 18:2 34:1 43:1 130:1 134:1 329:1 418:1 722:1 1401:1 1434:1 1435:1 1436:1 1437:1 
4.9960590162633007 0 0 0 4.2031557265718602 0 3.5695700445646197 0 0 1:0 3:11 4:4 10:0 12:0 13:3 18:3 30:4 34:1 43:2 65:1 255:1 275:1 352:1 398:1 425:1 447:1 568:1 588:1 670:1 795:1 975:1 1359:1 1438:1 1439:1 1440:1 1441:1 
0.24669475457469942 0 0.2664600507923599 0.73481304021812499 4.464899597381276 0.17265686745901732 0.58897031130443889 0 0 1:0 3:17 4:3 10:0 12:0 18:2 30:4 34:2 44:2 205:1 220:1 233:1 244:1 439:1 651:1 839:1 1118:1 1237:1 1249:2 1379:1 1442:1 1443:1 1444:1 1445:1 1446:1 1447:1 1448:1 1449:1 1450:1 
1.6471755958557022 0.262493191180802 0 0 0 0.17699458227502704 5.2309529427385444 0 0.62434806314009739 1:0 3:4 4:1 10:0 11:1 12:0 13:1 34:2 35:1 65:1 87:1 88:1 247:1 276:1 1451:1 1452:1 1453:1 1454:1 1455:1 1456:1 
7.624208975557881 3.6338406575731064 0 0.85620356640685935 5.6457324506178921 0 3.3246581306021095 0.15626979603396385 0 1:0 2:1 3:6 4:2 6:1 10:0 12:0 13:1 20:1 27:1 30:1 34:2 46:2 111:1 670:1 671:1 672:1 1062:1 1457:1 1458:1 1459:1 1460:1 
6.3097489892523724 3.7094259044861904 2.07067855101123 1.0038756365568176 0 3.4562046516582492 1.3126490294948767 1.9014806720365458 0 1:0 3:8 4:0 10:0 12:0 13:1 30:1 34:1 50:1 65:1 88:1 244:1 670:1 1249:1 1461:1 1462:1 1463:1 1464:1 1465:1 1466:1 
1.9055068699451292 0 0 0 0 0 0 1.4042271315479291 0 1:0 3:7 4:1 10:0 12:0 18:2 34:4 55:1 56:1 352:1 439:1 651:1 1052:1 1249:2 1467:1 1468:1 1469:1 
0.85106400292092366 0 0 0 0 0 6.4236364643631267 1.4986790513123351 0.59948913852978369 1:0 2:1 3:6 4:0 10:0 12:0 18:3 24:1 30:3 34:2 201:1 352:1 439:1 651:1 782:1 1249:2 1468:1 1470:1 1471:1 1472:1 1473:1 
0 0 0 0 0 0 8 0 0 1:0 2:1 3:2 4:0 10:0 12:0 30:1 34:1 44:1 65:1 87:1 471:1 1474:1 1475:1 
8 0 0.079643991217442187 0 0 0 1.851559650897574 0 1.4879919332178928 1:0 3:1 4:0 7:1 10:0 12:0 46:1 55:1 1476:1 1477:1 
0 0 0 0 2.901288587750273 0 1.6605872456955948 0 0 1:0 2:1 3:3 4:0 10:0 12:0 13:1 18:1 34:2 50:1 77:1 1478:1 1479:1 1480:1 
0 2.8137740576066212 2.1105612366453133 0 0 0 4.6884773271800677 0 0 1:0 3:3 4:1 10:0 12:0 30:1 723:1 729:1 731:1 1481:1 1482:1 1483:1 
2.9231557918811824 0.72326545184066193 0 0 0 0.15917203905058394 8 0 0 1:0 3:2 4:0 10:0 12:0 13:1 27:1 34:1 93:1 111:1 270:1 1224:1 1484:1 1485:1 
0 0 1.1727973573178803 0 0 0 7.2538570567347422 1.5579344360969976 0 1:0 3:4 4:0 10:0 12:0 18:1 24:1 405:1 555:1 1486:1 1487:1 1488:1 
5.6608850842491956 8 6.1321410716761431 6.2544427672080714 6.3795390911735339 6.2817613105183003 6.2493687997195089 3.1244344188088733 4.0049419232049717 1:0 2:1 3:9 4:2 6:1 10:0 12:0 13:1 18:2 24:1 29:1 43:1 46:1 558:1 1487:1 1489:1 1490:1 1491:1 1492:1 1493:1 1494:1 1495:1 
8 1.8529789753480836 0 4.258756611755059 0 1.9519263522246033 8 8 4.374385778925352 1:0 3:3 4:0 10:0 12:0 34:2 130:1 1444:1 1449:1 1498:1 
0 0 3.5335848076117289 0.046510523684625882 0 0 0 0 5.2114440832391757 1:0 3:9 4:1 10:0 12:0 13:1 30:1 34:1 43:2 50:1 95:1 155:1 266:1 405:1 558:1 735:1 1214:1 1506:1 1507:1 1508:1 1509:1 1510:1 
1.4724974994005897 0.059120680647889924 0 0 0.81556479539889104 0 3.4200408807292031 0 0 1:0 3:8 4:1 10:0 12:0 13:1 18:1 27:1 30:2 34:2 44:2 65:1 93:1 111:2 153:1 266:1 276:1 528:1 714:2 972:1 1511:1 1512:1 1513:1 1514:1 
2.5673892095894781 4.3727586271794001 0 1.6927687506011186 2.5933397718846916 0 0 0 3.2401417322484596 1:0 3:9 4:1 6:1 7:1 10:1 12:0 13:1 18:1 30:1 34:2 43:1 44:4 46:1 55:1 87:1 88:1 762:1 1052:1 1455:1 1515:1 1516:1 1517:1 1518:1 1519:1 1520:1 1521:1 1522:1 
0 0 0 0 0.23169942436332139 2.6211728205941762 0 5.6302566757242598 0 1:0 2:1 3:5 4:0 10:0 12:0 18:1 34:2 43:1 44:1 46:2 1388:1 1523:1 1524:1 1525:1 1526:1 
8 0 0 0 0 0 8 8 0 1:0 3:3 4:0 10:0 12:0 18:2 34:2 61:1 186:1 276:1 631:1 1527:1 1528:1 1529:1 
2.5956082686337387 0.49281258613209311 0 1.9675055811837523 5.360003023400405 0 0 0 3.4189983473083965 1:0 3:9 4:3 10:0 12:0 13:1 18:3 30:1 43:1 55:1 56:1 65:1 87:1 111:1 220:1 317:1 324:1 426:1 1087:1 1530:1 1531:1 1532:1 1533:1 1534:1 1535:1 1536:1 
0.074847194069188411 4.7463972299936925 0.052910552997116445 2.533631306466948 5.1543480904514256 1.1180354642625749 3.9860435322121686 0 3.9130291919038478 1:0 3:7 4:1 10:0 12:0 17:1 18:1 44:1 46:2 55:2 172:1 457:1 462:2 1537:1 1538:1 1539:1 1540:1 
3.3165335937057709 0 1.0086604174234388 0.9173181743104234 2.620747246903071 0 5.8274744788126824 1.2202188358581043 0.25133978633823117 1:0 2:1 3:5 4:1 10:0 12:0 20:1 30:1 34:2 46:1 50:1 93:1 98:1 124:1 552:1 1541:1 1542:1 1543:1 1544:1 1545:1 1546:1 
0 0 0 0 0 0 7.7480143871881468 0 0 1:0 3:3 4:0 10:0 12:0 30:1 34:2 87:1 423:1 1455:1 1497:1 1547:1 
5.1419539245140156 0.92094039675329054 0.2456016391681636 0.64270033820702877 5.8685682001997526 1.3994021574978681 1.7048805258961026 0 6.3906766359314702 1:0 3:6 4:0 10:0 11:1 12:0 13:1 18:1 27:1 34:2 50:1 65:1 84:1 107:1 111:1 276:1 1548:1 1549:1 1550:1 1551:1 1552:1 1553:1 1554:1 1555:1 
2.9698278999476013 8 3.2876301338992291 0 0.1094861022638462 6.0778969320905949 8 6.6829418744219584 8 1:0 3:1 4:0 10:0 12:0 1556:1 
0 0 0 3.8483061728083237 0 0.051205172241402218 0 0 0 1:0 3:7 4:1 6:1 10:0 12:0 18:4 34:2 40:1 43:2 46:1 55:2 88:1 486:1 676:3 834:1 1557:1 1558:1 1559:1 1560:1 1561:1 1562:1 1563:1 
1.6405745359521198 0 3.0221772994207114 0 0.11096766103821004 0 2.355095181087405 1.2452502477069693 0 1:0 2:1 3:7 4:2 10:0 11:1 12:0 18:2 30:1 34:2 50:2 93:1 1137:1 1227:1 1512:1 1564:1 1565:1 1566:1 1567:1 1568:1 
3.3352157953165653 6.019592790935226 8 5.5418399005715262 6.0629406567293707 0 6.6084792127613223 0 4.3600606908086972 1:0 3:6 4:2 10:0 12:0 13:1 18:1 30:1 35:1 46:2 55:1 69:1 130:1 266:1 923:1 1329:1 1569:1 1570:1 1571:1 1572:1 
8 0 0 2.0234419721355881 0 0 3.7266152095833833 0 8 1:0 3:2 4:1 10:0 12:0 34:3 44:3 145:1 471:1 760:1 1573:1 1574:2 
0 2.7835681286139899 0 0 0 0 5.4096725447459901 0 4.1003625376467596 1:0 2:1 3:4 4:1 10:0 12:0 13:1 18:1 27:1 30:1 46:1 50:1 65:1 111:1 1364:1 1575:1 1576:1 1577:1 
0 0 0 0 0.023748703704894934 0 2.1325636830833403 0 0 1:0 3:11 4:1 6:1 10:1 12:1 13:1 17:1 18:3 20:1 27:1 29:1 34:1 36:1 40:1 41:1 43:1 44:1 46:2 93:1 129:1 163:1 259:1 359:1 399:1 753:1 839:1 1058:1 1237:1 1464:1 1578:1 1579:1 1580:1 1581:1 1582:1 
4.475494484291298 3.1711047966667336 5.7861019082840643 0 2.9559312635473152 1.6939270247791431 8 0.83565197348824727 2.1470465098731388 1:0 3:3 4:0 10:0 12:0 18:1 30:1 50:1 1583:1 1584:1 1585:1 
0.70386685468589982 1.0738258118483115 1.5600409493677696 0.92116956394295091 0.099866280933116891 0.85200687617234827 0.78367559048370417 1.5850592637116603 0.67117780090306445 1:0 3:9 4:2 10:0 12:0 13:1 34:2 43:1 44:1 50:1 65:2 297:1 656:1 1586:1 1587:1 1588:1 1589:1 1590:1 1591:1 1592:1 1593:1 1594:1 
0.99822664460898003 0 0 0 0 0 0 0 0 1:0 3:2 4:0 7:1 10:0 12:0 87:1 97:1 107:1 153:1 154:1 244:1 
7.4798099065172163 2.3170538180316358 8 0 8 4.2966978941177567 8 0 8 1:0 3:1 4:0 10:0 12:0 65:1 107:1 1603:1 
4.8600520913435554 5.8103463479127662 2.0071322600149366 0 0 0 2.0721902291042968 0 0.064373497019151654 1:0 3:8 4:2 6:1 10:0 12:0 18:4 30:2 43:3 111:1 155:1 378:1 494:1 509:1 631:1 732:1 943:1 1604:1 1605:1 1606:1 1607:2 
2.5212284451137927 3.6657276797333296 0.68560859952509801 2.5810479217779987 5.4550209174122024 5.3354302933977733 4.6081995100205253 5.497380609971338 0.87343481398964695 1:0 3:13 4:1 6:1 10:0 12:0 13:2 18:3 27:1 30:2 34:3 43:2 44:1 50:1 193:1 276:1 536:1 935:1 1536:1 1608:1 1609:1 1610:1 1611:1 1612:1 1613:1 1614:1 1615:1 1616:1 1617:1 1618:1 1619:1 1620:1 1621:1 
0 0 1.9921271678610923 0 0 0 5.8218264321344337 0 0 1:0 2:1 3:1 4:0 10:0 12:0 13:1 55:1 65:1 87:1 152:1 243:1 244:1 1622:1 
4.363183388331314 3.2702677151114523 8 0 3.108469996927901 0 8 0.9623374556147789 0 1:0 3:2 4:0 10:0 12:0 30:1 1356:1 1623:1 1624:1 
3.3412611767362095 1.0414184133522102 1.6415930116087323 3.9321091216150674 2.7565092040893471 0.75876561824256494 5.7123878218139463 0.68913180609997682 1.9734363874294716 1:0 3:4 4:2 10:0 12:0 13:1 18:1 34:1 43:1 44:1 46:1 87:1 155:1 600:1 760:1 1625:1 1626:1 1627:1 1628:1 
3.246114131691523 3.3572100048003342 2.1459926072208138 0.25097813014286646 4.0255403261140454 8 1.0072267996390873 4.4436054025865142 2.8423138241416344 1:0 2:2 3:14 4:3 6:1 10:0 12:0 13:1 20:1 24:1 30:1 39:1 43:2 44:2 90:1 117:1 399:1 536:1 605:1 607:1 1502:1 1629:1 1630:1 1631:1 1632:1 1633:1 1634:1 1635:1 1636:1 1637:1 1638:1 
2.989580249088879 8 2.7835416601432987 3.7249718470623692 4.4846495235326387 7.0989248707978732 5.4631155208156992 4.3831682963845671 0.35304596359595969 1:0 3:9 4:2 6:1 10:2 12:0 18:3 24:1 30:1 34:2 43:1 44:1 46:2 61:1 138:1 244:1 323:1 324:1 399:1 574:1 1639:1 1642:1 1643:1 1644:1 1645:1 1646:1 1647:1 1648:1 
0 0 2.6846308574508333 0 0 0.18129651261203952 1.3089347008025498 4.3132197911683843 0.98041024629016915 1:0 3:2 4:0 10:0 12:0 18:1 35:1 43:1 243:1 266:1 1649:1 1650:1 1651:1 1652:1 1653:1 
5.5717631981725484 5.3603125309368442 6.214124065538833 2.8599934690084967 3.7604113236913621 6.3904534673663793 8 2.2808726899783909 8 1:0 3:3 4:2 10:0 12:0 27:1 1161:1 1654:1 1655:1 
4.936584612316925 2.2995654164061303 4.1749186261431017 3.7052212345891395 6.4453100275725106 3.4801922526506375 4.8980292247180781 3.1682892561864056 6.1912631178849704 1:0 2:1 3:12 4:3 10:0 12:0 18:2 27:1 34:2 43:1 44:1 145:1 452:1 853:1 858:1 1656:1 1657:1 1658:1 1659:1 1660:1 1661:1 1662:1 1663:1 1664:1 
0 0 5.5580734350923739 0 2.8999758956154946 0 7.9835286242174179 8 5.9066810237121947 1:0 3:2 4:0 10:0 12:0 18:1 34:2 207:1 211:1 1665:1 1666:1 1667:1 
0 0 0.096463810273338238 0 0.089382076524013768 0 0 0 0 1:0 3:10 4:2 6:1 10:1 12:0 13:1 18:3 20:1 24:1 27:1 29:1 36:1 40:1 41:1 43:2 44:1 46:3 86:1 318:1 986:1 1106:1 1377:1 1676:1 1677:1 1678:1 1679:1 1680:1 
5.6502465415989445 2.6780219922511406 0 0 8 0 5.3687048173679166 0 0 1:0 2:1 3:10 4:4 10:0 12:0 18:3 30:1 34:1 43:1 44:1 50:1 129:1 149:1 160:1 223:1 264:1 352:1 439:1 1324:1 1525:1 1560:1 1681:1 1682:1 1683:1 1684:1 
2.6349572372462555 0 8 0 2.65266962533829 8 8 2.9282127397568884 0 1:0 3:1 4:0 10:0 12:0 1356:1 1685:1 
1.6346432028310784 6.3185966559487472 0 7.3379517363824345 4.0482775833545013 6.3879613272077282 1.4747570707114215 3.5426713768846185 0 1:0 2:1 3:6 4:2 6:1 10:0 11:1 12:0 18:3 20:1 24:1 30:1 34:3 46:1 50:3 93:1 130:1 236:1 237:1 560:1 676:3 949:1 1387:1 1686:1 1687:1 1688:1 1689:1 1690:1 
2.2468081047013135 7.3814900051274863 2.82682040292433 2.5914791783196387 2.5503043652378361 2.5336604361744897 0 4.3864557248459457 2.7365307668754761 1:0 3:15 4:3 6:1 10:0 12:0 18:5 24:1 43:1 44:2 93:1 155:1 279:1 447:2 595:1 636:1 1249:1 1691:2 1692:1 1693:1 1694:1 1695:1 1696:1 1697:1 1698:1 1699:1 1700:1 1701:1 1702:1 1703:1 
3.6270571270888423 0 0 3.5785377093163269 3.7164107902049057 0 1.3361735808008401 0.34316491806383931 0 1:0 3:9 4:0 10:0 12:0 13:1 29:1 34:1 44:2 86:1 106:1 117:1 436:1 471:1 552:1 863:1 1400:1 1518:1 1704:1 1705:1 1706:1 1707:1 1708:1 1709:1 
4.3271816330800901 2.6684198704216016 1.8310561894541908 4.2688396599425573 3.9272197681604086 1.5005529327569451 2.3768959238541578 1.7106883965665858 2.7069044231581683 1:0 3:10 4:0 10:0 12:0 13:1 18:3 30:2 34:2 46:1 65:1 104:1 111:1 1499:1 1710:1 1711:1 1712:1 1713:1 1714:1 1715:1 1716:1 1717:1 1718:1 1719:1 1720:1 
4.855690725437011 0 0 3.9098813881456449 2.1746539331651369 0 8 0 0 1:0 3:1 4:0 10:0 12:0 18:1 30:1 34:1 46:1 317:2 423:1 1427:1 
7.0955939848613445 1.0421522577603697 0.34818130958197496 0.036755130979024664 2.8132417520043393 0 3.4159461938827418 1.3006890180618687 2.8214403383869686 1:0 3:8 4:1 10:1 12:0 18:2 20:1 34:2 43:1 44:1 46:1 50:1 185:1 201:1 244:2 269:1 568:1 1721:1 1722:1 1723:1 1724:1 1725:1 1726:1 1727:1 
0 0 2.8542925072584926 0 1.6482493622805117 0 0.90932568978410255 1.4441489599396036 5.1028126214113678 1:0 3:5 4:1 10:0 12:0 13:1 18:2 24:1 30:1 39:1 46:3 55:1 65:1 111:1 172:1 470:1 501:1 1728:1 1729:1 1730:1 1731:1 1732:1 1733:1 
1.5507830868726828 8 2.6593187232989153 0.94383619939211427 5.1545276955777846 2.9808419999672093 8 4.5719811810960698 0 1:0 3:3 4:0 10:0 12:0 18:1 43:1 46:1 1271:1 1734:1 1735:1 1736:1 
1.8473989761939891 0 0 0 1.7661938016541279 0.0088396649313177006 2.2068013406781488 0 1.6161709604662242 1:0 2:1 3:5 4:2 10:0 12:0 13:1 18:1 30:1 34:3 43:1 50:1 56:1 65:1 81:1 111:1 293:1 1737:1 1738:1 1739:1 1740:1 1741:1 1742:1 1743:1 1744:1 1745:1 
2.2861147578146466 0 0 0 0 0 8 0 6.1179212250318757 1:0 3:3 4:0 10:0 12:0 20:1 30:1 34:1 44:1 65:1 258:1 1746:1 1747:1 1748:1 
0.0070905283146487511 5.3905801793008168 0 2.4090328382828354 0 1.7050850216901996 0 0 2.0883041222338807 1:0 2:1 3:8 4:2 10:0 12:0 18:2 30:1 34:1 43:1 44:1 46:1 50:1 111:2 130:1 223:1 244:1 251:1 555:1 737:1 1421:1 1457:1 1749:1 1750:1 1751:1 1752:1 1753:1 
2.2221923311706018 2.4128338215311587 4.7906298321840151 0 3.3935969749959289 0 2.2275170027481765 2.047395924244563 0.023724174622538889 1:0 3:11 4:3 10:0 12:0 13:2 18:4 30:3 34:1 43:4 50:2 113:1 155:2 159:1 264:1 318:1 531:1 1152:1 1736:1 1754:1 1755:1 1756:1 1757:1 1758:1 1759:1 1760:1 1761:1 1762:1 1763:1 1764:1 1765:1 1766:1 
5.4757386487215518 0.56745886058540307 0 0 0.3174762274290942 0 0.22420307565342237 0 0 1:0 2:1 3:5 4:1 10:0 12:0 18:2 30:1 34:1 43:1 46:1 88:1 93:2 111:1 172:1 399:1 474:1 560:1 745:1 1767:1 1768:1 1769:1 1770:1 
0 2.5160747444873155 2.3141099150788005 0 0 0 0 0 6.2355882919193641 1:0 2:1 3:10 4:2 10:0 12:0 18:3 30:1 34:1 43:3 44:1 50:1 65:1 87:2 88:1 111:1 129:1 258:1 331:2 425:1 813:1 1771:1 1772:1 1773:1 1774:1 1775:1 1776:1 1777:1 
1.7923569307105838 4.3471177600414528 2.4150714062395529 0 7.9478753184348117 3.2225529466455369 8 0 4.6369306913476889 1:0 3:3 4:1 10:0 12:0 1778:1 1779:1 1780:1 
1.0369549020552438 0 0 0 0 0 6.320543973161465 0 3.9645230104899527 1:0 3:5 4:0 10:0 12:0 30:1 50:1 55:2 87:1 1535:1 1777:1 1781:1 1782:1 1783:1 
0 3.789224934512661 0 1.4747959467472966 1.1320626373282106 1.252349657322765 0.0610279561740521 1.5993433376186066 0 1:0 2:1 3:9 4:2 10:0 12:0 13:2 18:3 20:1 30:1 34:3 43:2 44:1 50:2 79:1 88:1 174:1 290:1 509:1 534:1 700:1 995:1 1194:1 1356:1 1775:1 1784:1 1785:1 1786:1 
0 0 0 0 0 0 0 0 2.4160123821117048 1:0 3:5 4:1 10:0 12:0 13:1 20:1 30:1 43:1 46:1 55:2 65:1 111:1 152:1 160:1 251:1 359:1 760:1 1054:1 1094:1 1787:1 1788:1 
2.0159399524808226 8 6.374059101495976 6.0768152023126358 8 1.5975768909308345 3.0053578518321213 4.4639462783423323 0 1:0 2:1 3:11 4:4 6:1 10:1 12:0 13:2 18:5 24:1 27:1 30:2 34:3 44:1 46:1 93:1 135:1 463:1 552:1 793:1 1343:1 1690:1 1747:1 1773:1 1789:1 1790:1 1791:1 1792:1 1793:1 
4.7084025968851444 0 0 0 2.8759029308329089 0 0 0.21760319254931934 2.5838209077220755 1:0 3:8 4:3 7:1 10:1 12:0 13:1 18:2 30:1 34:3 43:1 65:1 87:1 352:1 598:1 638:1 939:1 1377:1 1794:1 1795:1 1796:1 1797:1 1798:1 
0 0 6.5672761111143672 0 0 0 8 0 1.4207327283228119 1:0 3:1 4:1 10:0 12:0 18:1 55:1 87:1 244:1 1799:1 
8 0 0 0.12701394172396815 0 0 1.4407134471898795 0 4.214254035094787 1:0 3:6 4:0 10:0 11:1 12:0 13:1 18:1 24:1 29:1 30:1 40:1 43:1 44:1 46:2 471:1 667:1 995:1 1800:1 1801:1 1802:1 1803:1 
2.5960428356161622 0 8 0 0 8 8 0 7.2842463260820303 1:0 3:1 4:0 10:0 12:0 13:1 18:1 46:1 172:1 762:1 1006:1 
4.0667334698559365 8 4.6709000968885013 0.69880357907314905 6.2483642493381186 2.9007459054336588 0 1.907777226426036 2.1235562263364827 1:0 3:7 4:4 7:1 10:1 12:0 18:3 43:2 44:1 88:1 662:1 787:1 1582:1 1804:1 1805:1 1806:1 1807:1 1808:1 
2.3465239381346441 0 0 0.97188005351017481 1.3617493604014939 2.386806438633748 0 1.2100758968791896 1.6623630378153695 1:0 3:9 4:4 6:1 10:0 12:0 13:2 18:4 24:2 29:2 34:2 40:2 43:2 44:1 46:1 382:1 882:1 1241:1 1354:1 1809:1 1810:1 1811:1 1812:1 1813:1 1814:1 1815:1 1816:1 1817:1 1818:1 1819:1 
0 0 0 0 0 0 0.51589165086665278 0 0 1:0 3:2 4:1 10:0 12:0 13:1 18:1 24:1 29:1 34:2 40:1 43:2 243:1 839:1 1122:1 1162:1 1266:1 1820:1 
4.7082683113789203 0 4.0101217150720467 0.46250050275210047 0.82743740919507724 0 8 0 4.2803719120896657 1:0 3:4 4:1 10:0 12:0 18:1 20:1 30:1 43:1 155:1 157:1 193:1 351:1 1022:1 1496:1 1821:1 
3.1319802094688067 0.39523680035312919 3.7388020640613489 0.90945347213168981 2.0390733300440669 0.95792068223131899 0 0 2.1636902237863298 1:0 2:2 3:9 4:2 7:2 10:2 11:1 12:2 27:1 30:3 35:1 43:2 55:1 65:1 88:2 157:1 361:1 1022:1 1400:1 1822:1 1823:1 1824:1 1825:1 1826:1 1827:1 1828:1 1829:1 1830:1 
2.7371619438015791 8 6.1387273723643512 3.0684895819586622 4.227725425505791 3.6158951806214765 1.2775705781983122 1.9091535865251925 8 1:0 3:10 4:2 10:1 12:1 18:5 24:1 30:1 65:1 88:1 107:1 111:1 352:1 425:1 555:1 590:1 731:1 1334:1 1826:1 1828:1 1831:1 1832:1 1833:1 1834:1 1835:1 1836:1 1837:1 1838:1 1839:1 1840:1 1841:1 
8 0.29636085437923348 0 0 8 0 8 8 8 1:0 3:2 4:0 10:0 12:0 34:3 863:1 864:1 1842:1 
0 0 0 0 0 0 5.2666543094730791 0 0 1:0 3:2 4:2 10:0 12:0 18:1 27:1 44:1 55:1 69:1 1649:1 1843:1 
2.6047998984652225 0 0 8 0 0 8 0 0 1:0 3:1 4:0 10:0 12:0 50:1 317:1 1479:1 
0 0 0 0 5.5126898834847191 0 8 0 0 1:0 3:3 4:0 7:1 10:0 12:0 13:2 30:1 34:1 46:1 55:1 65:2 244:1 247:1 266:1 794:1 1271:1 1844:1 
5.7035805783542584 0 8 0.48994028218757296 8 1.8679233714597059 0.32663131824619446 0 8 1:0 3:2 4:1 10:0 12:0 13:1 30:1 65:2 107:2 193:1 471:1 1845:1 1846:1 
1.1582430494045737 8 2.1821827209171745 0 1.4682932715932602 1.3195832176916453 0 0.03301165903546955 8 1:0 3:6 4:2 10:0 12:0 13:1 18:2 27:1 34:1 65:2 111:1 1770:1 1847:1 1848:1 1849:1 1850:1 1851:1 
4.7540034110240903 4.7446017142188772 0 4.4362219720145335 5.1478194454673503 7.1520034622667241 8 5.0140760184276729 0 1:0 3:3 4:1 10:0 12:0 18:1 24:1 43:1 329:1 1852:1 1853:1 1854:1 
8 8 8 0 5.4154219542118742 6.0781357524332762 8 6.6824001559842969 6.7493911533643747 1:0 3:1 4:0 10:0 12:0 1855:1 
7.189724055398691 5.9326450226248495 5.9625986431791915 5.4958763899835912 4.5855982382505562 2.7902717730393554 4.2670107588159727 1.3906289154845946 3.3738266961912275 1:0 2:1 3:11 4:4 10:1 12:1 13:2 20:1 27:1 34:1 39:1 43:1 44:1 46:1 53:1 65:1 111:2 153:1 195:1 631:1 1154:1 1510:1 1856:1 1857:1 1858:1 1859:1 1860:1 1861:1 1862:1 
0 0 0 0 0 0 2.1599628825296069 0 0 1:0 3:11 4:3 6:1 10:0 12:0 18:1 29:1 30:1 36:1 39:1 40:1 41:1 44:1 46:2 50:2 62:1 65:2 266:1 318:1 497:1 536:1 552:1 834:1 839:1 1210:1 1237:1 1870:1 1871:1 1872:1 
1.2486224326192557 0 0.68546025120116283 0 3.1047274458514726 0 0 0 0 1:0 3:9 4:2 10:0 12:0 18:2 27:1 30:1 43:1 130:1 155:1 206:1 259:1 318:1 361:1 419:1 497:1 579:1 679:1 1247:1 1873:1 1874:1 1875:1 1876:1 
0 7.8785199238291339 5.8308724327174444 0 6.4770046069211133 0 8 0 0 1:0 3:2 4:0 10:0 12:0 30:1 1711:2 
0 0 0.3917304956800024 1.1563885954074549 0 1.7668460431463118 1.5858411637980878 3.7276658231767312 0 1:0 2:1 3:8 4:1 10:0 12:0 13:2 30:1 34:2 44:1 50:1 53:1 97:1 111:1 266:1 317:1 536:1 537:1 706:1 1286:1 1877:1 1878:1 1879:1 
5.4937987186101154 8 2.6738562278981766 8 6.9580054708490007 2.9579462607867293 2.5635079411446071 0 6.0435843947245846 1:0 2:1 3:11 4:3 10:1 12:0 18:4 24:1 27:2 34:1 50:1 145:1 160:1 352:1 583:1 1266:1 1880:1 1881:1 1882:1 1883:1 1884:1 1885:1 1886:1 1887:1 1888:1 
0 0.12987545994709812 0 0 0.75093026931521056 2.7540819161916472 0 0 0 1:0 2:1 3:8 4:2 6:2 10:0 12:0 18:4 34:2 40:1 43:1 46:1 55:1 88:1 160:1 264:1 444:1 486:1 676:3 1248:1 1502:1 1889:1 1890:1 1891:1 
8 1.1983434293663215 8 5.2089689955844101 5.8567852418610302 2.1170988043081467 4.2353139108360249 4.6708956017942471 8 1:0 3:5 4:2 10:0 12:0 27:1 46:1 107:1 502:1 982:1 1117:1 1892:1 1893:1 1894:1 
0 0 0 0 0 0 1.2609234093209893 0 0 1:0 2:1 3:8 4:1 10:0 11:1 12:0 13:1 30:1 34:1 41:1 44:2 742:1 865:1 1894:1 1895:1 1896:1 1897:1 1898:1 1899:1 
2.5881175246375361 0 0 0 2.5391293366379357 0 8 0 0 1:0 3:1 4:1 10:0 12:0 18:1 55:1 56:1 155:1 823:1 839:1 1900:1 
7.506377168608271 4.0206665996942625 5.9244525156605325 0 0 0 6.0453599342660889 0 7.4229170167571619 1:0 2:1 3:2 4:1 7:1 10:0 12:0 18:1 46:1 87:1 98:1 1856:1 1901:1 1902:1 
1.6919274038502496 3.6546570411402559 0 2.2248703069298994 8 5.9906222761496384 3.6029504012342133 4.7320388903018236 0 1:0 2:1 3:11 4:3 6:1 10:0 12:0 13:1 18:8 24:1 34:2 43:2 44:1 93:1 144:1 223:1 264:1 276:1 329:1 555:1 579:2 674:1 1408:1 1502:1 1903:1 1904:1 1905:1 1906:1 1907:1 1908:1 1909:1 
2.5956511364152046 8 5.6485629284834991 0 8 3.7348454954848971 8 0 0.66188991979689416 1:0 3:1 4:0 10:0 12:0 1820:1 1910:1 
7.7565082388682125 2.9682422826894035 8 0 0 8 6.0959278540806539 8 0 1:0 3:1 4:0 10:0 12:0 17:1 43:2 55:1 129:1 191:1 1502:1 1911:1 
1.0068383222302077 0.90484104399137988 3.180137074442515 0 0 0 0 0 1.2918121234098101 1:0 2:1 3:8 4:3 10:0 12:0 13:1 18:1 30:1 34:1 46:1 65:1 93:2 129:1 172:1 628:1 1711:1 1912:1 1913:1 1914:1 1915:1 1916:1 1917:1 1918:1 
1.6452546385768263 0.66326396459929748 0 0 4.8894973101586388 0 0 1.3815120757709418 2.2068976808653953 1:0 2:1 3:6 4:1 6:1 10:0 12:0 18:2 27:1 29:1 34:4 43:2 44:2 50:1 74:1 107:1 125:1 130:1 155:1 244:1 422:1 571:1 1102:1 1574:1 1919:1 1920:1 1921:1 
5.2261875231178054 0 8 0 2.4745174745676537 8 8 8 0 1:0 3:2 4:0 10:0 12:0 34:1 61:1 1502:1 1922:1 1923:1 1924:1 
0 0 0.73082880956712548 0 0 0 0 0 8 1:0 3:7 4:1 7:1 10:0 12:0 13:2 18:2 20:1 24:1 30:3 34:1 43:2 46:1 172:1 288:1 735:1 1438:1 1925:1 1926:1 1927:1 1928:1 1929:1 
0 0 0 0 0 0 0 0 8 1:0 3:1 4:0 7:2 10:0 12:0 55:2 56:1 1054:1 
0.43576196365426423 0.18577116132880669 0.028372552132629913 1.4127396078265813 2.1839795235567787 2.377453739467037 0 0.61422671317823319 0 1:0 3:14 4:4 10:1 12:0 18:3 30:1 34:1 43:3 44:1 46:1 107:1 285:1 288:1 507:1 704:1 1930:1 1931:1 1932:1 1933:1 1934:1 1935:1 1936:1 1937:1 1938:1 1939:1 1940:1 
0 0 0 0 8 0 8 8 0 1:0 3:1 4:0 10:0 12:0 34:3 88:1 1941:1 
0 0 0 0 0 0 8 0 8 1:0 2:1 3:1 4:0 7:1 10:0 12:0 87:1 1942:1 
0 0 0 0.77116282371649381 0 0 4.0821647512130221 1.6163732765984398 0 1:0 3:5 4:1 10:0 12:0 13:1 34:2 186:2 1070:1 1071:1 1943:1 1944:1 1945:1 
3.5673227563723242 0.13091528427180066 2.1001063733401564 2.3453494583261807 0.029495494844948931 4.4489531244652385 1.0541446902058191 0 2.5763045558003093 1:0 3:4 4:2 7:1 10:0 12:0 13:1 18:1 46:1 426:1 1946:1 1947:1 1948:1 
2.090581767522397 8 2.3170624795396488 3.6026805373550657 4.4282826952791607 0 2.5898024854346189 1.6452014127483503 2.9005847297663685 1:0 3:12 4:5 6:1 10:0 12:0 13:1 18:4 20:1 27:1 34:1 38:1 43:4 46:1 160:1 276:1 631:1 1094:1 1524:1 1793:1 1942:1 1949:1 1950:1 1951:1 1952:1 1953:1 1954:1 1955:1 
0 0 0 0 0 0 8 0 0 1:0 3:1 4:1 10:0 12:0 34:1 149:1 
0 0 0 0.21184643869245801 0 0 0 0 0 1:0 2:1 3:6 4:0 6:1 10:0 12:0 18:2 20:1 34:1 50:1 55:1 157:1 237:1 628:1 722:1 731:1 839:1 949:1 1830:1 1917:1 1956:1 1957:1 
8 8 8 0 8 8 8 5.4623645548202031 8 1:0 3:1 4:0 10:0 12:0 1541:1 
0 1.508104950496425 0 0 0.30470404428238884 0 4.0292443871802863 0 2.3348154944043569 1:0 3:6 4:0 10:0 12:0 17:1 18:1 20:1 27:1 30:2 34:2 44:1 46:1 50:1 55:2 56:1 58:1 86:1 93:1 97:1 121:1 138:1 509:1 1255:1 1460:1 1958:1 1959:1 1960:1 1961:1 
0 0 0 0 0 0 4.3924664050010707 0 0 1:0 3:8 4:2 10:1 12:0 13:1 18:1 30:1 34:2 43:2 44:1 93:1 111:1 160:1 259:1 266:1 314:1 329:1 387:1 471:1 1639:1 1962:1 1963:1 1964:1 1965:1 1966:1 1967:1 
6.0591815212697746 1.1644465719755892 0 1.5900819067393819 3.7927910925926183 6.2975535920616004 8 1.1937007333888079 1.6316117826336791 1:0 3:3 4:1 10:0 12:0 628:1 1780:1 1917:1 1968:1 
8 8 8 0 8 0 8 0 8 1:0 3:4 4:0 10:0 12:0 13:1 18:1 30:3 46:1 50:1 272:1 501:1 1460:1 1969:1 1970:1 
8 8 7.9212747464865467 8 2.3031655762952448 0.27755950457570755 7.2938875878913478 4.2691283266291622 8 1:0 3:3 4:1 10:0 12:0 24:1 1108:1 1833:1 1971:1 1972:1 
8 8 7.8666747928250915 0 0 8 8 6.2844304888782423 0.61407963905991236 1:0 3:1 4:0 10:0 12:0 13:1 1973:1 
8 8 4.089898464178189 5.0034993221007591 4.207470042082285 8 8 0 8 1:0 3:3 4:0 10:0 12:0 43:1 111:1 267:1 471:1 762:1 1469:1 
0.37726285273154425 2.6775370635491353 0 0.54587311604601418 2.5120301377553744 0.75275924079403622 1.950186225477246 0 2.03765353785443 1:0 3:12 4:4 6:1 10:0 12:0 13:3 30:2 43:2 56:1 111:1 155:1 157:1 160:1 200:1 276:1 378:1 458:1 573:1 712:1 839:1 882:1 1094:1 1314:1 1824:1 1974:1 1975:1 1976:1 1977:1 1978:1 1979:1 
0 0.85288750210989417 0 0 0 0 8 0 0 1:0 3:3 4:0 10:0 12:0 18:1 30:1 55:1 65:1 111:1 278:1 1362:1 1408:1 
1.1561709734027088 4.8489826656395136 3.771384980358766 4.242681090147018 5.877134635517459 2.6857807491708394 1.3535549594802108 0.15762621144839478 2.8973454018066946 1:0 2:1 3:14 4:2 10:1 12:0 18:3 20:2 30:2 34:2 35:1 43:2 44:1 46:4 56:1 106:1 193:1 459:1 531:1 713:1 742:1 1201:1 1527:1 1980:1 1981:1 1982:1 1983:1 1984:1 1985:1 1986:1 1987:1 1988:1 
4.3398156866198203 0 0 0 0 0 8 4.5505991792399891 0 1:0 3:3 4:0 10:0 12:0 34:1 253:1 423:1 1455:1 1989:1 
0 0 0 0 0 0 7.72909137972729 0 0 1:0 3:2 4:0 10:0 12:0 30:1 43:1 111:1 186:1 317:1 1325:1 1990:1 
5.0308009042766777 3.6835580257533898 0 0.69432752443895984 8 4.1410216506900239 8 1.0440710032129392 0 1:0 2:1 3:4 4:0 10:0 12:0 13:1 34:1 44:1 46:1 61:1 81:1 111:1 123:1 125:1 139:1 491:1 1991:1 
7.4345173036755652 7.4096719237172062 7.5118533903258795 1.1723600760422099 6.4860127999624551 7.418333012630244 8 7.6732851205149526 3.4959325181353851 1:0 3:4 4:1 10:0 12:0 34:2 43:2 50:1 262:1 1827:1 1992:1 1993:1 1994:1 
8 6.2491967608318397 7.0524569538642847 3.1599789843610515 0 2.1370615779628808 8 0 8 1:0 3:1 4:0 10:0 12:0 46:1 172:1 266:1 547:1 552:1 742:1 
2.9247162114082723 0 0 0 0.44514953581250616 0 0 0 0 1:0 3:1 4:0 7:2 10:0 12:0 30:1 34:1 43:1 44:1 46:2 88:1 1716:1 1995:1 1996:1 1997:1 
1.8864530678652411 5.8456802825062892 0 0 1.5719063619606175 0 3.7771422411122058 0 1.0771036481517706 1:0 2:1 3:2 4:0 10:0 12:0 55:1 1998:1 1999:1 2000:1 
0.41024322944328023 2.247164747440825 8 2.8039707377236156 0 6.036890870161713 3.9806729054959731 0.10905595531395182 4.0937786743028557 1:0 3:2 4:2 10:0 12:0 13:1 18:1 81:1 244:1 1681:1 1833:1 2001:1 2002:1 
0.58195877979310595 0 2.2678250539340832 0 1.6970843771870929 0 0 1.31734831878734 1.0442718012558838 1:0 3:9 4:0 10:0 12:0 13:1 18:2 20:1 32:1 34:2 41:1 43:1 53:1 155:1 2003:1 2004:1 2005:1 2006:1 2007:1 2008:1 2009:1 
8 4.8445180881786261 0.32606591385798328 4.1261532760124142 5.1644433678851884 6.7710082746292484 2.4671617322720794 3.8724754415161327 4.9413515121338563 1:0 2:1 3:9 4:4 6:1 10:1 11:1 12:0 13:2 18:4 27:1 34:2 39:1 43:2 44:1 46:1 56:1 65:1 130:1 143:1 243:2 256:1 483:1 555:1 1074:1 1162:1 1730:1 2010:1 2011:1 2012:1 2013:1 2014:1 2015:1 
0 0 0 0 0 0 2.2358816375381672 0 3.8173636902348953 1:0 2:1 3:6 4:2 10:0 12:0 18:1 30:1 34:2 43:1 44:1 87:1 93:1 731:1 1080:1 2016:1 2017:1 2018:1 2019:1 2020:1 2021:1 
6.4133459379371365 0 0 0 0 0.69687735715852961 0 2.7673068230588909 2.8795188529929776 1:0 3:4 4:3 10:0 12:0 18:1 24:1 27:1 34:1 40:1 46:1 141:1 2012:1 2022:1 2023:1 2024:1 
4.8359801133011144 4.2683760677271003 3.8056928650814119 0 4.1264676511587428 0 8 4.278731987657431 3.0617584947419054 1:0 3:4 4:2 10:0 12:0 17:1 18:1 30:1 34:2 44:1 46:1 88:1 456:1 766:1 1652:1 2025:1 2026:1 2027:1 
4.5695963327713756 1.7091372893630088 1.9153339496680644 1.0101497209680605 0 0 8 0 6.0212779254752018 1:0 3:2 4:0 10:0 12:0 258:1 476:1 2028:1 
0 0 0 0 0 0 3.0271044268589384 6.6863023978765401 6.889324452753959 1:0 2:1 3:3 4:1 10:1 12:1 34:1 46:1 50:1 93:1 263:1 735:1 2029:1 
8 8 8 0 8 4.9833742033411239 8 0.98430233656716604 8 1:0 3:0 4:0 10:0 12:0 274:1 
8 7.7119792797665108 3.7420656628445275 0 5.1037500880135998 2.470840229909161 8 0.91435348143123008 0.28410774305600806 1:0 2:1 3:2 4:1 10:1 12:0 43:1 111:1 1064:1 2030:1 
0.79253035185171627 0.41648878593319866 0 0 0 0 5.2722150233534579 0.49965968471227951 0 1:0 3:4 4:2 10:0 12:0 34:2 111:1 138:1 1062:1 1147:1 2031:1 2032:1 2033:1 
8 0 0 0 7.3373215154437101 0 8 0 3.3834747640720075 1:0 3:2 4:0 10:0 12:0 34:2 65:1 111:1 745:1 2034:1 2035:1 
4.754580183402461 8 8 0 2.2903837507309324 8 8 3.2115656895719149 0 1:0 3:1 4:0 10:0 12:0 43:1 244:1 2019:1 
2.6031201073724337 0 0 0 0.75243500736900315 0 8 3.5679718339724134 0 1:0 3:4 4:0 10:0 12:0 13:1 34:2 46:1 174:1 203:1 216:1 247:1 671:1 813:1 1201:1 1334:1 1989:1 
5.6721267180700092 5.1226703223587764 5.1954459182167056 5.575190021854378 5.8283098894076524 2.4603403047505119 7.7582630646738471 1.0724549477262599 4.7393652718073316 1:0 3:8 4:2 10:0 12:0 13:1 18:2 20:1 43:1 50:1 56:1 269:1 472:1 631:1 795:1 1349:1 2036:1 2037:1 2038:1 2039:1 2040:1 2041:1 2042:1 2043:1 
0.65989250471549488 8 3.6486289310339277 4.1412953330852869 8 4.3252591005202543 0 0 4.2959274834479677 1:0 3:4 4:1 10:0 12:0 13:1 18:1 44:1 77:1 1095:1 1151:1 2044:1 2045:1 
7.8888932493417263 0 1.2057481035208095 0.44445103983083845 4.7893707204557145 0 8 0 0 1:0 3:1 4:0 10:0 12:0 18:1 24:1 30:1 44:1 55:1 129:1 839:1 2046:1 2047:1 2048:1 2049:1 2050:1 2051:1 
8 1.3591486605503986 4.8408960410766051 0 0 0 8 0 5.8916198784094584 1:0 3:2 4:0 10:0 12:0 30:1 667:1 2052:1 
8 0.36865104673179311 0 0 0 2.2317129317814772 0 0.66352184328531927 1.7056709332395998 1:0 3:9 4:2 7:1 10:0 12:0 18:1 20:1 27:1 30:1 34:2 35:1 43:2 46:1 50:1 111:1 722:1 762:1 875:1 1305:1 1378:1 2053:1 2054:1 2055:1 2056:1 2057:2 2058:1 
4.8200713097622474 0 0 2.7382952496538255 0.24802374971914243 3.5771391710120626 0.85890064495346286 0 0 1:0 3:6 4:2 10:0 11:1 12:0 13:1 18:1 27:1 34:2 58:1 81:1 93:1 266:1 386:1 469:1 848:1 1853:1 2059:1 2060:1 2061:1 2062:1 
0 0 0 0 0.7701769035138466 0 0 0 0 1:0 2:1 3:12 4:3 6:1 10:0 12:0 18:3 29:1 34:1 36:1 40:1 41:1 43:2 44:1 46:2 186:1 206:1 244:1 352:1 439:1 570:1 735:1 839:1 1022:1 1237:1 1252:1 1261:1 2063:1 2064:1 2065:1 2066:1 
2.6178217183491745 0 0 0 4.9125964206544523 0 1.8029072602998755 2.0504629795611176 0 1:0 3:9 4:0 10:0 12:0 18:3 34:4 43:4 44:2 65:1 111:2 266:1 318:1 319:1 352:1 359:1 1239:1 2067:1 2068:1 2069:1 2070:1 2071:1 2072:1 2073:1 
5.5550242598184818 2.3789605036707213 8 1.4728975663635409 3.5193402525252271 2.6299907618641329 7.7398339289619269 1.0984157601529096 0.89605156877849845 1:0 3:5 4:4 10:0 12:0 30:1 35:1 43:1 50:1 2074:1 2075:1 2076:1 2077:1 2078:1 
8 7.5745833642849325 2.1698008653100818 0 0.45239651179123597 0 8 2.0235763162266522 2.6856419097393589 1:0 2:1 3:2 4:1 10:0 12:0 13:1 34:1 216:1 2079:1 2080:1 
8 8 8 6.0121815458326324 7.8738101177716082 4.8640919016237607 8 6.9062563049043479 8 1:0 3:3 4:1 10:1 12:1 24:1 46:1 2081:1 2082:1 2083:1 
1.432007211280323 2.7747244829163451 3.7360019546199186 2.6214293004788587 3.947204470760806 3.0969895530501943 6.2407032785971257 3.7640478799266255 0 1:0 3:10 4:3 10:0 12:0 13:1 18:2 34:3 43:3 50:1 65:1 97:1 111:1 211:1 276:1 383:1 471:1 703:1 713:2 928:1 978:1 989:1 1272:1 1560:1 1930:1 1997:1 2084:1 2085:1 2086:1 2087:1 
0 0 0 0 1.936717055831862 0 0 0 2.5082508085154114 1:0 2:1 3:7 4:1 7:2 10:0 12:0 17:1 18:1 20:1 27:2 30:1 34:1 44:1 55:1 93:1 130:1 138:1 269:1 293:1 386:1 387:1 471:1 1328:1 1343:1 2088:1 2089:1 2090:1 2091:1 2092:1 
0.18183005586546341 0 0 0 0 1.1940784783331622 0 0 0 1:0 3:7 4:3 10:0 12:0 13:1 18:2 20:1 27:2 30:1 43:1 46:1 88:1 111:1 293:1 384:1 386:1 1328:1 2088:1 2093:1 2094:1 2095:1 2096:1 
3.0546186987326789 0 1.0897517588795951 2.626571580834649 2.0178667093605309 0.12598392792568489 5.2262086471516032 4.2822458173297289 2.4697626955605969 1:0 3:12 4:4 10:1 11:1 12:0 18:9 24:2 30:4 34:5 111:1 276:1 421:1 1087:1 1323:1 1883:1 2097:1 2098:1 2099:1 2100:1 2101:1 2102:1 2103:1 2104:1 2105:1 2106:1 2107:1 
1.1044702561355657 0 0 0 0 0 8 1.0188039664813482 0 1:0 3:0 4:0 10:0 12:0 787:1 1088:1 
0.14000824387422853 0 0 0 0 0 0.86686962330037953 0 0.90382862879031767 1:0 3:9 4:2 10:0 12:0 13:2 18:3 24:2 34:2 44:2 46:1 65:1 87:2 93:1 269:1 276:1 502:1 839:1 848:1 925:1 1989:1 2108:1 2109:1 2110:1 2111:1 2112:1 2113:1 2114:1 2115:1 2116:1 
2.3167994778771788 5.393576607970429 1.354977157182911 0 2.6473567060357897 1.0645851781678486 8 3.3045974446495365 2.1933575997832624 1:0 3:1 4:0 10:0 12:0 13:1 43:1 44:1 55:1 2117:1 2118:1 
0.84110545563505212 3.1152637232063864 2.2104745946240092 0 0.72887310815478967 0 5.0222343207574411 0 5.0519158333691285 1:0 3:4 4:1 10:1 12:0 55:1 486:1 1893:1 2119:1 2120:1 
4.5380078281511951 2.2729783876135103 8 0.25185300435423635 0 1.9403652147107937 8 4.2096985607127557 0.43431871760448709 1:0 3:3 4:1 10:0 12:0 18:1 30:1 471:1 1046:1 2121:1 2122:1 
1.2859930473460279 0 0 0 1.1688348168587204 0 0.68886911615154378 0 0 1:0 3:13 4:2 6:1 10:0 12:0 13:1 27:1 30:2 34:1 36:1 41:1 43:3 44:1 50:1 88:1 95:1 655:1 671:1 735:1 839:2 966:1 1237:1 2123:1 2124:1 2125:1 2126:1 2127:1 2128:1 2129:1 2130:1 2131:1 2132:1 
8 0 0.75321483583919568 0 0 0 5.1365028589283375 0 0 1:0 3:2 4:0 10:0 12:0 87:1 568:1 1694:1 2133:1 
0 0 0 0 1.252240221731393 1.0789516994079065 1.8413984851005489 0 0 1:0 3:7 4:2 6:2 10:1 12:0 18:2 34:2 40:1 43:1 55:1 486:1 676:3 1103:1 1290:1 1436:1 1644:1 2134:1 2135:1 2136:1 2137:1 
2.5151282921615987 1.0520478436929452 2.5775315652140298 1.3843895759859932 7.3181957280144232 8 3.5689627936689674 8 0 1:0 3:3 4:3 10:1 12:0 13:1 18:1 30:1 34:1 44:1 481:1 501:1 555:1 654:1 2138:1 2139:1 2140:1 
6.0977880712194468 2.7996195802515409 3.2235733166773519 2.2460333167884095 2.944145575051393 0.55701641674457847 0.86604996741646545 0.30838119727410873 7.8461566412228541 1:0 3:12 4:0 10:0 12:0 13:1 18:1 24:1 26:1 30:1 34:1 43:1 46:1 65:1 211:1 400:1 1025:1 1090:1 1195:1 1438:1 2141:1 2142:1 2143:1 2144:1 2145:1 2146:1 2147:1 2148:1 
1.3082529201502924 1.217233099670721 4.9364298267614837 1.2232975030583328 4.9612328166228226 2.6033387800477454 1.5700419049659771 0 3.0981866626369889 1:0 3:7 4:0 10:0 11:1 12:0 13:2 18:2 20:1 24:2 30:2 34:2 43:1 46:2 320:1 494:1 631:1 707:1 1401:1 1666:1 1941:1 1982:1 2149:1 2150:1 2151:1 
2.5778451195543379 2.3985663279387968 4.1073173840556425 3.0034999532567506 4.1600262564479111 1.1859817078656985 3.0371423578174985 1.2588752283914797 3.9840412879883615 1:0 3:6 4:4 7:1 10:1 12:0 13:1 18:5 34:1 43:1 44:1 46:1 50:1 172:1 276:1 320:1 1649:1 2152:1 2153:1 2154:1 2155:1 2156:1 2157:1 
0 1.0782551507030351 5.5790759132193966 0 0 0.016111180479137351 1.1380420168341541 0 0 1:0 2:1 3:3 4:0 7:1 10:0 12:0 18:1 46:1 110:1 157:1 644:1 2161:1 2162:1 2163:1 
0 0 0 0 0 5.8342267266340375 0 1.3722197158908851 5.4475058822468698 1:0 3:5 4:0 10:0 12:0 13:1 18:3 34:1 43:2 46:1 61:1 172:1 494:1 504:1 507:1 748:1 1572:1 2164:1 2165:1 
0 8 0 0 8 0.64062362732910394 8 0 8 1:0 3:1 4:0 10:0 12:0 18:1 35:1 43:1 55:1 95:1 140:1 276:1 735:1 
8 8 8 0.53118928824934741 7.1267965493665457 0 7.800983784390457 0.20412100380224649 8 1:0 3:3 4:1 7:1 10:0 12:0 13:1 30:1 50:1 65:1 155:1 178:1 730:1 2166:1 2167:1 2168:1 
4.9731701482867949 0 0 0.076538306221884483 4.1355258311330854 4.1973257905915924 8 4.1273898317451447 0 1:0 3:2 4:0 10:0 12:0 13:1 34:1 46:1 81:1 266:1 2169:1 2170:1 2171:1 
3.2718360048091411 2.7565857873288699 8 0 2.0901345903699133 6.2657683902218704 8 1.0237019487157479 3.8539831192323439 1:0 3:3 4:0 10:0 12:0 18:1 43:1 46:1 1220:1 1388:1 2172:1 
0 4.8051906136122788 0 1.1867147795825586 1.0807923495908494 0 4.9538554173009466 0 2.2314956508986614 1:0 3:3 4:0 10:0 12:0 18:1 44:1 55:1 88:1 508:1 735:1 2173:1 
8 3.1086237052941552 8 1.3234686416079162 8 3.3108175909981208 1.5790045068564473 0.34692076712104208 8 1:0 3:3 4:1 10:0 12:0 46:1 107:1 2174:1 2175:1 2176:1 
1.4192226763151328 0 0 0 0 0 0 0 8 1:0 3:6 4:3 10:0 12:0 18:1 30:1 34:1 50:1 55:1 58:1 87:1 98:1 155:1 735:1 1323:1 2181:1 2182:1 2183:1 2184:1 
0 0 8 0 0 0 8 0 8 1:0 3:1 4:0 10:0 12:0 18:2 46:2 74:1 107:1 124:1 172:1 244:1 245:1 266:1 
1.1878530416805715 1.5844653308004542 2.5907346468004415 1.1454014132364971 0.86776746178520647 0 1.3743357370230194 0 1.5645489343574634 1:0 3:9 4:2 6:1 10:0 12:0 18:5 24:1 27:1 29:1 43:2 46:1 50:2 74:1 155:2 318:1 440:1 494:1 571:1 839:1 1190:1 1237:1 1302:1 2185:1 2186:1 2187:1 2188:1 2189:1 2190:1 
2.5946666101571694 0 8 0 7.5234567459117523 0 8 0 3.0206027354790073 1:0 3:1 4:0 7:1 10:0 12:0 18:1 30:1 34:1 46:1 81:1 244:1 308:1 2133:1 2191:1 
4.3932644425793139 3.3268488801221032 4.8851964358794877 0 0 3.1379191218282512 8 5.7799900620375517 2.1012257704152271 1:0 3:2 4:1 10:0 12:0 18:2 902:1 2192:1 2193:1 
8 2.1815805170653428 1.5882596744607618 0 2.9517177626574531 0 4.8409237161756913 0 0.51917739127201601 1:0 3:2 4:1 7:1 10:0 12:0 18:1 46:1 111:1 780:1 2194:1 2195:1 
1.5357448388330734 4.4622838788064501 0 3.0160050634806406 3.6060936335272045 2.6636343278809407 0 0 5.9160982590356825 1:0 2:2 3:12 4:1 7:1 10:0 12:0 13:1 18:6 20:4 34:1 43:2 46:2 55:1 56:1 88:2 111:1 167:1 494:1 731:1 1372:1 1581:1 1827:1 2183:1 2196:1 2197:1 2198:1 2199:1 2200:1 2201:1 
0 0 2.2232999197608887 1.0607641896229392 3.4624912078910959 0 2.0715502296164381 0 1.4808451643103682 1:0 3:11 4:2 10:1 12:1 13:1 17:1 18:4 20:1 30:5 34:1 44:1 46:5 55:1 56:1 207:1 243:1 244:1 488:1 494:1 664:1 776:1 929:1 1326:1 1428:1 1581:1 2202:1 2203:1 2204:1 2205:1 2206:1 2207:1 2208:1 
1.4332832382204779 0 0 0 1.7234113153230273 0 3.472461449892537 0 0 1:0 3:7 4:0 10:0 12:0 18:1 30:2 34:1 61:1 65:1 88:1 134:1 145:1 329:1 579:1 889:1 1347:1 2166:1 2209:1 
3.9381598433823677 8 3.4514214759089419 2.6540448383689146 8 0 8 0 7.8994782852569783 1:0 3:6 4:2 10:0 12:0 18:2 27:1 30:2 43:1 44:1 55:2 111:1 324:1 352:2 383:1 471:1 555:1 858:1 1513:1 2210:1 2211:1 2212:1 2213:1 
7.407604839494776 4.2819357939203586 3.1769437332716839 2.8178303045331252 3.6124169857153188 4.310121754326838 8 3.085366735871649 4.4755208216321574 1:0 3:4 4:1 10:0 12:0 18:1 46:1 1780:1 2214:1 2215:1 2216:1 
5.3487445522755381 2.6906164147856844 0.86122811239873032 0 5.2365863037768001 0.19407437550273146 4.6755449149877597 0 0.85678735342210777 1:0 2:1 3:6 4:1 10:0 12:0 18:6 27:1 30:1 43:1 44:1 46:1 95:1 111:1 536:1 956:1 1326:1 2177:1 2217:1 2218:1 2219:1 2220:1 2221:1 
8 0 0 5.1708301826101417 8 8 0 0 2.1846088907918135 1:0 3:1 4:0 6:1 10:0 12:0 34:1 107:1 667:1 676:3 
8 0.60681400968610977 3.4171931527605159 2.7917829465619723 2.0496314041492409 1.9844511487611274 0 1.4287778303592884 2.8540150812504992 1:0 3:7 4:4 10:3 12:0 18:1 20:1 24:1 27:1 34:2 50:1 193:1 1323:1 2222:1 2223:1 2224:3 2225:1 
0.49457370541892792 5.5344257259221079 2.9870198112682016 6.1787477900247225 3.8433883806296563 1.9578251780304177 0 0 6.7791668551212121 1:0 3:7 4:2 6:1 10:0 12:0 13:1 18:3 43:2 46:1 50:2 55:1 65:1 107:2 276:1 293:1 318:1 600:1 1014:1 1326:1 1853:1 2223:1 2226:1 2227:1 2228:1 2229:1 
0 0 0.64897699318795987 0 6.4345955120699667 1.3893536072590873 8 0 0 1:0 3:4 4:2 6:1 10:0 12:0 18:1 27:1 30:1 34:1 43:1 201:1 318:1 676:3 1323:1 1326:1 2230:1 2231:1 2232:1 2233:1 
0.76206334061260694 0.97999197662558613 0 0.055158008949064891 0.43710291763342879 0 0 0.42858056279181572 0 1:0 3:11 4:3 10:0 12:0 18:7 24:1 30:1 34:1 43:1 44:1 93:1 111:1 258:1 318:1 560:1 574:1 670:1 1074:1 1167:1 1326:2 2190:1 2234:1 2235:1 2236:1 2237:1 2238:1 2239:1 2240:1 2241:1 2242:1 
0.77981400308264948 0 2.0414136782799779 0 0 0 3.0452320920676437 0 0 1:0 3:13 4:1 6:1 10:0 12:0 13:1 18:3 27:1 29:1 30:3 36:1 40:1 41:1 43:2 44:2 46:2 50:1 143:1 206:1 276:1 839:1 973:1 1150:1 1237:1 2243:1 2244:1 2245:1 2246:1 2247:1 2248:1 2249:1 2250:1 2251:1 2252:1 
6.1330720952785587 3.2820882973796106 3.5705242135827295 2.997100532672242 2.3071694823655826 1.1966066813341036 8 3.1857723278756951 5.156669178354079 1:0 2:1 3:2 4:2 10:0 12:0 18:2 24:1 34:1 44:1 50:1 126:1 351:1 552:1 2253:1 2254:1 
0 0 0 0 0 0 1.0239847174076744 0 8 1:0 3:3 4:0 7:1 10:0 12:0 27:1 55:1 145:1 2255:1 2256:1 
0 0 0 0 0 3.3262771127189272 8 0 0 1:0 3:2 4:0 10:0 12:0 30:1 731:1 1466:1 1941:1 
3.1668554272062406 0 0 0 0.86483706952222239 0 4.6477879624519378 0 0 1:0 3:3 4:0 10:0 12:0 13:1 17:1 30:1 34:3 55:1 58:1 77:1 81:1 317:1 423:1 560:1 688:1 2257:1 2258:1 
8 0 0 0 0 2.0912642357529161 6.9353191040454405 0 1.5964706074929187 1:0 3:5 4:2 10:1 12:0 20:1 27:1 30:1 34:3 111:1 195:1 266:1 399:1 401:1 460:1 787:1 1233:1 1639:1 1941:1 2259:1 
2.3744541976994133 1.7732052645530265 1.2026615622731631 1.0823664412828633 2.9188850080119062 1.872517096343616 8 3.3586070391339824 1.3492178286962873 1:0 2:1 3:4 4:0 10:0 12:0 18:4 20:1 34:2 43:2 276:1 2184:1 2260:1 2261:1 2262:1 2263:1 2264:1 
5.4155466266205678 5.4709976763570634 0 1.5637035420584502 2.5055745237021223 0.43992544535508143 6.8364160064978092 0.24517498085941977 0 1:0 3:10 4:2 10:0 12:0 13:3 18:2 34:1 43:2 44:1 46:1 50:1 65:1 160:1 197:1 399:1 467:1 568:1 630:1 660:1 753:1 877:1 898:2 1159:1 1324:1 2265:1 2266:1 2267:1 2268:1 2269:1 
0 0 0 5.157017424418636 2.1042078818629273 0 0 0.55727429935234285 0.44218355769503459 1:0 3:5 4:2 10:0 12:0 18:3 34:2 46:1 50:1 93:1 148:1 149:1 1341:1 2042:1 2270:1 2271:1 2272:1 2273:1 2274:1 
8 0 8 0 8 8 8 0 0 1:0 3:0 4:0 7:1 10:0 12:0 244:1 
8 6.5102050357450576 2.7415707339782123 0 8 2.6833201887353191 8 2.046111562897063 0.028068646876192115 1:0 2:3 3:4 4:1 10:0 11:1 12:0 18:1 30:1 65:1 263:1 422:1 1581:1 2275:1 
8 0 0 0 0 0 0 0 0 1:0 3:6 4:0 7:1 10:0 12:0 18:1 24:1 34:1 50:1 81:2 423:1 475:2 601:1 818:1 951:1 1150:1 2276:1 
0 6.5002688071198236 0 0 0 0 8 0 0 1:0 3:0 4:0 10:0 12:0 13:1 50:1 55:1 56:1 247:1 730:1 
0 0.72605396372483333 0 0 0 0 6.2458865317336993 0.76057063032955452 2.5560057861067125 1:0 3:1 4:0 10:0 12:0 24:1 475:1 885:1 
1.5127567453368436 0.33778019337174547 1.8641820386803072 3.8271346183251098 7.3801158612776305 1.2018458313861105 0 2.0800829559991572 3.9522251070681533 1:0 2:2 3:14 4:3 10:0 11:1 12:0 13:1 18:2 24:1 30:1 34:1 43:2 50:1 93:1 110:1 157:1 179:1 200:1 243:1 269:1 293:1 480:1 885:1 1162:1 2277:1 2278:1 2279:1 2280:1 2281:1 2282:1 2283:1 2284:1 2285:1 2286:1 2287:1 
8 8 8 4.0116338894006454 3.8500309322253758 8 8 5.6005601351957228 0.85172528891974397 1:0 3:1 4:1 10:0 12:0 18:1 552:1 2288:1 
0 0 0.41665805921845256 0 2.2837347331810061 0 4.3507439123646172 0 2.1325118196985624 1:0 2:1 3:10 4:2 7:2 10:0 12:0 13:1 18:3 20:1 27:1 30:7 34:1 43:1 46:1 88:1 111:1 1075:1 1347:1 1913:1 1921:1 2289:1 2290:1 2291:1 2292:1 2293:1 2294:1 2295:1 2296:1 2297:1 
0.052357218375417472 0 0.39014017560255992 0 0 0 0 0.32346513624857681 0 1:0 3:6 4:3 10:0 12:0 18:1 19:1 24:1 34:2 1062:1 1147:1 1435:1 2032:1 2298:1 2299:1 
7.9999048754736251 2.8115982664980006 8 4.5529137827087585 6.6923196195317649 5.3680592001156535 0.57987114704928699 0.75159859256653472 8 1:0 3:4 4:1 10:0 12:0 13:1 27:1 111:1 182:1 1512:1 2300:1 2301:1 
0.33176393457887732 6.6553737165097369 4.9023871457901054 6.3242407941346039 6.1968552386238649 3.0236662521957136 0.42890685177841181 0.74146383861941212 4.3076578439672986 1:0 3:3 4:2 10:1 12:0 43:1 55:1 134:1 138:1 1921:1 2302:1 
3.107742061385514 1.4142990973562577 0 0.12738481719790462 0.11883271615805542 1.4866715353334214 3.1309405462999358 1.0294815331968807 0 1:0 3:8 4:3 10:1 12:0 18:1 34:1 43:2 65:1 153:1 216:1 745:1 1560:1 1893:1 2303:1 2304:1 2305:1 2306:1 2307:1 2308:1 2309:1 
8 4.4195568315295635 0 0 0 0 8 6.4952722788223447 0 1:0 3:1 4:0 10:0 12:0 1008:1 
0 5.606841947824277 3.0334619481905665 0 0 2.272702057511391 3.7222879631253591 1.0696858746158107 0 1:0 3:2 4:0 10:0 12:0 18:1 50:1 93:1 115:1 823:1 2310:1 
0 1.2546517329973537 5.2004762930976423 0 0.41892798080557486 0.54440501957135101 8 0.91780468916815838 3.8005793248082629 1:0 3:5 4:0 10:0 12:0 18:2 24:1 30:1 40:1 2311:1 2312:1 2313:1 2314:1 2315:1 
1.4891505649379388 0 4.3254080595973186 0 0 0 8 1.2270143678484964 0 1:0 3:4 4:2 10:0 12:0 34:1 46:1 87:1 444:1 745:1 930:1 2316:1 2317:1 2318:1 
4.2962045127321762 0 0 0 0 0.092112067772764566 1.4756008741978905 0 3.6525746257798262 1:0 3:9 4:3 10:0 12:0 18:1 26:1 34:1 44:1 50:1 1008:1 1151:1 1661:1 1866:1 1869:1 2319:1 2320:1 2321:1 2322:1 
8 0 7.2032920730160894 5.7787542904164475 7.4385553292620559 8 6.6494310231523022 0 8 1:0 3:3 4:0 10:0 12:0 30:1 56:1 61:1 98:2 107:1 2323:1 
4.2176839509690396 0 1.788628340844066 0 1.0651859569022941 0 8 0 0 1:0 3:1 4:1 10:0 12:0 30:1 44:1 65:1 258:1 2324:1 
2.9121133375325376 4.5439609951492015 0 0 8 0 0 0 8 1:0 3:3 4:0 10:0 12:0 18:1 30:1 43:1 44:1 107:1 145:2 186:1 631:1 2325:1 
0 8 8 0 0 2.0831144382384701 8 3.7771942653324149 8 1:0 3:2 4:0 10:0 12:0 18:1 910:1 1693:1 1698:1 
0 8 8 4.2835267575759408 8 8 8 0 8 1:0 3:0 4:0 10:0 12:0 39:1 552:1 
0 0 0 0 0 0 8 0 3.143691923772939 1:0 3:2 4:0 10:0 12:0 475:1 2326:1 
8 8 8 4.514455918760004 8 3.3523642953165878 8 0 8 1:0 3:3 4:0 10:0 12:0 20:1 27:1 44:1 56:1 178:1 813:1 2327:1 
7.2156679702614932 8 8 0.28421887371944643 8 8 8 5.9944978229512582 2.1453634684968601 1:0 3:1 4:0 10:0 12:0 552:1 2328:1 
1.7140763944074648 0 0 0 7.5899154975785255 0 0 0 8 1:0 3:2 4:0 7:1 10:0 12:0 13:1 56:1 87:1 1783:1 2329:1 
8 8 8 0 8 0 8 0 8 1:0 3:2 4:1 10:0 12:0 30:1 44:1 1151:1 2330:1 
0 0 0 0 4.1681569481761471 0 8 6.5415928705327246 0 1:0 3:1 4:1 10:0 12:0 34:4 65:1 1056:1 2331:1 
4.731468813262202 4.3677109327011987 0.76304157738258027 3.4574078376731179 1.0687095388714891 0 0.069179779684670303 3.0509748937623291 2.7414902263137537 1:0 2:1 3:12 4:3 10:1 12:0 18:6 34:1 44:1 46:2 53:1 77:1 117:1 155:1 537:1 547:1 579:1 2332:1 2333:1 2334:1 2335:1 2336:1 2337:1 2338:1 2339:1 
7.1033916630071392 8 8 7.1786404970560937 6.8549040576762836 6.7513683455984745 8 3.4492759791403684 8 1:0 3:4 4:1 10:0 12:0 43:1 46:1 858:1 1340:1 2340:1 2341:1 
3.283386645664383 5.1970009882345334 0.67755777458010746 0 6.9716958196676879 0 4.6415236030737308 1.086832624173274 0.591464106118468 1:0 2:1 3:6 4:0 6:1 7:1 10:0 12:0 27:1 34:1 43:1 50:2 123:1 595:1 2199:1 2342:1 2343:1 2344:1 2345:1 
8 8 6.210258604930571 0 3.8947904640799194 1.0723484195973529 8 8 5.3784423738811036 1:0 3:1 4:0 10:0 12:0 1008:1 
6.149838183435179 0 0 0 0.10826085982652635 2.5878793024070292 3.9810529525139162 0.43406539373357789 0 1:0 2:1 3:6 4:1 10:0 12:0 13:2 18:3 27:2 34:2 43:1 46:1 56:1 65:1 111:1 195:1 839:1 1094:1 2318:1 2346:1 2347:1 2348:1 2349:1 2350:1 2351:1 2352:1 2353:1 2354:1 2355:1 
2.9135119446232887 3.1387864662072893 0 1.8200960512927657 8 0 2.6814944900579829 0 0 1:0 3:8 4:2 6:1 10:0 12:0 13:1 17:1 18:2 24:2 27:2 30:2 34:2 43:1 44:3 46:1 50:2 195:1 234:1 662:1 848:1 956:1 961:1 1455:1 2255:1 2356:1 2357:1 2358:1 2359:1 2360:1 2361:1 2362:1 2363:1 2364:1 2365:1 
5.4393459823029273 3.6840244682535426 5.0477735911457069 3.09366807230256 4.1424182421425559 1.8584118971915975 3.0684415751592318 0 5.097706495211753 1:0 2:1 3:14 4:1 10:0 12:0 13:1 18:2 43:2 44:2 46:2 50:1 107:1 111:1 145:1 157:1 186:1 318:1 474:1 476:1 536:1 693:1 798:1 2366:1 2367:1 2368:1 2369:1 2370:1 2371:1 2372:1 2373:1 2374:1 2375:1 2376:1 2377:1 
4.7377123847466036 3.1085055632696239 0 0 0 2.5733984020616654 0 0 0 1:0 2:2 3:10 4:4 10:0 11:1 12:0 18:3 24:1 30:1 34:1 35:1 43:2 61:1 65:1 87:1 111:1 195:1 339:1 412:1 491:1 555:1 560:1 731:1 987:1 1969:1 2378:1 2379:1 2380:1 2381:1 2382:1 
5.4651572090010561 0 0 1.4927961812505277 1.9138765205281698 0.68598397576955938 6.6474182390235059 2.4578423793751818 1.5713004590121802 1:0 3:8 4:0 10:0 12:0 18:2 30:1 34:3 44:1 667:1 713:1 813:1 2383:1 2384:1 2385:1 2386:1 2387:1 
5.9254219229979093 1.8455016707394514 3.1627640352125361 5.3713390477511238 4.1269991364707002 5.1889511884842694 5.8693037236460732 3.2215843363324974 4.6889730870584545 1:0 3:8 4:3 6:1 10:0 12:0 18:3 27:1 30:1 34:1 40:1 43:1 44:1 427:1 1022:1 1720:1 1957:1 2388:1 2389:1 2390:1 2391:1 2392:1 
8 8 3.208325470521054 8 8 0 6.3327461098427333 0 0 1:0 3:4 4:0 10:0 12:0 18:1 30:2 34:1 44:1 155:1 205:1 220:1 1052:1 1325:1 2393:1 
4.5104095423742621 3.3656990365478885 6.3851019834243301 1.3832999020822394 6.4070808869689815 1.8311091747627237 5.5102089199308502 2.7958052406773626 2.2307290441295815 1:0 3:5 4:4 10:0 12:0 13:1 18:1 27:1 30:1 34:1 43:1 46:1 1238:1 1369:1 2394:1 2395:1 2396:1 2397:1 
5.5147723416821268 4.2822758109777315 3.7712113248278669 4.9901535683198928 7.704187180050579 2.5459352934680535 1.5218587386007689 1.7042946029888673 3.0830691575260882 1:0 3:10 4:4 10:2 11:1 12:0 18:4 24:2 27:1 30:1 34:1 43:2 44:1 50:1 111:1 145:1 187:1 244:1 266:1 1345:1 1417:1 2398:1 2399:1 2400:1 2401:1 2402:1 2403:1 2404:1 2405:1 2406:1 2407:1 
4.733249165843894 8 4.1028796782203578 5.3458578219794983 4.4542120484070864 1.4723767733874182 3.8810363564169177 0 2.1338245519629795 1:0 3:3 4:0 7:1 10:0 12:0 13:1 18:3 24:1 27:1 30:2 43:1 45:1 46:1 50:1 93:1 155:1 205:1 227:1 951:1 2354:1 2408:1 2409:1 2410:1 2411:1 2412:1 
0.97754970863844737 2.5250734642458066 0 2.0452332499938422 0 1.3784102366503692 0.58144596479370148 0 0 1:0 3:6 4:1 10:1 12:0 24:1 34:1 44:1 247:2 266:1 399:1 898:1 1078:1 1152:2 1762:1 2413:1 2414:1 2415:1 2416:1 2417:1 2418:1 
3.4285919163511092 1.4622855305632325 3.3679159043641338 0 6.8724899328399705 6.2266493813949202 8 6.8526769170965878 6.7904264585031555 1:0 3:1 4:0 10:0 12:0 646:1 
7.596781633267728 3.8759841733122586 0 6.4694545503176881 6.6543874643415508 7.4759279762404942 7.2369680210221743 0 0.60498568276586484 1:0 3:2 4:1 10:0 12:0 13:1 18:1 46:1 77:1 111:1 193:1 317:1 1078:1 1080:1 2419:1 
0.65855701207277406 0 0 0 0 0 0 0 0 1:0 3:10 4:0 6:1 7:1 10:0 12:0 13:2 18:4 20:1 24:1 29:2 30:1 40:2 43:1 44:1 45:1 46:1 50:1 93:1 133:1 162:1 1163:1 2354:1 2410:1 2411:1 2420:1 2421:1 2422:1 2423:1 2424:1 2425:1 2426:1 2427:1 
1.9245912451372109 6.1040504483807023 0 0 0.20668115777066168 0 8 2.2180374825718925 1.0346202699420963 1:0 3:0 4:0 10:0 12:0 13:1 2431:1 
0 0 0 0 0 0 3.1587874326258745 0 0 1:0 3:6 4:0 6:1 10:0 12:0 29:2 30:1 40:2 44:1 46:3 86:1 88:1 93:1 155:1 259:1 318:1 345:1 399:1 598:1 877:1 898:1 1347:2 1679:2 2432:1 
3.2193028757118367 1.8594035501393094 0 3.7783631901318806 2.195545620556993 0 7.1456361526743972 0 2.3068503136656191 1:0 3:10 4:0 10:0 12:0 18:1 24:2 30:2 34:3 43:4 44:1 87:1 201:1 244:1 471:1 1436:1 1524:1 1736:1 1802:1 1993:1 2339:1 2433:1 2434:1 2435:1 2436:1 2437:1 
8 3.393129600101072 3.5457944495956504 0 7.4224345920505579 0 3.2829268442436481 0.24078971831471258 1.4383282059089837 1:0 3:6 4:2 10:1 12:1 18:2 30:1 34:3 43:2 44:2 46:1 58:1 74:1 111:2 661:1 708:2 1561:1 2438:1 2439:1 2440:1 2441:1 
3.2848550570455921 6.9445204522433484 1.6837544866077927 2.6834596588375623 2.2627642482105124 0 7.5313039146874949 0 3.5414613931873831 1:0 3:9 4:4 10:1 12:0 18:3 24:1 27:1 43:1 46:1 56:1 145:1 153:1 329:1 502:1 579:1 1272:1 1560:1 2442:1 2443:1 2444:1 2445:1 2446:1 2447:1 
1.5930037994756256 5.7383943847921355 4.7580642294658047 1.3233214467494057 1.8366441504900846 3.2619675330222639 8 2.3237608102387393 7.5780516235289133 1:0 3:2 4:0 10:0 12:0 46:1 155:1 471:1 1557:1 2448:1 2449:1 2450:1 
7.9054940394493762 6.0223877991196524 4.3376033857552754 3.6341903713903556 4.5708972206087317 6.8851230703857773 5.9090317170693298 1.2423229460080887 6.4992842861699049 1:0 2:1 3:14 4:3 10:0 12:0 18:6 24:1 30:2 34:2 35:1 43:1 384:1 386:1 425:1 564:1 579:1 1260:1 1272:1 1560:1 1670:1 2451:1 2452:1 2453:1 2454:1 2455:1 2456:1 2457:1 2458:1 2459:1 
8 7.4902620275361738 8 1.0836036464232823 8 8 8 6.4678224778826836 8 1:0 3:2 4:0 10:0 12:0 18:1 46:1 2460:1 2461:1 
3.2032728619837982 6.1684613276015439 8 0 6.5771018783397857 0.79514690970793911 8 2.4081359002311018 5.9142174275504527 1:0 3:3 4:0 10:0 12:0 30:1 768:1 2169:1 2462:1 2463:1 
8 0 4.6476880285037652 0 8 0 8 0 8 1:0 3:3 4:1 10:0 12:0 18:1 30:1 34:1 35:1 107:1 245:1 269:1 399:2 2468:1 2469:1 2470:1 
8 6.7808863945165241 0 0 0 0 8 0 0 1:0 3:1 4:0 10:0 12:0 43:1 79:1 
1.2859399037648747 0 0 1.0344688438913818 0 7.0479814942707169 0 0 0 1:0 3:9 4:3 6:2 10:0 12:0 18:4 34:2 40:1 43:2 55:1 56:1 444:1 486:1 536:1 671:1 676:3 730:1 731:1 834:1 2471:1 2472:1 2473:1 2474:1 2475:1 
8 2.8324787734611876 8 0 6.6874086440090172 2.5347226399484026 8 8 8 1:0 3:2 4:0 10:0 12:0 46:1 714:1 2476:1 
4.7387392449817662 4.9505030160358148 5.265705736880741 0 3.4331415819796045 6.6077643515381856 0 8 4.5254359095829075 1:0 2:1 3:11 4:0 6:1 10:0 12:0 18:2 46:1 93:1 159:1 228:1 229:1 233:1 555:1 680:1 1694:1 1703:1 1772:1 2255:1 2477:1 2478:1 
3.4777396591361058 4.0351014154525267 3.3122443056121083 1.631819970301386 0 1.6212996188907853 2.0701392207316269 1.0841067595112772 6.7426497476626919 1:0 3:6 4:1 10:1 12:0 13:1 18:2 43:1 50:1 55:1 85:1 1734:1 2479:1 2480:1 2481:1 2482:1 
1.9453622065143219 1.036149910169947 0 1.2407646951332896 2.1331320360657737 0 8 3.2654689604279326 2.9812904653613161 1:0 2:1 3:7 4:1 10:0 12:0 18:2 30:1 34:3 43:1 46:1 124:1 247:1 317:1 399:1 476:1 987:1 1094:1 2483:1 2484:1 2485:1 2486:1 2487:1 
2.2072518136137584 0 0 0 0 0 0 0 7.8259397250944804 1:0 2:1 3:9 4:3 10:1 11:1 12:0 13:2 20:1 30:2 34:1 46:1 56:1 65:1 87:2 88:1 111:1 684:1 814:1 1463:2 1866:1 1869:1 2488:1 2489:1 2490:1 
0 1.8854197933811101 0 0 0 0 3.2071694283045069 0 2.1841319116688274 1:0 2:2 3:6 4:1 7:2 10:0 12:0 18:3 20:1 34:3 43:1 44:1 46:2 61:1 65:1 111:1 113:1 124:1 363:1 399:1 1676:1 2485:1 2491:1 2492:1 2493:1 2494:1 2495:1 2496:1 
