svm_type c_svc
kernel_type polynomial
degree 1
gamma 128
coef0 0
nr_class 10
total_sv 17250
rho 0.35323632717770065 -2.0981371981928332 -0.8533096547931095 -1.5665515427444112 1.2815120764839556 -1.0393054938290869 0.78098874254113837 -0.79993653842298085 0.27609182484351169 1.2326643997889433 1.3052420231690436 -0.90547923382490569 0.26865746002335605 -0.27172625830893854 3.8765752924389565 0.12797270486121995 -1.4045914237767503 0.25201394232134722 -0.66486010504404347 0.83044395807926497 0.19304315523032103 2.9931484604592749 0.13135112123273712 0.10083401201267908 -0.77035552724387935 0.36563846326273647 -0.49030177329482083 3.4727037222335637 -0.6168886192766202 1.5760626686833517 0.93124573526432686 0.66293058757368795 0.96752656809907545 0.64890118476154113 0.70672077245643827 -0.99930146808232179 3.9991525361413678 8.9978363515365078 1.7305804644660792 1.0083831716338643 0.023698368719545539 0.097493912798711294 1.2010546197281795 -0.97549660282456552 0.051761306085937507
label 0 1 2 3 4 5 6 7 8 9
nr_sv 1965 1907 1940 1531 1520 1731 1630 1932 1482 1612
SV
0.00572691280035292 0 0 0 0.0029567287607107202 0 0 0.0018042387326653653 0.0024939213669289344 1:1 2:1 3:1 4:1 5:1 6:1 7:1 
0 0 0.0027018262881413442 0.0020740087593829224 0.0010163416867857219 0 0.0015514091249246536 0.0013585316501768694 0.0019204633458209811 8:1 9:1 10:1 11:1 12:1 13:4 14:1 15:1 16:1 17:1 18:1 19:1 20:1 
0 0 0.004682988706866004 0.00098485702987609141 0 0 0 0 0 3:1 19:2 22:1 23:1 31:1 33:1 36:1 39:1 44:1 45:1 46:1 47:1 48:1 49:1 50:1 51:1 
0 0 0 0 0 0 0.0015759325515178188 0 0 4:1 25:2 45:1 50:1 52:1 53:1 54:1 55:1 56:1 57:1 58:1 59:1 60:1 
0.001455318186078196 0.010948953922741339 0 0 0 0.0041734373659942916 0.0029120704315376764 0 0.0015972699323133965 3:1 13:2 19:1 22:2 24:1 25:1 33:1 38:3 41:2 42:1 43:1 44:1 45:1 46:1 61:1 62:1 63:1 64:2 65:1 66:1 67:1 68:1 69:1 70:1 71:1 
0 0 0.010506855597833585 0 0 0.026076306727020986 0 0 0.98632523770312619 8:1 13:1 60:1 72:1 
0.0036710056566430357 0 0.0047340511057450043 0 0 0.0096679633301158495 0.014300206863037842 0 0.0072579070682988293 30:1 73:1 
0 0 0 0.0012412749091798157 0 0 0 0 0.0085830801483910788 8:1 13:1 25:1 41:1 75:1 76:1 77:1 78:1 
0 0 0.027288517850816561 0 0 0 0.082056447443124084 0 0.018446210505771558 50:1 79:1 
0.0033391759150368221 0.0013159278716892494 0 0 0 0 0 0 0 4:1 13:1 25:3 41:2 50:1 60:1 80:1 81:2 82:1 83:1 84:2 85:1 86:1 
0 0 0 0 0 0.012152844715552646 0 0 0 8:1 13:1 87:1 88:1 89:1 90:1 91:1 
0 0 0 0.00067398084434736483 0 0 0.004308017902922596 0 0 8:1 88:1 92:1 93:1 94:1 95:1 96:1 
0 0 0.017342768817588602 0 0 0 0.0098119371305852889 0 0.013457386196910382 13:1 15:1 82:1 88:1 97:1 98:1 99:1 
0 0 0 0.0073998146355065894 0 0 0 0 0 8:1 13:1 21:1 29:1 88:1 91:1 100:1 101:1 102:1 103:1 104:1 
0.005770403073206423 0.012402917069391213 0 0 0.00099939686418234661 0 0.0014084761234855537 0.00095823137579066631 0 22:1 25:1 29:3 41:2 45:1 105:1 106:1 107:1 108:1 109:1 110:1 111:1 112:1 113:1 114:1 115:1 116:1 
0.0059533522112634619 0 0 0 0.0012224965330234901 0 0.012592233031938002 0 0 4:1 8:1 29:3 38:1 117:1 118:1 119:1 120:1 121:1 122:1 123:1 
0 0 0 0.00056411171787278103 0.00058143976580768192 0.0016806122610860919 0 0 0.0043379330232539703 7:1 8:1 12:1 13:3 22:1 38:1 39:3 45:2 51:1 124:1 125:1 126:1 127:1 128:1 129:1 130:1 131:1 132:1 133:1 134:1 135:1 136:1 137:1 138:1 139:1 140:1 141:1 142:1 
0.0055678913313610091 0 0 0 0 0 0.0013202644200080551 0.0038450733952963153 0 13:1 82:1 145:1 146:1 
0 0 0.0048535624574280092 0 0 0.0030114208898472041 0.00065531437184557706 0 0 8:2 15:3 22:1 29:2 38:1 45:1 60:3 125:1 150:1 151:1 152:1 153:1 154:1 155:1 156:1 157:1 158:1 159:1 160:1 161:1 162:1 163:1 164:1 165:1 
0.0065592293482803652 0 0 0 0 0.007435557996230642 0.0088733836676886356 0.0041064750361299038 0 1:1 29:1 41:1 60:1 106:1 166:1 167:1 168:1 
0.002571965334043439 0.022274319707321556 0 0 0.00077899642725996938 0.00033026767823765774 0.013513168557451256 0 0 1:1 8:1 15:2 25:1 29:5 30:1 38:4 39:1 41:1 45:1 48:1 69:1 106:1 125:1 138:1 169:1 170:1 171:1 172:1 173:1 174:1 175:1 176:1 177:1 178:1 179:1 180:1 181:1 182:1 183:1 
0 0 0.0053662327317945402 0 0 0.0020330378891107682 0.011510021953312856 0 0.0068612709546099666 13:1 38:1 184:1 185:1 
0.0038493921525599595 0 0.0021474093281161942 0.00088768463976884469 0.00077364905709707181 0.0032109802080443786 0 0 0.0025683711331658792 3:2 8:2 13:2 30:1 38:1 39:1 41:1 45:1 60:2 169:1 186:1 187:1 188:1 189:1 190:1 191:1 192:1 193:1 194:1 195:1 196:1 197:1 198:1 199:1 200:1 201:2 
0 0.0077415972012355068 0 0 0.0011558065265158924 0 0.0029230307486666765 0 0.0010879372839459518 16:1 25:3 29:1 39:1 50:1 60:1 202:1 203:1 204:1 205:1 206:1 207:1 208:1 209:1 
0.0021418285791187323 0 0.001975536085412045 0.00053321791415675095 0 0 0 0.0030266776910350432 0.00074501740736751456 1:1 8:1 210:1 211:1 212:1 
0.0033324437419796644 0.0069411233999655837 0.0019655513532453386 0.0012445523500265137 0 0.0009681361286864135 0 0.00087489007187495122 0.0023352883061385421 8:2 13:1 29:1 38:1 39:1 41:1 45:1 60:1 82:1 106:1 213:1 214:1 215:1 216:1 217:1 218:2 219:1 
0 0 0.0074652752370028847 0.00065396903433890489 0 0 0 0 0 1:1 7:2 13:3 19:1 25:1 29:2 39:1 45:1 48:1 60:1 67:1 83:1 220:1 221:1 222:1 223:1 224:1 225:1 226:1 227:1 228:1 229:1 230:1 231:1 232:1 233:1 234:1 
0.0019893203881865456 0 0.0023515701148338697 0.0014870450001302651 0.0008110304634758699 0 0 0.00070061041697425011 0.0025696455069051296 1:1 4:2 8:2 13:1 30:1 38:1 41:3 60:2 134:1 229:1 243:1 244:1 245:1 246:1 247:1 248:1 249:1 250:1 
0.021780169150475405 0 0.012732597843298133 0.0061438629597423446 0.0018472466664497798 0.0088505483459222455 0 0 0.01485965029405604 13:1 39:1 41:2 102:1 264:1 265:1 266:1 267:1 
0.0079707083196605567 0.030700656559466966 0 0 0.0043615036690776154 0 0.011867616359663468 0.0041413685536965689 0 4:1 13:1 15:1 19:1 29:4 39:1 268:1 269:1 
0.0034777860036046323 0.0036471838418997379 0.0027779418103283313 0.0015867892632845818 0 0.0069116275733199888 0.02154151281615882 0 0 13:1 15:1 29:2 38:1 39:1 41:2 51:1 88:1 270:1 271:1 272:1 273:1 274:1 
0 0.0031470480862688852 0 0 0 0 0 0.002060261409258907 0 13:1 29:1 140:1 275:1 276:1 277:1 278:1 279:1 280:1 
0.0025688698792368102 0 0.0014532655952579534 0.00018328655789454288 0 0 0.0023917797009492358 0 0 13:2 29:2 38:1 41:1 50:1 281:1 282:1 283:1 284:1 285:1 286:1 287:1 
0 0.0022523005081004589 0 0.0015568550784471828 0.00075919788738380151 0.0011025171470221478 0.00066820338001202838 0 0.0019436476979118676 3:1 4:1 8:1 13:3 19:2 22:1 38:1 39:1 45:1 106:2 181:1 239:1 271:1 288:1 289:1 290:1 291:1 292:1 293:1 294:1 295:1 296:1 297:1 298:1 299:1 300:1 301:1 302:1 
0.015352343125688485 0.012574217566134695 0 0.00040010088667542278 0 0 0.006358486335340423 0.0025675617175890835 0 29:2 39:1 303:1 304:1 305:1 306:1 
0.0023130178318708362 0.00092636245896204276 0 0 0 0 0 0 0 1:1 8:1 13:4 29:2 38:3 39:1 41:2 64:1 106:1 264:1 307:1 308:1 309:1 310:1 311:1 312:1 313:1 314:1 315:1 316:1 317:1 318:1 319:1 320:1 321:1 322:1 323:1 
0.00050592755765168772 0.0075899276486914328 0 0.0012389546652014553 0 0.00038558726263038636 0.0024657756815259818 0 0 3:1 8:1 13:2 24:1 25:1 33:1 38:2 39:2 41:1 128:1 245:1 324:1 325:1 326:1 327:1 328:1 329:1 330:1 331:1 332:1 333:1 334:1 335:1 336:1 337:1 338:1 339:1 
0 0 0 0.00046986072087392767 0 0 0 0 0.002494206131177895 1:2 3:1 7:1 13:1 19:1 22:1 24:1 25:1 29:1 31:1 35:1 36:1 39:1 41:1 129:1 153:1 188:2 222:1 228:1 229:1 234:1 344:1 348:1 349:1 350:1 351:1 352:1 353:1 
0 0.029192246972747679 0 0.004166441044397463 0.0014613050552489933 0 0 0 0.0088300561363907262 3:1 7:1 13:1 19:1 25:1 45:1 69:1 150:1 201:1 359:1 360:1 361:1 362:1 
0 0.0015165331185476377 0.00070653285079431678 0.0013425539871171404 0.00075353990702392906 0 0.0013696326517901108 0 0.0014598371020244554 3:1 13:2 22:1 25:1 38:4 60:1 77:2 264:1 271:1 363:1 364:1 365:1 366:1 367:1 368:1 369:1 370:1 371:1 372:1 373:1 
0.0032028508796503757 0.0079009429144816703 0 0 0 0 0 0 0 4:1 13:3 25:3 38:2 39:1 48:1 99:1 133:1 134:1 135:1 374:1 375:1 376:1 377:1 378:1 379:1 380:1 
0.0020421135829187609 0 0 0.00050781108900062658 0 0.0015246964366922313 0.0039298694034917876 0 0.00017197917318227944 13:3 19:2 25:2 28:1 29:1 30:1 38:2 39:1 93:1 122:1 381:2 382:1 383:1 384:1 385:1 386:1 387:1 388:1 389:1 390:1 391:1 392:1 
0.0025221636594486918 0 6.6354833247779825e-05 0 0 0 0 0 0 13:1 25:1 29:2 41:1 60:1 239:1 242:1 284:1 393:1 394:1 395:1 396:1 397:1 398:1 
0.00065574775150974986 0 0.0036536563729006174 0 0 0 0 0 0 4:1 13:1 19:1 41:1 45:1 50:1 239:1 399:1 400:1 401:1 402:1 403:1 
0 0.00063004709882522329 0 0 0 0 0 0 0 3:1 13:3 22:2 24:1 29:3 35:1 38:1 39:2 41:2 242:1 324:1 404:1 405:1 406:1 407:1 408:1 409:1 410:1 411:1 412:1 413:3 414:1 415:1 416:1 417:1 
0 0.021822912670910622 0 0.0027685525304997193 0 0.0016896558293378872 0.01971593035782707 0 0.03011650525780641 25:1 29:1 60:1 88:1 418:1 419:1 420:1 421:1 
0 0 0 0.0017944073101417962 0 0 0 0 0 3:1 8:1 13:2 22:1 24:1 29:1 35:1 38:1 39:1 41:1 83:1 88:1 150:1 238:1 324:1 407:1 408:1 409:1 411:1 413:1 414:1 422:1 423:1 424:1 425:1 426:1 427:1 428:1 429:1 
0.00041620939686498961 0.0011596111919478245 0.0008547651557545816 0.0014621493272486345 0 0.0011949355007882568 0 0.00061126755349308586 0 13:3 22:1 29:2 38:1 39:1 60:1 77:1 430:1 431:1 432:1 433:1 434:1 435:1 436:1 437:1 438:1 439:1 440:1 441:1 442:1 443:1 444:1 445:1 
0.0019402097600136506 0 0.0027846872676978952 0.00042679595559519325 0.00065547713684135467 0 0 0.0011730444528628729 0.00068500532281497932 8:3 13:2 20:1 29:1 38:1 39:1 45:3 380:1 382:1 389:1 446:1 447:1 448:1 449:1 450:1 451:1 452:1 453:1 454:1 455:1 456:1 457:1 458:1 459:1 460:1 461:1 462:1 
0.0028155989797990135 0 0.0014282554621876855 0 0 0 0.00058268429536480009 0 0 8:1 13:2 21:1 25:2 29:3 30:1 38:1 39:1 45:1 60:2 376:1 463:1 464:1 465:1 466:1 467:1 468:1 469:1 470:1 471:1 472:1 473:1 474:1 475:1 
0 0 0.0018559714320704086 0 0 0 0.002371043213641285 0 0 1:1 13:3 15:1 29:2 35:1 38:1 39:1 50:1 85:1 88:1 476:1 477:1 478:1 479:1 480:1 481:1 482:1 483:1 484:1 
0.055863984504659708 0.0016204376388586051 0 0.00025676774517815906 0.00076723921486860421 0.00014593949577288622 0.0011785293270655149 0.00057537243181500399 0 8:1 13:4 19:1 22:1 29:1 38:3 39:2 41:1 240:1 345:1 370:1 406:1 466:1 485:1 486:1 487:1 488:1 489:1 490:1 491:1 492:2 493:1 494:1 495:1 496:1 497:1 
0.0038055290895959619 0.00057113960969837081 0 0 0 0 0 0.00050094645555559915 0 1:2 13:6 19:1 29:2 38:2 39:1 106:1 122:1 153:2 370:1 405:1 406:1 410:1 413:1 486:1 498:1 499:1 500:1 501:1 502:1 
0 0 0 0 0 0 9.7215750072269483e-05 0 0 13:2 15:1 25:1 38:1 48:1 83:1 150:2 355:1 356:1 400:1 507:1 508:1 509:1 
0 0 0.0025396341706975566 0 0 0 0.00088314842485071791 0 0.003536682093709886 13:1 15:1 22:1 39:1 50:1 82:1 110:1 202:1 510:1 511:1 
0.0027142209690590958 0.0046250942478943827 0.001111914240661521 0.00012336899777428331 0 0.00031104559991168795 0.0029515818547807544 0.00073548782845084064 0 1:1 12:1 13:3 22:1 29:3 30:1 38:1 39:1 41:1 410:1 470:1 512:1 513:1 514:1 515:1 516:1 517:1 518:1 519:1 520:1 521:1 522:1 523:1 524:1 525:1 
0 0 0.00059662950133658119 0.0015946466574355425 0 0 0 0 0 1:1 8:1 13:2 14:1 15:1 29:2 38:1 39:1 48:1 60:1 125:1 148:1 261:1 264:1 526:1 527:1 528:1 529:1 530:1 531:1 532:1 533:1 534:1 535:1 
0 0.015096894666449942 0 0.0017395453528283157 0 0 0.0012427171837305719 0 0 29:1 38:2 83:1 106:1 232:1 251:1 271:1 536:1 537:1 538:1 539:1 
0.0024910689359902921 0 0 0 0 0 0 0 0 1:1 13:4 25:2 29:1 38:3 41:1 144:1 535:1 540:1 541:1 542:1 543:1 544:1 545:1 546:1 547:1 548:1 549:1 
0 0.00091103275051713812 0.0028041281544332842 0.00042612342031067617 0.00067398174241448583 0 0 0 0 3:1 13:2 24:2 29:1 35:2 39:2 41:2 165:1 344:1 556:1 557:1 558:1 559:1 
0.0018489142386534116 0 0.00094457203731064922 0.00042708634191469038 0 0 0 0 0 1:1 3:1 13:2 19:1 24:2 35:2 38:1 39:2 41:1 45:1 270:1 456:1 526:1 547:1 560:1 561:1 562:1 563:1 564:1 565:1 566:1 
0.0019047953561553139 0.0013717571283005541 5.3983868172143403e-05 0.00040093118351332318 0.0010514455257904713 0.0023572124200952477 0.0029825296991233779 0 0 1:1 13:5 24:1 29:1 38:2 41:2 108:1 157:1 287:1 527:1 567:1 568:1 569:1 570:1 571:1 572:1 573:1 574:1 575:1 576:1 
0.0041160729357503246 0.0076960227948060216 0.00076589340176055941 0.00060290445924189985 0 0.00038964113650711456 0.0027604573793883992 0.0013379577483318141 0 1:2 3:1 8:1 13:3 25:1 29:1 38:2 39:1 41:1 106:1 188:1 453:1 577:1 578:1 579:1 580:1 581:1 582:1 583:1 584:1 585:1 586:1 587:1 588:1 589:1 590:1 591:1 592:1 
0.02226550990089942 0 0.011623486655027689 0 0 0 0.08399366248043573 0 0.0017587850713704691 13:1 21:1 45:1 271:1 352:1 593:1 
0.00022460464853251051 0.004798621899902232 0 0 0 0 0.00063799321185245008 0.0016417842827074845 0 13:4 19:1 29:4 38:1 39:1 41:1 45:1 85:1 144:1 581:1 594:1 595:1 596:1 597:1 598:1 599:1 600:1 601:1 602:1 603:1 604:1 605:1 606:1 607:1 
0.0032477905830289029 0.018846659713064286 0 0.00072594210425658929 0 0 0.0045648561624075101 0.0038619644967282257 0.0001006088467049096 29:2 401:1 608:1 609:1 
0 0 0 0 0 0 0.010642830592350258 0 0.005572338485515518 610:1 
0 0.0039636857119938855 0.009109837411481754 0 0 0 0.0031781975708202168 0 0.0011854231524874104 50:1 82:1 125:1 148:1 173:1 611:1 612:1 
0 0 0.0018903596184795548 0 0 0 0 0 0.0044436939571347381 613:1 614:1 
0 0.0032728552420381411 0 0 0 0 0 0.0013886068392321654 0 1:1 8:1 13:1 29:1 48:1 157:1 540:1 615:1 616:1 617:1 618:1 
0.0091834149540349665 0.01201614221366573 0 0 0.011690707415849839 0.020124310177270434 0.044542483517164042 0.0063841617189169132 0.018208174664660438 13:1 25:1 619:1 620:1 
0.0083581802415989455 0.015718553796344202 0 0 0 0 0.0017700544602362116 0 0 25:2 29:2 242:1 621:1 622:1 623:1 624:1 625:1 626:1 
0.002428833946317965 0 0 0.0011379649860222489 0.0013628703583671038 0 0 0.0015315947137187736 0.0017998010274944262 13:3 22:1 39:2 82:1 106:1 627:1 628:1 629:1 630:1 631:1 632:1 
0 0.0024839331954772089 0 0 0.0019593824319913116 0 0 0 0 25:1 108:1 242:1 633:1 634:1 635:1 
0.0022066267360505011 0.0048291811497446352 0.0049112624428625162 0.0044311168801224503 0 0 0.0015224291865420293 0 0.00338336741233699 19:1 25:1 29:1 39:1 45:1 206:1 268:1 636:1 637:1 638:1 639:1 640:1 
0 0 0 0 0 0.0032746607525609727 0.014468253942262551 0 0.0017007957129820713 13:1 38:1 390:1 642:1 643:1 
0 0.0060527524270969114 0 0 0 0 0 0 0 13:3 20:1 25:1 29:3 38:1 39:1 41:1 45:1 106:1 140:1 216:1 271:1 644:1 645:1 646:1 647:1 648:1 649:1 650:1 651:1 652:1 653:1 654:1 655:1 656:1 657:1 
0 0 0 0 0 0.017131591453970429 0 0 0.0040661642324312719 8:1 13:1 41:1 167:1 547:1 658:1 
0.0039729562595381424 0.016476665985531064 0 0 0 0 0.0082182890180411347 0 0 25:2 29:2 659:1 660:1 661:1 662:1 663:1 
0 0 0 0 0 0 0.0029977915936915934 0 0.0036220643980580045 664:1 
0.0062260109485836271 0 0.0054292408680533828 0.0042208521059012155 0 0.0037796771614725944 0 0.0014051024883003449 0.0011020030766810084 1:1 13:2 39:1 60:1 102:1 680:1 681:1 682:1 
0.0021150585577478943 0.006154241470994231 0.0037757792063053104 0 0.00080963221255327816 0.0045522230948737349 0.0074661567141240722 0.0013359233411683491 0.0025182387214495341 25:1 30:1 45:1 85:1 596:1 683:1 684:1 685:1 686:1 687:1 688:1 689:1 690:1 
0 0 0.017072156722194063 0.00063360738280981608 0 0 0.011285512910408586 0 0.0019078946194517304 38:1 39:1 691:1 692:1 693:1 
0.0033288854208191913 0.015699303987695562 0 0 0 0 0.0092448711386257133 0 0 25:1 29:2 38:1 39:1 694:1 695:1 696:1 697:1 
0.0061402764317084113 0 0 0 0 0 0.018320080340072081 0.0032074409775198222 0.0038722764049799519 13:1 38:1 82:1 698:1 699:1 700:1 
0 0.040019732847062534 0 0 0 0 0 0.0012724344097652998 0.008462424781822301 4:1 12:1 25:2 29:1 60:1 82:1 83:1 701:1 702:1 703:1 
0.003754469016715526 0.001179325680302984 0 0 0 0 0 0 0 13:2 25:1 29:2 38:2 39:3 45:1 60:1 267:1 535:1 704:1 705:1 706:1 707:1 708:1 709:1 710:1 711:1 712:1 713:2 714:1 
0 0.025785428713755554 0 0 0 0 0 0 0 13:1 25:2 41:1 50:1 82:1 83:1 88:1 106:1 147:1 148:1 149:1 715:1 716:1 
0.01785368445978441 0 0.10755377206580442 0 0 0 0.0074340032631889054 0.0042619202412686723 0 50:1 261:1 717:1 
0.0025524591729385957 0.0055393985107554788 0 0 0 0 0 0 0 1:1 13:1 25:1 29:2 718:1 719:1 720:1 721:1 722:1 723:1 724:1 725:1 726:1 727:1 
0 0.0045618670688688592 0.0067627805463906848 0.0056473901014655204 0 0 0.022742620783154525 0.0018744602849829111 0 19:1 150:1 271:1 547:1 728:1 729:1 730:1 731:1 
0.0091901339823436123 0 0 0 0 0 0.0023924577393346904 0 0 8:1 29:1 50:1 82:1 88:1 91:1 106:1 732:1 
0.00093575831820088423 0.013460513679359317 0 0.00065880829017909179 0 0 0.005335950347423098 0.00078353334597580562 0 8:1 25:1 29:3 38:2 708:1 712:1 713:1 714:1 733:1 734:1 735:1 736:1 737:1 738:1 739:1 
0.0010096898414751346 0 0 0 0 0 0.0061033282927009606 0 0.011371468688361504 1:1 39:1 106:1 238:1 737:1 740:1 741:1 742:1 743:1 
0.0030810862026803398 0 0 0 0 0.00075188206885779365 0.0016949937424981798 0 0 8:1 192:1 732:1 744:1 
0.0016960923422980469 0 0 0 0 0.004623495351196813 0 0 0 13:2 233:1 754:1 
0.0084406541434649766 0 0 0 0 0 0 0 0 1:1 13:1 29:1 50:1 51:1 82:1 503:1 504:1 755:1 756:1 757:1 
0 0 0 0 0 0 0.0088007822365234311 0 0.0020418816692167724 758:1 
0 0.026691033902497809 0.0066064901853978824 0 0 0 0.019146945215718612 0 0.0025640039465878806 41:1 167:1 765:1 
0 0 0 0 0.0020162615414803975 0 0 0 0 3:1 4:1 15:1 19:1 39:1 355:1 356:1 766:1 
0 0 0.0067417872727846724 0 0.0045459774411617925 0 0.0055137695235555071 0 0.0038692413447662874 13:1 39:1 41:2 50:1 51:1 167:1 767:1 
0.0033483118362204844 0.0077076883707136706 0 0.00091594641662623335 0 0.00035832896656278574 0 0.00068695673817974971 0 1:1 8:1 13:4 25:2 39:1 41:1 345:1 434:1 466:1 534:1 542:1 550:1 770:1 771:1 772:1 773:1 774:1 775:1 776:1 777:1 778:1 779:1 780:1 781:1 
0 0 0 0 0.0082718730474447208 0 0 0 0.0045160438907916271 4:1 782:1 783:1 
0.0046710588989839052 0.001287680991621678 0 2.9267602841404227e-05 0 0.0050894485935267398 0.0034243944195189216 0.0029389692367971349 0.0019273934910297857 13:2 106:1 784:1 785:1 
0 0 0 0 0 0.00041696538184415161 0.013633696260080673 0 0.003078153739089433 38:1 786:1 787:1 
0 0 0 0.00045410005858065983 0 0 0 0 0 4:1 8:2 13:1 22:1 29:3 39:1 41:1 188:1 195:1 280:1 466:1 666:1 784:1 785:1 788:1 789:1 790:1 791:1 792:1 793:1 794:1 795:1 796:1 797:1 
0 0.011443675845115875 0 0.0023560373299431679 0 0.0016210729643409273 0 0 0.0018733620972498964 1:1 13:2 19:1 25:1 39:1 51:1 83:1 90:1 135:1 191:1 271:1 476:1 798:1 799:1 800:1 801:1 802:1 
0.0016755698932499445 0 0.012847896668348159 0.0023732090541284624 0.0013198527497146741 0.0035523945607223882 0.00070015836174306117 0.0013932759422871121 0.002210716317388724 13:1 22:1 27:1 30:1 38:1 48:1 60:1 106:1 196:1 340:1 803:1 804:1 805:1 806:1 807:1 808:1 809:1 
0 0 0 0 0.0021609022721303787 0 0 0.0033314086285696327 0 29:2 30:1 60:2 529:1 818:1 819:1 
0.006786681536294273 0 0.0088031514798316435 0 0 0 0 0.0019852861485685218 0.0042130976270825741 3:1 38:1 150:1 231:1 355:1 356:1 768:1 769:1 
0 0 0.0012086351161877155 0.0032701920718094042 0 0 0 0 0.0047962086033285847 8:1 41:2 50:1 77:1 167:1 261:1 820:1 
0 0 0 0 0 0 0.012654296789387648 0 0 50:1 821:1 
0 0 0 0 0 0 0.010820723018372069 0 0 4:1 8:1 14:1 15:1 22:1 25:1 29:1 30:1 45:1 60:1 466:1 822:1 823:1 
0 0 0 0 0 0.014990368026083745 0 0 0 13:1 29:1 53:1 90:1 824:1 825:1 
0.00057880323945308412 0.00096676334373215617 0 0.0004966460953306789 0 0.0016079262742593717 0 0 0 1:1 3:2 13:3 19:1 29:2 35:1 38:1 50:1 83:1 119:1 481:1 534:1 671:3 826:1 827:1 828:1 829:1 830:1 831:1 832:1 
0.0002632978591566427 0 0.00048832409667929635 0 0 0 0 0 0 3:1 13:4 22:1 24:1 31:1 35:1 36:1 38:2 39:1 41:3 45:1 251:1 367:1 455:1 646:1 833:1 834:1 835:1 836:1 837:1 838:1 839:1 840:1 841:2 842:1 843:1 
0.0039244553141021508 0.0025888924494372259 0.003026781816879084 0 0 0 0.00058480241070414706 0 0 13:1 45:1 50:1 51:1 150:1 324:1 844:1 845:1 846:1 847:1 
0.0079877395860034912 0.00077454928068319861 0.0016289245333584485 0.00012141100936204528 0 0.0012533407423308965 0 0 0 13:1 29:2 41:1 45:2 232:1 239:1 447:1 601:1 848:1 849:1 850:1 851:1 852:1 
0.0013579514193950704 0.0068667510272643487 0 0 0.0010978728409240383 0.0015579297674220623 0.00078709470942262265 0 0.0116650854394739 25:2 29:1 88:1 421:1 853:1 854:1 855:1 856:1 857:1 858:1 859:1 860:1 861:1 
0.002830436576961855 0.0092425974503173719 0 0 0 0 0.0016428665822750066 0.00061661656469055935 0.00281742057252185 1:1 13:2 19:1 25:3 29:1 38:1 39:1 41:1 45:1 177:1 240:1 550:1 585:2 862:1 863:1 864:1 865:1 866:1 867:1 868:1 869:1 870:1 871:1 872:2 873:1 874:1 875:1 876:1 877:1 
0.00011176744410404393 0.0070406258954413331 0 0 0 0 0.0078855031501553988 0 0 29:1 878:1 
0.005352587392665282 0 0 0.0013914624490487279 0 0.003831522271767006 0 0.00079676894797872069 0.0010628044012223605 1:2 4:1 8:1 13:4 15:1 22:1 29:2 38:2 41:3 81:1 106:1 167:1 239:1 251:1 345:1 434:1 702:1 879:1 880:1 881:1 882:1 883:1 
0.0039247814588215203 0 0 0 0 0 0 0 0 1:2 3:1 8:1 13:3 22:1 24:1 25:1 29:1 31:1 35:1 36:1 39:1 41:2 60:1 238:1 239:1 466:1 601:1 604:1 729:1 849:1 884:1 885:1 886:1 887:1 888:1 889:1 
0.0012709594139367832 0 0.0025128879354669982 0 0 0 0.0017522033597969398 0 0 3:1 13:3 24:1 25:1 29:1 31:1 35:1 36:1 38:1 39:4 41:3 185:1 271:1 394:1 601:1 690:1 849:1 890:1 891:1 892:1 893:1 894:1 895:1 896:1 897:1 898:1 
0.0017752928917760709 0 0 0 0 4.6645154377037932e-05 0 0 0 1:1 3:1 8:3 13:3 24:1 31:1 35:1 36:1 39:1 41:2 169:1 297:1 367:1 466:1 601:1 729:1 849:1 899:1 900:1 901:1 902:1 903:1 904:1 
0 0.0014694604496601369 0 0 0 0 0 0 0 3:2 13:1 29:2 39:1 41:1 45:1 88:1 157:1 190:1 238:1 532:1 604:1 884:1 905:1 906:1 907:1 908:1 909:1 910:1 
0.0064164781111429748 0.0010426275309307605 0 0 0.0013010952279668537 0 0 0.00066009980570166601 0.0078425073690526117 21:1 25:1 29:3 39:1 60:2 106:1 350:1 421:1 911:1 912:1 913:1 914:1 
0.0081017833871091047 0.0087385897664225796 0 0 0 0 0 0.00095214862220006826 0 1:2 8:1 25:1 29:1 41:2 45:1 88:1 106:1 420:1 716:1 915:1 916:1 917:1 918:1 919:1 
0.0053028668439206918 0.0072023541674187961 0 0 0 0 0 0 0 29:2 45:1 920:1 921:1 922:1 923:1 
0.017447511935813113 0 0 0.00075297368091095868 0.0008951837480080275 0 0 0.0030706449516265106 0.0040733270050437786 1:1 4:1 12:1 13:2 25:1 29:1 41:2 45:1 82:2 102:1 106:1 924:1 925:1 926:1 927:1 928:1 929:1 930:1 
0 0 0 0.00056966042823280874 0 0 0.00075884884194001522 0 0.00060409710433070114 13:2 25:2 29:2 39:1 41:2 45:1 51:1 88:1 143:1 144:1 200:1 238:1 261:1 271:1 288:1 345:1 394:1 434:1 550:1 931:1 932:1 933:1 934:1 935:1 936:1 
0 0.0065305400711036209 0.0048915705798088984 0.00061977945027938831 0.00083194697075750982 0 0.00278419797810491 0 0 3:1 13:5 29:2 38:3 41:1 64:1 88:1 150:1 221:1 345:1 384:1 434:1 466:1 489:1 526:1 534:1 616:1 658:1 771:1 937:1 938:1 939:1 940:1 941:1 942:1 943:1 
0 0.021753982794889257 0 0.001215126467002 0 0 0.0039441709481366589 0.0020717577065371964 0 13:1 25:1 29:1 45:1 232:1 398:1 944:1 945:1 946:1 947:1 
0 0.00057362201044892274 0.0066970397311171253 0.0010921790765702497 0 0 0.0061253648041455083 0 0.0015664139942230797 1:1 7:1 13:1 29:1 38:1 41:2 45:1 50:4 82:1 257:1 258:1 489:1 771:1 918:1 948:1 949:1 950:1 951:1 952:1 953:1 954:1 955:1 956:1 
0 0 0.0010783417115378334 0.00084448043615087832 0 0.00032140622827236411 0.0042187570092516828 0 0.0010325114036702639 8:2 13:1 29:1 38:2 41:1 50:1 106:1 111:1 271:1 287:1 367:1 489:1 918:1 949:1 951:1 957:1 958:1 959:1 960:1 961:1 
0.0016979119889850623 0.0099472960141746575 0 0 0.0016232291642610819 0 0.0062384763368575477 0.0013744239983149329 0 13:1 29:3 38:1 88:1 106:1 150:1 526:1 962:1 963:1 964:1 965:1 966:1 967:1 
0.010419622745790494 0.0031333256447800811 0 0 0 0 0 0.00077481375101403022 0 4:1 13:1 25:1 29:4 53:1 60:1 77:1 106:1 250:1 271:1 421:1 439:1 665:1 968:1 969:1 970:1 
0.0099713618661824554 0 0 0 0.0025067657577380106 0.0018565566105876717 0 0 0 4:1 22:1 29:1 41:1 53:1 106:1 239:1 971:1 
0.0027631939369949922 0.0084285726625816255 0 0 0 0 0.0047706190313540906 0 0 1:1 13:1 19:1 25:4 29:1 38:2 50:1 106:1 147:1 196:1 439:1 857:1 863:1 946:1 972:1 973:1 974:1 975:1 976:1 977:1 978:1 979:1 
0.00084714986749932981 0.00036861103279150798 0.0080114063656354893 0 0 0 0 0.0027363435041215466 0 1:1 13:1 39:1 50:1 85:1 124:1 980:1 981:1 
0 0.0044992497929670404 0 0 0 0 0.007279652177085821 0 0 13:2 15:1 29:3 38:1 45:1 239:1 486:1 714:1 982:1 983:1 984:1 985:1 986:1 987:1 
0.0053509764997511887 0 0.0024368194169318083 0 0 0 0.0033919530788007976 0.0040954073257671022 0.0019978254897304016 82:1 93:1 127:1 150:1 988:1 989:1 
0.0035755850822724294 0.023237674895133398 0 0 0 0 0.015704888954331149 0.00071139966668496194 0.0011622755919014204 13:1 25:2 29:2 38:1 78:1 88:1 106:1 251:1 990:1 991:1 992:1 993:1 
0.0015491878232645267 0.0039163502871160443 0.0042680131426542176 0.0001546227071955186 0 0.0012683558750984456 0.012555008119844661 0 0.0027437539468967093 13:1 38:1 45:1 50:1 737:1 994:1 995:1 996:1 
0.0041803293130829875 0.0034065598418937695 0 0.0014901520846961817 0.0024689387708551865 0 0.0019477549203580468 0 0 13:1 29:1 39:1 200:1 550:1 997:1 998:1 999:1 1000:1 
0.075747964697598161 0 32768 0 0 0 0 0 0 53:1 
0.024450153165648168 0 0 0 0.0021436492046126754 0 0 0 0 4:2 8:1 13:1 19:1 343:1 756:1 1001:1 
0.0090025290309479616 0.0022647841146375661 0 0 0 0.00086347127121358413 0.0013806933329870885 0.00050286384940342237 0 1:3 4:1 12:1 13:4 15:2 19:1 25:1 29:4 38:1 41:1 45:1 53:1 106:1 188:1 222:1 229:1 232:1 234:1 239:1 324:1 628:1 1002:1 1003:1 1004:1 1005:1 1006:1 1007:1 1008:1 1009:1 1010:1 
0.0047808009257875065 0.005852326255418064 0.0021738350364547527 0 0 0 0.0055114990450640979 0 0 4:1 7:1 8:1 13:1 15:1 29:3 38:1 41:1 57:1 82:1 181:1 455:1 765:1 1011:1 1012:1 1013:1 1014:1 
0.00095932890683473823 0 0 0 0.00048548252207117299 0 0 0.00021018405839651254 0 1:1 4:1 8:3 13:3 14:1 19:1 29:3 45:1 51:1 60:1 64:1 169:1 188:1 222:1 565:1 704:1 1015:1 1016:1 1017:1 1018:1 1019:1 1020:1 1021:1 1022:1 1023:1 1024:1 1025:1 1026:1 
0 0 0.0012482830289431328 0 0 0.0032914616346131722 0.01288905715280597 0 0.0017738157931306826 1:1 15:1 38:1 530:1 1027:1 1028:1 1029:1 
0 0 0 0.0010706821926465791 0 0 0.0034613574617435561 0 0 4:1 8:2 13:4 19:2 24:2 29:1 38:2 45:1 100:1 561:1 1030:1 1031:1 1032:1 1033:1 1034:1 1035:1 1036:1 1037:1 1038:1 1039:1 
0.0045474442971056329 0 0 0 0.00064080314102182758 0 0 0.00072423120330707439 0 8:1 13:3 21:1 25:1 29:3 39:1 41:1 60:1 88:1 124:1 264:1 271:1 312:1 638:1 1040:1 1041:1 1042:1 1043:1 1044:1 1045:1 1046:1 1047:1 1048:1 
0 0 0.012909293029027453 0 0 0 0 0 0.25667231627325343 50:1 51:1 1049:1 
0 0.0087040950476355832 0 0 0 0 0 0 0 8:2 13:1 29:2 56:1 72:1 466:1 1050:1 1051:1 1052:1 
0 0 0 0 0 0.00073867886490905788 0.0089047109595861863 0 0.0036254255029871205 53:1 1053:1 1054:1 
0 0 0.0011366815363409583 0 0 0 0.016958153369907383 0 0 8:1 15:1 22:1 29:2 38:1 39:1 1055:1 1056:1 1057:1 1058:1 1059:1 1060:1 1061:1 
0 0 0.0022773737754897909 0.0030098234233763505 0 0.0031866619166627109 0 0 0.003295935848487851 8:1 38:1 102:1 1062:1 1063:1 1064:1 1065:1 1066:1 
0.013352988637731914 0 0.0016215948409089363 0.0045207545833458309 0 0 0.0041853291052243429 0 0 1:1 3:1 13:1 29:3 35:1 81:1 119:1 345:1 671:3 1039:1 1067:1 1068:1 1069:1 
0 0 0 0.00032775076813455322 0 0 0 0 0 7:1 13:3 25:2 29:1 39:1 99:1 935:1 1070:1 1071:1 1072:1 1073:2 1074:1 1075:1 1076:1 1077:1 
0.0011812708761394463 0.00010137226571352584 0 0 0 0 0.017986251574312991 0 0.0013798766262411168 25:1 30:1 38:1 45:1 50:1 60:1 1078:1 1079:1 1080:1 
0.049720122206458009 0 0.024683477332405654 0 0 0 0.0084151217253907607 0.0056405267695259758 0 50:1 60:1 82:1 125:1 1081:1 
0 0 0 0 0 0 0.0050583855023981807 0 0 29:1 1082:1 1083:1 
0 0 0.0015619734808402126 0 0 0 0 0 0 4:3 13:3 29:2 38:2 39:3 41:1 50:1 60:1 90:2 150:1 271:2 355:1 400:1 1057:1 1084:1 1085:1 1086:1 1087:1 1088:1 
0.0064967902283630651 0 0.0010105173313161961 0.0051976055257119064 0 0.00063276617355068185 0 0 0 8:1 13:2 19:2 29:1 38:1 39:1 50:1 106:3 124:1 216:1 239:1 355:1 400:1 422:1 457:1 637:1 1089:1 1090:1 
0.022624668322204448 0.34960627767515984 0 0 0 0.0020848233913969738 0 0 0 3:1 13:1 345:1 355:1 434:1 
0.0095446531864074816 0.0025670819011254253 0 0 0.0014108260358439459 0 0.011999755238685354 0 0 8:2 22:1 29:3 38:1 82:1 737:1 1051:1 1095:1 1096:1 1097:1 1098:1 
4.4396104843742778e-05 0.005879071253752928 0 0.0014888510791539007 0.0028610213487504582 0 0.0054649629248904232 0.0034350820674637719 0.0037633423501691062 39:1 374:1 1099:1 1100:1 1101:1 
0.0098438101445442704 0.0047944856300843287 0 0 0 0.00080509663467416082 0.0043872227668211366 0.0042985941816576232 0.0074645023523500368 13:1 1102:1 1103:1 
0 0.0045260088046474856 0 0.00010399763010444367 0 0.0012999784662324199 0 0 0 8:2 13:2 25:1 38:1 39:1 60:1 434:1 764:1 977:1 984:1 1104:1 1105:1 1106:1 1107:1 1108:1 1109:1 1110:1 1111:1 
0.0053096890438273977 0.00043605672307554116 0 0 0 0 0 0 0 13:2 19:1 29:1 1114:1 1115:1 1116:1 1117:1 1118:1 
0 0 0 0 0 0.0032506379118079592 0 0 0 13:3 45:1 1119:1 1120:1 1121:1 1122:1 1123:1 
0 0 0 0 0 0.00078794920711984376 0 0 0.0022029220269177987 8:1 13:1 45:1 130:1 202:1 1124:1 1125:1 1126:1 1127:1 
0 0.0084195899089241841 0.028527915110887491 0 0 0 0.0018467961133815532 0 0.0040389702948170599 27:1 50:2 124:1 252:1 421:1 662:1 1128:1 1129:1 1130:1 
0.0039902999399793393 0 0.0012959337041064836 0 0 0.00044276933292945948 0.001208142988937938 0 0 8:1 13:5 19:1 22:1 29:2 38:2 39:1 41:1 45:1 264:1 267:1 355:1 396:1 457:1 540:1 1053:1 1131:1 1132:1 1133:1 1134:1 1135:1 1136:2 1137:1 1138:1 
0 0 0.0030920019473835011 0.001600903089715826 0.0020415343084930265 0 0.0013725053323535063 0 0.0066891086830557396 41:1 125:1 167:1 261:1 271:1 729:1 1139:1 1140:1 
0 0.016567103654489646 0.0065810325175101611 0 0 0 0.0086274200903172261 0 0 13:1 25:1 29:2 38:1 39:1 125:1 748:1 794:1 1141:1 1142:1 1143:1 
0.0055418680208958165 0.03536402669449739 0 0 0 0 0 0 0 13:2 21:1 25:1 29:2 38:1 45:1 60:1 83:1 106:1 251:1 464:1 529:1 737:1 1086:1 1144:1 1145:1 1146:1 
0.0064461858239262433 0 0 0.0024627136430544175 0.012290432893826225 0 0 0 0.0037504202776482429 38:1 1147:1 1148:1 
0.0082405516981586199 0.0093122820075662496 0 0 0 0 0.0037304092424818225 0.00081169186705664384 0 1:1 13:1 29:4 34:1 39:1 45:1 50:1 51:1 60:1 106:1 194:1 202:1 547:1 640:1 1149:1 1150:1 1151:1 1152:1 1153:1 1154:1 
0.0032653394423625974 0 0 0 0 0 0.0058724405877959183 0.00098715919784266612 0 8:1 13:4 15:1 25:1 29:2 38:1 60:1 82:1 188:1 1082:1 1155:1 1156:1 1157:1 1158:1 1159:1 1160:1 
0 0.15431142598634848 0 0 0.0051165496289382493 0 0.032173351593758399 0 0 29:3 50:3 124:1 1161:1 
0 0.0086622138612253933 0 0.00095223679206903457 0 0 0.0073166955108601448 0 0.0020152647695365635 1:1 8:1 13:3 25:4 38:4 50:1 90:1 98:1 100:1 147:1 353:1 629:2 1162:1 1163:1 1164:1 1165:1 1166:1 1167:1 1168:1 1169:1 1170:1 1171:1 1172:1 1173:1 
0.058983056789391322 0 0 0 0 0.0064991282159225566 0.003854614645739704 0.0059490335948188464 0.0038062137987401662 1175:1 
0.0010758427417504619 0 0 0 0 0 0.0040850329927288971 0 0.012833811052654746 1174:1 
0 0 0.0015666711936413425 0.003606546982751032 0 0 0 0.0010181221888275339 0 13:2 16:1 19:1 29:1 100:1 271:1 312:1 1144:1 1176:1 1177:1 1178:1 
0.006535734543369239 0.0066878318941959993 0 0 0 0.0094000074442465061 0.022190686022129598 0 0.0060384489409745197 13:1 38:1 106:1 1179:1 
0.004450029761869115 0.018573485158927008 0 0 0 6.9941902869769874e-05 0.00122353207057463 0 0 1:1 4:1 8:1 13:4 15:1 22:1 25:1 29:4 39:1 41:1 106:2 139:1 246:1 394:1 466:1 507:1 990:1 1055:1 1180:1 1181:1 1182:1 1183:1 1184:1 1185:1 
0.0013930324654652304 0 0 0 0 0.00059864052578812604 0 0 0 1:1 4:1 8:2 13:3 25:1 38:2 41:1 60:1 106:1 122:1 181:1 439:1 466:1 505:1 1070:1 1084:1 1186:1 1187:1 1188:1 1189:1 1190:1 1191:1 1192:1 1193:1 
0.0030255289842046978 0 0 0 0.0055820760833968988 0 0 0 0 4:1 29:1 1194:1 1195:1 
0 0.00025228767773770284 0 0 0 0.0033347708126020823 0.00092921131634007208 0.0018551495635134002 0.0012427197116930621 8:1 39:1 94:1 106:1 169:1 1196:1 1197:1 1198:1 
0.0020523348389050503 0.0060578195588464239 0 0 0 0 0.0031293430987920311 0 0.00043385976790499825 4:1 8:1 13:1 25:2 29:2 38:1 39:1 41:2 154:1 949:1 1199:1 1200:1 1201:1 1202:1 1203:1 1204:1 
0 0 0.0024150057576370521 0 0 0 0.0033339502722169612 0 0 1:1 7:1 13:1 19:1 29:3 38:1 39:1 41:2 56:1 60:1 88:1 106:1 394:1 742:1 753:1 889:1 1205:1 1206:1 1207:1 1208:1 1209:1 1210:1 1211:1 1212:1 1213:1 1214:1 1215:1 
0 0 0 0.002021158164793316 0 0 0 0 0.013568104940232769 39:1 41:2 50:2 147:1 155:1 167:1 324:1 350:1 414:1 421:1 1086:1 1216:1 1217:1 
0 0.014428109747108708 0 0.0010398525733311484 0 0.00028449408513842912 0.0020377326157454551 0 0 3:2 8:1 13:4 22:1 25:2 29:1 38:1 39:1 50:1 60:1 83:1 125:1 157:1 188:1 489:1 803:1 931:1 1209:1 1218:1 1219:1 1220:1 1221:1 1222:1 1223:1 1224:1 1225:1 1226:1 
0 0 0.0028318999493535998 0 0 0.087390694607607497 0.005508360506326246 0 0 39:1 50:1 51:1 150:1 1227:1 
0 0 0 0 0 0 0 0 0.00063716180327003037 3:1 13:1 24:1 31:1 35:1 36:1 38:2 39:3 41:2 60:1 201:1 228:1 246:1 421:1 534:1 737:1 775:1 833:1 834:2 1232:1 1238:1 1239:1 1240:1 1241:1 1242:1 1243:1 1244:2 
0 0.0019811653070429818 0 0 0 0 0 0 0 13:3 22:2 25:1 38:4 39:1 45:1 69:1 83:1 228:1 345:1 356:1 434:1 550:1 565:1 748:1 833:1 834:1 1113:1 1239:1 1244:2 1250:1 1251:1 1252:1 1253:1 1254:1 1255:1 1256:1 1257:1 1258:1 
0.0003747544622525942 0 0 0.00097487853455338288 0 0 0 0 0 1:1 4:1 8:2 13:5 19:2 29:1 38:1 45:1 60:1 157:1 486:1 740:1 763:1 834:1 982:1 1259:1 1260:1 1261:1 1262:1 1263:1 1264:1 1265:1 1266:1 1267:1 1268:1 1269:1 1270:1 1271:1 
0.0079685785596725917 0.040363516954321756 0 0 0.0025446372820316786 0 0.035946851531557654 0.0056388248735053268 0 3:1 29:1 38:1 121:1 288:1 623:1 1272:1 
0.0037254099442182 0 0.00023522523721387239 0 0 0 0.0063973168226510412 0.0013994380272783539 0 1:1 13:4 21:1 24:2 29:3 35:1 38:3 39:1 41:2 45:1 60:1 140:1 502:1 520:1 1039:1 1273:1 1274:1 1275:1 1276:1 1277:1 1278:1 1279:1 1280:1 
0 0 0 0 0 0.00079025878665591907 0 0 0.0020457909934732013 8:1 13:1 45:1 1051:1 1281:1 1282:1 1283:1 
0.0010623059096971376 0.00280695913713496 0 0 0.001207731796522446 0 0.0012170294572610286 0.00094553900043100963 0 1:1 7:1 25:2 29:2 45:1 317:1 534:1 827:1 1095:1 1148:1 1284:1 1285:1 1286:1 1287:1 1288:1 1289:1 
0 0 0.0013909328478965998 0.00147342338223685 0 0.0040096642704423157 0.0039513614190530254 0 0.0035887652989061093 7:1 13:2 15:1 22:2 41:1 45:1 1112:1 1290:1 1291:1 1292:1 1293:1 1294:1 1295:1 
0 0 0.0052283212141490754 0 0 0.0004902535283806505 0 0 0 1:1 13:2 22:1 38:2 39:1 41:1 45:1 48:1 50:1 51:1 60:1 83:1 150:1 356:1 400:1 457:1 1296:2 1297:1 1298:1 1299:1 1300:1 
0 0.0026381832797650927 0 0 0 0.0001593812586386443 0.0043404904404722167 0 0 13:1 15:1 25:1 29:2 64:1 148:1 200:1 239:1 453:1 1301:1 1302:1 1303:1 1304:1 1305:1 1306:1 1307:1 
0.029069187527886804 0 0.001049376010489954 0 0.0017851068252842548 0.0027908006763051863 0 0.0030828091959164291 0 1:1 29:3 41:1 56:1 60:1 106:1 650:1 1308:1 1309:1 1310:1 
0.0069683576695237087 0.0068327099012762153 0.00055621223113224989 0.0014677842386573055 0.0013639947214519196 0 0.0081043594284553617 0.0032601352504823379 0.0044224928319824847 1:2 39:2 50:1 729:1 1311:1 1312:1 1313:1 
0 0.01174097260337959 0 0 0.0033325742753853491 0 0.010187867216266501 0.0065714914558516755 0 29:2 39:1 439:1 456:1 1053:1 
0.0016979719935622997 0.0063528032426788707 0 0 0 0 0 0 0 3:1 9:1 13:2 25:1 29:2 39:2 45:1 312:1 396:1 547:1 1314:1 1315:1 1316:1 1317:1 1318:1 1319:1 1320:1 1321:1 
0.002468359816389167 0.001064431990995411 0 0 0 0 0.0017238698010625755 0 0 1:1 13:1 25:2 88:1 383:1 1322:1 1323:1 1324:1 1325:1 
0 0.023150287414542881 0 0.00038675598810578954 0 0 0.012046967811749288 0 0 8:1 14:1 25:1 29:1 77:1 250:1 665:1 1326:1 
0 0.0094704609376725004 0.0044275886577709537 0.0036969824597574623 0.0014236159813629662 0.0052853286353558328 0.011072906037560877 0 0.015423438567191179 8:1 15:1 38:1 41:1 50:1 421:1 765:1 1327:1 1328:1 1329:1 1330:1 
0 0 0.0010385250569615997 0.0061747715007826722 0 0.00021976194643602375 0.0092805931963359997 0 0 13:3 15:1 25:1 29:1 31:1 38:1 41:1 56:1 60:1 88:2 106:1 1012:1 1333:1 1334:1 1335:1 1336:1 1337:1 1338:1 1339:1 
0.0020145630123452052 0.011047043692120753 0 0.00063177681164808817 0 0 0 0.00062426254876396222 0.0054997836615166291 4:1 13:1 25:2 29:2 41:4 57:1 83:1 146:1 194:1 341:1 1028:1 1340:1 1341:1 1342:1 1343:1 1344:1 1345:1 1346:1 1347:1 1348:1 1349:1 
0.0012955786539802867 0.0053988366163162773 0 0.00088745704890994209 0.00054254659819300954 0 0 0 0 8:1 13:5 25:2 29:1 39:2 41:3 60:1 108:1 112:2 121:1 547:1 578:1 821:1 1062:1 1346:1 1349:1 1350:1 1351:1 1352:1 1353:1 1354:1 1355:1 1356:1 
0 0 0 0 0 0.00018516905678396187 0 0 0.0037017706077967418 13:2 19:1 25:1 38:1 41:1 271:1 658:1 1049:1 1250:1 1357:1 1358:1 1359:1 1360:1 1361:1 1362:1 
0.012021110619674157 0.0056530862536761763 0 0.00019168203459594331 0 0 0.0020570946831844927 0.0013053912287951841 0.0012228288447587747 1:1 13:1 29:1 41:1 106:1 550:1 1363:1 1364:1 1365:1 1366:1 
0.01734120554985236 0 0.0043293663606148681 0 0 0 0 0.017667786397808607 0.014221434178409475 13:1 41:1 82:1 299:1 649:1 1367:1 
0 0.020903990134774605 0 0 0 0 0.0024859041695829403 0 0 3:1 13:2 25:4 38:1 39:1 64:1 88:1 143:1 144:1 345:1 434:1 737:1 1113:1 1338:1 1368:1 1369:1 1370:1 1371:1 1372:1 1373:1 1374:1 1375:1 
0 0.0040916398320715629 0.0031126752035504374 0 0 0 0 0 0.0014646893664234909 8:1 13:2 25:1 39:1 41:1 345:1 466:1 489:1 809:1 1376:1 1377:1 1378:1 1379:1 1380:1 1381:1 
0 0.035355640811408365 0.0071482502222992711 0 0 0.0050493416600324598 0.0059401856496244694 0.0018353032679810704 0.0009850659886259782 8:1 13:1 38:1 39:1 41:1 756:1 1382:1 1383:1 
0 0 0.0052737418527640948 0.001596624527551797 0.0011412683896056945 0.0020945035161220316 0 0.0016765195543754214 0.0020531557755017319 1:1 7:1 8:2 41:1 148:1 150:1 378:1 1300:1 1384:1 1385:1 1386:1 1387:1 
0 0.0064591283593081038 0 0 0 0.00023881545649875245 0 0 0 1:1 4:1 7:1 13:1 29:2 39:1 41:1 83:1 106:1 239:1 1388:1 1389:1 1390:1 1391:1 1392:1 1393:1 1394:1 1395:1 
0 0 0 0 0 0 0.0036157772641334752 0 0.015451238799513971 38:1 77:1 1073:1 1396:1 
0.0052527151791399067 0.021411001074076352 0 0 0.002828950232938064 0 0 0 0 13:1 25:1 41:1 345:1 716:1 1377:1 
0.0049046135396834181 0 0 0.00010283494666022816 0 0 0 0 0.00056015630175798494 1:1 4:1 8:1 13:4 22:1 29:2 39:2 51:1 60:1 725:1 918:1 1209:1 1340:1 1397:1 1398:1 1399:1 1400:1 1401:1 1402:1 1403:1 1404:1 1405:1 
0.011170639424994076 0 0.00093406120827069466 0.001972988746833822 0 0 0.0046393063261113039 0.00088379706424870452 0.0027586772422953762 1:2 4:2 8:2 13:4 19:1 25:1 29:1 38:1 41:2 82:1 167:1 271:2 294:1 843:1 1105:1 1406:1 1407:1 1408:1 1409:1 1410:1 1411:1 1412:1 1413:1 
0.004545283360729787 0.013666509811041177 0 0.00023419412455676224 0.00068622689726974447 0 0.003300060097915451 0 0.0014717815837468804 8:1 13:1 25:5 38:1 51:1 79:2 82:1 242:1 258:1 271:1 534:1 775:1 975:1 1414:1 1415:1 1416:1 1417:1 1418:1 1419:1 1420:1 1421:1 
0.0013564868799197374 0 0.0028960606004869178 0.0020542658946266002 0 0.0088943175042627536 0 0.0032178118117191143 0.0035416462842575228 13:1 41:1 1422:1 1423:1 
0 0 0.0022149258476565278 0 0 0.0029266085154570753 0.021289385407145131 0.0019211923399942072 0.0068366168329952407 1:1 15:1 38:1 88:1 1338:1 1424:1 1425:1 
0 0 0.0024588551480522825 0 0 0 0 0.0011657612598661268 0 22:1 45:1 81:1 1132:1 1426:1 1427:1 1428:1 
0 0 0 0.00070523868682409506 0 0.0041407514434343515 0.0014207481179349178 0.0023670521979231632 0 13:2 29:1 38:1 125:1 129:1 324:1 413:1 717:1 1396:1 1429:1 1430:1 1431:1 1432:1 
0 0.0063400588965101595 0 0.00011930549204079789 0 0 0.0042865927194216356 0 0.0038253943456518207 8:3 13:3 25:4 29:1 38:2 60:1 250:1 270:1 345:1 393:1 421:1 439:1 561:1 583:1 665:1 790:1 970:1 1356:1 1433:1 1434:1 1435:1 1436:1 
0.00076396862676044754 0.0018516042765789195 0 0 0 0 0.00013920267143709576 0 0 13:2 25:4 29:2 39:2 200:1 215:1 228:1 239:1 434:1 646:1 834:1 1113:1 1232:1 1244:2 1371:1 1437:1 1438:1 1439:1 1440:1 1441:1 1442:1 1443:1 1444:1 1445:1 
0.0092413449585851785 0.015670390357504446 0 0.00039191181177161867 0 0 0.0026551657769671366 0.00079863772488712617 0 1:1 3:1 8:1 15:1 22:1 25:1 29:2 41:2 106:1 665:1 666:1 667:1 1057:1 1452:1 1453:1 1454:1 1455:1 
0.0057272203396211063 0.0021838818424939942 0 0 0 0.0018572964369609301 0 0 0 8:1 25:1 29:1 45:1 60:1 83:1 239:1 665:1 1244:1 1456:1 1457:1 1458:1 1459:1 1460:1 1461:1 
0 0 0 0 0 0 0.0025814824433059739 0.00082561447891015113 0 13:2 29:4 50:1 51:1 345:1 434:1 646:1 1042:1 1244:2 1462:1 1463:1 1464:1 
0.0034065462800182186 0.012603601230737735 0 0 0 0 0 0.00071840263627365414 0.0017806176368073804 1:1 13:3 19:1 25:3 29:2 196:1 345:1 434:1 646:1 772:1 1244:2 1463:1 1465:1 1466:1 1467:1 1468:1 
0.013996030790833676 0.0011922752234586949 0 0 0 0 0.0086044125442451616 0.0043516420988673234 0 1:1 25:1 29:1 39:1 60:1 82:1 466:1 1469:1 1470:1 
0.0081334126764889721 0.012429806821881207 0 0.00017250021883847603 0 0 0 0.0021604110478419844 0 1:1 8:1 13:1 29:2 45:1 72:1 1473:1 1474:1 1475:1 
0 0.0035438646645004454 0 0 0 0 0.00087120227694139577 0 0.0033147071962064444 25:1 718:1 724:1 726:1 1476:1 1477:1 1478:1 
0 0.0090853995075138201 0 0 0 0 0.0023585092836200259 0 0 8:1 22:1 29:1 88:1 106:1 265:1 1219:1 1479:1 1480:1 
0.0040392687799727421 0.0068859802359288068 0.00068846637766869785 0.0015397791364713431 0 0.0023637003701640412 0.0022933071271709713 0.0014832510494331951 0.00064601631240937714 1:1 3:1 8:1 13:2 19:1 24:1 38:1 41:1 553:1 1482:1 1484:1 1485:1 1486:1 1487:1 1488:1 1489:1 1490:1 
0 0.0072347352791938919 0 0.0015792315757130779 0 0 32768 0.0043254490477380144 0 29:2 125:1 1439:1 1440:1 1493:1 
0 0 0.0016819845260130687 0 0 0 0 0 0 1:1 3:1 12:1 13:1 24:2 25:1 35:2 38:2 39:2 41:2 53:1 60:1 83:1 124:1 228:1 394:1 833:1 834:1 1413:1 1439:1 1440:1 1494:1 1495:1 1496:1 1497:2 1498:1 1499:1 1500:1 
0 0.0043771460282940305 0 0.00087619284498120353 0 0 0 0 0 8:1 25:1 29:1 38:2 45:1 90:1 150:1 261:1 400:1 553:1 729:1 1209:1 1501:1 1502:1 1503:1 1504:1 1505:1 
0 0.011664383180482293 0 0.00075660037202561372 0.00083739489266963351 0 0.00086298966464153396 0 0 8:1 13:1 22:1 25:2 29:2 39:2 60:1 88:1 106:2 148:1 261:1 271:1 523:1 714:2 967:1 1506:1 1507:1 1508:1 1509:1 
0.0098105361757546417 0.013937456578539306 0 0.00059269470937783788 0 0 0.0063015945080808228 0 0 3:1 4:1 8:1 13:1 25:1 29:2 38:1 39:4 41:1 50:1 82:1 83:1 756:1 1042:1 1450:1 1510:1 1511:1 1512:1 1513:1 1514:1 1515:1 1516:1 1517:1 
0.02658198233872262 0 0.0025151007413206769 0 0 0 0.0069951939184247514 0.0017002909740943622 0 1:1 13:1 29:2 38:1 39:1 41:2 1383:1 1518:1 1519:1 1520:1 1521:1 
0.0036696152435016765 0 0 0 0.0016931694607702156 0 0.0016344182228522736 0 0 13:2 29:2 56:1 181:1 271:1 623:1 1522:1 1523:1 1524:1 
0 0 0 0.0012863065866230024 0 0 0 0 0 8:1 13:3 25:1 38:1 50:1 51:1 60:1 82:1 106:1 215:1 312:1 319:1 419:1 1082:1 1525:1 1526:1 1527:1 1528:1 1529:1 1530:1 1531:1 
0 0.0090317652102192524 0 0 0 0 0 0 0.0012612979072259404 12:1 13:1 39:1 41:2 50:2 167:1 452:1 457:2 1532:1 1533:1 1534:1 1535:1 
0.0018628813224857504 0.0023804883525384603 0 0.00015808348000381176 0 0 0.015276012522053999 0 0 1:1 15:1 25:1 29:2 41:1 45:1 88:1 93:1 121:1 547:1 1536:1 1537:1 1538:1 1539:1 1540:1 1541:1 
0.016168351986050582 0 0 0 0 0 0.017891512271885537 0 0 25:1 29:2 82:1 418:1 1450:1 1492:1 1542:1 
0 0 0 0.0032672292079739549 0 0.0018180607762607345 0 0 0 7:1 8:1 13:1 22:1 29:2 45:1 60:1 79:1 102:1 106:1 271:1 1543:1 1544:1 1545:1 1546:1 1547:1 1548:1 1549:1 1550:1 
0 0.0011542954126346756 0.0001565913662565928 0.0030645296891615979 0 0 0.002392340876794981 0 0 3:1 13:4 29:2 35:1 38:2 41:1 50:2 83:1 481:1 671:3 827:1 1552:1 1553:1 1554:1 1555:1 1556:1 1557:1 1558:1 
0.0067942582938299448 0.0047506037321062983 0 0 0 0 0.0047775603614981033 0 0 1:1 7:1 13:2 25:1 29:2 45:2 88:1 1132:1 1222:1 1507:1 1559:1 1560:1 1561:1 1562:1 1563:1 
0 0.012241033007299687 0.0056435298508674889 0.0026733155284673939 0 0 0.00091730208114176523 0 0.0037626274328044843 8:1 13:1 25:1 30:1 41:2 50:1 64:1 125:1 261:1 918:1 1324:1 1564:1 1565:1 1566:1 1567:1 
0.029109990954683976 0 0 0 0.0035225583562066504 0 0 0.0024028000099050348 0.0029457879563301202 29:3 39:3 140:1 466:1 755:1 1568:1 1569:2 
0.0051767668687646992 0 0 0.00013577921181432724 0 0.0062548720768717623 0 0.0019260054060439629 0.0015893488359305377 1:1 8:1 13:1 22:1 25:1 41:1 45:1 60:1 106:1 1359:1 1570:1 1571:1 1572:1 
0.0052750648791004351 0.0060393120341014697 0 0 0 0 0.0062000577801035479 0 0.0015142329381094301 13:1 25:1 45:1 1578:1 1579:1 1580:1 
0 0 0.00058170660924682495 0 0 0 0 0 0 8:1 29:2 38:1 39:1 45:1 60:2 292:1 651:1 1581:1 1582:1 1583:1 1584:1 1585:1 1586:1 1587:1 1588:1 1589:1 
0 0 0 0.00023599688462677814 0 0 0 0 0 3:1 8:1 13:1 22:1 24:1 25:2 31:1 35:1 36:1 39:2 41:1 261:1 313:1 414:1 593:1 713:1 834:1 1016:1 1232:1 1590:1 1591:1 1592:1 1593:1 1594:1 1595:1 1596:1 1597:1 
0.019268641234333687 0 0 0 0.0032771661817787893 0 0 0 0 4:1 82:1 92:1 102:1 148:1 149:1 239:1 
0 0 0.0052887799823690251 0.0088678129116496855 0 0.0083356715616113089 0 0.0071252218889916825 0.001776417381969206 60:1 102:1 1598:1 
0.0075550007831096284 0.0077533086139077324 0 0 0 0 0.0040204532675103119 0 5.601393384276098e-06 3:1 13:4 25:2 38:3 106:1 150:1 372:1 489:1 505:1 623:1 727:1 938:1 1599:1 1600:1 1601:1 1602:2 
0.00021168387905175001 0.0095139707432767076 0 0.00061104444011252286 0.00074179008703261851 0.0014312576627500528 0.0049207766980776798 0.00055696013934890178 0 3:1 8:2 13:3 22:1 25:2 29:3 38:2 39:1 45:1 188:1 271:1 534:1 930:1 1529:1 1603:1 1604:1 1605:1 1606:1 1607:1 1608:1 1609:1 1610:1 1611:1 1612:1 1613:1 1614:1 1615:1 1616:1 
0 0 0.014939369686185998 0 0 0 0 0.0024038022517713525 0 1:1 8:1 50:1 60:1 82:1 147:1 238:1 239:1 1617:1 
0 0.0015218087979510361 0 0 0.0042506170477293621 0 0.010159486927337331 0 0 25:1 1352:1 1618:1 1619:1 
0.0029456505666910285 0.00036718096250808473 0.001577873393368856 0.00014395979110508076 0 0 0 0.001502486127435804 0 8:1 13:1 29:1 38:1 39:1 41:1 82:1 150:1 595:1 755:1 1620:1 1621:1 1622:1 1623:1 
0.00098345444302976818 0.00080700570325154561 0.0010167336553580327 0 0.00062841167961278006 0.0037927799751812353 0.0011100537443944842 0.0017628522262263325 0.0025946849291880562 1:2 3:1 8:1 15:1 19:1 25:1 34:1 38:2 39:2 85:1 112:1 394:1 534:1 601:1 604:1 1497:1 1624:1 1625:1 1626:1 1627:1 1628:1 1629:1 1630:1 1631:1 1632:1 1633:1 
0.00278450187639326 0.010117055951058985 0.0039572452077080668 0 0 0.0033362726661782939 0.00076372364218869643 0 0 3:1 13:3 19:1 25:1 29:2 38:1 39:1 41:2 56:1 133:1 239:1 318:1 319:1 394:1 569:1 1634:1 1637:1 1638:1 1639:1 1640:1 1641:1 1642:1 1643:1 
0 0 0 0.00041536251489661261 0.0019283995289133327 0 0 0.0017613062270249768 0.00038843903248655985 13:1 30:1 38:1 238:1 261:1 1644:1 1645:1 1646:1 1647:1 1648:1 
0 0 0 0 0 0.0043527062901990935 0 0.0030466978207546692 0.0043346976776529496 22:1 1156:1 1649:1 1650:1 
0.0021511642255543839 0.00026728419855181232 0.0038488574522645737 3.8854436246728775e-05 0 0.00015973299157717754 0.0021892495296330101 0.0018487874583818795 0.0004834702205641377 1:1 13:2 22:1 29:2 38:1 39:1 140:1 447:1 848:1 853:1 1651:1 1652:1 1653:1 1654:1 1655:1 1656:1 1657:1 1658:1 1659:1 
0 0 0.0010156334869454555 0 0 0 0 0.0028754122225523944 0 13:1 29:2 202:1 206:1 1660:1 1661:1 1662:1 
0.0034747015101731357 0 0 0 0 0 0 0.00078546623272210652 0 1:2 3:1 4:1 13:3 19:1 24:1 29:3 31:1 35:1 36:1 38:2 39:1 41:3 45:1 313:1 578:1 702:1 949:1 986:1 1389:1 1555:1 1667:1 1668:1 1669:1 1670:1 
0 0 0 0 0 0 0.00059234210660304284 0 0 3:1 8:1 13:3 15:1 19:1 22:1 24:1 31:1 35:1 36:1 38:2 39:1 41:3 81:1 313:1 981:1 1101:1 1375:1 1671:1 1672:1 1673:1 1674:1 1675:1 
0 0.0013439467118845235 0 0 0.00098527251113069607 0 0.00099424875071499113 0 0 1:1 13:3 25:1 29:1 38:1 39:1 45:1 124:1 144:1 157:1 218:1 259:1 345:1 434:1 1319:1 1521:1 1555:1 1676:1 1677:1 1678:1 1679:1 
0 0 0.015625 0 0 0.0026685377344355362 0.015765249958009341 0 0 1352:1 1680:1 
0 0.008134366742238797 0.0011891543047181622 0.0058271244095605239 0 0.005086459530691455 0.0038533965204631329 0 0 1:1 3:1 7:1 13:3 15:1 19:1 25:1 29:3 41:1 45:3 88:1 125:1 231:1 232:1 555:1 671:3 944:1 1382:1 1681:1 1682:1 1683:1 1684:1 1685:1 
0 0 0.0014580775708269082 0.00049412554458313639 0.00063304290036261151 0.00090816348091832147 0 0 0.00012523163132384895 3:1 13:5 19:1 38:1 39:2 88:1 150:1 274:1 439:2 590:1 629:1 1244:1 1686:2 1687:1 1688:1 1689:1 1690:1 1691:1 1692:1 1693:1 1694:1 1695:1 1696:1 1697:1 1698:1 
0 0.0024032728821884301 0 0.00094931078652117412 0 0.001367571777512353 0 0 0 8:1 24:1 29:1 39:2 81:1 100:1 112:1 431:1 466:1 547:1 858:1 1395:1 1513:1 1699:1 1700:1 1701:1 1702:1 1703:1 1704:1 
0.0033058847177989716 0.0038281238595161901 0 0.0015404558075623671 0 0.00082870154737279969 0 0 0 8:1 13:3 25:2 29:2 41:1 60:1 99:1 106:1 1494:1 1705:1 1706:1 1707:1 1708:1 1709:1 1710:1 1711:1 1712:1 1713:1 1714:1 1715:1 
0.005458866312859279 0.0034655111174933524 0 0 0 0 0.012520548540264319 0 0 13:1 25:1 29:1 41:1 312:2 418:1 1422:1 
0.0031301140255713309 0 0.0048467852751197778 0 0 0.0017742474785891562 0.0056846053030143485 0 0 13:2 15:1 29:2 38:1 39:1 41:1 45:1 180:1 196:1 239:2 264:1 561:1 1716:1 1717:1 1718:1 1719:1 1720:1 1721:1 1722:1 
0 0 0 0.00035559221032867619 0 0.0010542911058689108 0 0 0.00093026132310502401 8:1 13:2 19:1 25:1 34:1 41:3 50:1 60:1 106:1 167:1 465:1 496:1 1723:1 1724:1 1725:1 1726:1 1727:1 1728:1 
0 0.0034404220931291345 0.003035743520744304 0 0 0 0 0 0.00070222398582553663 13:1 38:1 41:1 1266:1 1729:1 1730:1 1731:1 
0.003556196576839277 0.003813571168750484 0 0 0 0 0.0039198321280177022 0 0 1:1 8:1 13:1 25:1 29:3 38:1 45:1 51:1 60:1 77:1 106:1 288:1 1732:1 1733:1 1734:1 1735:1 1736:1 1737:1 1738:1 1739:1 1740:1 
0 0 0 0 0 0 0 0 0.0006406960330925406 15:1 25:1 29:1 39:1 60:1 251:1 1741:1 1742:1 1743:1 
0.0036830139518074074 0.0023588350418274041 0 0 0 0.0025393363950185835 0.0028382471034538769 0 0.0028693914301973693 1:1 13:2 25:1 29:1 38:1 39:1 41:1 45:1 106:2 125:1 218:1 239:1 246:1 550:1 732:1 1419:1 1452:1 1744:1 1745:1 1746:1 1747:1 1748:1 
0.00046821706333261839 0.0049083586932500336 0 0 0.00076394725998895643 0 0.0018393111577047422 0 0 8:2 13:4 25:3 29:1 38:4 45:2 108:1 150:2 155:1 259:1 313:1 526:1 1147:1 1731:1 1749:1 1750:1 1751:1 1752:1 1753:1 1754:1 1755:1 1756:1 1757:1 1758:1 1759:1 1760:1 1761:1 
0.010646572634440729 0.01389560283201036 0 0 0 0.0042407544490111176 0.010203237737972349 0 0.0055504292692251838 1:1 13:2 25:1 29:1 38:1 41:1 83:1 88:2 106:1 167:1 394:1 470:1 555:1 740:1 1762:1 1763:1 1764:1 1765:1 
0.0048303213750632385 0.001204687393886591 0 0 0 0 0 0.0012491599585044526 0.00733839892352547 1:1 13:3 25:1 29:1 38:3 39:1 45:1 60:1 82:2 83:1 106:1 124:1 251:1 326:2 421:1 808:1 1766:1 1767:1 1768:1 1769:1 1770:1 1771:1 1772:1 
0 0 0 0 0 0.00035213569319211553 0.0050988661167353641 0 0.001034104049278734 1773:1 1774:1 1775:1 
0.0035255680630271466 0 0 0 0.0014323614037132801 0 0.018534781599440591 0 0 25:1 45:1 50:2 82:1 1525:1 1772:1 1776:1 1777:1 1778:1 
0 0.011340253840867308 0 0 0 0 0.0049398034997753804 0 0 1:1 8:2 13:3 15:1 25:1 29:3 38:2 39:1 45:2 74:1 83:1 169:1 286:1 505:1 530:1 696:1 990:1 1192:1 1352:1 1769:1 1779:1 1780:1 1781:1 
0 0 0 0 0 0 0 0 0.002853078773755183 8:1 15:1 25:1 38:1 41:1 50:2 60:1 106:1 147:1 157:1 246:1 354:1 755:1 1049:1 1089:1 1782:1 1783:1 
0.003381044198815185 0.024050724528194855 0 0.0029109500697661948 0.00064077786513553573 0 0 0 0 1:1 3:1 8:2 13:5 19:1 22:1 25:2 29:3 39:1 41:1 88:1 130:1 458:1 547:1 788:1 1338:1 1684:1 1743:1 1771:1 1784:1 1785:1 1786:1 1787:1 1788:1 
0.0032989480804578725 0 0 0 0 0 0 0 0 4:1 8:1 13:2 25:1 29:3 38:1 60:1 82:1 345:1 593:1 633:1 934:1 1375:1 1789:1 1790:1 1791:1 1792:1 1793:1 
0.0071196944808619642 0 0.021318103641721819 0 0 0 0.0079220475536462935 0 0 13:1 50:1 82:1 239:1 1794:1 
0 0 0 0 0 0.027782715371216293 0 0 0.0032736573343907782 8:1 13:1 41:1 167:1 756:1 1001:1 
0 0.0038307004227035603 0 0 0 0 0 0 0 4:1 13:3 38:2 39:1 83:1 657:1 782:1 1577:1 1799:1 1800:1 1801:1 1802:1 1803:1 
8.4231197439329141e-05 0 0 0.00030215462211898248 0 0 0.00094647222993637708 0 0 3:1 8:2 13:4 19:2 24:2 29:2 35:2 38:2 39:1 41:1 377:1 877:1 1236:1 1349:1 1804:1 1805:1 1806:1 1807:1 1808:1 1809:1 1810:1 1811:1 1812:1 1813:1 1814:1 
0 0 0 0 0 0 0.0057192914119669524 0 0.0094851970376509769 13:1 15:1 25:1 38:1 150:1 153:1 188:1 344:1 1017:1 1491:1 1816:1 
0.0027562038417670394 0.0058251572111105562 0 0 0 0.000512630463377094 0.00019689498134910986 0 0.0021331358641862247 1:2 4:2 7:1 22:1 25:3 30:1 38:2 50:1 60:1 83:2 153:1 356:1 1017:1 1395:1 1817:1 1818:1 1819:1 1820:1 1821:1 1822:1 1823:1 1824:1 1825:1 
0.00074719139961941202 0.0062423968547574279 0.0011799805817064417 0.0025112418641973461 0 0.001845012415775162 0 0 0.010263670272910995 13:5 19:1 25:1 60:1 83:1 102:1 106:1 345:1 421:1 550:1 585:1 726:1 1329:1 1820:1 1823:1 1826:1 1827:1 1828:1 1829:1 1830:1 1831:1 1832:1 1833:1 1834:1 1835:1 1836:1 
0.39641841644945436 0.047093211210671011 0.014265986587476846 0 0.0034906806460620115 0.0018469347531722487 0.17038803242514053 0.0064761074439646515 0 29:3 858:1 859:1 1837:1 
0 0.0033026161634893431 0 0 0 0 0 0 0 13:1 22:1 39:1 50:1 64:1 1646:1 1838:1 
0 0 0 0.010236343444256038 0 0.001315707877028362 0.032532097655851966 0 0 45:1 312:1 1473:1 
0 0 0.00089132842129653177 0.010908912286972114 0.0020335885301299046 0.0075111524812947464 0 0 0 8:1 25:1 60:2 102:2 188:1 466:1 1840:1 1841:1 
0.00094455957346712761 0 0 0 0 0.0011381620331289539 0 0 0 8:1 13:2 22:1 29:1 60:2 106:1 1765:1 1842:1 1843:1 1844:1 1845:1 1846:1 
0.0012527979576521374 0 0 0 0 0.0015312136736626966 0.0084068773532932489 0 0 13:1 19:1 38:1 324:1 1847:1 1848:1 1849:1 
0 0 0 0 0 0 1.0713080409367668 0 0.0060531090314907389 1850:1 
0.0040589327416606083 0 0 0.0013285003429362333 0 0.0010285146083482378 0 0 0.0030324386736803157 1:1 8:2 15:1 22:1 29:1 34:1 38:1 39:1 41:1 48:1 60:1 106:2 148:1 190:1 623:1 1152:1 1505:1 1851:1 1852:1 1853:1 1854:1 1855:1 1856:1 1857:1 
0.00021645450156968188 0 0 0 0 0 0 0 0 13:2 22:1 25:1 38:1 125:1 150:1 201:1 252:1 313:1 356:1 414:1 492:1 574:1 674:1 1242:1 1868:1 1869:1 1870:1 1871:1 
0 0 2.8603290894640465 0 0.0030440439505101335 0 0 0 0.0044077786377999112 25:1 1710:2 
0 0.0086063905012016099 0 0 0 0 0 0 0 1:1 8:2 25:1 29:2 39:1 45:1 48:1 92:1 106:1 261:1 312:1 534:1 535:1 701:1 1281:1 1872:1 1873:1 1874:1 
0.0026700467258178448 0.0098031021058220588 0.00092980525845758966 0.0024841095624844613 0 0.0004703401197648626 0 0 0.0012185267672350755 1:1 13:4 19:1 22:2 29:1 45:1 140:1 157:1 345:1 578:1 1261:1 1875:1 1876:1 1877:1 1878:1 1879:1 1880:1 1881:1 1882:1 1883:1 
0 0.0074017174217974289 0 0 0 0.0015600489864134837 0 0 0 1:1 3:2 13:4 29:2 35:1 38:1 41:1 50:1 83:1 157:1 259:1 435:1 481:1 671:3 1243:1 1497:1 1884:1 1885:1 1886:1 
0.0086790402110180041 0 0.0050404734286411219 0.0046880873002027538 0 0.0024722281419373576 0 0.0038571080195163058 0.010151833609713239 22:1 41:1 102:1 497:1 975:1 1112:1 1887:1 1888:1 1889:1 
0 0.0027181746272113439 0 0 0 0 0.00060640399169201197 0 0 1:1 7:1 8:1 25:1 29:1 36:1 39:2 737:1 860:1 1888:1 1890:1 1891:1 1892:1 1893:1 1894:1 
0 0 0 0 0 0 0.0038695786066899954 0 0 13:1 50:1 51:1 150:1 818:1 834:1 1895:1 
0.030576987729507427 0 0.00046734630771866543 0.00225402009145162 0 0 0.0046040444003118755 0.0041556368406926586 0.0087363731576895389 1:1 4:1 13:1 41:1 82:1 93:1 1852:1 1896:1 1897:1 
0.0014576589897392937 0.0032075665476637731 0.0010119910989437638 0.0010234518767448587 0.0004228824638487035 0.0021157000939024382 0.0025983248961136784 0.0004782533148162553 0 1:1 3:1 8:1 13:8 19:1 29:2 38:2 39:1 88:1 139:1 218:1 259:1 271:1 324:1 550:1 574:2 669:1 1402:1 1497:1 1898:1 1899:1 1900:1 1901:1 1902:1 1903:1 1904:1 
0 0 0.002572189519244619 0.001693012169236141 0.016701114618430726 0.016124218266928281 3.1584858057450479e-05 0 0.0066347224053954906 1815:1 1905:1 
0 0 0.0075298621654970206 0 0 0 0.0054645124348230234 0.0058927672177612545 0.0033899475728695321 12:1 38:2 50:1 124:1 186:1 1497:1 1906:1 
0 0 0 0 0 0 0 0.00077370277442379855 0 1:1 8:1 13:1 25:1 29:1 41:1 60:1 88:2 124:1 167:1 626:1 1710:1 1907:1 1908:1 1909:1 1910:1 1911:1 1912:1 1913:1 
0.018286928641727422 0.027277501677023697 0 0.0038263440281282451 0 0 0 0.0010590540010633742 0 1:1 3:1 13:2 22:1 24:1 29:4 38:2 39:2 45:1 69:1 102:1 122:1 125:1 150:1 239:1 417:1 566:1 1098:1 1569:1 1914:1 1915:1 1916:1 
0 0 0.004592103770301342 0 0 0 0.0026985698424701436 0.0034547903277521398 0 29:1 56:1 1497:1 1917:1 1918:1 1919:1 
0 0.00048216203411382305 0 0 0 0 0 0 0.0030136160265667763 4:1 8:2 13:2 15:1 19:1 25:3 29:1 38:2 41:1 167:1 284:1 729:1 1433:1 1920:1 1921:1 1922:1 1923:1 1924:1 
0 0 0 0 0.0043940020551011009 0 0 0 0.016723246749386557 4:2 50:2 51:1 1049:1 
0.0011196388720158754 0.0021345954241023387 0 0.00098453724514522265 0 0.00091775744781159917 0 0 0 13:3 25:1 29:1 38:3 39:1 41:1 102:1 280:1 284:1 502:1 699:1 1925:1 1926:1 1927:1 1928:1 1929:1 1930:1 1931:1 1932:1 1933:1 1934:1 1935:1 
0.0062439041883089177 0.16000083514566166 0 0 0.0059033539049310989 0 0.011758990363178021 0.0073532052126424035 0 29:3 83:1 1936:1 
0.053455584320318023 0 0 0 0 0 0.017415559076985752 0.0083426498770321766 0.028776208368635182 1:1 4:1 82:1 1937:1 
0.0004034820456662229 0 0 0 0.001607682419494388 0 0 0 0 8:1 29:2 181:2 1064:1 1066:1 1938:1 1939:1 1940:1 
0 0 0 0 0 0.00038714298483531203 0 0 0 4:1 8:1 13:1 41:1 419:1 1941:1 1942:1 1943:1 
0 0.0046053441681632896 0.002658127673228147 0 0 0 0.0072466077727264206 0 0 3:1 8:1 13:4 15:1 22:1 29:1 33:1 38:4 41:1 157:1 271:1 623:1 1089:1 1520:1 1788:1 1937:1 1944:1 1945:1 1946:1 1947:1 1948:1 1949:1 1950:1 
0 0 0 5.6204351566406798e-05 0 0 0 0 0 1:1 3:1 13:2 15:1 29:1 45:1 50:1 153:1 232:1 626:1 717:1 726:1 834:1 944:1 1825:1 1912:1 1951:1 1952:1 
0.0010693591006488454 0 0 0 0 0 0 0 0.0082064741454679815 1536:1 
0 0.0093812118999450755 0 0 0 0 0.007811206797902921 0 0 12:1 13:1 15:1 22:1 25:2 29:2 39:1 41:1 45:1 50:2 51:1 53:1 81:1 88:1 92:1 116:1 133:1 505:1 1250:1 1455:1 1953:1 1954:1 1955:1 1956:1 
0 0.0085817470308658592 0 0 0 0 0.0071830196158578835 0 0 8:1 13:1 25:1 29:2 38:2 39:1 88:1 106:1 157:1 252:1 261:1 309:1 324:1 384:1 466:1 1634:1 1957:1 1958:1 1959:1 1960:1 1961:1 1962:1 
0.00055114154084626643 0 0 0 0.0038123302221565653 0.0012051499649097372 0.0035469765131174377 0 0.0010397209122171044 626:1 1775:1 1912:1 1963:1 
0.034397326397177221 0.043060398385837396 0 0 0 0 0.030379996075440542 0 0.014250762839863759 8:1 13:1 25:3 41:1 45:1 267:1 496:1 1455:1 1964:1 1965:1 
0.0043834683461776852 0.00060199255913362545 0.0025813798441491286 0.0019689743848323718 0.0032101735825773251 0 0 0.0018112266866684025 0.0055195105114725345 19:1 1103:1 1828:1 1966:1 1967:1 
0 0 0 0 0 0 0 0 0.0022357098427952097 8:1 1968:1 
0 0.057412004392137207 0 0 0 0.016576470927135659 0.040549026918330053 0 0.0078389896175058826 38:1 106:1 262:1 466:1 756:1 1464:1 
0 0 0 0.0012038630088546595 0 0.00056532792205041325 0 0 0.0020493555934163557 3:1 8:3 25:2 38:2 51:1 106:1 150:1 153:1 157:1 195:1 271:1 372:1 453:1 568:1 712:1 834:1 877:1 1089:1 1310:1 1821:1 1969:1 1970:1 1971:1 1972:1 1973:1 1974:1 
0 0.0067153502767725859 0 0 0 0 0 0 0 13:1 25:1 50:1 60:1 106:1 273:1 1357:1 1402:1 
0.0059494111483568901 0.010626638256400938 0 0.0011286023022458785 0 0.0019278991957764845 0.0092129597944435142 0 0.00017761292099317415 1:1 13:3 15:2 25:2 29:2 30:1 38:2 39:1 41:4 51:1 100:1 188:1 454:1 526:1 713:1 737:1 1196:1 1522:1 1975:1 1976:1 1977:1 1978:1 1979:1 1980:1 1981:1 1982:1 1983:1 
0.0068995621457765858 0 0.0033152831334933961 0 0 0 0.053032548565060574 0 0 29:1 248:1 418:1 1450:1 1984:1 
0 0.026409628735777922 0 0 0 0 0.0056892391153076398 0 0.001224934568208431 25:1 38:1 106:1 181:1 312:1 1320:1 1985:1 
0.02739066539839816 0.00024426237932975757 0 0.0012681069252635378 0 0.00373517716652246 0.0065783417830499891 0.0019052185951815973 0.0024319477422677011 1:1 8:1 29:1 39:1 41:1 56:1 77:1 106:1 119:1 122:1 134:1 486:1 1986:1 
0.0036999101374842699 0 0.0036937055263151055 0.00013530135462160327 0.0018553944472019298 0 0.006230474888268377 0.0021708715526860775 0.0014798812844446017 29:2 38:2 45:1 256:1 1822:1 1987:1 1988:1 1989:1 
0.090904526833053362 0 0.016290357930393299 0 0 0.0042136728838003817 0.021944025465663725 0 0.018334968668952449 41:1 167:1 261:1 542:1 547:1 737:1 
0.0088914977341992239 0.0075550758043703087 0 0 0 0 0 0 0.0039387967809732093 4:2 25:1 29:1 38:1 39:1 41:2 83:1 1707:1 1990:1 1991:1 1992:1 
0.006164676369049573 0.0014400398561250673 0 0 0.0034038961392457881 0 0 0.0034206188916013716 0 1:1 50:1 1993:1 1994:1 1995:1 
0 0 0.005979860086650959 0.00017905618708922749 0 0.0041415016231589608 0 0 0.0014942644778367241 8:1 13:1 77:1 239:1 1677:1 1828:1 1996:1 1997:1 
0 0 0.0014112620870299912 0 0 0 0 0 0 8:1 13:2 15:1 27:1 29:2 36:1 38:1 48:1 150:1 1998:1 1999:1 2000:1 2001:1 2002:1 2003:1 2004:1 
0.00047582060286573255 0 0.00057397460474681609 0.0014791611068155604 0.00066133839945727176 0 0 0.00058949382587149528 0.0012608935249700944 1:1 3:1 7:1 8:2 13:4 22:1 29:2 34:1 38:2 39:1 41:1 51:1 60:1 125:1 138:1 238:2 255:1 478:1 550:1 1069:1 1157:1 1725:1 2005:1 2006:1 2007:1 2008:1 2009:1 2010:1 
0.0018640597698186706 0.003750625119242778 0 0 0 0 0.0050571064999871398 0.0013627517442634353 0 1:1 13:1 25:1 29:2 38:1 39:1 82:1 88:1 726:1 1075:1 2011:1 2012:1 2013:1 2014:1 2015:1 2016:1 
0.0010487082806872302 0 0.0028053899943790194 0 0 0 0 0 0 13:1 19:1 22:1 29:1 35:1 41:1 136:1 2007:1 2017:1 2018:1 2019:1 
0.0049509023626732578 0.033980158180239486 0 0 0 0 0 0 0.0042309695667563894 12:1 13:1 25:1 29:2 39:1 41:1 83:1 451:1 761:1 1647:1 2020:1 2021:1 2022:1 
0.0043580170591835145 0 0 0 0.0059544737892034362 0 0 0.0049853058018864112 0.0080287043492866667 251:1 472:1 2023:1 
0 0 0 0.00074430662021389904 0 0 0 0.0024374256699360472 0.00056555072785643024 1:1 29:1 41:1 45:1 88:1 257:1 729:1 2024:1 
0 0 0 0 20777.0654167834 0 0 0 32768 269:1 
0.0078830780169105042 0 0 0 0 0.00033311670609692583 0.033337181457623676 0.0051520492458043436 0.0038118011175467242 1:1 38:1 106:1 1059:1 2025:1 
0 0.004167353208266473 0 0 0 0 0.0054285082502457385 0 0 29:2 106:1 133:1 1057:1 1141:1 2026:1 2027:1 2028:1 
0.007029952429230729 0 0 0 0.0041819899268060083 0.0015985376778639147 0.00083940278419565584 0 0 29:2 60:1 106:1 740:1 2029:1 2030:1 
0 0 0.012852832271189947 0 0.0090030717275757129 0.016763945656505734 0.014752172333610772 0 0.0050680284963874941 38:1 239:1 2014:1 
0 0.011636561517715586 0 0.00030117987067979128 0.0014646272388127259 0 0 0 0 8:1 29:2 41:1 169:1 198:1 211:1 242:1 666:1 808:1 1196:1 1329:1 1984:1 
0.0018626990878279769 0 0.00089295395103701513 0 0.0011421607172790174 0.0019201543778452511 0.0083023876530686543 0 0.0037832723084524626 8:1 13:2 15:1 38:1 45:1 51:1 264:1 467:1 623:1 790:1 1345:1 2031:1 2032:1 2033:1 2034:1 2035:1 2036:1 2037:1 2038:1 
0 0.021051423476199305 0.0025656786359995309 0 0.0015170825281835638 0 0 0 0.0034206499833116209 8:1 13:1 39:1 72:1 1090:1 1146:1 2039:1 2040:1 
0.0036746643816562316 0.0037034529031147049 0 0 0 0 0.0016387298311427261 0 0 13:1 19:1 25:1 39:1 50:1 124:1 834:1 2041:1 2042:1 2043:1 2044:1 2045:1 2046:1 
0.0025643369901465467 0.012499548746405761 0 0 0 0 0.01733625748709347 0 0 25:1 662:1 2047:1 
0.0090215216482940116 0.0023336258659822605 0 0 0 0.0031171322353110561 0.013415472732208576 0.0010406125072200875 0.0017610526092042915 4:1 13:1 15:1 22:1 25:1 29:2 30:1 38:2 41:1 45:1 106:1 717:1 756:1 870:1 1300:1 1370:1 2048:1 2049:1 2050:1 2051:2 2052:1 2053:1 
0.00302786117020808 0.0092325237459386384 0 0 0.0008899455682345852 0 0.0090731312632904137 0.00070235054787829983 0 13:3 29:4 38:4 39:2 60:1 106:2 261:1 313:1 314:1 345:1 354:1 1234:1 2062:1 2063:1 2064:1 2065:1 2066:1 2067:1 2068:1 
0.002918113549892166 0.0017849406681881158 0 0 0 0.0014106971916527582 0.0057905935240499737 0 0.0013940427989329604 25:1 30:1 38:1 45:1 2069:1 2070:1 2071:1 2072:1 2073:1 
0.0084380630200362062 0.0023674007277290272 0 0 0 0 0.0033659603787012603 0.0036870438546652076 0 1:1 8:1 29:1 211:1 2074:1 2075:1 
0.0067754747371189961 0.00096826662856393849 0.0010662500904793102 0.00038085126571816988 0 0.00023888097902597139 0.0012707187003725036 0.0024165867269404302 0.0028438405149661559 19:1 41:1 2076:1 2077:1 2078:1 
0 0 0 0.00059810825799786296 0.00066616273377837951 0.00029948397269356449 0.0033695570331541943 0.00065894670529727034 0 8:1 13:2 29:3 38:3 45:1 60:1 92:1 106:1 206:1 271:1 378:1 466:1 698:1 713:2 923:1 976:1 984:1 1267:1 1555:1 1925:1 1990:1 2079:1 2080:1 2081:1 2082:1 
0 0 0 0 0 0 0 0 0.0033435877416054202 1:1 4:2 12:1 13:1 15:1 22:2 25:1 29:1 39:1 50:1 88:1 125:1 133:1 264:1 288:1 383:1 384:1 466:1 1323:1 1338:1 2083:1 2084:1 2085:1 2086:1 2087:1 
0 0.010614871609258766 0 0.00030867913656858773 0 0.0028725519841501287 0 0 0.00035654116826919951 8:1 13:2 15:1 22:2 25:1 38:1 41:1 83:1 106:1 288:1 379:1 383:1 1323:1 2083:1 2088:1 2089:1 2090:1 2091:1 
0.0033464905401888474 0.013006449957507294 0 0.00093795778458652358 0.0010477545625516144 0 0.0033454048095687685 0.0018109919944979624 0 7:1 13:9 19:2 25:4 29:5 106:1 271:1 416:1 1082:1 1318:1 1876:1 2092:1 2093:1 2094:1 2095:1 2096:1 2097:1 2098:1 2099:1 2100:1 2101:1 2102:1 
0 0 0 0 0 0 0 0 0.0026404071497539696 782:1 1083:1 
0.0027477229853968611 0 0 7.2734251637886023e-05 0 0 0 0.00081590103784619553 0 8:2 13:3 19:2 29:2 39:2 41:1 60:1 82:2 88:1 264:1 271:1 497:1 834:1 843:1 920:1 1984:1 2103:1 2104:1 2105:1 2106:1 2107:1 2108:1 2109:1 2110:1 2111:1 
0 0.0037711200399776637 0 0.00083199920036534263 0 0 0.013731550184476417 0 0.0016352147182212555 8:1 38:1 39:1 50:1 2112:1 2113:1 
0 0.01247752382785595 0 0 0 0 0.0018481114328253022 0 0 13:1 25:1 466:1 1043:1 2116:1 2117:1 
0 0.0040014154975762167 0 0 0 0.00082878320711941486 0.0025873873722721749 0 0 3:1 8:1 22:1 25:2 29:1 31:1 36:1 38:3 39:1 45:1 83:1 90:1 650:1 666:1 729:1 834:2 961:1 1232:1 2118:1 2119:1 2120:1 2121:1 2122:1 2123:1 2124:1 2125:1 2126:1 2127:1 
0.034356572006355023 0 0 0 0 0 0.022813084590291563 0.0047305230508855036 0 82:1 561:1 1689:1 2128:1 
0 0 0 0 0 0 0.00061521624846231845 0 0 3:2 13:2 29:2 35:1 38:1 50:1 481:1 671:3 1095:1 1285:1 1431:1 1637:1 2129:1 2130:1 2131:1 2132:1 
0 0.00050476206105476537 0 0.0017601873974932031 0 0.0014211421891433633 0 0 0 8:1 13:1 25:1 29:1 39:1 476:1 496:1 550:1 649:1 2133:1 2134:1 2135:1 
0.0022575349758213745 0.00018258867645516859 0 0 0 0 0.0012626812516424433 0 0.00092276408632391109 8:1 13:1 19:1 21:1 25:1 29:1 38:1 41:1 60:1 206:1 395:1 1020:1 1085:1 1193:1 1433:1 2136:1 2137:1 2138:1 2139:1 2140:1 2141:1 2142:1 2143:1 
0.0027768462640439043 0 0.0076066733044341311 0.0043081555838268273 0 0 0 0 0 1:1 4:1 13:1 41:1 105:1 153:1 637:1 2156:1 2157:1 2158:1 
0 0 0.0010402663243772345 0 0 0.000525375830864829 0.0022862495812881966 0 0 8:1 13:3 29:1 38:2 41:1 56:1 167:1 489:1 499:1 502:1 742:1 1567:1 2159:1 2160:1 
0 0.0021848684842006101 0.0035640452394642983 0 0 0.031180425473241513 0.042137060524875279 0 0.027808190232831816 13:1 30:1 38:1 50:1 90:1 135:1 271:1 729:1 
0.0037123783203047815 0 0 0 0 0 0 0 0.0044625447540033664 4:1 8:1 25:1 45:1 60:1 150:1 173:1 725:1 2161:1 2162:1 2163:1 
0 0 0 0.0012948581936340251 0 0 0 0 0 8:1 29:1 41:1 77:1 261:1 2164:1 2165:1 2166:1 
0.0034084012901811579 0 0.0045178531115404336 0 0 0.0035338181572034917 0 0 0.0021877298174232855 13:1 38:1 41:1 1215:1 1383:1 2167:1 
0 0.021555170915880075 0 0.002312784463195887 0 0 0 0 0 13:1 39:1 50:1 83:1 503:1 729:1 2168:1 
0.0040610684829084417 0 0.0035313214399067664 0.0053173173314831641 0 0.0026816596330509618 0 0 0.0029366317681379121 41:1 102:1 2169:1 2170:1 2171:1 
0.0047237438002237665 0 0 0 0 0 0.00038871806647728128 0 0 13:1 25:1 29:1 45:1 50:1 53:1 82:1 93:1 150:1 729:1 1318:1 2176:1 2177:1 2178:1 2179:1 
0 0.00027797663001887998 0.029291570479027574 0.0036182463928728166 0 0.016795778829343296 0 0 0.035371574777449559 13:2 41:2 69:1 102:1 121:1 167:1 239:1 240:1 261:1 
0 0 0.0020465867143252478 0.00011339857646619947 0 0 0 0 0 3:1 13:5 19:1 22:1 24:1 38:2 41:1 45:2 69:1 150:2 313:1 437:1 489:1 566:1 834:1 1182:1 1232:1 1299:1 2180:1 2181:1 2182:1 2183:1 2184:1 2185:1 
0.0010150583157482217 0.0031134822042041808 0.00051052021195602715 0 0 0 0 0 0.010055328243756326 4:1 13:1 25:1 29:1 41:1 77:1 239:1 303:1 2128:1 2186:1 
0.00080776167417731005 0 0 0 0 0.00082907725369068749 0 0.0014930320107999378 0.0025125600207727221 13:2 897:1 2187:1 2188:1 
0.0072116193481412006 0 0 0 0.0028744422355573424 0 0 0 0 4:1 13:1 41:1 106:1 770:1 2189:1 2190:1 
0.00026855572529707145 0.007381417397470628 0.0016939595969238243 0.0016785347398075119 0.00042477815071679511 0.0035050433407930476 0.0036401304671430544 0 0.0018716940955769655 1:2 4:1 8:1 13:6 15:4 29:1 38:2 41:2 50:1 51:1 83:2 106:1 162:1 489:1 726:1 1367:1 1576:1 1822:1 2178:1 2191:1 2192:1 2193:1 2194:1 2195:1 2196:1 
0 0.0096510761930718985 0 0.0017710560412013631 0.00044769925873442063 0 0 0 0.0020226424042512374 8:1 12:1 13:4 15:1 25:5 29:1 39:1 41:5 50:1 51:1 202:1 238:1 239:1 483:1 489:1 659:1 776:1 924:1 1321:1 1423:1 1576:1 2197:1 2198:1 2199:1 2200:1 2201:1 2202:1 2203:1 
0 0.011770518471614103 0 0 0 0 0 0 0.0023972725857940615 13:1 25:2 29:1 56:1 60:1 83:1 129:1 140:1 324:1 574:1 884:1 1342:1 2162:1 2204:1 
0 0.035565763787186053 0 0.0008575707747719921 0.00080852227860378023 0 0.0071422182569027687 0 0.0033589688395808961 13:2 22:1 25:2 38:1 39:1 50:2 106:1 319:1 345:2 378:1 466:1 550:1 853:1 1508:1 2205:1 2206:1 2207:1 2208:1 
0.00075580899365274012 0.00090756779550433978 0 0 0 0.00079800479026593456 0 0 0.0018919674226523036 13:1 41:1 1775:1 2209:1 2210:1 2211:1 
0.0061336789586228877 0.010984030532569264 0 0.00021809423856398048 0 0.0074613089648543334 0 0.00079838352724166542 0.002810448302036298 1:1 13:6 22:1 25:1 38:1 39:1 41:1 90:1 106:1 534:1 955:1 1321:1 2172:1 2212:1 2213:1 2214:1 2215:1 2216:1 
32768 0 0 2.3566175465053505e-05 0 0 0 0 0 13:1 15:1 19:1 22:1 29:2 45:1 188:1 1318:1 2217:1 2218:1 2219:1 2220:3 
0 0 0.0026314211868306695 0.0045518681795824996 0 0.00060470174986944759 0.0013734434708138803 0 0 3:1 8:1 13:3 38:2 41:1 45:2 50:1 60:1 102:2 271:1 288:1 313:1 595:1 1009:1 1321:1 1848:1 2218:1 2221:1 2222:1 2223:1 2224:1 
0 0 0 0.0019856123850463961 0 0.0016339365413723535 0.0072134624447117721 0 0 3:1 13:1 22:1 25:1 29:1 38:1 196:1 313:1 671:3 1318:1 1321:1 2225:1 2226:1 2227:1 2228:1 
0.00039372505532012526 0 0 0 0 0 0 0 0 13:7 19:1 25:1 29:1 38:1 39:1 88:1 106:1 251:1 313:1 555:1 569:1 665:1 1069:1 1163:1 1321:2 2185:1 2229:1 2230:1 2231:1 2232:1 2233:1 2234:1 2235:1 2236:1 2237:1 
0 0.0036037498266573297 0 0.00025092024575702613 0 0 0.00089278693166049724 0 0 3:1 8:1 13:3 22:1 24:1 25:3 31:1 35:1 36:1 38:2 39:2 41:2 45:1 138:1 201:1 271:1 834:1 968:1 1145:1 1232:1 2238:1 2239:1 2240:1 2241:1 2242:1 2243:1 2244:1 2245:1 2246:1 2247:1 
0.0098942073873971564 0.0065174358222716876 0 0.0025123611160754017 0 0 0 0.0014230442986224044 0.0019714106449525192 1:1 13:2 19:1 29:1 39:1 45:1 123:1 344:1 547:1 2248:1 2249:1 
0 0 0 0 0 0 0 0 0.0097895485069171059 4:1 22:1 50:1 140:1 2250:1 2251:1 
0 0.0066247998908445897 0 0 0 0 0.0025647283462670195 0 0 8:1 12:1 25:1 29:3 50:1 53:1 72:1 77:1 312:1 418:1 555:1 683:1 2252:1 2253:1 
0.0086472799184122724 0 0 0 0 0.002587135176830751 0.0030454281900502817 0 0 15:1 22:1 25:1 29:3 106:1 190:1 261:1 394:1 396:1 455:1 782:1 1228:1 1634:1 1936:1 2254:1 
0.0027444526383578233 0.0026346332688543623 0.0016237546594114771 0 0 0 0.013352220702836365 0.0020618920018689712 0 1:1 13:4 15:1 29:2 38:2 271:1 2179:1 2255:1 2256:1 2257:1 2258:1 2259:1 
0 0.0023842125628088053 0.00056376435652996735 0.0014025278076789799 0 0.0010664030316178609 0.0093488456067301485 0 0 8:3 13:2 29:1 38:2 39:1 41:1 45:1 60:1 157:1 192:1 394:1 462:1 561:1 622:1 655:1 753:1 872:1 893:2 1154:1 1319:1 2260:1 2261:1 2262:1 2263:1 2264:1 
0 0 0 5.6976083257689274e-05 0 0 0 0 0 13:3 29:2 41:1 45:1 88:1 143:1 144:1 1336:1 2037:1 2265:1 2266:1 2267:1 2268:1 2269:1 
0 0 0.39539160865026868 0 0.017036815374016859 0.9698265183439474 0 0 0.030300222505106816 4:1 239:1 
0.018377827361853578 0 0.0016309747527364143 0 0.0027361462634023087 0 0 0.013092215521017862 0.00063074359243458784 1:3 7:1 13:1 25:1 60:1 257:1 417:1 1576:1 2270:1 
0 0 0 0.0006446580578023792 0 0 0 0 0 4:1 13:1 19:1 29:1 45:1 77:2 418:1 471:2 596:1 813:1 946:1 1145:1 2271:1 
0 0 0.056741033809978934 0.0018589896180828877 0 0.055791370440127247 0 0 0 8:1 45:1 50:1 51:1 242:1 725:1 
0 0 0 0 0 0 0 0 0.0044640930311937096 19:1 471:1 881:1 
0 0 0 0.0010090491303086217 0 0 0 0 0.0020960610125814534 1:2 7:1 8:1 13:2 19:1 25:1 29:1 38:2 45:1 88:1 105:1 153:1 174:1 195:1 238:1 264:1 288:1 474:1 881:1 1157:1 2272:1 2273:1 2274:1 2275:1 2276:1 2277:1 2278:1 2279:1 2280:1 2281:1 2282:1 
0 0 0.0035599652588257065 0.003394045532577297 0 0.0013675652862890403 0.005991742059806294 0 0 13:1 547:1 2283:1 
0.0037437148459103153 0.018438215714133344 0 0 0.00050176700558518137 0 0.0057117281774310439 0 0.006771893122808576 1:1 4:2 8:1 13:3 15:1 22:1 25:7 29:1 38:1 41:1 83:1 106:1 1070:1 1342:1 1908:1 1915:1 2284:1 2285:1 2286:1 2287:1 2288:1 2289:1 2290:1 2291:1 2292:1 
0 0 0.0063251771483826547 0 0 0 0 0 0 13:1 14:1 19:1 29:2 1057:1 1141:1 1430:1 2027:1 2293:1 2294:1 
0.002983960242706243 0 0 0 0 0.0059390052695964916 0 0 0.0031163335891021601 8:1 22:1 106:1 177:1 1507:1 2295:1 2296:1 
0 0 0 0.0020954282371288455 0 0 0.0063674578524166754 0 0 38:1 50:1 129:1 133:1 1915:1 2297:1 
0 0 0.00079546361789718247 0 0 0 0.0031570920157939536 0 0 13:1 29:1 38:2 60:1 148:1 211:1 740:1 1555:1 1887:1 2298:1 2299:1 2300:1 2301:1 2302:1 2303:1 2304:1 
0 0 0 0 0 0.0010618967228416356 0.0031452249732422275 0 0 13:1 45:1 88:1 110:1 818:1 2305:1 
0 0.005046969307557673 0.00083278011878001662 0 0 0 0.0016877962699165824 0 0.0031096089316051279 13:2 19:1 25:1 35:1 2306:1 2307:1 2308:1 2309:1 2310:1 
0.0045539105893635645 0.0019841218034647463 0 0 0 0 0.0091343452565794958 0 0 29:1 41:1 82:1 435:1 740:1 925:1 2311:1 2312:1 2313:1 
0.01167979708748572 0.0031876244257839558 0 0 0 0 0 0 0.00054914517500656134 13:1 21:1 29:1 39:1 45:1 1003:1 1146:1 1656:1 1861:1 1864:1 2314:1 2315:1 2316:1 2317:1 
0.0056647266013068144 0 0.0026663009965728016 0.0099831932299615372 0.0012021320142288972 0.013830772872031917 0.022739937034901167 0 0.0042709976007558768 25:1 51:1 56:1 93:2 102:1 2318:1 
0.0040435193216104273 0.013465172602806689 0 0.0040063195940148654 0.0016163335874047843 0 0.015516475395254076 0 0.0059260314444389891 13:1 25:1 38:1 39:1 102:1 140:2 181:1 623:1 2320:1 
0 0.017538938982012676 0.0042191750433930031 0 0 0.00012714950386242792 0 0.0035885796494654863 0.0055789478599146776 13:1 905:1 1688:1 1693:1 
1.4787126448851455 0.043905677962580041 8.5388198932131228e-05 0.005049153071760403 0 0.0013073132301160784 0.10915986831529498 0.0048075102738653888 0.021037393213066358 34:1 547:1 
0 0 0 0 0 0 0 0 0.002637152965028795 471:1 2321:1 
0 0.029877498581772868 0.0070106837592379678 0.0017205412085446749 0.0015477050139485885 0.0038932300303224422 0.01692148463343961 0 0.0082344668017819578 15:1 22:1 39:1 51:1 173:1 808:1 2322:1 
0 0 0 0.0019964450881233865 0 0 0.0066531140865711902 0.0062438107304517796 0 547:1 2323:1 
0.0078088659617021085 0 0 0 0.0071929867990353771 0 0 0.003204379150845954 0.005268734319426367 4:1 8:1 51:1 82:1 1778:1 2324:1 
0.0045892480418361298 0.062487851716503603 0 0 0 0 0.018613633916606618 0 0.017262781157922721 25:1 39:1 1146:1 2325:1 
0.011570187879674131 0 0 0 0.0029797232161376925 0 0.0047783243646294703 0.0060271253896700301 0 29:4 60:1 1051:1 2326:1 
0.010182093472867103 0.0071145323189891248 0 0 0 0 0 0 0.00033578636814592805 1:1 13:6 29:1 39:1 41:2 48:1 72:1 112:1 150:1 535:1 542:1 574:1 2327:1 2328:1 2329:1 2330:1 2331:1 2332:1 2333:1 2334:1 
0.0062434317801417054 0.001963146110889331 0.0051498232725988233 0.0048691522627974937 0.0034522875467077547 0.0015780834677110024 0.0054938255525949463 0.0021176595269779526 0.0069635535849374725 38:1 41:1 853:1 1335:1 2335:1 2336:1 
0.0096331136722409925 0 0.0039091771461518014 0 0 0 0.006219938682124183 0.0012542455014209609 0.00062138693193625801 1:1 3:1 4:1 22:1 29:1 38:1 45:2 119:1 590:1 2194:1 2337:1 2338:1 2339:1 2340:1 
0.0092478292775765025 0 0 0 0 0 0.053653811174022556 0 0 1003:1 
0.0024545129761792055 0 0.0039360965607870236 0 0.00084546808094306425 0.0011807843251529096 0 0.0012265163087996139 0 1:1 8:2 13:3 22:2 29:2 38:1 41:1 51:1 60:1 106:1 190:1 834:1 1089:1 2313:1 2341:1 2342:1 2343:1 2344:1 2345:1 2346:1 2347:1 2348:1 2349:1 2350:1 
0.0033396936902242531 0.012107202860195766 0 0.0020870065666519842 0.015081089623274965 0 0.0023576399067207973 0 0 3:1 8:1 12:1 13:2 19:2 22:2 25:2 29:2 38:1 39:3 41:1 45:2 190:1 229:1 657:1 843:1 955:1 956:1 1450:1 2250:1 2351:1 2352:1 2353:1 2354:1 2355:1 2356:1 2357:1 2358:1 2359:1 2360:1 
0.0036159064479328092 0 0.0032325826929023708 0.002296684476879913 0 0.0020200281491900181 0.0040796564867162256 0 0.004520906029819226 1:1 8:1 13:2 38:2 39:2 41:2 45:1 102:1 106:1 140:1 153:1 181:1 313:1 470:1 472:1 534:1 688:1 791:1 2361:1 2362:1 2363:1 2364:1 2365:1 2366:1 2367:1 2368:1 2369:1 2370:1 2371:1 2372:1 
0 0 0 0 0 0 0.00071947885443489606 0 0.00038593276433683245 1:2 7:1 13:3 19:1 25:1 29:1 30:1 38:2 56:1 60:1 82:1 106:1 190:1 334:1 407:1 486:1 550:1 555:1 726:1 982:1 1964:1 2373:1 2374:1 2375:1 2376:1 2377:1 
0.003171535350677086 0.012523815872856926 0 0 0 0 0.0018886320861134195 0.0012666874304529028 0 13:2 25:1 29:3 39:1 662:1 713:1 808:1 2378:1 2379:1 2380:1 2381:1 2382:1 
0.00088887321855997251 0.0068444699855347577 0.00052368185664604817 0.0025387801558490633 0 0.0026756674783070542 0.002962052153378792 0.0011779885875243541 0.0031285880130718854 3:1 13:3 22:1 25:1 29:1 35:1 38:1 39:1 422:1 1017:1 1712:1 1952:1 2383:1 2384:1 2385:1 2386:1 2387:1 
0.019673619785994963 0.074271184767457393 0 0.0066695047798141461 0.0017255386852343475 0 0.0016760544527099029 0 0 13:1 25:2 29:1 39:1 150:1 200:1 215:1 1042:1 1320:1 2388:1 
0 0.0076134207275159755 4.2850156648374053e-06 0.00073035719689438074 0 0 0.0052132722694770749 0 0 8:1 13:1 22:1 25:1 29:1 38:1 41:1 1233:1 1364:1 2389:1 2390:1 2391:1 2392:1 
0.0018261069968057398 0.0029313568355430991 0.0045303616883907716 0.00096956133920647017 0 0.0027572564715523315 0.0013556148506125606 0 0 7:1 13:4 19:2 22:1 25:1 29:1 38:2 39:1 45:1 106:1 140:1 182:1 239:1 261:1 1340:1 1409:1 2393:1 2394:1 2395:1 2396:1 2397:1 2398:1 2399:1 2400:1 2401:1 2402:1 
0.0019084587803503126 0.0056466341985523007 0 0.003022492014637466 0 0 0.0020651734770690865 0 0.003378055750603997 4:1 8:1 13:3 19:1 22:1 25:2 38:1 40:1 41:1 45:1 88:1 150:1 200:1 222:1 946:1 2349:1 2403:1 2404:1 2405:1 2406:1 2407:1 
0 0.0029366251477710875 0 0 0 0 0 0 0 19:1 29:1 39:1 242:2 261:1 394:1 893:1 1073:1 1147:2 1757:1 2408:1 2409:1 2410:1 2411:1 2412:1 2413:1 
0 0 0 0 0 0.00026583544882902984 0 0 0 641:1 
0 0.00062194589879098754 0 0.0020977419839353258 0 0 0 0 0.016013837964079389 8:1 13:1 41:1 72:1 106:1 188:1 312:1 1073:1 1075:1 2414:1 
0 0 0 0 0.00051554224289431286 0 0 0 0 3:1 4:1 13:3 19:1 22:1 24:4 29:1 35:4 39:2 41:2 143:1 252:1 550:1 2333:1 2423:1 2424:1 2425:1 
0 0 0 1.2879444523068853 0 0 0.0053908431294125564 0 0.0036906203486582064 8:1 2426:1 
0 0 0 0 0.00066322256870560451 0 0 0 0.0061199501056226294 3:1 24:2 25:1 35:2 39:1 41:3 81:1 83:1 88:1 150:1 252:1 313:1 343:1 394:1 593:1 872:1 893:1 1342:2 1672:2 2427:1 
0.010598726485673966 0.021332090825958511 0 0.00049375523395665658 0.00072502174504452332 0 0.008880518880984848 0.00068475325284005062 1.9529500821194854e-05 13:1 19:2 25:2 29:3 38:4 39:1 82:1 196:1 239:1 466:1 1431:1 1520:1 1731:1 1797:1 1988:1 2333:1 2428:1 2429:1 2430:1 2431:1 2432:1 
0.0027781006742413983 0.025819675097713532 0 0 0.0009970396541123755 0.011144502522804562 0.0059214979007184117 0 1.2141338977957484e-05 13:2 25:1 29:3 38:2 39:2 41:1 53:1 69:1 106:2 656:1 703:2 1556:1 2433:1 2434:1 2435:1 2436:1 
0 0.0013982703195822063 0 0.0006189079284540153 0 0 0.0033245651227355975 0 0.00030450105506831752 13:3 19:1 22:1 38:1 41:1 51:1 140:1 148:1 324:1 497:1 574:1 1267:1 1555:1 2437:1 2438:1 2439:1 2440:1 2441:1 2442:1 
0 0.0079243664125054139 0.0036388451667983628 0 0 0 0.0026835748858961427 0 0.0039036123755945753 41:1 150:1 466:1 1552:1 2443:1 2444:1 2445:1 
0.0060882752831476743 0.012124308347611627 0 0.0012753803518115512 0.00068078691657725871 0.0028699147190881114 0 0 0.0048892608774734649 1:1 13:6 19:1 25:2 29:2 30:1 38:1 379:1 383:1 421:1 559:1 574:1 1255:1 1267:1 1555:1 1665:1 2446:1 2447:1 2448:1 2449:1 2450:1 2451:1 2452:1 2453:1 2454:1 
0.023055343624155962 0 0.0028885863042003531 0 0 0.007967000132296561 0.0034883305941761388 0.003362715470555356 0.0050053199349340922 13:1 41:1 2455:1 2456:1 
0.0039307538648635475 0.012190510701231663 0.0012595968921357802 0 0.00353449297881491 0.00099093812043540451 0.0078228371075774808 0 0.0052122977422659981 25:1 763:1 2166:1 2457:1 2458:1 
0 0 0 6.4165423327288595e-05 0 0 0 0 0 8:1 25:1 29:1 31:1 36:1 39:1 45:3 133:1 447:1 641:1 1145:1 1310:1 1922:1 2459:1 2460:1 2461:1 2462:1 
0.0074561292724498089 0.0042898665305891662 0.0064469692532122518 0 0 0.0010064593225772916 0.0012200196647739303 0 0.0017014487232644908 13:1 25:1 29:1 30:1 102:1 240:1 264:1 394:2 2463:1 2464:1 2465:1 
0 0 0 0.00060443447598166353 0 0.0043266149443591806 0 0 0 3:2 13:4 29:2 35:1 38:2 50:1 51:1 435:1 481:1 534:1 666:1 671:3 725:1 726:1 827:1 2466:1 2467:1 2468:1 2469:1 2470:1 
0.013503372775895629 0 0 0 0 0 0.0041952885769066719 0.004519167384899915 0.0071675018204400611 41:1 714:1 2471:1 
0.0032762654751354635 0 0.0069741893794062395 0 0 0.0033533616034301188 0 0.0053962250425255241 0 1:1 3:1 13:2 41:1 88:1 155:1 223:1 224:1 228:1 550:1 675:1 1689:1 1698:1 1767:1 2250:1 2472:1 2473:1 
0 0 0.00079121179249558228 0 0 0 0.0087085522768564523 0 0 8:1 13:2 38:1 45:1 50:1 80:1 1729:1 2474:1 2475:1 2476:1 2477:1 
0.00091679364674871833 0.0095708712837249809 0 0 0.0011939292865407586 0 0.0040880962288068548 0.0022208586365812981 0 1:1 13:2 25:1 29:3 38:1 41:1 121:1 242:1 312:1 394:1 472:1 982:1 1089:1 2478:1 2479:1 2480:1 2481:1 2482:1 
0.0015344259561160716 0.0017368879908801643 0 0 0 0 0.0030086197618666493 0.00085595999683283426 0.00068438790880917988 1:1 7:1 8:2 15:1 25:2 29:1 41:1 51:1 60:1 82:2 83:1 106:1 679:1 809:1 1458:2 1861:1 1864:1 2483:1 2484:1 2485:1 
0.011170132201899489 0 0 0 0 0 0.012478315889561433 0 0 1:2 4:2 13:3 15:1 29:3 38:1 39:1 41:2 56:1 60:1 106:1 108:1 121:1 358:1 394:1 1673:1 2480:1 2486:1 2487:1 2488:1 2489:1 2490:1 2491:1 
0 0 0 0.0052172011473132001 0.00088321789499811387 0 0 0 0 1:1 4:1 8:2 13:1 29:1 38:1 39:2 41:1 60:1 102:2 150:1 167:1 264:1 542:1 622:1 788:1 897:1 1367:1 2490:1 2492:1 2493:1 2494:1 2495:1 
0.0027901056331513757 0 0 0 0.00068831553181117788 0 0.0011644397142935394 0 0.0027149109872148204 4:3 8:1 13:3 29:1 38:3 41:3 50:1 105:1 261:1 328:1 717:1 1075:1 1594:1 2197:1 2496:1 2497:1 2498:1 2499:1 2500:1 2501:1 
0 0 0.0024056137479609319 0.0016276536473109964 0 0.0061554131023777159 0.0020163513820508653 0 0.010865982274431221 1:1 8:1 15:1 29:1 38:1 50:1 60:2 88:1 124:1 239:1 264:1 271:1 283:1 419:1 421:2 1458:1 2204:1 2502:1 2503:1 2504:1 2505:1 2506:1 2507:1 
0.0092900669324957434 0 0 0 0 0 0.012173962419998019 0.0045937595335089464 0.004272058929332273 38:1 82:1 2508:1 2509:1 
0.0014563815606606567 0.0093733767676256966 0 0 0 0 0 0 0.0009422295835761871 1:1 8:1 13:1 19:1 25:2 29:1 39:1 83:1 106:1 239:1 261:1 313:1 619:1 640:1 683:1 1508:1 1843:1 2510:1 2511:1 2512:1 2513:1 2514:1 2515:1 2516:1 2517:1 2518:1 2519:1 
0 0 0 0 0 0 0.0046180410473981495 0 0 39:1 50:1 2520:1 2521:1 
0 0 0 0 0 0 0.0054444833547533083 0 0.0064073335605823092 15:1 38:1 50:1 124:1 177:1 550:1 2051:1 2522:1 
0 0.0040804550932296317 0 0 0.0015773656320596228 0.0011153332865563 0.010663744822420353 0 0.00076591310530182033 15:1 25:1 38:1 88:1 1126:1 2531:1 2532:1 2533:1 2534:1 
0.0022682401864065503 0 0 0 0.00079581363318167748 0 0 0 0 1:1 4:2 7:1 8:2 13:3 25:1 29:2 39:1 41:3 60:1 251:1 351:1 527:1 1051:1 2022:1 2143:1 2535:1 2536:1 2537:1 2538:1 2539:1 2540:1 2541:1 2542:1 2543:1 2544:1 
0 0.0089870396518890502 0 0 0 0.0022027961935706998 0 0 0.0073144155725763218 1775:1 2547:1 
0 0.024227756244526045 0.0041560021405476696 0.0025088869948134145 0.0023872487222360655 0.0087101297625009969 0 0 0.027391768129226491 8:1 13:1 50:2 106:1 108:1 421:1 853:1 2548:1 2549:1 
0.0047767417039202651 0.0096675706495762733 0 0.00021651462690279642 0 0 0 0 0 3:2 13:2 24:1 25:1 29:2 35:1 39:2 45:1 48:1 106:1 449:1 606:1 622:1 1692:1 2524:1 2550:1 2551:1 2552:1 2553:1 2554:1 2555:1 2556:1 2557:1 
0.0077620039829922483 0.0085710727464239321 0 0 0 0 0.007500011203076409 0.0019711100301964915 0 25:1 29:1 38:1 60:1 251:1 455:1 647:1 765:1 2556:1 2558:1 
0 0.015503349504303912 0.002021255178978036 0.0068726230153059488 0.002821175800879803 0 0.011836881168736999 0 0.0060272608775782804 29:1 119:1 153:1 1345:1 2559:1 
0.0018459135771978215 0.00047958258997242025 0 0 0.0038501937993729251 0 0.0032392041026685706 0 0.004330422664996279 887:1 1306:1 2560:1 2561:1 
0.00096260326383742578 0 0 0 0 0 0 0 0 4:1 29:1 1083:1 2562:1 
0 0 0 0 0 0.0019986455812246728 0.0047419721748995381 0 0.0019962612852762068 13:1 19:1 38:1 2563:1 2564:1 
0 0 0.004633235240766349 0 0 0.00018092468726845545 0.0097354318279036494 0.0040462791115305355 0.0049335725191009148 125:1 2565:1 
0 0 0 0 0 0.0016019505643104933 0 0 0.0044695885841758822 8:1 2566:1 
0.02742658101176821 0.043153023951741865 0 0 0 0 0.0090891779803570268 0.0025177135875101373 0 13:1 29:1 41:1 106:1 153:1 1672:1 2051:1 
0.0047326454283601032 0.00038374757307383311 0 0.0084974542446854453 0 0 0.0019301427447553669 0 0 13:1 25:1 39:1 45:1 211:1 622:1 2567:1 2568:1 2569:1 2570:1 
0.28363828171621347 0.022482852294316465 0 0 0.0062644654846191958 0.0091614322492486952 0.0094491261917449866 0 0.0046214341284789451 106:1 1450:1 2571:1 
0 0 0.0033949886349498495 0 0 0 0.0042023578028644133 0 0 15:1 29:1 41:1 60:1 261:1 802:1 2576:1 
0 0 0 1.1462905124692388e-05 0 0 0.0094452820024989396 0 0.0013172361678243224 1:1 7:1 13:1 29:1 38:2 872:1 1009:1 1647:1 2073:1 2577:1 
0 0.0017664405517534352 0 0 0 0 0.003047420499154482 0 0 8:1 13:1 38:1 41:1 50:2 106:1 280:1 853:1 1671:1 2578:1 2579:1 2580:1 
0 0 0 0 0 0 0 0 0.0090286128268851421 13:1 29:1 39:1 150:1 421:1 503:1 504:1 622:1 1903:1 2581:1 2582:1 
0.0047963832666571308 0 0 0 0 0 0 0 0 13:2 38:1 50:1 51:1 82:1 106:1 150:1 262:1 555:1 2583:1 
0 0 0.0061661517408697934 0.00023955809165355352 0 0 0 0 0 13:1 39:1 45:1 60:1 211:1 1126:1 1146:1 2531:1 2584:1 2585:1 
0 0 0 0 0 0.00061892845219912475 0.0039974923695992358 0 0.004369806571876007 13:1 38:1 133:1 319:1 1620:1 2586:1 
0 0 0 0 0 0 0 0 0.00068820505567797439 8:1 13:1 29:1 38:1 39:1 41:1 108:1 238:1 1117:1 1157:1 1409:1 2397:1 
0 0.0086119269929324418 0 0.0015086747690140898 0 0 0.0054192269712295439 0 0.0043609304658865974 13:1 29:2 38:2 39:2 88:1 106:2 140:1 148:1 528:1 932:1 1402:1 1677:1 1828:1 2587:1 2588:1 2589:1 2590:1 2591:1 2592:1 2593:1 
0.0017479931237489256 0 0 0 0 0.00020941972992548206 0 0.00071560313877193338 0 13:3 22:1 29:4 38:2 48:1 60:1 90:1 106:1 400:1 729:1 1024:1 1122:1 1216:1 1250:1 2594:1 2595:1 2596:1 2597:1 2598:1 2599:1 2600:1 2601:1 2602:1 2603:1 
0 0 0 0 0.0040803523220643238 0 0.0096019666916364599 0.0018350368522880676 0.0027738206234770497 38:1 181:2 2604:1 2605:1 
0 0 0.011636219454768077 0.0057060531910602726 0.0023482618746635416 0 0.0021547552751187112 0 0.036494125098778044 8:1 12:1 39:1 88:1 742:1 859:1 2606:1 2607:1 
0 0 0.0012487557842490668 0 0 0.0037974672813744716 0.0018024700906284245 0.001773563861023847 0 1:1 13:1 15:1 29:1 596:1 657:1 725:1 1016:1 1475:1 2003:1 2608:1 2609:1 2610:1 2611:1 
0.0056950044636248399 0 0.0013405634876899829 0.0013833246216050309 0 0 0 0.00079290705703827008 0 1:2 4:1 7:1 8:1 13:2 25:1 29:1 41:3 60:2 1341:1 2143:1 2535:1 2541:1 2612:1 2613:1 2614:1 
0 0 0.0041405503613636072 0 0.0034897048263746316 0 0.0070688997209503394 0 0 50:2 717:1 2615:1 2616:1 
0 0 0 0 0 0.00057527660992799244 0 0 0.0017118225015290423 8:1 19:1 45:1 50:1 106:1 600:1 2404:1 2617:1 2618:1 
0.0036854425266326912 0 0 0 0 0 0.0029705337000275806 0 0.0029605987080621385 38:1 39:1 51:1 150:1 1262:1 2619:1 
0 0 0 0.0035621758568030728 0.0014862999415183246 0.0078825504898786831 0 0 0.0028266450124001963 1:1 8:1 13:1 29:1 38:1 90:1 122:1 150:1 729:1 790:1 2528:1 2620:1 2621:1 
0 0.014236472863938058 0.023648670224214127 0.00071091999295839884 0.0043835329422019561 0.007451477767237754 0.006115137501004563 0.005441002118929855 0.0026920917112275905 13:1 165:1 2622:1 
0.0089987497397564804 0 0 0.0010026885209857919 0 0 0 0 0.0015573181846489604 1:1 4:1 8:2 41:1 106:1 666:1 1891:1 2623:1 2624:1 
14852.323558840764 3.2339910949859405 0 0 0.027093636376893375 0 4279.9703913273788 28590.857557795825 0 29:3 60:1 
32768 0 32768 0 0 0 0.090900713604276484 0 0 53:1 
0 0.0022135062236419041 0 8.1683453843820432e-05 0 0 0.0033288096739710954 0 0 8:1 12:1 13:2 22:1 25:1 29:1 38:1 45:1 271:1 897:1 976:1 1092:1 1775:1 2631:1 2632:1 2633:1 2634:1 2635:1 2636:1 2637:1 2638:1 
0 0.0042217347207833987 0 0 0 0 0.0069486883358535721 0 0 13:1 25:1 29:1 38:1 88:1 1325:1 2639:1 2640:1 2641:1 
0.0041509666809073659 0.0030062647147763035 0.0026913448770717395 0 0 0.0040448719053546526 0 0.0018736663150334776 0.00064599600847897504 1:1 8:1 13:1 38:1 598:1 970:1 2642:1 2643:1 2644:1 2645:1 
0 0 0 0.0003257506052677241 0 0 0 0 0 3:1 7:2 8:1 13:4 19:3 24:1 25:1 31:1 35:1 36:1 38:1 39:2 41:2 45:1 251:1 324:1 472:1 716:1 834:1 1232:1 1688:1 2417:1 2646:1 2647:1 2648:1 2649:1 2650:1 2651:1 2652:1 
0 0 0 0.00087394388342276221 0 0 0 0 0 3:1 5:1 13:3 24:1 25:2 31:1 35:1 36:1 38:2 39:2 41:1 45:1 60:1 211:1 324:1 628:1 845:1 889:1 1337:1 2653:1 2654:1 2655:1 2656:1 2657:1 2658:1 2659:1 2660:1 2661:1 
0.004825914307199388 0.0093846321308376206 0.00097775324761002324 0.0012979956602367389 0.00059674793026152375 0.002740662912231667 0.0010275833903475899 0.00047907511023223608 0.0069189021179287737 3:1 13:5 19:1 22:3 24:2 25:1 35:1 38:3 39:1 41:1 45:2 69:1 453:1 492:1 534:1 1098:1 2650:1 2662:1 2663:1 2664:1 2665:1 2666:1 
0.0046171661272532217 0.010000756951109102 0.0026793326802366348 0.00085385431353880194 0 0.0014762760999465013 0.0024986399875874766 0 0.00053586823561511921 8:1 13:3 22:1 29:3 39:2 41:1 45:1 48:1 51:1 106:1 239:1 489:1 623:1 725:1 872:1 1075:1 1688:1 2486:1 2667:1 2668:1 2669:1 2670:1 2671:1 2672:1 2673:1 2674:1 2675:1 
0 0 0.00038624339648643335 9.9548339813073408e-05 0.00067808991044033217 0 0 0 0 4:1 8:2 15:1 29:1 38:1 41:4 88:1 177:1 685:1 789:1 1908:1 2649:1 2676:1 2677:1 2678:1 2679:1 2680:1 2681:1 2682:1 2683:1 
0 0 0.0023957119989095979 0 0 0.00052312474397282218 0 0 0.0022973075684430775 45:1 60:1 2684:1 2685:1 
0 0 0.0012972137012944879 0.00071985308026178356 0 0.00037765609910263314 0.0015591653668024462 0 0.0014748423657275013 8:1 38:1 41:1 666:1 2686:1 2687:1 2688:1 2689:1 
0 0 0 0.0011408674712333638 0 0 0 0 0 8:1 13:1 238:1 2405:1 2690:1 
0 0.0043370647679046954 0.0025452704448555193 0 0 0 0.021867586120199279 0 0 38:1 50:1 124:1 2691:1 
0 0.0043022446192212647 0.00013839263294470878 0.0015819364023651045 0 0.00030096297816169926 0 0.00050008018381014253 0.0026993876300808483 8:3 29:1 39:1 41:1 45:1 195:1 511:1 870:1 1821:1 2430:1 2474:1 2692:2 2693:1 2694:1 2695:1 2696:1 2697:1 2698:1 2699:1 2700:1 2701:1 2702:1 
0 0.0025054505453618952 0 0.0004474536495752831 0 0 0.009642155296905975 0 0 3:1 8:1 13:1 29:1 38:3 41:1 60:1 93:1 106:1 555:1 893:1 1049:1 1082:1 2022:1 2686:1 2703:1 2704:1 2705:1 
0 0 0.018997644032835635 0 0 0.022102478145182423 0 0 0.001577510642161075 1:1 7:1 15:1 90:1 123:1 239:1 1057:1 2577:1 2706:1 
0 0 0 0 0 0 12828.351401237931 0 0 21:1 
0.0038565341639563728 0.0086729574085356587 0 0 0 0 0.0046349756366525158 0 0 29:2 41:1 93:1 489:1 777:1 2707:1 2708:1 2709:1 
0.0039662089910407075 0 0.006121908130220636 0 0 0 0.0071744141802366022 0 0 4:1 8:1 38:1 1891:1 2710:1 
0.005914438202085104 0.0043205075422333167 0.0037709009150091498 0 0.0033773525822210827 0.0046031255388429733 0.0069082714799573314 0 0.0058050021038871056 45:1 737:1 2711:1 2712:1 
0 0 0.0063864485665965087 0 0 0 0.0034932491782980776 0 0.00052540310361269722 8:1 38:1 50:1 60:1 106:1 1402:1 2339:1 2713:1 2714:1 
0.0084742225782108438 0.035789983054001259 0 0 0.0023014310897483039 0 0.0061877949147349344 0.0064252582641510072 0 25:1 29:4 108:1 935:1 2715:1 2716:1 
0 0.006384930835326626 0 0 0 0 0 0 0.0012031713745778898 1:1 13:3 19:1 25:1 29:1 35:1 50:1 83:1 157:1 344:1 481:1 528:1 550:2 2351:1 2587:2 2717:1 2718:1 2719:1 
0.015789135650030234 0 0.005264956990602942 0.021421063576188861 0.0056769608236011014 0.01667330770793397 0 0 0.0045935958103600011 4:1 102:2 239:1 2720:1 
0 0 0 0 0 0.00061269545844917133 0.002036244575657578 0 0 1:1 4:2 8:1 13:3 15:2 19:1 22:1 29:2 39:2 41:1 45:1 148:1 195:1 239:1 714:1 789:1 843:1 1688:1 1693:1 2721:1 2722:1 2723:1 2724:1 
0 0 0 0 0 0 0.0034661705776075644 0 0 29:1 181:2 2725:1 2726:1 2727:1 2728:1 2729:1 
0.0025385953524340956 0.0061558689317882274 0.0021917962793660027 0.0066287119657219284 0 0 0 0 0.0014193048552876204 3:1 29:1 41:1 394:1 1161:1 2694:1 2730:1 2731:1 
0 0 0 0 0 0 0.0088162594992542143 0 0 38:1 2732:1 2733:1 
0 0.0026522027677052472 0.0014861064082902725 0.0016219532288760307 0 0 0.00722161912559755 0.0011152541610582078 0 8:2 13:1 22:1 29:2 38:1 39:1 41:1 51:1 125:1 140:1 169:1 271:1 1095:1 2734:1 2735:1 2736:1 2737:1 2738:1 2739:1 2740:1 
0.0013595673135485009 0.0091163618618890756 0.0098989330412498616 0.0029642734911720725 0.0014230060645325764 0.006080686196394177 0.00049705507266539577 0.0019560532653923046 0.0045960527977145773 8:1 13:1 239:1 547:1 2741:1 2742:1 2743:1 2744:1 2745:1 2746:1 
0.010564699387089366 0.015978151038151589 0.00041881860591748681 0 0 0.0058351419565349444 0.0059582204190595164 0.0043176895173598949 0.0055389826636425303 2747:1 2748:1 
0.0088646057182395523 0.011759258822075293 0 0.0007425397352898627 0.0044030352987548017 0 0 0 0 1:1 13:1 25:1 29:1 202:1 943:1 2040:2 2749:1 2750:1 
0 0.00044892698180481973 0 0 0.00097583075852714237 0 0.0047519439953228517 0 0 12:1 13:5 19:2 22:1 25:1 38:5 39:1 45:1 157:1 178:1 324:1 535:1 574:1 852:1 1242:1 1803:1 1846:1 2404:1 2751:1 2752:1 2753:1 2754:1 2755:1 2756:1 
0 0 0 0 0.00058764102121753225 0 0.00065771223670697755 0 0 8:1 13:1 25:3 29:2 38:3 39:2 60:4 77:3 283:1 314:1 489:1 724:1 1340:1 2052:1 2608:1 2757:1 2758:1 2759:1 2760:1 2761:1 2762:1 2763:1 
0.00419768189641068 0.0093784177497998993 0 0.00096403895818412424 0 0 0.0060077829743779556 0 0.0013094212604430875 13:1 19:1 29:1 38:1 194:1 2001:1 2694:1 2764:1 2765:1 2766:1 
0.016000298954540009 0 0 0 0 0.010564201681189199 0.0046556673042830428 0.0015872851548201323 0 1:1 13:1 29:2 38:1 60:1 106:1 858:1 968:1 1082:1 1342:1 2767:1 
0.016341846338924201 0 0 0 0 0.0013750973216656776 0.011725093088528201 0 0.0032386203584922335 13:1 38:1 2768:1 2769:1 
0 0 0.004526219955668034 0 0 0.0040063931098888285 0.0027931607524313241 0.0022226871578448926 0.0098738146470692296 13:1 19:1 38:1 148:1 526:1 1567:1 2770:1 2771:1 
0 0 0.0056179969061116658 0 0 0.0027194902210890908 0 0.0016831707381588716 0.002211651579783373 1:2 8:2 13:3 19:1 35:1 38:1 122:1 124:1 195:1 232:1 532:1 737:1 1171:1 2404:1 2744:1 2754:1 2772:1 2773:1 2774:1 
0 0 0 0 0 0 32768 0 0 21:1 
0.0042838815619777853 0 0.0011166676797304176 0 0.0023496796722881374 0.0036802706608160696 0.0075045354921039337 0 0.0021228250334389687 13:1 30:1 271:1 511:1 1098:1 2775:1 2776:1 2777:1 
0.0010612009372355335 0.0024903663031587376 0 0.0012035818186152984 0 0 0.0022316146134993072 0 0.00052521995974366361 1:1 13:3 22:1 25:1 39:1 45:1 50:1 51:1 77:1 140:1 890:1 1304:1 2778:1 2779:1 2780:1 2781:1 2782:1 2783:1 2784:1 2785:1 2786:1 
0.0015046362716179516 0.0062755190369435387 0.011303587236946591 0.00030369189794847895 0 0 0.0089032236455583863 0 0.0016517723467922929 12:1 41:1 50:2 82:1 146:1 2316:1 
0.0014354629980416901 0.0061173561369416282 0 0.0054471436745403634 0.00096812882789011579 0 0 0 0.0059124987091551881 8:1 29:2 421:1 2569:1 2787:1 2788:1 2789:1 2790:1 
0.0078860863977886653 0.010357095155693817 0 0 0 0.0071143737573747829 0.042455241488470977 0.0015839281827307562 0.0036407447655222745 1:1 50:1 106:1 2791:1 
0.0096480779534090701 0 0 0 0 0 0.0043005999925178392 0.0033057105045240145 0.0070654572649575123 1:1 13:1 38:2 82:1 535:1 2792:1 2793:1 2794:1 
0 0.0014350699980704678 0.0015627003404440106 0.0017968683334337635 0 0 0 0 0 8:1 25:1 27:1 29:1 60:1 106:1 211:1 232:1 1089:1 1129:1 2795:1 2796:1 2797:1 
0 0.0082498823328352525 0.0051397857917847827 0.002362928230793137 0 0 0.010457928534619187 0 0.0034543017022029641 13:1 38:2 39:1 50:1 251:1 2746:1 2798:1 2799:1 2800:1 
0 0 0.0034525014286714163 0 0 0.0010115502197293295 0.0084342738884308731 0.0027022605499679073 0.009295355710653732 38:1 287:1 2801:1 2802:1 
0.005080006217099085 0.0022454559363176748 0.0045331549838465287 0.0013916654812804439 0.00067181049146355996 0.0044084909251859731 0.00087499381641490878 0.0017086845517096817 0.00060573934383185589 1:1 13:6 19:3 38:3 41:1 48:1 64:1 77:1 118:1 729:1 1157:1 2007:1 2399:1 2803:1 2804:1 2805:1 2806:1 2807:1 2808:1 2809:1 2810:1 
0.004698274295665425 0 0 0 0 0 0 0 0.002255263970129197 8:1 15:1 25:1 29:2 41:2 45:1 60:1 82:1 106:2 108:1 112:1 489:1 623:1 662:1 1726:1 1977:1 2464:1 2811:1 2812:1 2813:1 2814:1 2815:1 2816:1 2817:1 2818:1 2819:1 
0.0029837490349803623 0.0028735838000021607 0 0 0 0 0.0073462079357824216 0.0017427375476972069 0.0020291640600376788 25:1 29:2 60:2 106:1 418:1 1857:1 2600:1 2820:1 2821:1 
0 0 0 0 0 0 0 0 0.0028090208571958939 4:1 22:1 38:1 944:1 1917:1 2822:1 2823:1 
0.0056383260954071769 0.0028871049374336101 0.006294736536468803 0.00042961400663710952 0 0.0025488901923987578 0.012755899603511887 0 0.0053356190582807845 13:1 19:1 29:1 38:2 39:2 45:1 725:1 1117:1 1383:1 1689:1 1852:1 2824:1 2825:1 
0 0 0 3.8980578418785988e-05 0 0.0024452682076022271 0 0 0.0027463164911656506 13:1 41:1 2826:1 2827:1 
0.00087119802969500937 0.00012210695249322833 0.0019776062376816407 0.00074606076002276152 0.0018205958791250372 0.00016480684444129757 0.0045964274050464739 0 0.0013043496417399862 13:1 38:1 48:1 1526:1 2828:1 2829:1 2830:1 2831:1 
0 0.0084332178039120288 0 0.00091790208953687147 0 0 0.001916665491462769 0 0.0018293585612072292 12:1 13:1 25:1 29:1 38:1 39:2 45:2 100:1 202:1 534:1 1522:1 2834:1 2835:1 2836:1 2837:1 2838:1 
0.0045472043794644607 0 0.0019675235762731656 0.0060448830811765178 0 0.0032599396479476572 0 0 0.0048478802132313065 39:1 102:1 732:1 2839:1 2840:1 
0.01847809479288437 0.0021681374194064164 0.012391840563473363 0 0.0015296143187420706 0 0.011258499963092557 0.003548802587627943 0 8:1 29:4 39:2 165:1 267:1 1569:2 2841:1 2842:1 2843:1 
0.010191315331903537 0 0.0017524939964151693 0.00077619260544348808 0 0 0.014122519376508321 0.0032027144837542716 0 13:1 29:1 38:1 45:1 82:1 106:1 196:1 1336:1 1352:1 2844:1 2845:1 2846:1 
0 0.0058585712689598292 0 0 0 0 0.0091875080271353882 0 0 29:1 38:1 2847:1 2848:1 2849:1 2850:1 
0 0 0 0.0001354748894089776 0.0014805947990113963 0.013264942662077662 0 0 0.0043710530121423893 13:1 45:1 129:1 315:1 1132:1 2851:1 
0.018765242231320017 0 0 0 0 0 0 0.0043176130605215449 0.0043676980572018445 29:1 39:1 1569:1 2852:1 
32768 0 0 0.009882880199734944 0 32768 0 0 0 2315:1 
0 0.0022919295408039618 0.0018772401454182092 0 0 0 0.0054129953124789614 0 0 1:1 13:3 25:1 29:1 39:1 88:1 313:1 1310:1 1325:1 2853:1 2854:1 2855:1 2856:1 2857:1 2858:1 
