svm_type c_svc
kernel_type polynomial
degree 1
gamma 128
coef0 0
nr_class 10
total_sv 17352
rho 0.99001030449205263 -0.99949316135604382 -0.61710170316435653 -1.0008269151842153 2.4876061339449449 2.9993165859743258 2.8293067073905567 3.4721353420452372 -0.22264579677554311 -2.0112014576608268 0.83628891306759701 -0.85708336908271676 5.9345885025452265 4.4779354332785521 1.7683251950653875 2.9049703329174461 -3.0353841103502739 0.00053288992853200827 0.52824621330280286 4.8868216092043149 1.0007306368556872 1.0000235330860752 -1.0001309997143659 -1.000412630988577 -0.96333192733968642 -0.1901512070916995 0.99930880536011557 0.63987954734622587 0.23189873057848667 1.9736366827689575 -0.99932094871934285 0.98481494376417555 -0.53237797274958121 -0.78785279961845878 -0.8184605035574497 -2.9992828641125402 3.8424537262857199 1.76355703573656 1.5587552028829417 0.99945138816577106 -4.9991308410809774 -0.99937897878870585 -0.17868812928161623 -0.053741676304644805 0.47514374003683202
label 0 1 2 3 4 5 6 7 8 9
nr_sv 1983 1872 1957 1561 1566 1737 1556 1996 1553 1571
SV
0.006106893104074685 0 0.0036457676003315469 0 0.0042033831160048609 0.03127466286262414 0.0031414720441897098 0.0035800845877015119 0.0057057884262042124 1:1 2:1 3:1 4:1 5:1 6:1 7:1 
0.0010423915206364384 0.0044621430349205717 0 0 0 0 0.0011801437540835511 0.0021499234879235412 0 6:1 8:1 9:1 10:1 11:1 12:1 13:4 14:1 15:1 16:1 17:1 18:1 19:1 
0 0 0 0 0 0 0 0.00057557966825293638 0.0008314429790332535 6:3 7:6 9:1 14:2 20:1 21:1 22:2 23:1 24:1 25:1 26:1 27:2 28:1 29:1 30:1 31:1 32:1 33:1 34:1 35:1 36:1 37:1 38:1 39:1 40:1 41:1 
0 0 0.0025227328219789191 0 0 0 0.001271148655768763 0 0 7:2 14:2 22:1 25:1 28:1 33:1 34:1 35:1 37:1 41:1 42:1 43:1 44:1 45:1 46:1 
0.00058734788198039399 0.00062607705707040239 0.0012316282378926008 0 0.006113133087742092 0 0.0019547439980380612 0.0007522716861833392 0.0012484066052562408 7:3 13:2 14:1 22:2 25:1 27:1 28:1 30:1 31:2 34:1 40:3 46:1 56:1 57:1 58:1 59:1 60:1 61:1 62:1 63:1 64:1 65:1 66:1 67:1 
0.017300606909519685 2.326565302304977 0.0047528034341226665 0 0 0.12195031697969146 0 0 3.5687922317903755 9:1 13:1 48:1 68:1 
0.012578911134090365 0.017786370715091093 0.0064737148651178274 0.001543620449768975 0.0066885580406761472 0.079126735663252387 0.015501996734900048 0.001575589981762127 0.0060057213495514905 32:1 69:1 
0 0 0 0.00061111103601452373 0 0 0.0029934101453009433 0 0.036832683997640121 6:1 7:1 9:1 13:1 31:1 71:1 72:1 73:1 
0.071341519323502633 0.11365892918471494 0.031393579147739242 0 0.016989283094453234 0.0057269109347017223 0.1045943985293276 0 1.1921134201237162 7:1 74:1 
0 0 0.0017468202033048329 0 0 0 0.00073119019321842124 0.0014365821640269425 0.0023562789326007543 6:2 7:4 13:1 31:2 48:1 75:1 76:1 77:2 78:1 79:1 80:2 
0 0 0.0037440319367880821 0 0 0.00075656812842308 0.002543045610887707 0 0 9:1 13:1 81:1 82:1 83:1 84:1 85:1 
0 0 0 0 0 0 0.003014834258846094 0.002456657504706345 0 9:1 85:1 86:1 87:1 88:1 89:1 90:1 
0.0019369495810270592 0 0 0 0 0 0.0024254546383820534 0.0045787863414914771 0.0052788087447104949 6:2 13:1 85:1 91:1 92:1 93:1 
0 0 0 0.0024266093682819264 0 0 0 0 0 7:2 9:1 13:1 29:1 81:1 85:1 94:1 95:1 96:1 97:1 
0.0031180041265957588 0 0.0071632684919711318 0.0011087428540397396 0.0032497058682767173 0 0.004433183280128216 0.002130822204810917 0.0056017823395340611 7:4 22:1 31:2 34:1 98:1 99:1 100:1 101:1 102:1 103:1 104:1 105:1 106:1 107:1 108:1 109:1 
0.001304970121934516 0.0040754670606099738 0.0075575075424779174 0 0.014388137543162158 0 0.0016239876360552225 0.0012100732760212442 0.0050415039090626768 7:3 9:1 40:1 110:1 111:1 112:1 113:1 114:1 115:1 116:1 117:1 
0 0.0091167577762758575 0 0.0021888817023158532 0.0052795374448043409 0 0 0 0 5:1 9:1 13:3 18:1 22:1 34:2 35:3 40:1 43:1 51:1 118:1 119:1 120:1 121:1 122:1 123:1 124:1 125:1 126:1 127:1 128:1 129:1 130:1 131:1 132:1 133:1 134:1 135:1 
0 0.00058468006206122104 0.0041871905481764126 0 0.008679653957610705 0.0073127781924882292 0.0048557079931495425 0.0016532236914148033 0 6:1 13:1 138:1 139:1 
0 0 0 0 0 0 0 0.001631990722995659 0 6:3 7:3 9:2 22:1 34:1 40:1 48:3 131:1 143:1 144:1 145:1 146:1 147:1 148:1 149:1 150:1 151:1 152:1 153:1 154:1 155:1 156:1 157:1 
0 0.001601002607505985 0 0.00062613209504285667 0 0 0.094902035366048743 0.0063440882931767948 0 3:1 7:1 31:1 48:1 85:1 101:1 158:1 159:1 
0.00051944067304777618 0.013208615467846857 0 0 0.013491120501138593 0 0.0054119628747390618 0.0016572437337839224 0.017428073856884115 3:1 6:2 7:6 9:1 31:1 32:1 34:1 35:1 40:4 45:1 59:1 101:1 131:1 160:1 161:1 162:1 163:1 164:1 165:1 166:1 167:1 168:1 169:1 170:1 171:1 172:1 173:1 174:1 175:1 
0.0043745343157420083 0.012014475005377103 0 0.0022712713645003423 0.004129973561666311 0.039939797508932985 0.0059473187579530207 0.0044664761488733135 0.0046510093809819016 13:1 40:1 176:1 177:1 
0 0 0 0.00080050291263822847 0 0 0 0 0.0068977923152038247 7:2 9:2 13:2 31:1 32:1 34:1 35:1 40:1 48:2 135:1 167:1 178:1 179:1 180:2 181:1 182:1 183:1 184:1 185:1 186:1 187:1 188:1 189:1 190:1 191:1 192:1 
0.0011488227440211295 0.0024841752085153 0.0045901658130714377 0 0.011381788141198697 0 0.0037126222796638156 0.0061276933973094735 0.0061508730355256513 7:5 19:1 35:1 48:1 173:1 193:1 194:1 195:1 196:1 197:1 198:1 199:1 
0.0033407139421848006 0 0.0037548994249740507 0.0016791227950080409 0 0.023472686826876227 0 0.0035250590541197214 0 3:1 9:1 200:1 201:1 202:1 
0.00066270064187021833 0.0069812562691094447 0 0.0062052081207901177 0 0.0061623649419567392 0.00056637960027762003 0.0012465822179772872 0.004174004660612545 6:1 7:1 9:2 13:1 31:1 34:1 35:1 40:1 48:1 101:1 203:1 204:1 205:1 206:1 207:1 208:2 209:1 
0 0.0036864728873169405 0.0015591837907625453 0.0030954744181084623 0.0012122073094527801 0.0033536868937357723 0 0.00070458794335950294 0 3:1 6:2 7:3 13:3 14:1 34:1 35:1 45:1 48:1 67:1 79:1 210:1 211:1 212:1 213:1 214:1 215:1 216:1 217:1 218:1 219:1 220:1 221:1 222:1 223:1 224:1 
0.00086598860581774302 0 0 0.0045594287859347825 0 0 0 0 1.3442578321062003e-05 3:1 6:2 9:2 13:1 31:3 32:1 40:1 48:2 133:1 234:1 235:1 236:1 237:1 238:1 239:1 240:1 241:1 242:1 
0 0 0.007719051382973228 0 0.0045637848929747258 0 0.00082250277422530769 0 0 3:1 5:1 7:6 13:2 23:2 31:2 35:1 40:1 43:1 101:2 123:1 129:1 133:1 177:1 243:1 244:1 245:1 246:1 247:1 248:1 249:1 
0 0 0.016748008028248006 0 0.03422400133425383 0 0 0 0.0052957567467595773 7:7 9:1 23:4 31:1 35:2 40:2 48:1 101:1 109:1 208:1 243:1 250:1 251:1 252:1 253:1 
0.005381999317171364 0.0055385969127843436 0.0038460811235385656 0.0020723660689733899 0.016231000469779877 0 0 0.0016529207510738036 0.0055951631484924269 1:1 7:2 13:1 31:2 35:1 254:1 255:1 
0.0021570171215776379 0 0 0 0.1657000705455462 0 0.0028293607601504382 0.0052284971975889525 0.0031525569447716541 6:1 7:4 13:1 14:1 35:1 113:1 256:1 257:1 
0 0 0 0 0.0075859191728182415 0 0.002822898930711735 0 0 6:1 7:2 13:1 31:2 35:1 40:1 43:1 85:1 100:1 111:1 258:1 259:1 260:1 
0 0 0 0.00021715083828100781 0 0 0.0024238796474920243 0.0023082858318498999 0 7:1 13:1 129:1 261:1 262:1 263:1 264:1 265:1 266:1 
0 0 0.0031215613360954927 0.00070702721648339636 0.0038487646448549491 0 0 0 7.0665105354728117e-05 7:3 13:2 31:1 40:1 267:1 268:1 269:1 270:1 271:1 272:1 273:1 
0.0007536357954141935 0.0034351338973859923 0 0.0011923891852469188 0.0014067944054909258 0 0 0 0.0011708457608146042 6:1 7:1 9:1 13:3 14:2 19:1 22:1 34:1 35:1 40:1 100:1 101:2 165:1 192:1 232:1 272:1 274:1 275:1 276:1 277:1 278:1 279:1 280:1 281:1 282:1 283:1 284:1 285:1 
0.0087202979521864513 0 0.0074501054104609511 0 0.013403197761492729 0.00093157065203355546 0.0033678701865226643 0 0.00081925693505903864 7:2 35:1 135:1 286:1 287:1 288:1 
0 0.003286434914861221 0 0.0010646130371502027 0 0 0 0 0 3:1 7:3 9:1 13:4 31:2 35:1 40:3 58:1 101:1 289:1 290:1 291:1 292:1 293:1 294:1 295:1 296:1 297:1 298:1 299:1 300:1 301:1 302:1 303:1 304:1 305:1 
0 0 0.00078055183354560319 0.0006175264052543357 0.0042481044725775439 0.0066146243729549685 0 0.00052146612616909736 0.0023970667820014196 7:3 9:1 13:2 25:1 31:1 35:2 40:2 124:1 147:1 161:1 238:1 306:1 307:1 308:1 309:1 310:1 311:1 312:1 313:1 314:1 315:1 316:1 317:1 318:1 319:1 
0 0 0.0022916716432219062 0 0.0084766979525194609 0 0 0 0 6:1 7:3 13:5 14:1 22:1 23:1 31:1 34:1 35:2 37:1 41:1 56:1 100:1 183:1 298:1 320:1 321:1 322:1 323:1 324:1 325:1 326:1 
0 0 0.0051896880681556899 0 0 0 0 0 0 3:2 5:1 7:4 13:1 14:1 22:1 23:1 31:1 35:1 37:1 41:1 135:3 157:1 212:1 213:1 215:1 224:1 298:1 327:1 328:1 329:1 330:1 331:1 332:1 
0 0 0.0094041120246625125 0 0 0 0 0.0034129839655853344 0 6:1 7:5 13:1 22:1 35:1 37:1 40:2 41:1 78:1 143:2 333:1 334:1 335:1 336:1 337:1 
0.0040380161961748682 0.019629137444069935 0.0031877708127161825 0.0053137931839439285 0.0084278423170498669 0 0.00088947519998402471 0.006296781082925678 0.031469201417292363 6:1 7:2 13:1 14:1 34:1 59:1 143:1 179:1 338:1 339:1 340:1 341:1 
0 0.00071625998357053992 0 0 0.0059448515384213649 0 0.0018823649605654597 0.00071902784004432719 0 6:2 7:3 13:2 22:1 40:4 42:1 48:1 100:1 105:1 249:1 342:1 343:1 344:1 345:1 346:1 347:1 348:1 349:1 
0 0.009417302480597415 0 0.0019146630419931252 0.0089950643872171478 0 0.0021266688934445609 0 0 6:1 7:4 13:3 35:1 40:2 45:1 91:1 121:1 123:1 133:1 350:1 351:1 352:1 353:1 354:1 355:1 
0 0 0 0.0015740312867937836 0.005267936343606049 0 0.00096457737139620198 0 0 7:3 13:3 14:2 32:1 35:1 39:1 40:2 87:1 100:1 165:2 353:1 356:1 357:1 358:1 359:1 360:1 361:1 362:1 363:1 364:1 365:1 
0 0 0 0 0 0 0.0048861173564748997 0 0 7:3 13:1 31:1 48:1 232:1 233:1 270:1 366:1 367:1 368:1 369:1 370:1 371:1 
0 0.015625138569859413 0 0.00092575856107174922 0 0 0.0051915565755415033 0 0.0023073969136181405 7:2 48:1 85:1 388:1 389:1 390:1 391:1 
0 0 0 0.0029145512213084243 0 0 0 0 0 7:3 9:1 13:2 22:1 23:1 31:1 35:1 40:1 79:1 85:1 143:2 172:1 225:1 313:1 377:1 383:1 384:1 385:1 386:1 392:1 393:1 394:1 395:1 396:1 397:1 398:1 
0.0014043881374080592 0.0031965691819123947 0 0.0023298276129013486 0.0031131723334163791 0.0075727738665163835 0 0.0015911860645125061 0 6:1 7:2 13:3 22:1 35:1 40:1 48:1 399:1 400:1 401:1 402:1 403:1 404:1 405:1 406:1 407:2 408:1 409:1 410:1 411:1 412:1 413:1 
7.2023524921856034e-05 0 0 9.8293608802627467e-05 0 0 0 0.00067427074872689844 0 7:1 9:3 13:2 16:1 34:3 35:1 39:1 40:1 135:1 198:1 353:1 354:2 362:1 363:1 414:1 415:1 416:1 417:1 418:1 419:1 420:1 421:2 422:1 423:1 424:1 
0.00088139779404547002 0 0.0019475325311924183 0 0.0063898520689145682 0 0.0017979298222949303 0 0.0036295952318762636 7:5 9:1 13:2 29:1 32:1 34:1 35:1 40:1 48:2 156:1 353:1 425:1 426:1 427:1 428:1 429:1 430:1 431:1 432:1 433:1 434:1 435:1 436:1 
0.0012048787505161331 0 0 0 0 0 0 0.0008893797469980804 0 3:1 6:1 7:3 13:3 23:1 35:1 40:1 78:1 85:1 325:1 437:1 438:1 439:1 440:1 441:1 442:1 443:1 444:1 
0.038752385473234896 0.004590546737907617 0 0.0012776151304645996 0.0073390802526890168 0.0093112403090757079 0.0008261183416797762 0.00071477804978822878 0 7:1 9:1 13:4 14:1 22:1 31:1 35:2 40:3 227:1 320:1 349:1 381:1 427:1 445:1 446:1 447:1 448:1 449:1 450:1 451:1 452:1 453:1 454:1 455:2 456:1 457:1 
0 0.0069210992414478487 0 0 0 0 0 0 0 3:2 7:2 13:6 14:1 35:1 40:2 101:1 115:1 157:2 349:1 381:1 382:1 383:1 387:1 446:1 452:1 455:1 458:1 459:1 460:1 
0.0026306036927727697 0 0.0059496690374424071 0 0 0 0 0 0 3:1 7:1 13:1 31:1 80:1 113:1 461:1 462:1 463:1 464:1 
0 0.0092117952014492584 0 0 0 0 0 0 0 6:1 7:1 13:2 40:1 45:1 79:1 143:2 333:1 334:1 373:1 465:1 466:1 467:1 
0.0021824631511246253 0.0031294064403046755 0 0 0.01906009755112531 0 0 0.0041082078183224905 0 6:2 7:1 13:1 22:1 35:1 107:1 198:1 468:1 469:1 
0.0016875877177188908 0.0075284169371655461 0.0028184454594211267 0.002772217083579602 0.0057399490308878967 0.0076258103853744843 0.002050217525517776 0.0014657500566601024 0.0012580917128578015 3:1 7:3 13:3 18:1 22:1 31:1 32:1 35:1 40:1 122:1 156:1 387:1 470:1 471:1 472:1 473:1 474:1 475:1 476:1 477:1 478:1 479:1 480:1 481:1 482:1 
0 0 0 0 0 0 0.002949536297860429 0 0 3:1 6:1 7:3 9:1 13:2 17:1 35:1 40:1 45:1 48:1 131:1 142:1 168:1 252:1 483:1 484:1 485:1 486:1 487:1 488:1 489:1 490:1 491:1 
0 0.003123623089161301 0 0.00068272327972446027 0.00047418857287591756 0.014404057671110502 0 0 0 7:1 40:2 79:1 100:1 101:1 214:1 245:1 492:1 493:1 494:1 495:1 
0 0 0 0 0.010088532553020649 0 0 0 0 7:2 13:1 14:1 22:1 23:2 31:1 35:1 40:1 48:1 243:1 504:1 505:1 506:1 507:1 508:1 509:1 
0 0 0.044827504609964777 0 0.033337225991464575 0 0 0 0.0043059236917217308 7:5 13:2 23:2 31:2 35:2 147:1 298:1 510:1 511:1 512:1 
0 0 0 0 0.0098996779429846565 0 0 0 0 3:1 7:3 13:2 14:1 23:2 31:1 34:1 35:2 40:1 96:1 111:1 317:1 486:1 501:1 513:1 514:1 515:1 516:1 517:1 518:1 
0.00076548863996113632 0.0075869282678110673 0.0018909118996886366 0.0017833745806664734 0.00071083856224023569 0.0090389985253257771 0.0019020908038522445 0 0.003497709065491148 3:1 7:2 13:5 31:2 40:2 64:1 99:1 151:1 272:1 298:1 519:1 520:1 521:1 522:1 523:1 524:1 525:1 526:1 527:1 
0.00089909718499043721 0 0.00089725998946555763 0 0.0037058534666762439 0.0025140783239620984 0.00087979446272914107 0 0 3:2 7:3 9:1 13:3 19:1 31:1 35:1 40:2 101:1 135:1 198:1 437:1 470:1 528:1 529:1 530:1 531:1 532:1 533:1 534:1 535:1 536:1 537:1 538:1 539:1 540:1 
0.021575803423110291 0 0.0052763071722327966 0.00064417437514061862 0.01388534905914948 0 0.023816696112253656 0 0 13:1 29:1 34:1 100:1 332:1 541:1 
0 0.009096680220702159 0.0029251973512065422 0 0.0031352031665436353 0 0 0.0031278148563392769 0 7:4 13:4 14:1 31:1 34:1 35:1 40:1 78:1 137:1 542:1 543:1 544:1 545:1 546:1 547:1 548:1 549:1 550:1 551:1 552:1 553:1 554:1 555:1 556:1 
0.0042985617018458551 0.010440623691458026 0.0057294178803800099 0.0034117358634865014 0.010990600742549386 0.0049407014317961453 0.0038149911305983258 0.0088157620835016721 0.022478442059119166 7:2 376:1 557:1 558:1 
0.015662398182802545 0 0.0096550126220984155 0.004721500972205279 0.0099806081479280034 0.031245041041201595 0.0078707832488718599 0 0 559:1 
0 0.010770915057941302 0.0022548475756144042 0 0.0032105554288936228 0 0.0028129028490670805 0 0 6:1 7:1 131:1 142:1 560:1 561:1 562:1 
0.0056374155068624216 0 0 0 0 0 0.0085374541860005603 0 0 563:1 564:1 
0 0 0.0043321874280896995 0.00023823622947677118 0.0020791175529358821 0.0062048607989818316 0.0018811216614838542 0 0 3:1 7:1 9:1 13:1 45:1 151:1 499:1 565:1 566:1 567:1 568:1 
0.01071930632295132 0.022470811757584728 0.0061735884812579031 0 0.082565488578667162 0.12644432772787872 0.027219340411245806 0.011743152239817294 0.023964496090369526 7:1 13:1 569:1 570:1 
0.002835858591924513 0 0 0 0.0046495304034572076 0 0.0021549733823838335 0 0 7:4 233:1 571:1 572:1 573:1 574:1 575:1 576:1 
0.0039319227417367502 0.0062624419404014326 0 0.0036117408818338781 0.011876018768040567 0.012123049186857724 0 0.00021519074758149484 0 6:1 13:3 22:1 35:2 101:1 577:1 578:1 579:1 580:1 581:1 582:1 
0.0028448832913044973 0 0 0.0024787080219815629 0 0 0.0037678754689192684 0 0 7:1 21:1 233:1 583:1 584:1 585:1 
0 0.0047536481199367412 0.0012952967130963162 0.0074417525789674775 0 0 0 0 0.0082639418975709537 7:2 14:1 34:1 35:1 196:1 220:1 257:1 586:1 587:1 588:1 589:1 
0 0 0 0.00016024779399733541 0 0 0 0 0 590:1 
0 0 0 0 0 0.012277329436259041 0.0016998766519968145 0 0 13:1 40:1 358:1 591:1 592:1 
0 0.0015672756832811258 0.0028247939050346118 0 0.002463206082642856 0 0 0.00079329234178766752 0 7:4 13:3 16:1 31:1 34:1 35:1 40:1 100:1 101:1 129:1 209:1 358:1 593:1 594:1 595:1 596:1 597:1 598:1 599:1 600:1 601:1 602:1 603:1 604:1 605:1 
0 0 0 0.032835127429577469 0 0 0 0 0 9:1 13:1 31:1 85:1 93:1 501:1 
0.001632150937508687 0 0 0 0 0 0.0022412944227962707 0.0035537327034587977 0 7:4 606:1 607:1 608:1 609:1 610:1 
0.0083563818443399239 0 0.0084108686180546684 0 0 0.031244683006611144 0 0.011718750000000056 0 611:1 
0 0 0 0 0 0 0.0031401795399619817 0 0.047197269045703823 7:1 9:1 13:1 31:1 40:1 48:1 100:1 157:2 343:1 491:1 612:1 613:1 614:1 
0 0 0 0 0.0031430768465843823 0 0 0 0 7:5 13:4 14:1 23:1 31:1 35:1 40:2 79:1 151:1 441:1 505:1 615:1 616:1 617:1 618:1 619:1 620:1 621:1 622:1 623:1 624:1 625:2 
0.0019192316149919569 0.0025127432107812627 0.004704578934973982 0.0016163846388111587 0.001225520620402079 0.0054955671429660572 0.0024453630792287953 0.0022835821476442733 0 3:1 7:1 13:2 35:1 48:1 626:1 627:1 628:1 
0 0.0041846487986468891 0 0 0.0094508562927434949 0.016873933944239434 0.0012103204676326283 0.0017106991462235461 0.0010281106835814324 7:1 32:1 34:1 78:1 542:1 629:1 630:1 631:1 632:1 633:1 634:1 635:1 636:1 
0 0.0025894970485745602 0 0 0.012850362684759907 0 0.0036633257703947869 0 0 35:1 40:1 236:1 611:1 637:1 
0.006382703358471839 0.0041547727677579546 0.0041387117151646825 0.0012084712811552905 0.017231251133907145 0 0.0025519149540822266 0.0022896141149905459 0.0077435585890243469 7:3 35:1 40:1 196:1 638:1 639:1 640:1 
0.0031783579018223218 0 0.0073477996462539873 0.00018021889959987406 0 0.025918062729730507 0.0036259049281571949 0.0040157585790512778 0 6:1 13:1 40:1 641:1 642:1 643:1 
0.0017932724734156657 0.059394288421233635 0 0 0 0 0.0020428999245201687 0.015479292712986937 0.029046292471567783 6:2 7:3 18:1 48:1 79:1 297:1 644:1 645:1 
0.00083098226972976551 0 0 0 0.011814939454777585 0 0.0024827049389093631 0 0 7:3 13:2 34:1 35:3 40:2 48:1 109:1 135:1 483:1 644:2 646:1 647:1 648:1 649:1 650:1 651:1 652:1 653:1 654:1 
0 0.0018403638348495975 0 0.0028558198876971236 0 0 0 0 0 6:1 7:3 13:1 31:1 79:1 85:1 101:1 140:1 141:1 142:1 655:1 656:1 
0.0097643399737851917 0 0.019099615285172799 0 0.009319682566861838 0 0.0074087038694948711 0 0.038425688702632695 7:1 252:1 657:1 
0 0.0025245777385097656 0.0039602018046325238 0 0 0 0 0 0.00018059872416338217 3:1 7:3 13:1 192:1 658:1 659:1 660:1 661:1 662:1 663:1 664:1 665:1 666:1 
0 0 0 0.003526879573808964 0 0 0 0.0020551232704114279 0 14:1 100:1 143:1 498:1 501:1 667:1 668:1 669:1 
0.0060657107348168413 0 0 0 0 0 0 0 0.0015397799630349608 6:1 7:2 9:1 81:1 85:1 101:1 670:1 
0.0010145045628825778 0 0.0081954339702062801 0 0.012113737920834028 0 0.0012785124048823365 0.0027275395351644615 0.0043619241051540032 7:4 9:1 40:2 135:1 644:1 650:1 651:1 652:1 671:1 672:1 673:1 674:1 675:1 676:1 
0 0 0.0022211186278129867 0 0.0041569963806860162 0.016882429687699065 0.010320480085180479 0 0.0085327163650646756 3:1 35:1 101:1 225:1 674:1 677:1 678:1 679:1 680:1 
0.0044300650848400252 0 0 0 0 0 0.0040238031907972645 0 0.025417158049505048 9:1 184:1 610:1 670:1 
0.0031030714448510798 0.0082632263861809139 0.0083107247040489253 0.017531312990925696 0 0.011982910083960321 0 0 0 13:2 220:1 690:1 
0 0 0.010589914386150652 0 0.0095770329772780459 0.038578824194210423 0.0093838249027917014 0 0 693:1 
0 0 0.001445677037066906 0 0 0 0 0 0 3:1 6:1 7:4 9:1 13:2 18:1 23:1 31:1 35:1 37:1 40:1 41:1 113:1 243:1 264:1 320:1 402:1 403:2 694:1 695:1 696:1 697:1 698:1 699:1 
0.0081314962759382967 0 0 0 0.043160147367392571 1.255260587464103 0.038091303356915934 0.0037718526627158497 0 31:1 85:1 623:1 
0.002525514245281895 0.0044554507498344624 0 0 0.015683947925777673 0 0 0 0.0013065544991171256 6:1 7:1 14:1 35:1 113:1 333:1 700:1 701:1 
0 0.0049859391790701615 0 0.0057605577651211725 0.12116282593213579 0 0.0033540762016570913 0 0 7:1 13:1 31:2 35:1 43:1 85:1 702:1 
0.00091085538095778064 0.0023276512568403129 0 0.0012525655692459867 0.0026095772440953989 0.00073116384397403688 0 0 0 3:1 7:2 9:1 13:4 31:1 35:1 320:1 403:1 427:1 451:1 485:1 491:1 505:1 508:1 706:1 707:1 708:1 709:1 710:1 711:1 712:1 713:1 714:1 715:1 
0.0031744985430131045 0 0 0 0.0073076813093869049 0.0012680220530315413 0.0041113977123558888 0.0079590817722575841 0.0018494271889092175 6:1 716:1 717:1 
0.0048926041656242088 0.0079410110531480463 0.0059207853587817001 0.00072755034045275972 0.0030454881199488081 0.047435122625470928 0 0.0037888301143521232 0 13:2 101:1 718:1 719:1 
0.0044216232247443303 0.0011340297545389419 0.008109392047062583 0.00048722840260449155 0.023602247578430678 0.035418071982105545 0.0056815444547494145 0.0034360864642802385 0.0036362504504476893 40:1 720:1 721:1 
0 0.0029634475684890823 0.001164509025421905 0.0026851451283285872 0 0 0 0 0 3:1 7:1 13:2 14:1 35:1 43:1 79:1 84:1 100:1 123:1 179:1 440:1 494:1 731:1 732:1 733:1 734:1 
0 0.0093937342698313716 0.00095094022559154647 0.004657654992688158 0 0.013069201952216345 0.0027543231323059777 0 0.0029798901731937482 13:1 21:1 22:1 32:1 40:1 45:1 48:1 101:1 183:1 236:1 294:1 323:1 735:1 736:1 737:1 738:1 739:1 
0 0 0 0 0 0 0 8.6372705079435842e-05 0 3:1 6:2 7:3 9:1 13:4 23:1 31:3 35:2 37:1 40:2 41:1 78:1 298:1 313:1 545:1 621:1 740:1 741:1 742:1 743:1 744:1 745:1 746:1 
0 0 0 0 0 0 0 0 0.00081239332220392935 7:2 32:1 48:2 490:1 747:1 748:1 
0 0.00058605710858572067 0 0 0 0 0 0 0 7:1 40:1 143:1 216:1 334:1 703:1 704:1 705:1 
0.0022694340991162663 0 0 0 0 0 0 0.0029181938399285329 0 6:1 7:1 9:1 31:2 85:1 252:1 749:1 
0.015625000000000014 0 0 0 0.016010418572560345 0.015625000000000017 0 0 0.0026326840218114586 7:1 750:1 
0 0 0 0 0 0.0068922532996499083 0 0 0.0065776308918002405 6:1 7:2 9:1 17:1 22:1 32:1 34:1 48:1 113:1 240:1 427:1 751:1 
0 0 0.0049153464496454503 0.00035078363961566118 0.0028157555167846568 0.013699680301581181 0.0033671409120737783 0.0068646796263030279 0.0077113079009370998 7:1 13:1 50:1 84:1 752:1 753:1 
0 0 0 0.002474526227724246 0 0.0021636629400015595 0 0 0 3:1 7:5 13:3 14:1 23:1 40:1 79:1 112:1 441:1 485:1 625:3 754:1 755:1 756:1 757:1 758:1 759:1 760:1 
0 0 0 0 0 0 0.00013765830990285601 0 0 7:2 13:4 22:1 23:1 31:3 34:1 35:1 37:1 40:2 41:1 64:1 245:1 249:1 416:1 604:1 666:1 761:1 762:2 763:1 764:1 765:1 766:1 767:1 768:1 769:1 
0 0.0028612290049771388 0.0011426161106757734 0 0 0 0.0019119976524295454 0 0 7:1 13:1 34:1 43:1 143:1 313:1 770:1 771:1 772:1 773:1 
0 0.0051111754579493086 0 0.00040661444489964915 0 0 0 0 0 7:2 13:1 31:1 34:2 214:1 232:1 423:1 544:1 774:1 775:1 776:1 777:1 778:1 
0.0011553417730058395 0 0.0089082570343312732 0.00047647524992280751 0.00096405340955330054 0 0 0 0.003838544365751781 7:3 85:1 159:1 388:1 441:1 733:1 779:1 780:1 781:1 782:1 783:1 784:1 
0 0.005943481735340682 0.0026183548097222114 0 0.0028649783353637734 0 0 0.0010619377567070989 0.0071762617187519657 3:1 7:4 13:2 14:1 31:1 34:1 35:1 40:1 227:1 505:1 531:2 673:1 785:1 786:1 787:1 788:2 789:1 790:1 791:1 792:1 793:1 794:1 795:1 796:1 797:1 798:1 799:1 800:1 
0 0.010439061424687498 0.016252419357064948 0.0019869130890070412 0.041339797296074197 0.040903179330991586 0.02038417284931272 0 0.055255326350990473 7:1 801:1 
0.00061077487092389064 0 0 0.00056993883792687771 0 0 0 0 0 3:2 6:1 7:2 9:1 13:4 22:1 31:3 40:2 80:1 85:1 101:1 113:1 232:1 245:1 297:1 320:1 403:1 802:1 803:1 804:1 805:1 806:1 
0.00072431529592132543 0 0 0 0 0 0.0006381534887567339 0 0 7:4 13:3 23:1 31:3 35:4 37:1 40:1 41:1 100:1 177:1 370:1 544:1 633:1 775:1 812:1 813:1 814:1 815:1 816:1 817:1 818:1 819:1 820:1 
0.0011142199481739919 0 0 0 0.003882622909020333 0 0 0 0.007176468926203633 7:4 13:1 31:1 34:1 35:1 85:1 151:1 191:1 225:1 491:1 548:1 808:1 826:1 827:1 828:1 829:1 830:1 831:1 
0.0022961033699189807 0 0 0 0.0093870816014735847 0 0.0039495928860988133 0 0.020385044237920161 7:4 29:1 35:1 48:2 101:1 327:1 388:1 432:1 470:1 832:1 833:1 
0 0 0 0 0 0.0043634574171143642 0 0 0 3:2 7:2 9:1 31:2 34:1 51:1 85:1 101:1 389:1 656:1 834:1 835:1 836:1 837:1 
0.00627139661782097 0 0 0.00025266622036057492 0 0 0.0027710059099289278 0.0025070128183551426 0 7:2 34:1 744:1 789:1 838:1 839:1 
0 0 0.00094693228827757471 0 0.0034063162083583366 0 0.0022127227402977566 0.0040150037387752784 0.0025631908694555726 3:1 6:2 7:4 13:2 18:1 31:2 34:1 101:1 840:1 841:1 842:1 843:1 844:1 845:1 846:1 
0.00094940726406123055 0.0015968744920697266 0 0 0.017347925610009484 0 0 0 0 7:4 13:2 31:2 34:1 35:1 43:1 85:1 100:1 136:1 137:1 185:1 225:1 252:1 281:1 320:1 370:1 403:1 505:2 847:1 848:1 849:1 850:1 851:1 
0 0.017840921100596936 0.0023959499186937874 0.00089322957146735667 0.0033397795909364853 0 0.0015127339743108955 0.0021341848981903185 0.0017014861556442717 7:3 13:5 31:1 40:3 85:1 93:1 143:1 223:1 320:1 356:1 403:1 414:1 427:1 451:1 485:1 486:1 568:1 614:1 710:1 852:1 853:1 854:1 855:1 856:1 857:1 
0 0.003497445392242237 0.0018474398543834604 0 0.002354486750237549 0 0 0 0.0029303018863440018 7:2 13:1 34:1 214:1 371:1 858:1 859:1 860:1 861:1 
0.0017373736043276643 0.00072627169603081861 0.0038181202231291167 0 0.0053952538723326185 0 0.0010183450308252297 0.0023459547311414737 0.0025785438768940352 3:1 5:1 6:1 7:5 13:1 31:2 34:1 40:1 133:1 249:1 405:1 451:1 834:1 862:1 863:1 864:1 865:1 866:1 867:1 868:1 869:1 870:1 
0.002139405237343575 0.003349591516880226 0.00091575076385211221 0.00082916747360746803 0.013979075852197558 0 0.0030470838142709019 0 0 7:2 9:2 13:1 31:1 40:2 55:1 100:2 101:1 249:1 272:1 405:1 451:1 711:1 834:1 863:1 871:1 872:1 873:1 
0.0014278194135225351 0.010510693592590343 0.0028757916786404398 0 0.0015380990903780718 0 0.0013340055156307949 0.0014811858780300487 0.0013962712641048345 7:3 13:1 40:1 85:1 101:1 133:1 143:1 486:1 874:1 875:1 876:1 877:1 878:1 
0.0093077174299197075 0 0.0020980755575261273 0 0.032029651690530223 0 0.0062874869872672889 0.0029835005699076823 0.014879289291527258 6:2 7:5 13:1 48:1 50:1 100:1 101:1 236:1 388:1 399:1 491:1 879:1 880:1 881:1 
0.005164764211725772 0 0 0 0 0 0 0.0030627559447658588 0 6:1 7:1 22:1 31:1 50:1 101:1 232:1 882:1 
0.0014249930683885197 0.0065414032777029504 0.0099016899133208339 0 0.011131849646403765 0 0.0051669102118064095 0.0058032723397218869 0.0018710226534294284 3:1 7:6 13:1 14:1 40:2 101:1 140:1 159:1 183:1 399:1 456:1 710:1 797:1 860:1 883:1 884:1 885:1 886:1 887:1 888:1 
0 0.003082476859655266 0.0031639517312706572 0 0.0086807384150473649 0.030583796351339385 0.002446120342674721 0.002189566837886505 0 3:1 7:1 13:1 35:1 78:1 118:1 889:1 890:1 
0.0026437971662570262 0 0 0 0.013840413658390508 0 0.0030281219639505721 0.0011990634416020871 0.0020379485334133035 6:1 7:3 13:2 34:1 40:1 232:1 333:1 652:1 891:1 892:1 893:1 894:1 895:1 896:1 
0.0034699199779133646 0 0 0 0.0042237665949800603 0.0038907550871455877 0 0.003611626097847593 0.0043889530885826249 6:1 87:1 125:1 143:1 897:1 898:1 
0.0026198994135950946 0 0.0033042675286719184 0.00051368781630910145 0.0036406406724263044 0 0.0017482610717721827 0.0075857015384841386 0.012427310493860888 7:4 13:1 40:1 72:1 85:1 101:1 245:1 899:1 900:1 901:1 902:1 
0 0.01976961866466732 0 0.0059734701449001013 0.0026041092943808516 0.0056465898800437285 0 0 0 7:1 13:1 34:1 40:1 674:1 903:1 904:1 905:1 
0.002622888949555056 0.00044254769554708602 0 0.0031256249185139685 0.012854029007510266 0.0016391703393911447 0.0025341186382258716 0 0.00092627354352195989 7:1 13:1 35:1 185:1 505:1 906:1 907:1 908:1 909:1 
0.053689780611575373 0 32768 0 0 0 0 0 0 50:1 
0.010797371992302209 0 0.0050978178043706458 0 0.0071471081111425432 0 0 0 0.0021913690088298356 6:1 9:1 13:1 14:1 55:1 113:1 135:1 325:1 
0.00061646077628726254 0.0038070107622450557 0 0.00099665180002833989 0.00046826543511236079 0 0.0012983027518777314 0.0031238894928312874 0 3:3 6:2 7:5 13:4 14:1 18:1 31:1 34:1 40:1 50:1 101:1 113:1 135:1 168:1 213:1 214:1 215:1 224:1 232:1 313:1 579:1 610:1 910:1 911:1 912:1 913:1 914:1 915:1 916:1 
0.0049519441072406207 0.0022956464786206047 0 0 0.0067862512023361375 0 0.0012926901003903978 0.011089347493188843 0.0026405415563055248 6:4 7:3 9:1 13:1 31:1 40:1 51:1 165:1 416:1 623:1 917:1 918:1 919:1 920:1 
0.00073306153788547772 0.00016502619664898901 0 0 0 0 0 0 0 3:1 6:2 7:3 9:3 13:3 14:1 17:1 34:1 43:1 48:1 58:1 135:1 167:1 518:1 921:1 922:1 923:1 924:1 925:1 926:1 927:1 928:1 929:1 930:1 931:1 932:1 933:1 
0 0 0 0 0.0023867637173496468 0.0081129361440746926 0.0025812319334825372 0.0030962650548501947 0 3:1 6:1 40:1 488:1 934:1 935:1 936:1 
0.0025211228302594547 0.005866441800821888 0 0.001640684023485061 0 0 0.00076784833888025286 0.0012525100531194089 0 6:1 7:3 9:2 13:4 14:2 34:1 40:2 89:1 95:1 459:1 513:1 893:1 937:1 938:1 939:1 940:1 941:1 942:1 943:1 
0.0019344119101419432 0 0.00097067496124067336 0.00081426706470797588 0.016859031715081869 0 0.0040359575148958141 0.0017119108863446913 0 7:5 9:1 13:3 29:1 31:1 35:1 48:1 85:1 100:1 118:1 302:1 587:1 921:1 944:1 945:1 946:1 947:1 948:1 949:1 950:1 951:1 
0 0 0.033586234743553156 0 0 0.098993133193593513 0.0086458752133754795 0 0.035180560748426425 7:1 43:1 952:1 
0 0.0020454546965938836 0.0034202906250257355 0 0 0 0 0 0.0027944327470897094 7:2 9:2 13:1 47:1 68:1 427:1 953:1 954:1 955:1 
0 0 0 0 0 0 0.010063082053054923 0.0059034609226682319 0 50:1 956:1 957:1 
0 0 0 0 0 0 0 0 0.00037058663659439179 6:1 7:2 9:1 22:1 35:1 36:1 40:1 236:1 512:1 646:1 958:1 959:1 960:1 
0.0023248485964448649 0.0073720146672795776 0.0022517492436255403 0 0 0.021048999524505622 0 0 0.005972335374846597 7:1 9:1 40:1 951:1 961:1 962:1 963:1 964:1 
0 0.0078431454888615911 0.004269558022317454 0.014054722556540467 0.0085599841224296251 0.00092112383400736071 0.0057199625391228465 0 0 3:1 7:4 13:1 23:1 80:1 112:1 320:1 459:1 625:3 886:1 965:1 966:1 
0.0019144678943422279 0 0 0.00045234223228934314 0.0042572634881972464 0 0.0014069945424938829 0 0.00047110166163395739 6:1 7:3 13:3 35:1 91:1 236:2 851:1 967:1 968:1 969:1 970:1 971:1 972:1 973:1 
0.0019732982938077633 0.0073881583816725205 0.002255792400560105 0.0041177128963577484 0.0052231567481419734 0.0024435986862286624 0.003138368083113715 0.0025761032475708212 0.0096131836823101623 7:2 32:1 34:1 40:1 48:1 974:1 975:1 976:1 
0.03814632991120382 0 0 0 0 0 0.0085133145018233651 0.0059445371310920406 0 6:1 7:1 48:1 131:1 977:1 
0 0 0 0 0.0041879666071513938 0 0.0061211298924141073 0.0088661079261757158 0.0034343340512071599 7:1 978:1 979:1 
0 0 0 0 0.017714157446041316 0 0 0 0 6:1 7:3 13:3 31:1 35:3 40:2 48:1 84:2 100:2 113:2 143:1 333:1 373:1 512:1 980:1 981:1 982:1 983:1 984:1 
0 0 0.0029138327351099463 0.012214656284902375 0 0.014763928690926725 0.0011550692736277206 0 0 7:2 9:1 13:2 14:2 35:1 40:1 101:3 118:1 145:1 209:1 220:1 232:1 333:1 353:1 373:1 393:1 985:1 
0.003927035912486874 0.071539152319574945 0.0033549392289343076 0.0007522349054887975 0.021372290726071157 0 0.0034682845825993523 0 0 7:1 13:1 320:1 403:1 704:1 
0.0043371367679456837 0.0043812985407198687 0 0 0.006858613033135218 0 0 0.0012942828534007527 0.0019823323503359454 6:1 7:3 9:2 22:1 40:1 339:1 508:1 674:1 953:1 990:1 991:1 
0.0084636236718123696 0.049974464801677679 0.0079105549577585255 0.0066107367245759156 0.016587182153839707 0.011074227234318966 0.00349687092879093 0.0038058768679038201 0.0036177766430687589 35:1 351:1 705:1 992:1 993:1 
0.0080353724438939622 0.017108820207635319 0.0064458492406496001 0 0.0089899547975930867 0.014274938618784105 0.011586107704738016 0.0065079481803122022 0 13:1 781:1 994:1 
0.0023730975537044358 0.0042505243210612153 0 0.0007647381059462902 0 0 0 0.0018827125677584404 0.0010962211951079416 7:1 9:2 13:2 35:1 40:1 48:1 403:1 699:1 879:1 883:1 892:1 950:1 995:1 996:1 997:1 998:1 999:1 1000:1 
0 0 0 0.0023280676541983002 0.0051910785625911603 0 0 0 0 7:4 13:2 23:1 31:1 47:1 151:1 399:1 441:1 625:3 1001:1 
0.0015406982466179243 0.001139383601654688 0 0.0017444722037268429 0 0 0 0.0010352509427358073 0 7:1 13:2 14:1 1002:1 1003:1 1004:1 1005:1 1006:1 
0.0019940479352755264 0.0062698088999653852 0.003609924147107469 0.0001950472786374036 0.0041326273809086725 0.010716629963761262 0 0.0010587364147083248 0 13:3 34:1 51:1 1007:1 1008:1 1009:1 1010:1 
0 0 0.0031996686302760893 4.1149921485858269e-05 0 0.014013146032812512 0 0 0 9:1 13:1 34:1 51:1 198:1 1011:1 1012:1 1013:1 1014:1 
0.0021373062192305385 0.010683237646418412 0.0019062986885906089 0.0031053956756404632 0 0 0.0023654417896514942 0.0019453075568741749 0 7:2 21:1 118:1 243:1 388:1 610:1 1015:1 1016:1 1017:1 
0.00082280288679246333 0 0 0 0 0 0 0 0.0032854236980652527 1:1 7:3 9:1 13:5 14:1 22:1 31:1 34:1 35:1 40:2 333:1 353:1 392:1 499:1 512:1 952:2 954:1 957:1 1018:1 1019:1 1020:1 1021:1 1022:1 
0.0022796784888665812 0 0 0 0.0026273374641897309 0 0.0032494366742173465 0.004937693881274673 0 6:1 31:1 85:1 100:1 131:1 252:1 1023:1 1024:1 
0.0021758852652253944 0.011791790290943524 0.004031092270664732 0.00034574583534972386 0.0098625815213535042 0 0 0.0013639338700873404 0 7:3 13:1 35:1 40:1 131:1 687:1 722:1 1025:1 1026:1 1027:1 
0 0.023340531650006213 0 0 0 0 0.0087552859235153317 0 0 7:3 13:2 29:1 34:1 40:1 48:1 79:1 101:1 245:1 436:1 490:1 674:1 984:1 1028:1 1029:1 1030:1 
0 0.016298893170497993 0 0 0.0087496986784301213 0 0 0 0.0020805143979477805 7:1 40:1 1031:1 
0.0020709104468525624 0.0070375408689307617 0 0 0 0 0.0074366015458236555 0 0.0079953911431468287 3:1 7:5 13:1 24:1 34:1 35:1 42:1 43:1 48:1 101:1 182:1 198:1 207:1 501:1 588:1 1032:1 1033:1 1034:1 1035:1 
0.0010254457981021781 0 0 0 0.0019744309858563385 0 0.0013236819120389855 0.0032493019600398302 0 6:2 7:3 9:1 13:4 40:1 48:1 135:1 979:1 1036:1 1037:1 1038:1 1039:1 1040:1 1041:1 
0.022748208590424902 0.012009859689508438 0.096198932794563652 0.0030926933770700866 0.080777872120853758 0 0.029874341346704761 0.051765774327683388 0.012002279661583518 7:6 118:1 1042:1 
0 0.0010280256426621853 0.0018289400721428727 0.002772101819108488 0 0.001078167235912557 0.0025214560144338179 0 0.00267156857685432 3:1 7:5 9:1 13:3 40:4 84:1 93:1 95:1 140:1 330:1 577:2 921:1 1025:1 1043:1 1044:1 1045:1 1046:1 1047:1 1048:1 1049:1 1050:1 1051:1 1052:1 
0.044583103703841567 2.766704227699708e-06 0.0066911898964320355 0.00064832071306138649 0.0088540345529273378 0.031294250250967957 0.0064485340149329799 0.0062664264132946002 0 1054:1 
0.0098067757271670594 0 0.014822640104161386 0 0.019084624315293685 0.055477255271449984 0.011842532483924908 0 0 1053:1 
0 0 0 0.0073829403321699055 0 0 0 0.0016559358885597799 0 7:1 13:2 14:1 19:1 95:1 100:1 302:1 863:1 1029:1 1055:1 1056:1 
0.0045135602803007633 0.01358424926828182 0.0063043822816192634 0.0011796773126140582 0.0036279949281391027 0.13164616334617654 0.0050712275805934607 0 0 13:1 40:1 101:1 1057:1 
0.0010939632576987537 0.002104621246394585 0.0057934501292641856 0 0 0.0056407993332309204 0.00099741732151286582 0 0 3:1 6:1 7:5 9:1 13:4 22:1 31:1 35:1 101:2 113:1 127:1 242:1 370:1 427:1 465:1 899:1 958:1 1058:1 1059:1 1060:1 1061:1 1062:1 1063:1 
0 0 0 0.00096673794247293418 0 0 0 0 0 3:1 6:1 7:1 9:2 13:3 16:1 31:1 40:2 48:1 100:1 101:1 165:1 399:1 427:1 463:1 969:1 981:1 1064:1 1065:1 1066:1 1067:1 1068:1 1069:1 1070:1 
0.0054165690534393914 0 0 0.0051199322224383895 0.025179679985697589 0.00010184275865737713 0.0051303724348950065 0.0055571065402860989 0 6:1 7:1 1071:1 1072:1 
0.0019617742909296791 0 0.00286947955270557 0 0.010071649275265937 0.035132017401973643 0.0060079558838820064 0 0 9:1 35:1 86:1 101:1 167:1 1073:1 1074:1 1075:1 
0 0 0 0 0 0 0 0.0011508234478050652 0.0079647235984308482 6:1 7:4 9:1 13:1 31:2 35:1 40:1 150:1 347:1 405:1 510:1 1034:1 1076:1 1077:1 1078:1 
0 0 0 0 0 0 0.0025046048066049015 0 0.0019941460124172699 3:1 5:1 7:3 13:1 14:1 31:2 35:1 40:1 47:1 48:1 85:1 101:1 264:1 370:1 677:1 683:1 807:1 1079:1 1080:1 1081:1 1082:1 1083:1 1084:1 1085:1 1086:1 1087:1 1088:1 
0 0 0 0.0038032697232793251 0 0 0.0012192456752770848 0.0016495096039719822 0 7:2 31:2 35:1 85:1 140:1 148:1 313:1 327:1 384:1 388:1 861:1 984:1 1089:1 
0 0 0 0.0045498572975910187 0 0 0.0090795152761803926 0 0 6:1 7:2 48:1 50:1 95:1 
0.003045731493694383 0.0059367767060350737 0.0032353961360409721 0.00020579824467531393 0.0013107018501679125 0 0.0051603896046247518 0.00040216804519808058 0.0034534361313403737 7:6 9:1 13:4 21:1 22:1 35:1 40:1 48:1 79:1 131:1 135:1 151:1 172:1 294:1 451:1 848:1 1079:1 1090:1 1091:1 1092:1 1093:1 1094:1 1095:1 1096:1 
0 0.009236730938630807 0.0036746053363140895 0 0 0 0.0045830772283819328 0 0 7:1 35:1 43:1 143:1 1097:1 
0.00061504583049044003 0 0 0.0016326722809207109 0 0 0 0 0 3:1 7:2 9:2 13:5 14:2 34:1 40:1 48:1 113:1 151:1 264:1 412:1 679:1 764:1 883:1 891:1 893:2 1123:1 1124:1 1125:1 1126:1 1127:1 1128:1 1129:1 1130:1 1131:1 
0.0046566464848443396 0.028736081875465041 0.011506857324022509 0.020175279110536754 0.045187156311904265 0 0.0066747706586099357 0.007518567899861597 0.0018210701275001955 6:1 7:2 40:1 111:1 572:1 1132:1 
0 3.4521068172455681e-05 0.00081910879434527481 0.00071484669278410774 0.00078762219649770003 0 0.0018982439846573717 0.0028856763701812244 0.0021197419428736464 3:1 7:5 13:4 23:1 29:1 31:2 34:1 35:1 40:3 48:1 129:1 339:1 455:1 459:1 473:1 1133:1 1134:1 1135:1 1136:1 1137:1 1138:1 1139:1 
0.0026330597967859372 0 0 0 0 0 0.0012330565388042184 0 0 9:1 13:1 34:1 953:1 1140:1 1141:1 1142:1 
0.0024755404203290004 0 0.0071734946190817883 0 0.0048611709854622532 0.011357005785051852 0.0053032121711586539 0.0081261089682103209 0.0042447075989564612 3:1 5:1 7:5 34:1 290:1 339:1 485:1 520:1 760:1 1143:1 1144:1 1145:1 1146:1 1147:1 
0 0.0017157261254821369 0 0 0.0077246347591899828 0 0.00087343287341446092 0 0 6:1 7:4 13:1 58:1 142:1 185:1 198:1 232:1 1156:1 1157:1 1158:1 1159:1 1160:1 1161:1 
0.0073536378762569261 0 0.0032229843329678277 0 0 0.0053120881309538584 0 0.0063689932970017269 0 3:1 7:3 31:1 47:1 48:1 101:1 603:1 1162:1 1163:1 1164:1 
0.002016867603587145 0.00069421584303611692 9.9626959709813367e-05 0.0053359816418970816 0.0029586096787412868 0 0.0028689446784050847 0.011935557329433702 0.0023707376239782176 3:2 7:1 35:2 669:1 752:1 929:1 1165:1 
0 0 0.0044166948958160174 0 0.019847681877781916 0 0 0 0 7:2 35:1 399:1 414:1 957:1 
0 0 0 0 0.0049680222052927124 0 0 0 0 7:4 13:2 34:1 35:2 279:1 302:1 367:1 501:1 590:1 1166:1 1167:1 1168:1 1169:1 1170:1 1171:1 1172:1 
0.0017069858071030019 0 0 0 0 0 0 0 0 3:1 7:2 13:1 85:1 360:1 1173:1 1174:1 1175:1 1176:1 
0.0033967245453718885 0 0 0 0 0 0.053236461183843953 0 0.0097149566849688892 6:1 7:2 9:1 17:1 236:1 491:1 1177:1 
0.0036806045208204645 0 0 0.0056826226528332441 0.0066569098428862659 0.011958511908840045 0.0021723529595791317 0.0015332506244613835 0.012557363702014776 6:1 7:1 9:1 31:1 40:1 388:1 623:1 1178:1 1179:1 1180:1 1181:1 
0 0 0 0.0058437380021663862 0 0 0 0 0 6:1 7:2 13:3 31:1 40:1 41:1 47:1 48:1 85:2 101:1 249:1 918:1 1184:1 1185:1 1186:1 1187:1 1188:1 1189:1 
0 0.0016952265817471676 0 0.0020598441332107904 0.0025040539291680559 0 0.0012724682482100644 0.00073371937309068397 0.0076927622505683999 6:1 7:4 13:1 31:4 51:1 79:1 100:1 135:1 138:1 182:1 322:1 936:1 1120:1 1190:1 1191:1 1192:1 1193:1 1194:1 1195:1 1196:1 
0 0.010842879712570528 0.0021269837313345587 0.00028393039122879676 0.0013429693188339227 0 0.0019603638849767435 0 0 7:3 9:1 13:5 31:3 35:2 48:1 80:1 99:1 105:2 111:1 501:1 528:1 750:1 962:1 1193:1 1195:1 1197:1 1198:1 1199:1 1200:1 1201:1 1202:1 
0 0.0044227105766227676 0 0.0020010272877861164 0 0.012891647052433676 0 0 0 3:1 7:1 13:1 31:1 101:1 459:1 505:1 1111:1 1122:1 1210:1 
0 0 0.0090459116853547142 0 0 0.034470822532610482 0.0040149618088777053 0.025444546764851257 0.010393645106684238 6:1 13:1 31:1 277:1 605:1 827:1 
0.00078720818740478675 0.012078523018208432 0 0 0.0050631972129899687 0 0.0008317215479127062 0 0 7:5 13:2 35:1 40:1 56:1 85:1 136:1 137:1 320:1 403:1 674:1 968:1 1001:1 1194:1 1211:1 1212:1 1213:1 1214:1 1215:1 1216:1 1217:1 
0.0014407153817416008 0 0.0014900855274947971 0 0.0062176325805741867 0.0073523202174308137 0 0 0.0028086717757876043 7:1 9:1 13:2 31:1 35:1 320:1 427:1 451:1 603:1 738:1 1077:1 1218:1 1219:1 1220:1 1221:1 
0.0028563157921823604 0 0.00046344568012652567 0.0030927922575085249 0.025748403525455009 0.44106412894626473 0 0 0 9:1 13:1 31:1 35:1 40:1 100:1 135:1 1222:1 
0.0014569918837406726 0 0.0053633334639084625 0.0017382620769396534 0 0.013419818068166571 0.0029692072648789302 0.001973470808812956 0.0021414716935437778 3:1 5:1 9:2 31:1 142:1 143:1 340:1 834:1 1154:1 1223:1 1224:1 1225:1 
0 0.0051538496429167973 0.0011209859907630731 0 0.00049325381250218058 0.010257420315098723 0 0 0 3:1 5:1 6:1 7:2 13:1 31:1 35:1 79:1 101:1 111:1 232:1 1226:1 1227:1 1228:1 1229:1 1230:1 1231:1 1232:1 
0.0059086161832476837 0 0 0 0.0050443798284974303 0.013720831407680063 0.0076393246765497635 0.0042426484000569996 0.014542548514228473 6:1 40:1 236:1 1233:1 
0 0.0092427599948276401 0 0 0 0 0 0.0029423867285192601 0 7:1 13:1 31:1 320:1 656:1 1219:1 
0 0.0090456430918899496 0 0.002172425523067731 0 0.0012366097493185209 0 0 0 3:1 6:1 7:2 9:1 13:4 22:1 35:2 43:1 48:1 249:1 666:1 759:1 834:1 1079:1 1192:1 1234:1 1235:1 1236:1 1237:1 1238:1 1239:1 1240:1 
0.0023639868954185637 0.0079664242452605512 0 0.0001342341842701194 0 0 0.0012786883991314862 0.0015053143364677911 0 3:2 6:2 7:2 9:2 13:4 14:1 31:2 40:1 85:1 100:2 113:1 148:1 276:1 510:1 644:1 666:1 961:1 998:1 1241:1 1242:1 1243:1 1244:1 
0 0 0.0013062432041952808 0.0017343099762013889 0 0 0.0040905347255569971 0.0011220772037716115 0 6:1 7:5 9:1 13:1 40:1 43:1 74:2 100:1 133:1 233:1 451:1 485:1 710:1 759:1 998:1 1245:1 1246:1 1247:1 1248:1 1249:1 1250:1 
0 0.0042397865656219561 0.0032888520322585137 0 0 0.046182111779983895 0 0.0014393316504927127 0.016878802620425765 13:1 31:1 1251:1 1252:1 
0.0020200424898181679 0 0.0026073530685702317 0 0 0.0040949274742723843 0 0.004339406284550049 0 3:1 6:1 40:1 85:1 1188:1 1253:1 1254:1 
0 0.0002907506350335063 0.0091593036557816501 0 0 0 0 0 0.00062449582629877385 22:1 34:1 80:1 512:1 525:1 1255:1 1256:1 
0 0 0 0 0 0.0013278391608128608 0 0.0015445622290540181 0 7:1 13:2 40:1 131:1 135:1 313:1 383:1 657:1 1100:1 1233:1 1257:1 1258:1 1259:1 
0.0023817133162435788 0 0 0.0016369831134936622 0.0033015813740707692 0 0 0 0.0040545941296590343 7:5 9:3 13:3 40:2 48:1 111:1 236:1 320:1 369:1 388:1 399:1 432:1 491:1 513:1 534:1 730:1 879:1 1202:1 1260:1 1261:1 1262:1 
0.0013129761259945698 0 0 0 0.0038934120210715188 0 0 0.0011392589247019949 0 7:6 13:2 35:2 109:1 185:1 203:1 212:1 232:1 403:1 506:1 604:1 764:1 1001:1 1101:1 1111:2 1216:1 1263:1 1264:1 1265:1 1266:1 1267:1 1268:1 1269:1 
0.00098834244757101423 0 0 0 0 0 0.0030545809907524517 0 0 6:2 7:2 9:1 32:1 48:1 79:1 100:1 233:1 421:1 1140:1 1270:1 1271:1 1272:1 1273:1 
0.0035832908479656285 0.0011628934274796781 0.0045164036692613907 0.002666990460354421 0 0 0.0066984730738300384 0.0054526029328509423 0.021301707933357249 3:1 6:1 7:4 9:1 22:1 31:2 101:1 258:1 491:1 512:1 612:1 613:1 804:1 1274:1 1275:1 
0 0.022706657135191693 0 0 0 0 0 0 0.0015460619556897882 7:2 9:1 34:1 48:1 79:1 232:1 379:1 391:1 491:1 879:1 1111:1 1276:1 1277:1 1278:1 
0.0020912622144865309 0 0.0062313421077170496 0 0.0041567621853059056 0 0.0023694952521785746 0.001495820066306861 0 7:5 13:2 43:1 320:1 403:1 491:1 604:1 947:1 1111:2 1279:1 1280:1 
0.0016054037020369544 0 0.001626399343340631 0 0 0 0 0.0023128345097940101 0.0028174108150994816 3:1 7:5 13:3 14:1 172:1 183:1 320:1 403:1 491:1 508:1 604:1 673:1 1111:2 1281:1 1282:1 
0 0 0.0031702593319304522 0 0 0 0.0085393052464842016 0 0 3:1 7:2 35:1 48:1 427:1 842:1 1182:1 1283:1 
0.016302426378509125 0 0 0.0025178736162151899 0.03095882146117946 0 0 0 0 7:1 31:1 113:1 491:1 1284:1 
0 0.0086732172493992933 0.0021261935246739048 0 0 0 0 0 0.0041886486492779349 3:1 7:2 9:1 13:1 34:1 68:1 293:1 1285:1 1286:1 
0.0027337609634004046 0.0033377951295566919 0 0.0025285641758518028 0.0029750460652993929 0.0015556604476893963 0.0021761679207652632 0.0026128133799908628 0.0065247294961406381 7:1 663:1 664:1 1242:1 1287:1 1288:1 1289:1 
0 0 0 6.0526181439435134e-05 0 0.011608612565234749 0.002250812090254285 0 0 7:1 9:1 22:1 85:1 101:1 255:1 1090:1 1290:1 1291:1 
0 0 0.0054588720069076576 0.00024486758848028578 0 0 0.0027482652435443832 0 0 13:1 14:1 373:1 505:1 507:1 1292:1 1293:1 
0.0011742411340674532 0.0097373922530022451 0.0023493567149156149 0 0.012249970638552323 0.0067057407622704663 0 0.002125175586084967 0.0030492306413996916 3:1 7:2 9:1 13:2 14:1 31:1 40:1 507:1 587:1 613:1 1293:1 1294:1 1295:1 1296:1 1297:1 1298:1 
0 0 0 0 0 0.013270973505161435 0 0 0 1299:1 1300:1 
0 0.007372610130663892 0 0.0035044347259394243 0 0 32768 0.0029090579761840581 0.0031828865030236451 7:2 131:1 1264:1 1267:1 1301:1 
0 0 0 0 0 0 0 0 0.0085310137761456968 7:2 9:1 34:1 40:2 84:1 143:1 252:1 306:1 373:1 507:1 669:1 1079:1 1179:1 1310:1 1311:1 1312:1 
0 0 0 0 0 0 0.00088208418042232551 0 0 7:4 9:1 13:1 22:1 35:2 42:1 48:1 85:1 100:1 101:2 133:1 142:1 145:1 252:1 475:1 652:2 800:1 1313:1 
0.0056093196650954151 0.0082554202814450802 0 0.0016948408214242242 0.024101509480248123 0 0.0020109145373965447 0 0.0068400985904706092 6:2 7:5 9:1 13:1 31:1 35:4 40:1 77:1 79:1 135:1 198:1 673:1 947:1 1011:1 1272:1 1314:1 1315:1 1316:1 1317:1 
0 0 0 0.0005746639430111454 0 0 0.0022621997440823659 0 0 3:1 7:2 13:1 31:2 35:1 40:1 534:1 744:1 1222:1 1318:1 1319:1 
0.0037825900966388585 0 0.004827567254132672 0 0.02067787379429769 0 0.0041019874670088011 0 0 7:2 13:2 47:1 100:1 165:1 572:1 1320:1 1321:1 1322:1 
0 0.001181400235250216 0 0 0.012818408663201299 0 0.001987865507399259 0.00057246006429476006 0.0028001892766459429 6:1 7:2 9:1 13:3 40:1 43:1 48:1 101:1 203:1 297:1 302:1 329:1 391:1 979:1 1323:1 1324:1 1325:1 1326:1 1327:1 1328:1 
0.0018170136331230667 0.010888884585928391 0 0 0.0051553415736630926 0 0.0016147572931084818 0 0 7:2 13:1 18:1 31:2 35:1 85:1 339:1 353:2 421:1 432:1 1329:1 1330:1 
0 0 0.00078184078475266748 0.00057401974195296765 0 0 0.0042945156696283394 0.0020726717599187519 0 3:1 6:1 7:3 31:1 34:1 85:1 87:1 111:1 501:1 1141:1 1331:1 1332:1 1333:1 1334:1 1335:1 
0.0087402816683715967 0 0.0072140635240177352 0 0 0 0.011057156666528489 0 0.0044364378126465712 6:1 7:3 390:1 1272:1 1300:1 1336:1 
0.00092054802960092846 0 0 0.0010130825213203842 0.0015172999732530387 0 0.0024662933988233212 0.0011628365067008328 0.0043860948315208158 6:1 7:3 9:1 13:1 22:1 34:1 48:1 74:1 100:1 101:1 269:1 340:1 391:1 1337:1 1338:1 1339:1 1340:1 1341:1 
0 0 0 0 0 0 32767.981408336691 0 0.0091212670230850675 1342:1 
0.00079301466939980336 0 0 0.0022455969186582795 0 0.0021413627354386505 0 0 0 7:5 13:4 23:1 31:1 40:2 79:1 441:1 625:3 760:1 1182:1 1343:1 1344:1 1345:1 1346:1 1347:1 1348:1 
0 0 0.0079534413989183293 0 0 0 0.0012853381328434645 0 0 3:1 5:1 7:3 13:2 34:2 85:1 145:1 512:1 1091:1 1349:1 1350:1 1351:1 1352:1 1353:1 
0 0.0037332078131628748 0.0033751715888245041 0.0039096082391292409 0 0 0.0013410388963533742 0 0.0084026597192469119 7:2 9:1 13:1 31:2 32:1 58:1 131:1 252:1 813:1 834:1 1173:1 1354:1 1355:1 1356:1 
0.002609331626765504 0 0.0038499086177636692 0.01263144449459244 0.037527310616037458 0 0 5.3566166379275058e-05 0.0033212229152262663 7:3 35:3 129:1 392:1 427:1 691:1 1357:2 
0 0 0 0.0018877003926967974 0 0.0009448667888005399 0 0 0 3:1 7:1 9:1 13:1 22:1 31:1 34:1 48:1 101:1 1205:1 1358:1 1359:1 1360:1 
0 0 0.0089489837241359272 0 0 0.002275838380997609 0.0011111394561153906 0 0.0026271857211946576 7:1 13:1 34:1 1364:1 1365:1 1366:1 
0 0 0 1.1180886883908486e-05 0 0 0.0011736710193564611 0 0 6:1 7:2 9:1 34:1 35:1 40:1 48:2 192:1 219:1 313:1 1141:1 1367:1 1368:1 1369:1 1370:1 1371:1 1372:1 
0.0018579681267077617 0 0.002392877730699996 0 0 0 0 0 0 6:1 7:1 90:1 141:1 142:1 232:1 842:1 
0 0 0 0 0 0 0 0.016369358098615967 0 7:1 48:1 1378:1 
0.0015727168156102682 0.00074619689290138214 0.0026872091800215778 0 0 0 0.0010852539971235734 0 0 7:4 13:4 40:3 101:1 143:1 348:1 451:1 463:1 572:1 662:1 857:1 1379:1 1380:1 1381:2 
0.0029437924009555875 0.0026797947237058926 0.0031825195250901636 0.0006718464004510711 0.010547510608538684 0.003547233481930789 0.0025224315714807489 0.0046311481155029456 0.0051250860586892176 7:6 9:2 13:3 22:1 34:1 35:1 40:2 100:1 135:1 485:1 841:1 1382:1 1383:1 1384:1 1385:1 1386:1 1387:1 1388:1 1389:1 1390:1 1391:1 1392:1 1393:1 1394:1 1395:1 1396:1 
0 0 0 0 0 0 0.0036821424324605576 0 0.00075967382288282404 3:1 6:1 7:1 9:1 48:1 140:1 225:1 232:1 1397:1 
0 0 0.0070844173196608845 0 0.005568015049883873 0.0051848996016033225 0.0081781411277055543 0 0 7:1 1199:1 1264:1 1398:1 
0.0014695884289282286 0 0 0.0028186095964925642 0 0 0.0014588467529101281 0 0.01198650947614645 6:1 7:1 9:1 13:1 31:1 35:1 40:1 143:1 552:1 691:1 840:1 848:1 1399:1 1400:1 
0 0 0 0 0 0.0022719158036345805 0 0.00088031177496260932 0.0011714042923457672 3:2 6:1 7:2 9:1 14:1 24:1 35:2 40:2 78:1 105:1 370:1 485:1 544:1 548:1 592:1 802:1 1309:1 1401:1 1402:1 1403:1 1404:1 1405:1 1406:1 1407:1 1408:1 
0 0 0.00092268429960927782 0 0 0 0 0 0 3:1 6:1 7:2 13:2 14:1 23:1 31:2 35:1 37:1 41:1 243:1 518:1 523:1 992:1 1409:1 1410:1 1411:1 
0.0012426509589702052 0.0036749406870260491 0.00093141873299863037 0 0.001412644786780764 0.0013493927191842181 0.00085095852752254699 0 0.0013995355466023709 7:4 13:3 14:1 31:2 35:1 40:1 47:1 121:1 232:1 292:1 297:1 370:1 470:1 523:1 1080:1 1409:1 1412:1 1413:1 1414:1 1415:1 1416:1 
0 0 0.0020633411312778664 0 0 0 0 0 0.00056782957089139021 13:1 32:1 40:1 225:1 252:1 808:1 1417:1 1418:1 1419:1 1420:1 
0.0028589521476502407 0.0035795187991627185 0.0036473078896353032 0.0013925732312110757 0.0050783480069769502 0.0121487817925629 0.00343763794776845 0.0036437879884648546 0.00037322957494337664 22:1 1036:1 1421:1 1422:1 
0.002078015925706543 0.0030992605213924821 0.00095016369836154314 0.002147022900607338 0 0 0.002224073059040905 0 0 3:1 7:2 13:2 22:1 35:1 40:1 51:1 129:1 418:1 423:1 774:1 781:1 1423:1 1424:1 1425:1 1426:1 1427:1 1428:1 1429:1 
0 0 0.0041464234292096927 0 0 0 0.0031949055184257759 0 0 7:2 13:1 136:1 196:1 198:1 1430:1 1431:1 
0 0 0.036055233932621923 0 0.011003422462834676 0 0 0 0 7:6 23:3 31:2 35:2 37:1 40:1 41:1 243:1 253:1 603:1 1079:1 1432:1 
0 0 0.0031359136357100859 0 0 0 0.0017106219122648282 0 0.0069574592923072002 3:2 6:1 7:5 13:3 14:1 23:1 31:3 34:1 35:1 37:1 40:2 41:1 297:1 298:1 405:1 528:1 895:1 1182:1 1232:1 1433:1 1434:1 1435:1 1436:1 
0 0 0.01634204969521327 0 0.0088477869215321248 0.026677637784947264 0 0 0 1136:1 1199:1 
0.00066508722142762035 0.016166697867939579 0 0.0051747534915420812 0 0 0.0013553842653809837 0.0013304149782820674 0 3:1 6:2 7:5 13:3 14:1 31:1 34:3 85:1 100:1 131:1 214:1 216:1 508:1 625:3 858:1 1443:1 1444:1 1445:1 1446:1 1447:1 
0 0.002740574550087662 0 0 0 0 0 0 0 7:1 13:5 14:1 19:1 35:2 40:1 85:1 143:1 257:1 258:1 313:1 399:2 520:1 577:1 924:1 1111:1 1448:1 1449:1 1450:1 1451:1 1452:1 1453:2 1454:1 1455:1 1456:1 
0 0.00068886684001319897 0 0.0047855495832403788 0.0011471284824471797 0.0082272117334502345 0.0012029352617643615 0 0 7:2 9:1 35:2 77:1 80:1 95:1 105:1 304:1 406:1 427:1 501:1 783:1 879:1 1115:1 1231:1 1457:1 1458:1 1459:1 
0.00089493688583211104 0.0020073614466637984 0.0028882550626094317 0.0019322833552073368 0.0036804979170264548 0 0 0.00081721078424812647 0.00097397833011685726 7:4 9:1 13:3 31:1 48:1 91:1 101:1 1308:1 1460:1 1461:1 1462:1 1463:1 1464:1 1465:1 1466:1 1467:1 1468:1 1469:1 1470:1 
0.0029921839899908274 0.0053333326368355171 0 0.0036480978631580215 0.028862086134408341 0 0.0030290723971345981 0 0 7:2 13:1 31:1 302:2 390:1 1252:1 
0.0044133763065718418 0 0.001974742685763007 0 0 0 0.0025601695832683669 0 0.0011652651236949247 6:1 7:3 13:2 31:1 34:1 35:1 40:1 170:1 183:1 232:2 513:1 1471:1 1472:1 1473:1 1474:1 1475:1 1476:1 1477:1 
0.0013344542102489703 0 0.00010477402151517644 0 0 0 0 0.0005819201180761014 8.8606890741847874e-05 7:2 9:1 13:2 14:1 24:1 31:3 48:1 85:1 101:1 429:1 457:1 776:1 1478:1 1479:1 1480:1 1481:1 1482:1 
0 0.010057509975480579 0 0.0014148095516634074 0 0.0071399301015545253 0 0 0 13:1 31:1 40:1 1127:1 1483:1 1484:1 1485:1 
0.00086885594952582871 0 0 0.00068564565362777801 0.0017774488009260092 0 0.0034410186030887652 0.0020065484295573584 0.00016070056108608553 3:1 6:2 7:4 9:1 13:1 34:1 40:1 43:1 48:1 101:1 291:1 585:1 1486:1 1487:2 1488:1 1489:1 1490:1 1491:1 
0.0011479629992449023 0 0 0 0.0073072886617566012 0 0 0 0.0027369648607569888 6:1 7:2 35:1 48:1 245:1 1492:1 1493:1 1494:1 
0 0.0067827205591760526 0 0.00040192181761228117 0 0.002613910255726104 0.0022394963038319432 0 0.00046587664619570317 3:1 7:2 13:2 31:1 34:1 35:1 40:1 101:2 131:1 208:1 232:1 242:1 505:1 670:1 804:1 998:1 1495:1 1496:1 1497:1 1498:1 1499:1 
0.00069887979804434753 0.0025569293743803877 0.00047766730947339584 0.00017193246443021216 0 0 0.0015840189878942269 0.0014715220918159902 0.0011938196927411828 7:4 9:2 13:4 34:2 40:4 143:2 148:1 253:1 269:1 298:1 486:1 585:1 957:1 1031:1 1338:1 1485:1 1500:1 1501:1 1502:1 1503:1 1504:1 1505:1 1506:1 1507:1 1508:1 1509:1 
0.0024132877873050498 0.002978150108960811 0 0 0 0 0.0037701601439303276 0 0 3:1 7:2 13:2 31:1 40:1 79:1 85:3 101:1 156:1 370:1 508:1 649:1 679:1 1510:1 1511:1 1512:1 
0 0.00021265875070383445 0 0.00095614519071427406 0 0 0 0 0 3:1 6:2 7:2 13:3 34:1 35:1 40:3 48:1 79:1 101:1 118:1 236:1 245:1 306:1 388:1 1513:1 1514:1 1515:1 1516:1 1517:1 1518:1 1519:1 1520:1 
0 2.7087366212461818e-06 0.0019609872008924563 0 0.0053302005508254801 0.011223833023827278 0.0043569340244246522 0 0.00048004680168264695 1521:1 1522:1 1523:1 
0.0029921188413850148 0 0.0011647859220006624 0.00025321288822525626 0.0067505513937596625 0 0.0080081651976232401 0.0018242617196137789 0.011378402554896135 6:1 7:3 34:1 133:1 329:1 1514:1 1524:1 1525:1 
0 0.0028383528476273534 0 0.001740422677666228 0 0 0.0018701395126413298 0 0 3:1 6:1 7:4 9:2 13:3 34:2 35:1 40:2 70:1 79:1 167:1 268:1 463:1 488:1 639:1 899:1 1065:1 1199:1 1518:1 1526:1 1527:1 1528:1 
0 0.0074950562322809305 0 0 0 0 0 0 0.017520231208172254 6:1 7:3 9:1 31:1 40:1 48:1 101:1 140:1 145:1 151:1 242:1 326:1 335:1 691:1 952:1 1529:1 
0.0026588125571897049 0.01342318451911168 0.0052386706048941287 0.004071357646686531 0.012835443327504747 0 0.0022666235876575205 0.0040286008498300972 0 3:1 7:6 9:2 13:5 14:1 22:1 31:1 35:1 85:1 375:1 418:1 501:1 730:1 1194:1 1447:1 1493:1 1513:1 1530:1 1531:1 1532:1 1533:1 1534:1 
0 0 7.8051300143325113e-05 0 0.012968590134813102 0 0 0.0010749738846914075 0 6:2 7:4 9:1 13:2 21:1 40:1 48:1 320:1 438:1 505:1 541:1 680:1 1213:1 1535:1 1536:1 1537:1 
0.0066403536083704095 0.0070860967979268254 0 0 0 0 0 0 0 6:1 7:1 13:1 232:1 1538:1 
0.0027010395040076335 0 0 0 0.0027951501942695758 0 0 0.0027550440255752406 0 6:1 7:2 9:1 13:1 14:1 23:1 31:2 35:1 40:1 427:1 610:1 899:1 1539:1 1540:1 1541:1 1542:1 
0 0 0 0.0023224872515364417 0 0.046500518251003736 0.0069575111061935153 0 0 9:1 13:1 31:1 55:1 85:1 135:1 
0 0.0069104728160041193 0 0 0.00427694906301664 0 0 0 0 6:1 13:3 35:1 40:2 79:1 358:1 716:1 1361:1 1543:1 1544:1 1545:1 1546:1 1547:1 
0 0 0.004178274824387619 0.00066727473089612025 0.0023522741440693087 0 0 0 0 7:5 9:2 13:4 14:2 23:2 31:1 35:1 40:2 262:1 350:1 1195:1 1336:1 1548:1 1549:1 1550:1 1551:1 1552:1 1553:1 1554:1 1555:1 1556:1 1557:1 1558:1 
0 0 0.002682702915942632 0 0.011768757750987511 0 0 0 0 7:4 9:1 13:1 14:1 23:1 40:2 225:1 764:1 1004:1 1037:1 1123:1 
0 0 0 0 0 0 0 0 0.0061351897645094714 6:1 7:1 13:1 40:1 135:1 143:1 157:1 298:1 928:1 1225:1 1299:1 
0.0017850826678027947 0.0049476415473319116 0 0 0.0016591476733278251 0.0084883415826065255 0.00075174418711036685 0.001939617412207462 0.0013450872491095084 3:2 5:1 6:1 7:5 22:1 32:1 40:2 48:1 79:2 109:1 113:1 157:1 334:1 928:1 1053:1 1231:1 1559:1 1560:1 1561:1 1562:2 1563:1 
0 0.0083084549884960487 0.0033411071126606979 0.0031198373611676573 0 0.0057735991183674078 0 0 0.0074512169593699126 7:2 13:5 14:1 48:1 79:1 101:1 109:1 236:1 315:1 320:1 388:1 465:1 505:1 531:1 556:1 664:1 1156:1 1179:1 1542:1 1562:1 1564:1 1565:1 1566:1 1567:1 1568:1 
0.038319835062162529 0 0.016312052149759129 0 0.089056813813974137 0.13461502684558044 0.46299799068946079 0.0034254647590535757 0.012120544591668624 7:3 391:1 657:1 783:1 
0 0.0081669006959419164 0 0.00056522423807167286 0.021914956771340172 0 0.0030733625878322157 0 0 7:1 13:1 22:1 35:1 852:1 1420:1 1569:1 
0.0055364820309311957 0 0 0.026203513845247644 0.02186313272234475 0 0.035757919260020268 0.0023424751536930805 0 34:1 302:1 1286:1 
0.0016441781180848104 0 0.0023197019899801512 0 0.0030268014023323471 0 0.0045206855059824738 0.0042031230469653322 0.0048484229608887269 7:3 9:1 48:2 135:1 427:1 983:1 1571:1 
0 0 0.0023407545116745413 0 0 0 0 0 0 7:1 9:1 13:2 22:1 48:2 101:1 1358:1 1442:1 1511:1 1572:1 1573:1 1574:1 
0 0 0 0.00054719902910151455 0.0026644495140349207 0.014415846890219589 0.0046659789015626183 0 0.002288271034688095 13:1 14:1 40:1 313:1 1575:1 1576:1 1577:1 
0.0097182511841928318 3.9908590501422673e-06 0.0082615029372524081 0 0.010456257387920841 0.031243659729672857 0.1445030849569798 0.011718750000000167 0 1578:1 
0.00098608120393590308 0.013335293038561137 0 0.0028231108814231057 0 0.0078684657315333442 0.0029530930945988283 0 0.0051393825621278665 3:1 6:1 7:1 9:2 22:1 24:1 31:1 35:1 40:1 42:1 45:1 48:1 101:2 142:1 191:1 572:1 1311:1 1457:1 1579:1 1580:1 1581:1 1582:1 1583:1 1584:1 
0 0 0 0.0022529260165536783 0 0.0014263299279069028 0 0 0 7:1 13:2 22:1 40:1 73:1 131:1 143:1 180:1 243:1 298:1 334:1 384:1 455:1 522:1 624:1 1107:1 1593:1 1594:1 1595:1 
0 0.0021773494565478684 16383.555055506904 0 0.017756135225697231 0 0 0 0.0038586693058252032 7:1 1596:2 
0 0 0 0.0007328045204741154 0 0.0063923646631478606 0.0013148484101333916 0 0 3:1 7:3 9:2 34:1 35:1 45:1 90:1 101:1 252:1 257:1 302:1 483:1 485:1 645:1 792:1 1142:1 1597:1 
0.0015613932230985469 0.0080414241473227965 0 0.0064680866117424966 0.00069705085201363873 0 0.00087977565242901377 0 0 3:1 7:1 13:4 14:1 22:2 34:1 129:1 151:1 320:1 528:1 1123:1 1364:1 1598:1 1599:1 1600:1 1601:1 1602:1 1603:1 1604:1 1605:1 
0.00071813573606213025 0 0 0 0 0.012742433392611064 0.00078197396410935901 0 0 3:1 7:5 13:4 23:1 31:1 40:1 79:1 151:1 253:1 409:2 441:1 625:3 1108:1 1309:1 1606:1 1607:1 
0.0097079069449888342 0 0.0078045178612240005 0.0034434641529541071 0.014900058569343188 0.019327783734000861 0.0053015448049416767 0.0023946341210017656 0 7:1 22:1 31:1 47:1 456:1 710:1 1608:1 1609:1 1610:1 
0 0.00067882770512031501 0.0053815920581914787 0 0 0.0028405345545760383 0.0022646748879614417 0 0 3:1 5:1 7:2 9:1 35:2 37:1 623:1 674:1 782:1 1610:1 1611:1 1612:1 1613:1 1614:1 
0 0 0 0 0 0 0.0024739885936308856 0 0 7:1 13:1 43:1 143:1 748:1 764:1 1615:1 
0.0084471712397965262 0.01070667529864832 0.0067192242247890339 0.006795806778934604 0.0071984674137719473 0 0.006821567765477668 0.0012740184360579558 0.0088262271593960873 3:1 6:1 13:1 31:1 87:1 113:1 1584:1 1616:1 1617:1 
0.002579175935088546 0.0060787582732423663 0.00013084942582548186 0 0.0043484846819514707 0 0.0033070878354529197 0.00088243524528468275 0 3:1 7:3 9:1 13:8 14:1 35:1 40:2 85:1 100:1 127:1 208:1 253:1 293:1 313:1 505:1 522:2 620:1 1237:1 1303:1 1400:1 1618:1 1619:1 1620:1 1621:1 1622:1 
0.017297767347439326 0.051630030870790267 0 0.0092194613709187072 0 0.11187590269053482 0.010812667599447989 0.070687567168738669 0 7:1 121:1 
0 0.019416976089139691 0.0019988878824582041 0 0 0.025984450839281581 0.0027448128030465213 0.0016858121660981167 0.022166743834237543 7:1 18:1 40:2 118:1 187:1 1146:1 1309:1 
0 0 0 0 0 0 0.0011219332981279603 0 0 3:1 7:2 9:1 13:1 31:1 48:1 85:3 118:1 138:1 571:1 1182:1 1596:1 1623:1 1624:1 1625:1 1626:1 1627:1 
0.0082059495137362763 0.034922731171329449 0.014080867388272859 0.0035994082325616749 0.016659085839830081 0 0.009946035365934025 0.0101512198932933 0.017758444052286684 3:1 7:7 13:2 22:1 34:1 35:2 40:2 59:1 100:1 131:1 135:1 143:1 232:1 379:1 508:1 1357:1 1628:1 1629:1 1630:1 
0.0054528013726037657 0 0.012165375782840063 0 0.0037863215647229997 0.013823512977438501 0.0033607784313835231 0.013004974859892059 0 7:1 47:1 1309:1 1631:1 1632:1 1633:1 
0 0 0 0.0014113901577051593 0.0016927839890009829 0 0 0 0 6:1 7:4 9:2 13:2 14:1 31:1 40:2 85:1 113:1 270:1 669:1 730:1 1634:1 1635:1 1636:1 1637:1 1638:1 
0.02499694768148112 0 0 0 0.24970660551433735 0 0.0036321234711949629 0.015321317390056047 0.76933584429541291 6:2 7:2 43:1 952:1 
0 0 0 0 0.0018991596378708578 0 0 0 0 7:3 13:3 31:1 35:1 40:3 261:1 270:1 455:1 641:1 862:1 1639:1 1640:1 1641:1 1642:1 1643:1 1644:1 1645:1 1646:1 1647:1 1648:1 
0.039090439220173266 3.9057335277196317 0.096251725378814018 0.022567886142564015 0.27385897800777825 0.028012844868023662 0.035685989684971553 0 0.03433908969609302 7:3 79:1 135:1 
0.0044407822180387276 0 0.0038837049013979419 0.0045779243265140126 0 0 0.10048589211539202 0.011996313126725739 0.025894945517322434 3:1 6:1 842:1 1649:1 
0.0010709699338103448 0 0 0 0.0036429260878953645 0.0067394459050354261 0.0044734864960064872 0 0.0024999024550316586 7:2 9:1 80:1 165:2 951:1 961:1 1650:1 1651:1 
0.0023696578335454833 0 0 0 0 0 0 0.0015206253654281036 0 6:1 9:1 13:1 31:1 391:1 1652:1 1653:1 1654:1 
0.00071974338599538324 0.012495555541199192 0 0 0.0095549817522153427 0 0.0015869980797542723 0 0 6:1 7:2 9:1 13:4 22:1 25:1 31:1 40:4 100:1 145:1 151:1 534:1 572:1 705:2 1600:1 1649:1 1655:1 1656:1 1657:1 1658:1 1659:1 
0 0.0019234054812859985 0 0 0 0 0 0 0 3:1 6:1 7:3 13:2 34:1 157:1 214:1 571:1 657:1 664:1 764:1 858:1 1563:1 1627:1 1660:1 1661:1 
0.10080173838617523 0.10851263441092825 0.13548985378205211 0.0080663725368270798 0.13321697185422737 0.022155690911484876 1.5185924170944929 0.011727680423752477 0.061408986535775166 929:1 
0 0.0072366896013685272 0 0 0.013128547619684927 0 0.0066504202698103448 0 0 6:1 7:6 13:1 18:1 22:1 31:1 34:1 35:1 43:1 50:1 80:1 85:1 90:1 106:1 121:1 463:1 1119:1 1275:1 1655:1 1662:1 1663:1 1664:1 
0 0.011999898998644362 0 0 0 0 0.0043334384850056921 0 0 7:3 9:1 13:1 35:1 40:2 85:1 101:1 151:1 243:1 252:1 291:1 313:1 356:1 427:1 882:1 1409:1 1665:1 1666:1 1667:1 1668:1 1669:1 
0 0 0 0 0 0.0097910376521152843 0.0047809154184457461 0 0 102:1 571:1 1521:1 1627:1 
0.0037242153069848745 0.0063985300884484096 0.0071281908394746005 0 0.0077582545187089812 0 0.0063040790958022817 0 0.013810685082017642 1:1 7:3 9:1 13:1 31:1 34:1 457:1 1275:1 1670:1 1671:1 
0.0031507361194205836 0.0016683632000148618 0.0066667236106996656 0.0045195965706298479 0.0025033101028004616 0.0032050628909598578 0.0012365368504561236 0.0027515598107836284 0.004661252142104777 14:1 781:1 1565:1 1672:1 1673:1 
0 0 0 0 0 0.043373650956071798 0 0 0 9:1 1674:1 
0.0029147575249392011 0.039428584398531412 0 0.0011177997750234305 0 0.097691050493337386 0.011876514506254085 0 0.0071033699092482834 40:1 101:1 135:1 251:1 427:1 1280:1 
0.00061494385420308149 0 0.00081719543123898435 6.3622129928343646e-05 0.0022909846862207883 0.0043256584614114347 0.0025953345423927747 0 0 7:4 9:3 40:2 43:1 47:1 100:1 101:1 135:1 143:1 145:1 151:1 157:1 178:1 198:1 348:1 519:1 710:1 764:1 798:1 1164:1 1675:1 1676:1 1677:1 1678:1 
0.0024067616987986746 0 0 0 0 0 0 0 0 7:2 13:1 48:1 101:1 260:1 1203:1 1237:1 
0 0.002503030170375709 0 0 0.0024081246072206203 0.00039092705258343701 0 0 0 3:1 6:2 7:4 13:3 31:4 32:1 35:1 40:2 43:1 44:1 95:1 135:1 421:1 486:1 644:1 674:1 696:1 1073:1 1322:1 1628:1 1679:1 1680:1 1681:1 1682:1 1683:1 1684:1 
0.0090074591649408689 0 0 0 0 0 0.016374205835144637 0 0.0026909125940490766 7:1 240:1 390:1 1272:1 1685:1 
0 0 0 0 0 0.049383336407582926 0 0 0 7:1 40:1 84:1 101:1 165:1 302:1 1166:1 
0.0014302287028126125 0 0.0017243054409325945 0.00042679531847687459 0 0.032269639268436706 0.0020605268161439194 0 0.0029031635636285287 3:1 6:1 7:1 9:1 31:1 35:1 47:1 101:1 112:1 115:1 133:1 893:1 1686:1 
0 0 0.0021069743489731982 0.0014055217285047967 0 0 0 0.0015375553267164806 0 7:2 34:1 40:2 248:1 882:1 1560:1 1687:1 1688:1 
0.0038546413851728899 0.10873913147012738 0 0 0 0 0.01176211293440187 0 0.047030517537089117 31:1 85:1 252:1 491:1 501:1 674:1 
0.0073279179710837141 0.060529596600965505 0 0.0015010980239630971 0.021248000774629624 0.00074093950873742396 0 0 0.021626308745069694 6:1 7:2 26:1 31:2 35:1 40:1 79:1 113:1 297:1 1689:1 1690:1 
0.0052317690196433718 0.0062377861084686598 0 0 0 0.0011466673341392467 0 0 0 3:1 7:1 1203:1 1691:1 1692:1 
0.0045744806904863987 0.021155573788899526 0.0074716277627077882 0 0 0 0.0033857852778892573 0 0.001634664678308483 6:1 9:1 13:1 232:1 459:1 1442:1 1693:1 1694:1 
0 0 0.0040352497520913782 0 0 0 0 0 0.00028659587573388727 6:1 7:2 9:1 13:2 21:1 37:1 40:1 45:1 143:1 286:1 493:1 1695:1 1696:1 1697:1 1698:1 1699:1 
0.0017359496724179743 0 0 0.0026185165737945158 0.0081820531987491681 0 0 0 0.0097966596877344745 3:1 5:1 7:3 9:2 13:4 22:1 24:1 31:1 35:1 40:2 43:1 48:1 131:1 162:1 182:1 225:2 246:1 325:1 505:1 886:1 1037:1 1479:1 1584:1 1700:1 1701:1 1702:1 1703:1 
0 0.0020996495196812098 0 0 0 0 0.0018798116275239949 0.0011955054029100681 0.0013704422129325463 3:1 6:1 7:3 13:1 35:1 40:1 85:1 275:1 664:1 971:1 1704:1 1705:1 1706:1 1707:1 1708:1 
0.0012004049366556107 0 0.002552521757134957 0 0 0.0068037092206917919 0 0 0 7:1 13:1 14:1 22:1 23:1 31:1 353:1 809:1 1700:1 1709:1 1710:1 
0 0.033385737077780413 0.0029327279692501146 0.0008051593826290135 0 0.0076160288741704699 0.0034078455698553843 0 0.0090255689244430996 7:3 13:1 18:1 31:1 35:1 39:1 79:1 695:1 1419:1 1711:1 1712:1 1713:1 
0 0 0.030326257145354661 0 0.05409647996918121 0 0.029407242507312914 0.0061551544166899667 0 245:1 435:1 776:1 
0 0 0 0 0 0 0 0.0019361684917996833 0 3:1 7:1 31:1 34:1 85:1 249:1 669:1 1714:1 
0.012614324438660042 0.0089280251632371348 0 0.0051194587167372047 21.069973937142755 0.04944702620535437 0 0 32768 256:1 
0 0.0084557299911795537 0.0041320487152495203 0 0 0.037145231849410279 0.012771735246609644 0.0035325871446645553 0 3:1 40:1 101:1 960:1 1715:1 
0 0 0.003339156871331469 0 0 0 0.0041240595094368645 0 0 7:2 101:1 121:1 488:1 512:1 759:1 1026:1 1716:1 
0.0079968201742533478 0 0.0087371862440273375 0 0.0063423030678706176 0.016978724119599484 0.0042370418612729154 0 0.010087396006221896 7:2 48:1 101:1 484:1 679:1 1717:1 
0.005914214725800471 0.0078775284139048114 0.0080828072319001961 0 0 0.017534504642067739 0 0 0 40:1 232:1 1708:1 
0 0.035634572780192504 0 0.0029195156752382908 0 0 0.0070982096974964888 0 0 7:2 9:1 31:1 167:1 192:1 201:1 233:1 236:1 612:1 1073:1 1179:1 1685:1 
0.00012550015067162596 0.0065321039820670571 0 0.0032471454185162051 0 0 0.001151977126607375 0 0.00075838515350193001 6:1 7:1 9:1 13:2 34:1 40:1 43:1 425:1 432:1 572:1 1191:1 1253:1 1718:1 1719:1 1720:1 1721:1 1722:1 1723:1 1724:1 
0 0.023455333420481617 0.0022090928841283558 0 0.004565419120026875 0 0 0 0.00040413262398993738 9:1 13:1 35:1 68:1 418:1 985:1 1028:1 1725:1 
0.0011616681983596499 0 0 0.00096465125540898223 0.0039811118085651921 0.00050714837745094628 0.001807586132691692 0 0 7:2 13:1 14:1 35:1 118:1 764:1 1726:1 1727:1 1728:1 1729:1 1730:1 1731:1 
0 0 0 0 0 0 0.0077551411578058614 0 0 7:1 610:1 1732:1 
0.004075696708479278 0 0.0031554661413393439 0.00089251247990129105 0.010603632832679618 0 0.003702818225236501 0 0.0039088876143749266 6:1 7:3 13:1 22:1 31:1 32:1 34:1 40:2 88:2 101:1 113:1 135:1 145:1 657:1 787:1 856:1 1154:1 1214:1 1733:1 1734:1 1735:1 
0 0 0 0 0 0.00096841792280621735 0 0.0012668028295547049 0.0023174010800541597 6:1 7:2 9:1 13:1 22:1 50:1 85:1 252:1 360:1 436:1 666:1 1575:1 1736:1 1737:1 1738:1 1739:1 1740:1 
0.00055154405987742317 0 0.00066413273091107039 0 0.0054495141024890727 0 0.0015796806625692206 0 0.00045328482127082829 7:4 13:3 35:2 40:4 48:1 101:2 252:1 295:1 298:1 300:1 320:1 335:1 1105:1 1744:1 1745:1 1746:1 1747:1 1748:1 1749:1 
0.0025465825394495579 0.0082349965286212419 0.0015767591248495919 0 0.0025160137829417215 0.011098834828320484 0.0033372016393162954 0.0022729911890032022 0.014443187011178627 7:1 32:1 34:1 40:1 59:1 1410:1 1750:1 1751:1 1752:1 
0.045354657925638336 0 0 0.00312098290354486 0 0.0028609265490271915 0 0 0 3:1 7:1 9:1 201:1 1146:1 1753:1 
0 0.0012149599378347429 0.0017247060698124925 0 0.0016711575863850429 0.0090374342956647345 0 0.0029948117152817011 0 14:1 31:1 229:1 1754:1 1755:1 
0 0 0.00079814628819140717 0 0 0 0 0 0 7:3 9:1 13:2 26:1 34:1 40:3 48:1 90:1 100:1 101:1 196:1 259:1 355:1 427:1 643:1 644:1 789:1 885:1 892:1 893:1 1182:1 1640:1 1756:1 1757:1 1758:1 1759:1 
0 0.0068358304533615039 0 0 0.0049343609601160254 0 0.0022081837865750194 0 0 3:1 6:3 7:4 13:1 18:1 22:2 35:1 85:1 113:1 121:1 131:1 133:1 356:1 360:1 427:1 1095:1 1176:1 1188:1 1760:1 1761:1 1762:1 
0 0 0 0 0 0.0099760862303984611 0 0 0 6:2 7:1 9:1 13:2 22:2 31:1 40:1 79:1 101:1 207:1 352:1 360:1 1095:1 1176:1 1763:1 1764:1 1765:1 
0.0033116986086731675 0.0040253592816976479 0.0068972179283116782 0 0.010088443513798027 0 0.0066142964019661856 0.0083120181802993579 0 5:1 7:9 13:9 14:2 100:1 101:1 378:1 979:1 1167:1 1359:1 1598:1 1688:1 1766:1 1767:1 1768:1 1769:1 1770:1 1771:1 1772:1 1773:1 1774:1 
0 0 0.0069228703499047044 0 0 0.016896878038590496 0 0 0 716:1 978:1 
0.00053487605314196998 0 0 0 0.00071881874631434396 0 0 0 0 6:2 7:3 9:2 13:3 14:2 31:1 35:2 48:1 85:1 100:1 290:1 456:1 666:1 744:1 764:1 1203:1 1222:1 1685:1 1775:1 1776:1 1777:1 1778:1 1779:1 1780:1 
0.0036200817035279046 0 0.0027546715626383272 0.0015891686974914504 0.011986743032559396 0.020899931074876248 0 0 0 7:1 9:1 35:1 40:1 1781:1 1782:1 
0.0026293683315629585 0.0092499689652447391 0.0033787883197162654 0 0 0.010620910589469424 0 0.0035124891476820742 0 7:1 13:1 427:1 944:1 1785:1 1786:1 
0 0 0 0 0 0 0.0014282014699408094 0 0.00014286238044153632 6:1 7:4 9:1 22:1 34:1 35:1 37:1 40:3 41:1 79:1 84:1 603:1 612:1 764:2 872:1 939:1 1101:1 1787:1 1788:1 1789:1 1790:1 1791:1 1792:1 1793:1 1794:1 1795:1 
0 0.0085553359926441239 0.0073256989946017918 0 0 0 0.0061781629866014109 0.0014912221121465147 0 207:1 842:1 1456:1 1796:1 
0 0 0 0 0.00071515174946630198 0 0 0.00099269269349030499 0 7:5 13:2 23:1 40:1 339:1 441:1 625:3 1100:1 1144:1 1415:1 1797:1 1798:1 1799:1 1800:1 
0 0 0 0.00053327551206963154 0.010997620549229845 0.013535495395288429 0 0.0038216644738179196 0 7:2 9:1 13:1 35:1 440:1 457:1 505:1 605:1 1801:1 1802:1 1803:1 
0.0010964452894436133 0.0038872645654550626 0 0 0 0 0.001850775209881252 0 0.0058240809698764523 7:2 9:1 13:1 14:1 29:1 31:1 40:1 48:1 145:1 196:1 368:1 405:1 730:1 926:1 982:1 1064:1 1804:1 1805:1 1806:1 1807:1 1808:1 1809:1 
0 0 0 0 0.0044920020914157761 0 0 0 0 5:1 6:1 7:4 9:2 13:2 14:2 31:2 40:1 135:1 293:1 297:1 451:1 572:1 929:1 1233:1 1430:1 1810:1 1811:1 1812:1 
0 0.0045783371891909867 0 3.0455366243410186e-06 0.0030784031301456503 0 0 0 0 6:1 7:1 9:1 13:5 31:1 34:1 35:1 40:1 85:1 100:1 293:1 1233:1 1420:1 1813:1 1814:1 1815:1 1816:1 1817:1 
0 0 0 0.001994008261503798 0 0.001944518054636671 0 0 0 7:1 9:2 13:2 40:2 101:1 118:1 135:1 225:1 483:1 827:1 1818:1 1819:1 1820:1 
0 0 0 0.0035458146476365386 0 0 0 0 0 3:1 13:1 31:1 103:1 113:1 157:1 220:1 1821:1 1822:1 1823:1 
0 0 0.00037811303733923545 0 0.00091762723135357732 0 0 0 0.0028331995919137236 7:1 9:1 13:3 31:1 40:2 47:1 85:1 451:1 455:1 458:1 677:1 1355:1 1368:1 1824:1 
0.0028523966224803482 0.10064557653912957 0 0 0.020430116082708481 0.04625107065525564 0.0093929593183536293 0 0.0060367115907462585 7:1 13:1 32:1 40:1 84:1 100:1 123:1 669:1 
0.0040556062253935717 0.020670577088816051 0.0035712005879068929 0.00091489690433655844 0.0049213931958326648 0.022015434209999078 0 0.0033626772136221197 0.018677686119625891 6:1 7:1 9:1 34:1 48:1 143:1 198:1 561:1 666:1 1825:1 1826:1 
0.0049247714229669155 0 0.0098402877456229727 0 0 0.0054242497987811895 0 0.0024791601169642905 0.00062249914438184534 13:1 31:1 40:1 1080:1 1222:1 1829:1 
0 0.0082326157674663947 0 0 0 0.0062854277577091364 0 0 0 6:1 7:1 13:1 35:1 79:1 464:1 1830:1 
0.0033509273955230506 0.0044669818904168688 0.0041751632144637575 0.00055811757154405331 0.0033576029675286981 0.0056860510632436717 0.0042341510313965757 0.0042787972045266907 0 7:1 31:1 687:1 1831:1 1832:1 
0 0 8.885633623982158e-05 0 0 0 0 0 0 5:1 7:3 13:1 23:1 31:4 35:1 37:1 41:1 48:1 113:1 252:1 298:1 437:1 695:1 764:1 845:1 1101:1 1608:1 1821:1 1833:1 1834:1 1835:1 
0 0 0 0 0 0 0 0 0.0058609844652485086 6:2 7:3 13:1 34:1 50:1 87:1 143:1 791:1 1167:1 1836:1 1837:1 1838:1 
0 0.025636335759581418 0 0 0 0 0.0018961503729108774 0 0.0299991047913605 7:1 13:2 31:2 59:1 85:1 111:1 227:1 232:1 252:1 
0.00091924143111731568 0 0 0 0 0 0 0 0.0047875466158534422 7:2 13:5 14:1 22:1 31:1 34:2 40:2 59:1 64:1 65:1 143:2 298:1 410:1 451:1 764:1 810:1 1061:1 1101:1 1839:1 1840:1 1841:1 1842:1 1843:1 
0.0043886833273776293 0 0.0042054250749567219 0 0.029742083253464984 0 0 0 0.017372924349887107 6:1 7:2 13:1 31:1 113:1 135:1 232:1 1796:1 1844:1 
0 0.0067946043979338405 0.0063471911724775837 0 0.0032762362445714305 0.0075716699112194788 0.0030336457416251313 0.0031103502456908843 0 13:2 814:1 1845:1 1846:1 
0.0031163953187713345 0.0049317858326510021 0.0019031027443689045 0 0.0085169857365985178 0.012544770771878929 0 0 0 13:1 31:1 101:1 113:1 713:1 1847:1 1848:1 
0.0035938566358657323 0.013797842578686454 0 0.0025893881171360042 0 0.0058171246373463171 0.0024045438154456683 0 0 3:2 6:5 7:2 9:1 13:6 31:2 40:2 43:1 79:2 101:1 145:1 451:1 534:2 664:1 827:1 929:1 1560:1 1836:1 1849:1 1850:1 1851:1 1852:1 
0.0015896673128387609 0 0.0046190009935453257 0.0014470019222356278 0.010888066609885538 0 0.0013322047521834798 0.00056462822270914503 0.0019688976211738748 6:1 7:7 9:1 13:4 18:1 31:5 35:1 42:1 43:1 168:1 198:1 225:1 232:1 402:1 437:1 451:1 534:1 607:1 840:1 997:1 1171:1 1251:1 1853:1 1854:1 1855:1 1856:1 
0 0 0 0 0 0 0.0019816225447743443 0 0 7:3 13:1 47:1 48:1 79:1 129:1 135:2 313:1 522:1 808:1 1825:1 1857:1 
0.0043883075794332906 0.015825880519911847 0.0012826747268949064 0 0.031549335091649366 0.0017063902605734132 0.0040693915175905237 0 0.013001838743544863 7:4 13:2 22:1 35:1 40:1 42:1 101:1 264:1 297:1 320:3 340:1 427:1 505:1 781:1 1858:1 1859:1 
0.0026165493680373022 0.003320046136595178 0 0.0011963671630993392 0.0062898153103157512 0.0068897266443332227 0 0 0 13:1 31:1 1521:1 1860:1 1861:1 1862:1 
0.0020955801511415061 0.012796815720679417 0.0027837500399495564 0.00087300968171907746 0 0.0099051779049317522 0.0030047080321980841 0.00073894116606572542 0 3:1 7:1 13:6 22:1 31:1 35:1 40:1 101:1 485:1 845:1 864:1 909:1 1171:1 1863:1 1864:1 1865:1 1866:1 1867:1 
0.0055381055499323911 0.0062256258349240416 0 0.078899319312605465 0.0037986298634458209 0 0.0083279041760719562 0 0 7:3 610:1 625:3 
32768 0 0 0.00026824882619635922 0.0010025750800335979 0 0 0 0 6:1 7:2 13:1 14:1 22:1 34:1 135:1 1167:1 1868:3 1869:1 1870:1 1871:1 
0 0.0069132367485789355 0 0 0 0 0.0022433979192001711 0 0 7:4 9:1 13:3 31:1 34:2 40:2 48:1 100:1 281:1 298:1 489:1 552:1 610:1 1171:1 1575:1 1871:1 1872:1 1873:1 1874:1 
0 0 0 0.0038159396936731861 0 0.00040735533436815922 0.0019967245915576038 0 0 7:3 13:1 22:1 40:1 183:1 298:1 625:3 766:1 1135:1 1167:1 1171:1 1875:1 1876:1 
0.0019797095678023443 0 0 0 0.00048570766297544271 0.0021979499906063485 0 2.4945618202738308e-05 0 7:2 13:7 14:1 35:1 40:1 63:1 85:1 101:1 245:1 298:1 491:1 508:1 523:1 886:1 1047:1 1171:2 1309:1 1840:1 1877:1 1878:1 1879:1 1880:1 1881:1 1882:1 1883:1 
0 0 0.0014019372697536903 0 0 0 0.00085700243185261708 0 0 1:1 7:5 9:1 13:3 22:1 23:1 31:2 34:1 35:2 37:1 40:2 41:1 55:1 100:1 162:1 180:1 764:1 767:1 880:1 883:1 1030:1 1101:1 1182:1 1884:1 1885:1 1886:1 1887:1 1888:1 
0 0 0 0.0030617179630331942 0 0 0.0020580179121836963 0.001803726410988286 0 3:1 7:1 13:2 14:1 34:1 35:1 114:1 298:1 501:1 1889:1 1890:1 
0 0 0 0 0.0038272671539443192 0 0.0032365732838662781 0.012741832114992118 0 6:1 7:1 22:1 129:1 808:1 1891:1 
0 0 0 0 0.015220253311443648 0 0.039133955172549188 0 0 7:1 135:1 391:1 664:1 
0.0021469108935187543 0 0 0 0.0014033521009093242 0 0.0018873227049013494 0.012662434920709575 0.0013072627259222301 6:1 7:5 9:1 18:1 50:1 68:1 302:1 358:1 390:1 508:1 635:1 1892:1 
0.0038666298010478313 0 0.0050474092669643717 0 0 0 0.0012860292738166492 0.0022693955299731639 0.0071571517991882794 6:1 7:4 22:1 101:1 135:1 191:1 252:1 367:1 370:1 416:1 716:1 1103:1 1409:1 1893:1 
0.0026490193951642493 0.0050597092549141201 0.001806713382450389 0.0013451855273355457 0.0080213999985153193 0 0.0021759006353787827 0.0036827381232948271 0 3:1 6:1 7:2 13:4 40:2 100:1 598:1 886:1 1894:1 1895:1 1896:1 1897:1 
0.0013118994366317128 0.0032072584171720683 0 0.0015987888584618605 0 0.0042262831150029004 0 0 0.0021223962294764582 7:1 9:3 13:2 31:1 34:1 35:1 40:2 48:1 151:1 184:1 207:1 370:1 420:1 513:1 576:1 593:1 683:1 788:1 820:2 1169:1 1898:1 1899:1 1900:1 1901:1 1902:1 
32767.41729942679 0 0 0 0 5.269202908287026 0.53433998742502276 0.008981523488975825 0 6:1 232:1 
0.0070899729875696475 0.0098331781244085092 0 0.0012095941006091007 0 0.026266403653278887 0.009771824131976305 0.012448974920033141 0 3:3 5:1 7:1 13:1 48:1 249:1 379:1 534:1 1907:1 
0 0 0.015640701220074049 0.0043120602076944532 0 0.35467111212030128 0.0042436671636615891 0 0 7:1 9:1 34:1 43:1 233:1 666:1 
0.0049836885440068387 0 0 0 0 0.015328916055104913 0 0 0 14:1 428:1 802:1 
0 0.00015950577818435923 0.0012856348219213247 0.00026584537663997974 0.0037277204277448134 0 0 0.0012287989481058897 0 3:2 5:1 7:3 9:1 13:2 14:1 34:1 40:2 85:1 103:1 157:1 160:1 166:1 178:1 225:1 281:1 426:1 802:1 1037:1 1613:1 1782:1 1908:1 1909:1 1910:1 1911:1 1912:1 1913:1 1914:1 1915:1 
0.0055210979847184483 0 0 0 0 0.020963016745971532 0 0 0 13:1 501:1 860:1 
0.0015880629084955163 0 0.0041341564945754118 0.0028870933771329558 0.0053659938254705698 0 0.0054977190761764071 0.0063022898688838772 0.0029910891513228862 3:1 6:2 7:8 9:1 13:3 22:1 31:1 40:1 79:1 101:1 113:1 135:1 172:1 969:1 1182:1 1629:1 1916:1 1917:1 1918:1 1919:1 1920:1 1921:1 1922:1 1923:1 
0 0 0.0014761598122358978 0 0 0 0 0 0 7:2 13:1 14:1 17:1 512:1 1026:1 1257:1 1716:1 1924:1 1925:1 
0 0 0.008328030660319008 0.0025023496378772892 9.9044649046708369e-05 0.045735252978245253 0 0 0.025758143603927613 9:1 22:1 101:1 145:1 164:1 665:1 1926:1 
0 0 0 0.0045938566461387609 0.011506740605621152 0.0076256179021420723 0 0 0 7:1 40:1 135:1 1629:1 1927:1 1928:1 
0 0 0 0 0 0 0.0014499157805978014 0.00042097217198132462 0 1:1 7:1 13:1 40:2 48:1 142:1 201:1 679:1 1182:1 1608:1 1929:1 1930:1 1931:1 1932:1 1933:1 1934:1 
0 7.8343503671372179e-05 0 0.0012057176717541168 0.0014527436365545663 0 0 0 0.00093930479455232776 7:1 13:2 14:1 23:1 1772:1 1936:1 1937:1 1938:1 1939:1 
0 0.00028381436748161205 0 0 0.0047043254493222084 0 0 0 0.0084065568680107509 6:1 7:1 31:1 192:1 409:1 679:1 845:1 1372:1 1940:1 
0 0 0 0 0 0 0.001805541683672631 0 0.0088034177809027132 7:2 13:1 29:1 34:1 35:1 164:1 916:1 1028:1 1142:1 1428:1 1585:1 1586:1 1941:1 
0.0070659869249679787 0.007343263094608761 0.010679945653383937 0.0055186901306805191 0.0070353088272311582 0.021533718515940999 0.0083391104224683228 0.0023985267821137321 0.0064561484205319774 7:2 43:1 47:1 87:2 1942:1 
0.0050751757331461214 0 0 0 0.0062802689793876824 0 0 0 0 7:1 35:1 48:1 245:1 1943:1 
0 0 0 0.004004372910799755 0.014303111147617367 0 0.0060223644890729407 0 0 7:2 13:1 35:1 40:1 129:2 165:1 572:1 1944:1 
0 0.012711656849713438 0.0107606885747322 0 0 0.038531389769419652 0.0052757469165135773 0.0044425980401308855 0.028448704253535555 13:1 257:1 831:1 1455:1 
0.17236684419864612 0 0.01314093853687282 0.024052329456423469 0.015208911458789706 1.0508310117683133 0.047348078025155248 0.014328550527822352 0.013518523548930728 24:1 501:1 
0 0 0.006212711088024285 0 0 0 0.0018550421091868129 0 0 428:1 1945:1 
0 0.040755756347918289 0.006229113794335335 0.0035802151644627909 0.035962341691473318 0.025294663178577065 0.0017550499047976032 0 0 6:1 22:1 35:1 43:1 236:1 561:1 1946:1 
0 0 0 0.002216465109376624 0.0040473905712010679 0.027447142879093223 0.0097397387121541511 0.0090988275681980757 0 501:1 1947:1 
0.0072280151052664899 0 0 0 0.14367342183195486 0 0.012845051213195381 0.00085347544621965446 0 6:2 9:1 43:1 133:2 
0.0045599621105488486 0.031252305238699728 0.0060070285079466892 0.0052341447267995975 0.019979701512286088 0.027701472766404171 0.0055474311987716548 0.0063451726850695458 0.0072977352652621313 7:1 35:1 1028:1 1948:1 
0.0044004979479155227 0 0.010318718142567128 0 0.0070929781265276493 0 0.0044761120652473682 0.014836711845883799 0.003325206367943691 7:4 48:1 1949:1 1950:1 
0.0060586607812004572 0.0040932975047699178 0 0.0019107639285063933 0 0 0 0 0.0039549129629947001 3:1 7:1 13:6 31:2 35:1 45:1 68:1 105:1 143:1 483:1 491:1 522:2 1951:1 1952:1 1953:1 1954:1 1955:1 1956:1 1957:1 
0 0.015237158645930638 0 0.014908553024881628 0.0035392421792073622 0.011329663211952881 0 0.0026061189823901052 0 31:1 40:1 623:1 781:1 1189:1 1958:1 
0.0041156988953542101 0 0.0038295503116028101 0.0013573843240922445 0.010026471399967358 0.0025882493008866935 0.0079225480803447358 0.00124710060371458 0.00052455710615998525 3:1 7:2 19:1 22:1 34:2 40:1 112:1 113:1 534:1 755:1 1959:1 1960:1 1961:1 
0.024717346820742225 0 0 0 0 0.021140667099680766 0.053672300943437265 0 0 916:1 
0 0 0.0008188003385208129 0 0 0.0099332590158498508 0 0 0 3:1 7:2 9:2 13:3 22:2 31:1 40:1 43:1 48:1 101:1 145:1 191:1 192:1 240:1 375:1 666:1 730:1 764:1 1962:1 1963:1 1964:1 1965:1 1966:1 1967:1 
0.0013124573184862302 0 0 0.00072130835449305756 0.019340702125871273 0 0.0015341671997238389 0 0 7:5 9:1 13:2 14:2 18:1 22:2 31:1 34:2 35:3 40:1 163:1 191:1 241:1 358:1 862:1 864:1 1272:1 1334:1 1500:1 1891:1 1968:1 1969:1 1970:1 1971:1 1972:1 1973:1 1974:1 1975:1 
0.0011006814596827949 0 0.0007914270958964989 0.0020241911746482215 0.0025643329268961847 0.0057122156951326291 0.0014842479373375879 0 0.0043413383079237413 3:1 7:1 9:1 13:2 31:2 34:1 35:2 40:2 101:1 129:1 145:1 156:1 157:1 165:1 298:1 485:1 630:1 644:1 726:1 1976:1 1977:1 1978:1 1979:1 1980:1 1981:1 1982:1 1983:1 1984:1 1985:1 1986:1 
0 0.01136048024255194 0 0 0 0.023496999350624537 0.0007434390866504219 0.00074657419000789978 0.0040831342140036269 3:2 5:1 6:1 7:2 13:3 14:1 32:1 40:2 47:1 48:1 101:1 191:1 315:1 377:1 505:1 508:1 664:1 891:1 893:1 971:1 1671:1 1987:1 1988:1 1989:1 1990:1 
0.0028581738965260959 0.0080831458678941089 0.0057079058691104773 0 0.011433663022217913 0 0.0042616468443228243 0.0010531883225948242 0 7:4 13:2 35:1 236:1 610:1 644:1 1991:1 1992:1 1993:1 1994:1 1995:1 
0.00096410208145519816 0.0019589950985397049 0.0055359542369089404 0.0038556494506743178 0.010945343079461739 0.0044070017149733156 0.001492661817563074 0.0010162166222237754 0.0013702242360501384 7:3 13:3 22:1 23:1 35:1 40:1 393:1 928:1 1345:1 1468:1 1996:1 1997:1 1998:1 1999:1 2000:1 
0.0025520245103005119 0.062477454504535006 0.002013112315682393 0.013542893417798765 0.081074599916548903 0 0 0 0 7:3 13:1 35:1 143:1 185:1 203:1 947:1 1166:1 2001:1 
0 0 0.0015664773176486957 0.0014290601156813087 0.0019720171754978089 0.0077626633196065465 0.0021682362624960232 0 0 7:2 9:1 13:1 22:1 31:1 40:1 1098:1 1111:1 2002:1 2003:1 2004:1 2005:1 
0 0.0085573842195171435 0.00068513422112752753 0.00068795608489364971 0.001431265278349881 0 0.0015672105866742564 0 0 6:1 7:2 13:4 14:2 22:1 34:1 35:1 40:2 101:1 129:1 173:1 232:1 252:1 961:1 1192:1 1452:1 1790:1 2006:1 2007:1 2008:1 2009:1 2010:1 2011:1 2012:1 2013:1 
0 0 0 0.0044603882278288817 0.0019529240702816216 0 0 0 0 6:1 7:2 9:1 13:3 14:1 22:1 31:1 34:1 38:1 40:1 85:1 113:1 143:1 185:1 666:1 798:1 860:1 2014:1 2015:1 2016:1 2017:1 
0 0.0007550182417806479 0 0.00066882972392250692 0 0 0 0 0 7:1 14:1 35:1 233:2 236:1 252:1 269:1 370:1 820:1 1031:2 2018:1 2019:1 2020:1 2021:1 2022:1 2023:1 
0 0 0 7.1596520875137452e-05 0 0 0 0 0 590:1 
0.001409885889233765 0 0.010622090038885479 0.0040941473527012729 0.010013266779526348 0.039028687096531074 0 0 0.014514979120874105 9:1 13:1 31:1 68:1 101:1 135:1 236:1 302:1 971:1 2024:1 
0 0 0.0006383548460706809 0 0 0.0025429978665635531 0 0 0 6:2 7:4 9:2 13:4 14:1 23:2 31:1 34:1 35:1 38:1 40:1 85:1 124:1 156:1 623:1 666:2 793:1 798:1 1041:1 2017:1 2025:1 2026:1 2027:1 2028:1 2029:1 
0 0 0.0062517176187956817 0 0.015937110558675069 0 0 0 0 6:1 7:6 13:3 14:1 22:1 23:4 31:2 35:2 136:1 243:1 505:1 1954:1 2030:1 2031:1 2032:1 
0 0 0.041364339515164453 32767.981293155288 0 0.023113623210416861 0 0.005652308157634363 0 9:1 2033:1 
0 0 0 0 0.00063460763026773896 0 0 0 0.0038878822560660404 7:4 23:2 31:3 35:1 79:1 80:1 85:1 135:2 143:1 243:1 298:1 325:1 370:1 541:1 788:1 820:1 1438:2 2034:1 
0.0034535431782105244 0.016734622899269195 0.002111623802577108 0.0023489313111279965 0.010555882660759772 0 0.0045487788684920386 0.001556864045157305 0.0046846692106825511 6:1 7:5 13:1 14:2 35:1 40:4 183:1 232:1 427:1 486:1 534:1 879:1 1485:1 1540:1 1688:1 1954:1 2031:1 2035:1 2036:1 2037:1 
0.0032805239234191819 0.017531351205084231 0.0031376876519773147 0 0.016807683115635127 0.0017519573060510063 0.0019849064474659257 0.00064080869454643012 0.0069224600491196364 7:4 13:2 31:1 35:2 40:2 50:1 59:1 101:2 601:1 644:2 1343:1 1352:1 2038:1 2039:1 2040:1 
0.00086292864378955281 0.0078061278264105914 0 0.0034298806489060046 0.013044019782448747 0 0.0010198070393950078 0 0 13:3 14:1 22:1 31:1 40:1 43:1 129:1 133:1 142:1 313:1 456:1 522:1 730:1 893:1 1182:1 2041:1 2042:1 2043:1 2044:1 
0 0.012509661488748852 0.0025283018318537492 0.00095039685137775567 0 0.008527819762000264 0.0034035340200941691 0.0021605659595056248 0.001396562380642392 31:1 143:1 427:1 1346:1 2045:1 2046:1 2047:1 
0.0031210330650846977 0.010086415124739215 0.0034962146926430441 0.0026884801288987632 0 0.0042181565299576748 0.0016771448312838146 0.0022121818325418507 0.0089904913867389618 3:1 7:4 13:6 14:1 32:1 40:1 352:1 360:1 388:1 511:2 522:1 893:1 986:1 1029:1 1120:1 1182:1 1432:1 1810:1 2048:1 2049:1 2050:1 2051:1 2052:1 
0.0096144115524199932 0.085684828086870862 0.0048429358597811998 0.019013798243206457 0.012563448210950285 0.037851127193763892 0.0044119023641964288 0 0 13:1 31:1 175:1 1806:1 
0.0031957695528636912 0 0.0044723269315298207 0.00077404704049766743 0.0042409702437302297 0.0083582232936557626 0 0.0052296394415323744 0.0011179933083973043 7:1 696:1 1828:1 2053:1 2054:1 
0 0 0 5.7379302520925127e-05 0 0 0 0 0 7:2 9:1 34:3 35:1 37:1 41:1 121:1 122:1 423:1 590:1 1030:1 1164:1 1255:1 1638:1 2055:1 2056:1 
0.0067879228722045404 0 0.010747717878002529 0 0.0045425988112960825 0.0054411453462142219 0.005095712821357859 0.0034526624007399785 0.0014385740867141653 7:4 13:1 32:1 227:1 370:2 1203:1 2057:1 2058:1 
0 0 0.00059213133090111974 0 0.0054123857342594645 0.029278773576900063 0.00080385760239089406 0.0007502305867743052 0 7:5 13:4 23:1 40:2 43:1 409:1 441:1 485:1 612:1 625:3 664:1 666:1 760:1 1094:1 1790:1 2059:1 2060:1 2061:1 
0.0087541620361732929 0 0.0036429001841921174 0.0028479163767336198 0.037715141490044034 0 0.015747840032952598 0.0082400348674666855 0 31:1 652:1 665:1 
0 0 0.0010564014631488697 0 0 0.002829295757703687 0 0.0032379304138821642 0.00197816121235648 3:1 7:1 13:2 31:1 85:1 148:1 210:1 212:1 217:1 505:1 578:1 621:1 1452:1 1456:1 1520:1 1891:1 2062:1 
0 0.0014579174551885576 0 0 0 0 0.0015202170628231459 0 0 7:1 9:1 13:2 34:1 40:1 228:1 776:1 793:1 1483:1 2063:1 2064:1 
0.0030788029357283215 0.024711297448038766 0.013867344385352354 0.0013659740598264119 0.024205173261195874 0 0.0032441505047493872 0.001750703046896497 0.010267221461292567 3:1 7:4 13:2 31:1 40:1 111:1 145:1 233:1 302:1 370:1 435:1 561:1 744:1 891:1 1837:1 2065:1 2066:1 
0.00094531646268997311 0 0 0 0 0 0 0.0008970674361778886 0.0058541383068919086 3:1 5:1 6:3 7:3 9:2 31:1 43:1 48:1 79:1 101:1 617:1 738:1 879:2 1034:1 1585:1 1586:1 2067:1 2068:1 
0.0022841429547232027 0 0 0 0 0 0.0094697717746888115 0.0032186376053737571 0.0052724456959492615 3:2 6:3 7:4 13:3 31:2 35:1 40:1 47:1 48:1 101:1 111:1 337:1 370:1 1437:1 1837:1 2069:1 2070:1 2071:1 2072:1 2073:1 2074:1 
0 0 0 0.00085715446646544597 0 0 0 0 0.00073437011145459916 3:1 6:1 7:4 9:2 13:1 31:1 35:2 40:1 48:1 85:1 143:1 491:1 561:1 576:1 730:1 814:1 827:1 2072:1 2075:1 2076:1 2077:1 
0 0.0016824967099425318 0 0 0.0048634671517117801 0 0 0 0 6:1 7:2 9:1 13:3 31:3 40:3 42:1 103:1 113:2 147:1 252:1 415:1 971:1 1583:1 2078:1 2079:1 2080:1 2081:1 2082:1 2083:1 
0 0 0 0.00075719766581217312 0 0 0 0 0.004543138351530353 3:1 6:1 7:3 9:1 40:1 42:1 48:2 85:1 100:1 118:1 232:1 269:1 388:2 389:1 391:1 879:1 1857:1 2084:1 2085:1 2086:1 2087:1 
0.0056528337314181269 0 0 0.0010366839702501331 0.0058888285821320843 0.00401329214173635 0 0.0050560334377695929 0.0084141725906443851 6:1 40:1 1760:1 2088:1 
0 0.0035317204844820438 0 0 0 0 0.002040779791377235 0 0.010873747868192949 3:1 7:3 9:1 13:1 14:1 35:1 42:1 79:1 101:1 232:1 252:1 298:1 434:1 569:1 588:1 591:1 635:1 979:1 1573:1 2089:1 2090:1 2091:1 2092:1 2093:1 2094:1 2095:1 
0 0 0 0.00038448722359644847 0.007091282558782031 0 0 0 0 7:1 35:1 2096:1 2097:1 
0 0 0 0 0.01133226972861443 0 0 0.0019958839274077148 0 6:1 7:1 40:1 118:1 164:1 505:1 2098:1 2099:1 
0 0 0 0 0.002946993733432737 0 0 0 0 6:1 7:1 40:1 51:1 85:1 1013:1 2105:1 2106:1 2107:1 
0.0007672259772359153 0 0 0 0.006057957959125713 0 0 0 0 3:1 6:1 7:3 9:2 13:3 31:3 35:1 48:1 113:2 245:1 331:1 487:1 821:1 953:1 1367:1 1711:1 1960:1 2108:1 2109:1 2110:1 2111:1 2112:1 2113:1 2114:1 2115:1 
0 0 0.0023067034198796734 0 0 0 0 0 0 7:1 13:2 137:1 1512:1 2105:1 2116:1 
0 0.036951910169945548 0 0.0086662186107798467 0.02894079279294471 0 0 0 0.033955481698628699 133:1 1521:1 
0.0088544936298843302 0.016966705269506419 0.015978668440535148 0.0011768838269104161 0.007911797809355036 0.038479987747226302 0.0033355369686809007 0 0.0084062564852320117 7:2 9:1 13:1 43:1 99:1 101:1 388:1 781:1 2117:1 
0.002977559686531424 0.0020290094383170042 0.003841013282146716 2.2328704652493839e-05 0.0083852520178066912 0 0.0024915743262170767 0.0017259449028484671 0.003515847865139669 1:1 7:6 13:2 23:1 34:1 35:2 45:1 101:1 419:1 554:1 576:1 1123:1 1450:1 2118:1 2119:1 2120:1 2121:1 2122:1 2123:1 2124:1 
0.0033732967976789737 0.0027357418698728052 0.0017472687864688269 0.00081977297937107488 0 0 0 0.0035100910884920331 0 7:2 40:1 48:1 245:1 416:1 600:1 623:1 2121:1 2125:1 
0.0088182217482966063 0.079796231099433901 0.010106234294104345 0.018487492264809731 0.0096050065210253541 0.0082439182120266248 0.0080111443161534068 0.0035337537808960043 0 7:1 112:1 157:1 791:1 1191:1 
0.0064070024795879433 0.0071809871344971372 0.003646702066459047 0.0022446898539841631 0 0.018208045502635557 0.0054791645693300882 0.0031656400906351413 0.0088169056485101448 326:1 920:1 1157:1 2126:1 
0.0078125000000000069 0 0 0 0.0049023545900127655 0 0 0 0 6:1 7:1 978:1 2127:1 
0.002444635094915844 0.00046050683111976574 0 0.00069055228992678406 0.0055269231936431436 0.022424279438392643 0 0.001392155180908418 0 13:1 14:1 40:1 2128:1 2129:1 
0.002094891338037406 0.011304305312251373 0.006304694428026638 0.0021043204675815124 0 0.023190335944591644 0.0088418137772823292 0 0 131:1 2130:1 
0.0058578561050264535 0 0.0059053863291598169 0.001441921326344753 0.0010585716045833802 0.043372112255782892 0 0.0061356169103682504 0 9:1 2131:1 
0.010775013435718461 0.040428340244790931 0 0.011571085578916023 0.002766637447592854 0.043754925298764666 0.020420365884922145 0 0 7:1 13:1 31:1 88:1 101:1 157:1 1438:1 
0 0.01619484899453057 0.0025164716292181751 0.0074171610923399215 0.0015412951341437786 0 0 0 0 7:1 13:1 34:1 35:1 201:1 576:1 2132:1 2133:1 2134:1 2135:1 
0.051515406373751488 0 0.013259521914505294 0 0.016725024612547188 0.058787217804619714 0.010560887695157506 0 0 101:1 1272:1 2136:1 
0 0 0 0 0 0 23499.10276802595 0 0 29:1 
0 0 0 1.6815436478806844e-05 0.0053093330050312448 0 0 0 0 7:2 13:1 40:1 135:1 1419:1 1932:1 2054:1 2137:1 2138:1 2139:1 
0.0023795926575785019 0 0 0 0 0 0 0.0030576402903683617 0.0051325414581449968 6:1 7:1 31:1 48:1 252:1 732:1 2140:1 
0.0030328107125753125 0.0027427715911039745 0.0018380605329430455 0 0 0 0 0.0015994154603271246 0 7:2 9:1 13:1 31:1 40:1 101:1 261:1 781:1 1439:1 2141:1 2142:1 2143:1 
0 0 0 0.0020750374590075239 0 0 0 0 0.0013313844320959408 7:1 13:1 35:1 143:1 388:1 462:1 464:1 576:1 1622:1 2144:1 2145:1 
0 0.030653845295723101 0 0 0 0 0 0 0 6:1 7:1 13:2 40:1 43:1 101:1 143:1 251:1 508:1 2146:1 
0 0.0071679644452786271 0 0.00073213325172666961 0 0 0.0014802150809925651 0 0 13:1 34:1 35:1 48:1 201:1 1013:1 1028:1 2105:1 2147:1 2148:1 
0 0 0 0 0 0.011607098758061488 0.0040569086202806876 0 0.0026627640374623628 13:1 40:1 121:1 297:1 840:1 2149:1 
0 0.01222433251252239 0.0079039875320876252 0.0029914902198500937 0.0019986324305610024 0 0.00075494829555962351 0 0.0044523113343287657 7:4 13:1 35:2 40:2 85:1 101:2 129:1 142:1 168:1 847:1 1237:1 1442:1 1565:1 2150:1 2151:1 2152:1 2153:1 2154:1 
0 0 0.0044113223255775142 0 0.0016590730248555177 0.0066120234401453922 0 0 0 7:4 13:3 22:1 40:2 45:1 48:1 84:1 101:1 207:1 373:1 595:1 669:1 922:1 1008:1 1089:1 1119:1 1455:1 2014:1 2155:1 2156:1 2157:1 2158:1 2159:1 2160:1 
0.0027934478324679662 0 0 0 0.011059613988740839 0 0.0065021320691118403 0 0 40:1 165:2 1146:1 2161:1 
0 0 0.0089180659168449621 0.0093481875743481602 0.011130818708345296 0.010561067068965736 0.014097142309384707 0.0055755618652583794 0.023365068865271701 9:1 18:1 35:1 85:1 677:1 779:1 1100:1 2162:1 
0 0 0.0014302673079196035 0 0 0.01077268918929437 0 0.0025854282795362169 0 3:1 6:1 7:1 13:1 293:1 358:1 542:1 666:1 933:1 1699:1 2163:1 2164:1 2165:1 2166:1 
0.0010736294743736172 0 0 0.0015001337725622304 0 0 0 0.00083875854599891903 0 3:2 5:1 7:2 9:1 13:2 31:3 48:2 113:1 821:1 1120:1 1532:1 2109:1 2114:1 2167:1 2168:1 
0 0 0 0 0.0020567130746427034 0 0.0036814014744079239 0.0051978854784608536 0 7:2 657:1 2169:1 2170:1 
0.0019582433904189794 0 0.0060655691499191672 0 0 0.028059410110177922 0 9.0658566577201359e-05 0.00094754253462830788 7:1 9:1 14:1 34:1 101:1 556:1 798:1 2171:1 2172:1 
0 0 0 0 0.092994698476205617 0 0 0 0 7:1 35:1 40:1 43:1 143:1 1936:1 
0 0 0 0.0059419088982179272 0 0.001896531969862548 0 0 0.0053069056056288194 3:1 7:1 9:1 13:1 40:1 84:1 115:1 143:1 432:1 669:1 2104:1 2173:1 2174:1 
0.0045565659237502797 0.023288225279853209 0.0060452544027146879 0.004984809316451809 0.0048350586283320467 0.049929911332998053 0.0066700729406279323 0.0038637339090750299 0 13:1 147:1 2175:1 
0.0023958333333333331 0 0.0004083018133704383 0 0 0 0 0 0 3:1 6:1 9:2 31:1 101:1 612:1 776:1 1291:1 1612:1 
0 0 0 0 0.010895134156363664 0 0 0 0 7:5 9:1 13:3 23:1 31:1 34:1 35:1 40:1 43:1 100:1 128:1 151:1 165:1 432:1 441:1 572:1 625:3 663:1 979:1 1010:1 1797:1 2176:1 2177:1 2178:1 
16384.211306489407 0 2.0408716677485668 0 7.2613903596363087 0 1.8769021197227074 16385.558343960656 7872.848166992072 7:3 48:1 
32768 0 32768 0 0.032799306709187799 0 0.61825852308134543 0 0 50:1 
0 0 0.0022756721422964102 0.0017641904437048859 0.0010729986676455215 0 0.0013232459593850118 0 0 7:2 9:1 13:2 18:1 22:1 34:1 40:1 100:1 814:1 885:1 887:1 987:1 1521:1 2179:1 2180:1 2181:1 2182:1 2183:1 2184:1 2185:1 
0 0.00037776739932271453 0 0.0017244075662728518 0.0021522885470663363 0 0 0 0 7:2 13:1 40:1 85:1 1174:1 2186:1 2187:1 2188:1 
0.0067135577016470549 0 0.0024038439477453198 0.0021679566358445623 0 0.03380202505236956 0.0025177256286722971 0 0.0033223505563257085 3:1 9:1 13:1 40:1 301:1 549:1 879:1 2189:1 2190:1 2191:1 
0 0 0 0 0.0030446670741157522 0 0 0 0 5:1 6:1 7:3 9:1 13:4 14:3 23:1 31:2 34:1 35:2 37:1 40:1 41:1 245:1 313:1 435:1 656:1 764:1 931:1 1101:1 1455:1 1474:1 2192:1 2193:1 2194:1 2195:1 2196:1 2197:1 
0 0 0 0 0.00078400955757394611 0 0 0 0 2:1 7:4 13:3 23:1 31:1 34:1 35:2 37:1 40:2 41:1 48:1 201:1 313:1 561:1 579:1 771:1 807:1 1184:1 1743:1 2198:1 2199:1 2200:1 2201:1 2202:1 2203:1 2204:1 
0 0.010455838899897289 0.0091570006021233202 0 0.0086066360013250867 0 0.00070140763392915573 0.00088868748886669169 0.013160135301215493 7:4 13:5 14:1 22:3 23:1 31:1 34:2 35:1 40:3 59:1 198:1 455:1 485:1 508:1 2192:1 2205:1 2206:1 2207:1 2208:1 2209:1 
0.00065363845630203371 0.015429403854172406 0.0031606204832372808 0.00073969163436325529 0.0015537293870072177 0.0024161763915779757 0.001709771895984391 0.00069118974722569716 0 7:3 9:1 13:3 22:1 31:1 34:1 35:2 43:1 45:1 101:1 232:1 451:1 572:1 666:1 752:1 788:1 971:1 1455:1 1790:1 2070:1 2210:1 2211:1 2212:1 2213:1 2214:1 2215:1 2216:1 
0.0021336441541192257 0 0 0 0 0 8.7658404244331484e-05 0 0 6:1 7:1 9:2 31:4 40:1 85:1 113:1 471:1 631:1 728:1 786:1 1182:1 2016:1 2157:1 2195:1 2217:1 2218:1 2219:1 2220:1 2221:1 
0 0 0 0 0 0 0.0066273915781028718 0.0052199447300789528 0.0056887675543075165 34:1 48:1 958:1 2222:1 
0.0016903133994519402 0.0058282971287577688 0.0023229841618423266 0.0032358531621191748 0.0022974748685872697 0.015668286690636885 0 0.0022540001741607582 0 9:1 31:1 40:1 198:1 489:1 612:1 2223:1 2224:1 
0 0 0 0.00078354255952556241 0.0033772717786757435 0.0026138718743273447 0 0.0033001245571428195 0 9:1 13:1 225:1 2016:1 2225:1 
0 0.036017126412526558 0 9.4488070250008007e-05 0.0062617112430991689 0.010172069569516015 0 0 0 7:1 40:1 118:1 2226:1 
0.0007616070360514733 0 0.0044856576437577724 0.001965658339996814 0.0034988261543453299 0.0036636913713373664 0 0 0.009002303370208067 7:2 9:3 31:1 34:1 35:1 178:1 468:1 555:1 787:1 947:1 1061:1 1191:1 1325:1 1743:1 2064:1 2227:2 2228:1 2229:1 2230:1 2231:1 2232:1 
0 0 0 0 0 0 0 0 0.0028293531706351533 7:2 9:1 13:1 31:1 40:3 48:1 87:1 101:1 489:1 508:1 820:1 952:1 979:1 1711:1 2233:1 2234:1 2235:1 
0.0030299564510281657 0 0.0075680310697964232 0 0 0.048865766114047395 0 0 0 3:1 5:1 6:1 84:1 114:1 133:1 232:1 461:1 512:1 
0 0 0 0 0 0 32768 0 0 29:1 
0.0031042502852345181 0 0 0.0029746885514386236 0.0023041927216185488 0.0082565449249528584 0.0021389699860681808 0 0.0046942866241932776 7:2 31:1 87:1 451:1 653:1 683:1 708:1 2236:1 
0.009264490306394299 0 0.0093859628985555922 0.0027978293047869959 0.0042053574391550013 0.016381425801107335 0.0047264045410786324 0.0051807913027135319 0.00078246727090949104 6:1 9:1 40:1 1612:1 2237:1 
0.0031943579910891379 0.06432696705870479 0.0049686335149736159 0.00031917007624830359 0.012064762147394431 0.017320876239275702 0.0070239787935672607 0.0040297248704827668 0.0073772357467286019 34:1 674:1 2238:1 2239:1 
0.0030175765657434925 0 0.0027447413209077546 0 0 0.00031954756153433438 0.0029507029610110203 0 0.0039442322038243096 7:1 9:1 40:1 48:1 101:1 1237:1 1960:1 2240:1 2241:1 
0.0048315759873913513 0.0044373456615178167 0.01769291825506724 0.004469397062838134 0.013999614550907272 0 0.005751713626124067 0.0082470759514065989 0.00995050959345266 7:5 851:1 2071:1 2242:1 2243:1 
0 0.037758926084746222 0 0 0 0 0 0 0 3:1 7:3 13:3 14:1 23:1 79:1 151:1 168:2 298:1 441:1 505:2 1334:1 2153:2 2244:1 2245:1 
0.0059232759499374329 0.017059230407593714 0.0045875209024602709 0 0 0 0 0 0 6:1 7:2 232:1 2246:1 
0.00077530349693238085 0.0070244951614239848 0 0.0026356885324102905 0 0 0.0008827606072938257 0 0.00035994107166142431 3:1 6:2 7:2 9:1 13:3 14:1 22:1 31:1 34:1 35:2 113:2 142:1 178:1 232:1 257:1 652:1 728:1 1455:1 1584:1 1865:1 1969:1 2247:1 2248:1 
0 0 0 0.0010889163477333858 0.0012883010437948182 0 0 0 0 7:1 165:2 623:1 963:1 2249:1 2250:1 2251:1 
0 0.0074950178524896107 0 0.0066626027884518942 0 0 0 0 0.0020071866490791578 7:2 31:1 370:1 1042:1 2231:1 2252:1 2253:1 
0.0058894742635348021 0 0 0.0051219828540648932 0 0.029927203740145611 0 0 0 40:1 1203:1 2254:1 
0.001072155870608572 0.0078248086391977251 0 0.0045797040007876681 0.0036594117621981791 0.0082208366095714545 0.0024090984585236983 0.00076971753129287184 0 7:2 9:2 13:1 22:1 31:1 35:1 40:1 43:1 100:1 129:1 131:1 167:1 313:1 339:1 885:1 1141:1 2255:1 2256:1 2257:1 2258:1 
0.0036265801027886404 0.01348718784232197 0.0044420855395363307 0.0021317253085498078 0 0.0074288647090674717 0.0022142523475137768 0.0011010665840560736 0.014997884006625797 9:1 13:1 232:1 837:1 1790:1 1947:1 2259:1 2260:1 2261:1 2262:1 
0.0059187540404840658 0.0062123726117642364 0.010551626240252698 0 0 0.066364756500477351 0.0066833053029276166 0.0055212766204684642 0.0067417296989228971 2263:1 2264:1 
0.0073409545309521479 0.0070044119414836405 0.00379006428781561 0.0051660982552665709 0.013668067836005465 0 0.00083768988349629985 0 0 3:1 7:2 13:1 198:1 418:2 853:1 1626:1 2265:1 
0 0 0 0.00070952285798633267 0.0045141884330766862 0 0.0023880552836545235 0 0 7:1 13:5 14:2 18:1 22:1 34:1 35:1 40:5 151:1 168:1 214:1 313:1 483:1 522:1 777:1 798:1 1107:1 1442:1 1545:1 2266:1 2267:1 2268:1 2269:1 2270:1 
