svm_type c_svc
kernel_type polynomial
degree 1
gamma 8
coef0 0
nr_class 10
total_sv 19955
rho -0.96698993492428331 -1.3945246438282661 0.50464305951470434 -1.6691212032027838 -0.81479323347286392 -0.47651506443642838 1.0807859286872143 -0.59949948185768009 -0.81186524113465197 0.5148126783205349 0.19458041673083121 -0.71836259753917153 2.5481792567223542 2.3757776057973907 1.3214701096860895 -0.13625743082784958 -0.80830562855753496 0.88690430169198842 -0.19470247169328575 -0.55456923529983448 2.8987266394560351 1.6771107788888444 -1.8755174355557622 -1.431355375334999 -2.5700023905095866 -2.6518637157478069 3.6031277327295839 -0.70981534600274632 -0.26264730601922487 1.1379889730200499 1.6053254373833137 3.7618764347597597 0.44726660114804917 1.4727701182887729 1.3426811487085448 1.2214844251609969 0.77316973350107598 -1.0631830639766751 -3.0540015530786753 0.58237223911077096 -0.76029046553639024 -2.0229228043906016 -1.0379614562585997 -1.0648320915878842 0.10934809120811499
label 0 1 2 3 4 5 6 7 8 9
nr_sv 2117 2096 2259 1743 2029 1892 2044 2114 1937 1724
SV
2 2 2 2 2 0 2 0 2 1:3 2:4 3:2 4:0 5:0 6:1 7:28 8:0.14285714 9:0 10:1 11:0 12:0 13:1 14:7 15:0 16:7 17:1 
2 2 2 2 2 2 2 0 2 1:3 2:2.625 3:1 4:0 5:4 6:1 7:42 8:0 9:0 10:0 11:0 12:0 13:0 14:16 15:0 16:16 17:1 
2 0 0 0 2 0 2 0 2 1:9 2:2.4722222 3:0 4:0 5:4 6:2 7:89 8:0.16666667 9:3 10:0 11:0 12:0 13:6 14:17.5 15:0 16:36 17:3 
0 2 2 0.70048370047979014 2 0 2 0 2 1:7 2:2.7647059 3:0 4:0 5:2 6:0 7:47 8:0.11764706 9:0 10:0 11:0 12:0 13:2 14:17 15:0 16:17 17:0 
0 0 0 0 0 0 0 0 2 1:6 2:2.7857143 3:0 4:0 5:0 6:1 7:39 8:0.21428571 9:2 10:0 11:0 12:0 13:3 14:14 15:0 16:14 17:2 
2 2 2 2 2 2 2 2 2 1:13 2:2.8387097 3:3 4:0 5:7 6:0 7:88 8:0.096774194 9:3 10:0 11:0 12:0 13:3 14:31 15:0 16:31 17:0 
0 2 2 0 2 2 2 0 2 1:0 2:1.75 3:0 4:0 5:1 6:0 7:7 8:0 9:0 10:0 11:0 12:0 13:0 14:4 15:0 16:4 17:0 
2 2 2 0 2 2 2 0 2 1:1 2:4 3:0 4:0 5:1 6:0 7:8 8:0 9:0 10:0 11:0 12:0 13:0 14:2 15:0 16:2 17:0 
2 2 2 0 2 2 2 2 2 1:1 2:2.5 3:0 4:0 5:1 6:0 7:5 8:0 9:0 10:0 11:0 12:0 13:0 14:2 15:0 16:2 17:0 
0 2 2 0 0 2 2 0 0 1:2 2:2.5 3:1 4:0 5:1 6:1 7:20 8:0.125 9:1 10:0 11:0 12:0 13:1 14:8 15:0 16:8 17:0 
2 2 2 2 2 2 2 2 2 1:0 2:2 3:0 4:0 5:0 6:0 7:4 8:0.5 9:0 10:0 11:0 12:0 13:1 14:2 15:0 16:2 17:0 
0 0 0 0 1.6076038122131513 0 2 0 2 1:7 2:2.6666667 3:0 4:0 5:2 6:1 7:48 8:0.22222222 9:2 10:0 11:0 12:0 13:4 14:18 15:0 16:18 17:2 
0 2 2 0 0 2 2 0 0 1:2 2:2.7142857 3:1 4:0 5:2 6:0 7:19 8:0 9:0 10:0 11:0 12:0 13:0 14:7 15:0 16:7 17:0 
0.2604707424726514 2 2 0 0 2 2 0 2 1:4 2:3.4285714 3:1 4:0 5:0 6:1 7:24 8:0 9:1 10:0 11:0 12:0 13:0 14:7 15:0 16:7 17:0 
2 0 0 0 0 0 2 0 2 1:3 2:3.1428571 3:0 4:0 5:1 6:1 7:22 8:0 9:0 10:0 11:0 12:0 13:0 14:7 15:0 16:7 17:2 
0 2 0 0 0 2 2 2 0 1:4 2:2.8181818 3:2 4:0 5:3 6:1 7:31 8:0.18181818 9:1 10:0 11:0 12:0 13:2 14:5 15:0 16:11 17:0 
1.8069612614113117 0 0 0.35605395667566869 2 0 2 0 0.0063219492021664974 1:7 2:2.85 3:3 4:0 5:5 6:0 7:57 8:0.2 9:1 10:0 11:0 12:0 13:4 14:5.6666667 15:0 16:20 17:1 
0 0 0 0 0 0 2 0 0 1:4 2:2.7692308 3:1 4:0 5:2 6:1 7:36 8:0.23076923 9:0 10:0 11:0 12:0 13:3 14:3.3333333 15:0 16:13 17:1 
2 2 2 2 2 2 2 2 2 1:12 2:3.1212121 3:4 4:0 5:4 6:3 7:103 8:0 9:3 10:1 11:0 12:0 13:0 14:33 15:0 16:33 17:0 
2 2 2 0 0 0 2 0 2 1:1 2:5 3:1 4:0 5:0 6:1 7:10 8:0 9:0 10:0 11:0 12:0 13:0 14:2 15:0 16:2 17:0 
2 0 0 0 0 0 2 0 2 1:2 2:3 3:0 4:0 5:0 6:0 7:12 8:0 9:1 10:0 11:0 12:0 13:0 14:4 15:0 16:4 17:1 
2 0 0 0 0 0 2 0 2 1:2 2:2.8333333 3:0 4:0 5:1 6:0 7:17 8:0.16666667 9:0 10:0 11:0 12:0 13:1 14:6 15:0 16:6 17:1 
2 2 2 2 2 2 2 2 2 1:11 2:3.2333333 3:5 4:1 5:7 6:1 7:97 8:0.066666667 9:0 10:0 11:0 12:0 13:2 14:9.3333333 15:0 16:30 17:3 
0 0 0 0 0 0 2 0 0 1:2 2:2.125 3:0 4:0 5:0 6:0 7:17 8:0.125 9:1 10:0 11:0 12:0 13:1 14:3.5 15:0 16:8 17:1 
2 2 0 2 2 2 2 2 2 1:12 2:2.6842105 3:1 4:0 5:8 6:0 7:102 8:0.15789474 9:5 10:0 11:0 12:0 13:6 14:6.6 15:0 16:38 17:2 
2 2 2 0 2 2 2 2 2 1:2 2:2.75 3:0 4:0 5:2 6:0 7:11 8:0 9:0 10:0 11:0 12:0 13:0 14:4 15:0 16:4 17:0 
2 2 2 2 2 2 2 2 2 1:11 2:3 3:2 4:0 5:6 6:1 7:93 8:0.064516129 9:2 10:0 11:0 12:0 13:2 14:31 15:0 16:31 17:0 
0 0 0 0 0 0 2 0 0.065474734410979965 1:5 2:2.625 3:0 4:0 5:4 6:0 7:42 8:0.3125 9:2 10:0 11:0 12:0 13:5 14:7.5 15:0 16:16 17:0 
0 2 2 0 0 2 2 0 0 1:2 2:3.4 3:1 4:0 5:0 6:0 7:17 8:0 9:1 10:0 11:0 12:0 13:0 14:5 15:0 16:5 17:0 
2 2 0 2 2 0 0 0 2 1:7 2:2.7894737 3:3 4:0 5:4 6:0 7:53 8:0.052631579 9:1 10:0 11:0 12:0 13:1 14:18 15:0 16:19 17:2 
2 2 2 2 2 2 2 2 2 1:14 2:2.9677419 3:2 4:0 5:7 6:2 7:92 8:0.096774194 9:2 10:0 11:0 12:0 13:3 14:9.6666667 15:0 16:31 17:2 
0 2 0 2 2 2 2 2 0 1:6 2:2.7222222 3:1 4:0 5:2 6:1 7:49 8:0.11111111 9:2 10:0 11:0 12:0 13:2 14:8.5 15:0 16:18 17:0 
2 2 2 2 2 2 0 0 2 1:9 2:2.9130435 3:2 4:0 5:3 6:0 7:67 8:0 9:0 10:0 11:0 12:0 13:0 14:23 15:0 16:23 17:2 
0 0 0 0 0 0 2 0 0 1:7 2:2.3333333 3:2 4:0 5:3 6:1 7:70 8:0.2 9:2 10:0 11:0 12:0 13:6 14:6.75 15:0 16:30 17:2 
0 0 0 0 0 0 2 0 0 1:4 2:1.8461538 3:1 4:0 5:3 6:0 7:48 8:0.26923077 9:2 10:0 11:0 12:0 13:7 14:26 15:0 16:26 17:1 
0 0 0 0 0 0 2 0 0 1:1 2:1.7777778 3:0 4:0 5:2 6:0 7:16 8:0.22222222 9:1 10:0 11:0 12:0 13:2 14:9 15:0 16:9 17:0 
0 0 0 0 0 0 2 0 0 1:1 2:1.9090909 3:0 4:0 5:1 6:0 7:21 8:0.36363636 9:0 10:0 11:0 12:0 13:4 14:1.75 15:0 16:11 17:1 
0 0 0 0 0 0 2 0 0 1:2 2:2 3:0 4:0 5:1 6:0 7:30 8:0.13333333 9:0 10:0 11:0 12:0 13:2 14:6.5 15:0 16:15 17:0 
2 2 2 2 2 2 2 2 2 1:6 2:3.8888889 3:2 4:0 5:2 6:0 7:35 8:0.11111111 9:2 10:0 11:0 12:0 13:1 14:4 15:0 16:9 17:0 
0 0 0 0 0 0 2 0 0 1:5 2:2.5714286 3:1 4:0 5:3 6:0 7:36 8:0.21428571 9:2 10:0 11:0 12:0 13:3 14:6 15:0 16:14 17:0 
2 2 2 2 2 0 2 0 2 1:9 2:2.84375 3:1 4:0 5:5 6:0 7:91 8:0.03125 9:2 10:1 11:0 12:0 13:1 14:32 15:0 16:32 17:3 
2 2 0 0 0 0 2 2 0 1:3 2:2.8571429 3:0 4:0 5:2 6:0 7:20 8:0.28571429 9:0 10:0 11:0 12:0 13:2 14:2.5 15:0 16:7 17:0 
2 2 2 2 2 2 2 2 2 1:11 2:2.6470588 3:2 4:0 5:9 6:1 7:90 8:0.088235294 9:3 10:0 11:0 12:0 13:3 14:16 15:0 16:34 17:1 
2 2 2 2 2 2 2 2 2 1:16 2:3.2666667 3:5 4:0 5:9 6:0 7:98 8:0.1 9:4 10:0 11:0 12:0 13:3 14:30 15:0 16:30 17:0 
2 2 0 2 2 2 2 2 2 1:9 2:2.5172414 3:1 4:0 5:8 6:0 7:73 8:0.10344828 9:0 10:0 11:0 12:0 13:3 14:14 15:0 16:29 17:1 
2 2 2 2 2 2 2 2 2 1:11 2:2.8666667 3:3 4:0 5:3 6:2 7:86 8:0.13333333 9:3 10:0 11:0 12:0 13:4 14:14.5 15:0 16:30 17:0 
0 0 0 0 2 1.93573572663549 2 0 0 1:6 2:2.3809524 3:0 4:1 5:7 6:0 7:50 8:0.23809524 9:0 10:0 11:0 12:0 13:5 14:6 15:0 16:21 17:1 
0 2 2 0 0 0 2 0 2 1:5 2:2.8461538 3:1 4:0 5:4 6:0 7:37 8:0.15384615 9:0 10:0 11:0 12:0 13:2 14:13 15:0 16:13 17:1 
2 2 2 2 2 0.41873620664013467 2 0 2 1:10 2:3.16 3:6 4:0 5:6 6:0 7:79 8:0.12 9:1 10:0 11:0 12:0 13:3 14:25 15:0 16:25 17:2 
2 2 2 2 2 2 2 2 2 1:8 2:3 3:4 4:1 5:3 6:2 7:66 8:0.13636364 9:1 10:0 11:0 12:0 13:3 14:22 15:0 16:22 17:1 
2 2 2 2 2 2 2 2 2 1:15 2:3.6428571 3:6 4:1 5:4 6:2 7:102 8:0.10714286 9:0 10:1 11:0 12:0 13:3 14:13.5 15:0 16:28 17:0 
0 0 0 0 0.3707944497135815 0 2 0 0 1:4 2:2.7333333 3:1 4:0 5:1 6:1 7:41 8:0.2 9:1 10:0 11:0 12:0 13:3 14:6.5 15:0 16:15 17:0 
0 2 2 2 2 2 2 2 2 1:4 2:2.75 3:1 4:0 5:4 6:0 7:33 8:0.083333333 9:1 10:0 11:0 12:0 13:1 14:12 15:0 16:12 17:0 
2 2 0 2 2 2 2 2 2 1:10 2:2.6470588 3:2 4:0 5:6 6:1 7:90 8:0.14705882 9:3 10:0 11:0 12:0 13:5 14:7.75 15:0 16:34 17:0 
0 0 0 0 0 0 2 0 0 1:2 2:2.25 3:0 4:0 5:1 6:0 7:18 8:0.25 9:0 10:0 11:0 12:0 13:2 14:7 15:0 16:8 17:0 
2 2 2 2 2 2 2 2 2 1:11 2:3.0666667 3:5 4:0 5:9 6:0 7:92 8:0.1 9:3 10:0 11:0 12:0 13:3 14:14.5 15:0 16:30 17:0 
2 2 2 2 2 2 2 2 2 1:12 2:3.2692308 3:5 4:0 5:6 6:2 7:85 8:0.076923077 9:4 10:0 11:0 12:0 13:2 14:8 15:0 16:26 17:1 
2 2 2 2 2 2 2 2 2 1:16 2:3.28125 3:5 4:0 5:7 6:4 7:105 8:0.03125 9:1 10:0 11:0 12:0 13:1 14:15.5 15:0 16:32 17:0 
2 2 0 2 2 2 2 2 2 1:12 2:2.9655172 3:4 4:0 5:5 6:3 7:86 8:0.17241379 9:3 10:0 11:0 12:0 13:5 14:6.5 15:0 16:29 17:0 
2 2 0 2 2 2 2 2 2 1:10 2:3.0909091 3:4 4:0 5:3 6:0 7:68 8:0.13636364 9:1 10:0 11:0 12:0 13:3 14:10 15:0 16:22 17:0 
2 2 2 2 2 2 2 2 2 1:13 2:2.8484848 3:5 4:0 5:10 6:2 7:94 8:0.03030303 9:0 10:0 11:0 12:0 13:1 14:16 15:0 16:33 17:0 
2 2 0 2 2 2 2 2 2 1:13 2:2.862069 3:2 4:0 5:5 6:3 7:83 8:0.068965517 9:3 10:0 11:0 12:0 13:2 14:9 15:0 16:29 17:2 
0 2 2 0 2 0.34101454631812156 2 0 2 1:3 2:2.7 3:0 4:0 5:2 6:0 7:27 8:0.1 9:1 10:0 11:0 12:0 13:1 14:10 15:0 16:10 17:0 
2 2 2 2 2 2 2 2 2 1:4 2:3 3:1 4:1 5:5 6:0 7:45 8:0.066666667 9:1 10:1 11:1 12:0 13:1 14:15 15:0 16:15 17:1 
0 0 0 0 0 0 2 0 0 1:3 2:2.8 3:1 4:0 5:1 6:0 7:28 8:0.1 9:1 10:0 11:0 12:0 13:1 14:10 15:0 16:10 17:1 
2 2 2 2 2 2 2 2 2 1:14 2:3.2068966 3:3 4:0 5:5 6:1 7:93 8:0.10344828 9:10 10:0 11:0 12:0 13:3 14:6.5 15:0 16:29 17:0 
2 2 0 2 2 2 2 2 2 1:8 2:2.8076923 3:1 4:0 5:4 6:1 7:73 8:0.11538462 9:2 10:0 11:0 12:0 13:3 14:8 15:0 16:26 17:1 
0 0 0 0 0 0 2 0 0 1:3 2:2.6666667 3:1 4:0 5:3 6:0 7:32 8:0.083333333 9:2 10:0 11:0 12:0 13:1 14:5.5 15:0 16:12 17:1 
2 2 2 2 2 2 2 2 2 1:10 2:2.9166667 3:3 4:1 5:5 6:0 7:70 8:0.125 9:1 10:0 11:0 12:0 13:3 14:11.5 15:0 16:24 17:0 
0 2 2 0 2 0 2 0 0 1:3 2:2.2222222 3:1 4:0 5:4 6:0 7:40 8:0.11111111 9:0 10:0 11:0 12:0 13:2 14:18 15:0 16:18 17:0 
0 0 0 0 0 0 2 0 0 1:3 2:1.8333333 3:0 4:1 5:3 6:0 7:33 8:0.22222222 9:0 10:0 11:0 12:0 13:4 14:17 15:0 16:18 17:0 
2 2 2 2 2 2 2 2 2 1:5 2:2.4 3:1 4:1 5:5 6:0 7:60 8:0.12 9:3 10:1 11:0 12:0 13:3 14:25 15:0 16:25 17:0 
2 2 2 2 2 2 2 2 2 1:12 2:2.8846154 3:1 4:0 5:8 6:1 7:75 8:0.076923077 9:0 10:0 11:0 12:0 13:2 14:12.5 15:0 16:26 17:0 
2 2 2 2 2 2 2 0 2 1:14 2:3.03125 3:2 4:0 5:5 6:1 7:97 8:0.09375 9:4 10:0 11:0 12:0 13:3 14:31 15:0 16:32 17:3 
2 2 2 0 0.00050026094057283607 2 2 2 2 1:2 2:2.8333333 3:1 4:0 5:1 6:2 7:17 8:0 9:0 10:0 11:0 12:0 13:0 14:6 15:0 16:6 17:0 
2 2 2 2 2 2 2 2 2 1:12 2:3.0333333 3:5 4:0 5:5 6:1 7:91 8:0.13333333 9:2 10:0 11:0 12:0 13:4 14:5.2 15:0 16:30 17:0 
2 2 0 0 2 0 2 2 0 1:2 2:2.8 3:0 4:0 5:0 6:0 7:14 8:0.4 9:0 10:0 11:0 12:0 13:2 14:1.5 15:0 16:5 17:0 
0 2 2 0 0 0 2 0 2 1:1 2:5 3:0 4:0 5:0 6:0 7:5 8:0 9:1 10:0 11:0 12:0 13:0 14:1 15:0 16:1 17:0 
2 2 0 0 2 0 2 0 2 1:4 2:3.8571429 3:1 4:0 5:0 6:0 7:27 8:0.14285714 9:0 10:0 11:0 12:0 13:1 14:7 15:0 16:7 17:1 
0 2 2 0 2 2 2 0 2 1:1 2:4 3:0 4:0 5:0 6:0 7:8 8:0 9:1 10:0 11:0 12:0 13:0 14:2 15:0 16:2 17:0 
2 2 2 2 2 2 2 2 2 1:7 2:3.5454545 3:2 4:0 5:1 6:0 7:39 8:0.090909091 9:2 10:0 11:0 12:0 13:1 14:10 15:0 16:11 17:0 
2 2 2 0 2 2 2 2 2 1:2 2:2.5 3:0 4:0 5:2 6:0 7:10 8:0.25 9:0 10:0 11:0 12:0 13:1 14:4 15:0 16:4 17:0 
0 0 0 0 0 0 2 0 0 1:3 2:2.6363636 3:2 4:0 5:0 6:1 7:29 8:0.36363636 9:0 10:0 11:0 12:0 13:4 14:4.5 15:0 16:11 17:0 
2 2 2 2 2 0 0 0 2 1:4 2:2.8571429 3:1 4:0 5:2 6:1 7:40 8:0 9:0 10:1 11:0 12:0 13:0 14:14 15:0 16:14 17:2 
2 2 2 0 2 2 2 2 2 1:3 2:3.3333333 3:0 4:0 5:1 6:0 7:20 8:0.16666667 9:1 10:0 11:0 12:0 13:1 14:6 15:0 16:6 17:0 
2 2 2 2 2 0 2 2 2 1:5 2:3.4166667 3:3 4:0 5:3 6:0 7:41 8:0.16666667 9:0 10:0 11:0 12:0 13:2 14:11 15:0 16:12 17:0 
1.990408840835413 0.53295015345410746 2 0 0 2 2 0 2 1:1 2:4 3:0 4:0 5:0 6:0 7:4 8:0 9:0 10:0 11:0 12:0 13:0 14:1 15:0 16:1 17:0 
0 2 2 0 0 2 2 0 0 1:3 2:3.6 3:1 4:0 5:1 6:0 7:18 8:0 9:1 10:0 11:0 12:0 13:0 14:5 15:0 16:5 17:0 
2 2 0 2 2 2 2 0.007478312897451116 2 1:11 2:2.7666667 3:2 4:0 5:4 6:1 7:83 8:0.13333333 9:5 10:0 11:0 12:0 13:4 14:9 15:0 16:30 17:1 
2 2 2 2 2 2 2 2 0 1:1 2:2.1666667 3:1 4:1 5:0 6:1 7:13 8:0 9:0 10:0 11:0 12:0 13:0 14:6 15:0 16:6 17:0 
2 0 0 0 2 0 2 2 2 1:5 2:3.4444444 3:1 4:0 5:0 6:2 7:31 8:0.44444444 9:0 10:1 11:0 12:0 13:4 14:3.5 15:0 16:9 17:0 
0 0 2 0 0 0 2 0 0.7846115813184763 1:1 2:6 3:1 4:0 5:0 6:0 7:6 8:0 9:1 10:0 11:0 12:0 13:0 14:1 15:0 16:1 17:0 
2 0 0 0 0 2 2 2 0 1:5 2:2.6428571 3:1 4:0 5:2 6:2 7:37 8:0.071428571 9:2 10:0 11:0 12:0 13:1 14:6.5 15:0 16:14 17:0 
2 2 0 2 2 2 2 2 2 1:11 2:2.8064516 3:5 4:0 5:6 6:0 7:87 8:0.16129032 9:1 10:1 11:0 12:0 13:5 14:14.5 15:0 16:31 17:0 
0.00052715857164209218 2 2 0 0 2 2 0 0 1:3 2:2.5555556 3:1 4:0 5:1 6:1 7:23 8:0.11111111 9:1 10:0 11:0 12:0 13:1 14:9 15:0 16:9 17:0 
2 2 2 0 2 2 2 2 2 1:5 2:3 3:0 4:0 5:2 6:2 7:39 8:0.076923077 9:1 10:0 11:0 12:0 13:1 14:13 15:0 16:13 17:0 
0 2 2 0 0 2 2 0 0 1:2 2:3.2 3:1 4:0 5:1 6:0 7:16 8:0 9:2 10:0 11:0 12:0 13:0 14:5 15:0 16:5 17:0 
1.6782383328196311 0 0 0 0 0 2 0 0 1:4 2:2.6666667 3:1 4:0 5:0 6:1 7:24 8:0.33333333 9:1 10:0 11:0 12:0 13:3 14:3.5 15:0 16:9 17:0 
2 1.7416248160599539 2 0 0 2 2 0 2 1:2 2:2.6666667 3:0 4:0 5:2 6:0 7:16 8:0 9:0 10:0 11:0 12:0 13:0 14:6 15:0 16:6 17:1 
0 0 0 0 0 0 2 0 0 1:1 2:2.1818182 3:0 4:0 5:2 6:0 7:24 8:0.27272727 9:1 10:0 11:0 12:0 13:3 14:10 15:0 16:11 17:2 
2 2 0 2 2 2 2 2 2 1:13 2:2.9615385 3:3 4:0 5:4 6:3 7:77 8:0.11538462 9:2 10:0 11:0 12:0 13:3 14:8 15:0 16:26 17:0 
0 0 0 0 0 0 2 0 0.098973672900424636 1:2 2:2.0714286 3:0 4:0 5:3 6:0 7:29 8:0.21428571 9:0 10:0 11:0 12:0 13:3 14:14 15:0 16:14 17:2 
2 2 2 0 2 2 2 2 2 1:1 2:2.3333333 3:0 4:0 5:0 6:0 7:7 8:0.33333333 9:1 10:0 11:0 12:0 13:1 14:3 15:0 16:3 17:0 
2 0 0 0 2 2 2 2 2 1:7 2:3.1333333 3:2 4:0 5:2 6:1 7:47 8:0.2 9:1 10:0 11:0 12:0 13:3 14:6.5 15:0 16:15 17:0 
2 2 2 2 2 2 2 2 0 1:3 2:3 3:0 4:2 5:2 6:0 7:24 8:0 9:0 10:0 11:0 12:0 13:0 14:8 15:0 16:8 17:0 
2 0 0 0 0 0 2 0 0 1:0 2:1.75 3:0 4:0 5:0 6:0 7:14 8:0.25 9:0 10:0 11:0 12:0 13:2 14:3.5 15:0 16:8 17:2 
0 0 0 0 2 2 2 2 2 1:8 2:2.8333333 3:0 4:0 5:4 6:1 7:51 8:0.22222222 9:2 10:0 11:0 12:0 13:4 14:5 15:0 16:18 17:0 
2 0 1.9657687229393976 0 2 0 0 0 2 1:2 2:2.7777778 3:0 4:0 5:0 6:0 7:25 8:0 9:3 10:0 11:0 12:0 13:0 14:9 15:1 16:9 17:2 
0.79430746951049691 0 2 0 0 2 2 0 2 1:2 2:2.75 3:0 4:0 5:0 6:0 7:11 8:0 9:1 10:0 11:0 12:0 13:0 14:4 15:0 16:4 17:0 
2 2 0 2 2 2 2 2 2 1:8 2:2.4482759 3:1 4:0 5:5 6:1 7:71 8:0.10344828 9:1 10:0 11:0 12:0 13:3 14:14 15:0 16:29 17:0 
2 2 2 2 0 2 2 0 2 1:2 2:4 3:2 4:0 5:1 6:1 7:16 8:0 9:0 10:1 11:0 12:0 13:0 14:4 15:0 16:4 17:0 
0 0 0 0 0 0 2 0 0 1:3 2:2.5454545 3:0 4:0 5:1 6:0 7:28 8:0.18181818 9:0 10:0 11:0 12:0 13:2 14:5 15:0 16:11 17:1 
1.9988074802052185 0 2 0 0 0 2 0 2 1:1 2:5 3:0 4:0 5:0 6:0 7:5 8:0 9:0 10:0 11:0 12:0 13:0 14:1 15:0 16:1 17:0 
2 0 0 0 2 2 2 0 1.4335336151405609 1:8 2:2.4482759 3:0 4:0 5:4 6:3 7:71 8:0.13793103 9:2 10:0 11:0 12:0 13:4 14:14 15:0 16:29 17:1 
1.4333563551510657 0 2 0 2 2 2 0 0 1:1 2:2 3:0 4:0 5:0 6:0 7:6 8:0 9:0 10:0 11:0 12:0 13:0 14:3 15:0 16:3 17:0 
2 2 2 0 2 0 2 0 2 1:1 2:3 3:1 4:0 5:0 6:0 7:24 8:0.125 9:2 10:1 11:0 12:0 13:1 14:8 15:0 16:8 17:1 
0 0 0 0 0 0 2 0 0 1:1 2:1.625 3:0 4:0 5:0 6:0 7:13 8:0.125 9:0 10:0 11:0 12:0 13:1 14:8 15:0 16:8 17:0 
2 2 2 0 2 2 2 2 2 1:2 2:2.625 3:0 4:1 5:3 6:0 7:21 8:0.125 9:2 10:0 11:0 12:0 13:1 14:8 15:0 16:8 17:0 
2 2 2 2 2 2 2 2 2 1:14 2:3.3214286 3:4 4:0 5:7 6:2 7:93 8:0.071428571 9:2 10:1 11:0 12:0 13:2 14:28 15:0 16:28 17:0 
2 0 2 0 0 0 2 0 2 1:1 2:3.6666667 3:0 4:0 5:0 6:0 7:11 8:0 9:1 10:0 11:0 12:0 13:0 14:3 15:0 16:3 17:1 
2 0 1.0099513232953565 0 1.9816365586477891 2 2 0 0 1:1 2:2.2 3:0 4:0 5:1 6:1 7:11 8:0 9:0 10:0 11:0 12:0 13:0 14:5 15:0 16:5 17:1 
0 2 2 0 0 2 2 0 0 1:2 2:4 3:1 4:0 5:1 6:0 7:12 8:0 9:0 10:0 11:0 12:0 13:0 14:3 15:0 16:3 17:0 
2 2 2 2 2 2 2 2 2 1:10 2:3.037037 3:4 4:0 5:4 6:2 7:82 8:0.11111111 9:2 10:0 11:0 12:0 13:3 14:8 15:0 16:27 17:0 
2 2 2 2 2 2 2 2 2 1:6 2:3.1666667 3:3 4:0 5:3 6:0 7:57 8:0.055555556 9:4 10:0 11:0 12:0 13:1 14:18 15:0 16:18 17:0 
2 2 2 2 2 2 0 2 2 1:8 2:3.8823529 3:4 4:0 5:1 6:2 7:66 8:0 9:0 10:1 11:0 12:0 13:0 14:17 15:0 16:17 17:1 
2 2 0 2 2 2 2 0 2 1:9 2:2.5151515 3:4 4:0 5:6 6:0 7:83 8:0.090909091 9:1 10:1 11:0 12:0 13:3 14:16 15:0 16:33 17:1 
1.9997968414872196 0 0 0 2 0 2 0.49173814732220111 0 1:1 2:2.5 3:0 4:0 5:0 6:0 7:20 8:0.25 9:0 10:0 11:0 12:0 13:2 14:3 15:0 16:8 17:0 
2 2 2 0 2 2 2 2 2 1:2 2:2.625 3:0 4:1 5:3 6:0 7:21 8:0.125 9:2 10:0 11:0 12:0 13:1 14:8 15:0 16:8 17:0 
2 2 2 0 2 0 2 0 0 1:1 2:2.25 3:1 4:0 5:0 6:1 7:18 8:0.125 9:0 10:1 11:0 12:0 13:1 14:8 15:0 16:8 17:0 
2 2 2 2 2 2 2 2 2 1:1 2:2.5 3:0 4:0 5:0 6:0 7:5 8:0.5 9:0 10:0 11:0 12:0 13:1 14:2 15:0 16:2 17:0 
0 0 0 0 0 0 2 0 0 1:3 2:2.5384615 3:0 4:0 5:0 6:0 7:33 8:0.15384615 9:0 10:0 11:0 12:0 13:2 14:6 15:0 16:13 17:1 
2 0 0 0 0 0 2 0 0.023638874215780932 1:2 2:2.6666667 3:0 4:0 5:1 6:0 7:16 8:0.16666667 9:1 10:0 11:0 12:0 13:1 14:2.5 15:0 16:6 17:1 
0 0 0 0 2 0 2 0 0 1:9 2:2.6153846 3:2 4:0 5:5 6:0 7:68 8:0.19230769 9:2 10:0 11:0 12:0 13:5 14:8 15:0 16:26 17:0 
2 2 2 2 2 2 2 2 2 1:12 2:2.8181818 3:5 4:0 5:9 6:0 7:93 8:0.060606061 9:0 10:0 11:0 12:0 13:2 14:33 15:0 16:33 17:0 
0 2 2 0 2 2 2 2 2 1:3 2:2.7 3:0 4:0 5:3 6:0 7:27 8:0.1 9:2 10:0 11:0 12:0 13:1 14:10 15:0 16:10 17:0 
2 0 0 0 2 0 0 2 2 1:6 2:2.6666667 3:1 4:0 5:2 6:0 7:40 8:0.13333333 9:2 10:0 11:0 12:0 13:2 14:4.3333333 15:1 16:15 17:0 
2 2 2 0.65997648411990206 2 0.82419837818539721 2 1.6946924822784883 2 1:8 2:3.2857143 3:2 4:0 5:1 6:1 7:46 8:0.21428571 9:1 10:0 11:0 12:0 13:3 14:13 15:0 16:14 17:0 
2 2 2 2 2 2 2 2 2 1:15 2:3.0588235 3:1 4:0 5:11 6:0 7:104 8:0.11764706 9:3 10:0 11:0 12:0 13:4 14:16.5 15:0 16:34 17:0 
2 2 2 2 2 2 2 2 2 1:0 2:2 3:0 4:0 5:0 6:0 7:4 8:0.5 9:1 10:0 11:0 12:0 13:1 14:1 15:0 16:2 17:0 
1.9943227328167694 0 0 0 2 0 2 0 0 1:4 2:2.0333333 3:0 4:0 5:5 6:0 7:61 8:0.066666667 9:2 10:0 11:0 12:0 13:2 14:14 15:0 16:30 17:1 
2 0 0 2 2 0 2 0 2 1:8 2:2.3225806 3:1 4:0 5:6 6:0 7:72 8:0.12903226 9:2 10:0 11:0 12:0 13:4 14:15 15:1 16:31 17:1 
2 2 0 2 2 0 2 2 2 1:9 2:2.4848485 3:3 4:0 5:7 6:0 7:82 8:0.12121212 9:0 10:0 11:0 12:0 13:4 14:16 15:1 16:33 17:0 
2 2 2 2 2 2 0.037159040791948122 2 2 1:10 2:2.6428571 3:2 4:1 5:4 6:1 7:74 8:0.071428571 9:3 10:0 11:0 12:0 13:2 14:28 15:1 16:28 17:1 
0 0 0 0 2 0.94949164629040406 2 0 0 1:7 2:2.8095238 3:3 4:0 5:4 6:0 7:59 8:0.19047619 9:4 10:0 11:0 12:0 13:4 14:6.3333333 15:0 16:21 17:0 
0 0 0 0 0 0 2 0 0 1:6 2:2.5333333 3:0 4:0 5:0 6:2 7:38 8:0.26666667 9:2 10:0 11:0 12:0 13:4 14:4 15:0 16:15 17:1 
0 0 0 0 0 0 0.30461910916372703 0 0 1:5 2:2.4705882 3:1 4:0 5:4 6:0 7:42 8:0.11764706 9:1 10:0 11:0 12:0 13:2 14:8 15:0 16:17 17:2 
2 0.3835145342450238 0 0 0 0 2 2 5.1126367044594992e-05 1:4 2:3.4285714 3:1 4:0 5:0 6:0 7:24 8:0.28571429 9:3 10:0 11:0 12:0 13:2 14:2.5 15:0 16:7 17:0 
2 0 0 0 0 0 0 0 0 1:5 2:2.4761905 3:2 4:1 5:2 6:0 7:52 8:0.14285714 9:3 10:0 11:0 12:0 13:3 14:10 15:0 16:21 17:3 
2 2 0 2 2 2 2 2 2 1:6 2:2.5862069 3:2 4:0 5:6 6:1 7:75 8:0.13793103 9:2 10:0 11:0 12:0 13:4 14:9 15:0 16:29 17:0 
2 2 2 2 2 2 2 2 2 1:15 2:3.0909091 3:5 4:1 5:11 6:2 7:102 8:0.090909091 9:4 10:0 11:0 12:0 13:3 14:10.333333 15:0 16:33 17:0 
2 2 2 0 1.5284387924660192 2 2 2 2 1:5 2:3.3 3:1 4:0 5:1 6:2 7:33 8:0.2 9:1 10:0 11:0 12:0 13:2 14:4.5 15:0 16:10 17:0 
2 2 2 2 2 2 2 2 2 1:12 2:3.1111111 3:3 4:0 5:5 6:0 7:84 8:0.18518519 9:4 10:0 11:0 12:0 13:5 14:13 15:0 16:27 17:1 
2 2 2 2 2 2 2 2 2 1:11 2:3.1363636 3:3 4:0 5:5 6:0 7:69 8:0.090909091 9:3 10:0 11:0 12:0 13:2 14:21 15:0 16:22 17:1 
2 0.48651484181018639 0 0 2 2 2 0 0 1:6 2:3 3:2 4:1 5:3 6:0 7:45 8:0.2 9:2 10:0 11:0 12:0 13:3 14:4 15:0 16:15 17:1 
2 0 0 0 0 0 2 0 0 1:1 2:2.125 3:0 4:0 5:1 6:0 7:17 8:0.125 9:0 10:0 11:0 12:0 13:1 14:3.5 15:0 16:8 17:3 
2 2 2 2 2 2 2 2 2 1:12 2:3.1923077 3:4 4:1 5:6 6:1 7:83 8:0.23076923 9:2 10:0 11:0 12:0 13:6 14:12.5 15:0 16:26 17:1 
0 0 2 0 0 2 2 0 0 1:3 2:2.5 3:0 4:0 5:1 6:0 7:20 8:0.125 9:1 10:0 11:0 12:0 13:1 14:8 15:0 16:8 17:0 
0.94562032325669432 2 2 0 0 0 2 0 2 1:3 2:3.3333333 3:0 4:0 5:1 6:0 7:20 8:0 9:0 10:0 11:0 12:0 13:0 14:6 15:0 16:6 17:1 
0 0 0 0 0 0 2 0 0 1:5 2:2.5714286 3:1 4:0 5:0 6:1 7:36 8:0.28571429 9:0 10:1 11:0 12:0 13:4 14:6 15:0 16:14 17:1 
2 2 2 0 0 2 2 0.12475276257689492 0 1:3 2:2.75 3:1 4:0 5:1 6:1 7:22 8:0.125 9:0 10:0 11:0 12:0 13:1 14:8 15:0 16:8 17:0 
0 2 2 0 2 0.00040798667040740157 2 2 2 1:3 2:3.1111111 3:1 4:0 5:2 6:0 7:28 8:0.11111111 9:1 10:0 11:0 12:0 13:1 14:8 15:0 16:9 17:0 
2 0 2 0 2 2 2 0 2 1:0 2:2 3:0 4:0 5:0 6:0 7:2 8:0 9:0 10:0 11:0 12:0 13:0 14:1 15:0 16:1 17:1 
0 0 0 0 0 0 2 0 0 1:2 2:2.625 3:0 4:0 5:1 6:0 7:21 8:0 9:0 10:0 11:0 12:0 13:0 14:8 15:0 16:8 17:1 
2 0 0 2 2 0 2 0 2 1:10 2:2.5384615 3:0 4:0 5:3 6:2 7:99 8:0.12820513 9:3 10:0 11:0 12:0 13:5 14:7 15:0 16:39 17:3 
2 0 0 0 2 0 0 0 0 1:6 2:2.7368421 3:1 4:0 5:3 6:0 7:52 8:0.15789474 9:1 10:0 11:0 12:0 13:3 14:5.3333333 15:0 16:19 17:3 
2 2 2 2 2 2 2 2 2 1:12 2:2.9411765 3:3 4:0 5:6 6:1 7:100 8:0.088235294 9:2 10:1 11:0 12:0 13:3 14:7.75 15:0 16:34 17:2 
2 2 2 0 2 2 2 2 2 1:4 2:3.7142857 3:1 4:0 5:1 6:1 7:26 8:0 9:2 10:0 11:0 12:0 13:0 14:7 15:0 16:7 17:0 
2 2 2 2 2 2 2 2 2 1:11 2:2.8518519 3:2 4:0 5:8 6:0 7:77 8:0.11111111 9:1 10:1 11:0 12:0 13:3 14:13 15:0 16:27 17:1 
2 0 0 2 2 2 2 2 2 1:10 2:2.8518519 3:5 4:0 5:2 6:6 7:77 8:0.18518519 9:2 10:0 11:0 12:0 13:5 14:8 15:0 16:27 17:0 
2 2 2 0 2 2 2 2 2 1:1 2:2.3333333 3:0 4:0 5:0 6:0 7:7 8:0.33333333 9:0 10:0 11:0 12:0 13:1 14:3 15:0 16:3 17:0 
0 0 0 0 0 0 2 2 0 1:2 2:2.3636364 3:0 4:0 5:1 6:2 7:26 8:0.18181818 9:1 10:0 11:0 12:0 13:2 14:4.5 15:0 16:11 17:0 
2 0 0 0 2 0 2 0 2 1:1 2:3.3333333 3:1 4:0 5:0 6:1 7:10 8:0 9:0 10:0 11:0 12:0 13:0 14:3 15:0 16:3 17:1 
2 2 2 2 2 2 2 2 2 1:6 2:3.3571429 3:3 4:0 5:3 6:0 7:47 8:0.14285714 9:3 10:1 11:0 12:0 13:2 14:4 15:0 16:14 17:0 
2 2 2 0 0 2 2 2 2 1:5 2:3.375 3:0 4:0 5:2 6:0 7:27 8:0.125 9:2 10:0 11:0 12:0 13:1 14:8 15:0 16:8 17:0 
0 0 0 0 0 0 2 0 0 1:5 2:2.5294118 3:2 4:0 5:1 6:1 7:43 8:0.23529412 9:1 10:1 11:0 12:0 13:4 14:3.5 15:0 16:17 17:0 
2 2 2 2 2 2 2 0.0017891239135602558 2 1:8 2:3.0526316 3:0 4:0 5:3 6:2 7:58 8:0.15789474 9:2 10:0 11:0 12:0 13:3 14:18 15:0 16:19 17:1 
0 0 0 0 0 0 2 0 0 1:2 2:2.4444444 3:1 4:0 5:0 6:0 7:22 8:0.22222222 9:1 10:0 11:0 12:0 13:2 14:9 15:0 16:9 17:0 
2 0 0 0 2 0 2 0 2 1:0 2:2.4 3:0 4:0 5:0 6:1 7:12 8:0.2 9:0 10:0 11:0 12:0 13:1 14:5 15:0 16:5 17:1 
2 2 2 0 2 2 2 2 2 1:1 2:2.6666667 3:0 4:0 5:1 6:0 7:8 8:0.33333333 9:0 10:0 11:0 12:0 13:1 14:2 15:0 16:3 17:0 
2 0 0 2 2 0 2 0 0 1:6 2:2.3793103 3:1 4:0 5:5 6:1 7:69 8:0.10344828 9:1 10:0 11:0 12:0 13:3 14:9 15:0 16:29 17:1 
2 0.00027765127051015617 0 0 2 0 0 0 2 1:5 2:2.4545455 3:0 4:0 5:3 6:0 7:54 8:0.090909091 9:2 10:0 11:0 12:0 13:2 14:21 15:0 16:22 17:3 
2 2 0.60982583248025557 2 2 0 0 2 2 1:8 2:3.6 3:2 4:0 5:2 6:0 7:54 8:0.13333333 9:0 10:0 11:0 12:0 13:2 14:4.3333333 15:0 16:15 17:1 
2 2 2 0 2 2 2 2 2 1:1 2:2.4 3:0 4:0 5:2 6:0 7:12 8:0.2 9:1 10:0 11:0 12:0 13:1 14:5 15:0 16:5 17:0 
0 0 0 0 0 0 2 0 0 1:3 2:2.4285714 3:0 4:0 5:2 6:0 7:34 8:0.21428571 9:1 10:0 11:0 12:0 13:3 14:3.6666667 15:0 16:14 17:1 
2 2 2 2 0.1064169644110112 2 2 0 2 1:4 2:5.2 3:4 4:0 5:1 6:1 7:26 8:0 9:2 10:0 11:0 12:0 13:0 14:5 15:0 16:5 17:0 
0.00062109809678265312 2 2 0 0 2 2 0 2 1:2 2:3 3:0 4:0 5:1 6:0 7:9 8:0 9:0 10:0 11:0 12:0 13:0 14:3 15:0 16:3 17:0 
2 2 2 2 2 2 2 2 2 1:12 2:3.9 3:7 4:0 5:4 6:3 7:78 8:0.05 9:1 10:2 11:0 12:0 13:1 14:20 15:0 16:20 17:0 
0 0 0 0 0 0 2 0 0 1:5 2:2.25 3:2 4:0 5:1 6:1 7:36 8:0.25 9:0 10:0 11:0 12:0 13:4 14:3.25 15:0 16:16 17:0 
2 2 2 2 2 2 2 2 0 1:5 2:3.5555556 3:2 4:0 5:1 6:1 7:32 8:0.11111111 9:0 10:0 11:0 12:0 13:1 14:4 15:0 16:9 17:0 
2 2 2 0 2 2 2 2 2 1:5 2:3 3:0 4:0 5:2 6:2 7:27 8:0 9:1 10:0 11:0 12:0 13:0 14:9 15:0 16:9 17:0 
0 2 2 0.62655408660344025 0 2 2 2 0.0059086999061525028 1:5 2:3.2222222 3:1 4:0 5:2 6:0 7:29 8:0 9:2 10:0 11:0 12:0 13:0 14:9 15:0 16:9 17:0 
0 2 2 0 2 0 2 2 2 1:4 2:2.8 3:0 4:0 5:1 6:1 7:28 8:0.2 9:0 10:0 11:0 12:0 13:2 14:10 15:0 16:10 17:0 
2 2 2 2 2 2 2 2 2 1:12 2:2.8064516 3:2 4:0 5:6 6:1 7:87 8:0.096774194 9:4 10:1 11:0 12:0 13:3 14:14.5 15:0 16:31 17:0 
2 2 2 0 2 2 2 0 2 1:3 2:3.125 3:1 4:0 5:0 6:2 7:25 8:0 9:0 10:0 11:0 12:0 13:0 14:8 15:0 16:8 17:1 
0 0 0 0 0 0 2 0 0 1:4 2:3 3:3 4:0 5:2 6:0 7:36 8:0.25 9:0 10:0 11:0 12:0 13:3 14:5 15:0 16:12 17:0 
0 0 0 0 2 0 2 0 0 1:5 2:2.3684211 3:0 4:0 5:4 6:2 7:45 8:0.15789474 9:0 10:0 11:0 12:0 13:3 14:8.5 15:0 16:19 17:1 
2 2 2 2 2 2 2 2 0 1:0 2:2 3:0 4:1 5:1 6:0 7:6 8:0 9:0 10:0 11:0 12:0 13:0 14:3 15:0 16:3 17:0 
0 0 0 0 2 0 2 0 0 1:7 2:2.5217391 3:0 4:1 5:5 6:0 7:58 8:0.2173913 9:2 10:0 11:0 12:0 13:5 14:4.75 15:0 16:23 17:1 
2 0 0 2 2 0 2 0 2 1:6 2:2.75 3:2 4:0 5:5 6:1 7:55 8:0.15 9:0 10:0 11:0 12:0 13:3 14:9 15:0 16:20 17:2 
2 0 0 0 0 0 2 2 0 1:0 2:1.375 3:0 4:0 5:1 6:0 7:11 8:0.75 9:0 10:0 11:0 12:0 13:6 14:1.6666667 15:0 16:8 17:0 
2 2 2 2 2 2 2 0 2 1:11 2:2.5151515 3:1 4:0 5:5 6:1 7:83 8:0.15151515 9:4 10:0 11:0 12:0 13:5 14:33 15:0 16:33 17:0 
0 0 2 0 0 0 2 0 1.1488951713548117 1:1 2:6 3:1 4:0 5:0 6:0 7:6 8:0 9:1 10:0 11:0 12:0 13:0 14:1 15:0 16:1 17:0 
0 1.9999139051830686 2 0 0 2 2 0 2 1:1 2:4 3:0 4:0 5:0 6:0 7:4 8:0 9:1 10:0 11:0 12:0 13:0 14:1 15:0 16:1 17:0 
0 0 2 0 0 0 2 0 1.3254128531548686 1:1 2:6 3:1 4:0 5:0 6:0 7:6 8:0 9:1 10:0 11:0 12:0 13:0 14:1 15:0 16:1 17:0 
0 2 2 0 2 2 2 2 0 1:5 2:2.9166667 3:0 4:0 5:3 6:0 7:35 8:0.083333333 9:0 10:0 11:0 12:0 13:1 14:5.5 15:0 16:12 17:0 
2 0 0 0 1.2701127215109156 0.89255085188934524 2 0 0 1:1 2:2.25 3:0 4:0 5:0 6:0 7:9 8:0 9:1 10:0 11:0 12:0 13:0 14:4 15:0 16:4 17:1 
2 0 0 2 2 0 2 0 2 1:7 2:2.6451613 3:2 4:0 5:4 6:0 7:82 8:0.16129032 9:1 10:1 11:1 12:0 13:5 14:5.4 15:0 16:31 17:3 
2 2 2 2 2 2 2 2 2 1:9 2:2.8571429 3:2 4:0 5:6 6:0 7:80 8:0.035714286 9:1 10:0 11:0 12:0 13:1 14:28 15:0 16:28 17:2 
2 2 0 0 2 0 2 0 2 1:2 2:3.5 3:0 4:0 5:0 6:0 7:14 8:0.25 9:1 10:0 11:0 12:0 13:1 14:3 15:0 16:4 17:1 
2 2 2 0 2 2 2 0 2 1:4 2:3.375 3:1 4:1 5:1 6:1 7:27 8:0 9:1 10:0 11:0 12:0 13:0 14:8 15:0 16:8 17:1 
0 0 0 0 0.58192234926410402 0 2 0 0.020283310569261984 1:7 2:2.8421053 3:3 4:0 5:4 6:0 7:54 8:0.21052632 9:1 10:0 11:0 12:0 13:4 14:8.5 15:0 16:19 17:1 
2 0 0 2 2 0 0 0 2 1:7 2:2.4666667 3:0 4:0 5:4 6:1 7:74 8:0.1 9:3 10:0 11:0 12:0 13:3 14:6.75 15:1 16:30 17:2 
2 2 2 2 2 2 2 2 2 1:6 2:2.8 3:1 4:0 5:3 6:1 7:42 8:0.13333333 9:1 10:0 11:0 12:0 13:2 14:15 15:0 16:15 17:0 
2 0 0 0 2 0 2 0 2 1:1 2:2.1666667 3:0 4:0 5:1 6:0 7:13 8:0.33333333 9:0 10:0 11:0 12:0 13:2 14:5 15:0 16:6 17:2 
0.0066175902333312862 2 0 2 2 0 2 0 2 1:10 2:2.65625 3:2 4:0 5:6 6:0 7:85 8:0.1875 9:3 10:0 11:0 12:0 13:6 14:15.5 15:0 16:32 17:0 
2 2 2 0 2 2 2 2 0 1:1 2:2 3:0 4:0 5:1 6:0 7:10 8:0.2 9:1 10:0 11:0 12:0 13:1 14:5 15:0 16:5 17:0 
2 2 2 2 2 2 2 2 2 1:14 2:2.90625 3:2 4:0 5:7 6:1 7:93 8:0.09375 9:2 10:1 11:0 12:0 13:3 14:32 15:0 16:32 17:1 
2 2 2 2 2 2 2 2 2 1:15 2:2.8484848 3:2 4:0 5:6 6:1 7:94 8:0.060606061 9:0 10:0 11:0 12:0 13:2 14:33 15:0 16:33 17:0 
2 2 0 2 2 2 2 2 2 1:12 2:2.325 3:0 4:0 5:6 6:3 7:93 8:0.075 9:2 10:0 11:0 12:0 13:3 14:19.5 15:0 16:40 17:1 
2 2 2 2 2 2 2 2 2 1:11 2:2.6944444 3:1 4:1 5:10 6:0 7:97 8:0.027777778 9:1 10:1 11:0 12:0 13:1 14:36 15:0 16:36 17:0 
2 2 2 2 2 2 2 2 2 1:13 2:2.8235294 3:2 4:1 5:7 6:2 7:96 8:0.029411765 9:4 10:0 11:0 12:0 13:1 14:16.5 15:0 16:34 17:1 
2 0 0 0 0 0 2 0 0 1:1 2:2.4285714 3:1 4:0 5:1 6:0 7:17 8:0.28571429 9:0 10:0 11:0 12:0 13:2 14:3 15:0 16:7 17:1 
2 2 0 2 2 2 2 2 2 1:13 2:2.875 3:4 4:0 5:6 6:1 7:92 8:0.15625 9:1 10:1 11:0 12:0 13:5 14:7.25 15:0 16:32 17:0 
0 2 2 0 0 2 2 0 0 1:1 2:2.1428571 3:0 4:0 5:1 6:1 7:15 8:0 9:1 10:0 11:0 12:0 13:0 14:7 15:0 16:7 17:0 
0 2 2 2 2 0 2 2 2 1:6 2:2.9444444 3:1 4:1 5:3 6:0 7:53 8:0.22222222 9:0 10:0 11:0 12:0 13:4 14:8 15:0 16:18 17:0 
2 2 2 2 2 2 2 2 2 1:6 2:3.0666667 3:2 4:0 5:4 6:2 7:46 8:0 9:1 10:0 11:0 12:0 13:0 14:15 15:0 16:15 17:0 
2 2 2 2 2 2 2 2 2 1:6 2:2.4583333 3:1 4:1 5:5 6:1 7:59 8:0.041666667 9:2 10:0 11:0 12:0 13:1 14:24 15:0 16:24 17:0 
2 2 2 0 2 2 2 0 0 1:7 2:3.0588235 3:1 4:1 5:2 6:0 7:52 8:0.17647059 9:3 10:0 11:0 12:0 13:3 14:7.5 15:0 16:17 17:1 
0 0 0 0 0 0 2 0 0 1:3 2:2.4166667 3:0 4:0 5:1 6:1 7:29 8:0.25 9:0 10:0 11:0 12:0 13:3 14:3 15:0 16:12 17:1 
0 0 2 0 0 0 2 0 0 1:4 2:2.7777778 3:0 4:0 5:0 6:0 7:25 8:0.11111111 9:1 10:0 11:0 12:0 13:1 14:9 15:0 16:9 17:0 
2 2 0 0 2 0 2 2 0 1:1 2:2.3333333 3:1 4:0 5:1 6:1 7:14 8:0.33333333 9:0 10:0 11:0 12:0 13:2 14:2 15:0 16:6 17:0 
2 2 2 2 2 2 2 2 2 1:7 2:3 3:3 4:1 5:2 6:1 7:63 8:0.19047619 9:2 10:1 11:0 12:0 13:4 14:6.3333333 15:0 16:21 17:0 
2 2 2 0 2 0 0 2 2 1:4 2:3 3:2 4:0 5:1 6:1 7:30 8:0.2 9:0 10:0 11:0 12:0 13:2 14:10 15:1 16:10 17:0 
2 0 0 0 0 0 2 0 0.0099772636555976128 1:4 2:3.375 3:2 4:0 5:0 6:0 7:27 8:0.25 9:2 10:0 11:0 12:0 13:2 14:7 15:0 16:8 17:1 
2 2 2 0 2 2 2 0 0 1:3 2:2.7272727 3:1 4:0 5:1 6:1 7:30 8:0.090909091 9:1 10:0 11:0 12:0 13:1 14:11 15:0 16:11 17:0 
2 2 2 2 2 2 2 2 2 1:6 2:2.8571429 3:0 4:0 5:2 6:1 7:40 8:0 9:3 10:0 11:0 12:0 13:0 14:14 15:0 16:14 17:0 
2 0 0 0 0.79493052896655103 0 0 0 0 1:7 2:2.5 3:0 4:0 5:2 6:1 7:55 8:0.090909091 9:3 10:0 11:0 12:0 13:2 14:10.5 15:0 16:22 17:2 
2 2 2 2 2 2 2 2 2 1:13 2:3.2692308 3:4 4:0 5:8 6:1 7:85 8:0.15384615 9:4 10:0 11:0 12:0 13:4 14:8 15:0 16:26 17:1 
2 2 2 2 2 2 2 2 2 1:9 2:2.65625 3:3 4:1 5:8 6:0 7:85 8:0.09375 9:2 10:1 11:0 12:0 13:3 14:15.5 15:0 16:32 17:0 
2 2 2 2 2 2 2 2 2 1:8 2:3.1875 3:4 4:0 5:3 6:2 7:51 8:0.0625 9:0 10:0 11:0 12:0 13:1 14:16 15:0 16:16 17:0 
2 2 2 2 2 2 2 0 2 1:4 2:3.4 3:2 4:0 5:4 6:0 7:34 8:0.1 9:1 10:0 11:0 12:0 13:1 14:9 15:0 16:10 17:1 
0 0 0 0 0 0 2 0 2 1:2 2:3 3:0 4:0 5:0 6:0 7:18 8:0 9:1 10:0 11:0 12:0 13:0 14:6 15:0 16:6 17:1 
2 2 2 2 2 2 2 2 2 1:12 2:3.1923077 3:4 4:0 5:3 6:2 7:83 8:0.19230769 9:1 10:1 11:0 12:0 13:5 14:26 15:0 16:26 17:0 
2 2 2 2 2 2 2 2 2 1:8 2:3.25 3:3 4:0 5:3 6:1 7:52 8:0.0625 9:0 10:0 11:0 12:0 13:1 14:16 15:0 16:16 17:0 
0 0.045889321407239302 2 0 0 2 2 0 0 1:3 2:2.375 3:0 4:0 5:1 6:0 7:19 8:0 9:0 10:0 11:0 12:0 13:0 14:8 15:0 16:8 17:0 
2 2 2 2 2 0 2 0 2 1:3 2:2.8461538 3:1 4:0 5:2 6:0 7:37 8:0 9:2 10:0 11:0 12:0 13:0 14:13 15:0 16:13 17:1 
2 0 0 0 2 0.76061969928128637 2 0 0 1:6 2:2.7894737 3:2 4:0 5:4 6:1 7:53 8:0.10526316 9:2 10:0 11:0 12:0 13:2 14:5.6666667 15:0 16:19 17:2 
2 0 2 0 0 2 2 0 2 1:2 2:3 3:0 4:0 5:1 6:0 7:12 8:0 9:1 10:0 11:0 12:0 13:0 14:4 15:0 16:4 17:1 
2 2 2 0 2 2 2 2 2 1:1 2:2.1666667 3:0 4:0 5:3 6:0 7:13 8:0.16666667 9:0 10:0 11:0 12:0 13:1 14:6 15:0 16:6 17:0 
2 2 2 2 2 2 2 2 2 1:9 2:3.0740741 3:3 4:0 5:3 6:1 7:83 8:0.074074074 9:4 10:1 11:1 12:1 13:2 14:8.3333333 15:0 16:27 17:1 
2 2 0 2 2 2 2 2 2 1:9 2:2.6774194 3:3 4:0 5:7 6:0 7:83 8:0.064516129 9:0 10:0 11:0 12:0 13:2 14:15 15:0 16:31 17:2 
2 2 2 2 2 0 2 0 2 1:12 2:3.1923077 3:3 4:0 5:4 6:0 7:83 8:0.19230769 9:2 10:0 11:0 12:0 13:5 14:26 15:0 16:26 17:1 
2 2 2 0 2 2 2 2 2 1:0 2:2 3:0 4:0 5:2 6:0 7:8 8:0 9:0 10:0 11:0 12:0 13:0 14:4 15:0 16:4 17:0 
0 2 2 0 0 2 2 0 0 1:3 2:3 3:1 4:0 5:1 6:0 7:21 8:0 9:1 10:0 11:0 12:0 13:0 14:7 15:0 16:7 17:0 
2 2 2 2 2 2 2 2 2 1:5 2:4.7142857 3:3 4:0 5:1 6:0 7:33 8:0 9:2 10:1 11:0 12:0 13:0 14:7 15:0 16:7 17:0 
2 2 2 2 2 2 2 2 2 1:7 2:3.1428571 3:0 4:0 5:3 6:0 7:44 8:0.071428571 9:1 10:0 11:0 12:0 13:1 14:6.5 15:0 16:14 17:0 
2 2 0 2 2 2 2 0 2 1:11 2:2.8 3:4 4:0 5:7 6:0 7:84 8:0.16666667 9:4 10:0 11:0 12:0 13:5 14:14.5 15:0 16:30 17:1 
2 2 0 2 2 2 2 2 2 1:17 2:3 3:3 4:0 5:4 6:2 7:93 8:0.19354839 9:0 10:0 11:0 12:0 13:6 14:9.6666667 15:0 16:31 17:0 
2 0 0 0 2 0 1.8777080353543307 0 2 1:4 2:3 3:1 4:0 5:2 6:0 7:48 8:0.125 9:2 10:0 11:0 12:0 13:2 14:7 15:0 16:16 17:2 
0 0 0 0 0 0 2 0 2 1:6 2:2.7368421 3:2 4:0 5:2 6:0 7:52 8:0.21052632 9:3 10:0 11:0 12:0 13:4 14:8.5 15:0 16:19 17:1 
2 2 2 0 2 2 2 2 2 1:8 2:3 3:0 4:0 5:2 6:1 7:45 8:0.13333333 9:4 10:0 11:0 12:0 13:2 14:14 15:0 16:15 17:0 
0 0 0 0 0 2 2 0 0.0090232898827135796 1:7 2:2.7058824 3:1 4:0 5:3 6:2 7:46 8:0.29411765 9:1 10:0 11:0 12:0 13:5 14:2.6 15:0 16:17 17:0 
0 0 0 0 2 0 2 0 0 1:6 2:2.5454545 3:0 4:0 5:5 6:0 7:56 8:0.22727273 9:2 10:0 11:0 12:0 13:5 14:10 15:0 16:22 17:0 
0 0 0 0 0 0 2 0 0 1:2 2:2.4444444 3:0 4:0 5:0 6:0 7:22 8:0.22222222 9:1 10:0 11:0 12:0 13:2 14:8 15:0 16:9 17:0 
2 2 2 0 2 2 2 2 2 1:1 2:2.4 3:0 4:0 5:1 6:0 7:12 8:0.2 9:1 10:0 11:0 12:0 13:1 14:5 15:0 16:5 17:0 
0 0 0 0 0 0 2 1.161370724072339 0 1:3 2:2.4 3:0 4:0 5:2 6:0 7:24 8:0.2 9:0 10:0 11:0 12:0 13:2 14:4 15:0 16:10 17:0 
2 2 2 1.3324184145801887 2 0 2 2 2 1:3 2:3.5714286 3:1 4:0 5:2 6:0 7:25 8:0.14285714 9:0 10:0 11:0 12:0 13:1 14:7 15:0 16:7 17:0 
0 0 0 0 0 0 2 0 0 1:2 2:2.4444444 3:0 4:0 5:1 6:0 7:22 8:0.11111111 9:2 10:0 11:0 12:0 13:1 14:8 15:0 16:9 17:1 
0 2 2 0 0 2 2 2 2 1:4 2:3.4285714 3:0 4:0 5:3 6:0 7:24 8:0 9:0 10:0 11:0 12:0 13:0 14:7 15:0 16:7 17:0 
2 2 2 2 2 2 2 2 2 1:9 2:3.1111111 3:2 4:0 5:3 6:1 7:56 8:0.11111111 9:1 10:0 11:0 12:0 13:2 14:18 15:0 16:18 17:0 
2 2 2 0 0 2 2 0 2 1:2 2:5 3:0 4:0 5:0 6:1 7:10 8:0 9:0 10:0 11:0 12:0 13:0 14:2 15:0 16:2 17:0 
2 2 0 0 2 2 2 2 2 1:3 2:3 3:0 4:0 5:1 6:1 7:18 8:0.33333333 9:0 10:0 11:0 12:0 13:2 14:2 15:0 16:6 17:0 
2 2 2 2 2 0 2 0 2 1:8 2:2.3529412 3:1 4:0 5:8 6:0 7:80 8:0.11764706 9:1 10:0 11:0 12:0 13:4 14:34 15:0 16:34 17:1 
2 2 2 2 2 2 2 2 2 1:9 2:3.0555556 3:1 4:0 5:4 6:2 7:55 8:0.11111111 9:1 10:0 11:0 12:0 13:2 14:8.5 15:0 16:18 17:0 
0 0 0 0 2 0 2 0 0 1:8 2:2.5 3:1 4:0 5:4 6:0 7:60 8:0.16666667 9:2 10:0 11:0 12:0 13:4 14:7.3333333 15:0 16:24 17:2 
2 0 0 0 2 0 1.398658158290033 0 2 1:9 2:2.5185185 3:1 4:0 5:6 6:1 7:68 8:0.18518519 9:2 10:1 11:0 12:0 13:5 14:8.3333333 15:1 16:27 17:2 
0 0 0 0 0 0 2 0 0 1:5 2:2.5384615 3:0 4:0 5:3 6:0 7:33 8:0.15384615 9:0 10:0 11:0 12:0 13:2 14:5.5 15:0 16:13 17:1 
2 0 0 0 0 2 2 2 0 1:3 2:2.5454545 3:0 4:0 5:1 6:2 7:28 8:0.18181818 9:0 10:0 11:0 12:0 13:2 14:4.5 15:0 16:11 17:0 
2 2 2 2 2 0 0.88156346459328572 0 2 1:9 2:2.9565217 3:3 4:0 5:3 6:1 7:68 8:0.086956522 9:3 10:0 11:0 12:0 13:2 14:23 15:0 16:23 17:2 
0.084146070043654222 2 2 0 2 2 2 0 2 1:7 2:2.9333333 3:1 4:0 5:2 6:0 7:44 8:0.13333333 9:4 10:0 11:0 12:0 13:2 14:15 15:0 16:15 17:0 
0 2 2 2 2 2 2 2 0 1:5 2:2.7647059 3:1 4:1 5:3 6:0 7:47 8:0.17647059 9:1 10:0 11:0 12:0 13:3 14:7.5 15:0 16:17 17:0 
2 0 0 0 0 0 2 0 0 1:3 2:2.75 3:0 4:0 5:1 6:0 7:22 8:0.375 9:0 10:0 11:0 12:0 13:3 14:3 15:0 16:8 17:1 
2 0 0 0 2 0 0 0 0 1:6 2:2.65 3:0 4:0 5:2 6:0 7:53 8:0.15 9:2 10:0 11:0 12:0 13:3 14:6 15:0 16:20 17:3 
1.3073598971630593 2 2 0 0 2 2 0 2 1:1 2:4 3:0 4:0 5:0 6:0 7:4 8:0 9:1 10:0 11:0 12:0 13:0 14:1 15:0 16:1 17:0 
0 0 0 0 0 0 2 0 0 1:7 2:2.3076923 3:1 4:0 5:6 6:0 7:60 8:0.19230769 9:0 10:0 11:0 12:0 13:5 14:8 15:0 16:26 17:0 
0 0 0 0 2 0 2 0 0 1:7 2:2.8333333 3:2 4:0 5:1 6:0 7:51 8:0.16666667 9:4 10:0 11:0 12:0 13:3 14:5.3333333 15:0 16:18 17:0 
2 2 2 2 2 0 0 2 2 1:6 2:2.8125 3:2 4:0 5:3 6:1 7:45 8:0.125 9:0 10:0 11:0 12:0 13:2 14:16 15:1 16:16 17:0 
2 0 0 0 0 0 0 0 2 1:2 2:2.3333333 3:1 4:0 5:0 6:0 7:28 8:0.25 9:1 10:0 11:0 12:0 13:3 14:3 15:2 16:12 17:0 
0 0 0 0 0 0 0.1001464411213593 0 0 1:4 2:2.5384615 3:1 4:0 5:1 6:0 7:33 8:0.076923077 9:0 10:0 11:0 12:0 13:1 14:13 15:0 16:13 17:1 
2 2 2 2 2 2 2 2 2 1:11 2:2.5757576 3:1 4:1 5:3 6:2 7:85 8:0.090909091 9:1 10:1 11:1 12:0 13:3 14:16 15:0 16:33 17:1 
1.9832127280508689 0 0 0 0 0 2 2 0 1:3 2:2.8333333 3:0 4:0 5:0 6:0 7:17 8:0.16666667 9:0 10:0 11:0 12:0 13:1 14:6 15:0 16:6 17:0 
2 2 0.15397331118690227 2 2 2 1.3510391764541163 0 2 1:9 2:3.2105263 3:2 4:0 5:2 6:0 7:61 8:0.10526316 9:7 10:0 11:0 12:0 13:2 14:8.5 15:0 16:19 17:1 
2 2 2 2 2 0 2 2 2 1:8 2:2.5517241 3:1 4:0 5:4 6:1 7:74 8:0.13793103 9:1 10:0 11:0 12:0 13:4 14:29 15:1 16:29 17:0 
2 0 0 0 0.00017405767745069637 0 2 0 2 1:2 2:2.8571429 3:0 4:0 5:1 6:0 7:20 8:0.14285714 9:0 10:0 11:0 12:0 13:1 14:7 15:0 16:7 17:1 
2 2 2 0 2 2 2 2 2 1:1 2:2.6666667 3:0 4:0 5:0 6:0 7:8 8:0.33333333 9:1 10:0 11:0 12:0 13:1 14:3 15:0 16:3 17:0 
2 2 2 2 2 2 2 2 2 1:8 2:2.6956522 3:2 4:1 5:5 6:2 7:62 8:0.13043478 9:1 10:0 11:0 12:0 13:3 14:23 15:0 16:23 17:1 
2 2 2 2 2 2 2 2 2 1:13 2:2.7142857 3:1 4:0 5:6 6:1 7:95 8:0.17142857 9:5 10:0 11:0 12:0 13:6 14:10.666667 15:0 16:35 17:0 
0 0 0 0 0 0 2 0 0 1:1 2:2.3333333 3:0 4:0 5:0 6:0 7:21 8:0.11111111 9:1 10:0 11:0 12:0 13:1 14:9 15:0 16:9 17:1 
2 2 2 0 2 2 2 2 2 1:2 2:3.25 3:0 4:0 5:1 6:1 7:13 8:0.25 9:0 10:0 11:0 12:0 13:1 14:4 15:0 16:4 17:0 
0 0 0 0 0 0 0.18530721793305871 0 0 1:4 2:2.5714286 3:2 4:0 5:2 6:0 7:36 8:0.071428571 9:3 10:0 11:0 12:0 13:1 14:6.5 15:0 16:14 17:1 
2 2 2 2 2 2 2 2 2 1:14 2:3.3103448 3:3 4:0 5:7 6:1 7:96 8:0.068965517 9:1 10:0 11:0 12:0 13:2 14:29 15:0 16:29 17:0 
2 2 2 2 2 2 2 0 2 1:7 2:2.9 3:2 4:0 5:5 6:0 7:58 8:0.1 9:1 10:1 11:0 12:0 13:2 14:20 15:0 16:20 17:1 
2 2 0 2 2 2 2 2 2 1:9 2:2.8148148 3:2 4:0 5:6 6:2 7:76 8:0.14814815 9:1 10:2 11:0 12:0 13:4 14:8.3333333 15:0 16:27 17:1 
0 2 2 2 2 2 2 2 2 1:2 2:2.9 3:0 4:0 5:4 6:0 7:29 8:0 9:1 10:0 11:0 12:0 13:0 14:10 15:0 16:10 17:0 
2 2 2 2 0 2 2 2 2 1:3 2:4.75 3:2 4:0 5:3 6:0 7:19 8:0 9:0 10:0 11:0 12:0 13:0 14:4 15:0 16:4 17:0 
2 2 2 2 2 2 2 2 2 1:12 2:3.3809524 3:3 4:0 5:3 6:2 7:71 8:0.095238095 9:1 10:0 11:0 12:0 13:2 14:9.5 15:0 16:21 17:0 
2 0 0 0 2 0 2 2 2 1:2 2:2.5 3:0 4:0 5:0 6:1 7:20 8:0.25 9:1 10:0 11:0 12:0 13:2 14:2 15:1 16:8 17:0 
0 0 0 0 0 0 2 0 0 1:6 2:2 3:0 4:0 5:2 6:0 7:42 8:0.23809524 9:2 10:0 11:0 12:0 13:5 14:21 15:0 16:21 17:0 
2 0 0 2 2 0 2 0 0.0014914307732725666 1:9 2:2.3939394 3:3 4:0 5:7 6:1 7:79 8:0.15151515 9:1 10:0 11:0 12:0 13:5 14:7.5 15:0 16:33 17:1 
2 2 2 2 2 2 2 2 2 1:10 2:2.6071429 3:2 4:0 5:7 6:0 7:73 8:0.071428571 9:1 10:1 11:0 12:0 13:2 14:28 15:0 16:28 17:0 
2 2 2 2 2 2 2 2 2 1:10 2:3.1304348 3:4 4:0 5:5 6:0 7:72 8:0.086956522 9:1 10:0 11:0 12:0 13:2 14:11 15:0 16:23 17:0 
2 2 2 0 2 2 2 0.063532615498182329 2 1:1 2:4 3:0 4:0 5:1 6:0 7:8 8:0 9:0 10:0 11:0 12:0 13:0 14:2 15:0 16:2 17:0 
0 0 0 0 2 0 2 0 0 1:6 2:2.2903226 3:2 4:0 5:7 6:0 7:71 8:0.16129032 9:1 10:0 11:0 12:0 13:5 14:7 15:0 16:31 17:1 
2 2 2 2 2 2 2 2 2 1:15 2:3.15625 3:3 4:1 5:10 6:0 7:101 8:0.03125 9:1 10:0 11:0 12:0 13:1 14:32 15:0 16:32 17:0 
2 2 2 2 2 2 2 2 2 1:9 2:2.95 3:0 4:1 5:2 6:0 7:59 8:0.1 9:5 10:0 11:0 12:0 13:2 14:19 15:0 16:20 17:0 
2 2 0 2 2 2 2 2 2 1:10 2:2.9166667 3:0 4:0 5:5 6:1 7:70 8:0.16666667 9:1 10:0 11:0 12:0 13:4 14:11 15:0 16:24 17:1 
0 0 0 0 0 0 2 0 0 1:1 2:2.125 3:0 4:0 5:1 6:0 7:17 8:0.25 9:0 10:0 11:0 12:0 13:2 14:7 15:0 16:8 17:0 
2 2 2 2 2 2 2 2 2 1:8 2:2.7272727 3:1 4:0 5:5 6:1 7:60 8:0.13636364 9:2 10:1 11:0 12:0 13:3 14:10 15:0 16:22 17:0 
2 2 0 0 2 0 2 0 0 1:5 2:2.2857143 3:1 4:0 5:3 6:1 7:48 8:0.095238095 9:2 10:0 11:0 12:0 13:2 14:21 15:0 16:21 17:1 
2 2 2 0 2 2 2 2 0 1:3 2:2.7142857 3:0 4:0 5:2 6:2 7:19 8:0 9:0 10:0 11:0 12:0 13:0 14:7 15:0 16:7 17:0 
0 0 0 0 2 0 2 0 0 1:5 2:2.5652174 3:2 4:0 5:2 6:0 7:59 8:0.17391304 9:4 10:0 11:0 12:0 13:4 14:5 15:0 16:23 17:3 
0 0 0 0 0 0 2 0 0 1:3 2:2.5555556 3:0 4:0 5:0 6:0 7:23 8:0.22222222 9:1 10:0 11:0 12:0 13:2 14:4 15:0 16:9 17:1 
2 2 0 2 2 2 2 0 2 1:8 2:2.7083333 3:2 4:0 5:6 6:1 7:65 8:0.083333333 9:1 10:0 11:0 12:0 13:2 14:11.5 15:0 16:24 17:2 
2 2 2 2 2 2 2 2 2 1:11 2:2.6052632 3:3 4:0 5:12 6:1 7:99 8:0.10526316 9:5 10:0 11:0 12:0 13:4 14:18.5 15:0 16:38 17:0 
2 2 0 0 2 0 0.019813543801901652 0 2 1:5 2:2.45 3:1 4:0 5:4 6:0 7:49 8:0.1 9:1 10:0 11:0 12:0 13:2 14:19 15:0 16:20 17:2 
2 2 0 2 2 0 2 0 2 1:10 2:2.6206897 3:2 4:0 5:6 6:0 7:76 8:0.068965517 9:2 10:0 11:0 12:0 13:2 14:28 15:0 16:29 17:3 
0 2 2 0 0 2 2 0 2 1:3 2:5 3:1 4:0 5:1 6:0 7:15 8:0 9:0 10:0 11:0 12:0 13:0 14:3 15:0 16:3 17:0 
0 0 0 0 0 0 2 0 2 1:5 2:2.9 3:0 4:0 5:1 6:0 7:29 8:0.3 9:3 10:0 11:0 12:0 13:3 14:10 15:0 16:10 17:1 
2 2 0 2 2 2 2 2 2 1:9 2:2.5666667 3:2 4:0 5:7 6:2 7:77 8:0.13333333 9:2 10:0 11:0 12:0 13:4 14:9 15:0 16:30 17:0 
2 0 0 0 2 0 2 0 2 1:5 2:2.6111111 3:1 4:0 5:3 6:0 7:47 8:0.16666667 9:1 10:0 11:0 12:0 13:3 14:18 15:0 16:18 17:2 
2 2 0 2 2 2 2 2 2 1:11 2:2.65625 3:4 4:1 5:6 6:1 7:85 8:0.1875 9:1 10:1 11:0 12:0 13:6 14:9.6666667 15:0 16:32 17:0 
2 0 0 2 2 0 2 0 2 1:8 2:3.0952381 3:3 4:0 5:3 6:0 7:65 8:0.19047619 9:3 10:1 11:0 12:0 13:4 14:6 15:0 16:21 17:2 
2 2 0 0 2 0 2 0 2 1:1 2:2.6 3:1 4:0 5:1 6:0 7:13 8:0.2 9:0 10:0 11:0 12:0 13:1 14:5 15:0 16:5 17:1 
0.034076589832057469 2 0 0 2 0 2 0 2 1:6 2:2.5 3:0 4:0 5:3 6:0 7:45 8:0.11111111 9:0 10:0 11:0 12:0 13:2 14:18 15:0 16:18 17:1 
0 0 2 0 0 2 2 0 0 1:1 2:1.8333333 3:0 4:0 5:1 6:0 7:11 8:0 9:0 10:0 11:0 12:0 13:0 14:6 15:0 16:6 17:0 
2 2 2 2 2 2 0 2 2 1:7 2:3.375 3:4 4:0 5:5 6:0 7:54 8:0 9:2 10:1 11:0 12:0 13:0 14:16 15:0 16:16 17:1 
2 0 0 2 2 0 2 0 0.12705572022281222 1:9 2:2.4117647 3:4 4:0 5:4 6:1 7:82 8:0.14705882 9:4 10:0 11:0 12:0 13:5 14:10.666667 15:0 16:34 17:0 
0 0 0 0 0 0 2 0 0 1:2 2:1.8666667 3:1 4:1 5:2 6:0 7:28 8:0.2 9:1 10:0 11:0 12:0 13:3 14:6.5 15:0 16:15 17:0 
2 2 2 0 2 2 2 0 2 1:4 2:3 3:1 4:0 5:2 6:2 7:33 8:0.090909091 9:2 10:0 11:0 12:0 13:1 14:11 15:0 16:11 17:1 
2 2 2 2 2 2 2 2 2 1:9 2:3.1034483 3:2 4:1 5:6 6:2 7:90 8:0.13793103 9:3 10:2 11:2 12:0 13:4 14:29 15:0 16:29 17:1 
2 2 2 2 2 2 2 2 2 1:10 2:3.1 3:2 4:0 5:7 6:3 7:93 8:0.066666667 9:4 10:1 11:1 12:0 13:2 14:30 15:0 16:30 17:1 
2 0 0 0 2 0 2 2 0 1:2 2:2.5 3:0 4:0 5:0 6:0 7:15 8:0.5 9:2 10:0 11:0 12:0 13:3 14:1 15:0 16:6 17:0 
0 2 2 0 0 0 2 0 0 1:2 2:2.8571429 3:2 4:0 5:2 6:0 7:20 8:0.14285714 9:0 10:0 11:0 12:0 13:1 14:7 15:0 16:7 17:0 
0 2 2 0 2 2 2 0 2 1:1 2:3 3:0 4:0 5:0 6:0 7:9 8:0 9:0 10:0 11:0 12:0 13:0 14:3 15:0 16:3 17:0 
0 0 0 0 0 0 2 0 0 1:3 2:2.2 3:0 4:0 5:0 6:1 7:33 8:0.2 9:2 10:0 11:0 12:0 13:3 14:7 15:0 16:15 17:0 
0 0 0 0 0 0 2 0 0 1:2 2:2.3 3:1 4:0 5:0 6:1 7:23 8:0.3 9:1 10:0 11:0 12:0 13:3 14:10 15:0 16:10 17:0 
2 0 0 2 2 2 0 0 0 1:6 2:2.9285714 3:2 4:0 5:2 6:1 7:41 8:0.071428571 9:0 10:0 11:0 12:0 13:1 14:6.5 15:0 16:14 17:1 
0 2 2 2 0 2 2 2 0 1:3 2:3.1428571 3:1 4:0 5:3 6:0 7:22 8:0 9:0 10:0 11:0 12:0 13:0 14:7 15:0 16:7 17:0 
2 2 2 0 2 2 2 0 2 1:1 2:4 3:0 4:0 5:0 6:1 7:4 8:0 9:0 10:0 11:0 12:0 13:0 14:1 15:0 16:1 17:0 
2 2 2 2 2 2 0 1.2938586849852616 2 1:11 2:3.1923077 3:4 4:0 5:2 6:2 7:83 8:0.038461538 9:4 10:1 11:1 12:0 13:1 14:12.5 15:0 16:26 17:2 
2 2 2 2 2 0 1.4226315855868459 0 2 1:13 2:3.1153846 3:3 4:0 5:1 6:0 7:81 8:0.11538462 9:1 10:0 11:0 12:0 13:3 14:26 15:0 16:26 17:1 
2 2 2 2 2 2 2 2 2 1:11 2:2.8214286 3:3 4:1 5:6 6:0 7:79 8:0.10714286 9:1 10:0 11:0 12:0 13:3 14:28 15:0 16:28 17:0 
2 2 2 2 2 2 2 2 2 1:9 2:3.4 3:2 4:1 5:4 6:0 7:68 8:0.05 9:0 10:0 11:0 12:0 13:1 14:20 15:0 16:20 17:0 
2 2 2 0 2 0 2 2 2 1:2 2:3.6666667 3:0 4:0 5:0 6:0 7:11 8:0.33333333 9:0 10:0 11:0 12:0 13:1 14:3 15:0 16:3 17:0 
2 0 0 0 2 0.28935112699500065 2 0 2 1:8 2:2.85 3:1 4:0 5:4 6:1 7:57 8:0.15 9:0 10:0 11:0 12:0 13:3 14:9 15:0 16:20 17:1 
2 2 2 2 2 2 2 2 2 1:11 2:3.375 3:3 4:0 5:7 6:2 7:81 8:0.041666667 9:2 10:1 11:0 12:0 13:1 14:11.5 15:0 16:24 17:0 
0 0 0 0 2 0 2 0 0 1:8 2:2.3846154 3:2 4:0 5:6 6:0 7:62 8:0.19230769 9:0 10:0 11:0 12:0 13:5 14:8 15:0 16:26 17:0 
2 2 2 2 2 2 2 2 2 1:5 2:3.5555556 3:2 4:0 5:2 6:1 7:32 8:0.11111111 9:0 10:0 11:0 12:0 13:1 14:9 15:0 16:9 17:0 
2 2 0.62623867930429689 2 2 2 1.5504888569723756 2 2 1:8 2:3.1875 3:1 4:0 5:1 6:0 7:51 8:0.125 9:3 10:0 11:0 12:0 13:2 14:7.5 15:0 16:16 17:0 
0 2 2 0 0 0 2 0.17513264030231088 0 1:1 2:2.4285714 3:1 4:0 5:2 6:0 7:17 8:0.14285714 9:0 10:0 11:0 12:0 13:1 14:7 15:0 16:7 17:0 
0 0 0 0 0 0 2 0 0 1:2 2:2.6666667 3:1 4:0 5:0 6:0 7:24 8:0 9:0 10:0 11:0 12:0 13:0 14:9 15:0 16:9 17:1 
2 2 2 2 2 2 2 2 2 1:11 2:2.6944444 3:3 4:0 5:10 6:1 7:97 8:0.083333333 9:1 10:0 11:0 12:0 13:3 14:11.333333 15:0 16:36 17:0 
2 2 2 2 2 2 2 2 2 1:1 2:3 3:0 4:1 5:1 6:0 7:6 8:0 9:0 10:0 11:0 12:0 13:0 14:2 15:0 16:2 17:0 
0 2 2 0 0 0.0022613801019821483 2 0 2 1:1 2:2.125 3:0 4:0 5:2 6:0 7:17 8:0.125 9:1 10:0 11:0 12:0 13:1 14:8 15:0 16:8 17:0 
2 2 0 2 2 2 0 0 0 1:8 2:2.8 3:3 4:0 5:3 6:0 7:56 8:0.1 9:3 10:0 11:0 12:0 13:2 14:9.5 15:0 16:20 17:0 
0 0 0 0 0.045221443193821154 0 2 0 2 1:6 2:2.2142857 3:1 4:0 5:4 6:1 7:62 8:0.25 9:1 10:0 11:0 12:0 13:7 14:4.8 15:1 16:28 17:0 
2 2 2 0 2 2 2 2 2 1:2 2:3 3:0 4:0 5:1 6:1 7:18 8:0.16666667 9:1 10:0 11:0 12:0 13:1 14:2.5 15:0 16:6 17:0 
0 0 0 0 2 0 2 0 0 1:7 2:2.4347826 3:1 4:0 5:4 6:0 7:56 8:0.17391304 9:1 10:0 11:0 12:0 13:4 14:22 15:0 16:23 17:1 
2 0 0 0 2 0 2 0 2 1:1 2:2.3333333 3:0 4:0 5:0 6:0 7:14 8:0.33333333 9:0 10:0 11:0 12:0 13:2 14:6 15:0 16:6 17:2 
2 2 2 2 2 2 2 2 2 1:14 2:3.3076923 3:4 4:0 5:6 6:2 7:86 8:0.11538462 9:2 10:1 11:0 12:0 13:3 14:12.5 15:0 16:26 17:0 
2 2 0 0 2 0 2 2 0 1:1 2:1.8 3:0 4:0 5:1 6:0 7:9 8:0.6 9:0 10:0 11:0 12:0 13:3 14:0.66666667 15:0 16:5 17:0 
2 0 0 0 5.5717226984969498e-05 0 2 0 2 1:1 2:3 3:0 4:0 5:0 6:0 7:12 8:0 9:0 10:0 11:0 12:0 13:0 14:4 15:0 16:4 17:1 
1.9776448392904271 2 2 0 1.18629236191878 2 2 2 2 1:5 2:3.4 3:1 4:0 5:2 6:0 7:34 8:0.2 9:2 10:0 11:0 12:0 13:2 14:4 15:0 16:10 17:0 
2 0.37411239118173617 0 0 0 0 0.036559037228129712 0 0 1:4 2:3.5 3:2 4:0 5:0 6:0 7:28 8:0 9:1 10:0 11:0 12:0 13:0 14:8 15:0 16:8 17:1 
2 2 0 2 2 2 0 0 2 1:12 2:3 3:5 4:0 5:3 6:1 7:87 8:0.068965517 9:5 10:0 11:0 12:0 13:2 14:14 15:0 16:29 17:2 
2 2 2 2 2 0 2 2 2 1:1 2:4 3:1 4:0 5:0 6:0 7:8 8:0.5 9:0 10:0 11:0 12:0 13:1 14:1 15:0 16:2 17:0 
0 0 0 0 0.034441041953458575 0 2 0 0 1:6 2:2.5263158 3:0 4:0 5:3 6:0 7:48 8:0.15789474 9:1 10:0 11:0 12:0 13:3 14:9 15:0 16:19 17:0 
1.9669257443243788 1.6291857957324112 2 0 0 2 2 0 2 1:1 2:4 3:0 4:0 5:0 6:0 7:4 8:0 9:1 10:0 11:0 12:0 13:0 14:1 15:0 16:1 17:0 
0 0 0 0 0 0 2 0 0 1:6 2:2.2962963 3:0 4:0 5:4 6:0 7:62 8:0.22222222 9:0 10:0 11:0 12:0 13:6 14:12.5 15:0 16:27 17:1 
2 2 2 2 2 2 2 2 2 1:8 2:2.7916667 3:2 4:1 5:5 6:1 7:67 8:0.125 9:3 10:1 11:0 12:0 13:3 14:11 15:0 16:24 17:1 
1.8621402457955245 2 2 0 0 0.29814110031081598 2 0 2 1:3 2:4.25 3:1 4:0 5:0 6:0 7:17 8:0 9:0 10:0 11:0 12:0 13:0 14:4 15:0 16:4 17:0 
0 0 0 0 0 0 2 0 0 1:4 2:2.1666667 3:0 4:0 5:2 6:0 7:26 8:0.25 9:2 10:0 11:0 12:0 13:3 14:12 15:0 16:12 17:0 
2 2 2 2 2 2 2 2 2 1:3 2:4 3:1 4:0 5:1 6:1 7:20 8:0 9:0 10:0 11:0 12:0 13:0 14:5 15:0 16:5 17:0 
2 2 2 0 2 2 2 2 2 1:1 2:3 3:0 4:0 5:1 6:0 7:6 8:0 9:0 10:0 11:0 12:0 13:0 14:2 15:0 16:2 17:0 
2 0 0 0 0 2 2 0 0 1:3 2:2.8333333 3:0 4:0 5:1 6:1 7:17 8:0 9:0 10:0 11:0 12:0 13:0 14:6 15:0 16:6 17:1 
2 2 2 2 2 2 2 2 2 1:12 2:3.0333333 3:4 4:1 5:6 6:1 7:91 8:0.1 9:2 10:0 11:0 12:0 13:3 14:30 15:0 16:30 17:1 
2 0 0 0 0 0 2 0 0.00084742364637543715 1:3 2:2.5 3:0 4:0 5:2 6:0 7:20 8:0.25 9:0 10:0 11:0 12:0 13:2 14:8 15:0 16:8 17:1 
2 2 2 2 2 2 2 2 2 1:14 2:2.8333333 3:2 4:1 5:7 6:1 7:102 8:0.11111111 9:3 10:1 11:0 12:0 13:4 14:11.333333 15:0 16:36 17:1 
2 0 0 0 0 0 2 2 0 1:3 2:3.2 3:0 4:0 5:0 6:0 7:16 8:0.2 9:0 10:0 11:0 12:0 13:1 14:2 15:0 16:5 17:0 
2 0 0 0 0.85581767378081597 0 2 0 2 1:2 2:2.7142857 3:0 4:0 5:1 6:1 7:19 8:0.14285714 9:1 10:0 11:0 12:0 13:1 14:7 15:0 16:7 17:1 
2 0 0 0 0 0 0 0 0 1:4 2:2.5384615 3:0 4:0 5:1 6:1 7:33 8:0.076923077 9:0 10:0 11:0 12:0 13:1 14:6 15:0 16:13 17:3 
0.015224606877680357 0.80964139683645819 0 0 0 2 2 2 0 1:4 2:2.7 3:1 4:0 5:3 6:1 7:27 8:0.2 9:0 10:0 11:0 12:0 13:2 14:4 15:0 16:10 17:0 
0 2 2 0 2 2 2 2 0 1:1 2:2.3333333 3:0 4:1 5:0 6:0 7:14 8:0 9:0 10:0 11:0 12:0 13:0 14:6 15:0 16:6 17:0 
0 0 0 0 0 0 2 0 0 1:1 2:2 3:0 4:0 5:3 6:0 7:26 8:0.15384615 9:1 10:0 11:0 12:0 13:2 14:12 15:0 16:13 17:1 
2 2 2 0 0 2 2 2 2 1:2 2:2.8 3:0 4:0 5:1 6:0 7:14 8:0.2 9:1 10:0 11:0 12:0 13:1 14:5 15:0 16:5 17:0 
0 2 2 0 0 0 2 0 2 1:2 2:3 3:2 4:0 5:1 6:0 7:24 8:0 9:3 10:0 11:0 12:0 13:0 14:8 15:0 16:8 17:1 
2 2 2 2 2 2 2 2 2 1:9 2:3.1111111 3:0 4:0 5:4 6:0 7:56 8:0.11111111 9:1 10:0 11:0 12:0 13:2 14:5.3333333 15:0 16:18 17:0 
2 2 2 2 2 2 2 2 2 1:9 2:2.7428571 3:4 4:0 5:8 6:0 7:96 8:0.085714286 9:3 10:1 11:0 12:0 13:3 14:16.5 15:0 16:35 17:0 
0 0 0 0 0 0 2 0 0 1:6 2:2.6470588 3:2 4:0 5:3 6:1 7:45 8:0.17647059 9:1 10:0 11:0 12:0 13:3 14:7.5 15:0 16:17 17:1 
1.2676733158796005 2 0.43972510846532997 2 0 2 2 2 0 1:4 2:3.0909091 3:3 4:0 5:3 6:0 7:34 8:0.090909091 9:0 10:0 11:0 12:0 13:1 14:5 15:0 16:11 17:0 
2 0 0 0 0 2 2 2 0.27974769892681667 1:4 2:2.6428571 3:2 4:0 5:3 6:2 7:37 8:0.21428571 9:2 10:0 11:0 12:0 13:3 14:6 15:0 16:14 17:0 
1.9970827261731769 2 2 0 0 2 2 0 2 1:2 2:3.6666667 3:0 4:0 5:1 6:0 7:11 8:0 9:1 10:0 11:0 12:0 13:0 14:3 15:0 16:3 17:0 
2 0.0087576441052605331 2 2 2 0 2 0 2 1:3 2:3.125 3:1 4:0 5:0 6:0 7:25 8:0.125 9:1 10:1 11:1 12:0 13:1 14:7 15:0 16:8 17:0 
2 2 2 2 2 2 2 0 2 1:0 2:3 3:0 4:0 5:0 6:0 7:3 8:0 9:0 10:0 11:0 12:0 13:0 14:1 15:0 16:1 17:0 
2 2 2 0 1.0073458349717985 0 2 0 2 1:2 2:3.6 3:1 4:0 5:1 6:0 7:18 8:0 9:0 10:1 11:0 12:0 13:0 14:5 15:0 16:5 17:1 
2 1.196231713099879 0 0 0 0 2 0 2 1:4 2:3.4444444 3:2 4:0 5:2 6:1 7:31 8:0.22222222 9:2 10:0 11:0 12:0 13:2 14:2.3333333 15:0 16:9 17:1 
2 0 0 0 0 0 2 0 0.0021489538550904211 1:2 2:2.5714286 3:0 4:0 5:2 6:0 7:18 8:0.28571429 9:0 10:0 11:0 12:0 13:2 14:2.5 15:0 16:7 17:2 
2 2 2 0 2 2 2 0 2 1:1 2:2.3333333 3:0 4:0 5:1 6:0 7:7 8:0 9:0 10:0 11:0 12:0 13:0 14:3 15:0 16:3 17:0 
2 2 2 0 2 2 2 2 0 1:4 2:2.7692308 3:0 4:1 5:2 6:1 7:36 8:0.15384615 9:1 10:0 11:0 12:0 13:2 14:3.6666667 15:0 16:13 17:0 
2 2 2 2 2 2 0 2 2 1:8 2:2.95 3:2 4:0 5:3 6:1 7:59 8:0.05 9:2 10:0 11:0 12:0 13:1 14:20 15:0 16:20 17:1 
2 2 2 2 2 2 2 2 2 1:4 2:3.375 3:1 4:0 5:1 6:1 7:27 8:0 9:0 10:0 11:0 12:0 13:0 14:8 15:0 16:8 17:0 
0 0 0 0 0 0 2 0 0 1:1 2:1.7692308 3:0 4:0 5:1 6:0 7:23 8:0.15384615 9:1 10:0 11:0 12:0 13:2 14:13 15:0 16:13 17:0 
2 2 2 0 2 0 2 2 2 1:2 2:3.3333333 3:0 4:0 5:0 6:0 7:10 8:0.33333333 9:0 10:0 11:0 12:0 13:1 14:3 15:0 16:3 17:0 
2 0 0 2 2 0 2 0 2 1:9 2:2.84 3:2 4:0 5:3 6:0 7:71 8:0.12 9:3 10:0 11:0 12:0 13:3 14:11.5 15:0 16:25 17:2 
2 2 0 2 2 2 0.74736725052089292 0 2 1:6 2:2.8888889 3:2 4:0 5:4 6:2 7:52 8:0.11111111 9:0 10:0 11:0 12:0 13:2 14:8 15:0 16:18 17:2 
2 2 2 2 2 2 2 2 2 1:12 2:2.7741935 3:3 4:0 5:7 6:0 7:86 8:0.096774194 9:2 10:0 11:0 12:0 13:3 14:15 15:0 16:31 17:0 
2 0 0 0 2 0 2 0 0 1:9 2:2.4482759 3:0 4:0 5:8 6:0 7:71 8:0.13793103 9:0 10:0 11:0 12:0 13:4 14:5 15:0 16:29 17:2 
2 2 2 2 2 2 2 2 2 1:5 2:4.1111111 3:4 4:0 5:2 6:0 7:37 8:0.11111111 9:0 10:0 11:0 12:0 13:1 14:9 15:0 16:9 17:0 
2 2 0 0 0 0 2 0 0 1:2 2:3 3:1 4:0 5:0 6:0 7:18 8:0.16666667 9:1 10:0 11:0 12:0 13:1 14:5 15:0 16:6 17:0 
2 2 2 2 2 0 2 0 2 1:3 2:4.6 3:1 4:0 5:1 6:0 7:23 8:0 9:0 10:1 11:1 12:0 13:0 14:5 15:0 16:5 17:0 
2 2 0 2 2 2 2 2 2 1:10 2:2.8064516 3:3 4:1 5:3 6:1 7:87 8:0.096774194 9:6 10:0 11:0 12:0 13:3 14:7 15:0 16:31 17:1 
2 2 0 2 2 0 2 0 2 1:7 2:2.8148148 3:1 4:1 5:1 6:1 7:76 8:0.14814815 9:3 10:0 11:0 12:0 13:4 14:13 15:0 16:27 17:2 
2 2 2 2 2 0 0 0 2 1:7 2:2.95 3:3 4:0 5:3 6:1 7:59 8:0.05 9:1 10:0 11:0 12:0 13:1 14:20 15:0 16:20 17:2 
2 0 0 2 2 0 2 0 2 1:12 2:2.5789474 3:4 4:0 5:7 6:2 7:98 8:0.23684211 9:1 10:1 11:0 12:0 13:9 14:6.6 15:0 16:38 17:1 
2 2 2 0 2 2 2 0 2 1:0 2:3 3:0 4:0 5:0 6:0 7:6 8:0 9:1 10:0 11:0 12:0 13:0 14:2 15:0 16:2 17:0 
2 0 0 2 2 0 2 0 2 1:9 2:2.53125 3:2 4:0 5:5 6:0 7:81 8:0.09375 9:1 10:0 11:0 12:0 13:3 14:10 15:0 16:32 17:2 
1.9831002275253089 0 0 0 0 0 2 0 0 1:1 2:1.8333333 3:0 4:0 5:0 6:0 7:11 8:0.16666667 9:0 10:0 11:0 12:0 13:1 14:6 15:0 16:6 17:0 
2 2 2 2 2 0 2 2 2 1:4 2:5 3:1 4:0 5:0 6:0 7:25 8:0.2 9:0 10:1 11:0 12:0 13:1 14:5 15:0 16:5 17:0 
2 2 2 0 0 2 2 2 2 1:3 2:3.1666667 3:1 4:0 5:1 6:1 7:19 8:0.16666667 9:0 10:0 11:0 12:0 13:1 14:6 15:0 16:6 17:0 
2 2 2 2 2 2 2 2 2 1:13 2:2.8125 3:2 4:0 5:8 6:1 7:90 8:0.125 9:0 10:0 11:0 12:0 13:4 14:15.5 15:0 16:32 17:1 
2 2 2 0 2 2 2 2 0 1:2 2:4 3:0 4:1 5:0 6:0 7:16 8:0 9:1 10:0 11:0 12:0 13:0 14:4 15:0 16:4 17:0 
0 0 0 0 0.0051214740632344229 0 2 0 0 1:7 2:2.6190476 3:2 4:0 5:3 6:1 7:55 8:0.23809524 9:1 10:1 11:0 12:0 13:5 14:6.3333333 15:0 16:21 17:0 
2 2 2 2 2 1.8001467416041084 2 2 2 1:3 2:3 3:3 4:0 5:3 6:0 7:36 8:0.16666667 9:1 10:1 11:0 12:0 13:2 14:5.5 15:0 16:12 17:0 
2 2 2 2 2 2 2 2 2 1:12 2:3.2173913 3:0 4:0 5:3 6:2 7:74 8:0.086956522 9:4 10:0 11:0 12:0 13:2 14:11 15:0 16:23 17:0 
2 0 0 0 2 0 0 0 2 1:7 2:2.3846154 3:0 4:0 5:3 6:1 7:62 8:0.15384615 9:3 10:0 11:0 12:0 13:4 14:8 15:1 16:26 17:1 
2 2 2 2 2 2 0.080797580107569475 0 2 1:6 2:2.6818182 3:4 4:0 5:5 6:1 7:59 8:0.045454545 9:1 10:1 11:0 12:0 13:1 14:21 15:0 16:22 17:1 
2 2 0 0 2 0 2 0 0 1:3 2:2.4375 3:1 4:0 5:2 6:1 7:39 8:0.0625 9:1 10:0 11:0 12:0 13:1 14:15 15:0 16:16 17:1 
2 2 2 2 2 2 2 2 2 1:3 2:2.9 3:0 4:0 5:1 6:2 7:29 8:0 9:0 10:0 11:0 12:0 13:0 14:10 15:0 16:10 17:0 
2 0 2 0 2 0.15258088995590185 0 2 2 1:5 2:2.3529412 3:0 4:0 5:4 6:2 7:40 8:0.058823529 9:0 10:0 11:0 12:0 13:1 14:8 15:1 16:17 17:0 
0 2 2 0 0 0 2 0 0 1:1 2:2.375 3:0 4:0 5:1 6:0 7:19 8:0.125 9:0 10:0 11:0 12:0 13:1 14:8 15:0 16:8 17:0 
2 2 2 0 0 0 2 0 2 1:3 2:2.8181818 3:1 4:0 5:2 6:1 7:31 8:0.090909091 9:0 10:0 11:0 12:0 13:1 14:11 15:0 16:11 17:1 
0 0 0 0 0 2 2 0 0 1:2 2:2.25 3:0 4:0 5:1 6:0 7:18 8:0.125 9:1 10:0 11:0 12:0 13:1 14:3.5 15:0 16:8 17:0 
0 0 0 0 0 2 2 0 0 1:3 2:2.8333333 3:0 4:0 5:1 6:0 7:17 8:0 9:0 10:0 11:0 12:0 13:0 14:6 15:0 16:6 17:1 
2 0 0 0 0 0 2 0 0 1:3 2:2.5714286 3:0 4:0 5:2 6:0 7:18 8:0.14285714 9:0 10:0 11:0 12:0 13:1 14:7 15:0 16:7 17:1 
2 2 2 0 0 2 2 2 0 1:3 2:3.2 3:1 4:0 5:2 6:0 7:16 8:0.2 9:0 10:0 11:0 12:0 13:1 14:5 15:0 16:5 17:0 
2 2 2 2 2 2 2 2 2 1:10 2:2.7407407 3:3 4:0 5:4 6:1 7:74 8:0.074074074 9:1 10:0 11:0 12:0 13:2 14:27 15:0 16:27 17:0 
2 0 0 0 2 0 0 0 2 1:6 2:3.1333333 3:3 4:0 5:3 6:1 7:47 8:0.2 9:0 10:0 11:0 12:0 13:3 14:7 15:0 16:15 17:3 
0 2 0 0 0 0 2 0 0 1:1 2:1.7272727 3:0 4:0 5:3 6:0 7:19 8:0.090909091 9:0 10:0 11:0 12:0 13:1 14:11 15:0 16:11 17:0 
2 2 2 2 2 2 2 2 2 1:9 2:2.4516129 3:2 4:0 5:11 6:0 7:76 8:0.064516129 9:2 10:0 11:0 12:0 13:2 14:31 15:0 16:31 17:0 
0 0 0 0 0 0 2 0 0 1:1 2:2.2 3:0 4:0 5:1 6:0 7:22 8:0.2 9:0 10:0 11:0 12:0 13:2 14:9 15:0 16:10 17:1 
0 2 2 0 0 2 2 0.02658470033013351 2 1:2 2:3.4 3:1 4:0 5:2 6:0 7:17 8:0 9:1 10:0 11:0 12:0 13:0 14:5 15:0 16:5 17:0 
2 0 2 0 0 2 2 0 0 1:2 2:2.8571429 3:1 4:0 5:1 6:1 7:20 8:0 9:1 10:0 11:0 12:0 13:0 14:7 15:0 16:7 17:1 
2 2 0 2 2 0 0 0 2 1:12 2:2.6486486 3:1 4:0 5:6 6:1 7:98 8:0.054054054 9:0 10:0 11:0 12:0 13:2 14:18 15:0 16:37 17:8 
2 2 2 2 2 0 2 0 2 1:11 2:2.6153846 3:2 4:0 5:8 6:1 7:102 8:0.17948718 9:4 10:1 11:1 12:0 13:7 14:19 15:0 16:39 17:2 
2 2 2 0 2 0 2 2 2 1:7 2:3.1333333 3:0 4:0 5:4 6:1 7:47 8:0.2 9:0 10:0 11:0 12:0 13:3 14:7 15:1 16:15 17:0 
2 2 2 2 2 0 2 0 2 1:6 2:2.6818182 3:2 4:0 5:8 6:1 7:59 8:0.18181818 9:1 10:0 11:0 12:0 13:4 14:22 15:0 16:22 17:1 
2 2 2 2 0.010733155555153846 2 2 2 2 1:4 2:3.6666667 3:1 4:0 5:2 6:0 7:22 8:0 9:0 10:0 11:0 12:0 13:0 14:6 15:0 16:6 17:0 
2 2 0 2 2 0 0 0 2 1:6 2:2.5217391 3:1 4:0 5:3 6:0 7:58 8:0.043478261 9:3 10:0 11:0 12:0 13:1 14:23 15:0 16:23 17:2 
2 0 0 0 0 0 2 2 0 1:1 2:1.4285714 3:0 4:0 5:0 6:0 7:10 8:0.42857143 9:0 10:0 11:0 12:0 13:3 14:3 15:0 16:7 17:0 
2 2 2 2 2 2 2 2 2 1:7 2:3.8666667 3:4 4:0 5:4 6:1 7:58 8:0.13333333 9:0 10:3 11:0 12:0 13:2 14:6.5 15:0 16:15 17:1 
0 2 2 2 2 0 2 0 2 1:7 2:2.4615385 3:2 4:0 5:4 6:0 7:64 8:0.15384615 9:2 10:0 11:0 12:0 13:4 14:26 15:0 16:26 17:0 
0 0 0 0 0 0 2 0 0 1:4 2:2.4705882 3:2 4:0 5:3 6:0 7:42 8:0.17647059 9:0 10:0 11:0 12:0 13:3 14:8 15:0 16:17 17:0 
2 2 2 2 2 2 2 2 2 1:11 2:2.8484848 3:3 4:0 5:11 6:0 7:94 8:0.060606061 9:3 10:0 11:0 12:0 13:2 14:16 15:0 16:33 17:1 
2 2 2 2 2 2 2 2 2 1:13 2:2.5405405 3:1 4:0 5:7 6:0 7:94 8:0.13513514 9:4 10:0 11:0 12:0 13:5 14:37 15:0 16:37 17:0 
2 2 2 2 2 2 2 2 0 1:2 2:2.5833333 3:2 4:1 5:2 6:1 7:31 8:0.083333333 9:1 10:0 11:0 12:0 13:1 14:5.5 15:0 16:12 17:0 
2 0 0 0 2 0 2 0 2 1:3 2:3.3333333 3:0 4:0 5:0 6:1 7:20 8:0.16666667 9:0 10:0 11:0 12:0 13:1 14:6 15:0 16:6 17:1 
2 2 2 0 2 2 2 2 0 1:2 2:2.75 3:0 4:0 5:0 6:0 7:11 8:0.25 9:1 10:0 11:0 12:0 13:1 14:4 15:0 16:4 17:0 
0 0 0 0 0 0 2 0 0 1:3 2:2.3125 3:0 4:0 5:0 6:0 7:37 8:0.3125 9:1 10:0 11:0 12:0 13:5 14:4.3333333 15:0 16:16 17:2 
2 0 0 0 2 0 2 0 2 1:5 2:3.1176471 3:2 4:0 5:2 6:0 7:53 8:0.23529412 9:2 10:1 11:0 12:0 13:4 14:3.5 15:0 16:17 17:2 
0 0 0 0 0 0 2 0 0 1:4 2:2.4117647 3:0 4:0 5:2 6:0 7:41 8:0.11764706 9:3 10:0 11:0 12:0 13:2 14:7.5 15:0 16:17 17:1 
2 2 2 2 2 2 2 2 2 1:10 2:2.7333333 3:2 4:0 5:8 6:0 7:82 8:0.033333333 9:2 10:0 11:0 12:0 13:1 14:14.5 15:0 16:30 17:0 
2 2 0 2 2 2 2 2 0 1:5 2:2.7058824 3:2 4:0 5:3 6:2 7:46 8:0.11764706 9:1 10:0 11:0 12:0 13:2 14:7.5 15:0 16:17 17:0 
2 0 0 0 2 0 2 0 2 1:0 2:2.5 3:0 4:0 5:0 6:0 7:5 8:0 9:0 10:0 11:0 12:0 13:0 14:2 15:0 16:2 17:1 
2 0 0 0 0.021704126013511356 0 0 0 0 1:4 2:2.9090909 3:1 4:0 5:0 6:1 7:32 8:0.090909091 9:1 10:0 11:0 12:0 13:1 14:11 15:0 16:11 17:1 
2 2 2 2 2 2 2 2 2 1:6 2:3.1333333 3:0 4:0 5:3 6:1 7:47 8:0.066666667 9:1 10:0 11:0 12:0 13:1 14:7 15:0 16:15 17:1 
2 0 0 0 2 0 2 0 0 1:0 2:1.6666667 3:0 4:0 5:0 6:0 7:10 8:0.16666667 9:0 10:0 11:0 12:0 13:1 14:6 15:0 16:6 17:0 
0 2 2 0 2 2 2 0 2 1:1 2:3.3333333 3:0 4:0 5:1 6:0 7:10 8:0 9:1 10:0 11:0 12:0 13:0 14:3 15:0 16:3 17:0 
2 2 2 2 2 2 2 2 2 1:14 2:3.0588235 3:3 4:0 5:4 6:2 7:104 8:0.088235294 9:5 10:0 11:0 12:0 13:3 14:16.5 15:0 16:34 17:0 
2 2 2 2 2 2 2 2 0.0038711609310337473 1:1 2:3.3333333 3:1 4:1 5:0 6:1 7:10 8:0 9:0 10:0 11:0 12:0 13:0 14:3 15:0 16:3 17:0 
2 0 0 2 2 0 2 0 2 1:10 2:2.5882353 3:2 4:0 5:5 6:3 7:88 8:0.23529412 9:2 10:0 11:0 12:0 13:8 14:16.5 15:0 16:34 17:2 
2 2 0 2 2 2 2 2 2 1:6 2:3.6363636 3:3 4:0 5:2 6:0 7:40 8:0.18181818 9:0 10:0 11:0 12:0 13:2 14:3 15:0 16:11 17:0 
0 2 2 0 0 2 2 0 2 1:4 2:3.4285714 3:1 4:0 5:1 6:0 7:24 8:0 9:2 10:0 11:0 12:0 13:0 14:7 15:0 16:7 17:1 
2 2 2 2 2 0.063092013371662745 2 2 2 1:3 2:4 3:2 4:0 5:1 6:0 7:24 8:0.16666667 9:1 10:1 11:0 12:0 13:1 14:6 15:0 16:6 17:0 
2 2 2 2 2 2 0 2 2 1:8 2:3.5294118 3:3 4:0 5:2 6:0 7:60 8:0.058823529 9:1 10:1 11:0 12:0 13:1 14:8 15:0 16:17 17:1 
1.8974416321214989 0 2 0 0 0 2 0 2 1:1 2:5 3:0 4:0 5:0 6:0 7:5 8:0 9:0 10:0 11:0 12:0 13:0 14:1 15:0 16:1 17:0 
0 2 2 0 0 2 2 0 0 1:2 2:2.5 3:0 4:0 5:1 6:0 7:15 8:0 9:0 10:0 11:0 12:0 13:0 14:6 15:0 16:6 17:0 
2 2 2 0 1.3220409174284924 2 2 2 2 1:5 2:2.9 3:0 4:0 5:3 6:1 7:29 8:0.1 9:0 10:0 11:0 12:0 13:1 14:10 15:0 16:10 17:0 
2 0 0 0 0.28644373252043315 0 2 0 2 1:4 2:3.5555556 3:2 4:0 5:1 6:0 7:32 8:0.11111111 9:3 10:0 11:0 12:0 13:1 14:4 15:0 16:9 17:2 
2 2 2 2 2 2 2 2 2 1:9 2:3.7142857 3:3 4:1 5:1 6:3 7:52 8:0.071428571 9:0 10:0 11:0 12:0 13:1 14:6.5 15:0 16:14 17:0 
2 2 2 0 1.9208069963086563 0.0067491933040835445 2 2 0.55115099625925434 1:3 2:2.7142857 3:0 4:0 5:0 6:2 7:19 8:0.28571429 9:0 10:0 11:0 12:0 13:2 14:7 15:0 16:7 17:0 
2 2 0 0 1.8804110822719871 0 2 2 0 1:1 2:2.4 3:1 4:0 5:0 6:0 7:12 8:0.2 9:0 10:0 11:0 12:0 13:1 14:5 15:0 16:5 17:0 
0 1.6670104117177538 0 0 0 0 2 0 0 1:3 2:2.4 3:0 4:0 5:2 6:0 7:24 8:0.2 9:0 10:0 11:0 12:0 13:2 14:10 15:0 16:10 17:0 
0 2 2 0 0 2 2 0 2 1:2 2:3.25 3:0 4:0 5:1 6:0 7:13 8:0 9:0 10:0 11:0 12:0 13:0 14:4 15:0 16:4 17:0 
2 2 2 2 2 2 2 2 0 1:0 2:2.5 3:0 4:1 5:0 6:0 7:5 8:0 9:0 10:0 11:0 12:0 13:0 14:2 15:0 16:2 17:0 
0 2 2 0 0 2 2 0 2 1:2 2:5 3:0 4:0 5:1 6:0 7:10 8:0 9:0 10:0 11:0 12:0 13:0 14:2 15:0 16:2 17:0 
0 0 0 0 0 0 2 0 0 1:3 2:3 3:0 4:0 5:0 6:0 7:21 8:0 9:0 10:0 11:0 12:0 13:0 14:7 15:0 16:7 17:1 
2 2 2 0 2 2 2 2 0 1:1 2:3.5 3:0 4:1 5:0 6:0 7:7 8:0 9:1 10:0 11:0 12:0 13:0 14:2 15:0 16:2 17:0 
2 0 0 0 0 0 2 0 0.00050067429761217459 1:2 2:2.8333333 3:0 4:0 5:0 6:0 7:17 8:0 9:2 10:0 11:0 12:0 13:0 14:6 15:0 16:6 17:2 
2 2 2 0 0.32040973722269994 0 2 2 0 1:2 2:3.25 3:1 4:0 5:0 6:0 7:13 8:0.25 9:0 10:0 11:0 12:0 13:1 14:4 15:0 16:4 17:0 
2 0 0 0 0 0 2 2 0 1:1 2:2.1428571 3:1 4:0 5:0 6:0 7:15 8:0.57142857 9:1 10:0 11:0 12:0 13:4 14:0.75 15:0 16:7 17:0 
2 2 2 2 2 2 2 2 2 1:12 2:3.1153846 3:3 4:0 5:6 6:3 7:81 8:0.038461538 9:1 10:1 11:0 12:0 13:1 14:25 15:0 16:26 17:0 
0 2 2 0 0 2 2 0 0 1:4 2:3.3333333 3:1 4:0 5:1 6:0 7:20 8:0 9:0 10:0 11:0 12:0 13:0 14:6 15:0 16:6 17:0 
0 0 0 0 0 0 2 0 0 1:6 2:2.6 3:0 4:0 5:1 6:1 7:39 8:0.13333333 9:2 10:0 11:0 12:0 13:2 14:7 15:0 16:15 17:1 
1.9943507877907103 0 2 0 0 0 2 0 2 1:1 2:5 3:0 4:0 5:0 6:0 7:5 8:0 9:0 10:0 11:0 12:0 13:0 14:1 15:0 16:1 17:0 
2 2 0 2 2 2 2 2 0 1:6 2:2.4482759 3:1 4:0 5:6 6:1 7:71 8:0.068965517 9:3 10:0 11:0 12:0 13:2 14:9 15:0 16:29 17:1 
2 2 0 2 2 0 2 0 2 1:8 2:2.3947368 3:2 4:0 5:6 6:1 7:91 8:0.13157895 9:2 10:0 11:0 12:0 13:5 14:12 15:0 16:38 17:1 
2 2 2 2 2 2 2 2 2 1:14 2:2.9117647 3:1 4:0 5:6 6:4 7:99 8:0.029411765 9:3 10:0 11:0 12:0 13:1 14:34 15:0 16:34 17:1 
2 2 2 2 2 2 2 2 2 1:10 2:3 3:4 4:0 5:6 6:3 7:90 8:0.066666667 9:0 10:0 11:0 12:0 13:2 14:14.5 15:0 16:30 17:2 
0 0 0 0 0 2 2 0.091088283945727239 0.00083457952511578647 1:8 2:2.8 3:0 4:0 5:4 6:0 7:42 8:0.26666667 9:2 10:0 11:0 12:0 13:4 14:4 15:0 16:15 17:0 
2 2 0 2 2 2 2 2 0 1:8 2:2.8421053 3:3 4:0 5:4 6:2 7:54 8:0.15789474 9:0 10:0 11:0 12:0 13:3 14:9 15:0 16:19 17:0 
0.14803024747214477 0 0 0 0 2 2 2 0 1:4 2:2.5454545 3:0 4:0 5:2 6:2 7:28 8:0.27272727 9:0 10:0 11:0 12:0 13:3 14:5 15:0 16:11 17:0 
0 2 2 2 0 0 2 0 0 1:5 2:3.1538462 3:4 4:0 5:2 6:0 7:41 8:0.15384615 9:0 10:0 11:0 12:0 13:2 14:12 15:0 16:13 17:0 
2 2 2 2 2 2 2 2 2 1:10 2:3.1612903 3:4 4:0 5:5 6:1 7:98 8:0.064516129 9:2 10:2 11:0 12:0 13:2 14:15 15:0 16:31 17:2 
0.063908096736605635 2 0 0 2 0 2 0 1.9988163169516255 1:3 2:2.0833333 3:0 4:0 5:4 6:1 7:50 8:0.083333333 9:1 10:0 11:0 12:0 13:2 14:24 15:0 16:24 17:1 
2 2 2 2 2 2 2 2 2 1:6 2:3.3888889 3:1 4:0 5:2 6:1 7:61 8:0.055555556 9:4 10:1 11:0 12:0 13:1 14:8.5 15:0 16:18 17:0 
1.9931526503665193 1.5163629913046186 2 0 0 2 2 0 2 1:1 2:4 3:0 4:0 5:0 6:0 7:4 8:0 9:0 10:0 11:0 12:0 13:0 14:1 15:0 16:1 17:0 
2 2 2 0 2 2 2 0 2 1:2 2:2.8 3:1 4:0 5:1 6:2 7:28 8:0 9:1 10:0 11:0 12:0 13:0 14:10 15:0 16:10 17:1 
2 2 2 2 2 0 2 0 2 1:10 2:2.3428571 3:0 4:0 5:8 6:1 7:82 8:0.11428571 9:1 10:0 11:0 12:0 13:4 14:35 15:0 16:35 17:2 
0 0 0 0 0 0 2 0 0 1:4 2:1.962963 3:2 4:0 5:5 6:1 7:53 8:0.22222222 9:0 10:0 11:0 12:0 13:6 14:26 15:0 16:27 17:1 
1.8762329179082553 2 2 0 2 2 2 0 2 1:0 2:2 3:0 4:0 5:0 6:0 7:4 8:0 9:1 10:0 11:0 12:0 13:0 14:2 15:0 16:2 17:0 
0 2 2 0 2 0 2 0 2 1:6 2:2.3076923 3:0 4:0 5:5 6:0 7:60 8:0.15384615 9:1 10:0 11:0 12:0 13:4 14:26 15:0 16:26 17:0 
2 0 0 2 2 2 2 0 2 1:10 2:2.6785714 3:0 4:0 5:6 6:2 7:75 8:0.17857143 9:0 10:0 11:0 12:0 13:5 14:6.25 15:0 16:28 17:2 
2 0 0 0.011438936832545488 2 0 0 0 0 1:6 2:2.5217391 3:2 4:0 5:4 6:1 7:58 8:0.17391304 9:0 10:1 11:1 12:0 13:4 14:6.6666667 15:0 16:23 17:3 
2 2 2 2 2 2 2 2 2 1:9 2:3.4761905 3:4 4:0 5:6 6:1 7:73 8:0 9:2 10:1 11:0 12:0 13:0 14:21 15:0 16:21 17:0 
0 2 2 0 0.0051759667870608051 2 2 2 2 1:2 2:2.8571429 3:0 4:0 5:3 6:0 7:20 8:0 9:0 10:0 11:0 12:0 13:0 14:7 15:0 16:7 17:0 
2 2 2 2 2 2 2 2 2 1:14 2:3.15625 3:3 4:0 5:6 6:2 7:101 8:0.125 9:5 10:0 11:0 12:0 13:4 14:10 15:0 16:32 17:1 
0 2 2 0 0 2 2 0 2 1:2 2:3 3:0 4:0 5:1 6:0 7:12 8:0 9:0 10:0 11:0 12:0 13:0 14:4 15:0 16:4 17:0 
2 2 2 0 0.020433194719983259 2 2 2 2 1:3 2:3.4 3:0 4:0 5:0 6:1 7:17 8:0.2 9:1 10:0 11:0 12:0 13:1 14:5 15:0 16:5 17:0 
2 2 0 0 2 2 1.2216974758672359 2 0.10345417559986597 1:8 2:2.7368421 3:0 4:0 5:3 6:0 7:52 8:0.10526316 9:1 10:0 11:0 12:0 13:2 14:9 15:0 16:19 17:0 
0 0 0 0 0 0 2 0 0.00043428358549301951 1:3 2:2.6666667 3:1 4:0 5:3 6:0 7:32 8:0.33333333 9:0 10:0 11:0 12:0 13:4 14:5.5 15:0 16:12 17:0 
2 2 2 0 2 2 2 2 2 1:1 2:2.5 3:0 4:0 5:1 6:0 7:5 8:0 9:0 10:0 11:0 12:0 13:0 14:2 15:0 16:2 17:0 
0 0 0 2 2 0 2 0 0 1:9 2:2.6071429 3:3 4:0 5:4 6:0 7:73 8:0.17857143 9:0 10:0 11:0 12:0 13:5 14:8.6666667 15:0 16:28 17:0 
0 2 2 0 0 2 2 0 2 1:2 2:3.3333333 3:0 4:0 5:1 6:0 7:10 8:0 9:0 10:0 11:0 12:0 13:0 14:3 15:0 16:3 17:0 
2 2 2 2 2 2 2 2 2 1:11 2:3.3333333 3:0 4:1 5:7 6:0 7:60 8:0.055555556 9:0 10:0 11:0 12:0 13:1 14:18 15:0 16:18 17:0 
2 2 2 2 2 2 2 0.89914827922085105 2 1:6 2:3 3:1 4:0 5:2 6:0 7:36 8:0.083333333 9:1 10:1 11:0 12:0 13:1 14:12 15:0 16:12 17:0 
0 0 0 0 2 0 2 0 0 1:7 2:2.6666667 3:1 4:0 5:3 6:0 7:56 8:0.19047619 9:5 10:0 11:0 12:0 13:4 14:6 15:0 16:21 17:0 
2 2 0 2 2 0 0.30243729242609296 0 2 1:9 2:3.25 3:3 4:0 5:3 6:1 7:78 8:0.125 9:1 10:1 11:0 12:0 13:3 14:11.5 15:0 16:24 17:4 
2 2 0 2 2 0.32707893929463949 2 0 2 1:6 2:2.4666667 3:1 4:1 5:6 6:1 7:74 8:0.1 9:2 10:0 11:0 12:0 13:3 14:6.75 15:0 16:30 17:3 
2 2 0 2 2 0 2 0 2 1:8 2:2.8846154 3:4 4:0 5:4 6:1 7:75 8:0.15384615 9:1 10:1 11:1 12:0 13:4 14:12.5 15:0 16:26 17:1 
2 2 0 2 2 2 2 2 2 1:8 2:2.6428571 3:2 4:0 5:4 6:2 7:74 8:0.071428571 9:2 10:1 11:0 12:0 13:2 14:13.5 15:0 16:28 17:1 
2 2 2 2 2 0 2 0 2 1:10 2:2.88 3:2 4:0 5:4 6:0 7:72 8:0.12 9:1 10:0 11:0 12:0 13:3 14:24 15:0 16:25 17:1 
2 0 0 0 0 0 2 0 2 1:2 2:3.5 3:1 4:0 5:1 6:0 7:14 8:0 9:0 10:0 11:0 12:0 13:0 14:4 15:0 16:4 17:1 
2 2 2 2 2 2 2 2 2 1:11 2:2.7857143 3:1 4:0 5:7 6:2 7:78 8:0.10714286 9:3 10:0 11:0 12:0 13:3 14:13.5 15:0 16:28 17:1 
2 2 2 2 2 0 2 2 2 1:2 2:3.5 3:1 4:0 5:0 6:0 7:14 8:0.25 9:0 10:1 11:0 12:0 13:1 14:4 15:0 16:4 17:0 
2 2 2 0 2 0 2 0 0 1:1 2:2.5 3:0 4:1 5:1 6:0 7:20 8:0.125 9:1 10:0 11:0 12:0 13:1 14:8 15:0 16:8 17:1 
2 2 2 2 2 2 0 2 2 1:9 2:3.45 3:5 4:0 5:0 6:0 7:69 8:0.1 9:2 10:3 11:0 12:0 13:2 14:9.5 15:0 16:20 17:0 
0 2 0 0 2 0 2 0 0.0035530688796898812 1:7 2:2.2307692 3:1 4:0 5:5 6:0 7:58 8:0.11538462 9:1 10:0 11:0 12:0 13:3 14:26 15:0 16:26 17:1 
2 2 2 0 0.00014169712643326803 0 2 0 2 1:4 2:3.3333333 3:2 4:0 5:2 6:0 7:30 8:0.11111111 9:1 10:0 11:0 12:0 13:1 14:9 15:0 16:9 17:1 
2 2 2 2 2 2 2 2 2 1:11 2:3.1212121 3:7 4:0 5:3 6:1 7:103 8:0.090909091 9:5 10:1 11:0 12:0 13:3 14:10.333333 15:0 16:33 17:1 
2 2 2 0.66234555958031505 0 2 2 2 5.1139236541968934e-05 1:4 2:3.5714286 3:2 4:0 5:1 6:1 7:25 8:0.14285714 9:0 10:0 11:0 12:0 13:1 14:3 15:0 16:7 17:0 
0 2 2 0 1.9289017395201669 2 2 0 2 1:1 2:4 3:0 4:0 5:0 6:0 7:8 8:0 9:1 10:0 11:0 12:0 13:0 14:2 15:0 16:2 17:0 
0 0 0 0 0 0 2 0 0 1:2 2:2.3 3:0 4:0 5:1 6:0 7:23 8:0.2 9:1 10:0 11:0 12:0 13:2 14:10 15:0 16:10 17:1 
2 0 0 2 2 0 2 0 2 1:11 2:2.9259259 3:2 4:1 5:3 6:0 7:79 8:0.22222222 9:3 10:0 11:0 12:0 13:6 14:8.3333333 15:0 16:27 17:1 
0 0 0 0 0 0 2 0 0 1:5 2:3 3:1 4:0 5:0 6:0 7:30 8:0.2 9:1 10:0 11:0 12:0 13:2 14:9 15:0 16:10 17:0 
2 2 2 0 2 2 2 2 2 1:3 2:3.2 3:0 4:0 5:1 6:1 7:16 8:0.2 9:1 10:0 11:0 12:0 13:1 14:4 15:0 16:5 17:0 
0 2 2 0 0 0 2 0 2 1:1 2:3.25 3:0 4:0 5:0 6:0 7:13 8:0 9:0 10:0 11:0 12:0 13:0 14:4 15:0 16:4 17:0 
2 0.023333806200077193 0 0 2 0 2 0 2 1:1 2:2.75 3:0 4:0 5:0 6:0 7:11 8:0.25 9:0 10:0 11:0 12:0 13:1 14:3 15:0 16:4 17:1 
0 0 2 0 0 2 2 0 0 1:2 2:2.8 3:0 4:0 5:0 6:0 7:14 8:0 9:1 10:0 11:0 12:0 13:0 14:5 15:0 16:5 17:0 
2 2 2 0 2 2 2 0 2 1:1 2:4 3:0 4:0 5:1 6:0 7:8 8:0 9:0 10:0 11:0 12:0 13:0 14:2 15:0 16:2 17:0 
2 2 2 0 2 2 2 0 2 1:1 2:3 3:0 4:0 5:0 6:0 7:6 8:0 9:0 10:0 11:0 12:0 13:0 14:2 15:0 16:2 17:0 
2 0 0 0 0 2 2 0 0 1:2 2:2.2857143 3:0 4:0 5:2 6:1 7:16 8:0.14285714 9:0 10:0 11:0 12:0 13:1 14:6 15:0 16:7 17:1 
0 2 2 0 0 0 2 0 0 1:3 2:2.5 3:0 4:0 5:2 6:0 7:25 8:0.1 9:0 10:0 11:0 12:0 13:1 14:10 15:0 16:10 17:0 
2 0 0 0 2 0 2 0 2 1:1 2:3.3333333 3:0 4:0 5:0 6:0 7:10 8:0 9:0 10:0 11:0 12:0 13:0 14:3 15:0 16:3 17:1 
2 2 2 0 2 2 2 0 2 1:1 2:4 3:0 4:0 5:0 6:1 7:4 8:0 9:0 10:0 11:0 12:0 13:0 14:1 15:0 16:1 17:0 
2 2 2 2 2 2 2 2 2 1:5 2:3.6363636 3:3 4:0 5:2 6:1 7:40 8:0.18181818 9:1 10:1 11:0 12:0 13:2 14:5 15:0 16:11 17:0 
0 0 0 0 0 0 2 0.13622518759852525 0 1:1 2:2.2857143 3:0 4:0 5:1 6:0 7:16 8:0.14285714 9:0 10:0 11:0 12:0 13:1 14:3 15:0 16:7 17:0 
0 2 2 2 2 2 2 2 0 1:2 2:2.7272727 3:1 4:0 5:3 6:0 7:30 8:0.090909091 9:1 10:0 11:0 12:0 13:1 14:5 15:0 16:11 17:0 
0 2 0 0 0 0 2 0 0.66498735099920459 1:5 2:2.7692308 3:2 4:0 5:4 6:0 7:36 8:0.15384615 9:0 10:0 11:0 12:0 13:2 14:13 15:0 16:13 17:1 
0.28238847010897927 2 2 2 0 2 2 2 0 1:4 2:3 3:2 4:0 5:3 6:1 7:33 8:0.090909091 9:0 10:0 11:0 12:0 13:1 14:5 15:0 16:11 17:0 
0 0 0 0 0 0 2 0 0 1:2 2:2.2727273 3:0 4:0 5:3 6:0 7:25 8:0.090909091 9:0 10:0 11:0 12:0 13:1 14:11 15:0 16:11 17:2 
2 2 2 2 2 2 2 2 2 1:5 2:3.3 3:1 4:0 5:1 6:1 7:33 8:0 9:0 10:0 11:0 12:0 13:0 14:10 15:0 16:10 17:0 
2 2 2 0 2 2 2 2 2 1:1 2:2.3333333 3:0 4:0 5:1 6:2 7:14 8:0 9:1 10:0 11:0 12:0 13:0 14:6 15:0 16:6 17:0 
0 2 2 0 2 2 2 2 0 1:3 2:2.5833333 3:1 4:1 5:2 6:0 7:31 8:0.083333333 9:1 10:0 11:0 12:0 13:1 14:11 15:0 16:12 17:0 
2 2 2 2 2 2 2 2 2 1:10 2:2.875 3:1 4:2 5:5 6:1 7:69 8:0.083333333 9:1 10:0 11:0 12:0 13:2 14:7.3333333 15:0 16:24 17:2 
2 2 0 2 2 2 2 2 2 1:14 2:2.9333333 3:1 4:0 5:8 6:1 7:88 8:0.13333333 9:2 10:0 11:0 12:0 13:4 14:5.2 15:0 16:30 17:1 
0 2 2 0 0 2 2 0 0 1:2 2:3.4 3:1 4:0 5:1 6:0 7:17 8:0 9:1 10:0 11:0 12:0 13:0 14:5 15:0 16:5 17:0 
2 0 2 0 2 0 2 0 2 1:1 2:2.125 3:0 4:0 5:1 6:0 7:17 8:0 9:1 10:0 11:0 12:0 13:0 14:8 15:1 16:8 17:0 
2 2 2 2 2 2 2 2 2 1:6 2:3.2142857 3:0 4:0 5:3 6:1 7:45 8:0.071428571 9:2 10:0 11:0 12:0 13:1 14:6.5 15:0 16:14 17:1 
2 2 2 2 2 0 2 0 2 1:6 2:2.8571429 3:4 4:0 5:3 6:0 7:60 8:0.095238095 9:1 10:0 11:0 12:0 13:2 14:20 15:0 16:21 17:0 
2 2 2 1.2499824258975136 2 0 2 2 2 1:3 2:4.2 3:2 4:0 5:0 6:0 7:21 8:0.4 9:1 10:1 11:0 12:0 13:2 14:5 15:0 16:5 17:0 
0 0 0 0 0 0 2 0 0 1:1 2:2.2222222 3:0 4:0 5:1 6:0 7:20 8:0.11111111 9:1 10:0 11:0 12:0 13:1 14:9 15:0 16:9 17:1 
1.4322669536259913 2 2 0 2 2 2 2 0 1:1 2:1.8333333 3:0 4:1 5:1 6:0 7:11 8:0 9:0 10:0 11:0 12:0 13:0 14:6 15:0 16:6 17:0 
2 0 0 0 2 0 2 0 0 1:4 2:2.6923077 3:0 4:0 5:2 6:0 7:35 8:0.076923077 9:1 10:0 11:0 12:0 13:1 14:6 15:0 16:13 17:1 
0 2 2 0 0 2 2 0 2 1:1 2:3.3333333 3:1 4:0 5:1 6:0 7:10 8:0 9:0 10:0 11:0 12:0 13:0 14:3 15:0 16:3 17:0 
2 0 0 0 0 0 0 0 0 1:3 2:2.8 3:1 4:0 5:1 6:0 7:28 8:0 9:2 10:0 11:0 12:0 13:0 14:10 15:0 16:10 17:2 
2 0 0 2 2 2 2 0 0 1:9 2:2.40625 3:3 4:0 5:5 6:2 7:77 8:0.15625 9:2 10:0 11:0 12:0 13:5 14:10 15:0 16:32 17:0 
2 2 0 0 2 0 2 2 1.4543992406841766 1:0 2:1.25 3:0 4:0 5:0 6:0 7:5 8:0.75 9:0 10:0 11:0 12:0 13:3 14:0.33333333 15:0 16:4 17:0 
2 0 2 0 2 2 2 0 2 1:0 2:2 3:0 4:0 5:0 6:0 7:2 8:0 9:0 10:0 11:0 12:0 13:0 14:1 15:0 16:1 17:1 
2 2 2 2 2 2 2 2 2 1:11 2:3.1363636 3:1 4:2 5:2 6:0 7:69 8:0.090909091 9:2 10:0 11:0 12:0 13:2 14:10.5 15:0 16:22 17:0 
0 0 0 0 0 0.0057443693049267696 2 2 0 1:4 2:2.6666667 3:1 4:0 5:2 6:0 7:24 8:0.22222222 9:0 10:0 11:0 12:0 13:2 14:4 15:0 16:9 17:0 
2 2 2 2 2 2 2 2 2 1:6 2:3.6 3:3 4:0 5:3 6:0 7:36 8:0 9:1 10:0 11:0 12:0 13:0 14:10 15:0 16:10 17:0 
2 2 2 2 2 2 2 2 2 1:11 2:2.5135135 3:2 4:0 5:6 6:2 7:93 8:0.081081081 9:2 10:0 11:0 12:0 13:3 14:37 15:0 16:37 17:1 
2 2 2 2 2 2 2 2 2 1:14 2:2.8484848 3:2 4:0 5:6 6:2 7:94 8:0.12121212 9:4 10:1 11:0 12:0 13:4 14:33 15:0 16:33 17:0 
2 2 2 2 2 0 2 2 2 1:8 2:2.46875 3:4 4:0 5:7 6:0 7:79 8:0.125 9:0 10:0 11:0 12:0 13:4 14:32 15:0 16:32 17:0 
2 2 0 2 2 2 2 2 2 1:11 2:2.78125 3:3 4:0 5:4 6:1 7:89 8:0.09375 9:3 10:0 11:0 12:0 13:3 14:7.25 15:0 16:32 17:1 
2 2 2 2 2 2 1.4063499331949385 2 2 1:10 2:2.7916667 3:1 4:0 5:3 6:2 7:67 8:0.041666667 9:5 10:0 11:0 12:0 13:1 14:23 15:0 16:24 17:0 
0 0 2 0 0 2 2 0 0 1:2 2:3.25 3:1 4:0 5:0 6:0 7:13 8:0 9:1 10:0 11:0 12:0 13:0 14:4 15:0 16:4 17:0 
0 2 2 0 0 2 2 2 2 1:3 2:2.75 3:0 4:0 5:4 6:0 7:22 8:0 9:1 10:0 11:0 12:0 13:0 14:8 15:0 16:8 17:0 
0 2 2 0 1.7844810578916392 2 2 0 2 1:1 2:2.6 3:0 4:0 5:1 6:0 7:13 8:0 9:2 10:0 11:0 12:0 13:0 14:5 15:0 16:5 17:0 
2 2 2 0 2 1.3178280285905994 2 2 2 1:1 2:2.25 3:0 4:0 5:0 6:0 7:9 8:0.25 9:0 10:0 11:0 12:0 13:1 14:4 15:0 16:4 17:0 
2 2 2 2 2 2 2 2 2 1:16 2:3.44 3:3 4:1 5:3 6:2 7:86 8:0.04 9:2 10:0 11:0 12:0 13:1 14:12 15:0 16:25 17:0 
2 2 0 2 2 0 2 0 2 1:5 2:2.5 3:1 4:0 5:4 6:0 7:50 8:0.1 9:2 10:0 11:0 12:0 13:2 14:19 15:0 16:20 17:1 
2 2 2 1.118380291492777 2 0 2 0 2 1:2 2:3.3333333 3:1 4:0 5:1 6:0 7:30 8:0 9:2 10:0 11:0 12:0 13:0 14:9 15:0 16:9 17:1 
2 2 2 0 2 2 2 0 2 1:1 2:4 3:0 4:0 5:0 6:1 7:4 8:0 9:0 10:0 11:0 12:0 13:0 14:1 15:0 16:1 17:0 
2 2 2 2 2 2 2 2 2 1:6 2:4.3333333 3:4 4:0 5:2 6:2 7:39 8:0.22222222 9:1 10:1 11:0 12:0 13:2 14:3.5 15:0 16:9 17:0 
0 0 0 0 0 0 2 0 2 1:2 2:2.8 3:0 4:0 5:1 6:0 7:14 8:0 9:0 10:0 11:0 12:0 13:0 14:5 15:0 16:5 17:1 
2 2 2 2 0 2 2 2 2 1:2 2:4.25 3:2 4:0 5:2 6:0 7:17 8:0 9:0 10:0 11:0 12:0 13:0 14:4 15:0 16:4 17:0 
4.1484312350962035e-05 2 0 0 0 0 2 0 0 1:4 2:2.8888889 3:1 4:0 5:2 6:0 7:26 8:0.11111111 9:1 10:0 11:0 12:0 13:1 14:9 15:0 16:9 17:1 
1.9609214745281114 0 0 0 0 0 2 2 0 1:2 2:2.5555556 3:2 4:0 5:2 6:0 7:23 8:0.55555556 9:1 10:0 11:0 12:0 13:5 14:1.25 15:0 16:9 17:0 
2 2 2 2 2 2 2 2 2 1:8 2:2.8181818 3:1 4:0 5:8 6:0 7:62 8:0.13636364 9:2 10:0 11:0 12:0 13:3 14:21 15:0 16:22 17:0 
2 2 0 0 2 0 2 1.6104531245430751 2 1:1 2:2.4 3:0 4:0 5:0 6:0 7:12 8:0.4 9:1 10:0 11:0 12:0 13:2 14:5 15:0 16:5 17:1 
2 2 2 2 2 2 2 2 2 1:9 2:2.7586207 3:2 4:0 5:4 6:0 7:80 8:0.068965517 9:3 10:0 11:0 12:0 13:2 14:13.5 15:0 16:29 17:0 
2 2 2 0 2 2 2 2 2 1:5 2:3.875 3:0 4:0 5:0 6:0 7:31 8:0.125 9:2 10:0 11:0 12:0 13:1 14:3.5 15:0 16:8 17:0 
1.2021248836989289 2 2 0 0 0 2 2 2 1:2 2:2.875 3:1 4:0 5:1 6:0 7:23 8:0.25 9:1 10:0 11:0 12:0 13:2 14:7 15:0 16:8 17:0 
0.00011071814895272065 2 2 0 0 2 2 0 2 1:2 2:3 3:0 4:0 5:1 6:0 7:9 8:0 9:1 10:0 11:0 12:0 13:0 14:3 15:0 16:3 17:0 
2 2 2 2 2 2 2 2 0 1:7 2:2.6363636 3:0 4:1 5:4 6:0 7:58 8:0.090909091 9:2 10:0 11:0 12:0 13:2 14:6.6666667 15:0 16:22 17:0 
2 2 2 2 2 2 2 2 2 1:4 2:3.2 3:0 4:0 5:3 6:1 7:32 8:0 9:2 10:0 11:0 12:0 13:0 14:10 15:0 16:10 17:0 
2 2 2 0 0 2 2 2 2 1:2 2:6 3:1 4:0 5:1 6:1 7:12 8:0 9:0 10:0 11:0 12:0 13:0 14:2 15:0 16:2 17:0 
2 2 2 0 2 2 2 2 2 1:5 2:3.5 3:1 4:0 5:2 6:2 7:35 8:0.2 9:1 10:0 11:0 12:0 13:2 14:4.5 15:0 16:10 17:0 
2 2 2 2 2 2 2 2 2 1:14 2:2.8787879 3:3 4:0 5:6 6:0 7:95 8:0.03030303 9:3 10:0 11:0 12:0 13:1 14:33 15:0 16:33 17:0 
2 2 0 2 2 2 2 0 2 1:12 2:3.0606061 3:6 4:0 5:5 6:0 7:101 8:0.15151515 9:5 10:2 11:0 12:0 13:5 14:10.333333 15:0 16:33 17:3 
0 2 0 0 0 2 2 2 0 1:5 2:3.3 3:1 4:0 5:1 6:0 7:33 8:0.1 9:2 10:0 11:0 12:0 13:1 14:4.5 15:0 16:10 17:0 
0 0 0 0 0 0 2 0 0 1:4 2:2.5 3:0 4:0 5:1 6:0 7:30 8:0.16666667 9:0 10:0 11:0 12:0 13:2 14:5 15:0 16:12 17:1 
0 0.013145815443906975 2 0 0 2 2 0 0 1:2 2:3.5 3:2 4:0 5:0 6:0 7:14 8:0 9:1 10:0 11:0 12:0 13:0 14:4 15:0 16:4 17:0 
2 2 2 0 2 2 2 0 2 1:1 2:3 3:0 4:0 5:0 6:0 7:6 8:0 9:0 10:0 11:0 12:0 13:0 14:2 15:0 16:2 17:0 
2 2 2 2 2 2 2 2 2 1:4 2:3.25 3:1 4:0 5:4 6:0 7:26 8:0 9:0 10:0 11:0 12:0 13:0 14:8 15:0 16:8 17:0 
2 2 2 2 2 2 0 2 2 1:8 2:2.7391304 3:0 4:0 5:3 6:0 7:63 8:0 9:3 10:0 11:0 12:0 13:0 14:23 15:0 16:23 17:1 
2 2 2 0 2 2 2 0 2 1:1 2:4 3:0 4:0 5:0 6:1 7:4 8:0 9:0 10:0 11:0 12:0 13:0 14:1 15:0 16:1 17:0 
2 2 2 2 2 2 2 2 2 1:5 2:3.75 3:1 4:0 5:2 6:1 7:30 8:0 9:2 10:0 11:0 12:0 13:0 14:8 15:0 16:8 17:0 
2 2 2 2 2 2 2 2 2 1:9 2:3 3:3 4:0 5:6 6:0 7:69 8:0.086956522 9:2 10:0 11:0 12:0 13:2 14:23 15:0 16:23 17:1 
2 0 0 0 0 0 2 0 0 1:2 2:2.5714286 3:1 4:0 5:1 6:0 7:18 8:0.28571429 9:0 10:0 11:0 12:0 13:2 14:7 15:0 16:7 17:1 
2 0 0 0 0 0 2 2 0 1:2 2:2.5555556 3:0 4:0 5:1 6:1 7:23 8:0.22222222 9:0 10:0 11:0 12:0 13:2 14:3.5 15:0 16:9 17:0 
2 1.1966104393778907 0 0 2 0 2 0 2 1:1 2:2.25 3:0 4:0 5:0 6:0 7:9 8:0.25 9:0 10:0 11:0 12:0 13:1 14:4 15:0 16:4 17:1 
0 2 2 2 0.00010487145053762119 2 2 2 0 1:4 2:3.1111111 3:1 4:0 5:3 6:0 7:28 8:0 9:0 10:0 11:0 12:0 13:0 14:9 15:0 16:9 17:0 
2 0 0 0 2 0 2 0 2 1:4 2:3.1538462 3:2 4:0 5:1 6:1 7:41 8:0.15384615 9:2 10:0 11:0 12:0 13:2 14:6 15:0 16:13 17:1 
0 2 2 0 0 2 2 0 0 1:2 2:2.3 3:0 4:0 5:3 6:0 7:23 8:0.1 9:1 10:0 11:0 12:0 13:1 14:10 15:0 16:10 17:0 
2 2 2 2 2 2 2 2 2 1:2 2:4 3:1 4:0 5:3 6:0 7:16 8:0 9:0 10:1 11:0 12:0 13:0 14:4 15:0 16:4 17:0 
2 2 2 2 2 2 2 2 2 1:15 2:3.3666667 3:6 4:0 5:7 6:1 7:101 8:0 9:1 10:0 11:0 12:0 13:0 14:30 15:0 16:30 17:1 
2 0 0 0 0 2 2 2 0 1:3 2:3 3:1 4:0 5:0 6:1 7:24 8:0.125 9:0 10:0 11:0 12:0 13:1 14:3.5 15:0 16:8 17:0 
2 2 0 2 2 2 2 0 2 1:9 2:2.8275862 3:1 4:0 5:5 6:2 7:82 8:0.10344828 9:5 10:0 11:0 12:0 13:3 14:9 15:0 16:29 17:3 
0 0 0 0 0 0 2 0 0 1:5 2:2.8181818 3:0 4:0 5:1 6:0 7:31 8:0.27272727 9:2 10:0 11:0 12:0 13:3 14:4.5 15:0 16:11 17:1 
2 2 2 0 0 0 2 0 2 1:3 2:3.5714286 3:1 4:0 5:1 6:0 7:25 8:0 9:0 10:0 11:0 12:0 13:0 14:7 15:0 16:7 17:1 
2 2 0 2 2 2 0 2 0 1:6 2:3 3:3 4:0 5:2 6:0 7:45 8:0.066666667 9:0 10:1 11:0 12:0 13:1 14:7 15:0 16:15 17:0 
0 2 2 0 0 2 2 0 0.77420897445056414 1:2 2:3 3:1 4:0 5:1 6:0 7:12 8:0 9:1 10:0 11:0 12:0 13:0 14:4 15:0 16:4 17:0 
1.2122912796472844 2 2 2 0.0019017790032256579 2 2 2 2 1:6 2:3.75 3:1 4:0 5:1 6:0 7:30 8:0 9:1 10:0 11:0 12:0 13:0 14:8 15:0 16:8 17:0 
2 2 2 2 2 2 2 2 2 1:6 2:4.5555556 3:4 4:0 5:2 6:0 7:41 8:0.11111111 9:1 10:1 11:0 12:0 13:1 14:4 15:0 16:9 17:0 
2 2 2 2 2 2 0.00025585373456415555 2 2 1:8 2:3.1666667 3:3 4:0 5:2 6:1 7:57 8:0.11111111 9:0 10:1 11:0 12:0 13:2 14:17 15:0 16:18 17:0 
2 2 2 0 0 0 2 2 0 1:2 2:2.8 3:0 4:0 5:0 6:0 7:14 8:0.2 9:2 10:0 11:0 12:0 13:1 14:5 15:0 16:5 17:0 
2 0 0 0 0 0 0 0 2 1:4 2:2.2857143 3:0 4:0 5:2 6:0 7:32 8:0.28571429 9:2 10:0 11:0 12:0 13:4 14:2 15:2 16:14 17:0 
2 0 0 0 0 0 0.53004653478376151 0 0 1:3 2:2.75 3:0 4:0 5:2 6:0 7:33 8:0.083333333 9:1 10:0 11:0 12:0 13:1 14:5.5 15:0 16:12 17:2 
2 2 2 0 2 2 2 2 2 1:2 2:3 3:0 4:0 5:2 6:0 7:18 8:0.16666667 9:0 10:0 11:0 12:0 13:1 14:2.5 15:0 16:6 17:0 
0 2 2 0 0 2 2 0 2 1:3 2:3.3333333 3:1 4:0 5:2 6:0 7:20 8:0 9:1 10:0 11:0 12:0 13:0 14:6 15:0 16:6 17:0 
2 1.7657262953429695 2 0 2 0 2 2 2 1:1 2:2.5 3:0 4:0 5:0 6:0 7:10 8:0.25 9:0 10:0 11:0 12:0 13:1 14:1.5 15:1 16:4 17:0 
2 2 2 2 2 2 2 2 2 1:0 2:1 3:0 4:1 5:0 6:0 7:1 8:0 9:0 10:0 11:0 12:0 13:0 14:1 15:0 16:1 17:0 
2 2 0 2 2 2 2 2 0 1:6 2:2.8235294 3:3 4:0 5:5 6:0 7:48 8:0.11764706 9:0 10:0 11:0 12:0 13:2 14:8 15:0 16:17 17:0 
2 2 2 2 2 2 2 2 2 1:9 2:2.7391304 3:1 4:0 5:6 6:3 7:63 8:0.086956522 9:0 10:0 11:0 12:0 13:2 14:22 15:0 16:23 17:0 
2 2 2 2 2 2 2 2 2 1:12 2:2.5384615 3:4 4:1 5:8 6:0 7:99 8:0.12820513 9:4 10:0 11:0 12:0 13:5 14:12 15:0 16:39 17:0 
2 2 2 2 2 2 2 2 2 1:12 2:3.375 3:5 4:1 5:5 6:1 7:81 8:0.041666667 9:1 10:0 11:0 12:0 13:1 14:11.5 15:0 16:24 17:1 
2 2 2 2 2 2 2 2 0 1:9 2:2.7826087 3:2 4:1 5:2 6:0 7:64 8:0.086956522 9:2 10:0 11:0 12:0 13:2 14:11 15:0 16:23 17:0 
0 0 0 0 0 0 2 0 0 1:2 2:2.2222222 3:0 4:0 5:2 6:0 7:20 8:0.11111111 9:0 10:0 11:0 12:0 13:1 14:4 15:0 16:9 17:1 
0 0 0 0 0 0 2 1.7198541199230686 0 1:5 2:3 3:0 4:0 5:0 6:0 7:27 8:0.22222222 9:2 10:0 11:0 12:0 13:2 14:3.5 15:0 16:9 17:0 
2 2 2 2 2 2 2 2 2 1:16 2:3.4666667 3:5 4:1 5:8 6:1 7:104 8:0 9:2 10:0 11:0 12:0 13:0 14:30 15:0 16:30 17:0 
2 2 2 0 0 2 2 1.002953320700404 2 1:5 2:3.1 3:1 4:0 5:1 6:1 7:31 8:0.2 9:2 10:0 11:0 12:0 13:2 14:9 15:0 16:10 17:0 
2 2 2 0 0.00013920779773205844 1.889043861437153 2 0 2 1:1 2:5 3:1 4:0 5:1 6:0 7:10 8:0 9:0 10:1 11:0 12:0 13:0 14:2 15:0 16:2 17:0 
2 2 2 0 2 2 2 0 2 1:1 2:2.75 3:0 4:0 5:0 6:0 7:11 8:0 9:0 10:0 11:0 12:0 13:0 14:4 15:0 16:4 17:0 
2 2 0 2 2 0 2 2 2 1:8 2:3 3:2 4:0 5:3 6:0 7:60 8:0.15 9:0 10:1 11:0 12:0 13:3 14:9 15:0 16:20 17:0 
0 2 2 0 0 2 2 2 2 1:2 2:2.6666667 3:1 4:0 5:3 6:0 7:24 8:0.11111111 9:2 10:0 11:0 12:0 13:1 14:9 15:0 16:9 17:0 
2 2 2 0 2 2 2 2 2 1:2 2:3.3333333 3:0 4:0 5:0 6:0 7:10 8:0.33333333 9:1 10:0 11:0 12:0 13:1 14:3 15:0 16:3 17:0 
2 2 2 0 0.022082886545795218 2 2 0.88809300199002483 0.013343573481635227 1:3 2:2.8571429 3:0 4:0 5:0 6:2 7:20 8:0 9:2 10:0 11:0 12:0 13:0 14:7 15:0 16:7 17:0 
2 2 2 0 2 2 2 2 2 1:3 2:3.125 3:2 4:0 5:1 6:2 7:25 8:0.25 9:0 10:1 11:0 12:0 13:2 14:8 15:0 16:8 17:0 
0 0 0 0 0 0 2 0 0 1:5 2:2.2105263 3:0 4:1 5:2 6:1 7:42 8:0.15789474 9:0 10:0 11:0 12:0 13:3 14:8.5 15:0 16:19 17:2 
2 2 2 2 2 0 0 0 2 1:4 2:3.1818182 3:1 4:0 5:1 6:0 7:35 8:0 9:3 10:1 11:1 12:0 13:0 14:11 15:0 16:11 17:2 
0 0 0 2 2 0 2 0 0 1:7 2:2.4 3:2 4:0 5:4 6:0 7:72 8:0.16666667 9:1 10:0 11:0 12:0 13:5 14:14.5 15:0 16:30 17:0 
2 2 2 2 2 2 2 2 2 1:12 2:3 3:3 4:1 5:5 6:0 7:90 8:0.066666667 9:3 10:0 11:0 12:0 13:2 14:14.5 15:0 16:30 17:1 
2 0 0 0 0 0 2 0 0 1:3 2:2.625 3:0 4:0 5:0 6:0 7:21 8:0.125 9:3 10:0 11:0 12:0 13:1 14:3.5 15:0 16:8 17:1 
0 2 2 0 0 2 2 2 2 1:4 2:3 3:1 4:0 5:3 6:0 7:30 8:0.2 9:3 10:0 11:0 12:0 13:2 14:4 15:0 16:10 17:0 
0 0 0 0 0 0 2 0 0 1:7 2:2.5294118 3:1 4:0 5:4 6:1 7:43 8:0.29411765 9:0 10:0 11:0 12:0 13:5 14:3.5 15:0 16:17 17:0 
0 2 2 0 0 2 2 0 0 1:4 2:2.6363636 3:0 4:0 5:1 6:0 7:29 8:0.090909091 9:2 10:0 11:0 12:0 13:1 14:10 15:0 16:11 17:0 
2 0.10686322983219396 0 0 2 2 2 0 2 1:6 2:3.4444444 3:0 4:0 5:1 6:1 7:31 8:0.11111111 9:2 10:0 11:0 12:0 13:1 14:4 15:0 16:9 17:1 
2 0 2 0 0 0 2 0 2 1:2 2:3.25 3:0 4:0 5:1 6:0 7:13 8:0 9:0 10:0 11:0 12:0 13:0 14:4 15:0 16:4 17:1 
2 2 2 0 0 0 2 0 2 1:3 2:5 3:2 4:0 5:1 6:0 7:20 8:0 9:0 10:0 11:0 12:0 13:0 14:4 15:0 16:4 17:1 
0.088567740065163644 2 0 0 0 0 2 0 0 1:4 2:2.3333333 3:0 4:0 5:5 6:0 7:35 8:0.066666667 9:0 10:0 11:0 12:0 13:1 14:15 15:0 16:15 17:2 
2 0 0 2 2 2 2 0 2 1:10 2:2.6666667 3:1 4:0 5:6 6:2 7:72 8:0.14814815 9:1 10:0 11:0 12:0 13:4 14:4.6 15:0 16:27 17:2 
2 2 2 2 2 2 2 2 2 1:0 2:2 3:0 4:0 5:0 6:0 7:4 8:0.5 9:0 10:0 11:0 12:0 13:1 14:2 15:0 16:2 17:0 
2 0 0 0 2 0 2 0 2 1:1 2:2.6 3:0 4:0 5:0 6:1 7:13 8:0.2 9:0 10:0 11:0 12:0 13:1 14:5 15:0 16:5 17:1 
0 2 2 0 0 2 2 0 0 1:2 2:2.2857143 3:0 4:0 5:1 6:0 7:16 8:0.14285714 9:1 10:0 11:0 12:0 13:1 14:7 15:0 16:7 17:0 
2 0 0 2 2 0 2 0 0.12309355202572762 1:8 2:2.516129 3:1 4:0 5:3 6:1 7:78 8:0.12903226 9:0 10:0 11:0 12:0 13:4 14:9.3333333 15:0 16:31 17:1 
0 2 2 0 0.0064613653676178669 2 2 0 2 1:1 2:3.6666667 3:0 4:0 5:0 6:0 7:11 8:0 9:1 10:0 11:0 12:0 13:0 14:3 15:0 16:3 17:0 
2 2 2 2 2 2 2 2 2 1:18 2:2.744186 3:3 4:0 5:9 6:0 7:118 8:0.069767442 9:4 10:0 11:0 12:0 13:3 14:21 15:0 16:43 17:0 
2 2 2 2 2 2 2 2 2 1:9 2:2.8666667 3:3 4:0 5:3 6:2 7:86 8:0.033333333 9:2 10:1 11:1 12:0 13:1 14:30 15:0 16:30 17:1 
1.9555352554059873 0 0 0 0 0 2 2 0 1:4 2:3.1111111 3:1 4:0 5:0 6:0 7:28 8:0.33333333 9:0 10:0 11:0 12:0 13:3 14:4 15:0 16:9 17:0 
2 2 0 2 2 0 2 2 2 1:9 2:2.6129032 3:0 4:0 5:5 6:1 7:81 8:0.12903226 9:1 10:0 11:0 12:0 13:4 14:15 15:0 16:31 17:1 
0 2 2 0 0 2 2 0 2 1:3 2:3.6 3:0 4:0 5:0 6:0 7:18 8:0 9:2 10:0 11:0 12:0 13:0 14:5 15:0 16:5 17:0 
0 0 0 0 2 0 2 2 2 1:7 2:3.0588235 3:3 4:0 5:4 6:0 7:52 8:0.29411765 9:2 10:0 11:0 12:0 13:5 14:5 15:0 16:17 17:0 
0 0 0 0 0 2 2 0 0 1:8 2:2.3478261 3:0 4:0 5:2 6:3 7:54 8:0.17391304 9:0 10:0 11:0 12:0 13:4 14:7 15:0 16:23 17:0 
2 2 0 0 2 2 1.0934040467756672 0 0 1:5 2:2.2857143 3:0 4:0 5:5 6:0 7:48 8:0.047619048 9:1 10:0 11:0 12:0 13:1 14:10 15:0 16:21 17:1 
0 0 0 0 2 0 2 0 2 1:3 2:2.8461538 3:1 4:0 5:2 6:0 7:37 8:0.23076923 9:0 10:1 11:0 12:0 13:3 14:6 15:0 16:13 17:1 
0 2 0 0 0 0 2 0 0 1:3 2:2.625 3:0 4:0 5:1 6:0 7:21 8:0.25 9:2 10:0 11:0 12:0 13:2 14:8 15:0 16:8 17:0 
2 2 2 2 2 2 2 2 2 1:10 2:3.5 3:5 4:0 5:5 6:2 7:70 8:0.05 9:0 10:0 11:0 12:0 13:1 14:9.5 15:0 16:20 17:0 
2 1.8615042756358089 0 0 2 0 2 2 0 1:1 2:2 3:0 4:0 5:0 6:0 7:12 8:0.33333333 9:1 10:0 11:0 12:0 13:2 14:6 15:0 16:6 17:0 
2 2 2 2 2 2 2 2 2 1:15 2:3.8 3:6 4:0 5:2 6:0 7:95 8:0.16 9:4 10:0 11:0 12:0 13:4 14:7.6666667 15:0 16:25 17:0 
0.45888315036592436 2 0 0 2 0 2 0 2 1:8 2:2.3030303 3:0 4:0 5:4 6:0 7:76 8:0.15151515 9:2 10:0 11:0 12:0 13:5 14:33 15:0 16:33 17:2 
2 2 2 2 2 2 2 2 2 1:10 2:2.3636364 3:0 4:1 5:8 6:0 7:78 8:0.03030303 9:1 10:0 11:0 12:0 13:1 14:33 15:0 16:33 17:0 
1.9845062108048881 2 2 0 0 0 2 0 2 1:2 2:6 3:1 4:0 5:1 6:0 7:12 8:0 9:0 10:0 11:0 12:0 13:0 14:2 15:0 16:2 17:0 
2 2 2 2 2 2 2 2 2 1:13 2:3.1851852 3:2 4:0 5:4 6:2 7:86 8:0.074074074 9:3 10:0 11:0 12:0 13:2 14:8.3333333 15:0 16:27 17:0 
2 0 0 0 2 0 0 0 2 1:6 2:2.6470588 3:0 4:0 5:2 6:0 7:45 8:0.11764706 9:1 10:0 11:0 12:0 13:2 14:8 15:1 16:17 17:1 
2 0 0 0 2 0 2 0 2 1:8 2:2.28125 3:0 4:0 5:5 6:1 7:73 8:0.1875 9:4 10:0 11:0 12:0 13:6 14:5.6 15:1 16:32 17:1 
0 0 2 0 0 2 2 0 0 1:3 2:2.8333333 3:0 4:0 5:0 6:1 7:17 8:0 9:1 10:0 11:0 12:0 13:0 14:6 15:0 16:6 17:0 
2 2 2 2 2 2 2 2 2 1:6 2:3.25 3:1 4:0 5:3 6:2 7:39 8:0 9:2 10:0 11:0 12:0 13:0 14:12 15:0 16:12 17:0 
2 0 0 0 2 0 2 0 2 1:6 2:2.7777778 3:0 4:0 5:1 6:0 7:50 8:0.16666667 9:2 10:0 11:0 12:0 13:3 14:18 15:0 16:18 17:2 
2 2 2 2 2 0 2 0 2 1:7 2:3.15 3:3 4:0 5:4 6:1 7:63 8:0.1 9:3 10:0 11:0 12:0 13:2 14:20 15:0 16:20 17:2 
2 2 2 2 2 2 2 2 2 1:5 2:3.6666667 3:2 4:1 5:3 6:0 7:33 8:0 9:1 10:1 11:0 12:0 13:0 14:9 15:0 16:9 17:0 
0.023440492769546076 0.65066457859836169 2 0 0.00070580460836840956 0 2 0 2 1:1 2:3 3:1 4:0 5:1 6:0 7:18 8:0 9:0 10:0 11:0 12:0 13:0 14:6 15:0 16:6 17:1 
0 2 2 0 0 2 2 0 0 1:1 2:2.5 3:1 4:0 5:1 6:0 7:10 8:0 9:0 10:0 11:0 12:0 13:0 14:4 15:0 16:4 17:0 
2 0 0 0 2 0 2 2 0 1:2 2:2.6666667 3:0 4:0 5:0 6:0 7:16 8:0.33333333 9:0 10:0 11:0 12:0 13:2 14:2 15:0 16:6 17:0 
2 0 0 0 0 0 2 0 0 1:3 2:2.8571429 3:0 4:0 5:1 6:0 7:20 8:0.28571429 9:0 10:0 11:0 12:0 13:2 14:2.5 15:0 16:7 17:1 
2 0 0 0 2 0 2 0 0 1:8 2:2.7727273 3:2 4:1 5:3 6:0 7:61 8:0.13636364 9:1 10:0 11:0 12:0 13:3 14:10 15:0 16:22 17:3 
2 0 0 0 2 0 0 0 0.0076514099704719221 1:4 2:2.7333333 3:2 4:0 5:2 6:2 7:41 8:0.13333333 9:1 10:1 11:0 12:0 13:2 14:4.3333333 15:0 16:15 17:2 
0 0 0 0 0 0 1.8778700806740449 0 0 1:3 2:2.5 3:1 4:0 5:0 6:0 7:25 8:0.2 9:0 10:0 11:0 12:0 13:2 14:10 15:0 16:10 17:2 
0 2 2 0 2 2 2 0 2 1:0 2:2.4 3:0 4:0 5:1 6:0 7:12 8:0 9:0 10:0 11:0 12:0 13:0 14:5 15:0 16:5 17:0 
2 2 2 2 2 0 0 0 2 1:5 2:3.1176471 3:3 4:0 5:0 6:0 7:53 8:0.11764706 9:1 10:2 11:0 12:0 13:2 14:8 15:0 16:17 17:0 
0 0 0 0 0 0 2 0 0 1:4 2:2.8 3:0 4:0 5:0 6:0 7:28 8:0.2 9:2 10:0 11:0 12:0 13:2 14:2.6666667 15:0 16:10 17:0 
0 2 2 2 0 0 2 0 2 1:3 2:3.2 3:3 4:0 5:2 6:0 7:32 8:0.1 9:1 10:0 11:0 12:0 13:1 14:10 15:0 16:10 17:0 
2 0 0 2 2 0 2 0 2 1:8 2:2.2954545 3:0 4:1 5:3 6:0 7:101 8:0.15909091 9:2 10:0 11:0 12:0 13:7 14:6.3333333 15:0 16:44 17:4 
2 2 2 2 2 2 2 2 2 1:12 2:3.1851852 3:3 4:0 5:6 6:1 7:86 8:0.074074074 9:2 10:0 11:0 12:0 13:2 14:27 15:0 16:27 17:1 
0 2 2 0 0 2 2 0 2 1:2 2:5 3:0 4:0 5:1 6:0 7:10 8:0 9:0 10:0 11:0 12:0 13:0 14:2 15:0 16:2 17:0 
0 2 2 0 2 2 2 2 0 1:3 2:2.7142857 3:0 4:1 5:1 6:0 7:19 8:0 9:2 10:0 11:0 12:0 13:0 14:7 15:0 16:7 17:0 
2 0 0 0 0 0 2 0 0 1:1 2:2.2222222 3:0 4:0 5:1 6:1 7:20 8:0.11111111 9:0 10:0 11:0 12:0 13:1 14:9 15:0 16:9 17:1 
2 2 2 0 9.0574816857966472e-05 2 2 0 2 1:2 2:3.6 3:1 4:0 5:0 6:1 7:18 8:0 9:0 10:0 11:0 12:0 13:0 14:5 15:0 16:5 17:0 
0 0 0 0 0 2 2 2 0 1:2 2:2.2857143 3:0 4:0 5:2 6:0 7:16 8:0.14285714 9:0 10:0 11:0 12:0 13:1 14:3 15:0 16:7 17:0 
2 2 0.51093741921478519 0 2 0 2 2 0 1:0 2:1.6666667 3:0 4:0 5:1 6:0 7:10 8:0.16666667 9:0 10:0 11:0 12:0 13:1 14:6 15:0 16:6 17:0 
2 2 2 0 2 1.7937482571409822 2 2 2 1:1 2:3 3:1 4:0 5:0 6:0 7:9 8:0.33333333 9:1 10:0 11:0 12:0 13:1 14:3 15:0 16:3 17:0 
0 1.4166049271959416 0 2 2 0 2 0 0 1:7 2:2.7 3:2 4:0 5:4 6:0 7:54 8:0.15 9:0 10:0 11:0 12:0 13:3 14:9.5 15:0 16:20 17:0 
2 2 0 2 2 2 2 2 2 1:13 2:2.4857143 3:2 4:0 5:6 6:2 7:87 8:0.085714286 9:4 10:0 11:0 12:0 13:3 14:16.5 15:0 16:35 17:0 
2 2 2 2 2 2 2 2 2 1:10 2:2.6756757 3:2 4:0 5:7 6:0 7:99 8:0.13513514 9:6 10:1 11:0 12:0 13:5 14:8.5 15:0 16:37 17:0 
1.3548670098986848 0 0 2 2 2 2 0 1.083115612988143 1:10 2:2.5517241 3:3 4:0 5:4 6:2 7:74 8:0.17241379 9:0 10:0 11:0 12:0 13:5 14:14 15:0 16:29 17:0 
2 2 2 2 2 2 2 0 2 1:10 2:2.5 3:2 4:0 5:5 6:0 7:70 8:0.10714286 9:2 10:0 11:0 12:0 13:3 14:28 15:0 16:28 17:0 
2 0 0 2 2 2 2 0 0.012680542194052111 1:9 2:2.5925926 3:4 4:0 5:3 6:3 7:70 8:0.14814815 9:1 10:1 11:0 12:0 13:4 14:13 15:0 16:27 17:0 
2 2 0 2 2 0 2 0 2 1:8 2:2.4814815 3:3 4:0 5:1 6:2 7:67 8:0.14814815 9:1 10:0 11:0 12:0 13:4 14:27 15:0 16:27 17:0 
2 2 2 2 2 2 2 0 2 1:8 2:2.5 3:5 4:1 5:3 6:1 7:70 8:0.14285714 9:0 10:2 11:0 12:0 13:4 14:28 15:0 16:28 17:0 
2 2 2 2 2 2 2 2 2 1:9 2:2.76 3:2 4:0 5:7 6:0 7:69 8:0.12 9:2 10:1 11:0 12:0 13:3 14:12 15:0 16:25 17:0 
0 2 2 0 0 0 2 0 0 1:1 2:2.4285714 3:1 4:0 5:1 6:0 7:17 8:0.14285714 9:1 10:0 11:0 12:0 13:1 14:6 15:0 16:7 17:0 
0 2 2 0 2 2 2 0 2 1:1 2:2.6666667 3:0 4:0 5:0 6:0 7:8 8:0 9:1 10:0 11:0 12:0 13:0 14:3 15:0 16:3 17:0 
2 2 0 2 2 2 2 2 2 1:11 2:2.7741935 3:3 4:0 5:8 6:0 7:86 8:0.096774194 9:3 10:0 11:0 12:0 13:3 14:9.6666667 15:0 16:31 17:1 
2 2 2 0 2 2 2 2 2 1:1 2:2.25 3:0 4:0 5:0 6:0 7:9 8:0.25 9:0 10:0 11:0 12:0 13:1 14:3 15:0 16:4 17:0 
2 2 2 2 2 2 2 2 2 1:15 2:3.5714286 3:4 4:0 5:5 6:1 7:100 8:0.035714286 9:2 10:0 11:0 12:0 13:1 14:13.5 15:0 16:28 17:0 
2 0 0 0 2 0 0 0 0 1:6 2:2.8125 3:0 4:0 5:1 6:0 7:45 8:0.125 9:2 10:0 11:0 12:0 13:2 14:7 15:0 16:16 17:2 
2 2 2 2 2 2 2 2 2 1:14 2:2.969697 3:4 4:0 5:8 6:2 7:98 8:0.12121212 9:2 10:0 11:0 12:0 13:4 14:33 15:0 16:33 17:1 
2 0 2 0 2 0 2 2 2 1:0 2:2 3:0 4:0 5:0 6:0 7:4 8:0 9:0 10:0 11:0 12:0 13:0 14:2 15:1 16:2 17:0 
2 1.1520377302969094 2 0 2 2 2 0.038703938453728631 2 1:0 2:1.6666667 3:0 4:0 5:0 6:1 7:5 8:0 9:0 10:0 11:0 12:0 13:0 14:3 15:0 16:3 17:0 
2 2 0 2 2 2 2 2 2 1:9 2:3.0454545 3:1 4:0 5:3 6:1 7:67 8:0.13636364 9:3 10:0 11:0 12:0 13:3 14:4.75 15:0 16:22 17:1 
0 0 0 0 0 0 2 0 0 1:4 2:2.2352941 3:1 4:0 5:3 6:0 7:38 8:0.23529412 9:0 10:0 11:0 12:0 13:4 14:17 15:0 16:17 17:0 
2 0 0 2 2 0 0 0 0 1:5 2:2.4333333 3:3 4:0 5:3 6:0 7:73 8:0.1 9:4 10:0 11:0 12:0 13:3 14:6.75 15:0 16:30 17:3 
2 2 2 2 2 2 2 2 2 1:0 2:2 3:0 4:0 5:0 6:0 7:4 8:0.5 9:0 10:0 11:0 12:0 13:1 14:2 15:0 16:2 17:0 
0 0 0 0 0 0 2 0 0 1:5 2:2.1428571 3:2 4:0 5:4 6:0 7:45 8:0.28571429 9:0 10:0 11:0 12:0 13:6 14:2.6666667 15:0 16:21 17:0 
0 2 2 0 0.0015014936668391687 2 2 0.10234703762201672 2 1:1 2:2.6666667 3:0 4:0 5:2 6:0 7:16 8:0 9:0 10:0 11:0 12:0 13:0 14:6 15:0 16:6 17:0 
2 2 2 2 2 2 2 2 0 1:1 2:3 3:1 4:1 5:0 6:0 7:12 8:0.25 9:0 10:0 11:0 12:0 13:1 14:3 15:0 16:4 17:0 
2 0.8349140541907426 0 0 2 0 2 0 2 1:1 2:2.2 3:0 4:0 5:1 6:0 7:11 8:0.2 9:0 10:0 11:0 12:0 13:1 14:5 15:0 16:5 17:1 
2 0.11958598272227684 0 2 2 2 2 2 0 1:8 2:2.4615385 3:0 4:0 5:5 6:1 7:64 8:0.11538462 9:0 10:0 11:0 12:0 13:3 14:8 15:0 16:26 17:0 
0 2 2 0 0 2 2 0 2 1:3 2:3.2857143 3:1 4:0 5:2 6:0 7:23 8:0 9:1 10:0 11:0 12:0 13:0 14:7 15:0 16:7 17:1 
2 2 2 0 0 0 2 0 2 1:2 2:3.5 3:1 4:0 5:2 6:0 7:21 8:0 9:1 10:0 11:0 12:0 13:0 14:6 15:0 16:6 17:1 
1.4583988962541394 0 0 0 0 0 2 0 2 1:3 2:2.7 3:0 4:0 5:1 6:0 7:27 8:0.2 9:0 10:0 11:0 12:0 13:2 14:10 15:0 16:10 17:2 
2 1.4464860649145024 0 2 2 2 0 0 0 1:7 2:2.7368421 3:1 4:0 5:2 6:0 7:52 8:0.052631579 9:3 10:0 11:0 12:0 13:1 14:9 15:0 16:19 17:1 
2 2 2 2 2 2 0.0075436534907771949 0 2 1:4 2:2.9230769 3:1 4:0 5:2 6:1 7:38 8:0 9:1 10:1 11:0 12:0 13:0 14:13 15:0 16:13 17:1 
0 2 2 0 2 2 2 0 0.006956069766087208 1:5 2:2.2272727 3:0 4:0 5:5 6:0 7:49 8:0.090909091 9:3 10:0 11:0 12:0 13:2 14:22 15:0 16:22 17:0 
2 2 2 0 2 2 2 2 2 1:2 2:2.8 3:0 4:0 5:2 6:1 7:14 8:0.2 9:0 10:0 11:0 12:0 13:1 14:2 15:0 16:5 17:0 
2 2 0 2 2 2 0 2 0 1:6 2:2.6666667 3:0 4:0 5:2 6:1 7:56 8:0.047619048 9:1 10:0 11:0 12:0 13:1 14:10 15:0 16:21 17:1 
2 0 0 0 0 0 2 0 0 1:2 2:2.2857143 3:0 4:0 5:1 6:0 7:16 8:0.28571429 9:0 10:0 11:0 12:0 13:2 14:6 15:0 16:7 17:1 
2 2 0 0 0.0027903416139577189 0 2 0 2 1:1 2:3 3:1 4:0 5:1 6:0 7:15 8:0.2 9:0 10:0 11:0 12:0 13:1 14:5 15:0 16:5 17:1 
0 2 2 0 0 2 2 2 0 1:2 2:2.4285714 3:0 4:0 5:2 6:0 7:17 8:0.14285714 9:0 10:0 11:0 12:0 13:1 14:6 15:0 16:7 17:0 
2 0 0 0 1.9080080417431928 0 2 0 2 1:1 2:2.5 3:0 4:0 5:0 6:0 7:10 8:0 9:1 10:0 11:0 12:0 13:0 14:4 15:0 16:4 17:1 
0.0053811898111878241 2 2 2 2 2 2 2 2 1:4 2:2.8333333 3:1 4:0 5:4 6:0 7:34 8:0 9:0 10:0 11:0 12:0 13:0 14:12 15:0 16:12 17:0 
2 2 2 0 0 2 2 0 2 1:2 2:4 3:0 4:0 5:0 6:1 7:12 8:0 9:1 10:0 11:0 12:0 13:0 14:3 15:0 16:3 17:0 
2 0 2 0 2 2 2 0 2 1:0 2:2 3:0 4:0 5:1 6:0 7:6 8:0 9:0 10:0 11:0 12:0 13:0 14:3 15:0 16:3 17:1 
0 0 0 0 0 2 2 2 0 1:2 2:2.2857143 3:0 4:0 5:2 6:0 7:16 8:0.14285714 9:0 10:0 11:0 12:0 13:1 14:3 15:0 16:7 17:0 
2 2 2 0 2 2 2 2 2 1:3 2:3 3:0 4:0 5:2 6:1 7:18 8:0 9:0 10:0 11:0 12:0 13:0 14:6 15:0 16:6 17:0 
0 0 0 0 0 0 2 0 0 1:4 2:2.35 3:1 4:0 5:5 6:1 7:47 8:0.2 9:1 10:0 11:0 12:0 13:4 14:9.5 15:0 16:20 17:0 
2 0 2 0 0 0 0 1.4799083461757578 2 1:5 2:2.3333333 3:0 4:0 5:3 6:0 7:35 8:0.2 9:0 10:0 11:0 12:0 13:3 14:7 15:2 16:15 17:0 
1.339354191138221 1.8892417293497579 2 0 0 2 2 0 2 1:1 2:4 3:0 4:0 5:0 6:0 7:4 8:0 9:1 10:0 11:0 12:0 13:0 14:1 15:0 16:1 17:0 
1.7665873726061367 0 2 0 0 2 2 0 2 1:1 2:4 3:0 4:0 5:0 6:0 7:4 8:0 9:0 10:0 11:0 12:0 13:0 14:1 15:0 16:1 17:0 
2 2 2 2 2 2 2 2 2 1:8 2:3.6111111 3:5 4:0 5:4 6:0 7:65 8:0.055555556 9:5 10:2 11:0 12:0 13:1 14:18 15:0 16:18 17:0 
2 2 2 2 2 2 2 2 2 1:15 2:3.1875 3:5 4:0 5:7 6:3 7:102 8:0.125 9:0 10:1 11:0 12:0 13:4 14:15.5 15:0 16:32 17:0 
2 2 2 0 2 2 2 0 2 1:1 2:4 3:0 4:0 5:0 6:1 7:4 8:0 9:0 10:0 11:0 12:0 13:0 14:1 15:0 16:1 17:0 
0 2 2 0 0 2 2 0 0 1:3 2:3.2 3:0 4:0 5:1 6:0 7:16 8:0 9:1 10:0 11:0 12:0 13:0 14:5 15:0 16:5 17:0 
2 0 0 0 0 0 2 0 2 1:2 2:3 3:0 4:0 5:0 6:0 7:15 8:0 9:1 10:0 11:0 12:0 13:0 14:5 15:0 16:5 17:1 
0 2 2 0 0.34442220072571433 2 2 2 0 1:4 2:2.8181818 3:0 4:0 5:2 6:0 7:31 8:0 9:1 10:0 11:0 12:0 13:0 14:11 15:0 16:11 17:0 
2 2 2 2 2 2 0.3232326763814487 0 2 1:7 2:3.4117647 3:3 4:0 5:2 6:1 7:58 8:0.058823529 9:4 10:0 11:0 12:0 13:1 14:17 15:0 16:17 17:1 
2 2 2 2 2 2 2 2 2 1:11 2:2.9166667 3:2 4:1 5:9 6:0 7:70 8:0.083333333 9:1 10:0 11:0 12:0 13:2 14:24 15:0 16:24 17:0 
2 0 0 0 0 0 0 0 2 1:5 2:2.5333333 3:0 4:0 5:2 6:1 7:38 8:0.2 9:1 10:0 11:0 12:0 13:3 14:4 15:1 16:15 17:1 
2 2 2 2 2 2 2 2 2 1:9 2:2.72 3:1 4:0 5:8 6:1 7:68 8:0 9:1 10:0 11:0 12:0 13:0 14:25 15:0 16:25 17:1 
2 0 2 0 2 0 2 0 2 1:0 2:2.25 3:0 4:0 5:1 6:0 7:9 8:0 9:0 10:0 11:0 12:0 13:0 14:4 15:0 16:4 17:1 
2 2 2 0 2 2 2 2 2 1:1 2:3.5 3:0 4:0 5:1 6:0 7:7 8:0 9:0 10:0 11:0 12:0 13:0 14:2 15:0 16:2 17:0 
0.10154686168235624 2 2 2 2 2 2 2 2 1:4 2:3.2727273 3:2 4:0 5:2 6:0 7:36 8:0.090909091 9:2 10:0 11:0 12:0 13:1 14:11 15:0 16:11 17:0 
2 2 2 2 2 2 2 2 2 1:12 2:3.1875 3:7 4:1 5:7 6:3 7:102 8:0.125 9:1 10:0 11:0 12:0 13:4 14:32 15:0 16:32 17:1 
0 0 0 0 0 0 2 0 0 1:4 2:2.1428571 3:0 4:0 5:1 6:0 7:45 8:0.23809524 9:2 10:0 11:0 12:0 13:5 14:9.5 15:0 16:21 17:3 
2 2 2 2 2 2 2 2 2 1:6 2:3.0833333 3:1 4:0 5:4 6:0 7:37 8:0.083333333 9:1 10:0 11:0 12:0 13:1 14:12 15:0 16:12 17:0 
2 2 2 0 2 2 2 0 2 1:1 2:4 3:0 4:0 5:0 6:1 7:4 8:0 9:0 10:0 11:0 12:0 13:0 14:1 15:0 16:1 17:0 
2 2 2 0 2 2 2 0 2 1:1 2:4 3:0 4:0 5:0 6:1 7:4 8:0 9:0 10:0 11:0 12:0 13:0 14:1 15:0 16:1 17:0 
2 0 0 0 0 0 2 0 2 1:1 2:2.8 3:1 4:0 5:1 6:0 7:14 8:0.2 9:0 10:0 11:0 12:0 13:1 14:5 15:0 16:5 17:2 
2 2 2 2 2 2 2 0 2 1:6 2:3.1666667 3:1 4:0 5:1 6:0 7:38 8:0.083333333 9:1 10:0 11:0 12:0 13:1 14:12 15:0 16:12 17:0 
2 2 2 2 2 2 0 2 2 1:8 2:3.7692308 3:2 4:0 5:2 6:0 7:49 8:0 9:2 10:1 11:0 12:0 13:0 14:13 15:0 16:13 17:0 
2 2 2 2 2 2 2 2 2 1:12 2:3 3:3 4:2 5:8 6:1 7:84 8:0.071428571 9:3 10:0 11:0 12:0 13:2 14:27 15:0 16:28 17:1 
2 2 2 2 2 2 2 2 2 1:8 2:2.5714286 3:0 4:1 5:6 6:0 7:90 8:0.085714286 9:2 10:0 11:0 12:0 13:3 14:8 15:0 16:35 17:1 
0 0 0 0 2 2 2 1.2934087990558651 0 1:10 2:2.5185185 3:0 4:0 5:4 6:0 7:68 8:0.14814815 9:3 10:0 11:0 12:0 13:4 14:13 15:0 16:27 17:0 
2 0 0 0 0 0 2 0 0 1:3 2:2.5 3:1 4:0 5:0 6:1 7:20 8:0.25 9:1 10:0 11:0 12:0 13:2 14:3.5 15:0 16:8 17:0 
2 2 0 2 2 2 2 1.7167026806708869 2 1:12 2:2.9393939 3:4 4:0 5:4 6:3 7:97 8:0.15151515 9:2 10:1 11:0 12:0 13:5 14:7.5 15:0 16:33 17:2 
0 2 2 0 0 2 2 2 2 1:4 2:3.2857143 3:0 4:0 5:2 6:0 7:23 8:0 9:1 10:0 11:0 12:0 13:0 14:7 15:0 16:7 17:0 
2 2 2 2 2 2 2 2 2 1:12 2:3.4 3:6 4:0 5:4 6:1 7:85 8:0.2 9:1 10:1 11:1 12:0 13:5 14:12 15:0 16:25 17:0 
2 2 2 2 2 2 2 2 2 1:6 2:3.8181818 3:3 4:0 5:4 6:2 7:42 8:0.090909091 9:0 10:0 11:0 12:0 13:1 14:11 15:0 16:11 17:0 
2 2 2 2 2 2 0 2 2 1:6 2:3.4166667 3:2 4:0 5:1 6:0 7:41 8:0.083333333 9:0 10:1 11:0 12:0 13:1 14:11 15:0 16:12 17:0 
2 2 2 0 0 2 2 2 2 1:2 2:4 3:1 4:0 5:1 6:1 7:16 8:0 9:1 10:0 11:0 12:0 13:0 14:4 15:0 16:4 17:0 
2 2 2 2 2 2 2 2 0 1:0 2:2.5 3:0 4:1 5:0 6:0 7:5 8:0 9:0 10:0 11:0 12:0 13:0 14:2 15:0 16:2 17:0 
0 2 2 0 2 2 2 0 2 1:0 2:2.4 3:0 4:0 5:1 6:0 7:12 8:0 9:0 10:0 11:0 12:0 13:0 14:5 15:0 16:5 17:0 
1.9997261774086896 1.9516716005586336 2 0 0 2 2 0 2 1:1 2:4 3:0 4:0 5:0 6:0 7:4 8:0 9:0 10:0 11:0 12:0 13:0 14:1 15:0 16:1 17:0 
0 2 2 2 0.50803439066176681 2 2 2 2 1:4 2:3.625 3:2 4:0 5:2 6:0 7:29 8:0 9:2 10:0 11:0 12:0 13:0 14:8 15:0 16:8 17:0 
0 0 0 0 0 0 2 0 0 1:4 2:2.5 3:0 4:0 5:3 6:0 7:40 8:0.25 9:1 10:0 11:0 12:0 13:4 14:7.5 15:0 16:16 17:0 
0 2 2 0 0 0 2 0 0 1:4 2:2.5833333 3:0 4:0 5:3 6:0 7:31 8:0.16666667 9:1 10:0 11:0 12:0 13:2 14:12 15:0 16:12 17:0 
0 0 2 0 0 0 2 0 0 1:1 2:7 3:1 4:0 5:0 6:0 7:7 8:0 9:0 10:0 11:0 12:0 13:0 14:1 15:0 16:1 17:0 
2 1.9832994782958007 2 0 2 2 2 0 2 1:1 2:2.5 3:0 4:0 5:0 6:0 7:5 8:0 9:1 10:0 11:0 12:0 13:0 14:2 15:0 16:2 17:0 
0 0 0 0 0 0 2 0 0 1:4 2:2.875 3:0 4:0 5:1 6:0 7:23 8:0.125 9:0 10:0 11:0 12:0 13:1 14:8 15:0 16:8 17:1 
2 2 2 2 2 2 2 2 2 1:10 2:3.0357143 3:2 4:1 5:4 6:0 7:85 8:0.10714286 9:1 10:0 11:0 12:0 13:3 14:8.6666667 15:0 16:28 17:0 
0 2 2 0 0 2 2 0 0 1:3 2:2.5833333 3:2 4:0 5:2 6:0 7:31 8:0.083333333 9:2 10:0 11:0 12:0 13:1 14:12 15:0 16:12 17:0 
2 2 2 2 2 2 2 2 2 1:1 2:2.5 3:0 4:0 5:0 6:1 7:5 8:0.5 9:0 10:0 11:0 12:0 13:1 14:2 15:0 16:2 17:0 
2 2 0 0 2 0 2 2 2 1:0 2:1.5 3:0 4:0 5:0 6:0 7:3 8:0.5 9:0 10:0 11:0 12:0 13:1 14:2 15:0 16:2 17:1 
2 2 2 0 2 0 2 2 2 1:2 2:3.3333333 3:0 4:0 5:0 6:0 7:10 8:0.33333333 9:0 10:0 11:0 12:0 13:1 14:3 15:0 16:3 17:0 
2 2 2 2 2 2 2 2 2 1:6 2:3.1111111 3:2 4:0 5:5 6:0 7:56 8:0.11111111 9:1 10:1 11:0 12:0 13:2 14:8 15:0 16:18 17:0 
0 0 0 0 0 0 2 0 0 1:2 2:2.4444444 3:2 4:0 5:1 6:0 7:22 8:0 9:0 10:0 11:0 12:0 13:0 14:9 15:0 16:9 17:1 
2 2 0 0 2 0 2 2 2 1:1 2:2 3:1 4:0 5:0 6:1 7:10 8:0.8 9:0 10:0 11:0 12:0 13:4 14:5 15:0 16:5 17:0 
2 2 2 2 2 2 2 2 2 1:11 2:2.6470588 3:2 4:1 5:6 6:2 7:90 8:0.058823529 9:1 10:0 11:0 12:0 13:2 14:34 15:0 16:34 17:1 
2 2 2 2 2 2 0.11042770076887957 2 2 1:6 2:3.6666667 3:4 4:0 5:2 6:0 7:44 8:0 9:1 10:0 11:0 12:0 13:0 14:12 15:0 16:12 17:0 
2 0 0 0 0 0 2 0 2 1:2 2:4 3:1 4:0 5:0 6:1 7:12 8:0 9:0 10:0 11:0 12:0 13:0 14:3 15:0 16:3 17:1 
2 0 0 0 2 2 2 2 0 1:2 2:2.6 3:1 4:0 5:1 6:3 7:26 8:0.2 9:0 10:0 11:0 12:0 13:2 14:4.5 15:0 16:10 17:0 
2 0 0 2 2 2 2 0 0.01805137434602706 1:8 2:2.9473684 3:3 4:0 5:4 6:1 7:56 8:0.15789474 9:0 10:0 11:0 12:0 13:3 14:5.3333333 15:0 16:19 17:1 
2 0 0 0 0 0 2 0 0 1:1 2:1.7142857 3:0 4:0 5:0 6:0 7:12 8:0.28571429 9:1 10:0 11:0 12:0 13:2 14:3 15:0 16:7 17:0 
0 0 0 0 0 2 2 2 0 1:5 2:2.75 3:1 4:0 5:2 6:1 7:33 8:0.16666667 9:0 10:0 11:0 12:0 13:2 14:5 15:0 16:12 17:0 
2 0 0 2 2 0 2 0 0.00022255457906761767 1:9 2:2.4166667 3:3 4:1 5:3 6:0 7:87 8:0.11111111 9:2 10:0 11:0 12:0 13:4 14:8.25 15:0 16:36 17:2 
2 2 2 2 2 2 2 0 2 1:5 2:3.4615385 3:4 4:0 5:3 6:0 7:45 8:0.076923077 9:2 10:1 11:0 12:0 13:1 14:6 15:0 16:13 17:1 
2 0 0 0 1.90024574268601 0 2 0 2 1:1 2:3 3:0 4:0 5:0 6:0 7:9 8:0 9:0 10:0 11:0 12:0 13:0 14:3 15:0 16:3 17:1 
2 2 2 2 2 2 2 2 0 1:1 2:3.3333333 3:1 4:1 5:0 6:1 7:10 8:0 9:0 10:0 11:0 12:0 13:0 14:3 15:0 16:3 17:0 
0 0 0 0 0 0 2 0 0 1:2 2:2.5 3:1 4:0 5:0 6:0 7:20 8:0.125 9:2 10:0 11:0 12:0 13:1 14:8 15:0 16:8 17:0 
2 2 2 0 2 2 2 2 2 1:1 2:2.25 3:0 4:0 5:1 6:1 7:9 8:0 9:0 10:0 11:0 12:0 13:0 14:4 15:0 16:4 17:0 
0 0 0 0 0 0 2 0 0 1:5 2:2.6666667 3:1 4:0 5:2 6:0 7:40 8:0.2 9:3 10:0 11:0 12:0 13:3 14:6.5 15:0 16:15 17:1 
2 2 2 2 2 2 2 2 2 1:3 2:3.4285714 3:2 4:0 5:2 6:2 7:24 8:0.14285714 9:0 10:0 11:0 12:0 13:1 14:7 15:0 16:7 17:0 
2 0.010981755520557383 0 2 2 2 0.0048813444294464152 2 0 1:7 2:2.8095238 3:2 4:0 5:1 6:1 7:59 8:0.095238095 9:3 10:0 11:0 12:0 13:2 14:6.3333333 15:0 16:21 17:0 
0 0 0 0 0 0 2 0 0 1:3 2:2.4545455 3:1 4:0 5:1 6:0 7:27 8:0.18181818 9:2 10:0 11:0 12:0 13:2 14:4.5 15:0 16:11 17:1 
0 0 0 0 2 0.3096223019661406 2 0 0 1:6 2:2.3 3:1 4:0 5:6 6:2 7:69 8:0.16666667 9:3 10:0 11:0 12:0 13:5 14:6.5 15:0 16:30 17:0 
2 2 2 2 2 2 2 1.9312335879463327 2 1:6 2:2.7727273 3:3 4:0 5:4 6:0 7:61 8:0.090909091 9:4 10:0 11:0 12:0 13:2 14:22 15:0 16:22 17:0 
0 2 2 0 2 2 2 2 2 1:5 2:2.8666667 3:1 4:0 5:3 6:1 7:43 8:0.13333333 9:2 10:0 11:0 12:0 13:2 14:15 15:0 16:15 17:0 
2 0 0 0 2 0 2 0 0 1:1 2:2.5 3:0 4:0 5:0 6:0 7:15 8:0.16666667 9:0 10:0 11:0 12:0 13:1 14:6 15:0 16:6 17:1 
2 2 0 0 2 0 2 0 2 1:8 2:2.5833333 3:1 4:0 5:1 6:1 7:62 8:0.125 9:4 10:0 11:0 12:0 13:3 14:24 15:0 16:24 17:1 
2 0 0 2 2 0 2 0 2 1:7 2:2.84 3:2 4:0 5:3 6:0 7:71 8:0.16 9:2 10:0 11:0 12:0 13:4 14:7.6666667 15:0 16:25 17:1 
2 2 2 2 2 2 2 0 2 1:6 2:3.6666667 3:2 4:0 5:1 6:1 7:33 8:0 9:1 10:0 11:0 12:0 13:0 14:9 15:0 16:9 17:1 
2 0 0 0 0 0 2 0 2 1:2 2:2.875 3:0 4:0 5:1 6:0 7:23 8:0.125 9:0 10:0 11:0 12:0 13:1 14:8 15:0 16:8 17:2 
2 2 2 0 0 2 2 2 2 1:4 2:3.1428571 3:1 4:0 5:2 6:0 7:22 8:0.28571429 9:2 10:0 11:0 12:0 13:2 14:7 15:0 16:7 17:0 
2 2 2 2 2 2 2 2 2 1:11 2:2.84375 3:3 4:0 5:8 6:0 7:91 8:0.09375 9:4 10:0 11:0 12:0 13:3 14:9.6666667 15:0 16:32 17:1 
2 2 2 2 2 2 0 2 2 1:5 2:2.8235294 3:0 4:0 5:1 6:0 7:48 8:0 9:2 10:0 11:0 12:0 13:0 14:17 15:0 16:17 17:0 
0 0 0 0 0 0 2 0 0 1:2 2:1.75 3:0 4:0 5:0 6:0 7:21 8:0.33333333 9:1 10:0 11:0 12:0 13:4 14:2.25 15:0 16:12 17:1 
2 0.086758157600894212 0 2 2 0 2 0 0 1:5 2:2.4166667 3:1 4:0 5:5 6:1 7:58 8:0.083333333 9:1 10:0 11:0 12:0 13:2 14:11 15:0 16:24 17:1 
2 2 2 2 2 2 2 2 2 1:6 2:3.4444444 3:1 4:0 5:2 6:0 7:31 8:0.11111111 9:0 10:0 11:0 12:0 13:1 14:9 15:0 16:9 17:0 
2 0 0 0 0 0 2 2 0 1:1 2:2.5714286 3:1 4:0 5:0 6:0 7:18 8:0.28571429 9:0 10:0 11:0 12:0 13:2 14:3 15:0 16:7 17:0 
0 0 0 0 0 2 2 0 0 1:3 2:2.2857143 3:1 4:1 5:1 6:0 7:32 8:0.14285714 9:2 10:0 11:0 12:0 13:2 14:6 15:0 16:14 17:0 
2 2 2 0 2 2 2 2 2 1:2 2:2.5 3:0 4:0 5:2 6:1 7:15 8:0.33333333 9:0 10:0 11:0 12:0 13:2 14:5 15:0 16:6 17:0 
2 0 0 0 2 0 0 0 0 1:6 2:2.7058824 3:2 4:0 5:1 6:1 7:46 8:0.11764706 9:1 10:0 11:0 12:0 13:2 14:7.5 15:0 16:17 17:1 
0 2 2 0 0.09168429703207831 2 2 0 2 1:4 2:3.375 3:1 4:0 5:1 6:0 7:27 8:0 9:2 10:0 11:0 12:0 13:0 14:8 15:0 16:8 17:0 
2 2 2 2 2 2 0 2 2 1:8 2:3 3:0 4:0 5:3 6:1 7:48 8:0.0625 9:0 10:0 11:0 12:0 13:1 14:15 15:0 16:16 17:1 
2 2 2 2 2 2 2 0.01372011833985223 2 1:9 2:2.4814815 3:0 4:1 5:5 6:1 7:67 8:0.11111111 9:1 10:0 11:0 12:0 13:3 14:26 15:0 16:27 17:1 
2 2 2 2 2 2 2 2 2 1:11 2:3.12 3:4 4:2 5:3 6:1 7:78 8:0.12 9:1 10:1 11:0 12:0 13:3 14:7.6666667 15:0 16:25 17:0 
2 2 2 2 2 2 2 1.5776468381192643 2 1:8 2:3.625 3:2 4:0 5:2 6:1 7:58 8:0.1875 9:1 10:2 11:0 12:0 13:3 14:7 15:0 16:16 17:1 
